%YAML:1.0
my_svm: !!opencv-ml-svm
   svm_type: C_SVC
   kernel: { type:LINEAR }
   C: 1.0000000000000001e-01
   term_criteria: { epsilon:5.9999999413307137e-10, iterations:2147483647 }
   var_all: 4096
   var_count: 4096
   class_count: 2
   class_labels: !!opencv-matrix
      rows: 1
      cols: 2
      dt: i
      data: [ -1, 1 ]
   sv_total: 1
   support_vectors:
      - [ -5.10187410e-02, 3.62583320e-03, -1.29637290e-02,
          8.30317102e-03, -5.74949756e-03, -8.72114766e-03,
          7.52351526e-03, -1.54817654e-02, 1.26570836e-02,
          -7.49746803e-03, -8.70976504e-03, -1.09469180e-03,
          8.11253022e-03, 2.01977137e-03, -1.47610018e-02,
          -8.72655585e-03, -7.87307043e-03, -1.71667095e-02,
          -6.71145990e-02, -1.28606679e-02, -3.33753135e-03,
          1.32103134e-02, -2.58164592e-02, -2.52830684e-02,
          1.99972116e-03, -3.53736728e-02, -7.57898670e-03,
          -4.68935817e-02, -4.08911891e-02, -3.56624695e-03,
          3.59510332e-02, 0., -2.13226397e-02, -1.32207442e-02,
          -2.48148572e-02, -3.18037812e-03, -4.92177457e-02,
          -1.89182609e-02, -1.25042014e-02, -1.29309818e-02,
          1.16136409e-02, 1.60819292e-02, -1.91974118e-02,
          2.59044085e-04, -1.30960830e-02, 8.76544509e-03,
          -3.83815751e-03, 2.37437133e-02, 1.87570453e-02,
          5.58574591e-03, -1.81497242e-02, -2.25660261e-02,
          -1.95832681e-02, -1.01923821e-02, -5.00166193e-02,
          -3.18856537e-02, 2.03420850e-03, -3.97742214e-03,
          7.49702705e-03, -7.71041913e-03, -2.17041895e-02,
          -2.05709152e-02, -6.59287383e-04, 0., 5.43816900e-03,
          -5.82496822e-03, 4.55899909e-03, -1.65622705e-03,
          -7.45191239e-03, -1.60013214e-02, -7.32311979e-03,
          -9.76591557e-03, 2.75055190e-05, 7.68041098e-03,
          2.67757452e-03, -1.23977999e-03, -9.72401467e-04,
          2.65084431e-02, 1.13208417e-03, 1.86791681e-02, 4.17317972e-02,
          2.87134908e-02, 1.71118602e-02, -1.05881980e-02,
          -5.30287856e-03, 1.43096826e-04, 2.92757992e-03,
          -7.35108834e-03, 1.74161396e-05, 1.20456675e-02,
          1.73768736e-02, -2.05658289e-04, -1.08306361e-02,
          2.97514461e-02, 2.22551618e-02, 0., 4.08572698e-04,
          -6.91423519e-03, 1.27434274e-02, 7.89176486e-03,
          1.65557545e-02, -2.73699872e-02, 4.87617031e-03,
          7.50215771e-03, 1.49713540e-02, 1.57987531e-02,
          -5.69535559e-03, 1.84536539e-02, 3.66917662e-02,
          3.10474448e-02, 4.03687321e-02, -4.51515056e-03,
          2.46231798e-02, 4.67525423e-02, 2.27618590e-03,
          -1.27875190e-02, 1.77680366e-02, 2.71836743e-02,
          1.07695702e-02, 6.70529727e-04, -8.47951975e-03,
          -5.44638424e-05, 3.54150981e-02, 2.13142261e-02,
          1.40616680e-02, 3.84030007e-02, 3.66185196e-02, 0.,
          1.39215561e-02, 2.17396002e-02, -1.18439989e-02,
          1.42939994e-02, -4.19039791e-03, -8.74284282e-03,
          5.61969588e-03, 3.79454792e-02, 1.43977413e-02, 5.66463033e-03,
          1.18543534e-02, 5.43364324e-03, -8.05393606e-03,
          1.78281199e-02, 1.48386052e-02, 2.91890241e-02, 3.87971029e-02,
          4.42875139e-02, 1.62970461e-02, 2.17280891e-02,
          -7.50957150e-03, 6.97239907e-03, -8.61939043e-03,
          -3.53368069e-03, 2.68574636e-02, 4.04555723e-02,
          4.61774878e-02, 3.26492377e-02, 3.23761404e-02, 2.76724771e-02,
          2.18428615e-02, 0., 3.30282003e-03, 1.04235271e-02,
          -5.62447496e-03, 9.52344295e-03, 4.20177495e-03,
          -3.11061461e-03, 7.22436234e-03, 1.95305049e-02,
          -1.03839778e-03, -4.41907756e-02, 1.02306781e-02,
          3.43066119e-02, 2.11645328e-02, 7.60504929e-03, 1.07920896e-02,
          1.99731085e-02, -8.26717727e-03, 1.84588209e-02,
          2.13918320e-04, 6.80294028e-03, 1.41425235e-02, 1.80552509e-02,
          7.26917246e-03, -3.16915335e-03, 9.57524870e-03,
          5.40998299e-04, 1.01656988e-02, 1.35430936e-02, 1.82407033e-02,
          2.48005036e-02, -2.60622660e-03, 0., -1.56511478e-02,
          -3.48730618e-03, 1.03255296e-02, -1.97076844e-03,
          -4.24526893e-02, -2.69945171e-02, -1.24637736e-02,
          -3.50380526e-03, 1.55728897e-02, -4.74752076e-02,
          1.76971164e-02, 3.05136722e-02, 3.35628502e-02, 1.12274373e-02,
          -7.53979431e-03, 3.66122741e-03, -6.36075577e-03,
          -3.17294113e-02, -4.43557240e-02, 3.90092260e-03,
          2.13973485e-02, 6.45874022e-03, -2.27647331e-02,
          -3.76682803e-02, -6.01583952e-03, -1.50712384e-02,
          -1.02304164e-02, -1.83361620e-02, -1.22280447e-02,
          5.54823600e-05, -5.82133746e-03, 0., 2.24438310e-02,
          -9.98971285e-04, -3.79443802e-02, -4.60372400e-03,
          -1.72906872e-02, 1.40673397e-02, -1.63916331e-02,
          8.02331977e-03, 1.69259440e-02, -5.96233420e-02,
          -1.17172059e-02, 1.18538109e-03, 3.28204921e-03,
          1.03606535e-02, 2.04047784e-02, 1.08679766e-02, 3.07476218e-03,
          -9.39859427e-04, -4.27819081e-02, -1.83447134e-02,
          -4.06540483e-02, -9.88329947e-03, -1.25857070e-02,
          1.50420107e-02, -9.60412202e-04, 1.78434178e-02,
          2.40557268e-03, 8.76876619e-03, 1.81612335e-02,
          -2.24516802e-02, -2.28034090e-02, 0., -6.08695811e-03,
          -2.13505402e-02, -4.11863215e-02, -5.96278254e-03,
          2.41098879e-03, 9.58734937e-03, 9.02899727e-03, 2.75299884e-03,
          3.51688378e-02, 1.09622600e-02, -1.06925415e-02,
          -1.43859740e-02, -1.05091594e-02, -7.07045989e-03,
          -1.65806040e-02, 1.25828851e-02, 2.03572884e-02,
          -5.12105133e-03, -2.30868254e-02, -3.28635089e-02,
          -3.89379598e-02, -1.42826168e-02, -1.86631847e-02,
          -1.15452427e-03, 4.61376412e-03, 1.65770780e-02,
          3.39527428e-02, -1.09599251e-02, -4.08380106e-02,
          1.35755790e-02, 2.12072693e-02, 0., -1.58698205e-02,
          -3.08896657e-02, -4.14097384e-02, -1.30628422e-02,
          6.71962323e-03, 1.29874302e-02, 2.38844417e-02, 1.98200699e-02,
          2.91572791e-02, -2.22702976e-03, -9.43738688e-03,
          -5.15368022e-03, -6.87397318e-03, -1.06797740e-02,
          -6.03176141e-03, 3.24900984e-03, 1.63678769e-02,
          -1.22639639e-02, -4.36636899e-03, -2.49951649e-02,
          -2.80423146e-02, -1.46749802e-02, -9.22158733e-03,
          1.41583267e-03, 1.53048141e-02, 2.17893403e-02, 1.38654774e-02,
          1.69783346e-02, -1.70710124e-02, 3.35503207e-03,
          -2.29262896e-02, 0., 3.29670962e-03, 2.89661664e-04,
          9.71852522e-03, 1.23257888e-02, 2.83185416e-03,
          -1.35419639e-02, -4.52597952e-03, 2.42829025e-02,
          3.13149951e-02, 1.27562461e-02, 6.63805613e-03,
          -1.04762092e-02, -1.17807807e-02, -1.74806193e-02,
          7.51072960e-03, 1.63439028e-02, 2.79383697e-02, 4.21140157e-06,
          2.27350723e-02, 5.71489241e-03, -5.90467220e-03,
          7.76603678e-03, -1.10759353e-02, -1.02039585e-02,
          7.26371596e-04, 4.42164615e-02, 2.19718479e-02, 2.98609138e-02,
          -2.75877770e-02, 4.26715538e-02, 9.91536654e-04, 0.,
          1.54042123e-02, -8.39229487e-03, -2.63358653e-02,
          -3.09613980e-02, -3.48511972e-02, -6.03606626e-02,
          -1.66307036e-02, 2.78105196e-02, 4.45348471e-02,
          5.93868606e-02, 2.52470374e-02, -1.29959090e-02,
          -2.49947924e-02, -5.38292937e-02, -3.36559527e-02,
          9.76119656e-03, 2.23573651e-02, 2.98371240e-02, 5.18773943e-02,
          5.49325161e-03, -3.48201990e-02, -5.14007993e-02,
          -8.41329917e-02, -1.00070998e-01, -2.72682570e-02,
          2.18356419e-02, 4.44361605e-02, 2.21789218e-02,
          -4.95896377e-02, 3.26582380e-02, -3.76180448e-02, 0.,
          3.03762909e-02, 2.07713246e-02, 1.95536371e-02, 4.08190157e-04,
          -3.34769934e-02, -6.35615513e-02, -3.59028876e-02,
          -4.34343936e-03, -6.63821958e-03, 3.84926982e-02,
          2.13060677e-02, -9.94000118e-04, -6.37816451e-03,
          -2.38676760e-02, -3.83455604e-02, -1.13708097e-02,
          3.78112611e-03, 4.22295481e-02, 4.68340218e-02, 3.12401205e-02,
          7.72498455e-03, -2.74359249e-02, -7.24176839e-02,
          -1.00809440e-01, -4.73104566e-02, -1.57949682e-02,
          1.93335041e-02, 2.03504637e-02, -3.86282913e-02,
          3.97483297e-02, -4.40790392e-02, 0., -4.41236747e-03,
          3.07710934e-02, 2.94695999e-02, 2.66875047e-02, 1.95893478e-02,
          -1.55813247e-02, -8.02447740e-03, 9.78776067e-03,
          -2.28404831e-02, -2.34341063e-02, -1.07293399e-02,
          3.31241600e-02, 1.08692776e-02, 1.96833741e-02, 1.47871841e-02,
          2.81085894e-02, 4.61197551e-03, -4.62043425e-03,
          -2.18015257e-03, 1.87633187e-02, 4.85555939e-02,
          7.47375470e-03, 1.79270729e-02, -1.00565450e-02,
          1.96684003e-02, -1.07257618e-02, -2.21918430e-02,
          3.46534327e-02, -1.52274538e-02, 4.79964428e-02,
          -2.44118995e-03, 0., -6.55516936e-03, 4.78139089e-04,
          -5.94806625e-03, 6.18430600e-03, 3.77115165e-03,
          1.32984901e-02, -1.86762698e-02, -2.42803376e-02,
          2.69157835e-03, -1.00820689e-02, -1.70170777e-02,
          3.18767019e-02, 1.08720139e-02, 1.59335844e-02, 2.17873952e-03,
          3.52012180e-03, -2.69560535e-02, -4.14830633e-02,
          -5.76853938e-03, -1.33082066e-02, 1.50804128e-02,
          9.37731564e-03, 5.07455319e-03, -7.03068310e-03,
          -1.18612116e-02, -2.65010614e-02, -2.12784391e-02,
          -5.92003576e-03, -3.28272246e-02, 2.48295330e-02,
          -1.44573869e-02, 0., 3.43273021e-02, -3.52843734e-03,
          -2.13319287e-02, -1.66215387e-03, 6.73571927e-03,
          -4.86616557e-03, 1.83573347e-02, -1.05128810e-02,
          7.36961560e-03, -3.83757874e-02, -2.26029437e-02,
          1.24912988e-02, -1.33535615e-03, 1.31714866e-02,
          7.51732569e-03, 1.21737747e-02, -1.31023698e-03,
          1.22091398e-02, -1.04803275e-02, -3.45394015e-03,
          -1.05424430e-02, -9.72146634e-03, 7.33233429e-03,
          -1.56204225e-02, 1.67214889e-02, -1.16338218e-02,
          2.91445968e-03, 2.84248348e-02, 5.71995554e-03, 2.49883067e-03,
          -2.77685262e-02, 0., 1.28342975e-02, 6.38630101e-03,
          -1.18808374e-02, 2.67084036e-02, 1.38038499e-02,
          -3.19231339e-02, -1.39289629e-02, 7.65527890e-04,
          3.71064842e-02, 2.88016070e-02, 1.96883269e-02,
          -2.38920916e-02, -1.11071384e-02, -2.58285534e-02,
          -2.93418784e-02, -4.58858050e-02, 1.25101656e-02,
          -9.24915541e-03, 9.99913434e-04, 9.91100445e-03,
          -3.71927992e-02, 9.02505312e-03, -3.47777233e-02,
          -5.73667847e-02, -5.72746806e-02, 7.98553415e-03,
          1.85584482e-02, 2.85744877e-03, -2.44574733e-02,
          -1.40595913e-03, 2.06045620e-03, 0., 1.25386128e-02,
          1.13744130e-02, -2.50631478e-02, -9.62045975e-03,
          2.04682387e-02, -2.19868198e-02, 8.86987895e-03,
          2.84708710e-03, 4.00181822e-02, 1.09750116e-02, 1.54079711e-02,
          3.68979410e-03, 2.37157810e-02, 1.01892352e-02,
          -2.20989306e-02, -3.33395936e-02, -4.28013690e-03,
          -1.47623557e-03, 1.77449863e-02, 2.79289726e-02,
          -1.41949498e-03, 9.25058592e-03, 3.60638922e-04,
          -2.09793020e-02, -2.85699572e-02, -6.45065261e-03,
          2.64511537e-02, 3.32499519e-02, 1.51774625e-03, 6.58053858e-03,
          -2.14415379e-02, 0., 2.29446758e-02, -8.96405894e-04,
          -1.03820097e-02, -2.90233009e-02, -8.67584907e-03,
          -4.06649299e-02, -9.84848302e-05, -6.15072530e-03,
          1.80140208e-03, -1.84707437e-02, -2.99869273e-02,
          1.00052934e-02, 3.26270685e-02, 2.20920220e-02,
          -3.65803018e-03, 3.91409406e-03, -2.88448669e-03,
          1.94582995e-03, -1.63383819e-02, -1.14950156e-02,
          -4.60413331e-03, -1.57441385e-02, 9.36922804e-03,
          -3.17221582e-02, -1.98175758e-03, -9.63579491e-03,
          -3.02720146e-04, 2.05330905e-02, -2.59847846e-02,
          9.42783616e-03, -3.01678348e-02, 0., 1.61577221e-02,
          -3.62547897e-02, -4.11289409e-02, -2.82683484e-02,
          -3.05137932e-02, -1.40685020e-02, 1.96144916e-03,
          -2.83547714e-02, -2.96765063e-02, -2.95216013e-02,
          -5.83859980e-02, -2.87630279e-02, -1.29810430e-03,
          -1.62916332e-02, -6.15884364e-02, -4.43500355e-02,
          -1.73725262e-02, -1.21211400e-02, -2.23031305e-02,
          -7.66350776e-02, -7.05971867e-02, -4.97389771e-02,
          -4.26679924e-02, -6.97660372e-02, -3.38877514e-02,
          -4.03749272e-02, -4.35648970e-02, -2.63052806e-02,
          -9.04490426e-02, -2.21254174e-02, -7.78883547e-02, 0.,
          -6.07681274e-02, -4.96786311e-02, -3.51938531e-02,
          -7.87694566e-03, -1.71056148e-02, -6.32975996e-02,
          -7.58414948e-03, -2.35060491e-02, -3.75454240e-02,
          -7.90593680e-03, -1.60162970e-02, -4.78657335e-02,
          -4.83682267e-02, -1.48909660e-02, -3.22073326e-02,
          -2.51806304e-02, -3.66521291e-02, -3.12334690e-02,
          -5.11440337e-02, -5.87770045e-02, -6.17628098e-02,
          -5.40697910e-02, -3.66825685e-02, -8.09383914e-02,
          -3.84457856e-02, -6.59538209e-02, -5.71334846e-02,
          -4.61452641e-02, -1.06977083e-01, -2.41963994e-02,
          -8.80215168e-02, 0., -2.39245798e-02, 8.57286621e-03,
          1.90449471e-03, -2.14350014e-03, -8.23601708e-03,
          -2.78336685e-02, -3.11545003e-02, -5.93361026e-03,
          -3.17771733e-02, -1.13317166e-02, -7.84605928e-03,
          1.55747132e-02, -1.19315628e-02, 2.90683862e-02,
          1.94498096e-02, 2.79926565e-02, 9.28562891e-04,
          -4.09118012e-02, -2.46400647e-02, -1.19860871e-02,
          1.38774542e-02, -1.20358262e-02, 9.30377375e-03,
          -5.68399718e-03, -7.53209041e-03, -1.18837757e-02,
          -3.62976193e-02, -2.54481123e-03, -5.05342595e-02,
          2.63497848e-02, -2.01904308e-02, 0., 8.13765638e-03,
          1.43093674e-03, -1.57315247e-02, -1.53771471e-02,
          -9.49233025e-03, 1.43065688e-03, -7.33952830e-03,
          -7.88000319e-03, 1.04184579e-02, 1.43719958e-02,
          -9.46288370e-03, 7.56322080e-03, -2.84756627e-02,
          -2.84087588e-03, 6.73845503e-03, 1.51146641e-02,
          -1.37032336e-02, -5.54670161e-03, 3.09305708e-03,
          -7.29011418e-03, -1.23994658e-02, -4.17850092e-02,
          -5.42240357e-03, -4.87876497e-03, 1.20884599e-02,
          -1.28309242e-02, 1.56014729e-02, 1.59229629e-03,
          -4.77985330e-02, 2.91122608e-02, -6.77953474e-03, 0.,
          3.35415788e-02, -1.29584651e-02, -1.99746229e-02,
          -9.11580492e-03, -2.34717708e-02, 9.45169851e-03,
          3.55856717e-02, 7.36952433e-03, 7.19150435e-03, 1.62577257e-02,
          -2.52771787e-02, -1.57205109e-02, -8.27565137e-03,
          2.37962487e-03, -2.22865529e-02, 1.27132544e-02,
          -1.97515674e-02, 3.48507501e-02, 1.97006688e-02,
          -1.69624276e-02, -3.52936797e-02, -3.59848253e-02,
          -1.46858776e-02, -1.38567397e-02, 3.36693116e-02,
          -1.57832429e-02, 3.86687927e-02, 2.30433680e-02,
          -6.13183854e-03, 1.24022514e-02, -2.81309336e-02, 0.,
          7.76885124e-03, 9.75662377e-03, -1.54755712e-02,
          -2.92468886e-03, -2.15550680e-02, -4.82704230e-02,
          -5.14660291e-02, -4.52478640e-02, 1.79288890e-02,
          5.09509910e-03, -5.49859740e-03, 2.87801940e-02,
          4.60734367e-02, 1.40408780e-02, 1.48326736e-02, 2.30601542e-02,
          1.12453829e-02, -1.90798622e-02, -5.61537407e-03,
          -6.81752805e-03, 3.58779263e-03, 1.52659286e-02,
          -1.70705710e-02, -3.05139329e-02, -3.29139419e-02,
          -1.97438579e-02, 8.18215404e-03, -7.38891726e-03,
          -6.38794294e-03, 3.91665613e-03, -4.72298311e-03, 0.,
          4.93497625e-02, 2.80400701e-02, -5.40322065e-02,
          -2.81175040e-02, -1.43039069e-04, -2.54848134e-02,
          -1.07040750e-02, -2.85194218e-02, 2.66532339e-02,
          5.33150323e-02, 4.03774083e-02, 1.72377769e-02, 2.78143268e-02,
          -9.08169802e-03, 2.04325505e-02, 5.37064206e-03,
          -8.11199099e-03, -1.37683179e-03, 6.14607930e-02,
          5.27730733e-02, -2.60885283e-02, 5.14473766e-03,
          -2.30092723e-02, -1.06141688e-02, -1.50672309e-02,
          -2.95259096e-02, 1.77199636e-02, 2.54312456e-02,
          2.60508098e-02, -3.08804610e-03, 1.69249295e-04, 0.,
          4.41338494e-02, -3.43756936e-03, -8.95806625e-02,
          -3.25189084e-02, 1.12462025e-02, -2.30348669e-04,
          2.24618800e-03, -2.36461647e-02, 1.72118992e-02,
          6.32446446e-03, -1.60625409e-02, -6.62617832e-02,
          -3.45948078e-02, -5.12735546e-02, 1.51848141e-02,
          4.26756442e-02, 1.18371584e-02, -1.32315699e-02,
          1.12915067e-02, 1.79107580e-02, -1.00505836e-01,
          -6.94059283e-02, -3.09266318e-02, 1.49598792e-02,
          3.66058461e-02, 3.46417679e-03, 3.41642611e-02,
          -2.75981743e-02, -1.49616869e-02, -2.01068278e-02,
          -2.21747924e-02, 0., 2.08504754e-03, -1.85946338e-02,
          -4.71637584e-02, -5.32617327e-03, 3.15037630e-02,
          2.59986017e-02, 9.77769215e-03, -3.77952419e-02,
          -3.91258225e-02, -2.75285635e-02, -3.17320079e-02,
          -4.20649871e-02, -4.13195156e-02, 1.61079410e-02,
          1.27763953e-02, -1.01895034e-02, -1.19050201e-02,
          2.54227463e-02, -3.97097394e-02, -4.34299856e-02,
          -7.24836513e-02, -4.80259210e-02, 3.01083587e-02,
          2.63527762e-02, -1.04723824e-02, -3.02626975e-02,
          -2.46494599e-02, -4.83950898e-02, -1.67230256e-02,
          -1.97190624e-02, -4.29185061e-03, 0., -3.14502828e-02,
          -6.95236400e-02, -5.47105148e-02, 1.10418499e-02,
          3.98026481e-02, 7.33292941e-03, 4.93277842e-03,
          -2.18358468e-02, 2.48800102e-03, 1.64599270e-02,
          -9.54083540e-03, -4.03855834e-03, -1.47084063e-02,
          3.05990428e-02, -8.03137105e-03, -4.35128771e-02,
          -5.75666353e-02, 1.86263886e-03, -2.88262647e-02,
          -6.36538938e-02, -3.16410474e-02, -1.55097758e-02,
          4.52721156e-02, 1.84938646e-04, -3.59229073e-02,
          -7.27318153e-02, -5.57136955e-03, -3.07728294e-02,
          -2.70207375e-02, -3.24025080e-02, -4.27208748e-03, 0.,
          4.02728096e-03, 2.64062453e-02, -1.70274563e-02,
          1.51299946e-02, 1.34849371e-02, -7.02406606e-03,
          7.76410289e-03, -6.01258427e-02, -9.52814065e-04,
          4.16830890e-02, -1.76155083e-02, 9.65886691e-04,
          3.36579643e-02, 9.67435166e-03, -4.79592346e-02,
          -3.02225295e-02, -5.50913624e-02, -2.63653155e-02,
          2.29272507e-02, 2.34103631e-02, -2.55179126e-03,
          3.23670283e-02, 1.96085274e-02, -4.73207459e-02,
          -3.39252390e-02, -9.03927460e-02, 8.58997367e-03,
          -1.45514486e-02, -2.60269064e-02, -3.87876108e-03,
          -7.20373914e-03, 0., 6.03061728e-02, 2.00515389e-02,
          -2.39330959e-02, -1.35129694e-05, 6.94908621e-03,
          -1.07666943e-02, -1.90224051e-02, -3.92665267e-02,
          4.06148322e-02, 6.94653913e-02, 1.87778734e-02, 6.24021934e-03,
          -7.30743259e-03, -4.48491517e-03, -3.58929411e-02,
          -1.80335448e-03, 1.91494543e-03, 2.90149059e-02,
          6.20049462e-02, 3.49555500e-02, -1.08522540e-02,
          -1.90431811e-02, 2.03877641e-03, -4.85639088e-02,
          -5.76445041e-03, -3.02846078e-02, 5.70734553e-02,
          7.90870097e-03, -6.94961986e-03, 3.25196870e-02,
          1.87731367e-02, 0., 1.42012481e-02, -8.72880686e-03,
          -3.32847722e-02, -2.56767049e-02, -8.97914544e-03,
          4.75154584e-03, -7.63909076e-04, -1.41602391e-02,
          7.76871154e-03, 6.47677574e-03, -2.08537672e-02,
          2.68137250e-02, 1.69235077e-02, -6.12319121e-03,
          -3.03182099e-02, 2.47981269e-02, 1.36318998e-02,
          2.57517993e-02, 1.38623849e-03, -1.11752423e-02,
          -4.52672830e-03, -2.21147556e-02, -1.09522352e-02,
          -1.93808917e-02, 1.23875253e-02, -3.28030554e-03,
          2.39271596e-02, 1.63317192e-02, -1.03216497e-02,
          1.16546394e-03, -1.08389799e-02, 0., 4.20594588e-03,
          -1.42472319e-03, 4.78556827e-02, 7.29125040e-03,
          3.37500460e-02, 1.10206595e-02, -5.35421725e-03,
          -2.27340814e-02, 1.46814939e-02, 2.82259174e-02,
          -2.83488166e-02, -6.99601043e-03, 7.58181000e-03,
          3.26220039e-03, 1.00223180e-02, -1.66836684e-03,
          -1.31503465e-02, -1.13402968e-02, -1.27022257e-02,
          -3.44580673e-02, 2.37233974e-02, 4.03667567e-03,
          2.43958775e-02, 4.23249369e-03, -7.09313387e-03,
          -1.60310585e-02, -2.21296726e-03, 6.32254966e-03,
          1.06674302e-02, 7.51708588e-03, 1.17343832e-02, 0.,
          3.48873362e-02, 2.54797447e-03, -2.18751524e-02,
          7.03803170e-03, 3.15172747e-02, 1.21974126e-02, 6.77993707e-03,
          2.16132984e-03, 2.47877203e-02, 8.08048341e-03,
          -3.85508239e-02, -3.86886075e-02, 1.36883613e-02,
          1.61331648e-03, 2.04980578e-02, 1.47285834e-02, 2.37483550e-02,
          -3.30245355e-04, 3.93232657e-03, -2.47297138e-02,
          -4.80105840e-02, 1.13687366e-02, 1.39985755e-02,
          1.73412133e-02, 2.78578606e-02, 2.16278788e-02, 1.51104191e-02,
          2.06223950e-02, 2.59394739e-02, 1.42086705e-03, 1.43381243e-03,
          0., 4.59954701e-02, -3.00070606e-02, -5.44358790e-02,
          2.18281467e-02, 3.12497430e-02, 4.38449234e-02, 1.27367638e-02,
          1.90325398e-02, 4.91751358e-02, 1.86065268e-02,
          -1.49696812e-01, -9.06232968e-02, -2.49860641e-02,
          1.14347236e-02, 3.09915598e-02, 4.16097268e-02,
          -8.11797567e-03, -4.41811420e-02, 8.50091572e-04,
          -8.48343372e-02, -8.59437212e-02, -1.49862459e-02,
          3.01597975e-02, 6.43702075e-02, 4.35481407e-02, 1.65856238e-02,
          1.59391314e-02, -3.35683823e-02, 3.14577599e-03,
          -9.73602571e-03, 4.54767747e-03, 0., -2.14945618e-03,
          -1.49873011e-02, -1.72133036e-02, -1.33017648e-03,
          2.21085325e-02, 1.74279027e-02, -2.39311531e-03,
          -3.32980137e-03, 5.59273846e-02, 4.64958884e-02,
          -3.23683545e-02, -1.72785632e-02, 2.17017066e-03,
          2.91502792e-02, 1.93387028e-02, 5.60565060e-03,
          -2.21846104e-02, -1.81327332e-02, -3.93102178e-03,
          -4.07973006e-02, -4.51175682e-02, -2.20354926e-02,
          2.75134817e-02, 3.00193392e-02, -9.33882548e-04,
          -4.35302220e-02, 1.90294925e-02, -2.94678845e-02,
          1.50634833e-02, 1.04132360e-02, 3.55075970e-02, 0.,
          3.80841270e-02, 3.15646864e-02, -7.41865579e-03,
          2.59817634e-02, 2.06608251e-02, 3.85921740e-04,
          -1.28488289e-02, -1.13649592e-02, -2.31820694e-03,
          -1.45083712e-02, -4.20131013e-02, -1.09678898e-02,
          5.44281071e-03, 1.32013913e-02, 7.23491842e-03,
          -3.85376951e-03, -1.38139743e-02, -1.38497697e-02,
          -7.04033719e-03, -1.31890457e-02, -2.36677453e-02,
          1.10344719e-02, 2.11568363e-02, -1.48455336e-04,
          -2.85035241e-02, -3.92763205e-02, -3.13705280e-02,
          -6.45904162e-04, 1.96241196e-02, -2.73439344e-02,
          1.28906462e-02, 0., 1.63279250e-02, 3.17479596e-02,
          -8.47552903e-03, 3.04958336e-02, 2.95536276e-02,
          2.22042203e-02, 2.55952179e-02, -4.67722863e-02,
          -2.64129918e-02, 9.33103357e-03, -3.81601565e-02,
          -2.15359945e-02, 4.38383147e-02, 3.72797884e-02,
          -7.22435024e-03, -3.08400858e-02, -6.62298128e-02,
          -1.25184909e-01, -2.69858819e-03, -3.02605261e-03,
          -1.64681040e-02, 6.26708716e-02, 6.05935529e-02,
          7.68027036e-03, -2.31386744e-03, -8.52219984e-02,
          -6.27766401e-02, -1.94032993e-02, -8.27438943e-03,
          -2.91231479e-02, -1.87063590e-03, 0., 1.43148741e-02,
          2.96550058e-02, -5.48865646e-03, 7.79623352e-03,
          3.97506095e-02, 2.88363528e-02, 1.32364621e-02,
          -1.99517906e-02, -2.92966096e-03, 3.79323587e-02,
          4.26739827e-03, 2.22073980e-02, 1.06994277e-02, 1.54000996e-02,
          -8.71264469e-03, -1.71783585e-02, -3.09981443e-02,
          -2.82379650e-02, 7.72456173e-03, 2.09738966e-02,
          1.70331057e-02, 2.85597015e-02, 4.50948514e-02, 3.37501196e-03,
          -8.22361931e-03, -4.22532558e-02, -1.67374499e-02,
          -6.92278473e-03, -3.76222917e-04, 3.18030566e-02,
          2.76323259e-02, 0., 3.02282795e-02, 3.09532620e-02,
          6.46016374e-03, 2.08231644e-03, 6.88097673e-03, 2.18302570e-02,
          -6.03629835e-03, 1.13254702e-02, 4.52435389e-03,
          1.97319780e-02, -1.44011602e-02, -1.96592347e-03,
          2.15758663e-03, -1.45689235e-03, -9.32626054e-03,
          -4.22648061e-03, -1.64925307e-02, -6.16870355e-03,
          6.50693197e-03, 5.76895010e-03, 6.54508919e-03, 6.92874566e-03,
          8.09851289e-03, 9.67570115e-03, -7.79730827e-03,
          -5.32208150e-03, 1.48709398e-03, 3.11257178e-03,
          2.05348823e-02, -7.24814832e-04, 1.29510798e-02, 0.,
          4.46200259e-02, -2.29067206e-02, 2.61977147e-02,
          3.11392210e-02, -3.73829971e-03, -4.98714782e-02,
          2.09142477e-03, -1.64565407e-02, -1.76190808e-02,
          -2.08349600e-02, -3.16843614e-02, 1.54738557e-02,
          -1.94385543e-03, -1.93431191e-02, -6.55090064e-03,
          5.26922662e-03, 1.73746664e-02, 3.96383479e-02,
          -1.48366820e-02, -2.37800088e-02, 3.10466141e-02,
          1.68617424e-02, -1.84422322e-02, -3.33391279e-02,
          8.17704666e-03, -1.10995891e-02, 1.79460607e-02,
          1.60319323e-03, 1.92654494e-03, -5.77032985e-03,
          -2.07028002e-03, 0., 1.53351696e-02, -7.76539138e-03,
          1.36019737e-02, 4.53007407e-03, 9.51326173e-03,
          -4.25588228e-02, 2.36029159e-02, 2.05689743e-02,
          -3.57218608e-02, -4.55098338e-02, -6.37761876e-02,
          -2.51440201e-02, 1.43151581e-02, 4.25306102e-03,
          6.48993184e-04, -7.96850491e-03, -8.90759286e-04,
          -1.61961117e-03, -4.32330705e-02, -4.10107560e-02,
          -1.54721737e-02, 7.69817038e-03, 4.83909884e-04,
          -1.53011922e-02, 2.92797592e-02, 1.14359837e-02,
          -2.17645615e-02, -1.53481774e-02, -3.31865711e-04,
          -2.89332457e-02, -1.41162686e-02, 0., 2.40987483e-02,
          -1.86898876e-02, -3.12976423e-03, 1.24385078e-02,
          3.74713093e-02, 3.46321277e-02, 3.02159600e-02,
          -1.65413991e-02, -2.75650267e-02, -1.79674774e-02,
          -5.60517237e-02, -3.24598067e-02, 4.29503359e-02,
          7.51422048e-02, 3.85361873e-02, -4.48160386e-03,
          -3.59541290e-02, -2.05725562e-02, -2.58055590e-02,
          -3.41351926e-02, -2.46481020e-02, 4.63030562e-02,
          8.87137577e-02, 6.47465512e-02, 2.28341147e-02,
          -3.44180614e-02, -1.36150485e-02, -1.80834793e-02,
          9.49866232e-03, 1.12932883e-02, 2.65522730e-02, 0.,
          -2.75292713e-03, -6.86006853e-03, 1.50597375e-02,
          3.06616072e-02, 4.02706787e-02, 3.77353244e-02, 9.13426187e-03,
          -8.59312993e-03, 2.69306730e-02, 3.53240408e-02,
          -8.80235992e-03, 3.54712689e-03, 2.32840199e-02,
          5.95209524e-02, 2.54983618e-03, -3.25010791e-02,
          -4.55418825e-02, -2.46785395e-02, -1.24419760e-02,
          9.35134944e-03, 2.77012158e-02, 5.75168617e-02, 7.52134249e-02,
          2.67829355e-02, -9.75867361e-03, -2.78344713e-02,
          3.66456015e-03, 6.34921191e-04, 1.30500291e-02, 2.02337448e-02,
          3.88127901e-02, 0., 2.26734150e-02, 3.85527522e-03,
          -1.55025935e-02, 9.48553253e-03, 2.15750765e-02,
          3.47604067e-03, 1.36642251e-02, 1.08492589e-02, 1.20288152e-02,
          -7.04910979e-03, -4.93762530e-02, -5.80471195e-02,
          -2.74791587e-02, -6.47752639e-03, 3.09503619e-02,
          3.34887914e-02, 6.55667018e-03, -1.69160850e-02,
          -1.05095301e-02, -3.34002599e-02, -5.29036485e-02,
          -1.00534335e-02, 8.41751415e-03, 3.77681330e-02,
          5.40052652e-02, 2.01575197e-02, 1.52933327e-02,
          -5.99295134e-03, 1.85212325e-02, -1.72183998e-02,
          -1.08188565e-03, 0., -3.15784151e-03, -3.48733701e-02,
          -8.19978770e-03, 2.10515857e-02, 2.36108601e-02,
          3.95722017e-02, 1.15146637e-02, 5.72868064e-03,
          -7.12312805e-03, 1.31888837e-02, -3.09258029e-02,
          -5.34774587e-02, 8.19723494e-03, 4.54379134e-02,
          4.95164320e-02, 3.93266305e-02, -5.78700425e-03,
          -3.35883386e-02, -4.27955994e-03, -2.17387304e-02,
          -3.63043547e-02, 2.86200885e-02, 6.70096353e-02,
          7.67020732e-02, 4.83391061e-02, 1.06559331e-02,
          -1.67689146e-03, 6.66039623e-03, 2.51499303e-02,
          -1.33241126e-02, 1.92316100e-02, 0., -4.62847129e-02,
          -4.95824441e-02, 6.22686371e-03, 2.18124669e-02,
          3.80577450e-03, 2.79333889e-02, 1.97128877e-02, 7.87062943e-03,
          1.02794943e-02, 2.75562387e-02, 1.36473952e-02, 1.12189967e-02,
          2.32163593e-02, 1.83391385e-02, 2.98386589e-02, 2.34810021e-02,
          -6.26335898e-03, -4.50727418e-02, -3.54800932e-02,
          -1.66654848e-02, 1.32721914e-02, 5.56098670e-02,
          3.56003456e-02, 4.76797260e-02, 3.87574397e-02,
          -6.47700066e-03, -1.35903256e-02, -1.48780840e-02,
          2.35985173e-03, 2.31522955e-02, 3.54387052e-02, 0.,
          -2.69166101e-02, -2.29751449e-02, -1.86665468e-02,
          -6.14043698e-03, -4.13031094e-02, -7.47480057e-03,
          1.46002900e-02, 2.31197663e-02, 4.35853028e-04, 3.73007059e-02,
          1.93072073e-02, -1.05777020e-02, 1.03240758e-02,
          1.13707026e-02, 6.36131829e-03, -8.17445293e-03,
          1.64896380e-02, -9.50411242e-03, -3.20927501e-02,
          -4.05149721e-03, -2.68029403e-02, 1.71706509e-02,
          -1.35014094e-02, -8.04219488e-03, 8.90942197e-03,
          2.29907595e-02, -9.91220679e-03, -2.22105607e-02,
          1.07252421e-02, -1.84504443e-03, 7.47399172e-03, 0.,
          5.04132034e-03, -1.00424075e-02, 5.26053272e-03,
          2.18365993e-02, 1.98792666e-02, 8.45489837e-03, 8.66739545e-04,
          2.69476119e-02, 9.88759473e-03, 2.36073267e-02,
          -2.76461188e-02, 1.01198275e-02, -1.64270382e-02,
          -5.34904236e-03, 2.54626554e-02, -1.05834880e-03,
          2.48007253e-02, 1.75081694e-03, -2.02828459e-02,
          -1.55516332e-02, 9.55149531e-03, -4.94863838e-03,
          9.57558770e-03, 5.49583603e-03, 8.60794727e-03, 3.38215902e-02,
          6.36112178e-03, 6.09590765e-03, 1.79487914e-02, 1.38198826e-02,
          2.03028638e-02, 0., 7.68126629e-04, -2.42553018e-02,
          -7.17272144e-03, 1.13251409e-03, 4.50783991e-04,
          -1.31723527e-02, 7.08083063e-03, -8.46280903e-03,
          -3.56259383e-02, -2.41396334e-02, -1.94964986e-02,
          -9.83294565e-03, 9.03204829e-03, -3.62198916e-04,
          -4.10011504e-03, 1.29463235e-02, 1.54319545e-02,
          3.22762989e-02, -3.01213246e-02, -1.55411409e-02,
          -1.22517738e-02, 9.68705956e-03, 2.19505117e-03,
          4.10955865e-03, 2.21671183e-02, 3.88180627e-03,
          -6.28651585e-03, -1.24104572e-02, 6.42207172e-03,
          -2.32925806e-02, -2.53930315e-03, 0., 1.97488554e-02,
          -3.94391967e-03, -1.47725828e-03, 1.97475310e-02,
          4.32589948e-02, 2.76274271e-02, 1.86771303e-02,
          -3.10231354e-02, -5.76643571e-02, -3.00011672e-02,
          -3.93642224e-02, 8.85685999e-03, 4.37046327e-02,
          4.89179790e-02, 3.93606909e-02, 5.00903279e-03,
          -1.23682851e-02, -1.23824663e-02, -1.88252162e-02,
          -2.95944661e-02, 1.12214768e-02, 5.97411171e-02,
          5.53825013e-02, 4.76887524e-02, 1.95305161e-02,
          -2.03449689e-02, -4.66840081e-02, -9.81573202e-03,
          5.57137979e-03, 9.63209197e-03, 3.54752466e-02, 0.,
          4.48473655e-02, -3.50655348e-04, -1.23677133e-02,
          1.31277088e-02, 1.51088983e-02, 2.77968347e-02,
          -1.83031764e-02, -1.33292554e-02, -4.75871842e-03,
          7.50535354e-02, 2.36319732e-02, 5.39679034e-03,
          -6.79056067e-03, 6.38052309e-03, -2.43404116e-02,
          -5.61112538e-02, -4.09639813e-02, -8.16191733e-03,
          5.53856343e-02, 2.83201281e-02, -2.71397317e-03,
          1.40658421e-02, 1.29642831e-02, 3.01355892e-03,
          -6.10984154e-02, -4.34357114e-02, -9.99973994e-03,
          -1.05211278e-02, -7.05994200e-04, 5.42236492e-03,
          1.79979838e-02, 0., 7.19726905e-02, -2.48869173e-02,
          -1.94648616e-02, -7.07524922e-03, 1.90826152e-02,
          1.51280621e-02, 1.72807388e-02, -2.00403444e-02,
          2.11510248e-02, 3.55905294e-02, -7.70731783e-03,
          -4.05298509e-02, -6.27132282e-02, -3.66233140e-02,
          -6.80848677e-03, -9.54691507e-03, -3.98655701e-03,
          1.20600946e-02, 4.90415506e-02, -2.81525552e-02,
          -5.28600439e-02, -5.72311319e-02, -9.57220607e-03,
          5.88339427e-03, 3.03531019e-03, -1.28983809e-02,
          4.19921912e-02, -6.67247316e-03, 7.40716234e-03,
          -1.61380470e-02, -6.80773426e-03, 0., -4.60743904e-02,
          -6.48716688e-02, -4.85274121e-02, 3.44194821e-03,
          3.73996608e-02, 3.40502448e-02, 2.07510386e-02, 3.77178821e-03,
          3.87960742e-03, 2.33604889e-02, -1.93918943e-02,
          -2.71434635e-02, 5.58728527e-04, 4.33291718e-02,
          3.44784223e-02, 4.47434001e-02, 1.37720555e-02,
          -2.48530600e-02, -2.06473675e-02, -6.17813542e-02,
          -5.23146242e-02, -7.76498904e-03, 5.98435737e-02,
          5.35237752e-02, 6.04309775e-02, 2.15667766e-02,
          -1.04884012e-02, 7.80075695e-03, 1.96778309e-02,
          -1.37057239e-02, 1.62996491e-03, 0., -1.71118937e-02,
          -3.09031401e-02, 1.21160236e-03, 6.03765307e-04,
          3.41472821e-03, 5.50802564e-03, -5.91259636e-03,
          1.74208116e-02, 1.03801582e-02, 3.45638655e-02, 2.26860829e-02,
          1.45232445e-02, 1.28418896e-02, 3.25417682e-03,
          -2.97821313e-02, -2.24762989e-04, 2.05827914e-02,
          -7.48258363e-03, -3.19610303e-03, 1.77921157e-03,
          2.17244998e-02, 2.70717870e-02, 2.27533448e-02,
          -4.68493486e-03, -3.00716516e-03, 3.64032127e-02,
          2.59284973e-02, -2.04731580e-02, -3.02529708e-03,
          2.01216545e-02, 2.95744035e-02, 0., 2.49720411e-03,
          -3.80789163e-03, 2.12598145e-02, 5.33655379e-03,
          -1.65734775e-02, 1.57488938e-02, -1.24227414e-02,
          2.49720179e-02, -5.28074102e-03, -5.39968768e-03,
          -2.02179011e-02, -3.33566545e-03, -1.23313647e-02,
          2.37462595e-02, -2.00832747e-02, -2.87679732e-02,
          1.07736820e-02, -2.32669506e-02, -2.13149060e-02,
          -1.68830249e-02, 1.75071694e-02, 4.83534439e-03,
          -1.27144065e-02, -6.98088855e-03, -2.90141907e-02,
          2.27548648e-02, -2.88044717e-02, -2.36471314e-02,
          -4.61171009e-03, -5.35501819e-03, 1.13858236e-02, 0.,
          2.90043559e-02, -3.02668288e-03, -3.20603652e-03,
          -1.27458107e-02, 1.96230579e-02, 3.08533106e-02,
          2.28874423e-02, 6.29053451e-03, 2.54298262e-02, 4.71228920e-02,
          1.15642473e-02, -1.42276855e-02, -4.64757904e-02,
          -3.66934426e-02, -7.20222015e-03, 8.75372905e-03,
          1.53495716e-02, -2.03760210e-02, 6.40102848e-03,
          8.51682108e-03, -1.23874089e-02, -3.91401313e-02,
          -1.36161996e-02, -4.65414533e-03, 3.05748526e-02,
          1.29512502e-02, 5.98816061e-03, -6.52903644e-03,
          5.59533667e-03, 1.35165611e-02, 2.17941217e-02, 0.,
          -1.05760172e-02, -7.46191526e-03, 2.32056715e-02,
          2.35969983e-02, 3.09551861e-02, 2.33774632e-02,
          -7.83867110e-03, -1.31982295e-02, -6.44923300e-02,
          -2.14912668e-02, -5.94366156e-03, -2.14607385e-03,
          1.65656917e-02, 3.51674535e-04, -8.44591856e-03,
          1.68257672e-03, 1.04780626e-02, -2.41707987e-03,
          -4.82516736e-02, -9.34863742e-03, 1.51314782e-02,
          2.60666646e-02, 7.04526016e-03, -6.65886188e-03,
          1.05407450e-03, -9.05589201e-03, -5.23748249e-02,
          -1.27647899e-03, 1.03202695e-02, -2.03438383e-02,
          4.79574548e-03, 0., 4.02026484e-03, 1.98792340e-03,
          2.56936476e-02, 3.73293497e-02, 3.69431674e-02, 1.63977109e-02,
          4.51667514e-03, -3.05896066e-03, -5.36105223e-02,
          -3.76152024e-02, -2.69900747e-02, -1.14997244e-02,
          9.55134258e-03, 1.96667388e-02, 2.86892727e-02,
          -8.07005912e-03, 1.89935360e-02, -1.62401814e-02,
          -4.45205830e-02, -1.83226168e-02, 5.98165300e-03,
          4.76089977e-02, 3.62663455e-02, 2.61363648e-02,
          -6.97020581e-03, 8.91424064e-03, -3.37421224e-02,
          -7.37321423e-03, 1.62955269e-03, 5.60669694e-03,
          2.21536495e-02, 0., 1.08349100e-01, 3.68869714e-02,
          3.08579449e-02, 3.34607847e-02, 3.38445567e-02, 7.76815182e-03,
          -1.68499257e-03, -5.14337001e-03, 8.04137159e-03,
          4.14101705e-02, 2.77042855e-02, -3.94643191e-03,
          -9.94806923e-03, -3.12894136e-02, -4.78935316e-02,
          -5.78133687e-02, 4.19397186e-03, 9.75710712e-03,
          6.44816980e-02, 6.61961287e-02, 5.03701866e-02, 2.27612760e-02,
          -2.03137547e-02, -3.60542238e-02, -3.65841426e-02,
          -8.89051240e-03, 1.41780917e-02, 1.58673641e-03,
          1.99631527e-02, 2.77954750e-02, 3.76539789e-02, 0.,
          3.48839313e-02, 1.96557790e-02, 9.93621652e-04,
          -7.06296414e-04, 1.88691095e-02, 2.21735239e-02,
          4.82434742e-02, 2.37600897e-02, 4.31740098e-02, 1.07987501e-01,
          2.11112686e-02, 1.57946572e-02, -5.58671281e-02,
          -3.72182056e-02, -3.99715714e-02, -3.91803542e-03,
          -5.24747465e-03, 1.23634860e-02, 6.17098249e-02,
          2.51540840e-02, -3.92409711e-04, -3.61650363e-02,
          -3.82058844e-02, -2.97123175e-02, 3.27505097e-02,
          3.82992066e-02, 6.40118271e-02, 2.50848122e-02, 3.81883159e-02,
          1.27077587e-02, 3.05940490e-02, 0., -5.38976677e-02,
          -5.82095236e-02, -1.18407244e-02, 8.70599318e-03,
          1.89141724e-02, 2.53466982e-02, 3.49681824e-02, 1.40998624e-02,
          2.06459966e-02, 2.71480042e-03, -2.14839429e-02,
          4.39635850e-03, -2.32548472e-02, 3.31115723e-02,
          1.44542232e-02, 2.96834521e-02, 2.70879501e-03,
          -1.78612396e-02, -4.63267937e-02, -5.10703549e-02,
          -1.08156055e-02, -1.85001977e-02, 2.34309901e-02,
          2.58008018e-02, 5.99549487e-02, 1.44929648e-03, 8.90668575e-03,
          1.70550554e-03, 1.77517124e-02, -1.09582013e-02,
          2.43848283e-03, 0., -1.60407033e-02, -3.83761562e-02,
          2.27407552e-03, 9.67149716e-03, 3.12983729e-02, 2.77923569e-02,
          2.06919666e-02, 4.52445028e-03, 1.48992194e-02, 2.82032564e-02,
          -9.35683213e-03, 1.43538583e-02, -8.81652813e-03,
          2.66939551e-02, 1.30274158e-03, 1.38629200e-02,
          -3.59937432e-03, 4.44070157e-03, -2.43263748e-02,
          -3.81214917e-02, 1.47251608e-02, 7.44099682e-03,
          2.50385851e-02, 1.89996809e-02, 2.88443882e-02,
          -1.29458937e-03, 2.38268860e-02, -1.28041198e-02,
          1.95628544e-03, 2.39061136e-02, 4.53103632e-02, 0.,
          1.18642384e-02, 1.50455954e-03, 6.72779186e-03, 8.32787249e-03,
          2.31407024e-02, 2.35528760e-02, -4.00763527e-02,
          -1.37989372e-02, 7.95514975e-03, 3.95512022e-02,
          -2.38499115e-03, 1.14424434e-02, 2.20776945e-02,
          6.05147937e-03, -2.89655272e-02, -5.93106113e-02,
          -2.10921392e-02, 9.99995391e-04, 5.32902731e-03,
          9.23190545e-03, 4.90256492e-03, 2.31023822e-02, 4.25679795e-03,
          -1.30185355e-02, -6.71018064e-02, -2.58237254e-02,
          5.86462766e-03, -6.73041586e-03, -4.40853927e-03,
          -2.41341535e-03, 1.24056740e-02, 0., 5.92705607e-02,
          1.85231734e-02, -1.88045818e-02, -1.61348134e-02,
          -2.65273768e-02, -1.45761464e-02, -1.55645423e-02,
          -1.37321185e-02, 4.27781865e-02, 4.57338952e-02,
          3.75411473e-02, 9.65707377e-03, -1.56899951e-02,
          -3.11215670e-04, 1.13704922e-02, 2.18150159e-03,
          -1.78811755e-02, -2.03681681e-02, 3.84822786e-02,
          4.98729199e-02, -7.48039363e-03, -2.07842551e-02,
          -3.64625379e-02, -1.06512746e-02, -4.32871841e-03,
          -2.53072493e-02, 1.30869634e-02, -5.47437230e-03,
          -9.32487543e-04, 1.02308448e-02, 2.79794447e-02, 0.,
          2.14902833e-02, 2.10937168e-02, 2.98994258e-02,
          -1.23065505e-02, -2.04069056e-02, -5.17513640e-02,
          -3.66630629e-02, 2.79442407e-03, -4.78477702e-02,
          1.90938115e-02, 2.46708019e-04, 1.51827196e-02, 5.25075709e-03,
          1.50941440e-03, 3.18365730e-03, 1.79802952e-03, 2.98833032e-03,
          -7.74027454e-03, -7.16389949e-03, 1.45173697e-02,
          3.18046212e-02, -1.49708251e-02, -2.63876505e-02,
          -4.92043197e-02, -2.79769804e-02, -5.14522800e-03,
          -4.17713225e-02, -1.72490126e-03, 5.01711620e-03,
          -1.73606314e-02, -1.05314264e-02, 0., 1.20307039e-02,
          1.81246661e-02, -5.73143549e-03, 3.33275669e-03,
          7.80472206e-03, -2.01735273e-02, 5.05526608e-04,
          2.29365863e-02, -6.68073818e-02, -1.17320102e-02,
          -4.07840125e-02, -3.85158099e-02, 2.05931719e-02,
          4.16272916e-02, 2.55701877e-02, 1.50932819e-02, 3.44077684e-02,
          1.00159459e-02, -4.37544547e-02, -1.19916722e-02,
          -1.78966038e-02, 3.53037678e-02, 4.01545763e-02,
          1.52256889e-02, 1.20493406e-02, 4.57811765e-02,
          -3.24670598e-02, -4.43904195e-03, -5.54017210e-03,
          9.84276365e-03, 1.34763345e-02, 0., 6.76138923e-02,
          -4.42600017e-03, 9.06343199e-03, 1.41381882e-02,
          3.82090658e-02, -4.54168010e-04, 1.18160881e-02,
          -6.41692849e-03, -4.49377708e-02, 3.23119275e-02,
          -3.27755138e-02, -2.44824328e-02, 2.47619003e-02,
          3.16237621e-02, 3.83021757e-02, 3.09695601e-02, 7.23044053e-02,
          2.62150392e-02, 1.25521030e-02, -3.57328542e-02,
          9.59588028e-03, 3.68867815e-02, 5.10138199e-02, 2.70799678e-02,
          3.26211601e-02, 5.37682250e-02, -1.23450207e-02,
          2.28310730e-02, 2.06117127e-02, 4.08532843e-02, 4.95045036e-02,
          0., 1.48908384e-02, -5.48689663e-02, -3.36350948e-02,
          5.58777619e-03, 8.44755024e-03, 2.16259826e-02, 2.20339373e-02,
          8.88409838e-03, -4.35393362e-04, 7.45859742e-02,
          2.60378961e-02, 6.55724108e-02, 4.84928787e-02, 3.75824384e-02,
          2.36358289e-02, 2.82760691e-02, -4.80589876e-03,
          -3.53811942e-02, 2.41413936e-02, -1.88370962e-02,
          2.56627295e-02, 3.68318930e-02, 2.12034769e-02, 3.93915065e-02,
          4.47272360e-02, 1.99820995e-02, -1.81629509e-02,
          3.23573127e-02, 3.47010642e-02, 3.05363033e-02, 2.33322065e-02,
          0., -1.65352356e-02, -3.97454575e-02, 1.31615801e-02,
          -7.04952143e-03, -2.33167633e-02, 1.21032754e-02,
          1.18004996e-02, -3.99852684e-03, 4.04423885e-02,
          1.74360182e-02, -4.07405896e-03, 2.54467707e-02,
          1.93930790e-02, 3.62703949e-02, 2.25982908e-02, 1.67120695e-02,
          -2.83730961e-02, -3.39559391e-02, -4.18271720e-02,
          -2.39055213e-02, 3.28899994e-02, 1.31005272e-02,
          1.13616101e-02, 3.21881957e-02, 3.62229645e-02,
          -1.26889702e-02, 1.00024268e-02, 1.17328782e-02,
          1.81313101e-02, -3.75074870e-03, 1.37661153e-03, 0.,
          -1.15871234e-02, -3.49195153e-02, 1.62582286e-02,
          -3.11737601e-02, -3.72653343e-02, -7.32222688e-04,
          -9.66567360e-03, 1.88769195e-02, 2.75102314e-02,
          2.85069309e-02, -1.32550427e-03, 1.83691941e-02,
          1.47767672e-02, 1.57515705e-02, 2.04123314e-02, 9.75805148e-03,
          1.86954830e-02, 9.04967601e-04, -2.47592311e-02,
          -2.91561317e-02, 1.49314161e-02, -1.22026047e-02,
          -2.69490946e-02, 1.26555208e-02, -4.26128460e-03,
          3.31694931e-02, 2.20418796e-02, -1.00710057e-02,
          -1.19111734e-02, 1.91693753e-02, 3.25824432e-02, 0.,
          3.08696143e-02, 8.41339678e-03, 4.25496558e-03,
          -1.78754944e-02, 2.89566163e-03, -5.91995800e-03,
          -7.60310888e-03, -3.31485830e-02, 1.14799256e-03,
          4.26465124e-02, -2.32193824e-02, 1.05983233e-02,
          2.92978119e-02, -6.26522535e-03, -1.06480839e-02,
          -8.22691713e-03, 1.39665212e-02, 1.97421592e-02,
          7.81275798e-03, -1.22610154e-02, 1.54300733e-02,
          1.81998536e-02, -3.58264288e-03, -2.41170581e-02,
          -5.41745126e-03, -9.98539757e-03, 2.30072383e-02,
          2.27133394e-03, -2.45560892e-04, 1.50459288e-02,
          6.93491427e-03, 0., 5.31636737e-02, 2.78705154e-02,
          -1.83897465e-02, -2.81778481e-02, -2.86724083e-02,
          -1.29031148e-02, -2.68278774e-02, -1.35229016e-02,
          1.75359845e-02, 4.68448177e-02, 2.46182755e-02,
          -2.90131406e-03, 1.21556763e-02, 1.12833944e-03,
          2.52316128e-02, 1.50431553e-02, 8.83612595e-03,
          -5.51920896e-03, 4.75308746e-02, 3.92109603e-02,
          -6.82660937e-03, -1.34542324e-02, -1.19453035e-02,
          6.38513453e-03, -1.29407793e-02, -4.35424363e-03,
          -6.88442308e-03, 3.32931802e-03, 5.93169546e-03,
          6.57735392e-03, 2.91868169e-02, 0., 2.71330886e-02,
          2.18817461e-02, -4.72454168e-03, -1.10366032e-03,
          -1.95175111e-02, -3.91133949e-02, -2.82855127e-02,
          -3.45845371e-02, 9.09117330e-03, 1.84033737e-02,
          -4.56184003e-04, -1.81984380e-02, 9.77690984e-03,
          3.71625577e-03, 1.13641927e-02, 4.34653182e-03,
          -2.40389947e-02, 1.31821632e-03, 1.78332627e-02,
          2.06972286e-02, -1.90530196e-02, 8.29403009e-03,
          -1.68523230e-02, -2.53176205e-02, -1.81182884e-02,
          -5.46144508e-02, 5.34332264e-03, 5.21228230e-03,
          1.80865196e-03, -1.90178826e-02, -1.76971462e-02, 0.,
          3.17118876e-02, 1.08214775e-02, -3.02328374e-02,
          4.74762777e-03, 5.72037883e-03, 1.80344476e-04,
          -1.91725601e-04, -1.58248357e-02, -3.85021530e-02,
          -4.04853038e-02, -6.79494292e-02, -4.15301882e-02,
          1.57745387e-02, 4.37852181e-02, 3.63029726e-02, 1.83091313e-02,
          1.26479017e-02, -3.12660472e-03, -3.80490944e-02,
          -3.35133225e-02, -4.57317792e-02, 2.15478633e-02,
          3.87044102e-02, 2.76444759e-02, 1.37192961e-02,
          -1.31271547e-03, -3.16688828e-02, 2.27003149e-03,
          -1.81051884e-02, -5.12538990e-03, -6.30597770e-03, 0.,
          2.27567181e-02, -6.04461581e-02, -4.43465449e-02,
          1.15743410e-02, 4.09351625e-02, 2.88678035e-02, 1.95960309e-02,
          -9.33389831e-03, -4.32060771e-02, -1.58822965e-02,
          -2.16586236e-02, -7.21508870e-03, 1.37509499e-02,
          7.00220317e-02, 5.74303195e-02, 3.77058759e-02, 4.64846119e-02,
          1.96740236e-02, -2.79425737e-02, -5.54675423e-02,
          -2.20788866e-02, 2.21542232e-02, 8.93154219e-02,
          7.26163611e-02, 4.65264134e-02, 2.44009830e-02, 3.87438457e-03,
          1.75328907e-02, -2.11344357e-03, 4.16257605e-02,
          2.15415023e-02, 0., -9.53993946e-03, -5.00024334e-02,
          -3.88233773e-02, 1.67342573e-02, 2.76486389e-02,
          4.47806530e-02, 1.59095041e-02, -5.04381210e-02,
          -5.76110855e-02, 1.59785971e-02, 1.55955181e-02,
          5.35153784e-02, 4.22384404e-02, 7.84091726e-02, 4.25012708e-02,
          2.26876810e-02, 3.18863732e-03, -5.30933589e-03,
          -2.77537871e-02, -4.69990214e-03, 1.22013288e-02,
          4.70521115e-02, 8.30423757e-02, 7.59909526e-02, 3.79041843e-02,
          -1.87665783e-02, -4.16387916e-02, 2.36221775e-02,
          1.23365736e-02, 3.39249820e-02, 9.05853231e-03, 0.,
          -3.02893091e-02, -3.80019471e-02, -2.66303625e-02,
          -1.33243774e-03, -3.79895023e-03, 1.27698742e-02,
          1.24103772e-02, -7.96134397e-03, 1.51834115e-02,
          5.95918633e-02, -8.00877903e-03, 1.67738609e-02,
          3.30707766e-02, 3.11420672e-02, 8.30536895e-03, 2.20130533e-02,
          -2.06250064e-02, -7.32115582e-02, -2.55428441e-02,
          -3.35063450e-02, -3.96705186e-03, 2.40712166e-02,
          8.04482959e-03, 1.12780174e-02, 3.27503569e-02,
          -2.21699979e-02, -2.97265612e-02, 2.93447007e-03,
          4.20359848e-03, 5.83397504e-03, -1.23116216e-02, 0.,
          -1.99335977e-03, -2.22402681e-02, -2.78045833e-02,
          -1.74544249e-02, -3.67414691e-02, -2.07940433e-02,
          8.98102112e-03, 2.46743504e-02, 4.79834825e-02, 2.73282714e-02,
          -2.16478985e-02, -7.25957984e-03, 3.35545614e-02,
          2.53532659e-02, -7.46207731e-03, -1.40748930e-03,
          -1.90624390e-02, -4.71138675e-03, 5.35169849e-04,
          -3.50946523e-02, -3.85590456e-02, 1.28092598e-02,
          -1.18710147e-02, -2.22952757e-02, 1.34876659e-02,
          8.54143873e-03, 4.20073606e-02, -1.83569491e-02,
          -1.95188839e-02, 1.42977918e-02, 1.38181485e-02, 0.,
          2.07691453e-02, -1.49706099e-02, -1.83686055e-02,
          -1.12161236e-02, 5.92816446e-04, -1.05329752e-02,
          -2.28933245e-02, -1.25298453e-02, 2.70507354e-02,
          5.47594763e-02, -1.97374560e-02, -1.12921596e-02,
          1.49667105e-02, 2.66810395e-02, 5.80255175e-03,
          -7.79099250e-03, -1.46186620e-03, 2.45710388e-02,
          2.63400376e-02, -3.13528329e-02, -2.30361298e-02,
          -2.81089079e-03, 2.32904349e-02, 4.24991129e-03,
          -2.15345863e-02, -4.71163163e-04, 4.62993160e-02,
          -1.05135348e-02, 3.03797983e-03, 1.61457881e-02,
          1.22597143e-02, 0., 3.17666829e-02, 1.18582370e-02,
          2.22742162e-03, 1.80075951e-02, -2.20382889e-03,
          -1.19046932e-02, -1.41276186e-02, -1.66710299e-02,
          2.70583015e-02, 3.84476595e-02, 1.23042092e-02,
          -5.34865726e-03, 1.41254021e-03, 2.51128189e-02,
          -1.43431721e-03, 5.89720439e-03, 1.78918131e-02,
          4.35740426e-02, 2.84773689e-02, 2.19856724e-02,
          -1.70829787e-03, 5.20708179e-03, 5.30929537e-03,
          -2.50953212e-02, 1.14062121e-02, 4.07379540e-03,
          4.67506498e-02, 1.09368591e-02, 2.48719975e-02, 2.62183212e-02,
          2.46483665e-02, 0., -1.65304157e-03, 1.04167573e-02,
          -1.24921268e-02, 9.36275069e-03, -1.00969430e-02,
          -1.97591651e-02, -2.26853117e-02, -2.41407268e-02,
          1.01508340e-02, -5.93848201e-03, -3.45282182e-02,
          -3.70995887e-02, -1.05428684e-03, 2.50432603e-02,
          2.72319205e-02, 3.20248082e-02, -1.25892984e-04,
          8.82133143e-04, -1.03787044e-02, -2.63948441e-02,
          -4.16672118e-02, -1.47610193e-03, 1.93824666e-03,
          -1.83454324e-02, 7.66220409e-03, -2.17690617e-02,
          -1.75553010e-04, 1.17156301e-02, 4.42260224e-03,
          -2.53702141e-02, -1.64410826e-02, 0., 1.31506976e-02,
          -2.47681327e-02, -2.93819942e-02, 1.56634357e-02,
          5.24995336e-03, -4.94193402e-04, -3.41870845e-03,
          -8.86521302e-03, -3.77209820e-02, -1.81707274e-02,
          -6.53320104e-02, -2.61346065e-02, 2.22235844e-02,
          2.20160205e-02, 1.17558241e-02, 3.04149855e-02, 2.23189648e-02,
          6.97540445e-03, -2.83633061e-02, -6.05456904e-02,
          -3.94311994e-02, 3.73638943e-02, 1.06028831e-02,
          -8.61563068e-03, 1.77834444e-02, 1.56348199e-02,
          -1.12642245e-02, 1.75004527e-02, -1.13774016e-02,
          -1.63275637e-02, -2.02091224e-02, 0., -2.49000378e-02,
          -4.81213592e-02, -1.46366330e-02, 6.83139078e-04,
          4.21863571e-02, 2.34836265e-02, 9.65586957e-03, 1.33050447e-02,
          -3.73603068e-02, 1.57248750e-02, -2.79543782e-03,
          -9.04006511e-03, 2.53543556e-02, 3.69469896e-02,
          4.21298929e-02, 4.75966223e-02, 3.51546444e-02, 2.02859882e-02,
          -3.59669067e-02, -4.33895066e-02, -1.56979989e-02,
          2.07796674e-02, 5.88361397e-02, 5.29661551e-02, 5.22073060e-02,
          5.25768101e-02, 3.68198100e-03, 3.16301845e-02,
          -4.17521363e-03, 4.10418622e-02, 1.43062593e-02, 0.,
          1.19630983e-02, -4.91630994e-02, -4.77860775e-03,
          -6.12901850e-03, 2.16571651e-02, 2.84218267e-02,
          1.72013287e-02, -1.54400235e-02, -3.27055417e-02,
          -1.55785736e-02, 2.22238246e-03, 2.84824446e-02,
          4.56471369e-02, 5.33711985e-02, 4.83752154e-02, 2.86664329e-02,
          1.03218853e-02, 1.34932389e-02, -2.80635748e-02,
          -2.71981116e-02, 2.80766338e-02, 3.21193710e-02,
          5.58210127e-02, 5.57113215e-02, 4.11852859e-02,
          -1.12580378e-02, -1.30852740e-02, 3.13774012e-02,
          2.39132927e-03, 4.77513149e-02, 6.17378391e-03, 0.,
          -2.94133127e-02, -3.63816358e-02, -1.36790881e-02,
          -8.07897933e-03, -1.70524046e-02, -7.40391994e-03,
          -3.22855823e-03, -2.75138840e-02, 6.59970473e-03,
          3.16931568e-02, 6.82523055e-03, 3.92960124e-02, 3.57168056e-02,
          2.34758146e-02, 2.82623675e-02, 2.59888507e-02,
          -1.41378781e-02, -6.98438585e-02, -3.33168469e-02,
          -8.33070185e-03, 2.76888255e-02, 2.18602102e-02,
          -2.09655371e-02, 5.87419979e-03, 2.27870606e-02,
          -3.02628055e-02, -4.69244458e-02, -1.01954797e-02,
          -1.35547491e-02, 2.22337320e-02, -1.20954476e-02, 0.,
          -2.08191033e-02, -1.92336310e-02, -2.27573849e-02,
          -7.15256110e-03, -1.83314681e-02, -4.21327166e-03,
          5.22257434e-03, 1.09598683e-02, 4.23771888e-02, 3.05619538e-02,
          -2.08302904e-02, 1.17677301e-02, 5.63135408e-02,
          4.41964716e-02, 1.15143182e-02, -7.10003730e-03,
          -6.00775983e-03, -4.10886891e-02, -1.22586349e-02,
          -2.16829572e-02, -1.88572407e-02, 3.74361910e-02,
          6.02583541e-03, 8.48388951e-03, -1.62521133e-03,
          -4.48050164e-03, -6.48542715e-04, -1.05065722e-02,
          -1.12791387e-02, 2.56099533e-02, 1.75676327e-02, 0.,
          2.84388345e-02, -1.31337224e-02, -2.42699124e-02,
          3.17951245e-03, -4.14887024e-03, 1.15961712e-02,
          1.14467274e-03, 3.05039412e-03, 1.44477859e-02, 4.60206717e-02,
          1.85080878e-02, 8.33615288e-03, 1.95188206e-02, 1.20038316e-02,
          1.27906576e-02, -1.67054739e-02, -2.22121389e-03,
          3.26822861e-03, 1.69813372e-02, 1.37039088e-02,
          -8.23625736e-03, 2.25012861e-02, -1.06867868e-03,
          1.23084188e-02, -1.72225647e-02, 3.93585162e-03,
          2.35559028e-02, 1.26786279e-02, -2.84034456e-03,
          2.51727514e-02, 2.24170927e-02, 0., 5.37223034e-02,
          1.24675399e-02, -6.50096638e-03, 1.92219969e-02,
          7.58777419e-03, 1.67149305e-02, -2.40912326e-02,
          -1.41677801e-02, 1.43716354e-02, 5.57581335e-02,
          2.29934603e-02, -9.07007314e-04, 4.07107361e-03,
          1.90456752e-02, 7.89914839e-03, 9.94744990e-03, 9.92480759e-03,
          3.67878191e-02, 5.13562001e-02, 2.88695227e-02,
          -4.26289346e-03, 2.02617589e-02, 2.09310260e-02,
          1.46760223e-02, -2.48786416e-02, 8.95031917e-05,
          5.24936505e-02, 1.23895248e-02, 3.30634415e-02, 3.07685100e-02,
          3.91992852e-02, 0., 3.25794630e-02, 7.47121172e-03,
          -7.93509837e-03, 1.41953221e-02, -1.72327831e-02,
          -3.38949286e-03, -2.68115941e-02, -3.47801000e-02,
          -6.40985044e-03, 2.94610355e-02, 1.59526002e-02,
          1.08116018e-02, -1.53884653e-03, 3.61007676e-02,
          -6.08593784e-03, 5.26446756e-03, -6.40256424e-03,
          -9.57439840e-03, 1.45547306e-02, 2.54737288e-02,
          5.71062835e-03, 1.41049186e-02, 2.04575574e-03,
          -3.14094275e-02, -2.82064471e-02, -3.46907973e-02,
          -8.87329783e-03, 2.12002266e-02, 3.22446302e-02,
          -3.00873667e-02, -8.42551887e-03, 0., 4.47558053e-02,
          6.24405686e-03, -4.71305288e-03, 3.94817535e-03,
          -2.71885209e-02, -8.07219651e-03, 6.54374063e-03,
          -3.42666730e-02, -7.48090148e-02, -5.34985662e-02,
          -2.78096832e-02, 3.21738335e-04, 1.21310707e-02,
          1.81333534e-02, 9.36234556e-03, 1.91480927e-02, 3.67105007e-02,
          3.67427729e-02, -8.52625910e-03, -2.34934893e-02,
          5.94667159e-03, 2.14919299e-02, -1.94483195e-02,
          -1.32702542e-02, 1.46710193e-02, 4.51100525e-04,
          -2.57816184e-02, 1.48064727e-02, 1.13811465e-02,
          -2.39469688e-02, -1.93600375e-02, 0., -5.94300404e-02,
          -4.87491116e-02, -1.09865256e-02, -1.38893016e-02,
          8.50685127e-03, -6.61940733e-03, 3.68376486e-02,
          3.76509689e-02, -2.93404255e-02, -5.56855695e-03,
          2.11254675e-02, -8.38013180e-03, 5.27519546e-03,
          1.34495432e-02, 1.69961341e-02, 1.94053669e-02, 3.50731090e-02,
          2.74110343e-02, -3.95333283e-02, -2.00803503e-02,
          -1.24053918e-02, 2.54364428e-03, 1.22003471e-02,
          9.71678272e-03, 5.76428026e-02, 4.46777381e-02, 8.79405160e-03,
          1.36080887e-02, -2.40243599e-03, 4.20582574e-03,
          2.86367652e-03, 0., -2.89635044e-02, -2.50044707e-02,
          1.10433819e-02, 1.32777998e-02, -1.50014358e-02,
          -1.14890225e-02, -1.23019889e-02, -8.89855716e-03,
          -5.02140895e-02, -2.00885236e-02, 2.51021907e-02,
          1.15561066e-02, 1.63319241e-02, 1.64723769e-02, 1.42920772e-02,
          1.42807430e-02, -6.59687212e-03, 1.87871756e-03,
          -4.69295569e-02, 2.75016413e-04, 1.87922958e-02,
          3.43054868e-02, -2.24524201e-03, 5.70752774e-04,
          6.68078614e-03, -9.94457677e-03, -2.39640176e-02,
          -6.32463768e-03, -1.98519621e-02, 6.26338273e-03,
          -5.69470692e-03, 0., -4.16627042e-02, -6.47977740e-02,
          -2.94303540e-02, -1.46168773e-03, -1.50079699e-02,
          -3.04117892e-02, 5.57057559e-03, -6.14601793e-03,
          -1.43746575e-02, 1.47399819e-02, 6.48480654e-03,
          1.67080928e-02, 1.52844088e-02, -7.37909367e-03,
          -6.05578395e-03, 1.26078306e-02, 2.63779052e-03,
          -1.34261558e-02, -3.05344071e-02, -4.02571894e-02,
          -1.44071076e-02, 2.52237543e-03, -2.80321706e-02,
          -4.29869890e-02, 1.10976314e-02, -1.04232505e-03,
          -3.42391804e-02, -3.28850523e-02, -4.50497381e-02,
          7.96611700e-03, -3.62652331e-03, 0., 4.80514802e-02,
          -2.83009689e-02, -2.10218746e-02, -6.74757501e-03,
          6.69660326e-03, -8.83381721e-03, 1.44696990e-02,
          1.30171180e-02, 1.20056570e-02, 1.99841429e-02,
          -1.02085778e-02, 4.37879609e-03, 1.67762171e-02,
          1.97967775e-02, 1.40333800e-02, -1.07071958e-02,
          2.28325911e-02, 2.78500058e-02, 1.99139621e-02,
          -1.87769774e-02, -1.52747203e-02, -1.79859262e-03,
          1.30982399e-02, 3.19217285e-03, 1.08283646e-02, 3.40543017e-02,
          3.12658399e-02, -4.09800420e-03, -1.21983765e-02,
          4.77089435e-02, 3.17891911e-02, 0., 2.43832357e-02,
          -1.93834361e-02, -2.41893027e-02, -1.51958764e-02,
          1.87609289e-02, 1.45722628e-02, 3.14290263e-02, 4.45129536e-03,
          -4.29651840e-03, 3.48723233e-02, 3.75328250e-02,
          1.39495963e-02, 2.70225909e-02, 1.93601679e-02,
          -4.73099016e-03, -1.00877695e-02, -1.88033935e-02,
          -9.81226936e-03, 1.31496890e-02, 2.87192874e-02,
          1.47795281e-03, 5.04158961e-04, 2.06751879e-02, 2.21961886e-02,
          1.35036586e-02, -1.90043524e-02, -3.99957085e-03,
          1.54380370e-02, 1.69934483e-05, 2.86204051e-02, 1.24146473e-02,
          0., 1.58246327e-02, -2.02975329e-02, -1.62750725e-02,
          -1.43391052e-02, 6.24596775e-02, 3.77614163e-02,
          3.80960573e-03, 9.98023897e-03, 6.42850017e-03, 2.33158749e-02,
          -2.91527831e-04, -6.36311062e-03, -1.37307569e-02,
          1.05456011e-02, 1.40871838e-04, 1.15429573e-02, 1.96219403e-02,
          3.72209400e-02, 5.53311361e-03, -1.97015107e-02,
          -2.93775108e-02, -8.72106478e-03, 4.95104976e-02,
          2.30532922e-02, -4.37001837e-03, 2.11553555e-02,
          3.70839760e-02, 1.59949809e-02, 1.92224346e-02, 2.23534983e-02,
          2.13203076e-02, 0., 4.98815114e-03, -1.64518002e-02,
          -2.01858282e-02, -3.90065252e-03, 3.66412736e-02,
          1.70814116e-02, -5.95324486e-03, -1.68649144e-02,
          2.20093667e-03, 2.57799923e-02, 3.45419236e-02, 1.69988479e-02,
          -1.36611721e-04, 2.16116998e-02, -1.11554861e-02,
          -1.53528312e-02, -1.68485884e-02, -8.26674793e-03,
          -6.56297756e-03, 1.64571758e-02, -1.63619649e-02,
          -4.76989709e-03, 2.55158637e-02, 8.11511744e-03,
          -2.24226806e-02, -1.09041864e-02, -1.79154407e-02,
          1.00688310e-02, 3.79257873e-02, -1.37875518e-02,
          -1.31225027e-02, 0., 4.30478863e-02, 1.61599591e-02,
          -2.02211309e-02, 5.80002787e-03, 2.79497858e-02,
          -1.05631938e-02, -2.51000579e-02, -3.79407741e-02,
          -6.11500405e-02, -4.18091975e-02, -4.15615626e-02,
          -2.47200970e-02, -2.51038722e-03, 3.03321853e-02,
          1.53243691e-02, 9.01527982e-03, -2.35730130e-03,
          2.53803935e-02, -1.51878851e-03, -1.58949979e-02,
          -3.51622067e-02, 1.14705032e-02, 4.47448790e-02,
          -3.79830948e-03, -2.06555706e-02, -2.67487075e-02,
          -2.22752728e-02, -1.16523057e-02, 2.69261021e-02,
          -4.38861176e-02, -1.61347874e-02, 0., -1.24143828e-02,
          -2.79101767e-02, -1.60670113e-02, 1.04618445e-02,
          1.02458494e-02, -3.97771737e-03, -1.25052184e-02,
          -9.76675772e-04, -2.16645878e-02, -1.25666689e-02,
          -5.29370736e-03, 8.20134673e-03, 2.83306595e-02,
          4.00576405e-02, 9.77212191e-03, 3.39450361e-03, 1.70387905e-02,
          1.31133888e-02, -2.25331709e-02, -2.32236255e-02,
          -1.20844385e-02, 3.63626182e-02, 4.17209305e-02,
          1.77332945e-02, -9.34031699e-03, 2.55743763e-03,
          -5.93401538e-03, -6.49802946e-03, 2.58541703e-02,
          -2.48898156e-02, 1.83746126e-02, 0., -3.85299958e-02,
          -3.85785960e-02, -1.45092709e-02, 3.66682350e-03,
          1.72077548e-02, -3.85679048e-03, -8.40526260e-03,
          -5.33741293e-03, 1.08238216e-02, 1.55305751e-02,
          2.32395791e-02, 1.07337236e-02, -1.08964695e-02,
          1.63448304e-02, 2.96319854e-02, 4.89085680e-03,
          -7.02939369e-03, -1.48134390e-02, -2.91290861e-02,
          -1.96025334e-02, -1.34979077e-02, -8.34949873e-03,
          3.87531929e-02, 2.85254177e-02, 6.22811960e-03,
          -6.96792267e-03, -3.73041211e-03, -1.52093088e-02,
          5.99451503e-03, -1.36917280e-02, 1.82459410e-02, 0.,
          -3.82709987e-02, -6.33640438e-02, -1.72791835e-02,
          -1.81812346e-02, 1.96163207e-02, 2.81708539e-02,
          -4.50707413e-03, -2.51954067e-02, -6.57348707e-03,
          7.88607821e-03, -1.77160371e-02, 3.24197928e-03,
          -2.14737561e-03, 2.95198727e-02, 7.17778457e-03,
          -1.52439959e-02, -1.18252737e-02, -3.23373936e-02,
          -2.83718761e-02, -6.13107905e-02, -1.56459026e-02,
          -2.55476572e-02, 3.42370383e-02, 3.15175503e-02,
          -1.33520970e-02, -3.03921998e-02, -2.81534418e-02,
          -4.30859327e-02, -2.91110743e-02, -1.08586978e-02,
          9.03241429e-03, 0., 2.53461264e-02, -1.61852650e-02,
          -1.79139171e-02, -1.99956577e-02, 3.93530689e-02,
          4.46497574e-02, -2.30866391e-03, -1.30190318e-02,
          -1.96773070e-03, 1.89360753e-02, -7.64083257e-03,
          -1.93531327e-02, -1.41659686e-02, 2.24595908e-02,
          1.08518247e-02, -4.64857323e-03, -1.71798840e-03,
          3.02070808e-02, -8.05082452e-03, -3.18910144e-02,
          -2.02487353e-02, -3.23519371e-02, 3.27665620e-02,
          2.28625797e-02, -6.47900952e-03, -2.04696804e-02,
          2.60996800e-02, -1.51073355e-02, -9.29787010e-03,
          1.93585902e-02, 3.94054353e-02, 0., 1.29976366e-02,
          -1.71576887e-02, -1.28913773e-02, -2.56581302e-03,
          6.59735426e-02, 6.89792484e-02, -1.35058267e-02,
          -2.60294583e-02, -2.76038144e-02, 2.17805486e-02,
          2.53337156e-02, -2.53995266e-02, 8.32539145e-03,
          2.25263592e-02, 1.02500906e-02, -2.12640651e-02,
          -1.42017277e-02, -1.70770288e-02, -1.94203900e-03,
          1.34831276e-02, -2.30837036e-02, -4.40189755e-03,
          4.75902855e-02, 3.59140001e-02, -1.19152637e-02,
          -3.86997573e-02, -3.04221399e-02, 4.94129537e-03,
          -3.63905937e-03, 1.29001467e-02, 1.33604705e-02, 0.,
          -1.55038200e-02, -1.67692155e-02, -2.48567741e-02,
          -2.27663349e-02, 3.89410555e-03, 7.72597361e-03,
          -2.14933548e-02, -5.95526397e-03, -7.51691824e-03,
          -2.24847049e-02, -8.22360348e-03, 1.93818228e-03,
          6.46702945e-03, 6.01875968e-02, 3.46370526e-02, 3.51602957e-02,
          9.61178262e-03, 9.65693500e-03, -3.57624739e-02,
          -1.50183057e-02, -3.60349976e-02, -1.18089635e-02,
          3.16759311e-02, 2.04703957e-02, -1.00711193e-02,
          -5.04645659e-03, -1.46712558e-02, -3.31654423e-03,
          -6.15350960e-04, 6.03439752e-03, 9.07391123e-03, 0.,
          -2.23925570e-03, -1.97522715e-02, -2.99840514e-02,
          -3.85466926e-02, 8.23459495e-03, 4.25657351e-03,
          1.44818437e-03, 1.86092462e-02, 1.02789262e-02, 1.30349642e-03,
          -9.14898049e-03, -1.04311910e-02, -2.35921200e-02,
          2.24677175e-02, 1.65572576e-02, 5.93762519e-03,
          -1.48844682e-02, -1.80600546e-02, -1.80545095e-02,
          -2.29048897e-02, -4.41106372e-02, -5.44944666e-02,
          4.30034427e-03, 1.02170194e-02, -2.01985501e-02,
          1.97641988e-04, -1.43020274e-02, -2.56701522e-02,
          1.78007782e-02, -2.34932825e-02, -5.19227656e-03, 0.,
          4.17890102e-02, 2.79693082e-02, -2.77851298e-02,
          -2.48167869e-02, -1.88860223e-02, -4.72106412e-02,
          -4.26779129e-02, -3.98790799e-02, 2.68573547e-03,
          5.58895320e-02, 1.14490259e-02, -1.11668399e-02,
          -2.63541434e-02, -1.19348671e-02, 1.22722266e-02,
          -5.45223895e-03, 1.16912303e-02, 2.78121652e-03,
          3.16421315e-02, 2.22666599e-02, -3.79022211e-02,
          -5.88341020e-02, -6.27225637e-02, -5.04143201e-02,
          -5.45975417e-02, -2.03808509e-02, 5.21874800e-03,
          -2.74541378e-02, 2.50667669e-02, -4.04960215e-02,
          6.28811715e-04, 0., 3.91428955e-02, -5.91666019e-03,
          -4.51247878e-02, -2.71207970e-02, -9.16717052e-02,
          -1.21874981e-01, -7.38307834e-02, -6.99074119e-02,
          1.37771796e-02, 5.24374917e-02, 2.63784248e-02, 1.97984688e-02,
          2.05256827e-02, 2.81209983e-02, -5.33949398e-03,
          1.05611309e-02, 6.38244615e-04, 1.51877105e-02, 5.23469411e-02,
          1.77139398e-02, -1.43145481e-02, -2.43805125e-02,
          -5.67945056e-02, -9.06694457e-02, -5.37579171e-02,
          -4.92290109e-02, 1.78087819e-02, -4.59537394e-02,
          1.52554745e-02, -6.43037781e-02, -5.98050421e-03, 0.,
          5.83611615e-02, 1.23691838e-03, -6.66567087e-02,
          -4.65880707e-02, -1.12173446e-01, -1.08749554e-01,
          -3.55443545e-02, -4.02317643e-02, 1.19736819e-02,
          3.60518098e-02, 1.61874313e-02, 2.64159311e-03,
          -7.08704675e-03, 1.22808404e-02, 1.61424540e-02,
          9.76572465e-03, -5.15111082e-04, 1.15943793e-02,
          4.41086516e-02, 4.97979298e-03, -5.71128502e-02,
          -4.38759588e-02, -6.79271892e-02, -6.86442181e-02,
          -3.61646228e-02, -2.79909763e-02, 2.22740285e-02,
          -5.91908135e-02, -3.99217894e-03, -5.65645136e-02,
          5.99394133e-03, 0., 4.05037925e-02, -3.75955808e-03,
          -4.53637987e-02, -3.56939845e-02, -4.24741618e-02,
          -4.95470352e-02, -3.15084076e-03, -2.67764647e-02,
          3.14247534e-02, 4.61000316e-02, -1.63053963e-02,
          -1.39368530e-02, -3.96094099e-02, 4.24070330e-03,
          -1.05187614e-02, -2.67058965e-02, -1.20350299e-02,
          1.66353080e-02, 2.65273862e-02, -1.22589832e-02,
          -4.66813855e-02, -7.80260414e-02, -5.24166450e-02,
          -6.68132752e-02, -3.77712250e-02, -3.47741693e-02,
          3.53268422e-02, -5.53910099e-02, -8.93658772e-03,
          -4.28960845e-02, 1.90848038e-02, 0., -3.94082090e-05,
          -4.07653535e-03, -5.47714066e-04, 1.25455006e-03,
          2.43197009e-02, 1.01269716e-02, -2.22183634e-02,
          -4.05490734e-02, -9.67052579e-03, 8.29082448e-03,
          -1.65891331e-02, -3.03242132e-02, -2.94879731e-02,
          2.66117621e-02, -2.86719692e-03, -1.53530762e-02,
          -2.65696384e-02, -7.62752304e-03, -1.44598931e-02,
          -2.56555639e-02, -1.60290543e-02, -3.25659662e-02,
          1.39781693e-02, 3.26727889e-03, -3.39282714e-02,
          -5.64296991e-02, -1.67139433e-02, -3.61306146e-02,
          -1.17228245e-02, -3.20681818e-02, 1.61333885e-02, 0.,
          -1.40821701e-03, -1.51848551e-02, -9.55464691e-03,
          9.97765549e-03, 5.68676814e-02, 9.71265323e-03,
          -3.44101079e-02, -3.34035568e-02, -2.50390288e-03,
          9.74451192e-03, 2.59929057e-03, -1.96197294e-02,
          8.16973764e-03, 1.75086539e-02, 8.91207531e-03,
          -4.92759980e-04, -3.17750289e-03, -2.46593226e-02,
          -1.73528492e-02, -1.59138627e-02, -2.19794828e-02,
          3.43919941e-03, 3.60031053e-02, -1.09927740e-03,
          -2.71270853e-02, -4.13797572e-02, -2.29053721e-02,
          -9.46908537e-03, -2.50626868e-03, -3.59745114e-03,
          5.71001368e-03, 0., 8.36380466e-04, 6.47462346e-03,
          -2.88405512e-02, 5.56352176e-03, -4.26194537e-03,
          3.77895050e-02, 4.32249997e-03, 5.79047250e-04,
          -1.08081475e-03, 4.64891130e-03, 5.48472442e-03,
          -1.84734911e-02, -1.24328351e-02, 1.30153708e-02,
          4.22966667e-02, 3.94214913e-02, -1.28189363e-02,
          1.88266151e-02, -1.20498808e-02, 5.04173059e-03,
          -5.37477061e-02, -9.88308899e-03, -4.38210974e-03,
          4.79446501e-02, 2.28759460e-02, -9.76896752e-03,
          1.05966777e-02, -6.89793844e-03, 4.11442993e-03,
          2.75106300e-02, 2.30496284e-02, 0., 1.84762701e-02,
          1.74787547e-02, -1.91716999e-02, -1.27827404e-02,
          -1.80008786e-03, 3.67859751e-02, 8.94490909e-03,
          2.27409019e-03, 6.51452178e-03, 1.28611391e-02, 4.58944915e-03,
          7.48507166e-03, -2.04157326e-02, 1.91724468e-02,
          1.55276610e-02, 2.36323997e-02, -2.33684443e-02,
          1.25222141e-02, 2.94287093e-02, 2.25514323e-02,
          -1.97468251e-02, -2.75963806e-02, -1.22723207e-02,
          1.26936864e-02, 1.32169826e-02, -2.48187296e-02,
          1.52987707e-02, 8.91942007e-04, 1.21143907e-02, 1.62860025e-02,
          2.19611973e-02, 0., 6.40311744e-03, 1.53050832e-02,
          -1.44910114e-02, -3.28333825e-02, 1.19637093e-02,
          1.47644673e-02, 2.17663310e-02, -1.64645482e-02,
          4.48372625e-02, 7.26290867e-02, 2.14657169e-02, 1.23833213e-02,
          1.62045080e-02, 3.27727129e-03, 1.48359528e-02,
          -1.49723124e-02, -1.59725361e-02, 1.97244007e-02,
          4.63806987e-02, 3.79302166e-02, -8.49283021e-03,
          -2.67301388e-02, -3.94148231e-02, 3.50093585e-03,
          -1.25978012e-02, -3.28129791e-02, 5.65182231e-02,
          4.58852109e-03, 3.43506001e-02, 1.89261381e-02, 2.73763202e-02,
          0., 3.19322012e-02, -7.21879303e-03, -3.08375265e-02,
          -2.27000844e-02, 1.98183153e-02, 5.05250692e-03,
          4.67831083e-03, -7.91533105e-03, 2.16763541e-02,
          4.30188403e-02, 4.44346555e-02, 1.89974792e-02, 2.98051573e-02,
          2.29168124e-02, 3.57694440e-02, 1.13523155e-02,
          -1.31625566e-03, 2.16130745e-02, 3.54261026e-02,
          3.46627384e-02, 6.85846957e-04, -4.59193857e-03,
          -5.56140346e-03, 6.77832228e-04, -1.44748669e-02,
          -7.88834505e-03, 3.54098566e-02, -2.44620082e-04,
          6.23176545e-02, 6.88942382e-03, 4.46814634e-02, 0.,
          6.97171241e-02, 3.39392051e-02, -4.12724074e-03,
          4.91676293e-03, 1.76322628e-02, 2.02296041e-02,
          -2.13312116e-02, -1.45722479e-02, 6.77446788e-03,
          1.10079199e-02, 3.08323372e-02, -2.98601110e-03,
          1.06524047e-03, 2.01310143e-02, 5.20836469e-03, 3.05020977e-02,
          1.65552180e-02, 6.13329709e-02, 4.15961593e-02, 3.93041074e-02,
          6.98636752e-04, -7.39255641e-03, 6.35671895e-03,
          -1.90734887e-03, -3.06735467e-03, 9.15922690e-03,
          6.13247342e-02, 5.48827695e-03, 5.99116720e-02, 2.10692151e-03,
          6.77037835e-02, 0., 5.88121451e-02, 4.36682552e-02,
          -1.94059592e-02, 2.67390385e-02, 5.20550199e-02,
          2.61376128e-02, -1.70368291e-02, 7.03467755e-03,
          3.82694975e-02, 2.83442680e-02, 1.39263291e-02,
          -2.02255510e-02, -3.02197803e-02, 7.88558554e-03,
          -1.35320956e-02, 6.31148322e-03, 2.19919365e-02,
          3.10967769e-02, 4.71848026e-02, 5.28946668e-02,
          -2.85734702e-02, -9.19532869e-03, 6.62413100e-03,
          -3.12455986e-02, -2.63419095e-02, 2.34072190e-02,
          6.20999597e-02, 1.51823750e-02, 4.52560149e-02, 3.83155467e-03,
          5.91672808e-02, 0., 1.20649328e-02, 4.13980772e-04,
          -4.50897031e-03, 1.98630840e-02, 5.72251007e-02,
          7.47813890e-03, -6.54232502e-03, -2.68960707e-02,
          -3.18703795e-04, 1.62941050e-02, 2.04443932e-02,
          -2.27600448e-02, -1.15223872e-02, 5.59936929e-03,
          -2.43228488e-03, -3.09979524e-02, -4.63576260e-04,
          1.01946965e-02, 7.34635303e-03, 1.49501991e-02,
          -2.58297976e-02, -8.07033014e-03, 1.08481664e-02,
          -7.68599380e-03, -2.44280733e-02, -2.26692297e-02,
          1.51675688e-02, 3.32124415e-03, 1.92711893e-02,
          -1.58843212e-02, 1.36259506e-02, 0., -7.23713310e-03,
          1.22094741e-02, 2.76928255e-03, 2.51827743e-02, 8.11399966e-02,
          -1.28730084e-03, 3.39413318e-03, -2.50383057e-02,
          1.21303666e-02, -6.39689807e-03, -3.61241936e-03,
          -1.68199260e-02, 1.50778610e-02, 1.87172890e-02,
          3.06968801e-02, -1.43246250e-02, -7.00606173e-03,
          7.18021253e-03, -2.03094427e-02, -2.33540987e-03,
          -8.19769036e-03, 2.43592877e-02, 5.37254773e-02,
          1.10041881e-02, 8.46478448e-04, -2.83691026e-02,
          2.25419248e-03, 2.24770214e-02, 1.52220540e-02, 1.75205118e-03,
          2.03108937e-02, 0., -3.23844962e-02, 1.59090366e-02,
          -1.24977743e-02, 4.27338481e-02, 4.92112450e-02,
          5.56505248e-02, 5.07668220e-02, 2.25506239e-02, 2.10871827e-02,
          -7.97099713e-03, 5.96809387e-02, 1.31818280e-02,
          9.96426959e-03, 1.98109094e-02, -1.59671661e-02,
          1.97515432e-02, 1.83042251e-02, 2.79120952e-02,
          -1.12508005e-02, 6.12999387e-02, -4.00490593e-03,
          4.01016660e-02, 4.74433452e-02, 1.96463484e-02, 5.61337210e-02,
          2.15774048e-02, 3.29119973e-02, 6.04986101e-02,
          -5.73165889e-05, 8.22035968e-02, 2.59723775e-02, 0.,
          -2.04894636e-02, 2.21442711e-02, 6.35696994e-03,
          -8.18573590e-03, 2.76746787e-03, 4.58879247e-02,
          3.63480896e-02, 5.91719337e-03, 6.96495315e-03,
          -2.48949565e-02, 1.59823149e-02, 2.36515291e-02,
          1.65546332e-02, 1.16803194e-03, 1.87853258e-03,
          -9.02731996e-03, 3.11401952e-03, 2.40535885e-02,
          -5.11387037e-03, 2.93790139e-02, 2.92751137e-02,
          7.77388806e-04, 3.80553771e-03, 1.99713502e-02, 1.44444508e-02,
          -1.34638464e-03, 2.99033746e-02, 3.85576971e-02,
          -1.41188018e-02, 5.61531112e-02, -9.79148038e-03, 0.,
          -4.66668420e-02, 1.87523030e-02, -1.91937685e-02,
          -3.53848338e-02, 1.49045512e-02, 2.78649610e-02,
          1.65268127e-02, -6.09472487e-03, 2.48455387e-02,
          6.45679189e-04, 3.43618691e-02, 3.45017128e-02, 2.01597996e-02,
          3.17162718e-03, -9.63647198e-03, -2.96277571e-02,
          -3.84183861e-02, 1.96808875e-02, -1.83643308e-02,
          4.31017391e-02, 1.65677406e-02, -2.46895850e-02,
          2.61564087e-03, -5.97971631e-03, -8.94033443e-03,
          -2.51796022e-02, 4.19928916e-02, 2.34969594e-02,
          -3.08639389e-02, 3.96295488e-02, -1.79353338e-02, 0.,
          -1.84478462e-02, 3.42693143e-02, -4.87806415e-03,
          -6.23994693e-03, 5.12288027e-02, 3.34671624e-02,
          1.80817693e-02, -9.17111058e-03, 1.18838865e-02,
          -3.05091664e-02, 4.13949601e-02, 5.81649877e-03,
          -1.46377804e-02, -6.97703427e-03, 1.68163108e-03,
          1.97644276e-03, -4.06181552e-02, 9.88249481e-03,
          -3.97906043e-02, 6.54385313e-02, -7.84497801e-03,
          -2.54212990e-02, 2.19951235e-02, 6.52548950e-03,
          -5.43911243e-03, -4.02104780e-02, 2.66127530e-02,
          2.31319610e-02, -1.65547263e-02, 3.95264253e-02,
          -9.23835952e-03, 0., -8.47162213e-03, 3.41864973e-02,
          -8.71433690e-03, 9.15427040e-03, 3.33083980e-02,
          6.65782914e-02, 1.40343131e-02, 1.97608620e-02, 3.93028148e-02,
          -3.81007195e-02, -5.30304993e-03, -5.75955845e-02,
          -3.35563496e-02, -5.98305603e-03, 1.73020791e-02,
          2.35630628e-02, 1.13203116e-02, 5.51856421e-02,
          -3.62890065e-02, 2.41967365e-02, -4.54370566e-02,
          -2.77004205e-02, 8.74307007e-03, 5.03562428e-02,
          1.13246776e-02, 6.00752980e-03, 8.26364979e-02, 3.96775864e-02,
          1.30093994e-03, 4.03284207e-02, -3.06782965e-03, 0.,
          2.34767571e-02, 3.53501551e-02, -1.39947794e-02,
          5.10258088e-03, 2.96495389e-02, 3.61631475e-02,
          -2.11227722e-02, 2.85398774e-03, 3.13490145e-02,
          -1.14029394e-02, 3.73203657e-05, -4.82934043e-02,
          -6.18489273e-02, 3.01040872e-03, 4.22123913e-03,
          3.17428671e-02, 3.34721953e-02, 4.58828732e-02, 2.58121261e-04,
          3.42844091e-02, -4.41035703e-02, -3.42486911e-02,
          4.05805465e-03, 2.15093158e-02, 2.16098130e-03, 2.46675462e-02,
          5.83853498e-02, 2.97932141e-02, 3.73836351e-03, 2.85755210e-02,
          -2.87603470e-03, 0., 7.85628706e-03, 3.85944918e-03,
          3.78223090e-03, 2.06093192e-02, 5.47078997e-02, 1.05060460e-02,
          -1.08484048e-02, 1.23746367e-02, 3.24965604e-02,
          -9.42862872e-03, 2.71952096e-02, -2.45564687e-03,
          -3.54390568e-03, -1.52290966e-02, 2.95213573e-02,
          1.22266887e-02, 2.05190722e-02, 2.44468655e-02, 9.97609366e-03,
          2.73605846e-02, -4.97722998e-03, 4.64959349e-03,
          1.03149889e-02, 2.18429845e-02, -6.10456118e-06,
          3.73707302e-02, 4.58480790e-02, 4.79866304e-02, 1.76464636e-02,
          2.92246640e-02, 8.18836596e-03, 0., -7.82716088e-03,
          1.93374734e-02, -5.15030697e-03, 1.71352606e-02,
          7.85955042e-02, 5.41481562e-02, 3.67438495e-02,
          -2.64734123e-02, 6.76759053e-03, -3.56292278e-02,
          6.48576999e-03, -4.06140601e-03, 1.89679284e-02,
          1.84538297e-03, 3.45903970e-02, 1.49963994e-03, 1.08824233e-02,
          5.28134145e-02, -2.34593973e-02, 1.01356758e-02,
          -1.03721553e-02, 3.30243371e-02, 4.60336544e-02,
          6.64862990e-02, 3.45529281e-02, -1.52342524e-02,
          5.32105714e-02, 6.23149462e-02, 2.08103340e-02, 3.47629078e-02,
          4.99225315e-03, 0. ]
   decision_functions:
      -
         sv_count: 1
         rho: -4.0004550281740148e-01
         alpha: [ 1. ]
         index: [ 0 ]
