<?xml version="1.0"?>
<opencv_storage>
<my_svm type_id="opencv-ml-svm">
  <svm_type>C_SVC</svm_type>
  <kernel><type>LINEAR</type></kernel>
  <C>1.0000000000000001e-01</C>
  <term_criteria><epsilon>2.2204460492503131e-16</epsilon>
    <iterations>100000</iterations></term_criteria>
  <var_all>4096</var_all>
  <var_count>4096</var_count>
  <class_count>2</class_count>
  <class_labels type_id="opencv-matrix">
    <rows>1</rows>
    <cols>2</cols>
    <dt>i</dt>
    <data>
      -1 1</data></class_labels>
  <sv_total>1</sv_total>
  <support_vectors>
    <_>
      -1.10398553e-01 7.35692009e-02 1.43056184e-01 -4.75693727e-03
      1.90624684e-01 1.10865608e-01 6.13260120e-02 8.12697187e-02
      -2.29839757e-02 9.90603352e-04 1.94355428e-01 1.03174217e-01
      1.61978137e-02 -2.91752946e-02 1.69062312e-03 5.85049810e-03
      1.10467896e-01 1.75822228e-02 -7.31257573e-02 1.23859778e-01
      1.15034774e-01 -1.85354277e-02 1.08459964e-02 -1.06317535e-01
      -2.42298786e-02 7.92336613e-02 -1.40791042e-02 -8.56543183e-02
      7.01774955e-02 7.62613118e-02 3.84078473e-01 0. -2.15747342e-01
      5.61490171e-02 -1.70322077e-03 -6.57412186e-02 -5.62548228e-02
      3.15024406e-02 1.21515408e-01 6.40584007e-02 -3.78039815e-02
      -1.20851330e-01 1.24459088e-01 1.18742689e-01 2.51646191e-02
      -2.78322063e-02 -1.30640818e-02 -3.88765447e-02 3.47474292e-02
      1.28250808e-01 -1.32293597e-01 9.70965773e-02 6.24961108e-02
      -2.43584104e-02 -4.48661000e-02 -1.01867042e-01 2.27405559e-02
      5.45568950e-02 -5.47752436e-03 4.08695173e-03 1.95056219e-02
      -5.06582670e-02 8.67991969e-02 0. 1.27141057e-02 3.73029970e-02
      -3.69248688e-02 -5.29170707e-02 9.46092531e-02 -1.00963056e-01
      -8.12751502e-02 -5.42415082e-02 5.17173931e-02 4.35402542e-02
      1.12969786e-01 8.65272135e-02 -3.12975701e-03 4.41269949e-02
      -3.70031856e-02 4.80488241e-02 4.64186631e-02 9.59759355e-02
      -5.77590726e-02 1.04989603e-01 -1.85010023e-02 -3.87906469e-02
      7.17522353e-02 -1.18153557e-01 -1.28984917e-03 5.84079186e-03
      8.19164440e-02 7.27639571e-02 2.89968885e-02 1.20824315e-02
      3.11107598e-02 0. -7.57759437e-02 4.27907426e-03 8.69777575e-02
      2.49437075e-02 2.16132775e-01 7.11373910e-02 1.73274577e-02
      -9.07066315e-02 4.53885533e-02 -8.38849768e-02 9.37854648e-02
      7.59505928e-02 -4.20285203e-02 -4.97522671e-03 -5.17553911e-02
      7.46729299e-02 1.36770174e-01 -6.53680339e-02 -6.10691644e-02
      6.43743426e-02 1.13935493e-01 -1.67967435e-02 9.19674188e-02
      -1.34911284e-01 2.19138768e-02 6.60156906e-02 -6.13267943e-02
      4.54656780e-02 8.69493484e-02 -1.50917992e-02 8.67322236e-02 0.
      -9.58691016e-02 7.59444991e-03 1.85107589e-02 -1.18473321e-02
      1.17956996e-01 3.23525481e-02 1.16651975e-01 2.04054583e-02
      3.52002233e-02 -1.53049454e-01 6.86070397e-02 1.76448792e-01
      -1.00833148e-01 6.83531677e-03 -5.21887504e-02 -2.53994763e-03
      8.18632990e-02 -1.12733163e-03 -9.07880291e-02 4.55747992e-02
      1.36420280e-01 -8.55249017e-02 5.45225628e-02 -1.18873730e-01
      3.62479016e-02 8.21567252e-02 -3.76320891e-02 -2.17289552e-02
      3.02731078e-02 3.05256266e-02 8.58379602e-02 0. 9.21132267e-02
      1.48234263e-01 -1.01361144e-02 -3.64848822e-02 -1.06729679e-02
      -1.57601386e-02 -5.38246799e-03 -8.56330618e-03 2.01569893e-03
      -5.90118431e-02 -4.30649705e-03 4.61744368e-02 1.38123042e-03
      2.49738134e-02 -3.13488543e-02 1.09077930e-01 6.59001470e-02
      3.98482643e-02 -8.21889043e-02 9.05151740e-02 -3.95974405e-02
      -4.03572991e-02 -1.87969003e-02 -1.07679144e-01 2.46454170e-03
      -5.12009580e-03 2.23908536e-02 -1.51824793e-02 5.46211340e-02
      8.86972472e-02 3.59357931e-02 0. -6.71197772e-02 1.09308943e-01
      5.29359467e-02 6.74903020e-02 1.27105534e-01 -1.77621499e-01
      -3.89093570e-02 4.16917307e-03 -6.57031173e-03 -6.54400066e-02
      5.89207523e-02 3.33295912e-02 1.13768475e-02 -2.44280510e-02
      -1.60445929e-01 5.03991507e-02 1.23536192e-01 1.04223704e-02
      -5.48850819e-02 9.68673527e-02 7.12740496e-02 3.18414345e-02
      2.06471067e-02 -2.88760394e-01 -2.68236008e-02 7.34451637e-02
      -2.52575078e-03 -3.48728672e-02 5.70387356e-02 5.81134204e-03
      2.31507998e-02 0. 5.83252311e-02 6.53785318e-02 8.32664967e-02
      -8.81145056e-03 2.81537503e-01 5.35404506e-05 7.32731968e-02
      2.17613518e-01 1.35927051e-01 -2.12138802e-01 1.70675032e-02
      8.25336725e-02 2.73161586e-02 -2.17615515e-02 -7.96261430e-02
      7.85789639e-03 4.28506993e-02 6.66738153e-02 -1.44264624e-01
      -3.94468158e-02 4.24110927e-02 1.82096753e-02 1.17604565e-02
      -1.27233863e-01 3.51395085e-02 1.82329178e-01 9.97318849e-02
      1.16624445e-01 2.96520799e-01 -5.14480360e-02 3.30233872e-02 0.
      -6.60956502e-02 -1.04829118e-01 3.38519886e-02 -8.75094384e-02
      1.43104400e-02 -9.98173654e-02 4.56311218e-02 -2.08579283e-02
      -4.37619984e-02 -1.08480770e-02 -8.36886279e-03 6.71542361e-02
      2.81917304e-02 5.90764033e-03 -2.10164934e-02 -3.74121661e-03
      5.67820035e-02 -1.86325777e-02 -5.49937300e-02 -1.10090151e-01
      9.32052508e-02 -4.83231805e-02 -3.02033164e-02 -2.09084958e-01
      3.40667702e-02 3.30187124e-03 -1.18410163e-01 -6.56792149e-02
      -1.31839916e-01 7.86667615e-02 8.71000625e-03 0. -1.65803671e-01
      3.56974714e-02 -1.10689573e-01 -1.62432820e-01 -2.10310388e-02
      1.09065296e-02 6.73414990e-02 4.16495278e-02 1.16982065e-01
      1.53960818e-02 5.36807813e-02 -4.06968668e-02 -2.08638683e-02
      8.79206136e-02 2.83640623e-02 3.75683531e-02 -7.18137100e-02
      -2.49468032e-02 -5.68898730e-02 2.50083730e-02 -7.73003921e-02
      -1.43740892e-01 -1.45099126e-04 -1.04290769e-01 6.26325235e-02
      -4.78896685e-03 -2.42402144e-02 7.18791485e-02 -5.58303930e-02
      -5.27117215e-03 -6.86519891e-02 0. -2.01384984e-02 2.92290431e-02
      -4.24743779e-02 5.07268421e-02 3.39978538e-03 -1.03947699e-01
      7.58980867e-03 1.25547782e-01 2.11940765e-01 -1.28465831e-01
      1.51067842e-02 -7.02236593e-02 -3.42281610e-02 4.45466377e-02
      7.43576000e-03 2.70112492e-02 6.71320111e-02 4.88840928e-03
      -1.35321602e-01 1.01976702e-02 -4.95343208e-02 -9.14321560e-03
      3.82204130e-02 -8.92562717e-02 -1.37938568e-02 1.98375046e-01
      1.20611273e-01 1.08483337e-01 -3.98957692e-02 2.57048439e-02
      -2.33327085e-03 0. -1.68705434e-02 -3.09322178e-02 -3.23819742e-02
      -8.59161690e-02 -9.40605849e-02 -6.74057454e-02 6.45156279e-02
      1.47486985e-01 6.25686646e-02 1.05073778e-02 1.73405662e-01
      4.49531227e-02 -1.44580394e-01 -1.39464125e-01 -6.45896792e-02
      8.16754717e-03 1.04941353e-01 1.90353826e-01 -5.83456457e-02
      9.47128907e-02 -6.50926866e-03 -1.94133818e-01 -2.19597876e-01
      -2.47956201e-01 -3.83862630e-02 2.20409945e-01 1.38744026e-01
      1.41637281e-01 -1.94597226e-02 4.65606228e-02 -1.07126825e-01 0.
      -3.38994265e-02 4.92499284e-02 1.05385751e-01 8.53381529e-02
      -1.15538657e-01 -1.02596156e-01 -8.19010362e-02 -3.21219303e-02
      -6.58737347e-02 6.07613139e-02 1.44719198e-01 6.51470646e-02
      -7.47822374e-02 9.87404212e-03 -1.19322143e-01 -3.59355584e-02
      6.94355816e-02 6.27472550e-02 1.19635407e-02 1.63409129e-01
      1.55744165e-01 -1.02682281e-02 -1.44519657e-01 -2.78793573e-01
      -1.95726722e-01 1.66023001e-02 -1.01400707e-02 2.29127798e-02
      -1.00246303e-01 1.32504299e-01 -5.95607273e-02 0. -4.41414341e-02
      1.25407264e-01 1.39126092e-01 1.22540414e-01 3.17077450e-02
      1.08878715e-02 1.63737778e-03 -1.18360408e-02 1.03928767e-01
      1.93536875e-03 -2.00805850e-02 -4.66318009e-03 -5.16940355e-02
      1.05555080e-01 -3.21327662e-03 -2.04078574e-03 -1.92114413e-02
      -9.04741585e-02 -2.12913677e-02 8.52650777e-02 1.21281609e-01
      5.35446517e-02 8.36787894e-02 -7.48252943e-02 -1.16849644e-02
      5.50353564e-02 -2.21939720e-02 6.53490797e-02 -2.71600690e-02
      1.61234230e-01 -1.30453417e-02 0. -3.00748516e-02 8.70344043e-02
      4.88226488e-02 7.55826980e-02 6.86897859e-02 -2.10063726e-01
      -1.71878133e-02 -1.40218779e-01 -1.42861120e-02 -1.24063119e-01
      -3.39921452e-02 -9.71464217e-02 1.27983755e-02 -1.53614087e-02
      5.94111346e-02 -4.63699661e-02 1.57869030e-02 -2.44353581e-02
      -8.11215863e-02 -1.76810566e-02 -8.14220607e-02 -6.63096271e-03
      3.20842080e-02 -1.33850411e-01 -2.08891891e-02 -1.35614639e-02
      -1.63093992e-02 -1.90709569e-02 -9.14218128e-02 2.44810749e-02
      -9.55120400e-02 0. -1.22077111e-02 -3.01063564e-02 1.32381886e-01
      5.75721264e-02 -5.42948917e-02 -9.73620787e-02 3.18424553e-02
      2.26841755e-02 2.61411089e-02 -1.14931323e-01 -9.43564549e-02
      2.36755498e-02 -1.08092418e-02 5.55368289e-02 5.96094653e-02
      1.64792174e-03 1.27446698e-02 -3.52161229e-02 -5.98836802e-02
      -1.52529836e-01 5.62963150e-02 -5.77446772e-03 -8.46933797e-02
      -1.94454372e-01 5.22054657e-02 2.67551728e-02 -1.00316759e-03
      9.52247232e-02 5.57187349e-02 -2.28120834e-02 -1.40127569e-01 0.
      -1.38335228e-01 -9.06058401e-02 6.49597570e-02 -6.10712506e-02
      6.07316904e-02 -1.79176647e-02 5.88211268e-02 2.24936735e-02
      -1.11849736e-02 7.10387714e-03 1.02589130e-01 4.31722961e-02
      -2.34194715e-02 2.58061048e-02 9.34091657e-02 -5.44012897e-02
      1.81794520e-02 -1.01744667e-01 -4.84767519e-02 -3.56706814e-03
      7.98301548e-02 -1.06695049e-01 -5.36693819e-02 -5.03327623e-02
      -1.12761453e-01 3.71787697e-02 -5.51519096e-02 -3.44665200e-02
      -1.53562918e-01 1.21010587e-01 6.63522407e-02 0. -8.40281788e-03
      1.13633670e-01 -3.25207151e-02 -1.16117522e-01 6.51787128e-03
      7.18418043e-03 5.12589067e-02 1.10563803e-02 -8.39953423e-02
      -2.91180741e-02 8.68267566e-03 1.37870098e-02 9.57102999e-02
      8.48822389e-03 -6.07436001e-02 -1.54317319e-02 2.31281519e-02
      4.04690951e-02 -1.15083992e-01 1.19087860e-01 -1.00615120e-03
      -1.00799035e-02 -7.12943226e-02 -1.31911889e-01 4.18112730e-04
      -3.94554529e-03 -1.54974917e-02 6.41229153e-02 -1.81845948e-02
      1.23348339e-02 -4.24403995e-02 0. -1.66768700e-01 -1.49114411e-02
      9.94640291e-02 6.00838549e-02 -4.99211699e-02 3.60691696e-02
      1.34719759e-01 3.84692028e-02 3.05723660e-02 -9.02779400e-02
      -1.77266020e-02 -1.29365638e-01 4.60847989e-02 -7.95871839e-02
      1.21523216e-01 -5.85120171e-03 1.23646099e-03 -4.37762169e-03
      -1.82719737e-01 -1.16284238e-02 2.59994529e-03 8.73284340e-02
      -2.35305708e-02 1.36730269e-01 5.79079278e-02 -3.05272755e-04
      1.73575468e-02 8.50006863e-02 -3.96601744e-02 4.39110911e-03
      -4.52837758e-02 0. 1.30304890e-02 -1.48265094e-01 -3.68354023e-02
      -1.88596457e-01 -2.02958025e-02 6.19178675e-02 -3.92390750e-02
      -4.14678343e-02 -8.23595151e-02 -1.14116944e-01 -1.55653611e-01
      -6.46889210e-02 -1.42932057e-01 -2.75860485e-02 -3.25422473e-02
      6.27585978e-04 -7.18583316e-02 -9.53404382e-02 -2.45611593e-01
      -2.50070333e-01 -2.02602476e-01 -2.99216419e-01 -1.51856793e-02
      -5.08942828e-02 1.74104236e-02 -1.26644760e-01 -1.83009863e-01
      -1.38443038e-01 -1.48880646e-01 -4.29472141e-02 -2.28904650e-01 0.
      -1.18534975e-01 -5.08061685e-02 2.06467230e-02 -5.85878678e-02
      1.15654223e-01 -3.45576294e-02 -1.09586850e-01 -6.31770715e-02
      -2.70911247e-01 -2.78425147e-03 -3.32758576e-03 3.09957787e-02
      6.08143732e-02 2.56507588e-03 -7.61068761e-02 -1.20247766e-01
      -2.33150974e-01 -1.75754771e-01 -2.22653002e-01 -8.90720710e-02
      -6.79341890e-03 4.65858355e-03 2.08693128e-02 -1.15264714e-01
      -2.47113556e-01 -3.13668281e-01 -3.12094152e-01 -9.03683379e-02
      -2.10429475e-01 -9.59550813e-02 -1.15591869e-01 0. -1.11301482e-01
      -4.88897823e-02 6.80767372e-03 7.43217990e-02 -4.81826849e-02
      -6.00143038e-02 1.62542704e-02 9.24366638e-02 8.10337067e-03
      -1.22724824e-01 5.70871904e-02 1.88914174e-03 8.52953363e-03
      5.86092062e-02 -2.38991696e-02 1.35295242e-02 -1.40328586e-01
      5.14294347e-03 -1.25180915e-01 -2.94984914e-02 2.95864232e-02
      1.01777330e-01 -5.56431361e-04 2.23209299e-02 -3.46260262e-03
      -4.37180325e-02 1.76497046e-02 -2.78253742e-02 -7.39010647e-02
      3.64611819e-02 -3.49682830e-02 0. -4.28509079e-02 2.01053433e-02
      -6.56787679e-03 -1.13652525e-02 2.27856040e-02 -8.10649469e-02
      -3.46139865e-03 -1.74358636e-02 7.29145706e-02 2.15001255e-02
      -1.23671824e-02 -3.99685726e-02 -1.33147061e-01 -8.47830027e-02
      4.23047543e-02 6.62329271e-02 9.65072513e-02 -5.35225496e-02
      -9.17617679e-02 2.49319784e-02 -5.85373901e-02 -1.59281299e-01
      -3.59888673e-02 -1.48193106e-01 -8.89393687e-03 8.41933489e-02
      8.29212591e-02 6.48297695e-03 -2.79400554e-02 1.54719381e-02
      -6.19832240e-02 0. 5.73142059e-02 -5.29870018e-02 -2.29430906e-02
      7.79564977e-02 -5.32921553e-02 -4.23947461e-02 -1.45070869e-02
      1.81670971e-02 -1.95471812e-02 -1.07620649e-01 -8.52461606e-02
      -2.24245228e-02 -9.03750677e-03 1.42662823e-01 8.69887471e-02
      -3.32537219e-02 5.68193048e-02 2.83141565e-02 3.29164676e-02
      -8.25015306e-02 -3.85007970e-02 -2.56437063e-02 7.47168511e-02
      -9.49412063e-02 -8.01224709e-02 6.01318106e-02 -5.27981929e-02
      1.15197107e-01 5.04549742e-02 -3.81196812e-02 -1.25190049e-01 0.
      -7.62384683e-02 8.49135965e-02 6.56622723e-02 5.10732569e-02
      3.38063911e-02 -1.00380592e-01 -1.08767174e-01 1.05710067e-02
      -4.16306853e-02 2.65047755e-02 6.43506274e-02 2.28964705e-02
      1.48357540e-01 9.17882547e-02 1.35442674e-01 -4.92624007e-02
      2.12568659e-02 -1.69154871e-02 -1.51645672e-02 9.86779779e-02
      5.85809909e-02 1.31949395e-01 -3.09998207e-02 -9.80027467e-02
      -1.69194579e-01 5.28297797e-02 -1.38103636e-02 -1.76733583e-02
      -1.06276177e-01 1.59220815e-01 1.36049107e-01 0. 3.10634542e-02
      3.44645791e-02 -1.08700097e-01 2.88859233e-02 4.34094891e-02
      -1.67964667e-01 -1.41104888e-02 1.72276404e-02 -5.01486138e-02
      1.70322627e-01 1.49356192e-02 -4.73348200e-02 1.03802055e-01
      3.37182172e-03 1.55636638e-01 7.49013647e-02 -6.57711178e-02
      -8.00732151e-02 7.75941834e-02 -1.92601364e-02 -7.89204016e-02
      1.65676579e-01 -1.61155779e-02 -1.19459219e-01 3.68543155e-02
      -6.02427982e-02 -1.40885770e-01 6.79627433e-02 8.12736060e-03
      3.68505460e-03 -1.19321253e-02 0. 1.08977646e-01 -8.84094788e-06
      -1.11822516e-01 -5.34412749e-02 -1.60684332e-01 -6.83653429e-02
      -8.79382528e-03 -1.19883843e-01 -4.56159674e-02 1.27059326e-01
      2.46203095e-02 -1.37355506e-01 6.63285777e-02 6.21081842e-03
      1.09775670e-01 1.08693570e-01 -3.78576890e-02 -4.40107919e-02
      9.30041373e-02 -1.51306130e-02 -2.44393080e-01 -5.46104014e-02
      -1.26861840e-01 -1.46607505e-02 1.05780728e-01 -6.40118420e-02
      -9.51610412e-03 -5.06271534e-02 -4.32064198e-03 -2.79011368e-03
      -5.35945036e-02 0. 2.33959153e-01 2.78143343e-02 -1.42936409e-01
      -2.90318131e-01 -1.59434900e-01 -3.96747217e-02 -1.48891779e-02
      -1.06560625e-01 -9.01426151e-02 7.96985626e-02 -4.15955856e-02
      -1.34904936e-01 -4.71303202e-02 2.05537587e-01 9.77134556e-02
      2.14236081e-02 -1.66373342e-01 -4.85464446e-02 7.37746283e-02
      -2.43353397e-02 -2.94248551e-01 -3.14700425e-01 -2.26004757e-02
      -8.07078555e-02 -1.12934820e-02 -2.83204466e-01 -1.57632396e-01
      -2.00534016e-01 -5.93402274e-02 -3.25661749e-02 1.88808725e-03 0.
      2.40280494e-01 -1.19755074e-01 -1.04801074e-01 -1.00704402e-01
      2.39189272e-03 -7.05110207e-02 -1.12396456e-01 -1.43647864e-01
      2.10910896e-03 2.00830221e-01 2.60513313e-02 -9.15793777e-02
      -1.26216948e-01 1.56652018e-01 1.48121342e-01 -2.58057714e-02
      -1.83507457e-01 -1.40865475e-01 1.45130217e-01 -9.92081463e-02
      -1.69508919e-01 -1.83313221e-01 -4.30065207e-02 -5.92101477e-02
      -1.14814080e-01 -3.50688279e-01 -1.15791239e-01 -4.81594503e-02
      -1.32799670e-02 -1.28411248e-01 -1.91466045e-02 0. 6.72389492e-02
      -5.94305843e-02 -1.53778479e-01 3.90897170e-02 7.63691962e-02
      -5.95445037e-02 2.20211651e-02 -1.70806333e-01 8.82877707e-02
      4.81617525e-02 3.65396845e-04 -5.34510100e-03 2.08636709e-02
      -1.45082558e-02 3.48593071e-02 -7.28527270e-03 -6.79402798e-02
      7.15621859e-02 6.42410889e-02 -5.61137833e-02 -7.54886717e-02
      4.71518524e-02 -1.41016170e-02 -5.21345027e-02 -7.17262039e-03
      -2.48797372e-01 5.84850386e-02 2.05670483e-02 -8.67362618e-02
      -4.39512264e-03 3.76512781e-02 0. 8.80109295e-02 -7.29603460e-03
      4.45964001e-02 -6.36711791e-02 -4.83871028e-02 2.75377557e-03
      6.79678619e-02 -1.08275838e-01 1.26942575e-01 1.22815862e-01
      -1.30731791e-01 -8.02561920e-03 1.09475357e-02 1.75641254e-02
      3.14992783e-03 2.31465958e-02 9.54751745e-02 3.96590680e-02
      9.41731036e-02 -1.26998201e-01 -4.40560766e-02 -2.03361306e-02
      -8.63838717e-02 -8.33126977e-02 1.09676071e-01 4.92688604e-02
      8.72227103e-02 4.25991267e-02 1.50538506e-02 7.80199766e-02
      -5.26376348e-03 0. -2.53012311e-02 -5.29793836e-03 -2.66364869e-02
      -4.38208468e-02 -3.35065983e-02 -6.61443621e-02 3.36842351e-02
      2.06819735e-02 7.23594353e-02 -1.34618014e-01 -7.48981116e-03
      4.76201102e-02 -6.89810440e-02 2.67790947e-02 1.61606163e-01
      9.51280594e-02 1.57671422e-01 2.55051553e-02 4.55208831e-02
      4.99096923e-02 2.05604322e-02 -1.48082495e-01 -4.72442508e-02
      -9.25792903e-02 3.31369154e-02 1.07671432e-01 2.65715104e-02
      1.61665991e-01 8.94524008e-02 -2.58889571e-02 -1.17165998e-01 0.
      1.07958212e-01 8.17959681e-02 9.68690217e-02 1.04846157e-01
      -2.26985407e-03 -6.02804273e-02 -5.02029099e-02 -2.59988382e-02
      -4.99458499e-02 6.36735335e-02 -4.14142311e-02 -5.91985583e-02
      1.26726823e-02 8.09262171e-02 5.56763224e-02 -4.93055442e-03
      -3.83637249e-02 2.20327768e-02 4.30405177e-02 1.26597099e-02
      2.23586652e-02 6.77612647e-02 6.85294271e-02 -1.45484522e-01
      4.75826114e-03 1.54310197e-03 -1.97804198e-02 -1.05801940e-01
      -1.03353104e-02 6.94680288e-02 1.85188204e-01 0. 8.30639824e-02
      -4.89621088e-02 -2.76431609e-02 6.71303421e-02 3.98961306e-02
      -1.22306205e-01 -1.04880393e-01 -6.41544163e-02 1.12913452e-01
      9.07268152e-02 1.93172712e-02 -1.37889892e-01 -2.18914053e-03
      5.05806170e-02 4.33450863e-02 4.52497937e-02 7.38238869e-03
      -4.14638668e-02 4.74678911e-02 7.57232262e-03 -1.43434376e-01
      5.19148558e-02 9.00577977e-02 -1.02062725e-01 4.95299101e-02
      -7.87112191e-02 1.65230781e-02 2.41812523e-02 6.11651540e-02
      -1.36819676e-01 5.62422723e-02 0. 1.41201904e-02 -1.19532175e-01
      -1.20569974e-01 1.65328443e-01 2.55181994e-02 2.47151908e-02
      1.04481980e-01 3.90269049e-02 1.20917805e-01 9.57900956e-02
      -1.69019207e-01 -2.64513195e-01 -5.83818257e-02 -3.20719108e-02
      8.29360634e-03 8.19379985e-02 1.06611006e-01 2.35318169e-02
      -4.91770394e-02 -1.93821117e-01 -4.16897804e-01 5.51916435e-02
      4.30000834e-02 8.25735480e-02 2.14750901e-01 1.44955352e-01
      1.41791865e-01 -7.86451697e-02 5.76938689e-02 -1.79836303e-02
      6.07065149e-02 0. 1.71115115e-01 4.07268181e-02 -1.90808982e-01
      -1.11936413e-01 1.20524958e-01 1.16816580e-01 8.46229196e-02
      2.54408438e-02 2.56538779e-01 1.87601194e-01 -9.67778787e-02
      -1.22100726e-01 1.70285963e-02 7.94128254e-02 1.45305647e-02
      -1.89977302e-03 -8.47836509e-02 3.34138051e-02 2.02348828e-01
      -2.62894318e-03 -2.52034426e-01 -1.40780196e-01 1.02272682e-01
      6.46594241e-02 5.25535941e-02 -4.17016894e-02 2.16527611e-01
      -1.94162037e-02 6.75797164e-02 8.21212381e-02 1.24019288e-01 0.
      2.94943482e-01 2.40283385e-01 -3.97459716e-02 3.38379405e-02
      5.29768765e-02 6.56407103e-02 9.19114649e-02 -1.81331784e-01
      -2.17246693e-02 8.09814557e-02 -7.98150990e-03 8.53538327e-03
      1.56454872e-02 1.06255054e-01 -5.87446382e-03 -1.52518433e-02
      -1.32412151e-01 -8.30306336e-02 1.78780779e-01 2.02879027e-01
      -4.91539994e-03 6.28328770e-02 1.56209126e-01 5.55820987e-02
      -1.15294261e-02 -2.51409978e-01 2.20662691e-02 6.36595637e-02
      1.05561741e-01 -2.41684634e-03 7.06200227e-02 0. 1.26834318e-01
      8.11195523e-02 -5.69965914e-02 6.57215267e-02 -2.50015613e-02
      9.32338759e-02 1.52479768e-01 -1.14864133e-01 -1.36912405e-01
      -2.41665710e-02 1.61137134e-02 9.09621641e-02 7.88813084e-02
      -2.97048725e-02 6.86838874e-04 -5.62678240e-02 -2.20360816e-01
      -2.25276053e-01 -5.50604798e-02 8.64289105e-02 9.18114334e-02
      1.76990598e-01 9.83762927e-03 9.46857333e-02 6.86013028e-02
      -3.80297840e-01 -2.37751216e-01 -4.29670177e-02 3.35629075e-03
      -6.13106340e-02 1.44110834e-02 0. 6.46292865e-02 1.11255035e-01
      8.33317786e-02 -7.21866563e-02 -5.16326949e-02 -7.76756406e-02
      6.34301081e-02 -8.30131397e-02 3.05460282e-02 5.40891625e-02
      -6.57062083e-02 -2.24667918e-02 -3.23762633e-02 6.73050955e-02
      9.12627876e-02 -3.49342972e-02 -9.42473412e-02 -3.12293135e-02
      -4.91604954e-02 3.02040875e-02 1.28925601e-02 3.95335164e-03
      4.69116569e-02 2.40855124e-02 4.53621894e-02 -1.30655065e-01
      2.70415153e-02 -6.10235892e-02 1.31153222e-02 3.12469285e-02
      1.68408975e-02 0. -7.66191408e-02 6.89783394e-02 -1.44465957e-02
      -5.33112697e-02 -1.36562390e-02 3.14249136e-02 1.15014479e-01
      1.25211716e-01 7.19091445e-02 9.12710186e-03 -5.06726019e-02
      2.04107482e-02 2.89427675e-02 5.26165962e-02 1.06877096e-01
      -1.85439929e-01 -4.60794456e-02 -5.80802560e-02 1.61098987e-02
      5.76215051e-02 7.36517906e-02 2.37295367e-02 -7.96330795e-02
      1.00900941e-02 -6.96998090e-02 1.91974023e-03 -6.59117848e-02
      5.83631434e-02 1.35911688e-01 -8.41220617e-02 -4.78301942e-02 0.
      5.20546436e-02 1.10755758e-02 1.16421923e-01 1.06530517e-01
      3.12202312e-02 4.79616299e-02 1.84169993e-01 1.04277134e-01
      -8.23652297e-02 7.41129890e-02 1.32019250e-02 -1.01707786e-01
      2.84770280e-02 2.36081015e-02 -1.70366541e-02 -6.49219602e-02
      -6.47915527e-02 -5.81676960e-02 2.01137736e-02 5.63362911e-02
      3.94710489e-02 1.19791918e-01 -3.30750048e-02 -4.00544852e-02
      1.28345817e-01 -1.54968891e-02 -1.32889777e-01 -4.57641557e-02
      5.47926538e-02 -1.10193370e-02 1.92493394e-01 0. 3.88061814e-02
      -1.56417802e-01 8.91655497e-03 6.02295399e-02 -2.14690007e-02
      -9.29143280e-02 2.26603691e-02 4.02387790e-02 2.13247743e-02
      6.27173483e-02 8.33344739e-03 -4.49988879e-02 1.03719078e-01
      1.73249990e-01 -3.28660407e-03 1.15666278e-02 -2.46578418e-02
      -1.43799216e-01 -2.01329160e-02 -1.01023354e-01 -6.36003539e-03
      1.15561932e-01 6.65378273e-02 -1.35665774e-01 2.38356367e-02
      1.12184016e-02 7.37725059e-03 4.00913581e-02 9.17169079e-02
      -1.21336341e-01 1.98009126e-02 0. 2.21861396e-02 -7.82848522e-02
      -2.02782992e-02 1.72600493e-01 7.14158341e-02 4.32284623e-02
      5.26294373e-02 2.28475556e-02 -8.67688060e-02 8.51215273e-02
      -8.99141729e-02 -2.15278547e-02 8.07299092e-02 -6.84208050e-03
      3.77051197e-02 -2.90233530e-02 -5.25944568e-02 -5.50247058e-02
      -2.27189660e-01 -1.53512120e-01 -3.15112360e-02 2.21794859e-01
      5.33011332e-02 7.41697699e-02 2.60054041e-02 -2.56897435e-02
      -6.98906779e-02 -5.55120297e-02 7.37344921e-02 -2.13981196e-02
      7.30399042e-02 0. -1.49157010e-02 -1.01058967e-02 4.82960157e-02
      5.22295684e-02 4.96504903e-02 6.55719191e-02 1.77799210e-01
      6.13022000e-02 2.22901218e-02 -3.48767079e-02 1.01830900e-01
      4.79829721e-02 7.16115609e-02 7.20457509e-02 -6.50750846e-02
      -1.44531131e-01 2.03453433e-02 -9.94704515e-02 -1.42901078e-01
      1.39697343e-01 5.02387546e-02 1.71072215e-01 1.91364646e-01
      -9.02032945e-03 5.84678240e-02 -2.94105411e-02 5.94414696e-02
      1.39031447e-02 2.88777798e-02 3.71663347e-02 1.18974626e-01 0.
      -1.07046496e-02 4.74195834e-03 3.64135243e-02 8.95408913e-02
      2.63140440e-01 7.84457847e-03 1.34715632e-01 7.43745193e-02
      2.35142540e-02 6.72419788e-03 -1.27834111e-01 2.43640412e-02
      -6.55316561e-02 1.27784193e-01 1.31025948e-02 3.54157090e-02
      7.42632244e-03 6.44335672e-02 -7.74602070e-02 -2.69732857e-03
      1.72566734e-02 6.27032742e-02 3.03603768e-01 1.03700653e-01
      1.92287177e-01 1.07011952e-01 8.11044201e-02 1.06426284e-01
      1.26948178e-01 3.12006604e-02 6.98671415e-02 0. 8.71025547e-02
      -1.51490092e-01 3.30147371e-02 1.20608658e-01 9.44164544e-02
      5.84261976e-02 1.47572786e-01 2.22873911e-02 3.60929407e-02
      4.26140130e-02 -1.66746557e-01 -1.40669376e-01 -5.65524660e-02
      4.74493615e-02 3.88759114e-02 1.25119939e-01 -5.92808947e-02
      -1.55806422e-01 -1.36717141e-01 -1.52772129e-01 -5.11730537e-02
      8.17947611e-02 8.07790235e-02 7.92214051e-02 2.12672278e-01
      -7.53463358e-02 -1.40749112e-01 -2.95493682e-03 4.74302657e-02
      -5.03537804e-02 6.38772324e-02 0. 9.46011096e-02 2.26720627e-02
      -8.39517044e-04 1.46493688e-01 -5.77685796e-02 -8.49191993e-02
      -4.17738147e-02 -1.53148815e-01 1.75652131e-02 6.23976514e-02
      -1.34275645e-01 -5.26601113e-02 3.83605845e-02 -1.16266171e-02
      1.53032511e-01 9.92773697e-02 -6.84613734e-02 -3.88962254e-02
      2.33351835e-03 4.96037677e-02 5.24289049e-02 1.35983989e-01
      -5.98970540e-02 1.99827924e-02 5.67674637e-02 -1.08120002e-01
      4.27180640e-02 -8.24929029e-02 -6.33539911e-03 3.01745608e-02
      5.39540052e-02 0. -4.30321246e-02 -3.00781168e-02 6.74665347e-02
      6.61314726e-02 1.94419548e-02 -4.55615530e-03 1.18551910e-01
      7.47316852e-02 5.94408512e-02 1.25071511e-01 -1.85427330e-02
      -6.44844025e-02 1.04088979e-02 -5.35995439e-02 1.06167071e-01
      -8.25254023e-02 -1.08750567e-01 1.42111047e-03 4.74412814e-02
      3.32500599e-02 -7.90317915e-03 7.91223645e-02 -3.17860991e-02
      -4.26100455e-02 4.82112728e-02 -4.20185775e-02 7.53485188e-02
      1.01868091e-02 1.44835800e-01 -3.69395539e-02 -3.40843783e-03 0.
      3.97973545e-02 -5.37897870e-02 -1.19604627e-02 -8.72738566e-03
      -1.27646729e-01 -8.12880620e-02 1.05533991e-02 1.16168626e-01
      -3.49596236e-03 1.78974554e-01 -4.12294418e-02 7.53413513e-02
      -1.92818530e-02 -2.52787974e-02 1.89079791e-01 -2.36073858e-03
      1.68100949e-02 -9.17964578e-02 5.43672852e-02 -1.16035670e-01
      3.30566391e-02 -6.06597401e-02 -9.97290984e-02 -8.22515879e-03
      1.54544134e-02 5.58617823e-02 -1.54652670e-01 -4.40642945e-02
      2.74527166e-03 2.05665994e-02 9.61149260e-02 0. 1.31375287e-02
      3.48875709e-02 3.22149657e-02 -2.74084844e-02 -2.23093247e-03
      -8.89748707e-02 5.54093607e-02 1.88664626e-02 4.45407629e-02
      6.43041283e-02 -1.28855273e-01 -1.56969111e-02 -5.52205518e-02
      -4.33220677e-02 -4.25174311e-02 4.53672074e-02 -7.11848736e-02
      3.03187426e-02 8.37566704e-02 -5.85002415e-02 -6.78878045e-03
      -7.52147958e-02 2.25068815e-02 -1.44921511e-01 8.46986696e-02
      3.91445123e-02 1.11022569e-01 4.82570305e-02 9.65768844e-02
      -1.50575176e-01 -5.85410558e-02 0. 8.26976169e-03 -1.17181733e-01
      -7.75560588e-02 5.82896769e-02 1.04466036e-01 4.94927876e-02
      -3.65254208e-02 1.19733950e-02 -1.08559355e-02 1.26476943e-01
      -2.50481144e-02 -6.16147369e-02 5.41309640e-02 3.19766030e-02
      8.32371861e-02 2.84004640e-02 4.85067889e-02 -1.18335381e-01
      -1.12179697e-01 -1.67214915e-01 -1.14312515e-01 7.24256188e-02
      9.36458111e-02 9.01879370e-02 4.60632071e-02 9.06429440e-02
      -1.51452914e-01 -4.11324232e-04 -5.79149649e-03 1.37045886e-02
      6.70281053e-02 0. 7.00085834e-02 -9.70104933e-02 2.48756111e-02
      -3.07587497e-02 4.75972779e-02 -1.50657505e-01 -1.12803308e-02
      -4.09854129e-02 -4.44571748e-02 1.32370561e-01 3.31726149e-02
      -5.84046505e-02 7.74703622e-02 5.16892895e-02 -8.26869980e-02
      -9.41798091e-02 7.47218505e-02 -1.25827730e-01 2.30265781e-02
      4.63535301e-02 -1.84583906e-02 5.98396510e-02 3.40114534e-02
      -1.89388677e-01 8.53271410e-03 -6.62953481e-02 -7.67803192e-02
      -1.22000597e-01 -2.24810578e-02 -1.54503677e-02 5.41768670e-02 0.
      1.00931741e-01 2.09357385e-02 -1.21504799e-01 -7.33915791e-02
      -1.21462353e-01 -9.81856417e-03 1.45676713e-02 3.22861411e-02
      1.02739565e-01 1.69595510e-01 -1.36329243e-02 4.44540568e-02
      -3.99687476e-02 6.84029981e-03 2.37692483e-02 5.95467761e-02
      2.57721990e-02 2.55063195e-02 5.34935109e-02 1.71097554e-02
      -8.53595212e-02 -4.99718338e-02 -1.15760848e-01 2.76342966e-04
      7.40405694e-02 3.22446264e-02 5.50538376e-02 4.58892770e-02
      7.75855780e-02 -5.88572100e-02 5.18965498e-02 0. 7.89000541e-02
      2.73588859e-02 2.49513146e-02 -5.51516972e-02 4.15403396e-02
      -6.75059408e-02 -3.82729853e-03 -5.84783927e-02 -1.43786564e-01
      3.72241102e-02 -6.95121139e-02 1.14881024e-01 2.53727697e-02
      1.08302772e-01 3.96267027e-02 2.36842856e-02 -1.63814221e-02
      -4.42161299e-02 -1.03303634e-01 -2.39457488e-02 1.55722380e-01
      6.93854038e-03 1.06637560e-01 -4.47224751e-02 1.69519186e-02
      -3.90452221e-02 -1.28154576e-01 5.90038300e-03 5.13395891e-02
      -3.12312450e-02 3.68134351e-03 0. 1.51946126e-02 -3.91208678e-02
      -1.34862354e-02 1.07548431e-01 -2.39798445e-02 -1.34830043e-01
      4.56454195e-02 -2.34396290e-02 6.34039342e-02 4.26132530e-02
      -3.61265009e-03 2.17833836e-03 -2.44059060e-02 -1.31898716e-01
      -1.22519850e-03 -4.23434190e-02 1.79014839e-02 -1.43469721e-01
      -4.05014828e-02 7.56856753e-03 9.27254744e-03 7.17452317e-02
      -9.98577103e-02 -1.32735938e-01 5.56952730e-02 -2.08208896e-02
      -3.71622443e-02 -1.25486046e-01 -6.32418618e-02 7.73105491e-03
      4.55510058e-02 0. 1.70459807e-01 -1.07043199e-02 -2.61613261e-02
      3.40672247e-02 2.11041979e-02 -1.56690821e-01 2.06551347e-02
      1.65698044e-02 5.53803556e-02 7.30492845e-02 -1.34748727e-01
      6.16630092e-02 -1.36368303e-02 1.05390623e-01 8.63351896e-02
      7.62795508e-02 1.32908463e-01 1.46378446e-02 1.11475475e-02
      -1.20378554e-01 4.59217317e-02 4.01835889e-02 9.89895165e-02
      -1.32924631e-01 5.28107621e-02 6.20204769e-02 -1.60151944e-02
      9.30507779e-02 1.11332722e-01 3.84381344e-03 3.99923474e-02 0.
      5.17997332e-02 2.06036549e-02 1.42785665e-02 -6.75768405e-02
      8.45708475e-02 -9.00377706e-03 6.24275133e-02 4.83363215e-03
      4.24064398e-02 1.75018191e-01 2.44268607e-02 5.12101948e-02
      -6.60289973e-02 -6.48088008e-02 3.22594860e-04 9.21340194e-03
      6.75035920e-03 -5.73156066e-02 -5.94872655e-03 -2.34661512e-02
      5.32845333e-02 -7.02909306e-02 -1.57712512e-02 -8.18229839e-02
      5.11761159e-02 -1.18211834e-02 -4.18663323e-02 -4.01709303e-02
      1.88303983e-03 6.60825819e-02 1.05671830e-01 0. 9.20548663e-02
      -6.81649297e-02 -1.01250321e-01 -1.45513862e-01 5.93743473e-02
      7.58662522e-02 1.00406632e-01 2.24980153e-02 -5.40539287e-02
      1.25783786e-01 -2.21789461e-02 1.52171075e-01 4.76671755e-02
      -2.35740002e-02 4.96418662e-02 4.72233668e-02 2.23606117e-02
      -1.08917296e-01 1.96138490e-02 -1.02995239e-01 2.68703923e-02
      -8.15486014e-02 -2.80683618e-02 4.54592258e-02 1.09323785e-01
      2.98980977e-02 -9.22127217e-02 6.48821071e-02 1.40408874e-01
      -6.70470297e-02 -1.03085106e-02 0. 7.14943111e-02 -1.47337884e-01
      -8.70916918e-02 -2.61328388e-02 6.88876063e-02 1.37433559e-01
      2.15554554e-02 -7.42398389e-03 -1.55118421e-01 -5.31836189e-02
      5.84098510e-02 -3.81095782e-02 1.04381569e-01 1.39785215e-01
      1.33825228e-01 2.96791792e-02 1.78821221e-01 7.35554323e-02
      -1.23125255e-01 -6.81628659e-02 -9.30833742e-02 6.95451871e-02
      8.18100125e-02 2.33184136e-02 1.79387759e-02 4.93151397e-02
      -1.05344765e-01 9.59000662e-02 6.35382608e-02 -1.34681845e-02
      9.13470387e-02 0. 5.10282479e-02 4.90643121e-02 7.50446767e-02
      -8.99441913e-02 4.09430545e-03 -1.09953225e-01 -6.02832027e-02
      7.70256072e-02 1.78929627e-01 1.86270609e-01 5.04311062e-02
      -5.39990813e-02 7.39488974e-02 6.35760948e-02 1.08894091e-02
      -9.50176269e-02 5.95302023e-02 -9.97541919e-02 9.90782827e-02
      7.97178447e-02 1.87082170e-03 9.95007716e-03 -1.23806089e-01
      -2.55145818e-01 -7.62393475e-02 5.87859862e-02 2.32718866e-02
      2.34932899e-02 8.81088059e-03 4.26913798e-02 9.98380631e-02 0.
      1.54915631e-01 1.22897908e-01 1.11594066e-01 -1.70337316e-02
      -1.81595366e-02 -5.28824255e-02 -1.09794382e-02 1.38054807e-02
      7.49719366e-02 1.13756612e-01 -4.97614294e-02 4.71808650e-02
      1.02043180e-02 7.02069029e-02 5.75352237e-02 1.42266927e-03
      3.16063724e-02 -9.51268673e-02 3.74183916e-02 6.87250495e-02
      8.35270956e-02 4.03133035e-02 -1.06136814e-01 -1.24452516e-01
      -5.70197217e-02 1.72593631e-02 -6.05941340e-02 9.37440619e-02
      1.18164487e-01 1.51830707e-02 3.97936739e-02 0. -1.50067359e-01
      -1.32326394e-01 -1.66298281e-02 1.63423605e-02 9.48967561e-02
      1.68296567e-03 2.67928131e-02 4.93000932e-02 -1.77290097e-01
      -4.06798348e-02 -8.23732391e-02 4.98788916e-02 -2.09499076e-02
      -1.11060953e-02 1.49136841e-01 4.63398211e-02 4.34175134e-02
      -6.34260327e-02 -2.12966114e-01 -1.43789530e-01 -3.04765534e-03
      -1.42534811e-03 4.31233309e-02 5.24297506e-02 7.99326152e-02
      1.13756545e-02 -1.69588000e-01 -7.74665475e-02 2.28968021e-02
      -3.50071155e-02 -1.27455480e-02 0. 5.26859201e-02 -1.67654470e-01
      -1.46246771e-03 5.42403162e-02 8.56252834e-02 -4.55230325e-02
      -1.12791792e-01 2.15519182e-02 1.70068238e-02 3.44356708e-02
      -1.52978584e-01 -1.48407696e-02 1.02909014e-01 -1.03727758e-01
      1.20357564e-03 2.04101149e-02 1.19422652e-01 -6.76757172e-02
      -1.14107691e-01 -1.97568148e-01 -2.12277286e-02 1.17436811e-01
      1.46599729e-02 -1.65670346e-02 -6.08481206e-02 7.39288703e-02
      -6.14148937e-02 -5.25821894e-02 -4.45311554e-02 -1.71867367e-02
      4.02132720e-02 0. 1.11851558e-01 6.61456138e-02 5.18718511e-02
      -8.34490545e-03 -3.19161601e-02 5.38270175e-02 -2.17618328e-02
      4.02180515e-02 2.32593790e-02 4.21708860e-02 -1.20344512e-01
      9.23774913e-02 1.17290214e-01 -6.61913976e-02 -8.37981794e-03
      -8.47783387e-02 1.27515681e-02 1.08340554e-01 3.85976359e-02
      -7.15230480e-02 1.00679465e-01 8.03105012e-02 -4.25169803e-02
      6.38679788e-02 -5.09581715e-03 2.60656793e-02 9.49815363e-02
      1.21572755e-01 1.28336385e-01 -3.80410291e-02 -3.34963575e-02 0.
      5.82848787e-02 -1.38657400e-02 2.24968381e-02 1.41723985e-02
      5.21312803e-02 -5.31145111e-02 -1.09796949e-01 -8.46392959e-02
      3.02413460e-02 5.59734441e-02 1.26209393e-01 1.00350350e-01
      -1.60806477e-02 4.83403169e-02 3.48026007e-02 3.08242580e-03
      2.84698829e-02 -2.27526221e-02 -8.35192949e-03 8.60223696e-02
      7.44049549e-02 2.98641808e-02 -7.92288333e-02 -1.03003696e-01
      -4.62998934e-02 -2.89803762e-02 -5.28437570e-02 -3.04244924e-03
      -1.48912966e-02 3.09293941e-02 1.16311908e-01 0. 1.04893237e-01
      -5.90362847e-02 2.83258595e-02 -9.49504133e-03 4.48802747e-02
      -5.27810007e-02 1.34675018e-02 -1.10608108e-01 -9.15574282e-02
      1.31156519e-01 -3.70002985e-02 1.46577761e-01 5.10805845e-02
      1.05228536e-01 3.63055319e-02 1.49654821e-01 -1.24645576e-01
      -8.45767632e-02 -2.90850829e-03 -8.52169767e-02 1.44849673e-01
      7.52007738e-02 1.20844068e-02 -6.65255189e-02 2.02072054e-01
      -1.62791818e-01 -1.05221532e-01 1.54167041e-01 7.40762576e-02
      -6.02021739e-02 -5.40235341e-02 0. 7.03406939e-03 -4.30900194e-02
      -5.79744019e-02 -1.13112316e-01 4.10583429e-02 -2.00443193e-02
      -4.81527783e-02 2.35998686e-02 -1.95064679e-01 -3.58413309e-02
      -3.74691449e-02 -6.58778176e-02 5.53683564e-02 1.40514635e-02
      -7.11490959e-02 6.83340356e-02 1.15694031e-01 8.44553113e-03
      -2.82393515e-01 -1.56822726e-02 -2.61416025e-02 -3.44370422e-03
      5.46895117e-02 -1.94610670e-01 5.58660366e-03 9.76626351e-02
      -2.02296019e-01 1.24200722e-02 -4.44210730e-02 -1.10940924e-02
      -1.23870172e-01 0. 1.71368450e-01 -3.14185284e-02 -2.63971034e-02
      -5.96064553e-02 2.16054931e-01 6.26838058e-02 -1.40195683e-01
      -4.22049835e-02 -1.45104825e-02 1.11953557e-01 4.70423736e-02
      1.14750244e-01 8.57643187e-02 9.18779969e-02 -1.14264898e-01
      8.94013420e-02 2.27181002e-01 2.79870722e-02 6.78136721e-02
      5.01983166e-02 6.90334886e-02 6.78261509e-03 8.66158009e-02
      -8.03501979e-02 -1.60707626e-02 7.51413479e-02 -6.46615550e-02
      1.15435660e-01 3.50373238e-02 1.38381273e-01 9.64996442e-02 0.
      1.34012297e-01 8.04450735e-03 -6.95013404e-02 -1.75779969e-01
      8.13083500e-02 1.87245190e-01 -2.84939986e-02 1.76982477e-03
      7.87578672e-02 2.59687990e-01 -1.60492621e-02 1.26625091e-01
      4.96269464e-02 -5.46998493e-02 3.15983780e-02 2.13545300e-02
      1.12805389e-01 -1.16004348e-01 4.68997881e-02 8.72005150e-03
      3.59167997e-03 -9.35919583e-02 -2.81897355e-02 9.36188549e-02
      5.95923513e-03 1.17901564e-01 -6.53278902e-02 5.79624809e-02
      1.22428559e-01 8.87654051e-02 2.89133564e-02 0. -1.44475885e-02
      -8.46872702e-02 -4.60607409e-02 -1.02234386e-01 1.89978052e-02
      -6.07372634e-03 -9.58468020e-02 9.17213336e-02 -1.07676297e-01
      2.22973172e-02 -3.58074196e-02 6.52658194e-02 6.42235801e-02
      1.70286391e-02 6.82641864e-02 9.19308811e-02 -5.97750284e-02
      -4.65394594e-02 -1.79069683e-01 -7.01006800e-02 4.40354086e-03
      -5.27315885e-02 -1.50483131e-01 4.95560803e-02 5.02147824e-02
      3.29134390e-02 -7.43885562e-02 -3.48687284e-02 -2.33920328e-02
      -1.76424347e-02 7.53005268e-04 0. 1.68533984e-03 -4.43983078e-02
      -9.01714433e-03 -9.13365744e-03 9.74868461e-02 -2.67740190e-02
      -1.23382010e-01 3.61878350e-02 3.34007517e-02 1.33800432e-01
      -6.40053302e-02 -7.04029351e-02 9.25385281e-02 -1.19303707e-02
      1.27171546e-01 -1.59416758e-02 7.35914111e-02 -4.53178622e-02
      -1.17994495e-01 -3.87291750e-03 -8.07602480e-02 8.98372903e-02
      2.24918127e-03 3.51654366e-02 -3.52076069e-02 3.31879295e-02
      -3.63918021e-02 -8.53089169e-02 4.46312539e-02 5.05553484e-02
      7.28810057e-02 0. 3.41977626e-02 9.73122716e-02 -5.31306192e-02
      -4.41610403e-02 -8.43298808e-02 7.82973394e-02 1.22893881e-02
      1.43120531e-02 4.08241351e-04 -2.34768130e-02 -4.63658161e-02
      -3.22757824e-03 4.22614403e-02 4.69003245e-02 1.86765529e-02
      -9.14413482e-02 2.67849881e-02 2.21317470e-01 1.32863224e-02
      1.25620060e-03 -8.39772150e-02 3.62964049e-02 -9.34840217e-02
      -7.44150728e-02 5.55155054e-03 2.95274667e-02 2.06357762e-01
      -1.94947906e-02 2.09274694e-01 -8.59041810e-02 1.23831918e-02 0.
      1.71966881e-01 -1.78521890e-02 -5.38555672e-03 -5.29617630e-02
      3.29516493e-02 3.55148613e-02 -1.32762520e-02 4.07471396e-02
      -7.09939376e-02 -1.07380800e-01 -1.79885086e-02 9.08325315e-02
      -1.25585822e-02 4.45334166e-02 1.15509354e-01 2.07628720e-02
      4.24894579e-02 7.99537264e-03 -5.07768989e-02 -5.67655973e-02
      6.80423528e-03 -3.25486995e-02 5.89492880e-02 1.08155515e-02
      3.23500782e-02 7.32917115e-02 -7.41764978e-02 -2.54463982e-02
      1.97125971e-02 5.31315356e-02 9.63349342e-02 0. 1.60289407e-01
      -3.95179540e-02 -2.95680314e-02 -7.39333481e-02 -1.28193423e-01
      8.25645030e-02 -3.17320973e-02 -5.26333489e-02 6.33919761e-02
      5.90183809e-02 3.01403459e-03 7.57653639e-02 -2.74246279e-02
      2.24282849e-03 1.28919119e-02 8.61574635e-02 1.61266271e-02
      -4.76465784e-02 1.91173442e-02 1.44679770e-02 2.88303383e-02
      -7.88259357e-02 -7.51302466e-02 -3.91611196e-02 1.10155284e-01
      -8.90347757e-04 8.05825889e-02 6.97167590e-02 1.32131845e-01
      -8.22608992e-02 -5.79223968e-02 0. 1.22580230e-01 -2.28029452e-02
      4.63453569e-02 -3.98166440e-02 -1.24828123e-01 3.19693163e-02
      -2.85983142e-02 1.63058583e-02 -7.62867108e-02 -2.98006535e-02
      -1.18142940e-01 -3.94753106e-02 -1.17754992e-02 -8.00654814e-02
      1.61608849e-02 2.18809754e-01 1.06192589e-01 9.42659657e-03
      -1.63123786e-01 -1.06616408e-01 4.87560704e-02 1.53361484e-02
      -5.71051165e-02 -7.88946971e-02 1.73988983e-01 9.39717963e-02
      -1.81469340e-02 -2.01786049e-02 2.79469863e-02 -2.29627267e-02
      1.34020904e-02 0. 1.47558957e-01 -7.42423162e-02 -1.04432985e-01
      -5.45540191e-02 -1.19521804e-02 9.73289758e-02 -5.72180636e-02
      -9.40179974e-02 -1.82167351e-01 -1.39977291e-01 2.12229807e-02
      2.09335852e-02 9.09781605e-02 3.26365456e-02 9.37377010e-03
      1.39954597e-01 2.25916788e-01 2.45824195e-02 -1.38485268e-01
      5.45787159e-03 -3.49034518e-02 4.66374569e-02 2.52114050e-02
      -4.26964369e-03 9.93048102e-02 1.16231330e-01 -8.77695903e-02
      -4.65970375e-02 -2.49118102e-03 3.45423333e-02 5.78791127e-02 0.
      -4.75817621e-02 -1.66641667e-01 -8.15338343e-02 -4.95627671e-02
      1.96038038e-02 4.24236804e-03 -2.64046714e-02 -1.76394522e-01
      -1.70653854e-02 1.77562535e-01 -2.00222284e-02 1.65611997e-01
      1.29461288e-01 9.11860913e-02 6.90755621e-02 9.97093394e-02
      -8.69951695e-02 -1.62697863e-02 -1.91825852e-01 -1.03098810e-01
      5.42912297e-02 7.39504620e-02 2.93053742e-02 1.25945583e-02
      5.61210699e-02 -1.59980103e-01 -6.21206537e-02 -1.27707031e-02
      1.20134959e-02 -1.11619139e-03 3.39197479e-02 0. 7.51609504e-02
      -4.02208492e-02 4.36626039e-02 -1.32462040e-01 2.57732011e-02
      -2.19202731e-02 9.24574584e-02 5.98433912e-02 -1.05802171e-01
      8.30010101e-02 -2.39971597e-02 1.74783975e-01 2.16252357e-01
      -9.69190989e-03 -4.36796173e-02 1.88037902e-02 -5.95067441e-02
      -6.97252452e-02 -1.67536706e-01 -3.23167332e-02 1.79625615e-01
      5.81726283e-02 -7.30982125e-02 -5.88130802e-02 1.55373007e-01
      4.35814485e-02 -1.14234023e-01 -6.38785912e-03 6.70638606e-02
      2.01716069e-02 5.24326116e-02 0. 1.84832066e-02 -3.34425047e-02
      -1.55374520e-02 3.39499600e-02 1.43869594e-01 -9.18815583e-02
      -8.03179294e-02 -9.69509594e-03 4.99192066e-02 1.25518128e-01
      -3.56852449e-02 6.18334338e-02 6.08167937e-03 -3.95533554e-02
      1.04689822e-02 -9.99196433e-03 1.80003997e-02 3.23708691e-02
      -5.71944565e-02 1.84805375e-02 8.15015938e-03 4.96571548e-02
      4.75819223e-02 -9.48934853e-02 -8.11322406e-02 -3.86998989e-02
      5.63792326e-02 -4.96796593e-02 -3.66173014e-02 6.38991147e-02
      1.09319478e-01 0. -7.68702924e-02 -2.53558550e-02 -7.31807202e-02
      -4.04679105e-02 9.69289392e-02 -3.57748717e-02 -2.02443693e-02
      -5.56633696e-02 -1.49814054e-01 1.40381455e-01 3.09334937e-02
      1.24514945e-01 7.36064389e-02 2.67696548e-02 7.62206018e-02
      -8.47177505e-02 8.93840864e-02 6.02562726e-02 -7.68598765e-02
      9.03754029e-03 -2.32865568e-02 2.07347944e-02 -1.11592552e-02
      -3.59012261e-02 -4.97018918e-02 2.12310478e-02 -3.73247974e-02
      1.86172556e-02 1.03582539e-01 -2.68994235e-02 -2.13345289e-02 0.
      1.87546149e-01 2.03232225e-02 9.16436315e-02 3.09826527e-02
      1.56939134e-01 -3.58865317e-03 -3.59474355e-03 1.30579164e-02
      -1.88010596e-02 -5.40307425e-02 -3.18464972e-02 5.40843159e-02
      1.45045081e-02 7.96600431e-02 9.49063078e-02 6.18817285e-02
      3.67500111e-02 -1.10613436e-01 5.23986854e-02 -1.96911171e-02
      9.97529402e-02 7.39973038e-02 6.90291822e-02 -8.95542577e-02
      3.49451602e-02 4.83078584e-02 -4.35069762e-02 -2.74232831e-02
      6.81639910e-02 1.24062382e-01 1.27372712e-01 0. 3.12470555e-01
      -2.03475207e-02 -5.12145124e-02 6.73076510e-02 -3.30454633e-02
      -1.22466236e-01 -2.71631237e-02 -7.42653310e-02 4.62112725e-02
      1.53947726e-01 -9.54252109e-02 -2.88053509e-02 -3.30834053e-02
      -5.94412237e-02 -5.36943832e-03 -9.14750323e-02 -4.45910916e-02
      8.32318887e-02 5.17363613e-03 -7.92987347e-02 1.13441544e-02
      1.15198502e-02 3.60296736e-03 -1.01530008e-01 -1.05781600e-01
      -5.56817800e-02 1.04435690e-01 1.96532551e-02 1.07571624e-01
      -1.14691012e-01 -2.36230195e-02 0. 4.44149151e-02 -9.72589776e-02
      -1.15218110e-01 5.42193353e-02 1.57474000e-02 4.64397930e-02
      -1.05410486e-01 -9.29025933e-03 -1.51738986e-01 -4.83340099e-02
      -1.25547349e-01 -8.63675103e-02 5.31066507e-02 6.14871010e-02
      1.01379216e-01 9.29416269e-02 2.65853759e-02 -6.97889999e-02
      -2.51911819e-01 -8.68499056e-02 -9.02865902e-02 9.84592885e-02
      -1.44335227e-02 -4.31198772e-04 1.64453536e-02 7.52927735e-02
      -1.33787423e-01 -3.76347415e-02 -4.30169515e-03 -1.03349112e-01
      -2.08975933e-03 0. -1.01171158e-01 -2.75473267e-01 -1.13858514e-01
      -3.06167398e-02 6.38782829e-02 5.64812385e-02 1.81047805e-02
      -7.22893029e-02 -2.16712549e-01 -6.20008679e-03 6.50939159e-03
      -5.96810207e-02 1.19199716e-01 1.62891418e-01 1.29122436e-01
      5.74915521e-02 1.28259718e-01 -8.70078579e-02 -2.87867248e-01
      -6.53858855e-02 -1.93033725e-01 1.10800974e-01 1.90705389e-01
      8.09658542e-02 9.02402475e-02 6.91104978e-02 -1.81137800e-01
      -4.53942679e-02 -7.87301064e-02 -2.13949457e-02 4.13060226e-02 0.
      1.95052594e-01 -1.30870804e-01 -6.42943615e-03 -7.40935877e-02
      4.83529828e-02 -2.78313309e-02 3.36023271e-02 -1.42180905e-01
      -3.10709059e-01 -1.61495253e-01 -4.63412516e-03 1.54747695e-01
      1.15767688e-01 1.14251703e-01 1.08755954e-01 9.44136083e-02
      -3.90986130e-02 5.38692698e-02 -1.95902884e-01 -6.46626726e-02
      1.17121756e-01 3.97422835e-02 1.70836285e-01 1.05871141e-01
      1.46137565e-01 -2.00382829e-01 -1.36695072e-01 2.07750443e-02
      -1.43646505e-02 4.13987786e-02 -3.76879126e-02 0. -2.74122227e-03
      -4.40830402e-02 -4.43339907e-02 -5.98043874e-02 -7.45171085e-02
      -1.75814833e-02 9.94800404e-02 -3.46175507e-02 -8.18181634e-02
      -2.86762370e-03 5.46697527e-02 6.34036586e-02 1.28098682e-01
      -6.06907606e-02 2.93482617e-02 5.63470498e-02 -2.58742813e-02
      -1.13569766e-01 -2.69812644e-01 9.36155096e-02 6.42891899e-02
      7.19293505e-02 -7.18299896e-02 -1.65508818e-02 1.58189997e-01
      3.30520384e-02 -6.13705851e-02 -5.03335185e-02 -1.97955184e-02
      2.02303324e-02 -1.19263260e-02 0. 4.62303683e-03 4.49377038e-02
      -7.40707591e-02 -2.22212747e-02 -4.13870402e-02 -4.27236930e-02
      -6.59861742e-03 -8.28375444e-02 2.52386946e-02 2.26989433e-01
      1.24501381e-02 -1.47971166e-02 -9.78027582e-02 -7.27507006e-03
      -1.26761906e-02 5.03831208e-02 6.44431412e-02 1.79773234e-02
      6.71751276e-02 7.96335116e-02 -6.85952976e-02 -9.05162990e-02
      3.19613796e-03 -6.84772879e-02 2.86663454e-02 2.75858548e-02
      3.58047821e-02 -4.92966510e-02 -3.11639514e-02 5.81688732e-02
      4.33409624e-02 0. 9.30251181e-03 1.40739167e-02 -6.75903559e-02
      -1.72122940e-02 8.49506035e-02 7.52808824e-02 3.30609530e-02
      4.69729118e-03 -5.69276437e-02 1.19695634e-01 -1.26637528e-02
      9.19056088e-02 3.74603160e-02 5.20939641e-02 -3.21897236e-03
      -7.36292750e-02 7.96488449e-02 -5.08222356e-02 2.82597616e-02
      4.68137302e-02 7.72483042e-03 -6.04539737e-03 -5.23210913e-02
      -4.56203073e-02 -2.15726290e-02 7.05437735e-02 -9.20723230e-02
      7.47001078e-03 5.29362261e-02 3.94410416e-02 5.10506928e-02 0.
      1.41933084e-01 1.01716280e-01 8.39556679e-02 8.18872154e-02
      -7.01549724e-02 -4.84555662e-02 -1.02536753e-03 6.00230284e-02
      -3.56217176e-02 5.48411161e-02 4.42344546e-02 8.86673667e-03
      -1.08036414e-01 3.66890877e-02 5.19619659e-02 2.67796945e-02
      5.27201965e-02 -3.04131694e-02 1.20379843e-01 7.46537521e-02
      4.97989133e-02 -3.03279441e-02 -1.30284885e-02 -5.88200055e-02
      1.54561196e-02 9.95319635e-02 -7.65063614e-02 1.59392301e-02
      -3.35423388e-02 1.29936308e-01 1.00693107e-01 0. 1.76218435e-01
      -5.98531887e-02 -3.61501090e-02 1.01574883e-01 -1.03491127e-01
      -1.31033361e-01 -5.63759767e-02 3.52858342e-02 3.62001010e-03
      5.83456829e-02 -3.42935733e-02 4.50141169e-03 -2.69853491e-02
      -4.46902439e-02 3.14947739e-02 -1.28757060e-02 7.48962760e-02
      3.84516008e-02 2.95986962e-02 7.39074871e-03 1.75768398e-02
      4.43030857e-02 -1.03782378e-01 -1.27291232e-01 -8.14309716e-02
      4.74257693e-02 6.62458036e-03 4.57123779e-02 4.92163487e-02
      -2.03859210e-02 -6.57557845e-02 0. 8.31362754e-02 -1.09329894e-01
      3.11963148e-02 2.48441845e-02 -1.84034358e-03 -3.03506721e-02
      1.01436628e-02 3.35080326e-02 -5.32437637e-02 -7.20616877e-02
      -4.65859063e-02 -5.21473726e-03 7.78174177e-02 3.55272777e-02
      1.22710295e-01 6.00977540e-02 1.04416966e-01 4.38663028e-02
      -3.14705335e-02 -2.14249245e-03 5.02136871e-02 4.77777347e-02
      -4.96281311e-02 -4.42992151e-02 6.91205487e-02 1.57508194e-01
      -4.13294286e-02 5.69410324e-02 7.44046643e-02 8.24671704e-03
      5.89930220e-03 0. -6.81101531e-02 -2.88805693e-01 -1.14846960e-01
      2.03642212e-02 1.14528768e-01 2.98393443e-02 1.24956109e-01
      -4.69564926e-03 -9.48519558e-02 -6.19573221e-02 -4.48480211e-02
      -6.48339465e-02 6.71486109e-02 6.88882023e-02 2.11364143e-02
      4.42627780e-02 1.10529706e-01 1.49752665e-02 -1.18928485e-01
      -4.52529341e-02 -7.03290999e-02 1.25520423e-01 1.44176796e-01
      1.10699385e-02 1.73738480e-01 1.68389842e-01 4.77211404e-04
      1.75688267e-02 2.86460179e-03 -3.31454650e-02 -4.68353145e-02 0.
      8.52337629e-02 -9.26044062e-02 -8.05432256e-03 -2.44391635e-02
      7.12075457e-02 -1.24523155e-02 1.39352484e-02 -1.33759618e-01
      -1.36171326e-01 -1.29795652e-02 -4.93972264e-02 1.04413755e-01
      4.82999720e-02 7.63134733e-02 9.92764980e-02 1.92178208e-02
      2.00351030e-02 7.89812952e-02 -1.09629780e-01 -6.51982473e-03
      1.19447626e-01 6.22379258e-02 7.76909962e-02 8.29470903e-02
      7.91275352e-02 -8.07042643e-02 -5.39482050e-02 -3.01818345e-02
      3.96491727e-03 4.93787676e-02 4.61605862e-02 0. -4.41305302e-02
      -1.01958856e-01 -1.60282999e-02 4.58129682e-03 2.94064358e-02
      -4.07853201e-02 -6.51563751e-03 -8.55767727e-02 -7.01074377e-02
      1.41301289e-01 1.06901880e-02 1.13610044e-01 1.20993063e-01
      1.16187505e-01 5.32781743e-02 6.59729242e-02 -7.10299332e-03
      -7.27647776e-03 -1.01060823e-01 -2.32105311e-02 1.47775844e-01
      7.19514787e-02 9.18929279e-02 -6.14920817e-02 6.38538972e-02
      -5.35168834e-02 -3.84851247e-02 -1.04484253e-03 -8.60848743e-03
      3.88111547e-02 1.01202480e-01 0. 1.42402751e-02 4.31805477e-02
      -3.89740616e-03 6.24235114e-03 -3.38206091e-03 -7.72003606e-02
      4.80698384e-02 -4.07160595e-02 -1.96122173e-02 1.07134946e-01
      4.56938632e-02 1.41921580e-01 5.45301801e-03 2.28514634e-02
      -3.62647846e-02 8.73771012e-02 4.53660265e-02 8.22479371e-03
      6.04835630e-04 7.04612359e-02 1.36425361e-01 3.24162692e-02
      4.94219773e-02 -1.07668422e-01 1.27545357e-01 8.46145228e-02
      3.81682254e-02 -9.26250778e-03 3.83597650e-02 4.60257046e-02
      1.10930569e-01 0. 1.31704792e-01 5.82004990e-03 6.12139478e-02
      -1.43458098e-01 3.46906148e-02 -1.48835201e-02 4.96274568e-02
      -1.35617023e-02 -3.70630138e-02 1.24132387e-01 -1.39238117e-02
      -2.02324279e-02 3.04439664e-02 -7.33309146e-03 8.89601186e-02
      -8.41211677e-02 1.50290737e-02 -4.99592768e-03 7.56884664e-02
      -4.12796959e-02 2.82132160e-02 -8.55595991e-02 1.19422823e-02
      -3.98200154e-02 -1.47033650e-02 2.54066829e-02 -5.35244495e-03
      4.51059937e-02 3.44506130e-02 -8.64622928e-03 2.43358426e-02 0.
      1.02230348e-01 2.77948473e-02 7.34591186e-02 3.91106028e-03
      4.19281460e-02 -5.54610379e-02 4.71985191e-02 -2.39035835e-05
      -1.07581615e-02 -5.56116737e-02 1.90764815e-02 2.80263741e-02
      -4.55123559e-02 -1.06918477e-01 4.58480604e-02 -4.25989851e-02
      -5.72080389e-02 3.82690728e-02 -2.99360743e-03 8.28437507e-02
      2.72009671e-02 -1.63182504e-02 -1.35943487e-01 -9.73154232e-02
      1.18948214e-01 5.74890375e-02 -3.82020585e-02 -8.27097297e-02
      -1.34862950e-02 -7.60378921e-03 1.29090145e-01 0. -8.68712738e-02
      -1.22178957e-01 -6.77383691e-02 6.36395812e-02 1.54328169e-02
      -2.48912051e-02 -9.62694287e-02 -8.55332464e-02 -1.97744425e-02
      -4.05785395e-03 9.54494774e-02 -4.16611880e-02 1.79177206e-02
      7.00386940e-03 5.02925180e-02 4.04538512e-02 8.68374575e-03
      3.33652869e-02 -1.38658077e-01 1.18402587e-02 -1.02318153e-02
      1.24440715e-01 2.65881158e-02 1.02005983e-02 -1.66861378e-02
      -2.69328300e-02 -6.00389913e-02 8.77468567e-03 6.00352176e-02
      -1.05133280e-01 -6.58465028e-02 0. 7.60354251e-02 -4.07718047e-02
      -3.64952884e-03 2.07416359e-02 5.35180420e-03 -9.67895240e-02
      -1.45937964e-01 -4.53326851e-02 -7.56519660e-02 -5.73594607e-02
      -1.12604521e-01 -2.91324332e-02 -1.40031233e-01 4.05224822e-02
      -2.04319996e-03 4.37006503e-02 3.87451649e-02 1.39440894e-01
      -5.00848107e-02 -1.17201224e-01 5.47431707e-02 -1.27376795e-01
      6.91110082e-03 -1.51928395e-01 1.63535145e-03 -6.57697814e-03
      5.22402264e-02 -5.94201833e-02 1.12187788e-02 -8.70046839e-02
      -4.61727269e-02 0. -2.23756172e-02 -1.34330630e-01 -7.73864985e-02
      -6.19851761e-02 8.70352462e-02 6.06708154e-02 -1.84731279e-02
      -7.35729337e-02 -1.21642858e-01 -1.73399001e-01 -9.37106013e-02
      -1.05732806e-01 -4.40130197e-02 4.91314642e-02 1.52733445e-01
      1.31779984e-01 7.46835247e-02 6.92898706e-02 -2.61508971e-01
      -9.56120640e-02 -1.25811785e-01 -6.17221333e-02 -7.63100805e-03
      9.97718945e-02 7.01530054e-02 -4.14649490e-03 -8.46763775e-02
      -3.85414399e-02 3.17153782e-02 -8.18529055e-02 -5.33528589e-02 0.
      -6.24430552e-02 -7.19593689e-02 5.20780310e-03 -1.84489489e-02
      7.52670392e-02 -5.16889058e-02 -1.28435671e-01 -1.00364454e-01
      4.77688983e-02 3.83357443e-02 7.73330964e-03 -5.35970293e-02
      9.70491096e-02 7.42597133e-02 8.33767727e-02 -3.50791737e-02
      -7.33518824e-02 -4.21676822e-02 -2.46776760e-01 -1.98448040e-02
      -2.46068239e-02 9.80354697e-02 1.11908995e-01 -1.01037268e-02
      -1.26934037e-01 -1.35104835e-01 -7.80514302e-03 -8.82800817e-02
      -7.35164210e-02 1.21852979e-02 5.13065197e-02 0. 7.75268782e-05
      -1.81003347e-01 -7.37371445e-02 -9.12805721e-02 -2.40879804e-02
      -1.37466742e-02 -3.63142975e-02 -5.89750074e-02 -2.45950441e-03
      8.08948353e-02 1.54559642e-01 9.87707525e-02 3.17113660e-02
      -9.59608555e-02 1.15150481e-01 -9.66575071e-02 -1.43502444e-01
      -6.78435192e-02 -9.36767161e-02 -2.49187853e-02 7.88159389e-03
      4.37523164e-02 -8.65164325e-02 4.89322841e-03 -9.07652676e-02
      -1.21988162e-01 -5.00179864e-02 -1.64107621e-01 -2.42334101e-02
      -3.02908681e-02 2.79957075e-02 0. 9.82546657e-02 -3.87221389e-02
      -1.36285558e-01 -3.70069742e-02 9.08490047e-02 2.25311574e-02
      -3.33849490e-02 -5.86876683e-02 -5.29643185e-02 -1.15826316e-01
      8.04719180e-02 3.61513682e-02 -5.47182448e-02 -4.17876728e-02
      -7.78022408e-02 6.39504641e-02 -3.05380989e-02 5.19510470e-02
      -8.41256678e-02 7.21800607e-03 -6.44886941e-02 -7.05413893e-02
      3.78731415e-02 -1.39260590e-01 6.73196018e-02 -7.26269418e-03
      8.19537342e-02 -1.82724133e-01 -1.42482696e-02 -1.91035029e-02
      1.05973609e-01 0. 7.42773786e-02 1.28486278e-02 1.56116765e-02
      -1.69966705e-02 1.07544251e-01 8.86140093e-02 -5.04843555e-02
      6.38138503e-02 2.37720478e-02 1.03963263e-01 1.55758066e-02
      -9.93349031e-03 6.25520991e-03 -6.11722991e-02 -2.13062875e-02
      5.83550036e-02 1.95835885e-02 4.25451994e-02 1.04619144e-02
      -3.15908827e-02 8.12252164e-02 3.80323716e-02 -2.59879380e-02
      -6.41937926e-02 -3.75426095e-03 -5.86142903e-03 5.97246177e-02
      2.04536133e-02 1.70812890e-01 -6.45147339e-02 9.61576402e-02 0.
      4.64589745e-02 -9.68540013e-02 -5.05554788e-02 -2.30240226e-02
      7.90522827e-05 -4.46842797e-02 1.17151052e-01 -6.92700669e-02
      4.12272941e-03 9.97996852e-02 8.22419077e-02 9.05393213e-02
      -3.17712091e-02 4.98136841e-02 1.49891406e-01 -3.74382734e-02
      -1.54210872e-03 -1.96510646e-02 1.24786109e-01 1.77023132e-04
      -1.81438643e-02 -9.58885476e-02 -6.56145886e-02 2.08261274e-02
      3.71631756e-02 -9.46697667e-02 -2.87549514e-02 -7.04264864e-02
      7.87516776e-03 7.40287825e-02 1.13588408e-01 0. -4.99630831e-02
      2.79742219e-02 -6.83375373e-02 4.95772585e-02 4.37360704e-02
      -2.52325647e-02 -6.39714301e-02 -4.86176386e-02 -3.16783935e-02
      3.46918106e-02 1.28652081e-02 1.18537478e-01 1.86985005e-02
      7.97378421e-02 -3.97933535e-02 7.28398329e-03 -5.74305616e-02
      6.81254640e-03 -1.82046592e-02 5.01164384e-02 2.69464385e-02
      3.29576656e-02 -7.39961416e-02 5.70309488e-03 9.18722828e-04
      -2.49111522e-02 -2.61385422e-02 -8.64589773e-03 1.21619903e-01
      -9.34288353e-02 -1.25258556e-02 0. 1.29390687e-01 3.69844548e-02
      -3.37825678e-02 1.84705425e-02 -1.13275155e-01 -1.48681656e-01
      -1.93905681e-01 -1.88049879e-02 -2.68173087e-02 2.97878776e-02
      -3.63458006e-04 4.77499627e-02 -7.35113025e-02 -3.38807032e-02
      -4.74148110e-04 4.87280488e-02 -8.77982453e-02 2.23181680e-01
      7.95498863e-03 -1.45316459e-02 2.45651547e-02 -1.21639278e-02
      -1.80199429e-01 -1.35106847e-01 -7.25109428e-02 -7.58745670e-02
      1.31606162e-01 -8.11749697e-02 8.77805576e-02 -1.03645466e-01
      4.17315913e-03 0. 1.03313491e-01 -2.10186839e-02 -1.21704407e-01
      -7.57405832e-02 -8.03896189e-02 -1.82760537e-01 -1.95668444e-01
      -6.15190119e-02 -1.47092432e-01 9.18584540e-02 -2.03700829e-02
      3.04126949e-03 -3.00259814e-02 -8.12054798e-03 8.91900882e-02
      4.40138802e-02 -3.74980047e-02 5.35810441e-02 -5.00205718e-03
      -1.06897263e-03 -5.82912378e-02 -4.51294780e-02 -1.59046292e-01
      -1.76260024e-01 -1.42406181e-01 -9.91979018e-02 -8.39744434e-02
      -1.56466961e-01 2.14138683e-02 -1.52776659e-01 6.44634478e-03 0.
      1.18001997e-01 -7.39059597e-02 -5.95625974e-02 -1.95051745e-01
      -1.79949597e-01 -2.06134647e-01 -4.23779227e-02 -7.95524716e-02
      -5.07971738e-03 1.14107199e-01 1.19010568e-01 -6.79567158e-02
      8.99689719e-02 -5.35875075e-02 5.59844710e-02 -5.22482954e-02
      -2.72474587e-02 -1.18384240e-02 1.02151856e-02 -7.78780878e-03
      -1.13295227e-01 -1.08280875e-01 -1.99534327e-01 -2.68413484e-01
      -6.82622269e-02 -1.07318066e-01 -5.55987060e-02 -1.69621781e-01
      -3.25063951e-02 -1.26403868e-01 6.57643378e-02 0. 1.00089177e-01
      7.80998264e-03 -1.25273690e-01 -9.01862010e-02 -1.43480569e-01
      -4.35395651e-02 9.57401097e-02 -2.38635018e-02 3.27449925e-02
      1.86522305e-01 1.71386525e-01 -9.50126052e-02 2.93910149e-02
      1.10253715e-03 8.81968141e-02 -9.18670703e-05 -6.54899403e-02
      5.39540639e-03 3.45707722e-02 1.32433638e-01 -1.73500791e-01
      -6.82339519e-02 -5.67592084e-02 -2.86183953e-02 3.23866010e-02
      -4.78520282e-02 -7.30139203e-03 -1.10934645e-01 -9.40564182e-03
      2.54226718e-02 1.56878874e-01 0. 1.09322496e-01 -3.94366197e-02
      -5.86805269e-02 -5.13785370e-02 -1.00348704e-02 1.27742738e-01
      6.85690418e-02 -4.63938266e-02 4.08557467e-02 -9.28631946e-02
      2.31941659e-02 -3.25360931e-02 -4.52595055e-02 5.15640201e-03
      1.54353544e-01 -2.48713456e-02 -7.95940310e-02 -1.39912479e-02
      7.14294426e-03 -6.26348928e-02 -1.07359082e-01 -7.78670534e-02
      2.50869542e-02 2.30520964e-02 6.71478212e-02 -6.54183105e-02
      6.90400079e-02 -1.00066930e-01 -9.88045521e-03 1.15106618e-02
      1.14537075e-01 0. 8.52060318e-02 -7.85446018e-02 -3.66887562e-02
      3.79387885e-02 -1.10837229e-01 -7.45616555e-02 -1.42098725e-01
      -8.17470178e-02 2.27206666e-02 1.09410308e-01 5.14728501e-02
      1.46954572e-02 2.56885309e-02 5.54264449e-02 1.26309887e-01
      4.16173935e-02 6.42795116e-02 1.35151133e-01 8.70376676e-02
      1.73371844e-02 -4.71445695e-02 1.87680982e-02 -9.94723886e-02
      -4.03584316e-02 -1.05990306e-01 -6.88145682e-02 1.45903289e-01
      6.25606328e-02 9.70079303e-02 -4.55040820e-02 1.63546798e-03 0.
      -5.58521338e-02 -1.34321768e-02 -7.02110976e-02 -8.14249925e-03
      5.90091683e-02 -4.07995880e-02 1.23923019e-01 4.64518294e-02
      1.44427745e-02 2.82568894e-02 -2.17312183e-02 4.05753702e-02
      -1.40944412e-02 1.16163686e-01 9.14537758e-02 -4.33678217e-02
      1.73016135e-02 2.56564170e-02 5.85241662e-03 -5.48187234e-02
      -3.05211227e-02 -5.05567603e-02 6.35969490e-02 1.47570879e-03
      7.44696558e-02 -1.26970001e-03 4.26374860e-02 -1.36535347e-01
      -3.90352053e-03 1.27320990e-01 1.52465373e-01 0. -1.19316310e-01
      9.02473927e-02 5.84677700e-03 2.72572152e-02 -6.57401085e-02
      -5.90209551e-02 -1.60103776e-02 5.61417527e-02 2.40904223e-02
      3.26243825e-02 -1.10598374e-03 4.13159700e-03 -3.61271426e-02
      -6.09113602e-03 3.44307199e-02 -1.30636338e-02 2.08203103e-02
      -2.75381096e-02 -4.96005788e-02 6.39812276e-02 3.50192413e-02
      -5.35504892e-02 -2.24005450e-02 -1.78796332e-02 -9.87355132e-04
      4.79523242e-02 2.74671130e-02 -7.62649104e-02 9.84908044e-02
      -8.38537514e-02 3.88011485e-02 0. -5.03234304e-02 -1.80597743e-03
      2.41292287e-02 6.60302909e-03 -9.39134955e-02 -1.29911661e-01
      -3.93399373e-02 -6.14122935e-02 -3.18479426e-02 2.96720751e-02
      7.47569799e-02 -7.67147169e-02 1.77303366e-02 1.16319805e-02
      6.55724183e-02 2.54050028e-02 8.07964057e-03 4.56039906e-02
      6.13345243e-02 5.56587428e-02 -3.37166712e-02 -4.50507514e-02
      -1.31280735e-01 -7.75994733e-02 4.13381774e-03 1.37571767e-02
      6.92972764e-02 -1.29222095e-01 7.56399482e-02 -9.55443755e-02
      6.61201850e-02 0. 8.69682431e-02 -7.99697489e-02 6.52945116e-02
      -2.17224956e-02 -1.69484075e-02 -2.08472773e-01 -1.23773795e-02
      6.89563155e-02 -8.71387962e-03 4.63833064e-02 1.13853738e-01
      7.44100148e-03 7.41184875e-02 1.47363409e-01 1.34216726e-01
      5.34386076e-02 -3.72786261e-02 5.73090091e-02 -1.31871412e-02
      1.51270861e-02 7.41872340e-02 2.91817207e-02 2.10963506e-02
      -1.25570163e-01 5.05228192e-02 4.35817540e-02 5.67532778e-02
      -3.53436098e-02 1.54674351e-01 -6.71590045e-02 1.69320300e-01 0.
      -3.52152297e-03 1.20129082e-02 1.18949413e-01 3.44661884e-02
      -1.88311219e-01 -4.66151424e-02 -4.08174284e-02 8.99767056e-02
      -9.18634143e-03 1.75732858e-02 6.55699819e-02 3.35846506e-02
      -9.20460820e-02 1.31226301e-01 8.68745670e-02 1.12458572e-01
      -1.57209318e-02 1.19094603e-01 4.84697148e-02 1.39334938e-02
      7.99992308e-02 -1.05643347e-01 -3.99181023e-02 -8.49315375e-02
      4.85431813e-02 5.15699945e-02 7.98210502e-02 -8.46181363e-02
      1.47356406e-01 -4.67291214e-02 1.84603840e-01 0. 1.54765639e-02
      -2.55712941e-02 -3.66644785e-02 1.02883123e-01 -2.37824973e-02
      -1.55899068e-02 3.68749015e-02 6.59587681e-02 1.30532207e-02
      1.58147067e-02 2.25113127e-02 2.68119164e-02 -3.85892168e-02
      8.99050981e-02 1.69948786e-02 3.17852162e-02 -1.01880096e-01
      6.56130910e-02 9.50443298e-02 5.42323813e-02 -9.37077496e-03
      6.47802353e-02 5.08148037e-02 -4.82311882e-02 4.10686098e-02
      -9.38437134e-03 7.91523159e-02 -1.23625718e-01 7.16887191e-02
      9.75588337e-03 1.65501863e-01 0. -3.09572704e-02 -1.52323712e-02
      -3.95581312e-02 -5.29805869e-02 -8.77997279e-02 -1.93942199e-03
      2.27407888e-02 5.33160642e-02 3.42531130e-02 -1.00548424e-01
      -2.35742424e-02 1.91102307e-02 3.40214395e-03 1.26366749e-01
      -2.87191626e-02 -1.11161225e-01 -6.83712959e-02 5.32545969e-02
      -7.73118734e-02 -3.35180275e-02 -3.52391191e-02 -3.98725718e-02
      2.23220699e-02 -5.59747219e-02 -6.94343969e-02 3.82791683e-02
      1.09297164e-01 -1.35094568e-01 2.89765652e-02 -1.01476677e-01
      9.04997736e-02 0. -1.78938583e-02 2.64903959e-02 1.50521640e-02
      1.26630321e-01 -3.88110727e-02 -2.52990872e-02 8.14555734e-02
      1.45344380e-02 1.59084480e-02 -3.82297598e-02 8.86082128e-02
      2.43659429e-02 -4.54338361e-03 -1.41128898e-04 8.18798691e-02
      -2.43103094e-02 8.32049027e-02 8.24213177e-02 -5.95165975e-03
      9.16736051e-02 -3.43960077e-02 8.49962831e-02 -1.21267028e-02
      4.76292446e-02 -1.56027824e-02 9.23617855e-02 9.09231007e-02
      1.43979356e-01 1.50168076e-01 -8.07048529e-02 1.81670804e-02 0.
      1.33002521e-02 4.70338240e-02 -5.63756600e-02 -8.56848955e-02
      1.20463677e-01 -3.46780801e-03 3.08560710e-02 3.74362618e-02
      4.19437438e-02 -5.33248223e-02 5.85486852e-02 5.97612299e-02
      7.16113625e-03 8.79332945e-02 1.15924381e-01 7.79344887e-02
      1.57517374e-01 -1.89026434e-03 -5.05246557e-02 9.04590786e-02
      -2.48489492e-02 -9.26828682e-02 2.10816581e-02 -1.01680852e-01
      -1.38720276e-03 1.11293353e-01 4.04883809e-02 -1.70894433e-02
      -1.06490448e-01 2.94079065e-01 1.38301298e-01 0. -3.87724768e-03
      -6.55275285e-02 1.22587524e-01 -1.03555761e-01 2.64473949e-02
      2.26425026e-02 4.47300933e-02 7.53438026e-02 1.10342756e-01
      4.90575284e-02 -2.15831567e-02 -5.24889380e-02 -1.62425995e-01
      4.57950160e-02 4.23558615e-02 -4.31723818e-02 4.97035123e-02
      5.29997908e-02 -1.23667326e-02 -5.94641864e-02 7.75711387e-02
      -2.49375045e-01 2.53730118e-02 -3.62944044e-02 -6.33494928e-02
      5.62299751e-02 3.75526398e-02 6.68543056e-02 -2.91387103e-02
      7.04849213e-02 -1.89292561e-02 0. -9.29855406e-02 -1.08349025e-02
      7.17353635e-03 -9.16846935e-03 1.19781703e-01 8.33467171e-02
      8.92759338e-02 -3.49297822e-02 8.76675546e-02 1.86181627e-03
      2.37647351e-03 -1.72761809e-02 3.02478783e-02 5.12057766e-02
      1.54424673e-02 -1.43628614e-02 -2.01034043e-02 3.03679351e-02
      -5.53732105e-02 1.34769250e-02 -3.51743633e-03 -5.42026088e-02
      3.72224487e-02 -1.18159600e-01 -5.89007977e-03 -8.39363262e-02
      7.79431760e-02 4.98002209e-02 -3.48629951e-02 1.14381343e-01
      2.10988671e-02 0. 5.18841892e-02 -3.05428542e-02 -7.33202277e-03
      1.72728896e-02 2.25425631e-01 -6.21935613e-02 2.12345682e-02
      -1.23830147e-01 -7.20319301e-02 -1.37124788e-02 8.87538344e-02
      3.54562439e-02 4.86129746e-02 4.78406921e-02 1.86843183e-02
      -1.17506571e-02 9.03616473e-03 5.55458441e-02 -4.70309593e-02
      4.84558046e-02 1.34009495e-03 1.46939736e-02 1.30360797e-01
      -1.23787835e-01 -4.29244712e-02 -1.58802509e-01 -1.47923473e-02
      6.27093464e-02 -2.15975177e-02 1.09186567e-01 -9.65446234e-03 0.
      -1.04103558e-01 -8.30108449e-02 -7.92031214e-02 -2.94964910e-02
      -1.42731490e-02 5.41425198e-02 4.14669029e-02 4.98685427e-02
      4.35312949e-02 8.31182823e-02 -1.60467792e-02 -6.46356121e-02
      -2.18607322e-03 6.64144531e-02 2.98469998e-02 1.20898545e-01
      6.45436198e-02 5.60528189e-02 -3.09342481e-02 -1.00204289e-01
      -1.50497064e-01 -1.02735929e-01 -1.56058986e-02 -8.61494895e-03
      5.99064939e-02 6.30179495e-02 9.29425359e-02 5.77728711e-02
      -1.90404654e-02 7.88376927e-02 -1.53100593e-02 0. -4.30161767e-02
      1.94443669e-02 -1.12847790e-01 6.18726723e-02 1.07414700e-01
      -3.27925086e-02 7.09259138e-02 7.47450516e-02 1.45139754e-01
      -3.12222335e-02 -1.35016087e-02 -2.16477176e-07 8.84134471e-02
      1.89462245e-01 -5.37069216e-02 1.71010438e-02 -2.05837842e-02
      6.59420416e-02 -5.06726243e-02 1.26458695e-02 -1.11129865e-01
      -1.55473426e-02 3.47939394e-02 -1.01801202e-01 8.71235598e-03
      -1.89085435e-02 1.43748164e-01 7.59207457e-02 -2.71094739e-02
      1.43315226e-01 5.90306930e-02 0. 5.84243163e-02 4.77102771e-02
      2.14432040e-03 7.16512604e-03 1.72217667e-01 -5.75985014e-02
      -3.72146927e-02 1.49298698e-01 1.32126156e-02 -7.89309666e-02
      2.09830534e-02 -1.66432559e-02 -1.30085638e-02 2.27572918e-01
      -1.42401475e-02 -2.64070407e-02 -2.70017721e-02 5.64814024e-02
      -2.11400986e-02 2.47867052e-02 -4.14948016e-02 -1.14146806e-01
      8.15609992e-02 -6.86090067e-02 -1.47773132e-01 9.03041735e-02
      8.16440508e-02 1.06986485e-01 -1.27451131e-02 1.35746911e-01
      -1.75265817e-03 0. 3.67138088e-02 -6.70982227e-02 2.49272827e-02
      7.15635493e-02 5.71332239e-02 -5.30035933e-03 1.74986888e-02
      -3.56488861e-02 9.68208238e-02 -3.62757631e-02 2.42605824e-02
      4.89492640e-02 -1.16033005e-02 8.96368623e-02 8.66590515e-02
      4.94648069e-02 -5.78361377e-02 6.92352131e-02 -1.78839676e-02
      1.28859375e-02 3.27492245e-02 -2.26051919e-02 9.43605602e-02
      1.50848478e-02 8.00773501e-03 -7.86587521e-02 1.01983495e-01
      2.57022083e-01 9.12235007e-02 1.08592249e-02 -1.42684817e-01 0.</_></support_vectors>
  <decision_functions>
    <_>
      <sv_count>1</sv_count>
      <rho>-1.6225664501646222e+00</rho>
      <alpha>
        1.</alpha>
      <index>
        0</index></_></decision_functions></my_svm>
</opencv_storage>
