<?xml version="1.0"?>
<opencv_storage>
<my_svm type_id="opencv-ml-svm">
  <svm_type>C_SVC</svm_type>
  <kernel><type>LINEAR</type></kernel>
  <C>1.0000000000000001e-01</C>
  <term_criteria><epsilon>1.0000000116860974e-07</epsilon>
    <iterations>2147483647</iterations></term_criteria>
  <var_all>4096</var_all>
  <var_count>4096</var_count>
  <class_count>2</class_count>
  <class_labels type_id="opencv-matrix">
    <rows>1</rows>
    <cols>2</cols>
    <dt>i</dt>
    <data>
      -1 1</data></class_labels>
  <sv_total>1</sv_total>
  <support_vectors>
    <_>
      -1.93273593e-02 -1.56198107e-02 1.17059708e-01 4.49177474e-02
      1.29114464e-01 -6.10843766e-03 4.29746881e-02 7.10921958e-02
      -2.75671370e-02 1.30892470e-02 1.23037070e-01 1.18023669e-02
      3.24811507e-03 -7.03171939e-02 6.46325424e-02 3.40024680e-02
      2.05819011e-02 6.87157139e-02 -6.28463253e-02 5.34495115e-02
      6.41395524e-02 -7.10263336e-03 -4.73486632e-02 -8.70992839e-02
      8.07981640e-02 1.42212827e-02 5.66761568e-03 -8.56899992e-02
      9.02957842e-02 7.86041468e-02 2.02141851e-01 0. -1.45317093e-01
      -3.54608484e-02 1.23669552e-02 -1.25618484e-02 -5.39156422e-02
      3.07925269e-02 1.12630919e-01 -1.92119423e-02 1.37817860e-03
      -8.37713182e-02 9.00377631e-02 7.18775690e-02 2.72084661e-02
      -1.44464776e-01 1.20966118e-02 -3.92645784e-02 3.17518413e-02
      8.10751840e-02 -1.37410969e-01 -1.24487244e-02 3.74293700e-02
      -1.65776559e-03 -1.46752268e-01 -3.03580165e-02 6.26542494e-02
      6.16977364e-02 1.44792832e-02 -6.06403910e-02 2.79449467e-02
      -7.74361193e-02 8.05502608e-02 0. -5.67162707e-02 1.36432812e-01
      2.01690458e-02 -2.41481178e-02 6.34484217e-02 -1.13859832e-01
      -1.36252213e-02 1.41955558e-02 1.30855486e-01 -5.34131601e-02
      7.39525706e-02 9.60561410e-02 -3.31184384e-03 -2.37352978e-02
      -5.58455996e-02 -5.02727255e-02 7.61038810e-03 7.71314353e-02
      -1.09995194e-01 1.55176118e-01 5.30272126e-02 -5.52837588e-02
      -1.72534380e-02 -1.64592549e-01 -3.25408727e-02 3.61491852e-02
      7.31706545e-02 5.30406740e-03 3.95573974e-02 -1.58256199e-02
      7.69932494e-02 0. -6.36051521e-02 6.86006472e-02 -6.64613768e-02
      3.91141698e-02 1.57588631e-01 -4.68375124e-02 5.73331937e-02
      7.17273680e-03 -6.64319703e-03 -6.03474379e-02 8.85767713e-02
      1.09790973e-01 3.61450464e-02 9.70383510e-02 -1.07638717e-01
      5.20367175e-02 1.13131240e-01 4.82873730e-02 -4.39900458e-02
      1.08822860e-01 4.96021733e-02 6.66834414e-02 6.02541752e-02
      -1.43286541e-01 7.57270008e-02 6.63744658e-02 -5.46739288e-02
      -2.27666534e-02 1.06722347e-01 3.45348986e-03 1.59266129e-01 0.
      -6.24070428e-02 3.41320373e-02 -2.11932370e-03 1.66750085e-02
      3.58886383e-02 4.99371924e-02 7.73228928e-02 -2.14051045e-02
      1.23265199e-01 -1.66224599e-01 6.39523193e-02 1.06226996e-01
      1.54171903e-02 -4.10314985e-02 -4.13073711e-02 -3.66287082e-02
      1.03862062e-02 1.01764515e-01 -8.23365226e-02 4.14892919e-02
      6.90984726e-02 2.26207972e-02 -8.95791650e-02 -4.08324488e-02
      4.18297239e-02 -2.86071352e-03 1.42628789e-01 -7.92707875e-03
      3.74494530e-02 -7.90265668e-03 1.02756619e-01 0. -4.41076756e-02
      1.32983968e-01 -5.22936471e-02 2.32570264e-02 -4.09485847e-02
      3.36194150e-02 3.70220952e-02 1.60202812e-02 1.42877132e-01
      -1.32210344e-01 5.86160459e-02 6.54025748e-02 -1.34763820e-02
      2.18129642e-02 -2.37833671e-02 5.85783981e-02 6.75349981e-02
      1.28686279e-01 -1.55315042e-01 7.99303129e-02 -8.36548135e-02
      -9.65397526e-03 -2.20971666e-02 -4.46939934e-03 3.60048302e-02
      4.29552048e-02 1.60712302e-01 3.41308899e-02 5.54905180e-03
      1.01055987e-01 8.53433460e-02 0. 2.94861780e-03 9.16099399e-02
      1.62364319e-02 6.79499954e-02 2.26760432e-02 -1.06702931e-01
      -3.06940754e-03 -1.51018391e-03 -6.63327845e-03 -1.26299962e-01
      2.44268999e-02 7.05479085e-02 -2.43392354e-03 8.96618515e-02
      -1.13857329e-01 2.15769894e-02 4.35272567e-02 6.42456412e-02
      -8.67045447e-02 5.49844243e-02 5.44774570e-02 3.46382745e-02
      -1.55783324e-02 -2.41087183e-01 -2.23436821e-02 -1.03045162e-02
      4.58728347e-04 -1.96479969e-02 8.70064124e-02 1.32036321e-02
      -7.54188560e-03 0. 9.75217000e-02 -4.93849218e-02 6.03460930e-02
      6.04776703e-02 7.41710067e-02 5.52231286e-05 1.41534889e-02
      1.75056547e-01 5.80556653e-02 -1.52639091e-01 6.38459101e-02
      5.72659597e-02 1.95696950e-02 9.89996921e-03 -1.50526632e-02
      1.80837314e-03 5.45689799e-02 1.44871101e-01 -9.93142650e-02
      -1.34292254e-02 -1.56751426e-03 2.16179695e-02 -6.62485734e-02
      -1.07067220e-01 -3.70644405e-02 1.38445377e-01 2.05107983e-02
      1.10452853e-01 3.46387476e-01 -1.30034238e-01 -8.80401675e-03 0.
      -1.14262685e-01 -7.52168847e-03 1.25062549e-02 -1.92327760e-02
      2.35155113e-02 -1.53417245e-01 4.55446690e-02 -2.05114409e-02
      -1.55099556e-02 -6.25019595e-02 -9.17346701e-02 1.34559919e-03
      -2.53964718e-02 -5.33640431e-03 9.06962249e-03 -5.17287944e-03
      1.26010692e-02 -1.08762942e-01 -6.71256380e-03 -6.37548938e-02
      8.58764572e-04 -3.72467749e-02 -3.20903175e-02 -2.08158717e-01
      2.32809484e-02 4.89758095e-04 -1.19980350e-01 -8.71991888e-02
      -2.02392966e-01 6.04237020e-02 -1.82120502e-02 0. -8.47198069e-02
      4.03168574e-02 -1.07970692e-01 -5.92841096e-02 -5.23208342e-02
      -9.38423201e-02 1.15298137e-01 -1.75785390e-03 4.19326909e-02
      6.68481886e-02 4.68351282e-02 8.40530470e-02 -2.12215148e-02
      8.82679317e-03 1.68475956e-02 2.82409452e-02 -3.19544040e-02
      -7.33172819e-02 -3.17573585e-02 1.26087302e-02 2.67905481e-02
      -8.05619955e-02 1.50345871e-02 -1.12819009e-01 4.47257087e-02
      -4.54345681e-02 -6.98938519e-02 2.31675394e-02 -6.39761090e-02
      5.15670255e-02 -4.71455343e-02 0. -5.65365851e-02 7.95040205e-02
      -5.45400195e-02 -1.39550008e-02 -2.06777770e-02 -1.17832176e-01
      7.23280162e-02 1.20505542e-01 1.79861203e-01 2.12356709e-02
      -4.48729806e-02 -2.62976754e-02 -5.24275824e-02 1.39222052e-02
      3.84420827e-02 1.49448486e-02 4.02896665e-02 4.04862799e-02
      -7.53894746e-02 1.81818455e-02 -1.84673499e-02 -6.82627708e-02
      -5.28813861e-02 -1.13011830e-01 6.24689944e-02 1.94632679e-01
      8.39563832e-02 1.34674042e-01 -2.33971812e-02 2.20006313e-02
      -2.27909032e-02 0. -1.90097059e-03 1.80621788e-01 6.80448785e-02
      -1.00100115e-01 -9.32030901e-02 -1.39242828e-01 5.54580018e-02
      1.70983598e-01 7.43991435e-02 -1.23608492e-01 3.59515026e-02
      9.44754016e-03 -1.33415833e-01 -1.01157233e-01 -4.85553406e-02
      -3.81494313e-02 9.29449424e-02 1.48022920e-01 -3.02805249e-02
      1.71977416e-01 -2.61445995e-02 -2.36816019e-01 -1.97265550e-01
      -2.02192485e-01 9.29126237e-03 2.34033972e-01 1.19681567e-01
      7.64835253e-02 -8.27982873e-02 7.90377185e-02 -4.60695699e-02 0.
      -1.02798648e-01 -3.75006953e-03 1.42859370e-01 3.48759033e-02
      -5.82160912e-02 -8.10421407e-02 -1.20674141e-01 1.20836860e-02
      1.27586365e-01 3.85490097e-02 1.20065242e-01 5.79076856e-02
      -2.46446375e-02 2.79900548e-03 -1.84078276e-01 -1.39734283e-01
      -7.78220445e-02 5.88130206e-05 -2.80542579e-02 6.12108521e-02
      1.60060242e-01 -5.58597520e-02 -5.67335822e-02 -3.17482054e-01
      -2.12000713e-01 -1.28103852e-01 1.39743015e-01 4.92195971e-02
      -1.14454970e-01 8.52517560e-02 -1.40683100e-01 0. -1.25265613e-01
      8.24610814e-02 1.32406056e-01 7.03014210e-02 -6.75652623e-02
      1.85784847e-02 5.07981190e-03 -9.68180038e-03 7.60771334e-02
      1.40605317e-02 3.89556251e-02 6.93029538e-02 -6.01880811e-02
      1.05396464e-01 -6.06754683e-02 -2.66731866e-02 -4.29057069e-02
      -2.56738905e-02 -5.17743826e-02 9.85814929e-02 1.43475547e-01
      -3.70014533e-02 4.90880683e-02 -1.40666887e-01 -1.99945718e-02
      1.70294736e-02 -1.59698166e-02 5.58727048e-02 -5.54694943e-02
      1.30932674e-01 -3.98887172e-02 0. -8.81252214e-02 3.40135619e-02
      5.35591953e-02 -4.94106263e-02 8.06705654e-02 -2.74762660e-02
      8.79152864e-03 -9.61922780e-02 3.83102149e-02 -4.99429964e-02
      3.06491479e-02 -5.71823902e-02 -7.92075172e-02 1.13098368e-01
      -3.11705302e-02 -8.67725722e-03 5.99880666e-02 8.79134424e-03
      -5.66624328e-02 8.71166214e-03 -3.99777032e-02 -1.34954110e-01
      7.27885738e-02 -1.59622639e-01 -1.12252701e-02 -3.13451514e-02
      8.28087889e-03 8.00473988e-03 -9.35613438e-02 1.14456587e-01
      -5.69544472e-02 0. -1.94317866e-02 -1.01514913e-01 1.68503411e-02
      -3.32981460e-02 1.76252313e-02 -2.76605524e-02 4.06518877e-02
      3.21971165e-04 -3.06150857e-02 -1.01153649e-01 -5.11563607e-02
      -3.96424253e-03 -3.69976126e-02 -1.77849755e-02 5.87238818e-02
      1.03070326e-01 5.48110753e-02 -7.30227008e-02 -6.60090670e-02
      -1.56175956e-01 -4.28781919e-02 -7.97738731e-02 -1.00142032e-01
      -7.00775310e-02 1.34311497e-01 4.75987457e-02 -9.18833911e-02
      1.20088369e-01 4.71224152e-02 -8.12950954e-02 -1.82338312e-01 0.
      -2.51366720e-02 -3.80691737e-02 1.09582664e-02 -7.85273686e-02
      1.23498835e-01 3.07808649e-02 8.52411315e-02 -1.43617792e-02
      3.33565511e-02 -8.57046396e-02 8.80657956e-02 2.01080590e-02
      -3.30540873e-02 3.50775309e-02 8.06937367e-02 -1.04537960e-02
      -5.48609011e-02 9.48179979e-03 -4.34901100e-03 4.56523299e-02
      4.09052037e-02 -7.16118589e-02 8.79599899e-03 -5.31015173e-02
      -1.67606231e-02 -4.34245020e-02 1.76234059e-02 -2.05222927e-02
      -1.57907918e-01 1.81631327e-01 8.02810788e-02 0. -1.18840011e-02
      1.10611223e-01 1.52836004e-02 -1.08095258e-02 3.92612256e-03
      -1.46641107e-02 7.45678097e-02 9.92878247e-03 -6.49928674e-02
      -3.41256112e-02 4.31795642e-02 1.51456416e-01 1.14927679e-01
      1.05418704e-01 -3.98935378e-02 -1.04593508e-01 2.03396603e-02
      2.24640388e-02 -2.98160110e-02 9.46339294e-02 1.46973670e-01
      8.48719999e-02 -3.93357798e-02 -1.06816843e-01 -6.60682768e-02
      -3.47296223e-02 -6.25191554e-02 7.21081644e-02 -2.79353913e-02
      1.20006792e-01 2.02040374e-02 0. -8.32436681e-02 2.19866950e-02
      8.46565887e-02 5.45477569e-02 -1.43167032e-02 -1.23770917e-02
      -1.04780737e-02 -2.31488328e-02 -3.00087426e-02 -1.87399551e-01
      -5.60816005e-02 5.69814369e-02 4.54068109e-02 -4.75184247e-02
      1.77825242e-01 1.60285402e-02 4.64069955e-02 -2.17627939e-02
      -2.02884689e-01 9.07234475e-03 1.24829896e-01 1.45099312e-01
      -1.46780368e-02 8.89589265e-02 7.73897907e-03 3.13100219e-02
      -1.04654200e-01 3.95688936e-02 -1.15208952e-02 2.94291880e-02
      -4.92255352e-02 0. -2.13363450e-02 -1.72467396e-01 -9.72549394e-02
      -1.90026507e-01 -2.90432442e-02 -2.21191030e-02 -1.03898324e-01
      -2.15140805e-02 -7.34862639e-03 -1.19289115e-01 -1.69368252e-01
      -7.77828768e-02 -9.92687345e-02 -4.05690558e-02 6.76861256e-02
      2.60393508e-02 -2.08738614e-02 -3.68052348e-02 -2.78377384e-01
      -2.37019882e-01 -2.47108042e-01 -2.39101052e-01 -4.96393889e-02
      -6.78588450e-02 -4.43429910e-02 -7.11055025e-02 -9.40930992e-02
      -1.69814199e-01 -1.22474283e-01 -9.03372020e-02 -1.52526557e-01 0.
      -1.43394575e-01 -7.79694989e-02 -2.83298865e-02 -9.40065533e-02
      4.78233024e-02 -3.51536125e-02 -2.00334683e-01 -2.13166457e-02
      -1.65430591e-01 -5.47269173e-02 -5.72149567e-02 9.92296450e-03
      2.68998742e-02 1.55969011e-02 -1.22730792e-01 1.42787881e-02
      -1.29703730e-01 -2.43853122e-01 -2.88393974e-01 -1.61622912e-01
      -4.78567071e-02 -9.63479374e-03 -3.42457630e-02 -1.23451367e-01
      -2.17780888e-01 -1.89450502e-01 -2.70040631e-01 -1.10286996e-01
      -1.84062809e-01 -1.49243489e-01 -1.50202751e-01 0. -9.54637527e-02
      6.00624010e-02 4.65415865e-02 3.33421235e-03 3.43419872e-02
      -4.56143692e-02 4.11545150e-02 1.04544006e-01 -1.45517178e-02
      -1.03634618e-01 -1.65940635e-03 8.75606462e-02 -3.00408807e-02
      9.72371846e-02 -6.51885420e-02 4.57927920e-02 -1.21848322e-01
      4.44019549e-02 -1.53108045e-01 -2.95424927e-02 8.32083300e-02
      5.44996597e-02 7.34417140e-02 -5.45824505e-02 1.46482155e-01
      1.88191526e-03 1.79268420e-02 2.90245935e-03 -4.00464535e-02
      6.70470372e-02 1.10944388e-02 0. -2.34099589e-02 -4.18031216e-03
      -6.60021380e-02 -3.11732222e-03 4.79088202e-02 -7.55891611e-04
      -6.50242642e-02 -3.76936211e-03 -8.13438650e-03 -1.17706629e-02
      1.23881094e-01 -2.93641407e-02 -1.05635896e-01 -9.96573493e-02
      2.42394209e-02 5.87102734e-02 1.59604643e-02 5.41809425e-02
      -3.14229541e-02 4.77866381e-02 -1.15326770e-01 -1.08304918e-01
      -5.19686863e-02 -7.15923682e-02 5.66371568e-02 4.81335558e-02
      4.31665480e-02 -1.28371837e-02 -7.28907064e-02 4.76163141e-02
      -7.11484160e-03 0. 4.97475639e-02 -5.80083579e-02 2.60692257e-02
      1.17182918e-01 2.85714939e-02 2.22204812e-02 -5.83067164e-02
      1.26648694e-01 1.21231945e-02 -1.30633473e-01 -3.53690013e-02
      -3.97298597e-02 -1.15956299e-01 3.90915945e-02 1.21944267e-02
      -7.38378763e-02 5.26846275e-02 3.91178951e-02 -6.03655837e-02
      -7.74023458e-02 8.04780703e-03 -9.77599397e-02 -1.04305400e-02
      -1.22560374e-01 -9.62098539e-02 1.59215078e-01 1.77580528e-02
      1.21618159e-01 1.27812549e-01 -9.04582441e-02 -1.52462170e-01 0.
      -5.42460382e-02 4.19501625e-02 6.90540522e-02 2.72653364e-02
      3.04733086e-02 3.48683931e-02 9.39833745e-03 -7.03206062e-02
      -2.09599975e-02 -1.81696415e-02 -7.61313946e-04 3.28940526e-02
      9.61047262e-02 2.40498744e-02 -4.94590029e-02 -1.00712441e-01
      -3.90356109e-02 3.07787545e-02 3.54864523e-02 4.80632745e-02
      6.53038621e-02 6.70181438e-02 -6.32634535e-02 -1.45116031e-01
      -1.30747676e-01 -8.10416266e-02 9.80761088e-03 -7.91639537e-02
      -1.15084544e-01 1.22858025e-01 9.17419568e-02 0. 2.19630208e-02
      4.67074588e-02 -9.50266421e-02 3.40866446e-02 1.02804825e-01
      -1.03409469e-01 -1.56609640e-02 -9.26398858e-03 -4.19325475e-03
      1.46398515e-01 7.54722627e-03 -3.80339995e-02 9.98361781e-02
      -3.31238583e-02 6.27423972e-02 6.55804425e-02 -2.96290014e-02
      7.25011714e-03 5.48307486e-02 7.46888714e-03 -1.03935525e-01
      1.35455966e-01 -3.34803462e-02 -1.36828139e-01 1.33426236e-02
      -8.71914551e-02 -2.76570600e-02 2.81880945e-02 5.19248284e-03
      3.28154154e-02 5.94678000e-02 0. 9.63496119e-02 6.86696246e-02
      -1.03868157e-01 -6.48320913e-02 -1.56207472e-01 -5.00647090e-02
      2.16998179e-02 -1.75258234e-01 -1.79369394e-02 6.67053759e-02
      6.06993325e-02 -6.02740049e-02 7.55261537e-03 1.37027279e-02
      7.15878159e-02 1.58912957e-01 -3.75482999e-02 -1.14861697e-01
      -7.91353732e-03 9.52633191e-03 -2.39425138e-01 -3.57660837e-02
      -1.27129853e-01 -3.15499231e-02 1.00380071e-01 -1.74726859e-01
      -1.46719977e-01 -4.08255905e-02 -2.72377171e-02 3.42337764e-04
      -3.36166695e-02 0. 8.34771395e-02 1.50541710e-02 -2.19553635e-01
      -1.79578945e-01 -1.88334286e-01 -1.20149806e-01 -3.15124020e-02
      -1.35531515e-01 1.47940153e-02 1.24181993e-01 -5.00820316e-02
      -2.18569636e-01 -1.30114004e-01 7.20409676e-02 1.88035205e-01
      -8.42450745e-03 -1.40656084e-01 2.90724430e-02 8.24609399e-02
      -2.85272556e-03 -4.05065894e-01 -2.44361714e-01 -1.09993853e-01
      -6.73542619e-02 -7.06222728e-02 -2.16976017e-01 -2.37795096e-02
      -2.44732291e-01 -8.34425539e-02 -4.64663021e-02 -4.76630107e-02 0.
      1.44748151e-01 -1.44610614e-01 -8.98448005e-02 -2.62124334e-02
      -2.42236741e-02 -6.54774532e-02 -2.06262395e-01 -2.20599681e-01
      1.17698163e-01 1.49741352e-01 5.77350939e-03 -1.50742456e-02
      -6.78453892e-02 1.77175790e-01 1.30428940e-01 -8.14425275e-02
      -2.24654481e-01 -1.64418757e-01 9.00144354e-02 -1.14059933e-01
      -1.00008577e-01 -8.41197222e-02 4.37706485e-02 -4.14095372e-02
      -2.74728477e-01 -3.79903316e-01 -8.70823935e-02 -7.52647445e-02
      6.70225313e-03 -1.89016446e-01 -2.76654512e-02 0. 1.41648814e-01
      -3.63290086e-02 -1.48371354e-01 3.16082016e-02 5.87916151e-02
      -1.75401405e-01 -6.38776124e-02 -9.75591838e-02 9.24503431e-02
      5.84690347e-02 1.91676023e-03 4.77909334e-02 2.62845680e-02
      3.45881805e-02 6.25710413e-02 1.43983653e-02 -1.28056794e-01
      7.84321129e-02 -3.06265261e-02 -4.15281877e-02 -3.23666707e-02
      5.73370680e-02 3.36562470e-02 -1.23882309e-01 -5.74515536e-02
      -2.38688946e-01 3.43098454e-02 -4.43392545e-02 1.56539064e-02
      -2.11706664e-02 4.95517179e-02 0. 1.77860796e-01 9.11695417e-03
      6.61231354e-02 1.36150527e-04 -1.41628766e-02 -9.89949889e-03
      1.75151546e-02 -1.17112271e-01 6.12471439e-02 6.53193593e-02
      -3.73222865e-02 -6.67449161e-02 5.57844387e-03 -4.25148895e-03
      -1.63838491e-02 7.86037669e-02 -3.32858898e-02 4.35992237e-03
      3.28134336e-02 -4.86907102e-02 -2.10487861e-02 -2.35754717e-02
      -1.15526132e-01 -1.02109380e-01 8.41709375e-02 -4.77271490e-02
      -6.45952439e-03 -2.91224681e-02 1.39556536e-02 3.06746513e-02
      7.25014955e-02 0. 5.14428802e-02 -9.00925472e-02 1.56967714e-02
      4.89481725e-02 -3.11108753e-02 4.45439368e-02 2.07672343e-02
      3.99460681e-02 8.55216682e-02 -6.17800616e-02 7.45474324e-02
      7.52309561e-02 -1.27474889e-01 7.19902515e-02 1.02913149e-01
      4.25767265e-02 6.48893509e-03 -4.08312976e-02 -5.86898029e-02
      1.25028007e-02 1.87230539e-02 -1.04933992e-01 -1.30378380e-01
      -9.43982378e-02 -5.90508291e-03 8.39750394e-02 2.38162279e-02
      1.05032146e-01 1.44826829e-01 -6.29240572e-02 -3.16912979e-02 0.
      1.17978960e-01 -1.68070346e-02 8.07920620e-02 3.25877443e-02
      2.86879134e-03 -5.17406352e-02 -2.52610575e-02 -1.31384104e-01
      1.84265692e-02 1.30938655e-02 -3.98711786e-02 -1.08688571e-01
      -2.88405567e-02 7.87181258e-02 2.97595207e-02 4.62581366e-02
      3.58940624e-02 -5.44360541e-02 7.22735152e-02 -3.18359490e-03
      -9.73516181e-02 -3.11984960e-02 3.17026488e-02 -9.11976174e-02
      7.40293413e-02 -5.52773811e-02 -3.27976421e-02 -1.61394373e-01
      -1.02843633e-02 -4.31338921e-02 2.14505568e-01 0. 1.25209317e-02
      -3.56016196e-02 -2.45979037e-02 6.72471300e-02 -5.65616898e-02
      -1.95222348e-01 -5.84581122e-02 1.11134406e-02 9.63335261e-02
      1.29165888e-01 3.08180577e-03 -1.44822225e-01 6.77599087e-02
      4.28231135e-02 1.04780436e-01 -1.76325149e-03 3.75338905e-02
      -7.63646811e-02 4.36561853e-02 1.47108929e-02 -2.09275156e-01
      1.29234582e-01 5.17484359e-02 -6.80934638e-02 8.65135621e-03
      4.79993485e-02 9.74809809e-04 -2.02270951e-02 7.36110508e-02
      -1.22385345e-01 5.90870157e-02 0. -3.48865287e-03 -9.53232199e-02
      -1.11703433e-01 8.26395676e-02 5.86830033e-03 -3.91997434e-02
      1.00111246e-01 9.32951942e-02 1.57945469e-01 7.48561695e-02
      -2.04328775e-01 -1.88999757e-01 5.07437959e-02 5.94785586e-02
      5.58551587e-02 9.52333435e-02 1.27231374e-01 -9.92584899e-02
      -1.31127149e-01 -9.30792540e-02 -3.37261498e-01 1.26100883e-01
      6.55619353e-02 6.83325231e-02 2.09765419e-01 2.11286977e-01
      9.57406163e-02 -4.69125248e-02 8.48957300e-02 -4.31371778e-02
      8.10286701e-02 0. 1.41998544e-01 -2.54150387e-02 -1.31454065e-01
      -6.47384450e-02 1.10975616e-01 3.06165535e-02 4.74978015e-02
      2.75392272e-02 1.01478674e-01 2.70849198e-01 -1.22559592e-01
      -1.43102910e-02 3.57898767e-03 6.35817572e-02 -1.47709344e-02
      -5.44945225e-02 3.81435007e-02 9.69304368e-02 1.95749342e-01
      2.05758475e-02 -9.60684121e-02 -5.25675863e-02 9.40936357e-02
      3.15729976e-02 2.64368001e-02 -1.71256848e-02 1.22079462e-01
      -9.52740386e-02 7.10344762e-02 9.78513435e-02 1.64656147e-01 0.
      3.20762545e-01 1.93215519e-01 2.35203560e-03 2.25082203e-03
      1.29533231e-01 1.27457440e-01 -3.79186273e-02 -2.10630774e-01
      -7.17501715e-02 3.88177335e-02 -4.22781408e-02 7.55424351e-02
      3.16719674e-02 1.44933397e-02 -2.18749586e-02 -5.21527976e-02
      -1.36280075e-01 -5.68379611e-02 2.04594955e-01 1.51291549e-01
      5.93815222e-02 3.01741473e-02 1.43454954e-01 1.24059014e-01
      -1.11228444e-01 -2.53711671e-01 1.55165754e-02 -2.01928578e-02
      1.34617776e-01 -7.07763210e-02 1.00775912e-01 0. 8.74542296e-02
      1.08143665e-01 -1.36043672e-02 9.07932669e-02 4.79698367e-02
      1.47013310e-02 1.31972119e-01 -1.64521590e-01 -1.47820100e-01
      1.86988600e-02 -2.74158418e-02 6.93769604e-02 6.73043504e-02
      -6.56202156e-03 -5.35228476e-02 5.98815270e-03 -1.48512974e-01
      -1.83630750e-01 -4.61121276e-02 7.80160651e-02 9.69819427e-02
      1.81611985e-01 1.38705030e-01 5.91667481e-02 1.22427292e-01
      -3.25869441e-01 -1.98904663e-01 -5.44003770e-02 5.75983450e-02
      -1.20408989e-01 6.85683191e-02 0. 5.93602732e-02 1.67302247e-02
      -1.19226368e-03 -1.33800060e-02 -9.49893221e-02 -6.28631562e-02
      5.41277342e-02 -3.83670628e-02 5.88165782e-02 9.40491855e-02
      -9.65736713e-03 -7.31744766e-02 -9.96806100e-03 4.11155820e-02
      3.86047810e-02 2.88249590e-02 -6.76830038e-02 1.19695102e-03
      -7.43172597e-03 9.12592374e-03 -6.64068162e-02 5.75507842e-02
      5.42999897e-03 -2.51369383e-02 7.74896294e-02 -9.79814082e-02
      8.25275630e-02 -6.36602417e-02 2.86373477e-02 -9.57010314e-03
      5.47524318e-02 0. -1.43379169e-02 4.51407805e-02 -3.73179006e-04
      -3.22130360e-02 -1.63826365e-02 -5.64494580e-02 8.51604491e-02
      1.34344101e-01 4.65147719e-02 2.68431716e-02 -2.96264049e-02
      -2.81306426e-03 -5.21308463e-03 8.94940570e-02 6.27187267e-02
      2.73274630e-03 -1.45059556e-01 -9.19700935e-02 -1.15889730e-02
      6.30777515e-03 5.12070060e-02 3.64534208e-03 6.44350750e-03
      -5.61641082e-02 7.16193439e-03 7.93925300e-03 1.67540088e-03
      7.74811655e-02 1.11491367e-01 -9.93307382e-02 -4.32040207e-02 0.
      1.16281167e-01 4.50829929e-03 3.63305174e-02 -4.35029902e-02
      6.21551946e-02 1.81697812e-02 1.29413679e-01 -1.99259426e-02
      -2.32119616e-02 -4.60380130e-02 3.53643708e-02 -6.12184852e-02
      -2.09119101e-03 1.26351133e-01 1.81030337e-04 5.90789951e-02
      1.41448090e-02 -9.46002677e-02 -7.18474039e-04 6.13757074e-02
      -6.87488914e-02 -3.70352268e-02 4.61809970e-02 1.70092452e-02
      1.70692310e-01 -2.02941298e-02 -1.24989919e-01 -1.04319490e-01
      9.81857851e-02 -3.07574719e-02 1.83680490e-01 0. 5.77944191e-03
      -6.36149198e-02 -1.04089407e-02 9.04536918e-02 -3.74809392e-02
      -1.46220893e-01 1.17585741e-01 4.52113524e-03 3.07980422e-02
      5.86107709e-02 2.93125790e-02 -1.65583879e-01 1.54264644e-01
      1.40427351e-01 -3.87144685e-02 -1.55299706e-02 -6.15327386e-03
      -1.41266674e-01 2.99509857e-02 -4.36068960e-02 -7.44560808e-02
      2.19436541e-01 5.90036251e-02 -1.10493734e-01 1.12186544e-01
      4.04634960e-02 -2.00950820e-02 1.96362231e-02 1.15874998e-01
      -1.61915720e-01 2.96002794e-02 0. -6.64897868e-03 2.97957053e-03
      2.01685186e-02 1.29585654e-01 1.01965182e-01 6.63373768e-02
      -1.81045905e-02 2.03548204e-02 -1.15760982e-01 9.27546769e-02
      -1.11059710e-01 -9.41669270e-02 5.58272339e-02 8.22614133e-02
      3.19486894e-02 1.41380802e-02 -1.25656202e-01 -1.48652494e-01
      -1.86172351e-01 -2.71751098e-02 -4.77735959e-02 1.53524056e-01
      1.18171200e-01 1.50209412e-01 3.76029573e-02 -2.10897420e-02
      -1.12953186e-01 -7.80252889e-02 8.95150378e-02 -5.95741235e-02
      4.72694598e-02 0. -5.98079199e-03 5.36254840e-03 4.51109633e-02
      5.21829799e-02 1.20413281e-01 1.07703373e-01 1.59923345e-01
      1.88511256e-02 -4.23878916e-02 6.03536516e-03 -9.19236392e-02
      6.25708252e-02 5.53234480e-02 3.95692214e-02 -5.26681580e-02
      -9.84296352e-02 -1.84150673e-02 -9.98944640e-02 -5.10796979e-02
      6.29748330e-02 1.45046204e-01 1.15914665e-01 2.46631622e-01
      4.39003557e-02 1.02551199e-01 -2.80413381e-03 6.79250136e-02
      -7.46096745e-02 -8.29123706e-03 6.01904318e-02 1.46852165e-01 0.
      1.93183608e-02 -4.05200496e-02 4.07876223e-02 8.40606466e-02
      2.46411234e-01 1.50082931e-02 1.15348436e-01 4.72150929e-02
      1.74008254e-02 1.61632728e-02 1.54588297e-02 8.37509334e-03
      -8.17974210e-02 2.34399997e-02 2.84824222e-02 6.10912405e-02
      1.85433775e-01 -6.67930990e-02 -3.37528884e-02 1.24667883e-01
      4.94208522e-02 4.96845134e-02 1.79399505e-01 1.19272701e-01
      1.84532344e-01 1.62266180e-01 1.32347554e-01 1.00204200e-01
      1.33322969e-01 -1.04670823e-02 1.23364501e-01 0. 5.97529151e-02
      -1.29914552e-01 -6.57914206e-02 -1.81532875e-02 2.81777177e-02
      5.12291901e-02 8.68077129e-02 1.43825216e-02 -7.85246044e-02
      -5.08180410e-02 -2.35601272e-02 -3.46120708e-02 4.63773347e-02
      4.58981469e-02 5.70909530e-02 1.43149808e-01 1.09904157e-02
      -1.19022146e-01 -1.88892528e-01 7.76107004e-03 -3.16341333e-02
      2.08959356e-02 8.44077989e-02 1.05370715e-01 1.36135578e-01
      -3.33258969e-04 -1.21933758e-01 -3.45066637e-02 5.20166233e-02
      -4.51392494e-02 3.86885591e-02 0. 7.96376988e-02 6.20846450e-02
      -7.11050630e-02 2.79983133e-02 -1.02555640e-01 -8.34483504e-02
      5.24012856e-02 -3.59346829e-02 -8.01130012e-02 -7.94898048e-02
      -1.36350170e-01 -5.48943244e-02 8.91555101e-02 2.97232158e-02
      5.00480011e-02 1.48874998e-01 -6.92457929e-02 8.83250907e-02
      -8.56532454e-02 7.92728141e-02 -4.90037538e-02 6.81221336e-02
      1.58876721e-02 -3.89251895e-02 1.68760657e-01 -3.39203440e-02
      6.45514131e-02 -1.01653047e-01 1.51529452e-02 1.14304936e-02
      3.50533649e-02 0. -8.86135176e-02 7.89232925e-02 6.35591969e-02
      1.28616348e-01 8.45388323e-02 -1.57961324e-02 5.76409288e-02
      1.24452822e-01 1.41459042e-02 7.94994086e-02 -1.69161446e-02
      5.83761930e-02 -2.75614318e-02 -4.49268287e-03 6.15355000e-02
      7.03558996e-02 -1.03780240e-01 -1.13056311e-02 8.98539089e-03
      3.30197960e-02 4.34060283e-02 5.39287440e-02 1.02767572e-02
      -4.85497080e-02 1.26646608e-01 3.00809108e-02 1.04352916e-02
      4.32971790e-02 2.37212300e-01 -8.56246129e-02 6.58834651e-02 0.
      -5.90226129e-02 3.93185019e-03 9.35028046e-02 -5.26501387e-02
      -8.80887061e-02 -1.52711436e-01 7.27530420e-02 -2.75667366e-02
      2.85708923e-02 1.61488816e-01 -6.10213876e-02 6.48155659e-02
      -3.35316397e-02 3.60652618e-02 1.57682806e-01 -3.87041084e-03
      2.71519609e-02 -1.21121086e-01 -7.58480057e-02 -4.40972187e-02
      4.57919426e-02 -9.42379311e-02 -1.16956986e-01 -2.12857053e-02
      2.90684402e-02 -2.58595906e-02 -1.18300229e-01 -2.93762051e-02
      -1.37836682e-02 2.39099488e-02 4.11129296e-02 0. 3.20025869e-02
      8.53515193e-02 -3.33681069e-02 3.43458466e-02 -3.07625327e-02
      -3.78272459e-02 -8.83652177e-03 -6.66094124e-02 2.94484217e-02
      1.04548924e-01 -1.57805845e-01 2.87863053e-02 -2.11278964e-02
      7.07544312e-02 -5.25053069e-02 -2.28267536e-03 4.38462533e-02
      -3.52207161e-02 6.62641451e-02 -2.36401502e-02 -2.21518483e-02
      2.28622215e-04 -5.68431942e-03 -1.00532860e-01 -1.73035897e-02
      -5.69428725e-04 -2.88353432e-02 2.86270268e-02 1.05235353e-01
      -1.03916623e-01 -3.80830467e-02 0. 1.83270842e-01 -5.52560389e-02
      -1.25950038e-01 -2.27773879e-02 3.63246910e-02 2.75357906e-02
      -1.43273175e-01 -1.18468329e-01 -1.07663516e-02 3.88699844e-02
      -4.12136763e-02 -1.01053923e-01 6.99283648e-03 1.42490700e-01
      8.34629014e-02 8.19516703e-02 3.80063839e-02 -1.75105967e-02
      -1.11706689e-01 -4.48571071e-02 -1.19896777e-01 3.94013375e-02
      5.53133264e-02 3.86139974e-02 8.73461657e-04 1.48712276e-02
      -6.92358017e-02 -3.71102095e-02 1.56113654e-02 -1.92767866e-02
      4.20183651e-02 0. 1.18148096e-01 5.82318716e-02 8.75813290e-02
      4.13575321e-02 4.12052646e-02 -8.93236846e-02 -6.60232753e-02
      -3.41828205e-02 6.40352368e-02 2.22677171e-01 -5.73026985e-02
      -1.21334925e-01 3.19165327e-02 1.45198092e-01 -1.51599040e-02
      -4.86032180e-02 7.92339165e-03 -1.11889191e-01 5.28296679e-02
      2.69097947e-02 -7.94573501e-03 8.73193219e-02 1.17676213e-01
      -8.70069936e-02 -4.45018290e-03 -2.31979247e-02 4.65306714e-02
      -4.97138985e-02 -2.21098494e-02 6.00254647e-02 1.41176254e-01 0.
      5.65825962e-02 -3.67573313e-02 -3.24020460e-02 -9.65333283e-02
      -5.18783927e-02 5.81867136e-02 -1.55774001e-02 -2.12330781e-02
      8.24071914e-02 2.06799075e-01 -5.21495678e-02 -3.75372283e-02
      -6.41177967e-02 3.35231982e-02 8.04163292e-02 5.85221723e-02
      -2.20948714e-03 -1.25224948e-01 3.09067834e-02 -5.02588116e-02
      -7.96608180e-02 -7.67873824e-02 -6.83260560e-02 4.98424508e-02
      5.26709259e-02 -2.47623511e-02 4.07750644e-02 -8.80564097e-03
      5.04626334e-02 -2.39044446e-02 1.48845802e-03 0. 7.78875872e-02
      2.94589438e-02 -1.44265875e-01 -8.80679190e-02 4.37646881e-02
      4.14787233e-02 3.65966037e-02 1.88392755e-02 -2.12996192e-02
      5.98495360e-03 -3.23789120e-02 3.03882677e-02 6.78094774e-02
      1.05375148e-01 -8.75506143e-04 1.61134023e-02 -7.37758577e-02
      -1.16448924e-02 -1.23598851e-01 -1.72260478e-02 -1.99933387e-02
      3.22365351e-02 1.19305305e-01 -4.64295736e-03 6.65866733e-02
      -6.09429553e-02 -6.87521249e-02 -4.10404950e-02 7.95014948e-02
      -7.69055495e-03 1.70241259e-02 0. 6.03929311e-02 9.95737314e-03
      -7.24461898e-02 2.70751454e-02 -1.37103526e-02 -1.42098814e-01
      -1.74768064e-02 -8.50193761e-03 -5.15580643e-03 2.75931973e-02
      1.72905978e-02 -4.91754971e-02 -7.50553934e-03 -6.28117472e-03
      -8.16683006e-03 -9.17196367e-03 1.07856262e-02 -1.11514799e-01
      -3.01282555e-02 4.30226475e-02 -1.23693109e-01 6.70830486e-03
      -2.67161503e-02 -6.28689751e-02 -1.85445021e-03 1.15603590e-02
      -1.05040655e-01 -1.57885805e-01 -7.94350635e-03 -3.99199426e-02
      6.52198121e-02 0. 1.85807392e-01 -1.37230987e-02 -2.84256283e-02
      3.55156995e-02 -4.75381911e-02 -1.24640286e-01 -2.51949560e-02
      3.92062776e-02 1.16210999e-02 5.20448908e-02 -4.75199036e-02
      8.15981701e-02 -1.10391611e-02 1.10178337e-01 5.13040610e-02
      -3.90142426e-02 -7.40713486e-03 -3.40082981e-02 1.16623901e-02
      -6.56341836e-02 3.59198116e-02 7.13359043e-02 9.00654867e-02
      -1.17452569e-01 -8.57387260e-02 -8.37356690e-03 -2.32694000e-02
      3.19154412e-02 1.40061036e-01 -9.18149501e-02 8.82230327e-03 0.
      -2.23831236e-02 3.94747443e-02 3.10393218e-02 -7.70703629e-02
      3.66162919e-02 -6.09348305e-02 8.91783535e-02 -1.08189108e-02
      -1.57991629e-02 9.41254199e-02 -2.09654365e-02 -1.98215595e-03
      -6.90431893e-02 4.51849140e-02 6.59850165e-02 4.89556976e-02
      -6.99179480e-03 -4.37680744e-02 -5.26398756e-02 2.29142644e-02
      1.05058728e-02 -7.67092630e-02 3.88480606e-03 7.75298569e-03
      7.77494460e-02 -3.44017558e-02 -6.47134259e-02 -1.45794312e-02
      -3.27970907e-02 4.41844240e-02 6.01385273e-02 0. 6.19453900e-02
      -3.94624695e-02 -6.01106770e-02 -8.01272616e-02 2.54794508e-02
      -3.17697451e-02 1.15966633e-01 -4.22483757e-02 -9.56952274e-02
      1.20036438e-01 -8.97118598e-02 1.35644943e-01 6.37722835e-02
      6.55463487e-02 -2.65496876e-02 7.28962645e-02 3.49648744e-02
      -3.48861031e-02 2.61362959e-02 -1.04268238e-01 1.02157436e-01
      -1.66468173e-02 6.38458133e-02 -2.23783255e-02 1.28424749e-01
      3.93656157e-02 -4.24930193e-02 -1.05948737e-02 9.36708078e-02
      -4.88622021e-03 1.40591366e-02 0. -2.58181971e-02 -9.86568481e-02
      -8.85866117e-03 -4.10619266e-02 6.87003434e-02 -2.69761141e-02
      3.93176377e-02 1.65350866e-02 -1.07525483e-01 1.17051322e-03
      -5.28972261e-02 1.94965247e-02 6.82142153e-02 1.37799978e-01
      7.70485848e-02 6.51774183e-02 1.13831580e-01 -5.84040247e-02
      -1.64186224e-01 -1.27633065e-01 -4.21425048e-03 4.20777276e-02
      9.82237905e-02 -1.97251756e-02 4.69851345e-02 8.63782093e-02
      -1.60295606e-01 4.51230407e-02 4.02426869e-02 -3.97503860e-02
      4.25804779e-02 0. 1.00384161e-01 7.21032470e-02 2.26091594e-02
      3.16404067e-02 -3.28428410e-02 -1.00081317e-01 -6.98648840e-02
      7.08976164e-02 1.05738856e-01 1.98550358e-01 -9.47492421e-02
      7.71886408e-02 4.45464440e-02 3.72634195e-02 -5.03922030e-02
      2.80550532e-02 3.39323618e-02 -5.89175373e-02 7.73736537e-02
      3.41467969e-02 7.06347749e-02 5.67683578e-02 -6.76346943e-02
      -1.54038459e-01 -2.19089370e-02 3.12906839e-02 4.87983897e-02
      9.42198001e-03 -1.26369800e-02 8.46880972e-02 1.14658423e-01 0.
      1.16184309e-01 1.57973632e-01 8.49544182e-02 2.69133179e-03
      -1.08200476e-01 -4.09170687e-02 -9.47661847e-02 2.09662523e-02
      1.25843082e-02 1.18049651e-01 -9.51008275e-02 -3.26468013e-02
      -2.82940399e-02 -4.07776646e-02 5.46749458e-02 -2.96406187e-02
      -7.20956549e-02 1.23909675e-02 8.25408474e-02 8.29875693e-02
      3.03469673e-02 -1.01402951e-02 -1.94333240e-01 -8.71623680e-02
      -9.47303697e-02 3.10303587e-02 7.38234892e-02 -2.36380119e-02
      1.87193733e-02 2.39049196e-02 -1.05869723e-03 0. -2.60169785e-02
      -8.64731744e-02 -2.93368958e-02 -3.16710939e-04 1.81489475e-02
      3.65811475e-02 1.76642090e-02 -3.30898575e-02 -1.39349416e-01
      -1.71809830e-02 9.96992216e-02 1.60739183e-01 1.17976200e-02
      4.92515415e-03 1.86424553e-02 1.57143865e-02 -4.53656390e-02
      -3.65502685e-02 -2.33358130e-01 -7.34900460e-02 8.21814612e-02
      4.86108614e-03 -2.12200116e-02 1.78003218e-02 2.53130756e-02
      -5.36306389e-02 -1.66173473e-01 -6.20048344e-02 6.29106071e-03
      1.31273502e-02 2.85540149e-02 0. 4.41031530e-02 -9.21027288e-02
      2.70686904e-03 7.83413649e-02 -3.07333078e-02 -1.13535486e-02
      -9.61284861e-02 -1.28786471e-02 3.05167828e-02 9.45010036e-02
      -3.53347249e-02 -3.69048142e-03 4.68275733e-02 -5.36979474e-02
      -3.12412027e-02 4.85365875e-02 1.62017774e-02 -1.91083993e-03
      -4.98149358e-02 -1.03810273e-01 -1.20190531e-02 9.79227200e-02
      -1.03941448e-02 -3.43949012e-02 -5.81812635e-02 3.29851061e-02
      -2.17260942e-02 -7.17531368e-02 -2.24377941e-02 1.79970078e-02
      7.27353320e-02 0. 9.46168080e-02 -2.69758087e-02 -2.32593026e-02
      6.55158460e-02 -5.07506989e-02 1.25642180e-01 1.06268667e-03
      1.28856367e-02 1.16202042e-01 -2.84336992e-02 -1.51065767e-01
      1.55120371e-02 1.15806170e-01 -3.40291206e-03 1.63334291e-02
      -4.11461480e-02 -3.10815759e-02 -9.57350479e-04 -5.80702722e-02
      -1.28727153e-01 -1.31185399e-02 1.24719925e-01 -8.39291140e-03
      3.77478190e-02 -2.17910204e-02 -3.74699291e-03 5.67950755e-02
      4.38583381e-02 1.59802526e-01 -7.57029727e-02 -3.06121111e-02 0.
      1.11477390e-01 -1.11866556e-02 -3.52492444e-02 -2.19527981e-03
      4.17700261e-02 1.05883196e-01 -6.46158159e-02 -7.87313282e-02
      4.79934327e-02 9.11477581e-02 1.49059087e-01 4.31121560e-03
      -1.18552260e-01 1.70755610e-02 2.50029489e-02 6.79405853e-02
      4.68870476e-02 5.06525300e-02 2.95698713e-03 1.37487426e-01
      -2.75987703e-02 -6.30869418e-02 -7.05306008e-02 1.67794619e-02
      3.55662666e-02 -4.46530357e-02 6.59667775e-02 -1.73467696e-02
      7.99385160e-02 3.75736179e-03 1.45154014e-01 0. 3.40068862e-02
      4.65516075e-02 4.47838102e-03 8.84086732e-03 3.08587421e-02
      1.41633139e-03 3.17830928e-02 -8.54786858e-02 -1.05397247e-01
      8.27485044e-03 -9.71821882e-03 5.59455268e-02 3.70379016e-02
      1.42293856e-01 9.36679076e-03 1.02018774e-01 -4.94139120e-02
      -6.35541137e-03 -6.24833331e-02 -4.20402400e-02 8.60655382e-02
      6.59588575e-02 7.27248713e-02 -6.30861968e-02 1.15416013e-01
      -1.19730860e-01 -7.35687241e-02 4.49838638e-02 9.37639400e-02
      -9.76118147e-02 7.97828808e-02 0. -1.08074592e-02 5.05228899e-03
      -2.01728642e-02 -6.58771470e-02 3.49472761e-02 6.36222726e-03
      -4.20636125e-02 -4.90433630e-03 -1.32585481e-01 9.66532826e-02
      -9.48664024e-02 -6.58515394e-02 6.24603070e-02 8.48713741e-02
      2.81705279e-02 3.12264077e-03 5.93053140e-02 2.11171266e-02
      -2.27222413e-01 -8.19111019e-02 6.92777196e-03 4.25558649e-02
      3.66574936e-02 -1.25137046e-01 -4.62828353e-02 4.81347851e-02
      -1.15560003e-01 6.61218725e-03 1.01882713e-02 -2.06449889e-02
      -1.26858093e-02 0. 2.56619573e-01 1.82768740e-02 -3.92633677e-02
      9.65644792e-03 1.49713874e-01 4.51375879e-02 -1.01872914e-01
      1.60953030e-02 -4.42864150e-02 1.79443046e-01 -1.60441883e-02
      8.80229175e-02 3.70959379e-02 6.84018992e-03 -1.02241516e-01
      -1.41201355e-02 1.04226865e-01 4.88141552e-02 1.38556985e-02
      4.39666957e-02 5.18387146e-02 4.56531942e-02 5.07907495e-02
      -1.36782691e-01 -8.65361392e-02 3.65704447e-02 -4.80648912e-02
      1.55062135e-02 3.96213159e-02 1.09096915e-01 1.38468206e-01 0.
      1.64961278e-01 -1.37781858e-01 -5.17875142e-02 -1.35343045e-01
      1.46784157e-01 2.26542875e-01 8.31660256e-03 -2.46636681e-02
      -2.69112177e-02 9.34825540e-02 8.66603013e-03 1.36837199e-01
      -2.05669664e-02 -1.29262164e-01 8.66666883e-02 5.43880649e-03
      -8.32118653e-03 -1.13442108e-01 -3.43109248e-03 -1.28075078e-01
      2.86914688e-03 -1.42719597e-01 -6.96651489e-02 6.16208203e-02
      -4.45890985e-03 -1.52013758e-02 -1.79006606e-02 1.69215966e-02
      6.52346015e-02 -1.08732898e-02 3.69583070e-02 0. 3.57408002e-02
      -1.61686182e-01 -6.46822760e-03 -4.66465130e-02 -1.09931882e-02
      1.07578360e-01 8.38926062e-03 -2.47873068e-02 -1.66329727e-01
      1.37871504e-02 -4.86641238e-03 1.18363567e-01 -3.03431544e-02
      2.12146584e-02 7.44516701e-02 7.37024099e-02 -9.54347104e-02
      -6.53453618e-02 -1.75125748e-01 -1.87498406e-01 1.03869580e-01
      -8.39572623e-02 -1.15823664e-01 8.74658674e-02 1.02563299e-01
      -2.67672334e-02 -1.15643650e-01 -6.01441823e-02 -3.49956602e-02
      2.35944986e-02 -3.72448796e-03 0. 4.40416858e-02 -1.40958592e-01
      -7.79653788e-02 -4.31184955e-02 -1.01408334e-02 7.50074238e-02
      -2.82674804e-02 7.06088319e-02 -1.23698963e-02 9.57981944e-02
      -1.01649582e-01 -5.99474460e-02 6.55703619e-02 -6.98756939e-03
      1.20449223e-01 1.20758824e-02 6.68034405e-02 2.64715757e-02
      -3.39714922e-02 -1.42778799e-01 -9.79733989e-02 5.40957712e-02
      -8.64966437e-02 3.04028057e-02 4.43303250e-02 1.15076669e-01
      -2.30638194e-03 -1.42471135e-01 3.45911980e-02 6.50071949e-02
      8.78543854e-02 0. 9.99468938e-02 -1.83426477e-02 6.92694215e-03
      2.66460162e-02 2.59943102e-02 1.34327844e-01 -6.76820939e-03
      -5.31021580e-02 4.36298214e-02 -1.33416560e-02 -3.96934012e-03
      9.59873646e-02 4.04320024e-02 -3.84623632e-02 7.57952332e-02
      -7.65817910e-02 1.06769793e-01 1.99050382e-01 -8.89565889e-03
      -1.40945883e-02 2.56253816e-02 7.27828220e-02 -3.65260728e-02
      -5.53478338e-02 3.36396438e-03 6.45575970e-02 1.68056369e-01
      8.12291801e-02 1.94989890e-01 -3.38254161e-02 6.16302937e-02 0.
      1.50830001e-01 1.04183638e-02 -6.72738776e-02 -1.01498783e-01
      1.54741330e-03 4.91707958e-02 -4.89588790e-02 1.71833020e-02
      1.34683084e-02 7.05000237e-02 7.42277189e-04 1.07411869e-01
      8.20078142e-03 -3.32920402e-02 8.35009739e-02 1.13622136e-01
      3.91550325e-02 1.25418399e-02 -6.05708128e-03 -2.13929657e-02
      5.56562468e-02 -4.90555502e-02 -3.56995463e-02 -6.72774464e-02
      2.69557945e-02 3.12912203e-02 -3.79105955e-02 2.70841476e-02
      -7.88948033e-04 9.53343213e-02 7.97853544e-02 0. 6.86552450e-02
      -5.84975779e-02 -1.88127961e-02 -2.61918809e-02 -8.11602324e-02
      7.55685195e-02 -3.05680111e-02 -5.00751436e-02 -6.82585500e-03
      6.57650232e-02 2.96883043e-02 6.12386428e-02 -9.29399952e-02
      -8.00779462e-02 -3.95728052e-02 -6.56727375e-03 7.04924911e-02
      2.01663207e-02 4.29458730e-02 -2.21659173e-03 3.67015637e-02
      -8.05170834e-02 -1.44066066e-01 -1.54561251e-01 -2.01015882e-02
      -2.86356453e-02 1.46336146e-02 3.14288251e-02 5.41117638e-02
      -5.77185340e-02 -7.48277083e-02 0. 1.88674241e-01 -1.19360909e-01
      8.82839188e-02 7.35640302e-02 2.08944920e-03 1.26750590e-02
      -1.20346576e-01 -3.43615934e-03 -1.14502996e-01 -2.18831562e-03
      -1.27387539e-01 -8.59593675e-02 2.42475439e-02 2.22076084e-02
      4.21717726e-02 1.75903052e-01 7.20520020e-02 -2.53775925e-03
      -1.46156594e-01 -1.34735882e-01 1.43838050e-02 1.42226040e-01
      7.43439123e-02 -1.09186344e-01 6.50840998e-02 5.92368841e-02
      -1.12848669e-01 -1.98073629e-02 5.05972169e-02 -8.03730916e-03
      3.67141478e-02 0. 2.18216717e-01 -1.27790019e-01 -1.47912920e-01
      -2.23515071e-02 8.68201554e-02 1.14268148e-02 -2.82212794e-02
      -1.31945908e-02 -1.19338289e-01 -1.12560596e-02 5.79479374e-02
      -2.51291227e-02 8.48695263e-02 1.22538894e-01 7.93159008e-02
      1.40213221e-01 1.64158791e-01 -1.66663677e-02 -9.89879593e-02
      -3.48615572e-02 -1.05990365e-01 4.70062234e-02 1.36667892e-01
      -3.64115536e-02 1.11381881e-01 1.58396870e-01 -1.17267013e-01
      2.69039739e-02 3.69963725e-03 5.89735210e-02 1.24272428e-01 0.
      7.01679364e-02 -1.65937990e-01 -7.02128559e-02 -1.12636469e-01
      8.67834091e-02 -5.05783223e-02 1.70903765e-02 -1.16235860e-01
      -1.05753705e-01 6.69577718e-02 -5.64655699e-02 1.81359753e-01
      8.72218907e-02 4.80694845e-02 1.14467561e-01 2.84720939e-02
      2.25086883e-02 -5.34087233e-02 -9.64165628e-02 -1.43367663e-01
      1.34267733e-01 3.79768992e-03 2.43523233e-02 1.71162619e-03
      4.38333973e-02 -5.90009391e-02 -3.69007364e-02 6.69435970e-03
      2.40968578e-02 -1.72977094e-02 -1.73262395e-02 0. -5.32091549e-03
      -1.21391304e-01 4.44347337e-02 -1.25448912e-01 -7.50586689e-02
      -3.67481187e-02 8.93844366e-02 2.00455338e-02 -1.14053361e-01
      1.41631037e-01 8.56037624e-03 1.74955994e-01 8.00220817e-02
      9.93728451e-03 -2.68602162e-03 7.38498941e-02 -5.79843596e-02
      -1.34744421e-01 -1.11209385e-01 -9.62117761e-02 2.08888352e-01
      -4.39439006e-02 -6.82735294e-02 -1.54776145e-02 1.67831525e-01
      4.35205065e-02 -1.30790696e-01 -1.01307437e-01 -2.00097151e-02
      5.51086105e-02 5.17768338e-02 0. 7.39445090e-02 2.92302035e-02
      -3.06395683e-02 6.61802292e-02 5.57377860e-02 -1.03550300e-01
      -2.97732502e-02 2.24172676e-04 -2.97153685e-02 1.75683126e-01
      -1.08125946e-02 6.79268390e-02 5.42693473e-02 -7.25301681e-03
      2.34820638e-02 -3.46716866e-02 -5.28558418e-02 8.68985429e-02
      3.82897556e-02 4.66762595e-02 -6.35917950e-03 8.97901952e-02
      -6.24113195e-02 -6.27740026e-02 -3.14365253e-02 -1.83973834e-02
      6.63958564e-02 -7.38883242e-02 -7.06885010e-02 1.09748229e-01
      1.92420080e-01 0. -1.25608772e-01 -4.01623659e-02 4.24053408e-02
      -2.91776825e-02 6.01921529e-02 2.40238141e-02 -1.59230575e-01
      -7.40033984e-02 -5.35981059e-02 6.28729239e-02 7.66577274e-02
      1.17749654e-01 -1.99370533e-02 -6.35438878e-03 9.55066755e-02
      -3.99047993e-02 -1.04897767e-02 5.92406429e-02 -1.62560225e-01
      -3.65954787e-02 5.58182672e-02 -6.38202727e-02 -9.42609012e-02
      1.26423463e-02 -1.22505806e-01 -6.84486851e-02 -4.38075848e-02
      3.09271123e-02 9.09061357e-02 -6.52840957e-02 -6.58913180e-02 0.
      6.27178103e-02 -3.61689599e-04 4.41543311e-02 -1.30649935e-02
      -4.63888533e-02 3.67836431e-02 1.27698882e-02 -3.77625227e-02
      -8.70351344e-02 6.00328445e-02 -5.09414785e-02 1.67763576e-01
      1.06409885e-01 1.29756063e-01 6.35521114e-02 1.46316150e-02
      4.57390435e-02 -3.65884788e-02 9.53245535e-02 -5.48259243e-02
      2.05983296e-01 7.84933940e-02 -1.58858486e-02 -9.63347629e-02
      5.03163300e-02 -1.99553859e-03 -7.82642215e-02 1.28737614e-02
      1.94798131e-02 1.06172040e-01 8.40541944e-02 0. 1.61171749e-01
      7.60882124e-02 2.07259320e-02 1.00673214e-02 -3.84774283e-02
      -8.25047716e-02 -6.18745200e-03 -8.59438255e-02 -1.48774190e-02
      1.31358942e-02 -6.97950646e-02 2.15344820e-02 2.34895889e-02
      3.88024910e-03 3.65605652e-02 -6.32117465e-02 -3.71270999e-02
      7.63981119e-02 3.72015052e-02 5.28736711e-02 7.23235831e-02
      2.21736971e-02 -8.36306661e-02 -2.71553006e-02 -7.46248141e-02
      -1.03828892e-01 6.32960871e-02 2.36219186e-02 5.97083606e-02
      -3.40339728e-02 -2.81176083e-02 0. 6.38869479e-02 -1.11491822e-01
      -1.21136948e-01 1.04288109e-01 4.86300373e-03 -4.51437309e-02
      -9.80195776e-03 3.03000119e-02 -2.43766531e-02 2.85355374e-02
      -1.74298689e-01 -9.66105796e-03 6.76534548e-02 4.11313921e-02
      4.07345295e-02 8.20762813e-02 1.30986255e-02 -2.52657775e-02
      -1.81478307e-01 -1.34222254e-01 -3.06845419e-02 1.56159163e-01
      2.28549708e-02 -4.31458130e-02 8.69123489e-02 9.48205441e-02
      -1.32984482e-02 2.14935653e-02 4.13726410e-03 -5.96218780e-02
      1.29625136e-02 0. -4.94584702e-02 -1.57137588e-01 -2.16381609e-01
      5.54417036e-02 6.32904842e-02 -5.98973483e-02 -1.91469714e-02
      2.39417981e-02 -6.02706596e-02 1.25041038e-01 -5.72669804e-02
      -1.06705157e-02 6.36641532e-02 9.43649784e-02 9.74343941e-02
      1.18387640e-01 1.11200303e-01 -1.61561891e-01 -2.00101480e-01
      -8.07511806e-02 -2.09781989e-01 1.08342789e-01 1.08615279e-01
      3.92339490e-02 1.18882492e-01 8.94841477e-02 -9.55567434e-02
      4.98501211e-02 -7.65156820e-02 1.00702597e-02 -1.80134107e-03 0.
      1.06699184e-01 -5.09579182e-02 1.09710861e-02 1.02777127e-02
      6.04957752e-02 2.09911522e-02 -2.51072794e-02 -1.56929389e-01
      -2.12367907e-01 -1.93732888e-01 -1.53619677e-01 1.30096912e-01
      9.75674316e-02 1.24523245e-01 5.91669157e-02 1.09244213e-01
      -1.07186362e-02 -5.13893925e-02 -2.68996507e-01 -4.22265008e-02
      1.39866635e-01 9.29616094e-02 1.49807826e-01 4.05396037e-02
      7.06037208e-02 -1.81635886e-01 -1.10001266e-01 -2.09479760e-02
      -2.01264005e-02 5.03478535e-02 -6.80992454e-02 0. -8.31127763e-02
      -2.04850696e-02 -1.02396514e-02 -8.58238712e-02 -9.80501994e-02
      -1.95077881e-02 1.38103098e-01 -8.52438882e-02 -3.15476507e-02
      1.06061578e-01 -2.57053003e-02 4.76214811e-02 1.39331967e-01
      8.42535123e-02 2.03307327e-02 3.30918692e-02 -4.97671254e-02
      -1.34917736e-01 -2.47389808e-01 9.06569213e-02 3.60190719e-02
      5.74032441e-02 -4.03606817e-02 -9.02120396e-02 1.86013952e-01
      -3.66280824e-02 -2.36815512e-02 -7.18392059e-02 -6.20460846e-02
      5.57219647e-02 4.25222814e-02 0. 1.32372081e-01 -1.48397405e-02
      -8.83979499e-02 -1.01689575e-02 -4.75679412e-02 -4.67358753e-02
      6.87579513e-02 -8.68758466e-03 1.42208502e-01 1.99820653e-01
      1.99955069e-02 -5.15498519e-02 -7.80815706e-02 1.18461259e-01
      2.25510504e-02 2.98336763e-02 -6.14221469e-02 -8.81719142e-02
      1.11376457e-01 7.92274848e-02 -1.39863446e-01 -5.63064590e-02
      1.22286789e-02 -5.61414100e-02 6.23075627e-02 7.87041150e-03
      7.28168041e-02 -4.15243618e-02 -5.79283386e-02 1.00223526e-01
      1.11600183e-01 0. 4.93395291e-02 7.61328191e-02 5.58894686e-02
      8.95071495e-03 7.16801137e-02 -2.43548770e-03 -3.29708531e-02
      2.48153135e-02 -1.97256487e-02 2.58201640e-02 -1.41964853e-02
      1.14612252e-01 -1.67434191e-04 1.57175392e-01 4.82948609e-02
      5.28397858e-02 1.00222796e-01 -4.98777777e-02 -2.66297702e-02
      1.06680170e-02 7.23806843e-02 5.83330765e-02 2.77721585e-04
      -3.50120589e-02 1.01869376e-02 1.29163131e-01 -4.77098748e-02
      1.09752648e-01 1.27370477e-01 2.82187611e-02 4.87988293e-02 0.
      1.24889866e-01 9.85357631e-03 9.38612968e-03 1.55299308e-03
      6.30982919e-03 5.37435040e-02 -7.25600645e-02 1.29037455e-01
      2.47158166e-02 1.66015401e-01 6.79646730e-02 7.21003441e-03
      -1.50936663e-01 7.99984336e-02 1.09060094e-01 -7.60655925e-02
      2.79692002e-02 -2.12525688e-02 1.37850285e-01 8.67354274e-02
      3.67360711e-02 -1.15100302e-01 -2.21763607e-02 7.30885044e-02
      -7.24011064e-02 1.14970908e-01 1.52347581e-02 4.43022437e-02
      3.52117307e-02 7.73004293e-02 7.74205327e-02 0. 1.43111691e-01
      -5.42340092e-02 -7.51209706e-02 9.86670405e-02 -4.92378026e-02
      -4.76240851e-02 -3.06459870e-02 9.59338387e-04 3.88421826e-02
      -7.20326044e-03 -1.12694032e-01 -2.81320699e-02 -1.46749811e-02
      2.28965711e-02 9.44839865e-02 -1.31985324e-03 6.78361580e-02
      9.52828377e-02 4.58896868e-02 -4.15815450e-02 -5.15470989e-02
      6.30243942e-02 -1.22677289e-01 -6.33954778e-02 -3.18080448e-02
      4.55364436e-02 3.81832644e-02 2.83499397e-02 2.22570486e-02
      1.12259360e-02 4.72532632e-03 0. 9.72381979e-02 -7.70723820e-02
      -1.31713867e-01 -1.22785568e-02 6.58787647e-03 7.48337852e-03
      3.18239108e-02 -2.43684892e-02 -2.90546622e-02 -1.36728846e-02
      -7.76612982e-02 3.73611078e-02 6.49479628e-02 6.62861541e-02
      1.01575643e-01 6.51511699e-02 1.20983586e-01 4.70080711e-02
      -1.48751125e-01 -1.93255916e-02 -5.54138646e-02 3.13738897e-03
      -1.22837327e-01 -1.81246959e-02 6.72881007e-02 8.73628706e-02
      -6.11354001e-02 9.53740254e-02 5.63442111e-02 1.37594342e-02
      -3.31910737e-02 0. -4.08246182e-02 -1.95765913e-01 -1.16383672e-01
      1.27837613e-01 1.61408037e-01 1.90902315e-02 8.93387496e-02
      4.33389992e-02 -1.12772115e-01 1.36115346e-02 -4.45908420e-02
      -1.54377567e-02 6.42923638e-02 1.09022167e-02 7.65880495e-02
      4.01945738e-03 2.99143828e-02 -7.63647184e-02 -1.35986403e-01
      -7.13250339e-02 -2.94286292e-02 1.82057902e-01 1.19542398e-01
      4.22313213e-02 1.30290806e-01 6.61338270e-02 -7.80139193e-02
      2.04480588e-02 -5.80251683e-03 2.83224788e-02 -2.49595959e-02 0.
      -1.17889056e-02 -1.50034606e-01 -2.42673643e-02 5.46314269e-02
      1.07566573e-01 1.11965343e-01 4.98396903e-02 -1.01827130e-01
      -2.32264474e-01 -9.32010487e-02 -1.62129909e-01 9.81196314e-02
      8.02892074e-02 3.34207565e-02 1.21642055e-03 5.72312698e-02
      -2.12162230e-02 8.20953175e-02 -1.83059067e-01 -1.05277330e-01
      7.31227174e-02 1.14113569e-01 6.22440130e-02 2.54769176e-02
      1.74303427e-01 1.14492211e-03 2.08171569e-02 -5.90231046e-02
      -7.28797615e-02 6.91501126e-02 6.01787446e-03 0. 4.04828265e-02
      -2.15166453e-02 -1.35495178e-02 -2.99053378e-02 2.24130172e-02
      -3.70673575e-02 -2.57518906e-02 2.29133032e-02 -1.64808720e-01
      1.52461484e-01 -1.08254061e-03 1.03529394e-01 1.26761556e-01
      7.19265044e-02 6.75554499e-02 -2.66367514e-02 2.22605350e-03
      1.72861163e-02 2.24147690e-03 2.59486157e-02 9.92179736e-02
      8.15905854e-02 -9.40697733e-03 -3.42851728e-02 -2.52969526e-02
      2.67830156e-02 -5.80081344e-02 -1.82952452e-02 -4.22083214e-02
      1.06869601e-01 9.84654725e-02 0. 1.58582479e-01 5.07922135e-02
      -3.70227918e-02 -7.19047934e-02 -5.51547673e-05 -7.04046264e-02
      4.64210287e-03 -2.46475395e-02 -7.66608045e-02 6.46402165e-02
      1.10250369e-01 1.44043475e-01 4.44639325e-02 -2.64866371e-02
      -1.84791926e-02 -1.34350806e-02 -5.69123477e-02 -4.06898521e-02
      1.72006637e-02 9.42465141e-02 7.76316971e-02 -5.54408766e-02
      -8.55334252e-02 -1.12326890e-01 8.96257814e-03 -3.07968725e-02
      -1.27362264e-02 -5.42732961e-02 -4.83172387e-02 8.30712691e-02
      8.58527422e-02 0. 7.51868784e-02 -8.71246383e-02 -4.95924242e-02
      -6.78517297e-02 1.24555022e-01 1.92968603e-02 9.53782443e-03
      5.53063769e-03 2.69644950e-02 1.63024217e-01 5.99823706e-02
      5.75188734e-02 8.53060838e-03 1.02818377e-01 1.15439072e-01
      -7.43924677e-02 3.92053612e-02 -3.32728401e-02 7.46438429e-02
      -2.56673247e-02 -9.96367726e-03 -7.82677904e-02 3.66084184e-03
      -3.21155973e-02 -9.27220583e-02 5.94744720e-02 -2.27960013e-02
      5.81885315e-02 1.13576964e-01 3.26594748e-02 2.90860999e-02 0.
      5.71157970e-02 5.32655828e-02 6.23770356e-02 -5.16990721e-02
      9.54976827e-02 1.66076198e-02 -3.02338339e-02 8.54892731e-02
      1.73348580e-02 2.04958078e-02 9.47223529e-02 5.60512282e-02
      3.89596969e-02 -9.24007222e-02 3.63658816e-02 -1.06522106e-01
      1.75824296e-02 1.15374304e-01 3.22719030e-02 8.52257684e-02
      7.65725896e-02 2.59542558e-02 -6.44210279e-02 -9.01291892e-02
      -3.04933302e-02 1.38076618e-01 5.17265522e-04 -2.17466932e-02
      1.04253203e-01 1.03604300e-02 1.36414379e-01 0. -1.25149861e-01
      -1.24313049e-01 -4.58523491e-03 1.91707388e-02 6.06404357e-02
      2.47469097e-02 -9.69983712e-02 -1.33166537e-01 -7.14234635e-03
      -6.06783368e-02 7.17964247e-02 2.42999420e-02 -9.43191256e-03
      -5.58466762e-02 2.45786086e-02 -5.20144030e-02 -1.73033345e-02
      8.73121470e-02 -2.21340165e-01 6.31084526e-03 9.77475569e-02
      7.59561211e-02 -1.00579053e-01 -1.45797068e-02 -9.35438201e-02
      -1.17480651e-01 1.70182586e-02 -3.04632820e-02 2.74521057e-02
      -1.59887150e-01 -1.34452758e-02 0. 1.47969991e-01 7.30204862e-03
      -1.16722658e-01 -1.04025118e-02 3.33479396e-03 -5.87657951e-02
      -1.33491695e-01 -1.08115792e-01 -5.08971103e-02 -5.94202764e-02
      -1.54972062e-01 -1.79839022e-02 -6.25871122e-02 1.50635213e-01
      -3.05049978e-02 4.40249182e-02 5.33377901e-02 1.07941084e-01
      -7.17384890e-02 -3.21334489e-02 -3.61038372e-02 -1.08743519e-01
      -1.00291530e-02 -1.26803502e-01 9.90357436e-03 -3.22021581e-02
      3.30935977e-02 -1.47632938e-02 2.26370096e-02 -9.09116045e-02
      -5.33466451e-02 0. 1.01711256e-02 -1.20116845e-01 -8.95276964e-02
      1.88474618e-02 -4.55867760e-02 6.11181371e-02 3.69560644e-02
      -3.53453010e-02 -1.32402837e-01 -5.18910177e-02 -1.59226805e-02
      -5.51058538e-02 -6.86200394e-04 1.16730575e-02 9.81023237e-02
      8.47612321e-02 4.56103161e-02 4.82444614e-02 -2.61813700e-01
      -4.34741415e-02 -1.19973570e-01 4.25806716e-02 -7.40148053e-02
      1.16443954e-01 1.40991896e-01 1.13363878e-03 -1.04431354e-01
      -3.05849873e-02 3.87158357e-02 -3.65437157e-02 -3.33881415e-02 0.
      -1.89751193e-01 -1.51425898e-01 7.58388191e-02 -1.69355869e-02
      1.02477342e-01 3.91210504e-02 3.44100525e-03 -1.49021357e-01
      -1.20289728e-01 8.46689865e-02 -2.42767986e-02 7.38552138e-02
      8.42775777e-02 1.62845030e-01 1.83226876e-02 -2.21116841e-03
      1.36051103e-02 -3.39209810e-02 -2.89579749e-01 -1.54758707e-01
      5.08102365e-02 8.28118771e-02 1.82187214e-01 -4.06627357e-02
      2.65946276e-02 -9.44405347e-02 -7.12395310e-02 -1.07462183e-01
      -3.52184474e-02 2.12783460e-02 1.07552625e-01 0. -2.30101384e-02
      -2.20801249e-01 -1.17401935e-01 -1.53474481e-04 -7.12937117e-02
      -2.69483775e-02 2.90405587e-03 -1.53354947e-02 -1.92082506e-02
      1.74413666e-01 1.49259627e-01 6.78860545e-02 -1.30235637e-02
      3.06883305e-02 1.01062864e-01 -6.68498203e-02 -3.31049673e-02
      -9.22515839e-02 -7.05602020e-02 -6.78799897e-02 -8.81686509e-02
      3.54148410e-02 -1.01019256e-01 -2.77756881e-02 -4.95454147e-02
      -9.33304708e-03 -7.03079551e-02 -9.39566419e-02 -5.14770299e-02
      2.98140524e-03 6.08208701e-02 0. 1.15954213e-01 -8.35774913e-02
      -6.90784454e-02 -3.86709273e-02 -3.97546776e-02 -1.35232117e-02
      -5.12451120e-02 -2.99272109e-02 -1.15035675e-01 -8.32327455e-02
      1.17896438e-01 6.77732602e-02 -1.02695651e-01 -6.23151101e-02
      4.48925141e-03 6.23348542e-02 2.21259743e-02 7.86364486e-04
      -1.24468952e-01 1.59762539e-02 6.90637007e-02 -9.84538347e-02
      -2.22705100e-02 -6.99248388e-02 4.31812517e-02 -1.25109730e-02
      -1.40859075e-02 -1.58825770e-01 -9.52943265e-02 5.20354137e-02
      6.17508665e-02 0. -2.30562184e-02 -2.99457032e-02 2.03937441e-02
      -1.84892528e-02 1.68720409e-02 6.58613294e-02 -5.56052327e-02
      2.71141659e-02 -4.18578126e-02 2.09984586e-01 8.82918239e-02
      2.21402962e-02 -7.08057582e-02 -7.76312724e-02 -9.63311235e-04
      3.31293270e-02 6.42320514e-02 -1.07836807e-02 1.29533606e-02
      -4.01439331e-02 6.27228320e-02 -5.22477180e-02 -7.35429898e-02
      -8.87014791e-02 -2.63392385e-02 4.66629677e-02 -1.33630363e-02
      -4.11757752e-02 1.02414079e-01 -1.38647426e-02 5.58070280e-02 0.
      8.87461901e-02 -3.22396960e-03 -1.10062107e-01 -9.77922678e-02
      -7.10741896e-03 8.50051045e-02 1.46163076e-01 2.03705933e-02
      -9.07650813e-02 9.87866819e-02 9.69849005e-02 2.91772932e-02
      3.73666659e-02 8.21886659e-02 1.36908621e-01 -2.38345917e-02
      -4.11907323e-02 2.35197563e-02 6.43809438e-02 6.53493479e-02
      -7.26430416e-02 -5.13215214e-02 -5.65284379e-02 2.32716259e-02
      6.54765815e-02 -3.25494893e-02 -3.49928811e-02 -3.92039381e-02
      7.81428367e-02 8.20190907e-02 1.01185188e-01 0. -8.86880681e-02
      -2.26949695e-02 -7.21883699e-02 -5.78933023e-03 -9.46236625e-02
      4.24419902e-02 8.28603208e-02 3.78408656e-02 5.71782421e-03
      3.23659889e-02 3.68542299e-02 2.65411753e-02 -4.37063836e-02
      9.97760147e-02 -9.41775516e-02 -6.91114143e-02 -2.63039842e-02
      2.27127410e-02 -9.19960067e-02 3.45121920e-02 -6.65742978e-02
      -5.54281706e-03 -1.66776165e-01 -6.96657002e-02 2.20937748e-03
      -1.94463152e-02 -3.83292921e-02 -3.33474278e-02 1.25191361e-01
      -1.56222105e-01 3.01482482e-03 0. 9.70394090e-02 8.05696696e-02
      -5.05272858e-02 9.19832010e-03 -6.31933883e-02 -1.49317652e-01
      -8.20160732e-02 -8.81203264e-02 7.11234063e-02 6.48034438e-02
      1.15235914e-02 -5.22638895e-02 5.09736640e-03 1.44196954e-02
      1.89888757e-02 -3.15295160e-02 -3.75507511e-02 6.74809590e-02
      2.72836816e-02 7.71372169e-02 -1.04101086e-02 6.30686618e-03
      -1.01112612e-01 -1.85588196e-01 -6.26703128e-02 -5.83782978e-02
      1.05068177e-01 -3.87708358e-02 1.34583741e-01 -1.44889370e-01
      -4.79234708e-03 0. 4.99987714e-02 -1.63163152e-02 -1.00831375e-01
      -5.83658665e-02 -1.26241341e-01 -1.87018901e-01 -2.34702468e-01
      -1.81131497e-01 -1.59123510e-01 2.25533918e-02 -1.42711727e-02
      -4.68364917e-02 -2.50018090e-02 -5.55886800e-05 9.23039243e-02
      7.58468434e-02 1.49647193e-02 9.70701501e-02 -6.00412451e-02
      -2.80176643e-02 -5.04304655e-02 -4.38057929e-02 -1.76493958e-01
      -2.12236881e-01 -1.08894706e-01 -7.35683441e-02 -4.17944267e-02
      -1.78821161e-01 3.20859775e-02 -2.03087613e-01 -2.59577166e-02 0.
      9.65131670e-02 -2.96302009e-02 -1.10938258e-01 -1.88686714e-01
      -1.39004365e-01 -1.44623742e-01 -1.18203111e-01 -8.11148807e-02
      -2.31590606e-02 1.06661953e-01 1.56802803e-01 3.93658467e-02
      -7.67619023e-03 9.65802819e-02 2.41888613e-02 -2.91648731e-02
      6.48587663e-03 -2.68576182e-02 -1.66031998e-02 4.97546680e-02
      -8.89884755e-02 -1.82909235e-01 -1.63444355e-01 -2.60586232e-01
      -1.05518408e-01 -1.87693853e-02 -6.77823648e-03 -1.87635586e-01
      9.89831053e-03 -9.26358029e-02 9.47953314e-02 0. 2.89875921e-02
      4.67065386e-02 -1.58109978e-01 -1.81001559e-01 -2.06992298e-01
      -5.46101891e-02 5.46934456e-02 -4.94047366e-02 7.95328766e-02
      1.20128833e-01 1.02195404e-01 -2.70469207e-02 -3.33970822e-02
      1.26013663e-02 9.31656808e-02 2.74053402e-02 -8.98737111e-04
      -7.41950795e-02 -7.24996328e-02 8.34558606e-02 -1.08989619e-01
      -2.50694066e-01 -1.02853976e-01 -1.22457020e-01 5.91579154e-02
      -7.48715624e-02 -1.13146789e-02 -1.31594688e-01 -2.95516402e-02
      -5.04934601e-02 1.07818849e-01 0. 1.33792860e-02 -6.28351197e-02
      -6.88899159e-02 -4.90834489e-02 3.15487981e-02 2.52652746e-02
      9.69099812e-03 -4.03509708e-03 5.73601797e-02 -1.15118558e-02
      4.21308503e-02 2.58082505e-02 5.99133410e-02 2.27613226e-02
      1.15195960e-01 7.79392645e-02 -2.61441991e-02 -1.61093082e-02
      -8.25261250e-02 -2.10473575e-02 -5.15529478e-04 5.04390895e-02
      3.04559208e-02 -5.56253791e-02 6.41818717e-02 -3.05328630e-02
      1.01830907e-01 -8.25829655e-02 -2.45229844e-02 6.17390424e-02
      1.59626976e-01 0. 2.17957169e-01 -2.26431135e-02 4.31320220e-02
      1.26111478e-01 -2.26179436e-02 1.76415704e-02 2.50472557e-02
      -1.53168201e-01 -6.57221451e-02 9.22432691e-02 -2.48376522e-02
      6.31832629e-02 5.73492683e-02 3.94700654e-02 4.13548434e-03
      7.39431679e-02 1.13212951e-01 1.52597785e-01 1.57053009e-01
      -9.93677881e-03 1.90191623e-02 4.82675880e-02 -1.19763650e-01
      -1.07054412e-01 2.03595478e-02 -7.72133619e-02 8.28286782e-02
      9.73646790e-02 1.13930315e-01 4.06944118e-02 9.54492241e-02 0.
      -1.03167973e-01 -1.12806885e-02 -5.53492643e-02 4.01028730e-02
      2.53842250e-02 -5.27549274e-02 1.58297122e-01 -5.13494089e-02
      -5.44038527e-02 5.53530902e-02 7.27753639e-02 1.49025768e-02
      5.70629723e-02 7.68696293e-02 7.71000609e-02 -2.32693236e-02
      3.28808054e-02 2.52966359e-02 -1.19878426e-01 3.41940038e-02
      -2.27202214e-02 -1.41508132e-02 -9.77173541e-03 2.39752233e-02
      1.09714866e-01 -4.82952595e-02 -2.58084834e-02 -1.01275392e-01
      1.23517057e-02 8.32259059e-02 1.39787436e-01 0. -1.19255461e-01
      2.94766165e-02 3.67520340e-02 4.27101031e-02 1.76867396e-02
      -1.07975036e-01 8.00388213e-03 4.83694375e-02 -6.52052974e-03
      -4.91524637e-02 1.02989234e-01 5.47922179e-02 -3.07158027e-02
      -4.72879549e-03 8.68725553e-02 -3.20110470e-02 4.16538492e-03
      1.06272809e-01 -1.10670045e-01 1.30503610e-01 3.81174646e-02
      -6.62320331e-02 -4.17827815e-02 -6.82469681e-02 -3.70525829e-02
      9.47993249e-03 7.80565664e-02 -1.86385009e-02 1.44379571e-01
      -8.02497864e-02 4.30055186e-02 0. -9.29679275e-02 7.53684863e-02
      3.70569825e-02 3.26276966e-03 -1.28336875e-02 -4.34929915e-02
      4.03934568e-02 -5.16268611e-03 -1.53696248e-02 9.47616156e-03
      3.26180793e-02 -3.83057259e-02 5.94033375e-02 5.85226715e-02
      9.79241282e-02 -3.71253900e-02 -1.15102495e-03 -3.29847708e-02
      3.36426720e-02 7.97688887e-02 -2.22870708e-02 1.20125124e-02
      -9.76584181e-02 5.11387456e-03 -2.37347651e-02 2.28580944e-02
      -1.10110110e-02 -6.15392029e-02 1.52082339e-01 -1.04940929e-01
      7.78634399e-02 0. 7.47022927e-02 6.26966506e-02 -1.66827999e-02
      -2.32732669e-02 -4.68130335e-02 -1.46927550e-01 1.21071171e-02
      1.02188982e-01 2.04450246e-02 9.88150388e-02 4.04243916e-02
      -6.57525212e-02 1.25949517e-01 9.10709947e-02 9.02772993e-02
      3.69633101e-02 1.11156600e-02 7.66034946e-02 1.27422661e-01
      9.38211009e-02 -4.45416849e-03 1.56718474e-02 -2.89948713e-02
      -5.24201021e-02 -1.37924794e-02 9.14068148e-02 3.47280242e-02
      -5.22083342e-02 1.89530298e-01 -5.65768778e-02 1.75654382e-01 0.
      8.60365555e-02 6.53479248e-02 6.31090477e-02 -4.27875891e-02
      -1.32554904e-01 -4.30468842e-02 -2.94666272e-02 7.81504065e-02
      -8.45208950e-03 2.25033537e-02 1.16324443e-02 -2.84530669e-02
      -1.55770639e-02 1.57289788e-01 5.98672666e-02 6.95627630e-02
      -7.66489059e-02 7.30215907e-02 8.15202892e-02 5.93893230e-02
      5.22973165e-02 -1.21535800e-01 -3.10660806e-02 -4.68462482e-02
      4.02859226e-02 -3.01061533e-02 6.56824484e-02 -1.26716256e-01
      1.40251443e-01 -4.29648533e-02 1.75343990e-01 0. 4.50797789e-02
      -3.91398231e-03 -3.42415348e-02 -2.81272316e-03 -4.38621901e-02
      5.79560585e-02 -5.75454300e-03 2.09809635e-02 3.22565623e-02
      6.53556511e-02 -1.29428767e-02 -4.32004407e-02 2.06916332e-02
      5.01310788e-02 2.20202915e-02 5.92568330e-02 -4.25694622e-02
      1.05292238e-02 3.56990471e-02 4.75989990e-02 -8.00367817e-03
      2.21636910e-02 6.18944922e-03 -9.57086533e-02 9.46256518e-03
      -4.77342084e-02 3.97520550e-02 -9.14777294e-02 1.11862391e-01
      -8.79930407e-02 1.59512669e-01 0. -8.17086622e-02 -8.47405493e-02
      1.26230447e-02 -8.96660686e-02 -1.01569697e-01 -5.02681024e-02
      3.95553932e-02 3.62913273e-02 1.09388605e-01 -9.04864520e-02
      5.29161803e-02 -9.78061929e-03 6.15647063e-02 1.27978861e-01
      -3.97227257e-02 -7.70781841e-03 -4.69750576e-02 2.99133509e-02
      -1.03902929e-01 5.18576009e-03 -4.28147949e-02 -3.59558351e-02
      -3.18023898e-02 -1.04534566e-01 -1.67643856e-02 3.57098505e-02
      1.10055543e-01 -1.32298768e-01 3.23490091e-02 -9.65269580e-02
      1.34066030e-01 0. 2.70876624e-02 -7.18773250e-03 4.78704683e-02
      1.67968079e-01 -6.49241656e-02 -6.96016699e-02 8.50561783e-02
      -1.47382813e-02 1.87118985e-02 -3.81059535e-02 6.08823122e-03
      -4.31158952e-02 4.54878509e-02 1.46674693e-01 1.36710510e-01
      1.21930681e-01 -1.42717594e-02 1.04737058e-01 -5.76148666e-02
      1.41544064e-04 -2.73848269e-02 1.39813185e-01 2.84862313e-02
      4.77243727e-03 9.30224732e-02 -9.15168598e-02 4.89282943e-02
      1.43821955e-01 1.69358060e-01 -8.34346861e-02 7.96711892e-02 0.
      -5.73115349e-02 6.75168633e-02 9.57618095e-03 4.36414182e-02
      1.00413702e-01 -3.29958722e-02 1.23407543e-01 3.20283361e-02
      8.98470357e-02 6.97414130e-02 1.09866731e-01 -2.91934386e-02
      -4.12172601e-02 1.16769187e-01 5.64832874e-02 5.57600744e-02
      7.52647445e-02 3.69642787e-02 -1.37423977e-01 8.47493857e-02
      -3.60495001e-02 -7.14370161e-02 4.61388715e-02 -3.77648398e-02
      3.65092531e-02 6.51670992e-02 6.80063441e-02 1.09428979e-01
      -5.67431599e-02 2.55229950e-01 8.17258731e-02 0. -1.06845826e-01
      -6.88658515e-03 8.10258612e-02 -4.47647721e-02 -4.38480312e-03
      -1.44198984e-02 2.32027713e-02 3.21674272e-02 8.74990150e-02
      -1.48462998e-02 1.52973766e-02 -2.10677311e-02 -6.67651445e-02
      6.23925440e-02 -1.63405631e-02 4.77390438e-02 -2.29561273e-02
      5.92088513e-02 -9.04066563e-02 1.81333628e-02 7.59842396e-02
      -1.42140955e-01 6.44329190e-02 -7.84394071e-02 5.10268565e-03
      -2.33553406e-02 1.05175734e-01 1.05457835e-01 -4.96392176e-02
      9.34055895e-02 -1.07149310e-01 0. -6.10780865e-02 9.70979258e-02
      1.31922448e-02 -2.38006487e-02 3.73939574e-02 -4.58577015e-02
      -6.60689035e-03 -2.89058359e-03 1.08803563e-01 -2.30563320e-02
      1.89126935e-02 -8.81678518e-03 2.49691103e-02 5.89935333e-02
      4.98004630e-02 -5.83921373e-02 -3.74287069e-02 4.21384256e-03
      -8.78956765e-02 4.71401662e-02 -5.44356741e-02 -6.76383078e-02
      3.23807448e-02 -7.06447959e-02 -5.62109053e-02 -7.70848170e-02
      9.18923020e-02 9.72780436e-02 -6.23273700e-02 9.23063010e-02
      -5.86921088e-02 0. 1.46631792e-01 7.66781121e-02 -1.15567259e-02
      -5.71114756e-02 8.64816308e-02 1.78089067e-02 -1.64587963e-02
      -1.11662664e-01 2.13110838e-02 -3.71031128e-02 6.61056563e-02
      1.05835656e-02 6.89521879e-02 4.16138135e-02 -1.55313825e-02
      6.35877401e-02 3.52218002e-02 5.01418039e-02 7.96294771e-03
      5.40622063e-02 -1.20601235e-02 -5.76048754e-02 7.16049373e-02
      -4.82648052e-02 -6.86172843e-02 -1.18146740e-01 -1.13073867e-02
      1.19053364e-01 -4.23013754e-02 1.26272753e-01 2.36138795e-03 0.
      7.53576756e-02 -4.30875458e-02 -1.29448354e-01 3.51719968e-02
      -4.36445661e-02 6.07350320e-02 1.54600041e-02 -8.84127337e-03
      -2.81377994e-02 -3.38896438e-02 4.50568795e-02 -6.95667882e-03
      -9.50241461e-03 1.08387090e-01 -4.59153652e-02 1.18079722e-01
      6.92056417e-02 8.76860414e-03 -9.79500636e-03 1.03981234e-02
      -1.29394844e-01 -7.20930472e-02 2.06183014e-03 2.72175428e-02
      -3.71307367e-03 6.18014392e-03 -4.20395611e-03 6.24726489e-02
      -6.02132976e-02 1.17934294e-01 -3.21366005e-02 0. 3.96222062e-03
      9.86763760e-02 -9.92122889e-02 1.12945184e-01 2.00215839e-02
      2.73130015e-02 1.91640742e-02 4.77826111e-02 8.66606459e-02
      -4.52624671e-02 3.62755992e-02 -1.47206141e-02 6.57326281e-02
      6.24672771e-02 2.43101418e-02 4.56940308e-02 2.76646167e-02
      3.72050740e-02 -2.19997093e-02 8.61587673e-02 -1.21441871e-01
      1.33852763e-02 4.65088002e-02 -7.37304054e-03 -9.52930190e-03
      -5.87534392e-03 8.51136148e-02 1.08389206e-01 6.45898422e-03
      1.52153179e-01 -4.58253874e-03 0. -4.80348393e-02 3.39790434e-02
      9.99549553e-02 2.99193840e-02 8.54671225e-02 -1.25206694e-01
      -5.08181937e-02 2.19946657e-03 -5.44140078e-02 -8.01638961e-02
      6.65413961e-02 -5.54119907e-02 -6.27748668e-02 8.92665535e-02
      -3.91459018e-02 1.45433974e-02 -2.87584849e-02 7.61948200e-03
      -6.99378625e-02 4.79556173e-02 -7.68018793e-03 -9.23345909e-02
      5.24432845e-02 -7.56909996e-02 -9.78182554e-02 -5.56655403e-04
      -3.81386429e-02 1.14834262e-02 -7.15665594e-02 5.57248965e-02
      -4.99650016e-02 0. 7.18277806e-05 -2.47639399e-02 -2.25411616e-02
      1.26193866e-01 -4.75739799e-02 -1.08167045e-01 9.35886204e-02
      4.58988696e-02 1.07143894e-01 3.11720613e-02 -7.89560378e-03
      1.05210103e-01 3.99646051e-02 1.47582635e-01 1.00063123e-01
      1.47437304e-02 -4.81227860e-02 6.84694573e-02 -9.76913422e-02
      -5.76131307e-02 -2.52113405e-05 1.90997347e-02 1.38232723e-01
      3.50147262e-02 3.01574208e-02 -5.61473295e-02 1.19111061e-01
      2.20419288e-01 1.10012598e-01 3.87847908e-02 -7.64592290e-02 0.</_></support_vectors>
  <decision_functions>
    <_>
      <sv_count>1</sv_count>
      <rho>-1.9364184063179775e+00</rho>
      <alpha>
        1.</alpha>
      <index>
        0</index></_></decision_functions></my_svm>
</opencv_storage>
