<?xml version="1.0"?>
<opencv_storage>
<my_svm type_id="opencv-ml-svm">
  <svm_type>C_SVC</svm_type>
  <kernel><type>LINEAR</type></kernel>
  <C>1.0000000000000001e-01</C>
  <term_criteria><epsilon>2.2204460492503131e-16</epsilon>
    <iterations>500000</iterations></term_criteria>
  <var_all>4096</var_all>
  <var_count>4096</var_count>
  <class_count>2</class_count>
  <class_labels type_id="opencv-matrix">
    <rows>1</rows>
    <cols>2</cols>
    <dt>i</dt>
    <data>
      -1 1</data></class_labels>
  <sv_total>1</sv_total>
  <support_vectors>
    <_>
      -1.29222795e-01 3.64183858e-02 7.51726329e-02 1.59788656e-03
      1.67409077e-01 1.04888424e-01 -1.50307985e-02 -4.33116183e-02
      6.53300062e-02 6.46001771e-02 1.65925741e-01 8.52674916e-02
      -3.52492109e-02 -7.35125393e-02 8.20280313e-02 -2.65477225e-02
      -3.91048007e-02 1.40009910e-01 -1.90813690e-01 7.67715946e-02
      1.45965949e-01 -3.21830530e-03 -1.87541619e-02 -6.43156692e-02
      -5.12807891e-02 -1.01794764e-01 6.56262338e-02 -1.23966619e-01
      1.14906475e-01 3.83452848e-02 2.66126275e-01 0. -7.66978487e-02
      -3.01117264e-02 6.88912421e-02 -8.19854736e-02 -9.38518420e-02
      1.19285639e-02 1.31034940e-01 -1.02949580e-02 2.21204059e-03
      -1.81238666e-01 5.51554859e-02 2.68007349e-03 1.64526440e-02
      -3.78649756e-02 5.17451242e-02 -1.31342690e-02 5.33126928e-02
      1.18170738e-01 -2.10059598e-01 -4.56806347e-02 8.91362876e-02
      -1.13473106e-02 -1.14981011e-01 -7.31508061e-02 6.82377443e-02
      -5.65156341e-03 5.77720255e-03 -5.74443722e-03 4.53342480e-04
      -6.74896166e-02 6.63714558e-02 0. -1.56768858e-01 6.87641129e-02
      6.81165829e-02 -2.62537263e-02 3.63166705e-02 -1.09944031e-01
      5.43405265e-02 -8.25881585e-02 8.62736553e-02 -6.13472387e-02
      9.69586447e-02 5.12170307e-02 -3.09722442e-02 2.35566497e-02
      4.42711599e-02 8.12895149e-02 1.17311962e-01 -2.00421270e-02
      -1.11089788e-01 7.92834982e-02 4.64472696e-02 -3.69778201e-02
      9.31796283e-02 -8.80689546e-02 8.65238607e-02 -3.42425033e-02
      -3.78265008e-02 6.42298684e-02 -6.55006841e-02 5.86160794e-02
      5.60265221e-02 0. -8.53153467e-02 9.92827266e-02 -6.25385270e-02
      1.03982054e-02 2.21311510e-01 2.63028238e-02 4.65211272e-02
      -6.78317323e-02 -4.28064074e-03 -4.44511995e-02 4.84613366e-02
      7.37473443e-02 -3.91708463e-02 9.53990966e-03 -3.76317538e-02
      1.11606203e-01 1.48858771e-01 1.77403949e-02 2.35345680e-02
      6.40142262e-02 1.85323972e-02 -1.02765847e-03 7.08176643e-02
      -1.22928366e-01 1.13597259e-01 1.33591853e-02 -5.61663881e-03
      1.31238298e-02 2.71603912e-02 8.09083432e-02 1.01567656e-01 0.
      3.77939306e-02 1.32322729e-01 5.33733070e-02 -2.89439084e-03
      9.66581851e-02 1.84820294e-01 7.55499005e-02 2.38133478e-03
      1.11238934e-01 -1.05048902e-01 -9.76455398e-03 1.15102522e-01
      6.14852011e-02 -3.94289717e-02 -5.87398224e-02 -3.36855501e-02
      1.16521619e-01 1.53255254e-01 -2.35038567e-02 3.24765593e-02
      1.18431523e-01 6.20396920e-02 -4.53718267e-02 -4.04605147e-04
      1.64888836e-02 1.07731603e-01 1.21391408e-01 4.28420417e-02
      1.90843955e-01 4.20212075e-02 1.44282401e-01 0. -4.54694852e-02
      1.21092238e-01 -9.67371464e-02 -1.57348942e-02 -4.29088436e-02
      -1.92486700e-02 3.55198830e-02 5.54587990e-02 1.71537220e-01
      -7.51960427e-02 4.53982353e-02 1.77340120e-01 2.30368041e-02
      6.85404316e-02 -3.59977446e-02 -2.52502374e-02 2.56063603e-02
      5.89593463e-02 -5.66303059e-02 9.00235549e-02 -5.10151200e-02
      -1.79462694e-02 4.57199179e-02 -5.78033626e-02 -2.91392040e-02
      5.14725968e-03 1.24647580e-01 7.39982678e-03 1.30395517e-01
      -1.21020693e-02 7.50978664e-02 0. -7.82274976e-02 8.85040611e-02
      -2.89261322e-02 2.42466182e-02 4.25737873e-02 -1.06215484e-01
      -4.14318889e-02 8.70315358e-02 1.60973482e-02 -1.16667919e-01
      1.06713392e-01 7.37463906e-02 8.71992297e-03 -3.89085710e-02
      -4.66910377e-02 1.32142771e-02 -4.13680412e-02 -8.68454762e-03
      -1.93487201e-02 1.37754515e-01 3.86111364e-02 -5.90658374e-02
      -1.31449411e-02 -2.76455104e-01 -6.57776603e-03 -1.40155703e-02
      -3.37719568e-03 -7.31428489e-02 1.04670405e-01 -4.98548150e-02
      -3.48618603e-03 0. -9.06889851e-04 -3.43439169e-02 -3.60209425e-03
      4.30761604e-03 1.66624933e-01 5.18960543e-02 -3.29240933e-02
      1.59509212e-01 9.87193882e-02 -1.92716867e-01 7.52760395e-02
      1.20366231e-01 9.86006856e-02 -7.80516714e-02 -2.36476772e-02
      -8.76924470e-02 1.01561911e-01 2.50011086e-01 -5.61863035e-02
      3.19787189e-02 6.18466660e-02 3.95432906e-03 3.15352716e-02
      -1.19465403e-01 -1.04945190e-01 1.83710322e-01 1.76121786e-01
      4.35038358e-02 2.79680043e-01 -7.36713260e-02 6.77337646e-02 0.
      -6.59587458e-02 3.02005075e-02 -3.02340146e-02 -5.32545596e-02
      -8.36626044e-04 -6.86808974e-02 3.69997160e-03 -4.11517657e-02
      1.47793209e-02 -1.89468265e-02 -3.71602029e-02 1.73376184e-02
      -6.12702444e-02 -4.53400314e-02 7.30845556e-02 1.92578323e-02
      6.16954491e-02 -6.00297004e-02 -9.60887149e-02 -3.22507359e-02
      -3.06293871e-02 -6.58536553e-02 -5.40754683e-02 -1.86836049e-01
      1.52468374e-02 -2.47070920e-02 -9.68684405e-02 -7.69624338e-02
      -1.02445409e-01 4.60291654e-02 9.49084759e-03 0. -8.40207636e-02
      5.75883947e-02 -1.11625411e-01 -7.24751279e-02 2.25183628e-02
      3.62802371e-02 9.36978385e-02 3.38192619e-02 7.95389637e-02
      -7.82660767e-02 -2.79657426e-04 7.89513364e-02 -1.34306058e-01
      2.78261229e-02 -4.96344678e-02 6.93421960e-02 -1.22650579e-01
      -7.55477622e-02 -1.05295897e-01 -3.95647297e-03 3.92136984e-02
      -1.10451184e-01 -4.25964594e-02 -7.80824497e-02 1.10257819e-01
      -7.68095553e-02 -1.01656266e-01 6.64387941e-02 -3.94884981e-02
      -2.64968555e-02 -1.08518623e-01 0. -5.15137576e-02 2.23664120e-02
      -7.36441044e-03 -7.91879022e-04 -3.79104652e-02 -7.64532313e-02
      8.93516615e-02 1.01576567e-01 1.76040709e-01 -4.80850376e-02
      4.45882641e-02 -8.31619874e-02 -5.10443188e-02 -8.62961486e-02
      6.90808520e-02 -3.81841697e-02 -2.37979647e-03 4.46828790e-02
      2.60752677e-05 4.28666081e-03 2.04946697e-02 -4.18246873e-02
      -1.24003515e-01 -6.46990016e-02 1.04961637e-03 1.19226538e-01
      8.89904797e-02 7.74066001e-02 -6.10624515e-02 4.78788763e-02
      -3.38167623e-02 0. -7.14599714e-02 7.21577033e-02 3.49278189e-02
      -1.84932381e-01 -1.16197295e-01 -1.33374795e-01 8.01536366e-02
      1.33030295e-01 2.77318377e-02 -9.18719247e-02 2.06368148e-01
      -1.32703478e-03 -8.63916427e-02 -2.32363746e-01 -7.04301819e-02
      1.48987070e-01 7.90542141e-02 8.30990076e-02 6.01712661e-03
      1.88076407e-01 -1.54471155e-02 -2.35696360e-01 -2.77999341e-01
      -2.58525789e-01 1.28897309e-01 1.79926932e-01 1.16206318e-01
      8.55955556e-02 -1.58789873e-01 4.58888039e-02 -3.06009557e-02 0.
      6.11108169e-02 6.58150315e-02 1.67445809e-01 1.24652022e-02
      -1.46048933e-01 -1.50328055e-01 -1.27643809e-01 -2.09359247e-02
      3.07828020e-02 -6.45726398e-02 9.36167538e-02 1.61385924e-01
      1.17940024e-01 -3.15093584e-02 -1.23237930e-01 -9.87304971e-02
      -4.05521654e-02 1.28518432e-01 6.25200346e-02 1.19664527e-01
      2.43208408e-01 3.85543890e-02 -1.33031920e-01 -2.15275288e-01
      -1.83320984e-01 -7.63204023e-02 1.30113229e-01 6.89748824e-02
      -8.85051787e-02 1.27248198e-01 -9.09730569e-02 0. -6.01648390e-02
      3.45110744e-02 6.47561923e-02 3.24682593e-02 -1.06700771e-02
      -7.66422674e-02 1.74998641e-02 -1.14219682e-02 1.10889360e-01
      -5.40259778e-02 4.47237976e-02 4.23992835e-02 6.23760819e-02
      9.97544751e-02 2.50908677e-02 -1.14878207e-01 -9.34770703e-02
      -1.03759589e-02 -2.60701198e-02 1.09101281e-01 8.65544453e-02
      5.49546443e-02 7.29622319e-02 -1.04911752e-01 -6.57719225e-02
      -3.87734384e-03 7.03313248e-03 1.35935610e-02 -9.62960534e-03
      1.30610853e-01 -8.61088112e-02 0. -9.41747148e-03 -1.41724413e-02
      -1.09530278e-02 5.19171767e-02 -1.50262201e-02 2.19959058e-02
      -1.00260399e-01 -1.18420459e-01 7.30560422e-02 -8.94429162e-02
      2.64304578e-02 -1.38195425e-01 -4.05789958e-03 8.37372392e-02
      2.68430002e-02 -6.00972436e-02 4.53237928e-02 -8.32521841e-02
      -5.12810983e-02 -2.15260554e-02 -1.45975798e-01 -4.21496257e-02
      6.45299032e-02 -1.35060966e-01 -1.26773477e-01 -3.68313212e-03
      -2.46584974e-02 -2.27974299e-02 -8.08483064e-02 4.52677049e-02
      -8.96378160e-02 0. -9.44980830e-02 -8.26361254e-02 -4.06731591e-02
      -7.11671486e-02 3.67209464e-02 -5.17164469e-02 -4.41598520e-02
      -1.45579502e-02 -8.04629549e-02 -1.17954232e-01 5.45835905e-02
      -6.06207224e-03 -6.37056530e-02 3.36225107e-02 5.53399734e-02
      1.65767204e-02 1.14844598e-01 -4.82957289e-02 -3.10498886e-02
      -6.80586174e-02 -5.68945520e-02 -1.82717353e-01 -5.86038455e-03
      -1.58045217e-01 -1.48342829e-02 2.70568114e-02 -9.80359167e-02
      6.71238545e-03 -2.38577928e-02 -4.91742529e-02 -1.24220744e-01 0.
      -1.36244014e-01 -6.96967309e-03 3.47744264e-02 -1.80950239e-02
      1.25238970e-01 -1.62623171e-02 1.45125821e-01 1.92480795e-02
      -9.21349078e-02 -9.20936093e-02 1.45004764e-01 1.30783185e-01
      -1.79555401e-01 -2.46961955e-02 3.81149985e-02 -3.24224196e-02
      4.63086665e-02 1.06219808e-02 -6.29046783e-02 7.34279752e-02
      9.75157320e-02 -1.18871272e-01 -1.24186510e-02 -1.13731742e-01
      -3.91683206e-02 5.76803088e-02 -3.69070545e-02 -6.92781061e-02
      -1.29165962e-01 1.77340150e-01 6.67106211e-02 0. 3.91652472e-02
      1.41817614e-01 -1.04249455e-03 -6.49944395e-02 -8.47163871e-02
      7.89340958e-03 1.22522302e-01 1.35443676e-02 -6.63635135e-02
      -4.74436283e-02 1.24959201e-02 8.20447281e-02 6.75076023e-02
      5.93015961e-02 -3.98653895e-02 -1.16531536e-01 1.97349414e-02
      7.64830783e-02 -8.80804062e-02 1.16500646e-01 1.25357538e-01
      -2.20172126e-02 -5.62457889e-02 -1.28727481e-01 -7.85526559e-02
      -8.62885360e-03 -6.12752959e-02 6.12127930e-02 4.81425375e-02
      2.55024768e-02 -3.04175019e-02 0. -1.23088047e-01 -9.03870352e-03
      9.23684016e-02 2.40403437e-03 1.88240744e-02 -8.39675777e-03
      7.88782239e-02 -5.61948568e-02 -4.67746966e-02 -1.05979867e-01
      -7.37985887e-04 -1.83929503e-02 5.96610978e-02 4.12822105e-02
      2.03322038e-01 -4.27904949e-02 1.24358153e-02 4.38486114e-02
      -1.93016946e-01 -4.37974595e-02 8.86234120e-02 5.44469096e-02
      -1.18321076e-03 7.37567991e-02 2.08666548e-02 -1.01400469e-03
      -3.92406359e-02 6.34150952e-02 -6.78361347e-03 7.66191212e-03
      2.47102324e-03 0. 1.12455543e-02 -1.87347740e-01 -9.85737145e-03
      -2.32048482e-01 3.37161310e-02 6.21008165e-02 -8.17302987e-02
      -1.57584008e-02 -6.27011210e-02 -9.90849510e-02 -1.43895283e-01
      -1.06341198e-01 -7.15373456e-02 -2.40800548e-02 2.97404397e-02
      -1.56488977e-02 2.27686428e-02 -7.42007121e-02 -2.42842957e-01
      -2.78046280e-01 -2.40021840e-01 -2.86137998e-01 -1.27428034e-02
      -2.29733847e-02 -6.69408813e-02 8.66262335e-03 -1.41608372e-01
      -8.87656808e-02 -1.41116574e-01 -5.82107194e-02 -1.66647896e-01 0.
      -1.10724822e-01 -1.28743857e-01 1.02402540e-02 -5.20625189e-02
      7.20552430e-02 4.74316925e-02 -1.93964303e-01 -1.17837563e-01
      -2.87643999e-01 -9.79682803e-03 -2.49931160e-02 3.16122435e-02
      -8.13488960e-02 9.49466527e-02 1.59929432e-02 -7.23579675e-02
      -8.23673159e-02 -1.38297796e-01 -2.45429590e-01 -1.30232513e-01
      -3.64388339e-02 -5.65251037e-02 1.98419318e-02 -1.79608501e-02
      -2.40983859e-01 -1.74612120e-01 -2.77431190e-01 -5.24155609e-02
      -1.45919219e-01 -1.37158737e-01 -1.49039656e-01 0. -1.17616668e-01
      -9.57123339e-02 -9.24931392e-02 5.57739250e-02 -4.71245078e-03
      -8.07553679e-02 8.60393494e-02 3.60086188e-02 -5.74427322e-02
      -1.00576416e-01 1.33761048e-01 2.80648787e-02 4.42704000e-03
      1.70103744e-01 7.54563808e-02 -7.19039738e-02 -1.43161893e-01
      -6.42043632e-03 -1.08494811e-01 1.24582360e-02 -5.94721502e-03
      4.27650400e-02 1.71493646e-03 1.00237597e-02 3.35939452e-02
      -3.47605385e-02 -4.74490486e-02 -1.86079293e-02 -6.98040202e-02
      3.48619930e-02 -3.18490677e-02 0. -7.78414831e-02 -8.72741826e-03
      -3.48131992e-02 2.60683782e-02 -1.20774470e-03 -1.33862957e-01
      1.38589405e-02 5.02721220e-03 6.86272234e-02 4.67513688e-03
      7.42699578e-02 4.26864289e-02 -1.31157875e-01 2.28721667e-02
      -2.08114530e-03 6.66857734e-02 2.94082779e-02 -2.24784929e-02
      -7.96817765e-02 4.38745096e-02 -3.11126765e-02 -1.76135167e-01
      -7.40861893e-02 -2.25133151e-01 8.09962004e-02 9.50290486e-02
      6.47208467e-02 5.20778708e-02 -5.37788011e-02 2.38466002e-02
      -4.94825318e-02 0. -2.07934529e-02 5.98205952e-04 3.69401984e-02
      8.16218182e-03 -6.51753545e-02 9.01802704e-02 -8.34292918e-02
      5.66902831e-02 -8.73081982e-02 -6.43826649e-02 2.43873559e-02
      1.78951444e-03 -8.04287419e-02 6.21824078e-02 7.33553022e-02
      -2.05508526e-02 1.39100343e-01 1.41409531e-01 9.29267928e-02
      4.56007235e-02 2.84262188e-02 -1.19963638e-01 -5.86357154e-02
      -7.05942884e-02 -6.75735697e-02 1.72809094e-01 2.35330947e-02
      1.61146984e-01 2.34934725e-02 9.07181296e-03 -9.34327543e-02 0.
      -1.13750294e-01 -2.07111575e-02 -2.22810395e-02 2.65904628e-02
      1.07220104e-02 -1.66816507e-02 5.46512976e-02 -6.07955195e-02
      -7.23899975e-02 5.54342419e-02 6.91764802e-02 1.60135552e-02
      3.39203030e-02 1.03771731e-01 1.05254129e-01 -7.33871162e-02
      4.04763594e-03 -4.50546555e-02 -6.33648336e-02 5.26431613e-02
      1.65820327e-02 -3.58787999e-02 -1.00465760e-01 -9.77995470e-02
      -7.06376135e-02 -5.00411540e-03 -2.88071204e-02 -8.89379531e-02
      -1.23648219e-01 1.54536530e-01 8.37552771e-02 0. 5.57134524e-02
      1.43491834e-01 -4.63146679e-02 -1.47853268e-03 -1.23675754e-02
      -8.71373564e-02 3.21447141e-02 2.89700255e-02 5.15946560e-02
      1.19467013e-01 -3.38928588e-02 2.79052602e-03 6.92247599e-02
      5.87707050e-02 -1.05489790e-03 -2.47463640e-02 -6.21433817e-02
      -7.99950212e-02 4.40907106e-02 2.48190202e-02 4.54795733e-02
      7.14572743e-02 -4.56807539e-02 -1.18094504e-01 -3.91719788e-02
      -4.56577800e-02 -6.64730519e-02 5.80616780e-02 2.69280169e-02
      7.59043125e-03 7.84553029e-03 0. 1.26783624e-01 8.58472586e-02
      -1.54695615e-01 -2.84579545e-02 -7.68448859e-02 -1.20101608e-01
      4.27523069e-02 -1.54630974e-01 -3.12590115e-02 1.67896524e-01
      3.89870964e-02 -1.97816238e-01 -5.42502804e-03 -4.09635976e-02
      -2.07946394e-02 7.13834092e-02 1.49225704e-02 -3.78929637e-02
      7.47641698e-02 4.71326374e-02 -3.06686610e-01 -6.22592494e-02
      -1.10744804e-01 -1.11336723e-01 8.26118663e-02 -9.69735384e-02
      -4.24139164e-02 -3.69623713e-02 1.01112090e-02 -5.09010255e-02
      -7.32418224e-02 0. 2.46071026e-01 7.55370185e-02 -9.61784124e-02
      -2.29123130e-01 -6.40852153e-02 -3.83222550e-02 -2.96235196e-02
      -1.31020501e-01 -1.01225339e-01 1.33113906e-01 -1.04924217e-01
      -1.22343667e-01 -1.43689215e-01 1.08557381e-01 1.15719192e-01
      -9.71536487e-02 -4.56208028e-02 -6.45602793e-02 8.30761567e-02
      -1.31109118e-01 -2.47040972e-01 -2.81188518e-01 9.60192550e-03
      -5.96262515e-02 -9.13149789e-02 -1.67874336e-01 -1.86594740e-01
      -1.86352223e-01 -3.95114236e-02 -2.18110904e-02 -2.99194045e-02 0.
      7.37768933e-02 -1.89632982e-01 -8.21878985e-02 -8.04529414e-02
      -2.68945824e-02 -1.25346333e-01 -2.24304780e-01 -1.45623848e-01
      9.86558646e-02 3.00908178e-01 -4.71106730e-02 -1.23954623e-03
      -7.94798806e-02 1.67147979e-01 1.02111824e-01 -6.88367561e-02
      -2.18230471e-01 -1.46222249e-01 1.72172815e-01 -2.20336482e-01
      -1.16537698e-01 -1.14108056e-01 1.44527275e-02 -8.16541165e-02
      -2.25766256e-01 -3.43965769e-01 -9.40562785e-02 -2.53129639e-02
      -1.54914043e-03 -2.14684457e-01 -8.51158127e-02 0. 6.68572262e-02
      -6.12535141e-02 -3.84510607e-02 6.07688390e-02 1.17954286e-02
      -1.44313872e-01 -1.31163569e-02 -1.51412293e-01 1.16522051e-02
      3.30279730e-02 -4.80926782e-03 3.87682468e-02 6.58892170e-02
      3.00333668e-02 2.92393509e-02 -3.68857384e-02 -8.43283385e-02
      8.90573412e-02 7.70890191e-02 -5.51030412e-02 9.93899815e-03
      1.18377656e-01 8.51189194e-04 -1.22319497e-01 -3.40854041e-02
      -2.30716586e-01 3.14157046e-02 3.61008495e-02 -4.77573089e-02
      -4.67356294e-02 1.24393851e-02 0. 1.26852423e-01 -8.49253684e-03
      8.84234756e-02 -1.07598037e-01 -9.39734932e-03 1.60411596e-02
      1.06663555e-01 -5.90406880e-02 1.60193667e-01 5.88890575e-02
      -3.03862523e-03 -1.16462735e-02 -1.56730991e-02 8.00894573e-02
      -3.64076681e-02 3.92245129e-02 1.98722407e-02 4.32088622e-04
      1.06784612e-01 1.52088720e-02 2.48224940e-02 -1.18472576e-01
      -4.69946377e-02 -1.95373908e-01 8.33898261e-02 3.60288247e-02
      5.42112254e-02 6.47653639e-02 3.91838849e-02 8.44967440e-02
      2.15096213e-02 0. 1.58435944e-02 -7.15760663e-02 -2.41840165e-02
      -4.39218506e-02 4.00162628e-03 8.94565582e-02 4.59937267e-02
      -1.79469530e-02 5.46498336e-02 -9.62847695e-02 3.27653140e-02
      5.32582626e-02 -4.98649962e-02 9.60791856e-02 1.26482502e-01
      4.60900776e-02 7.02063143e-02 2.58322735e-03 2.08319649e-02
      2.15239506e-02 1.29387733e-02 -8.13092813e-02 -2.20599771e-02
      -8.22112411e-02 4.15173881e-02 4.93286625e-02 1.03754811e-02
      1.63802102e-01 6.48710951e-02 -1.94207691e-02 -5.19784838e-02 0.
      1.35251321e-02 8.06349143e-02 1.28680840e-01 7.80675486e-02
      1.50442692e-02 -5.82135804e-02 -2.79916506e-02 -2.14891862e-02
      3.27175856e-03 -3.85506004e-02 -1.01379871e-01 1.96991008e-04
      5.35483062e-02 8.04712027e-02 5.85526787e-02 1.31921805e-02
      3.91874649e-03 -3.33429091e-02 -4.87788655e-02 1.74549054e-02
      3.93158682e-02 9.05744955e-02 3.30886506e-02 -1.09009027e-01
      5.33884428e-02 7.93796480e-02 1.37214307e-02 -1.35287181e-01
      -1.99648254e-02 6.81957379e-02 2.04027951e-01 0. 7.65029341e-03
      1.35678565e-03 -3.03723775e-02 4.78771254e-02 1.96226370e-02
      -4.11257073e-02 -6.25527278e-02 1.16408085e-02 1.02018692e-01
      9.57208425e-02 1.22239897e-02 -5.59753887e-02 9.73410755e-02
      1.40193552e-01 1.18151806e-01 5.79426158e-03 -7.22770318e-02
      -4.17254977e-02 -1.14917278e-01 2.50774100e-02 -1.08522154e-01
      8.70330334e-02 1.49095699e-01 1.53172081e-02 5.45691587e-02
      -5.07996306e-02 1.94272995e-02 5.86933307e-02 8.25864598e-02
      -4.59955223e-02 7.23281950e-02 0. -4.07579318e-02 -1.34731442e-01
      -1.49663031e-01 1.39172658e-01 7.33522847e-02 -7.34509006e-02
      9.75922272e-02 2.22561043e-02 1.13917388e-01 8.80998001e-02
      -2.70800620e-01 -1.70458436e-01 -6.01273477e-02 7.42947608e-02
      -2.76111439e-02 1.12647109e-01 1.87954694e-01 1.41091421e-02
      -1.25060201e-01 -2.74752468e-01 -3.46229434e-01 4.52810228e-02
      1.00897700e-01 -5.46360165e-02 1.94409832e-01 1.64201960e-01
      1.31737381e-01 -7.05988556e-02 4.97300439e-02 9.96881048e-04
      1.78898610e-02 0. 1.30215868e-01 -2.52267011e-02 -1.61832273e-01
      -7.34031722e-02 3.79694141e-02 6.28644973e-02 1.50143996e-01
      5.16882278e-02 1.90304294e-01 2.90256530e-01 -1.53117061e-01
      -2.16224380e-02 -1.99026540e-02 1.03598595e-01 5.26347049e-02
      -6.98241666e-02 2.30868477e-02 2.19177157e-02 1.53250828e-01
      -1.23296745e-01 -1.07184328e-01 -1.04885802e-01 7.68327564e-02
      1.49288252e-02 1.10703647e-01 8.33912119e-02 1.41874969e-01
      -2.93270219e-02 7.82393888e-02 9.78318676e-02 1.31264985e-01 0.
      2.47100413e-01 1.53001174e-01 -5.02326936e-02 3.15634236e-02
      5.79137839e-02 8.30844343e-02 2.55261324e-02 -7.69467577e-02
      -2.34993491e-02 2.04329982e-01 5.83538879e-03 1.61410496e-02
      1.43598532e-02 1.42712876e-01 -1.10923341e-02 -7.62751624e-02
      -2.15018868e-01 -9.68085900e-02 1.83527321e-01 1.26800627e-01
      1.55137526e-02 9.79104713e-02 1.56543002e-01 4.24785502e-02
      -6.09429367e-02 -2.00147793e-01 3.95884141e-02 4.77937348e-02
      1.18165642e-01 -3.60529423e-02 7.35944733e-02 0. 9.50765982e-02
      1.51799932e-01 1.22181680e-02 1.03293128e-01 -3.03561501e-02
      -6.39314801e-02 1.64606243e-01 -1.32082045e-01 -1.97716951e-01
      -6.56620935e-02 -6.48406968e-02 -2.34986786e-02 1.37955949e-01
      -4.76995409e-02 3.70091870e-02 -1.32689565e-01 -1.74151689e-01
      -9.26131308e-02 -8.24409872e-02 8.55666474e-02 9.57309231e-02
      2.63167769e-01 -1.68922655e-02 9.16247815e-03 1.54286148e-02
      -3.52726310e-01 -9.93074402e-02 -3.02849170e-02 3.67556177e-02
      -1.78639576e-01 1.97733566e-02 0. 6.03289437e-03 5.17356358e-02
      -2.43134666e-02 -9.68155414e-02 -9.08950269e-02 -8.60704556e-02
      9.09749195e-02 5.03630936e-02 5.34779839e-02 6.35939986e-02
      -4.24621813e-02 -3.58063467e-02 -7.22061051e-03 8.53937343e-02
      1.06555119e-01 5.08980155e-02 -8.58962312e-02 2.98593678e-02
      -6.76999055e-03 2.05550380e-02 -1.02272332e-01 -4.65126634e-02
      2.61832234e-02 2.36466713e-02 6.57767206e-02 -1.06066011e-01
      5.19900620e-02 -7.82638341e-02 6.83032423e-02 1.31051308e-02
      5.31429499e-02 0. 4.92894240e-02 4.70283581e-03 3.47737335e-02
      -2.64167730e-02 5.29343821e-02 -5.30879982e-02 1.14175200e-01
      2.07275435e-01 9.26750526e-02 -1.23466714e-03 -1.18200416e-02
      -4.66837659e-02 6.85785711e-02 -5.20775579e-02 5.65993190e-02
      -9.17292237e-02 -1.09695233e-01 -8.15320015e-02 1.47503559e-02
      3.54645178e-02 1.44593781e-02 4.73349169e-02 -2.18283925e-02
      -9.02414024e-02 -2.20240094e-02 7.55385756e-02 -9.76649392e-03
      3.20947953e-02 1.78181931e-01 -1.09540135e-01 -3.28561477e-03 0.
      1.39560297e-01 6.00689501e-02 1.67767763e-01 2.25083549e-02
      -5.12342714e-03 6.34228438e-02 1.14408083e-01 -2.97974367e-02
      -7.13400245e-02 -3.31415273e-02 2.61040851e-02 -4.81220484e-02
      3.77265550e-02 1.17640555e-01 -8.75750855e-02 3.24607873e-03
      -1.46902418e-02 -1.84482299e-02 -5.06421588e-02 1.51548579e-01
      4.48461473e-02 4.54357602e-02 4.01386023e-02 -6.14932179e-02
      1.15315989e-01 -8.87424648e-02 -2.43726186e-02 -7.56064579e-02
      4.59059514e-02 3.45098674e-02 2.04593852e-01 0. -3.11990343e-02
      -6.74832016e-02 -1.13135926e-01 6.41260445e-02 -5.17627783e-02
      -7.82917440e-02 9.15059298e-02 -5.96806742e-02 -2.48561893e-02
      6.65236115e-02 -5.35800047e-02 -1.32362917e-01 1.23904280e-01
      1.41413450e-01 -6.76263645e-02 3.83769870e-02 -4.56139669e-02
      -1.14382647e-01 -1.12610847e-01 -2.98874136e-02 -1.28180400e-01
      1.32550597e-01 2.45010983e-02 -1.47808850e-01 7.84061775e-02
      -4.19425294e-02 2.23257318e-02 -2.65929271e-02 6.53032288e-02
      -1.59174457e-01 -2.76144799e-02 0. 6.00745669e-03 -7.63204992e-02
      7.07563609e-02 1.06207810e-01 5.72000770e-03 -4.13303711e-02
      7.51197338e-02 2.02571433e-02 -1.12149648e-01 1.84589043e-01
      -1.01894334e-01 -5.71083138e-03 1.25067845e-01 6.90286607e-02
      3.15715559e-02 3.34072346e-03 -9.43368152e-02 -8.68298411e-02
      -1.84670940e-01 -1.47991940e-01 9.16352868e-02 1.73325732e-01
      7.20009282e-02 -3.36762629e-02 6.69727102e-02 -1.17175411e-02
      -4.84339334e-03 -5.38787544e-02 5.81547841e-02 -1.20007377e-02
      9.21496153e-02 0. -1.19063612e-02 -4.20618244e-02 1.09502785e-01
      1.20396927e-01 4.77398895e-02 2.09548980e-01 2.20239326e-01
      6.53178096e-02 -2.69925352e-02 -1.91932078e-02 5.09209037e-02
      3.62420045e-02 4.77367304e-02 6.74793795e-02 -1.03935689e-01
      -1.05958097e-01 3.05336975e-02 -4.77371402e-02 -1.82574391e-01
      3.73306014e-02 1.46237075e-01 2.16193125e-01 1.67181298e-01
      2.69061811e-02 8.86528343e-02 8.19243956e-03 1.03088267e-01
      -4.17665485e-03 8.01437721e-02 6.74077198e-02 1.62032753e-01 0.
      -1.61941200e-02 6.52346620e-03 9.10336152e-02 1.43576860e-01
      2.38705337e-01 1.11355774e-01 1.84929445e-01 1.49922684e-01
      5.48753031e-02 -1.97661854e-02 -1.76087469e-02 -2.89332438e-02
      -1.31774247e-01 9.81136933e-02 -1.20879505e-02 -1.52425943e-02
      -9.83920172e-02 -5.56710660e-02 -9.82555076e-02 5.69063164e-02
      1.54247396e-02 4.26618531e-02 2.30608776e-01 9.71593261e-02
      1.90192968e-01 5.11500426e-02 1.10770144e-01 9.74399820e-02
      1.47756487e-01 -2.32572909e-02 1.00199521e-01 0. 5.97045496e-02
      -1.13926567e-01 8.49337317e-03 6.70819134e-02 1.43967032e-01
      -1.60593502e-02 1.49219900e-01 -1.90462708e-03 1.04160151e-02
      4.81424714e-03 -6.14602007e-02 -7.51210451e-02 -6.95546791e-02
      3.94791402e-02 3.59118208e-02 8.84776860e-02 1.62629802e-02
      -1.11456223e-01 -2.08336860e-01 -5.86980246e-02 -3.47394794e-02
      2.98858574e-03 1.51880980e-01 4.85258922e-02 1.98487505e-01
      -6.42520860e-02 -5.81431016e-03 3.60462181e-02 9.56072658e-02
      -7.25940168e-02 2.31272355e-02 0. 6.82444647e-02 3.17864935e-03
      -7.43959099e-02 7.20334277e-02 -3.95335443e-02 -4.04614322e-02
      1.28230080e-01 -1.71754677e-02 -9.03909206e-02 -2.97295880e-02
      -9.27888155e-02 2.25704722e-02 4.38347124e-02 -5.53922355e-02
      1.66525811e-01 1.45050898e-01 -1.03282630e-01 -3.22599262e-02
      -1.07236602e-03 5.99117838e-02 -7.56468400e-02 8.19732025e-02
      2.60604720e-04 5.27275391e-02 2.10970640e-01 -6.63539767e-02
      -1.28912376e-02 -1.32700846e-01 4.27386686e-02 5.17462790e-02
      7.32211545e-02 0. -1.23768300e-02 -6.05626144e-02 3.76553573e-02
      9.67264846e-02 6.28018230e-02 -5.55475242e-03 4.27870117e-02
      5.35966977e-02 -2.61148880e-03 9.29627568e-02 2.11574230e-02
      2.88435910e-02 -1.65513717e-02 -8.30674917e-02 9.76422206e-02
      -5.83900139e-02 -5.04486039e-02 1.02676889e-02 -2.82614604e-02
      -4.92473645e-03 -8.06855410e-03 6.78058863e-02 -2.07074266e-02
      3.08876280e-02 -1.67994797e-02 -2.25237701e-02 1.97266899e-02
      -3.99666978e-03 1.82286963e-01 -9.89793465e-02 4.08384651e-02 0.
      7.56810531e-02 -7.36202821e-02 1.15418276e-02 1.73888188e-02
      -1.37183711e-01 -3.77435647e-02 2.25064997e-03 -8.45993683e-03
      -6.12893477e-02 1.23049520e-01 -1.12110404e-02 4.34783213e-02
      -9.16312188e-02 1.56683639e-01 1.27511859e-01 7.23366365e-02
      7.62495175e-02 -1.62007585e-02 3.09235211e-02 -2.38095671e-02
      -4.48578596e-02 -5.93468063e-02 -2.97083822e-03 -1.62260216e-02
      2.24462412e-02 6.43054470e-02 -3.87075655e-02 -6.69652745e-02
      -3.55448276e-02 1.06709495e-01 1.22528017e-01 0. 6.35945871e-02
      7.51298219e-02 -1.52548656e-01 -5.02623357e-02 -5.24957143e-02
      -8.74104127e-02 5.97282648e-02 -2.56391708e-02 7.35719055e-02
      -5.55925490e-03 -1.33186672e-03 5.49852960e-02 -1.02837153e-01
      1.80442818e-02 -6.47615083e-03 -1.35049317e-02 -8.77665821e-03
      1.42654870e-02 -5.67577481e-02 -1.39260106e-03 -7.81256407e-02
      -1.15421005e-01 -1.98536515e-02 -1.34473667e-01 1.62912179e-02
      -2.40784828e-02 1.03917494e-01 3.81263159e-02 9.39353183e-02
      -1.31730467e-01 -6.98733553e-02 0. 2.61374749e-02 -1.74646508e-02
      -1.19728401e-01 -4.95454557e-02 8.52690265e-02 3.25752497e-02
      -1.85964718e-01 -1.13453038e-01 -1.34497657e-02 6.83959052e-02
      -5.10063730e-02 -7.02886805e-02 7.72882774e-02 9.28584561e-02
      9.09987390e-02 4.20687050e-02 6.86182380e-02 -6.31872490e-02
      -1.92866355e-01 -9.20248106e-02 -1.73706651e-01 4.77020219e-02
      7.09108785e-02 7.94907138e-02 -5.29799201e-02 5.51101305e-02
      -6.15141280e-02 -2.17247549e-02 -4.96105887e-02 -6.46343455e-03
      3.07161584e-02 0. 1.35735601e-01 2.22716015e-02 2.16541886e-02
      -2.59647910e-02 9.96243805e-02 -1.13681950e-01 -7.29805753e-02
      -6.45967349e-02 1.11501357e-02 2.18362972e-01 3.33612747e-02
      -5.64072020e-02 4.58598360e-02 1.71124011e-01 1.66251717e-04
      -1.13107972e-01 8.32611769e-02 2.79235560e-03 2.95181666e-02
      9.45708379e-02 -6.44159093e-02 7.18809962e-02 2.07548797e-01
      -1.54727265e-01 -8.80636722e-02 -3.02005596e-02 3.91607126e-03
      -3.57418545e-02 1.25633553e-03 8.94210711e-02 1.32976055e-01 0.
      1.34932891e-01 -9.71847121e-03 -9.37741920e-02 -4.03183587e-02
      -6.51727766e-02 2.92204265e-02 -6.64356127e-02 1.49652869e-01
      7.39987865e-02 1.53864160e-01 -9.80576500e-02 1.27773201e-02
      -1.52020171e-01 7.00967014e-02 7.53493682e-02 -1.36589641e-02
      -5.89016862e-02 3.25320452e-03 4.51200344e-02 -1.48133030e-02
      -8.61606970e-02 -8.29151645e-02 -5.73246665e-02 1.57583673e-02
      -6.39645159e-02 2.24481579e-02 3.03304531e-02 3.67301740e-02
      9.18927491e-02 -4.80387062e-02 -3.10458168e-02 0. 8.70401561e-02
      -1.10582905e-02 -9.30734053e-02 -9.70373824e-02 8.83124694e-02
      2.27114409e-02 1.79743245e-02 -4.31888551e-02 -9.51749533e-02
      4.51383740e-02 -2.26899423e-02 2.01800331e-01 -9.27417632e-03
      1.45718437e-02 2.08603237e-02 9.95693356e-02 -9.45452675e-02
      -6.70318007e-02 -1.21808462e-01 1.76442619e-02 1.06998138e-01
      -5.44629544e-02 1.23962210e-02 2.10074671e-02 1.31934717e-01
      -9.85424221e-02 -1.01736866e-01 2.86642346e-03 8.21440741e-02
      -3.41562070e-02 -2.02583019e-02 0. 2.64964681e-02 -1.84935462e-02
      -9.82772782e-02 3.65434098e-03 -1.45562515e-02 -1.16117485e-01
      4.90635149e-02 8.86018947e-03 8.10597166e-02 -5.38814953e-03
      6.11640438e-02 9.49773490e-02 -1.59520973e-02 -2.57282257e-02
      -1.98098551e-02 -5.10678701e-02 -1.93891469e-02 -1.32887483e-01
      -3.98951620e-02 1.10166289e-01 1.94166359e-02 -1.60364397e-02
      -8.19982886e-02 -1.81521207e-01 -4.27468354e-03 -3.19644958e-02
      -2.84534283e-02 -1.94659010e-01 -4.95840646e-02 1.94795653e-02
      1.34070024e-01 0. 1.06609643e-01 -3.81503142e-02 -2.95740329e-02
      -7.76008293e-02 -9.69627649e-02 -1.38069987e-01 6.76549748e-02
      9.61804017e-02 -9.34544578e-02 -2.90299691e-02 1.59558747e-02
      8.13976377e-02 -7.23871663e-02 1.70150056e-01 7.45355785e-02
      -6.85544014e-02 5.74572310e-02 -6.88674375e-02 -9.89752822e-03
      -7.15823099e-03 2.19008443e-03 -1.12934433e-01 4.65766527e-02
      -1.20303899e-01 -9.01857615e-02 3.17525566e-02 -7.52536133e-02
      2.49377731e-02 8.91390368e-02 -1.28929466e-01 -5.28083416e-03 0.
      -4.22015088e-03 -6.06305432e-04 1.28001302e-01 5.68917170e-02
      9.45543349e-02 -4.98846844e-02 -2.98336651e-02 5.83474115e-02
      -9.66123790e-02 1.44212812e-01 1.59641765e-02 3.55662890e-02
      -1.77518159e-01 9.09761339e-03 5.20144179e-02 1.27929464e-01
      2.34576184e-02 -5.36699444e-02 1.71970180e-03 8.10551420e-02
      1.43674508e-01 -7.83140138e-02 6.31908476e-02 -2.73087155e-02
      5.12123033e-02 3.06209549e-02 -1.15900233e-01 -5.90510219e-02
      -2.41493527e-02 9.38951150e-02 1.46607637e-01 0. 4.75595556e-02
      -7.32794330e-02 -4.68961038e-02 -7.06294477e-02 4.94355075e-02
      -4.40111272e-02 4.21030186e-02 5.11841886e-02 5.12535907e-02
      1.15136676e-01 -1.13990447e-02 8.77408981e-02 4.94355224e-02
      3.09426226e-02 3.59833650e-02 4.71323691e-02 -1.46515192e-02
      -1.40212715e-01 -9.30414163e-03 -6.69271499e-02 6.80331662e-02
      6.48908876e-03 9.16697904e-02 -8.03187210e-03 5.16345985e-02
      3.56941558e-02 -2.26886626e-02 1.73787531e-02 1.45542026e-01
      -6.73261955e-02 1.90407666e-03 0. -2.37363651e-02 -1.69598654e-01
      -8.97531956e-02 -3.38206701e-02 5.80458753e-02 7.31792152e-02
      -2.23537553e-02 -4.30827178e-02 -7.67701715e-02 -3.53440605e-02
      -9.53599885e-02 -2.85035037e-02 2.95885187e-02 3.90921049e-02
      4.89595011e-02 3.56031917e-02 1.44313231e-01 2.74571888e-02
      -2.29535803e-01 -1.70507550e-01 -1.28215909e-01 1.55099975e-02
      3.85629199e-02 -7.07386155e-03 -7.44343922e-03 4.06336114e-02
      -8.11388642e-02 -2.61134841e-02 7.26163480e-03 -8.40714946e-02
      2.65168101e-02 0. 1.43367037e-01 -1.83756035e-02 1.61329228e-02
      -5.21571338e-02 6.71169758e-02 -1.71768248e-01 -2.85359658e-02
      7.39667416e-02 1.19379908e-01 2.50016868e-01 1.70308501e-02
      -5.04913889e-02 1.32066393e-02 1.39478266e-01 1.22622233e-02
      -7.86364302e-02 5.06442375e-02 -6.54935539e-02 9.89807621e-02
      -1.50573896e-02 -1.47815980e-02 7.07028573e-03 -2.47499272e-02
      -2.31187955e-01 -7.27965534e-02 5.85543551e-02 2.97647268e-02
      -3.82372085e-03 2.90898196e-02 4.69604470e-02 1.33843303e-01 0.
      1.90438926e-01 1.87526405e-01 9.39048976e-02 8.22184840e-04
      -4.91965041e-02 -4.41309325e-02 -5.57203963e-02 7.88203329e-02
      5.87018393e-02 8.60661194e-02 -1.33928746e-01 -6.37423247e-03
      -2.17795558e-02 -2.33704597e-02 6.85884506e-02 -3.55998911e-02
      -1.70308666e-03 -6.07864819e-02 1.06249668e-01 1.02532446e-01
      6.22101054e-02 -1.36152711e-02 -1.64132684e-01 -1.44991949e-01
      -8.23465809e-02 5.71456105e-02 2.24850513e-02 1.34722609e-02
      1.29784703e-01 -1.39153013e-02 2.72946190e-02 0. -1.27747916e-02
      -1.52425632e-01 -2.00995486e-02 -6.42922148e-03 1.43396989e-01
      -2.09220666e-02 1.92173850e-02 -3.09670251e-02 -1.62575945e-01
      2.30150484e-02 -8.35382100e-03 1.23773560e-01 1.10865636e-02
      5.13400026e-02 1.03080072e-01 3.03258952e-02 -2.43399618e-03
      -3.21072899e-02 -1.82927042e-01 -1.14762142e-01 4.94424291e-02
      -1.57437548e-02 7.24557266e-02 1.58080272e-02 5.81535362e-02
      -5.71087003e-02 -1.64202213e-01 -1.00991882e-01 7.96163380e-02
      -1.13109164e-02 5.91537841e-02 0. 4.86797579e-02 -1.23151258e-01
      5.82874306e-02 1.88341424e-01 4.78210971e-02 6.79874700e-03
      3.69094225e-04 -2.98653040e-02 4.96598035e-02 9.40770507e-02
      -4.93350066e-02 -1.87784154e-02 1.86494198e-02 -1.04608499e-01
      6.39507100e-02 1.24199716e-02 1.03136800e-01 -7.28283972e-02
      -3.17092612e-02 -1.10003546e-01 -1.85576193e-02 1.40024558e-01
      -2.07843240e-02 -7.48015344e-02 -7.31243426e-03 7.84815252e-02
      -3.63548622e-02 -7.00391307e-02 -9.76753421e-03 3.22149210e-02
      1.86006248e-01 0. 5.79339191e-02 -1.72247030e-02 5.34769297e-02
      6.88934326e-02 -1.75221339e-02 4.76925634e-02 4.11737822e-02
      4.50883582e-02 6.35446236e-02 4.00014967e-02 -1.49542838e-01
      1.25267550e-01 8.27262818e-04 8.11790451e-02 3.70242707e-02
      -1.42884180e-01 1.39696002e-02 -5.21815307e-02 -8.65832418e-02
      -1.13141976e-01 6.76046684e-02 5.74985780e-02 1.19340397e-01
      -6.15192279e-02 -7.38484636e-02 1.20000355e-02 -1.31048923e-02
      6.99728355e-02 1.69492796e-01 -8.15926194e-02 -1.80003773e-02 0.
      4.61277254e-02 -9.87103283e-02 3.55180055e-02 1.07839499e-02
      1.30346119e-01 5.25379814e-02 -7.83621743e-02 -2.22364850e-02
      -7.40480050e-02 1.70046106e-01 1.75368413e-01 2.73047686e-02
      -1.13370858e-01 -4.52693179e-03 -1.81468707e-02 3.22633125e-02
      7.21114501e-02 1.98158789e-02 -1.35299312e-02 1.09714620e-01
      6.56573921e-02 -2.71109845e-02 -4.40695398e-02 -4.33272794e-02
      -1.07403789e-02 4.15710621e-02 -2.68607643e-02 4.28902125e-03
      1.22194402e-02 -1.66825689e-02 1.71208397e-01 0. 1.52045116e-01
      -7.11157024e-02 1.60148684e-02 -8.26516151e-02 -9.61122569e-03
      -2.06254981e-02 3.69051099e-02 -5.12649678e-02 -4.35789339e-02
      1.42549435e-02 -4.39501321e-03 7.26470277e-02 2.69489083e-03
      9.43435133e-02 2.51945052e-02 6.15651794e-02 -1.26389742e-01
      -1.13737613e-01 -1.22243665e-01 -8.62905979e-02 5.56968339e-02
      -5.95433898e-02 -2.91838441e-02 -1.18694827e-01 7.56946951e-02
      -1.25717834e-01 -4.82852757e-02 6.29470795e-02 3.32076177e-02
      -1.04787953e-01 -1.38549563e-02 0. -1.23264212e-02 -3.44049074e-02
      1.28601585e-02 -4.79846150e-02 -1.30169159e-02 -1.19076883e-02
      5.67825790e-03 -5.19450661e-03 -1.24211043e-01 3.72849330e-02
      -6.24576472e-02 -2.11639572e-02 8.01913962e-02 7.57271647e-02
      2.40123421e-02 -5.07768989e-03 4.04619202e-02 4.36339714e-02
      -2.51207381e-01 -5.03447242e-02 2.84495614e-02 4.73450534e-02
      8.66303146e-02 -1.68697417e-01 -3.44608538e-02 2.83570942e-02
      -1.20851837e-01 -2.74744211e-03 5.22195688e-03 2.12411545e-02
      -3.21514904e-02 0. 2.62571424e-01 1.61345396e-03 -4.99539077e-02
      2.91226003e-02 2.29095921e-01 7.13512823e-02 -5.63405640e-02
      -8.86080042e-02 -6.84109852e-02 1.44407034e-01 -1.37968769e-03
      3.71489972e-02 5.43765677e-03 3.63240093e-02 -5.11011519e-02
      -2.74908338e-02 1.45020708e-01 3.62050682e-02 -1.85001288e-02
      -3.05529870e-02 -3.98067720e-02 7.50515284e-03 7.07862303e-02
      -8.97784606e-02 -5.61149120e-02 -6.47464916e-02 -6.15459867e-02
      3.96664292e-02 6.89812675e-02 1.00253031e-01 9.98724028e-02 0.
      1.77214593e-01 -3.39297354e-02 -6.56741932e-02 -1.01024710e-01
      9.46205258e-02 1.98605657e-01 3.74734066e-02 -3.91334482e-02
      -4.30782810e-02 1.68257549e-01 3.31982113e-02 1.67055100e-01
      1.51686100e-02 -1.32115185e-01 7.43383989e-02 -8.12046975e-02
      8.73135030e-02 -1.12000614e-01 1.16257463e-02 -2.42823977e-02
      3.43838781e-02 -7.49346018e-02 -9.26930383e-02 9.57287923e-02
      -3.21180560e-02 2.56942064e-02 -6.09437041e-02 7.10581839e-02
      8.66585672e-02 1.62732005e-02 3.58229689e-02 0. 2.06978507e-02
      -1.29203945e-01 1.78529080e-02 1.81467999e-02 7.07285702e-02
      1.01235211e-01 1.90056749e-02 5.53369597e-02 -1.21626563e-01
      2.19411440e-02 2.11546943e-02 6.65547885e-03 -2.48149205e-02
      6.68966398e-02 6.74016699e-02 1.27224950e-02 -6.40073642e-02
      -5.83061576e-02 -1.84774116e-01 -1.48954943e-01 -3.42644453e-02
      -9.75683052e-03 -9.58951041e-02 1.00172833e-01 5.24050221e-02
      -5.08401589e-03 -1.09203935e-01 -3.64682674e-02 -6.99431170e-03
      5.01720123e-02 4.12871763e-02 0. -5.68227023e-02 -7.50968307e-02
      -8.78327489e-02 1.89181603e-02 -1.64298359e-02 -2.13635061e-02
      1.41044939e-02 1.16850417e-02 -9.69401598e-02 5.09035476e-02
      -5.07639535e-02 -1.50364771e-01 1.02175981e-01 4.43578996e-02
      8.79801661e-02 7.48742074e-02 1.07678510e-01 1.47173926e-02
      -1.08245611e-01 -6.38706759e-02 -1.81774542e-01 1.19689353e-01
      -7.88998306e-02 -5.58894463e-02 9.52556953e-02 8.96727741e-02
      -6.30432144e-02 -1.28762841e-01 -1.24829542e-02 5.60151897e-02
      7.19281211e-02 0. 4.90030134e-03 1.63550302e-02 -4.67716269e-02
      -5.36869466e-02 6.20691339e-04 4.46147956e-02 3.21479551e-02
      5.82101494e-02 3.31738824e-03 7.12215006e-02 1.18641267e-02
      3.45149711e-02 4.84063588e-02 8.25247169e-02 1.84724797e-02
      -4.17356938e-02 8.44806582e-02 4.96880338e-02 -3.95264365e-02
      7.39952375e-04 -2.78379098e-02 1.10635133e-02 1.48717323e-02
      -2.59625632e-02 3.32160387e-03 6.99693263e-02 5.36757186e-02
      4.35781889e-02 1.99802443e-01 -4.08069715e-02 -4.98877233e-03 0.
      1.20843053e-01 -8.80980715e-02 -9.37538221e-02 -1.82584614e-01
      -3.48784998e-02 8.71564914e-03 1.56177320e-02 2.48291679e-02
      -6.94822147e-03 2.03057919e-02 8.52566659e-02 7.70932585e-02
      3.18458565e-02 1.26571521e-01 4.70517855e-03 4.97966371e-02
      1.17710501e-01 -2.98590101e-02 -5.94977587e-02 -4.65602577e-02
      7.66617572e-03 -1.01097874e-01 9.41237584e-02 -2.15305146e-02
      7.82953203e-02 9.29394811e-02 -1.67605225e-02 8.18571914e-03
      4.99888547e-02 6.68182038e-03 5.16589582e-02 0. 2.14951009e-01
      -5.97248636e-02 -6.28603399e-02 -8.63540843e-02 -9.79053900e-02
      6.86192662e-02 -8.37928057e-03 2.48909518e-02 1.01349473e-01
      4.14933003e-02 4.39081416e-02 6.48281574e-02 -5.52226268e-02
      -2.05390546e-02 -5.82614131e-02 2.92336680e-02 1.31209806e-01
      -6.35078624e-02 3.70590761e-02 1.31996507e-02 -1.73539706e-02
      -1.16570339e-01 -6.89519867e-02 -6.62317201e-02 3.02787051e-02
      1.23172544e-01 9.04130191e-02 9.69135091e-02 1.20477319e-01
      -5.70781045e-02 -6.23893216e-02 0. 1.64743051e-01 1.59879941e-02
      1.22850433e-01 1.32593438e-01 -5.33385156e-03 1.83186922e-02
      -7.53989071e-02 -3.30431610e-02 -1.22224048e-01 -4.20247912e-02
      -1.13544904e-01 -5.49228117e-02 -2.36385502e-02 -6.54816553e-02
      -3.03484537e-02 1.43632993e-01 9.27794576e-02 8.55884552e-02
      -1.73372880e-01 -8.83163810e-02 5.61060347e-02 1.14984155e-01
      3.93945351e-02 -7.97740743e-02 6.34950101e-02 5.92223667e-02
      -3.60109769e-02 1.14298817e-02 3.88648883e-02 -1.30371442e-02
      6.19878285e-02 0. 1.80104688e-01 -9.61487815e-02 -9.48024020e-02
      -2.68198717e-02 8.08176100e-02 9.70233753e-02 -1.98078007e-02
      6.58043474e-02 -1.42546624e-01 2.43211482e-02 -2.58046426e-02
      -1.60554014e-02 5.45427911e-02 6.06026351e-02 6.92396611e-02
      1.64424077e-01 1.20435975e-01 1.45270750e-02 -6.97002932e-02
      -5.39529957e-02 -8.56672972e-02 8.00963212e-03 9.08154771e-02
      5.00593744e-02 1.43178925e-01 1.39046535e-01 -9.34695527e-02
      -3.57300485e-03 5.56503050e-02 8.96028057e-02 9.86668766e-02 0.
      2.70397384e-02 -1.46641612e-01 1.64793071e-03 -5.39912954e-02
      1.20015033e-01 -1.37936193e-02 1.65294092e-02 -1.21101856e-01
      -1.60830185e-01 8.07454064e-02 3.90657037e-03 1.65063694e-01
      1.73474029e-01 -5.25995530e-03 6.05980642e-02 9.50359479e-02
      -1.49003295e-02 -1.26817107e-01 -7.64687210e-02 -3.54789123e-02
      1.14399761e-01 1.30220637e-01 2.84030344e-02 -9.34120640e-03
      1.30523488e-01 -9.57634896e-02 -9.19227302e-02 7.44994590e-03
      6.74697906e-02 -3.86672951e-02 1.12268962e-02 0. 9.60094295e-03
      -1.03380769e-01 4.15218435e-02 -9.52452943e-02 -7.38562271e-02
      -4.42491397e-02 1.15386933e-01 6.32002056e-02 -6.29560277e-02
      6.45192042e-02 5.24927936e-02 1.79295287e-01 1.29057497e-01
      4.30356385e-03 -3.81959081e-02 -3.65859233e-02 -3.47731337e-02
      -9.37425196e-02 -1.57910317e-01 -9.84793156e-02 1.55634239e-01
      2.32180934e-02 -6.18373007e-02 -5.58866374e-03 1.35783210e-01
      2.40929518e-02 -9.62078944e-02 -1.27039466e-03 -1.55676249e-02
      -6.16852799e-03 5.90183921e-02 0. 6.19221888e-02 1.00839436e-02
      -3.60104814e-02 8.18841308e-02 -6.16565421e-02 -8.35692808e-02
      -3.43222078e-03 -2.52722669e-02 -2.63919625e-02 4.95475568e-02
      -2.93822251e-02 5.02216034e-02 8.92977044e-02 6.49699122e-02
      -3.55600491e-02 -4.96666059e-02 1.05858460e-01 1.69780590e-02
      -1.09412465e-02 2.04475131e-02 -1.88957136e-02 1.30097687e-01
      -6.22064760e-03 -1.22472189e-01 -1.35491770e-02 5.38329855e-02
      -1.56083042e-02 -8.47333893e-02 -5.50603494e-02 1.05045050e-01
      1.19516790e-01 0. 4.64627706e-02 -7.24658519e-02 -2.39568646e-03
      -8.15451220e-02 -3.44637595e-02 4.69381077e-04 -8.87771100e-02
      2.60031945e-03 -6.77145645e-02 1.36999816e-01 3.14480662e-02
      1.29992545e-01 3.66819724e-02 6.04526699e-02 -6.77010231e-03
      -1.16195427e-02 1.95659138e-02 2.25599408e-02 -5.98682743e-03
      -6.59327284e-02 5.74935339e-02 -4.83389832e-02 -3.16467062e-02
      6.63653854e-03 -4.23170775e-02 -4.33606692e-02 -4.42155786e-02
      2.09985320e-02 1.04351059e-01 -4.44675535e-02 -2.36155596e-02 0.
      2.19100844e-02 -4.16178443e-02 6.24105185e-02 -1.51552940e-02
      -6.73082620e-02 -4.67792638e-02 -1.27643319e-02 2.39348672e-02
      1.24390246e-02 1.83090440e-03 -8.19620937e-02 9.24263373e-02
      3.84848751e-02 7.39304647e-02 9.76577550e-02 -2.43490543e-02
      6.17433600e-02 -2.74329018e-02 -1.32445414e-02 -7.77087584e-02
      1.53284460e-01 5.10652103e-02 4.32215221e-02 -5.26020080e-02
      -1.80446170e-02 6.19796813e-02 3.73864057e-03 -9.67823435e-03
      1.72493160e-02 6.47465363e-02 7.53713259e-03 0. 2.24606216e-01
      1.20213650e-01 4.11666483e-02 2.71982141e-03 -6.97280094e-02
      -9.56934392e-02 -7.09481016e-02 3.42425797e-03 -3.60291339e-02
      2.38774046e-02 -1.02938600e-01 6.31641522e-02 -5.38041219e-02
      9.35349148e-03 1.16653368e-01 -3.09544932e-02 -4.97053266e-02
      6.17243014e-02 2.62224209e-02 3.97983473e-03 1.25223204e-01
      -3.25934477e-02 -4.86233458e-02 1.07161598e-02 -8.80113468e-02
      -2.06244625e-02 3.95708270e-02 5.21059930e-02 1.17275700e-01
      -5.23951873e-02 -4.29285876e-02 0. 1.17216773e-01 -4.98937350e-03
      4.26831916e-02 3.49917822e-02 -5.40432706e-02 -4.54934388e-02
      -1.11005411e-01 -1.46158542e-02 3.49601060e-02 -7.34040234e-03
      -1.28043264e-01 -5.15090898e-02 3.92083004e-02 5.33685535e-02
      9.27593708e-02 1.03501327e-01 9.58497375e-02 -5.02796099e-03
      -1.57265678e-01 -3.16583291e-02 1.07094966e-01 1.03819668e-01
      -5.24481498e-02 -4.24609100e-03 -2.22935318e-03 1.07671350e-01
      9.29595008e-02 4.98643592e-02 6.38933703e-02 -6.66265562e-02
      4.35997322e-02 0. -3.67677733e-02 -3.17544013e-01 -1.97828889e-01
      -3.07590943e-02 3.51337381e-02 8.97836685e-03 -3.43222134e-02
      6.66996688e-02 -8.73656198e-02 4.21164818e-02 -2.30747508e-03
      -1.48588881e-01 1.70254298e-02 5.89527600e-02 1.96319610e-01
      9.81104299e-02 1.26369715e-01 -1.15398161e-01 -2.20007896e-01
      -1.19861588e-01 -2.50522047e-01 1.35279167e-02 8.71020481e-02
      1.06513239e-01 5.99071719e-02 1.22202694e-01 -1.15839489e-01
      -1.21626547e-02 -1.32024810e-01 -1.45236524e-02 7.30878068e-03 0.
      4.61614653e-02 -1.72122680e-02 1.33347780e-01 -2.61837002e-02
      -1.27792843e-02 4.52184863e-02 7.80757740e-02 -1.06543325e-01
      -2.14004830e-01 -1.27789736e-01 -7.67989829e-02 2.84493454e-02
      1.68410406e-01 1.91069826e-01 1.00784861e-01 1.10541672e-01
      -8.07879493e-02 -1.51663810e-01 -2.58884996e-01 -8.04721117e-02
      1.02306262e-01 1.32968649e-01 1.34434536e-01 1.23660065e-01
      1.62208244e-01 -1.86677784e-01 -1.30823821e-01 1.11215208e-02
      3.69733758e-02 4.17989753e-02 -4.82712835e-02 0. 1.56282838e-02
      -5.48305959e-02 -1.14778001e-02 -6.30733967e-02 -6.75075650e-02
      1.08530791e-02 1.29817501e-01 -5.18584065e-02 -1.27028614e-01
      1.23406649e-01 2.05289088e-02 6.77597895e-02 1.27937868e-01
      3.01500093e-02 7.70787615e-03 6.05599619e-02 -3.25706638e-02
      -1.54214770e-01 -1.91826642e-01 3.46499868e-02 8.39474201e-02
      5.39197251e-02 1.41989021e-02 1.01798503e-02 2.17475533e-01
      -3.43751609e-02 -1.22144848e-01 -5.35951592e-02 3.69511358e-02
      1.34285558e-02 1.82003882e-02 0. 9.29688588e-02 3.84808518e-02
      -2.89939921e-02 -6.07087165e-02 -1.58319652e-01 -5.67417555e-02
      4.51434143e-02 -5.77524072e-03 8.45759287e-02 2.67262518e-01
      2.15476044e-02 4.95991297e-03 -5.23537919e-02 3.57548594e-02
      -1.30766407e-01 -1.91987492e-02 3.38837206e-02 -7.26211369e-02
      9.87145305e-02 3.24324407e-02 -6.25194162e-02 -9.66399014e-02
      -7.96004310e-02 -1.15826949e-01 1.93072425e-04 8.64104256e-02
      5.03191128e-02 -8.19239467e-02 -9.94204059e-02 8.92757028e-02
      1.10499576e-01 0. 3.29330377e-02 1.16883230e-03 2.61025373e-02
      -1.04948349e-01 5.54641001e-02 1.14118285e-01 7.04364926e-02
      5.41751832e-02 -8.19545910e-02 1.05080768e-01 -4.67289388e-02
      -1.32589238e-02 2.61023231e-02 1.57231733e-01 -2.53262394e-03
      8.48235413e-02 1.38764173e-01 -1.92640685e-02 3.53879966e-02
      -8.10265262e-03 -1.19590610e-02 -3.52322459e-02 -1.59852561e-02
      -2.72063911e-02 5.48941940e-02 8.54480937e-02 -4.11409326e-02
      1.14526413e-01 6.14779256e-02 5.02946302e-02 5.54631874e-02 0.
      1.53185055e-01 9.16723087e-02 8.43313336e-02 3.27034667e-02
      3.82177602e-03 3.50966938e-02 -4.14195396e-02 2.33913977e-02
      -2.34315917e-02 1.19128421e-01 3.47572938e-02 -3.19523141e-02
      -1.22046255e-01 4.82107587e-02 9.55280885e-02 6.00349158e-02
      1.48542542e-02 4.50094528e-02 7.39265233e-02 1.25735134e-01
      6.94446042e-02 -1.16738841e-01 -2.87342705e-02 4.67924029e-02
      2.61330400e-02 2.71266010e-02 -4.92990669e-03 4.45102267e-02
      6.64096177e-02 6.83586225e-02 1.14345051e-01 0. 1.42027900e-01
      -4.71853092e-02 -7.92145059e-02 4.02432494e-02 -7.06091449e-02
      -1.07737206e-01 -5.03777433e-03 -6.52169883e-02 -5.10969199e-02
      8.23376477e-02 -2.93324701e-02 4.83193882e-02 -5.06840125e-02
      6.97773620e-02 7.02166930e-02 -4.44885343e-02 9.03073326e-02
      6.20094761e-02 -4.48181257e-02 -4.58010063e-02 2.57863607e-02
      -4.46973043e-03 -9.35966969e-02 -5.85258380e-02 -3.93024720e-02
      1.34798624e-02 6.96715375e-04 3.72847281e-02 7.03198239e-02
      -7.08980039e-02 -1.09510683e-02 0. 1.35062128e-01 -5.35717048e-02
      1.70588167e-03 -8.36841576e-03 -4.38832073e-03 1.42882066e-02
      1.18515566e-02 -2.18750238e-02 -2.79266071e-02 3.53063201e-03
      -1.20334372e-01 4.31041420e-03 5.87855615e-02 1.22041583e-01
      1.30114242e-01 1.13493361e-01 8.57924968e-02 2.16343217e-02
      -1.04803368e-01 -5.23398332e-02 6.30098507e-02 6.52115867e-02
      -7.32917488e-02 4.24074046e-02 1.10346928e-01 8.42761621e-02
      -1.85141154e-02 1.02371864e-01 1.16194673e-01 -1.29514830e-02
      1.41261537e-02 0. -1.71410106e-02 -1.72429606e-01 -7.18466118e-02
      2.34131422e-02 8.56262743e-02 -8.50783568e-03 7.69181177e-02
      -9.61261336e-03 -9.49699581e-02 -6.94914311e-02 -6.38602152e-02
      -1.80554967e-02 7.34654963e-02 4.62864563e-02 8.74749571e-02
      2.92366017e-02 6.97064027e-02 -8.21334571e-02 -1.95559740e-01
      -1.00646108e-01 -4.21934621e-03 1.18249714e-01 8.74900371e-02
      6.26117885e-02 1.16461642e-01 1.03296123e-01 -9.71754864e-02
      1.95348505e-02 -1.85830276e-02 -4.22894880e-02 -1.33073768e-02 0.
      -1.60622201e-03 -1.03613369e-01 6.00673296e-02 -2.34380364e-03
      -4.13271077e-02 -8.04731324e-02 3.74014378e-02 -4.76828627e-02
      -1.89908326e-01 -1.83932614e-02 -9.89894271e-02 1.23252541e-01
      1.30965039e-01 1.34297818e-01 3.88308801e-02 -8.37987214e-02
      2.04415862e-02 -1.23823648e-02 -8.50027055e-02 -4.92168628e-02
      1.71421260e-01 1.36473149e-01 4.64647077e-02 -5.71443625e-02
      7.53529789e-03 5.27074784e-02 -7.29525462e-02 -6.90067708e-02
      -7.56389648e-02 6.09524474e-02 1.99308060e-02 0. -1.89126004e-04
      -4.44964767e-02 -1.91057958e-02 7.67139206e-03 -7.50682801e-02
      -4.89359125e-02 -1.33208688e-02 2.52071563e-02 -1.09230377e-01
      1.59248129e-01 4.04514559e-02 1.19253039e-01 1.57399222e-01
      5.89416772e-02 5.14512919e-02 3.29124443e-02 -2.34072246e-02
      3.09655983e-02 -7.17070550e-02 2.78732926e-02 7.80942887e-02
      1.33104295e-01 -6.71915039e-02 -7.01519176e-02 3.10555492e-02
      -2.81690084e-03 1.30254216e-02 -2.66221585e-03 -2.28379443e-02
      1.03076309e-01 8.72947946e-02 0. 5.09664863e-02 3.45490612e-02
      2.12619510e-02 -6.07052930e-02 3.88732390e-03 -6.95094466e-02
      7.10506365e-03 6.49111345e-02 -3.56490910e-02 6.70526177e-02
      4.62855585e-02 8.41610283e-02 1.53501872e-02 8.13107006e-03
      -3.10399123e-02 -1.33782560e-02 1.14926277e-02 -2.50629187e-02
      2.70374287e-02 3.67901810e-02 6.79121763e-02 -6.43269941e-02
      4.23393073e-03 -8.94687027e-02 -6.52621919e-03 5.00944890e-02
      -3.90349887e-02 -8.50836411e-02 -1.23173613e-02 6.54341802e-02
      1.16728887e-01 0. 6.45414591e-02 -6.88645020e-02 5.11412434e-02
      -6.11594617e-02 6.61910549e-02 -2.77480204e-02 4.62679267e-02
      3.30663938e-03 1.32785970e-02 1.03861809e-01 3.39374319e-02
      1.33048624e-01 7.92079978e-03 1.06347680e-01 -1.77292898e-02
      -8.42114091e-02 1.07414313e-01 -2.82195173e-02 6.18096516e-02
      -1.11506153e-02 1.33145019e-01 -8.03216249e-02 7.54269958e-02
      -5.32438606e-02 -4.19005603e-02 1.06504135e-01 -1.90578587e-02
      3.33236568e-02 1.12538196e-01 2.81018838e-02 3.78482416e-02 0.
      1.76626012e-01 -5.57699939e-03 7.80752078e-02 -1.95464399e-02
      5.93928657e-02 -1.00818790e-01 4.30541150e-02 1.08026918e-02
      -1.21115923e-01 9.17646587e-02 4.58893776e-02 1.97383910e-02
      1.92755330e-02 -3.56309079e-02 5.87854907e-02 -2.22868435e-02
      4.04754058e-02 9.23016965e-02 2.23895926e-02 6.02145568e-02
      2.83265430e-02 -6.34842888e-02 -2.57181227e-02 -6.99371845e-02
      4.33252612e-03 7.06322864e-02 -7.63887614e-02 -3.66297439e-02
      9.62985009e-02 3.03031765e-02 1.13298364e-01 0. -1.27236634e-01
      -8.32891837e-02 -7.10115582e-03 8.90796632e-03 1.07133418e-01
      -6.38430566e-02 -1.58519074e-02 -1.52524546e-01 -6.17341399e-02
      1.06800161e-01 5.29988334e-02 1.04167464e-03 7.85778984e-02
      4.23989771e-03 3.37848105e-02 -2.45378651e-02 6.87249899e-02
      4.19643708e-02 -1.59457549e-01 -5.19865751e-03 4.01607715e-02
      5.09892032e-02 -9.01476480e-03 4.04839125e-03 -6.96038678e-02
      -5.54564483e-02 -6.67956471e-02 4.17892374e-02 9.79944989e-02
      -1.58201694e-01 3.35933245e-03 0. 1.27257541e-01 2.68897619e-02
      -2.97146924e-02 -3.93525185e-03 7.40074366e-03 -9.11910608e-02
      -3.00220028e-02 -5.94037138e-02 -1.64589465e-01 -4.18635756e-02
      -2.28914455e-01 -7.72892311e-02 -5.03748804e-02 4.98765185e-02
      -2.15378068e-02 1.11110508e-01 6.43844903e-02 1.05369106e-01
      -9.02973711e-02 -6.11043461e-02 -4.40645069e-02 -7.05558211e-02
      -2.06557307e-02 -7.48864114e-02 1.17616266e-01 -9.11149941e-03
      -4.80988994e-02 3.78618157e-03 4.44933698e-02 -1.10258564e-01
      -8.25274438e-02 0. 1.38712060e-02 -7.22825825e-02 -8.18555877e-02
      -1.92052294e-02 -5.59411757e-02 1.55150682e-01 2.42126863e-02
      -1.55063346e-02 -9.68870427e-03 -1.15609393e-01 8.50451761e-04
      -1.67855211e-02 -4.05482128e-02 2.70767901e-02 2.49006078e-02
      8.42721239e-02 8.84043891e-03 6.05304167e-02 -2.49659404e-01
      -1.25756841e-02 -5.59710339e-02 -4.23182361e-02 -3.55909616e-02
      1.25073984e-01 1.46100298e-01 -2.23721825e-02 -7.03942180e-02
      1.50489982e-03 6.55889064e-02 -6.10941611e-02 -1.90656036e-02 0.
      -1.42042398e-01 -1.02098338e-01 2.56449562e-02 6.53191889e-03
      1.04127645e-01 -7.56591409e-02 -2.25276779e-02 -1.72504753e-01
      -1.05611473e-01 -1.12393528e-01 -1.68763045e-02 -8.24365318e-02
      4.85411957e-02 9.99779776e-02 1.05822533e-02 -7.47808442e-02
      -3.01251132e-02 1.38714202e-02 -3.22366416e-01 -1.04008853e-01
      -2.32875887e-02 1.07471615e-01 1.36658385e-01 -5.68753742e-02
      -8.73844549e-02 -1.44972935e-01 -1.24230899e-01 -1.32780269e-01
      -1.26949087e-01 -4.09306288e-02 4.72512469e-03 0. -1.27934918e-01
      -1.65691022e-02 -2.84602996e-02 -6.17771372e-02 -3.79416277e-03
      -2.52384730e-02 1.32128212e-03 -2.70203166e-02 -2.26908047e-02
      7.32561722e-02 1.53137892e-01 7.86917657e-02 -1.54728694e-02
      -6.11972585e-02 1.41105428e-01 -8.61491635e-02 -1.26784056e-01
      -1.22077227e-01 -1.63860127e-01 5.14783747e-02 -5.19243069e-02
      -2.22709700e-02 -1.04352944e-01 -8.17239210e-02 -6.58699125e-02
      -1.08314678e-01 -1.10859700e-01 -1.08159564e-01 -5.37420548e-02
      1.04134055e-02 2.06024460e-02 0. 9.19831917e-02 1.48641076e-02
      -1.07014783e-01 1.09660365e-02 5.39395362e-02 -8.18623137e-03
      1.56392418e-02 -3.49269845e-02 -1.51177183e-01 -9.60168988e-02
      1.08413458e-01 1.33846165e-03 -2.03502718e-02 -2.84035411e-02
      -2.99750585e-02 2.55202707e-02 1.14831747e-02 2.23665852e-02
      -1.82649717e-01 2.25599129e-02 -2.47040689e-02 -3.81984934e-02
      2.25519203e-02 -8.52782801e-02 1.20574526e-01 2.09563915e-02
      -1.01997750e-02 -1.55460656e-01 -7.39846006e-02 6.30888119e-02
      1.10006809e-01 0. 8.73514861e-02 -5.66359200e-02 3.03863529e-02
      4.07736786e-02 5.46030924e-02 5.90860359e-02 7.38845626e-03
      8.72120261e-02 -3.34131494e-02 1.27910212e-01 4.97208387e-02
      -6.19229265e-02 -8.46977904e-02 -4.09109518e-02 -8.56635496e-02
      -2.87363911e-03 2.35062744e-02 -4.07937448e-03 4.78074048e-03
      -5.18729612e-02 8.43331963e-02 -4.39130999e-02 -2.14694273e-02
      -9.58363190e-02 -1.25002591e-02 6.69261515e-02 6.24918472e-03
      -2.31883358e-02 6.16095811e-02 -1.18556246e-02 6.66495711e-02 0.
      1.49904646e-03 -7.42231384e-02 -1.54395178e-01 -6.44854754e-02
      1.42447315e-02 6.20118976e-02 1.12108283e-01 1.44543797e-02
      -8.56619850e-02 8.32018405e-02 5.59486449e-02 1.09790199e-01
      5.76460846e-02 5.37068956e-02 7.83883631e-02 8.13690852e-03
      4.35919948e-02 2.35735657e-04 3.80581655e-02 -2.67867316e-02
      -4.28773910e-02 9.06391721e-03 -7.77178258e-02 -4.19692695e-02
      3.01605370e-02 4.29701358e-02 -8.65969062e-02 -3.06732189e-02
      1.65588632e-02 7.24910274e-02 9.06796753e-02 0. 1.82974394e-02
      5.59975319e-02 -2.63521131e-02 -1.04998164e-02 1.12753332e-01
      2.83660484e-03 4.51428816e-02 -9.62823555e-02 -1.02912962e-01
      1.49668138e-02 1.15299481e-03 -3.54133770e-02 -3.62138264e-02
      3.12194806e-02 -3.22929733e-02 -3.19912806e-02 -4.02752683e-02
      5.96990902e-03 -7.12334551e-03 3.31422463e-02 -2.87562273e-02
      -3.41539942e-02 -7.20752776e-02 -6.22351803e-02 1.00845359e-02
      -6.87715933e-02 -5.76752834e-02 4.12632264e-02 1.00050494e-01
      -1.54286817e-01 -4.54319529e-02 0. 2.46394321e-01 -6.00200966e-02
      -6.29341677e-02 -3.16921473e-02 -7.66083077e-02 -1.23269886e-01
      -1.42798185e-01 -1.38755187e-01 -3.64324972e-02 7.79539421e-02
      -3.94583158e-02 -5.33439703e-02 -2.34661493e-02 -5.54322973e-02
      3.99023145e-02 -1.99710988e-02 -4.87545170e-02 8.99243727e-02
      1.08306408e-01 -5.92020191e-02 -7.76097402e-02 -2.55331304e-02
      -7.00749755e-02 -1.17174074e-01 -5.58081605e-02 -1.29213631e-01
      4.50900085e-02 -1.04262978e-01 7.17504770e-02 -1.45753384e-01
      -3.79944183e-02 0. 6.31239936e-02 -4.15375531e-02 -6.64801076e-02
      -6.23040013e-02 -1.80440590e-01 -1.69529781e-01 -3.24017227e-01
      -2.30109971e-02 5.21716923e-02 4.28701118e-02 -5.45139052e-02
      -3.32787409e-02 -3.55294603e-03 1.81130748e-02 1.00935847e-01
      7.01194927e-02 -3.84540576e-03 8.84432122e-02 -4.91454974e-02
      -4.15048189e-02 -7.97526240e-02 -4.44693342e-02 -2.28040174e-01
      -1.89746082e-01 -1.97767302e-01 -5.97792724e-03 3.91080491e-02
      -1.52396202e-01 6.60354346e-02 -1.63765565e-01 1.82400469e-03 0.
      9.72626731e-02 -7.47692659e-02 -6.83764890e-02 -2.31042743e-01
      -1.83791950e-01 -1.37440220e-01 -2.53076060e-03 -8.01069811e-02
      3.45267504e-02 2.97158193e-02 9.80118290e-02 -4.71774302e-02
      -3.47469077e-02 7.49159828e-02 9.38358456e-02 -1.81939509e-02
      8.41166452e-02 -8.93581659e-03 -3.65245529e-02 -5.02233906e-03
      -1.17070913e-01 -1.93587348e-01 -1.15417287e-01 -2.30509534e-01
      2.53477022e-02 -7.11974548e-03 5.52095752e-03 -1.51079148e-01
      1.42846555e-02 -1.06690720e-01 6.68389052e-02 0. 7.05988705e-02
      2.22985074e-02 -1.67786434e-01 -7.25728497e-02 -1.38900340e-01
      -8.14340785e-02 1.01419441e-01 -4.39823084e-02 8.53055045e-02
      1.66317508e-01 1.44240841e-01 -5.27589640e-04 -5.70366979e-02
      1.66348871e-02 8.73995423e-02 -7.04949796e-02 -3.00512556e-02
      -1.25950901e-02 4.58826609e-02 1.30925879e-01 -1.09323464e-01
      -7.91760311e-02 -1.14967048e-01 -1.04058877e-01 -2.46170033e-02
      -6.08202778e-02 5.46162017e-02 -1.22997254e-01 4.04738039e-02
      -4.35051955e-02 1.34906754e-01 0. 5.42347617e-02 -1.11577600e-01
      -4.64724712e-02 6.73438609e-02 -4.00143415e-02 1.08494307e-03
      5.16671352e-02 7.17121437e-02 3.36425682e-03 -9.25414488e-02
      9.19999182e-02 -6.95019364e-02 -3.45708244e-02 -3.32242735e-02
      1.14711784e-01 -3.51354256e-02 -5.84099516e-02 -2.57366728e-02
      -5.00545055e-02 -5.84640093e-02 -8.71655643e-02 3.55155915e-02
      -6.79150000e-02 -7.56550506e-02 5.68488799e-02 -1.38974106e-02
      -1.68744021e-03 -1.42319009e-01 -5.01222387e-02 2.06628703e-02
      1.28849775e-01 0. 1.75276369e-01 -2.52302550e-02 -4.25093062e-02
      1.61219716e-01 -1.45981107e-02 7.63502866e-02 -4.53974269e-02
      -1.77167594e-01 -3.99719924e-02 9.15990621e-02 2.53702942e-02
      4.31073904e-02 2.19671596e-02 1.26036942e-01 7.04807118e-02
      2.02417448e-02 1.16111152e-01 8.59569311e-02 1.17485903e-01
      7.54550472e-03 -2.86385175e-02 2.47600935e-02 3.77880558e-02
      -5.38227037e-02 -6.05088435e-02 -4.67332862e-02 6.77596182e-02
      9.94601473e-02 1.09852098e-01 7.28256814e-03 9.86978263e-02 0.
      1.65381264e-02 8.92270580e-02 -2.89238971e-02 3.56212072e-02
      -2.21790727e-02 -1.45336073e-02 1.59572765e-01 8.78037363e-02
      -5.20449737e-03 -1.67803913e-02 -1.95472990e-03 2.50345245e-02
      -8.19844380e-03 1.25607729e-01 7.60433450e-02 -6.44184947e-02
      -4.36683334e-02 6.38456866e-02 -9.58720446e-02 5.59940822e-02
      -5.02370903e-03 -2.74084788e-02 2.07216889e-02 1.03233531e-02
      5.68204559e-02 4.01346646e-02 3.16831470e-02 -1.06312595e-01
      2.53899600e-02 1.60766363e-01 1.43332422e-01 0. -1.78463999e-02
      1.44044742e-01 4.49591093e-02 3.54196616e-02 -5.16655557e-02
      -6.44062161e-02 -3.72379422e-02 1.30546354e-02 -5.27684018e-02
      -6.21860195e-03 -9.52257495e-03 -1.56209953e-02 -9.82733071e-02
      7.41632804e-02 1.96548328e-01 -3.01132705e-02 -5.49523719e-02
      -1.17732706e-02 -5.09445779e-02 8.21722150e-02 5.88354655e-02
      -5.08441553e-02 5.54176047e-02 6.01695254e-02 -7.11086690e-02
      -5.62820993e-02 -6.46196753e-02 -6.67465106e-02 1.52077630e-01
      -1.10681824e-01 5.25933057e-02 0. 2.34707352e-02 1.88120585e-02
      2.47685649e-02 5.03984326e-03 -2.24245768e-02 -1.08634748e-01
      1.10671684e-01 1.97070614e-02 7.82375876e-03 1.31131262e-02
      -3.60645764e-02 -4.65861112e-02 6.44058660e-02 8.53239521e-02
      6.91560358e-02 4.10055295e-02 -4.76081856e-02 -4.17487212e-02
      6.59803823e-02 2.20105555e-02 -8.67165998e-03 6.97411597e-02
      -1.10443057e-02 -3.05776466e-02 1.12196237e-01 -1.72587410e-02
      7.69516313e-03 -9.22210738e-02 1.54723033e-01 -1.07549749e-01
      1.30008817e-01 0. 9.56746265e-02 1.93572789e-02 5.42476103e-02
      5.36360927e-02 -3.84730138e-02 -1.48485586e-01 1.87300369e-02
      4.14096825e-02 3.73912230e-02 3.33346054e-02 -9.89494193e-03
      -4.43005115e-02 9.30045173e-02 1.16782129e-01 5.75189479e-02
      -7.17210099e-02 -9.22840089e-02 8.67620409e-02 1.21942818e-01
      5.44051230e-02 4.57656849e-03 8.09693933e-02 -2.82242596e-02
      -1.65190265e-01 -1.15157910e-01 1.71981112e-03 6.21801168e-02
      -1.00214653e-01 1.73980311e-01 -8.24360400e-02 1.51358336e-01 0.
      6.73436373e-02 6.25042915e-02 -3.62194306e-03 7.20788911e-03
      -1.70382202e-01 1.61169134e-02 8.40663984e-02 1.43312139e-03
      4.12828550e-02 8.80736485e-03 1.29780248e-01 5.01659885e-02
      4.95762179e-05 1.38293505e-01 -7.39409262e-03 1.88125856e-02
      -5.94509505e-02 1.43394172e-01 7.30814636e-02 1.12646826e-01
      2.30881236e-02 -6.75985068e-02 -5.04333414e-02 -7.80071467e-02
      7.62322992e-02 -3.51720937e-02 1.24612458e-01 -8.50505531e-02
      1.87358037e-01 -4.03813422e-02 1.87166005e-01 0. 8.30124691e-02
      5.61387464e-02 -1.24784723e-01 2.71309912e-02 -6.17333278e-02
      3.21004987e-02 1.00974351e-01 -3.50488313e-02 -1.48883881e-02
      -9.82851610e-02 -3.17576081e-02 1.36291366e-02 6.25426474e-04
      2.65976451e-02 2.58094445e-02 2.70743128e-02 -5.37240617e-02
      4.17328477e-02 7.10236952e-02 -4.55276156e-03 -4.93072718e-02
      1.21938586e-02 4.70414311e-02 -5.54050133e-02 9.94563103e-02
      -6.23852387e-02 1.96134280e-02 -1.20924547e-01 9.71797928e-02
      -8.67802948e-02 1.17409281e-01 0. -8.78756344e-02 -1.94658339e-02
      -6.50742650e-03 -6.20242171e-02 -9.88010168e-02 -5.32167368e-02
      1.78350396e-02 6.41902536e-02 9.25946012e-02 -7.25878030e-02
      1.16155140e-01 -1.62034146e-02 5.32227531e-02 1.09598972e-01
      5.33760004e-02 -2.45541018e-02 -2.36618146e-02 -3.65892500e-02
      -6.41626567e-02 1.03770919e-01 -1.75055955e-02 -5.48672043e-02
      8.01504683e-03 -8.83607790e-02 -1.08533744e-02 6.50347024e-02
      5.06643355e-02 -9.59105939e-02 3.02741937e-02 -6.97209314e-02
      1.37943208e-01 0. 6.54168129e-02 -1.71081023e-03 -5.83285540e-02
      1.00431375e-01 7.38382563e-02 -8.01319778e-02 2.03960016e-03
      -5.61590977e-02 -7.06948712e-02 -1.88370980e-02 7.10131302e-02
      4.32782769e-02 1.38022890e-02 1.50323093e-01 3.32054570e-02
      6.64923713e-02 4.84116226e-02 7.07098991e-02 -3.39098088e-02
      3.07223462e-02 -5.96555397e-02 2.58241612e-02 2.88713090e-02
      -1.16729336e-02 -2.06253156e-02 -3.24181542e-02 2.36423220e-02
      1.57987431e-01 1.44434214e-01 -1.17876306e-01 2.90459096e-02 0.
      1.81728136e-02 1.12409957e-01 7.72693008e-02 2.08583660e-02
      9.98341218e-02 3.68155241e-02 8.78407806e-02 5.36521301e-02
      6.82136044e-02 -9.21850745e-03 8.06305557e-02 -3.32427807e-02
      -4.29630652e-03 1.27203733e-01 7.27537423e-02 -1.12406202e-02
      7.00975209e-02 1.73227564e-02 -1.26693055e-01 1.11065499e-01
      2.68433243e-02 1.03049716e-02 1.24774389e-02 3.92313901e-04
      -2.13777106e-02 9.82841328e-02 7.25244284e-02 8.96713138e-02
      -1.57903135e-01 3.76081139e-01 1.09375842e-01 0. 1.31071906e-03
      7.72327278e-03 4.80831787e-02 -3.32639879e-03 1.18970145e-02
      4.48680595e-02 5.57112470e-02 3.65784019e-02 1.07567050e-02
      4.22843769e-02 3.11768129e-02 -4.45640599e-03 -9.13491696e-02
      9.34249014e-02 7.62571916e-02 -7.87047893e-02 -1.00916691e-01
      -3.33222263e-02 -2.38307770e-02 2.71169730e-02 5.91206364e-02
      -7.00375140e-02 2.30938792e-02 -1.57099757e-02 -1.10252969e-01
      -5.68043888e-02 -3.48823033e-02 1.02771096e-01 -4.60980274e-02
      1.19304262e-01 -1.06211945e-01 0. 5.29046096e-02 1.33142062e-02
      -7.11188465e-02 -5.64392433e-02 -2.99958233e-02 -5.07913455e-02
      1.01592548e-01 6.98442152e-03 1.44461647e-01 2.72344816e-02
      1.77623611e-02 -1.26342699e-02 -4.99662310e-02 6.84328303e-02
      6.99426159e-02 2.16278341e-02 4.55041789e-03 6.02283739e-02
      -2.10929923e-02 5.21323569e-02 -6.44650087e-02 -1.27995178e-01
      -4.05964963e-02 -1.46066874e-01 4.46009934e-02 -1.45425089e-02
      1.90870985e-01 9.46903229e-02 -4.87810932e-02 1.32576525e-01
      -2.85378769e-02 0. 5.88173568e-02 -1.88038312e-02 2.26501841e-02
      8.30391422e-02 9.20430645e-02 -6.87599853e-02 8.48372653e-03
      -9.20636058e-02 1.55152781e-02 -5.65952323e-02 3.50498408e-02
      6.61396980e-02 8.58233497e-02 -1.87473223e-02 3.56511362e-02
      1.29490336e-02 -3.28433141e-02 8.87886062e-03 -7.22215623e-02
      2.67719217e-02 1.09294476e-02 2.82767527e-02 7.49976039e-02
      -6.98221549e-02 -9.23727378e-02 -1.51409358e-01 -7.05040395e-02
      8.88002068e-02 -3.94197814e-02 8.20186213e-02 -1.95700563e-02 0.
      -4.12744135e-02 -3.29049490e-02 -1.08204260e-01 3.60895395e-02
      2.13920157e-02 6.55154809e-02 1.86351519e-02 -5.32113165e-02
      5.09776622e-02 5.58036659e-03 7.30537549e-02 -4.28218804e-02
      -2.55825296e-02 -4.07920852e-02 1.03226921e-03 1.75384298e-01
      -4.93122498e-03 4.34444062e-02 -5.19299321e-02 1.85399354e-02
      -1.45972565e-01 -1.11768931e-01 -2.86972467e-02 5.53141674e-03
      4.75711823e-02 -5.07144444e-02 5.28251603e-02 5.74026406e-02
      -5.09762391e-02 1.20694332e-01 -6.04731254e-02 0. -5.98744676e-03
      1.52186215e-01 -1.19225241e-01 9.43762287e-02 2.28804024e-03
      -2.16175755e-03 5.75861596e-02 8.83243829e-02 1.10774800e-01
      -8.07396546e-02 1.26464777e-02 -8.46624747e-02 5.76587841e-02
      4.72045429e-02 5.23635633e-02 -3.73916626e-02 -2.60278378e-02
      2.50536166e-02 -5.66462018e-02 9.12962779e-02 -1.63004920e-01
      1.46849956e-02 -1.41372129e-01 -2.04540472e-02 -1.38029512e-02
      2.08178516e-02 9.21157449e-02 4.79327291e-02 -2.62203533e-02
      1.64462432e-01 -2.38874219e-02 0. 1.21964505e-02 4.63976339e-02
      6.46302998e-02 -3.65253575e-02 1.19615093e-01 -5.27351052e-02
      8.22865963e-03 1.04160726e-01 2.76550259e-02 -1.15402881e-02
      1.10848382e-01 -3.49077992e-02 3.08465073e-03 1.07109971e-01
      -6.37468472e-02 -9.66457725e-02 -2.05340218e-02 -1.95249114e-02
      -2.75614057e-02 7.16753304e-02 -2.92071537e-03 -1.37640089e-01
      3.15990523e-02 -9.43461135e-02 -6.99343607e-02 8.56094658e-02
      3.27503197e-02 1.19492568e-01 -6.45908490e-02 8.97918269e-02
      -1.84683073e-02 0. -1.07503645e-02 -5.87516604e-03 -9.35633853e-03
      5.09245656e-02 1.73145398e-01 9.03811231e-02 4.96862317e-03
      -6.80125356e-02 3.58555961e-04 1.57504492e-02 6.88167661e-02
      3.30807045e-02 2.84928679e-02 1.89631790e-01 2.65805908e-02
      -1.68493558e-02 -3.27119119e-02 5.27329482e-02 -4.01856638e-02
      -7.00373203e-03 -2.12982874e-02 -2.03490406e-02 1.34079412e-01
      -5.93963871e-03 -4.75349016e-02 -9.21060815e-02 4.52444814e-02
      3.12593818e-01 9.52255875e-02 1.75329223e-02 -1.46609396e-01 0.</_></support_vectors>
  <decision_functions>
    <_>
      <sv_count>1</sv_count>
      <rho>-1.6507904902061179e+00</rho>
      <alpha>
        1.</alpha>
      <index>
        0</index></_></decision_functions></my_svm>
</opencv_storage>
