<?xml version="1.0"?>
<opencv_storage>
<my_svm type_id="opencv-ml-svm">
  <svm_type>C_SVC</svm_type>
  <kernel><type>LINEAR</type></kernel>
  <C>1.</C>
  <term_criteria><epsilon>2.2204460492503131e-16</epsilon>
    <iterations>500000</iterations></term_criteria>
  <var_all>4096</var_all>
  <var_count>4096</var_count>
  <class_count>2</class_count>
  <class_labels type_id="opencv-matrix">
    <rows>1</rows>
    <cols>2</cols>
    <dt>i</dt>
    <data>
      -1 1</data></class_labels>
  <sv_total>1</sv_total>
  <support_vectors>
    <_>
      -2.11773500e-01 3.35431620e-02 4.04355824e-02 -1.55973937e-02
      1.76998645e-01 1.13921441e-01 1.52904376e-01 4.81676385e-02
      3.34959850e-02 1.39897615e-01 1.80024341e-01 1.37237161e-01
      -3.57905105e-02 -7.32129067e-02 -4.69836369e-02 5.92456646e-02
      1.29427940e-01 6.23992719e-02 -1.69220895e-01 1.04820281e-01
      7.11833462e-02 -1.21121787e-01 -5.12750037e-02 -1.34627208e-01
      1.06490918e-01 1.45103082e-01 -4.47022654e-02 -5.21975458e-02
      1.10409975e-01 1.26815453e-01 2.50706404e-01 0. -2.02900574e-01
      -1.27996588e-02 3.52304764e-02 -6.88795894e-02 -1.03083476e-01
      -6.71811104e-02 1.23586737e-01 -1.12432733e-01 6.26247376e-02
      -6.90557659e-02 5.70341647e-02 1.13927968e-01 1.07904755e-01
      -8.22443888e-02 2.58384775e-02 -5.91864139e-02 -1.75104558e-03
      1.35796890e-01 -1.30745336e-01 -1.00042103e-02 2.25528087e-02
      4.73808274e-02 -1.20371386e-01 -1.34726956e-01 2.90819574e-02
      -9.66872647e-02 4.60417531e-02 -8.67371559e-02 1.23574180e-04
      -6.44043684e-02 9.55952108e-02 0. -1.72696799e-01 3.00265364e-02
      4.39746231e-02 5.34409098e-02 3.59630845e-02 -1.95119545e-01
      -8.97188019e-03 -4.93164994e-02 1.49390757e-01 -1.38563067e-02
      3.55185606e-02 3.86707410e-02 -3.56659442e-02 -3.80810499e-02
      7.62026757e-02 4.52794172e-02 5.20703569e-02 8.57252553e-02
      -1.55726910e-01 5.16341999e-02 6.17216043e-02 -1.12165743e-03
      7.40809739e-02 -1.36537433e-01 1.14717484e-02 -6.69673607e-02
      1.10715359e-01 1.34483604e-02 8.28999793e-04 4.93729953e-03
      4.32717279e-02 0. -1.29597664e-01 2.21875682e-02 -8.87357723e-03
      7.84277357e-03 2.59047598e-01 8.02368764e-03 -6.14818707e-02
      -5.88813610e-02 6.26239404e-02 3.34643796e-02 6.27491772e-02
      1.23880483e-01 -2.98325606e-02 7.34218359e-02 -4.55007423e-03
      1.37679681e-01 2.10911736e-01 -2.23875418e-02 -1.17622115e-01
      2.46613938e-02 5.95218316e-02 -4.03319560e-02 1.29595384e-01
      -1.81785122e-01 6.25576749e-02 7.52434507e-02 -5.31685278e-02
      2.34357528e-02 1.08079955e-01 3.83723266e-02 1.53599948e-01 0.
      -3.03487293e-02 -1.07114399e-02 -9.52266604e-02 -8.83086547e-02
      9.51390564e-02 1.53209969e-01 2.97547188e-02 4.50424179e-02
      -2.99679628e-03 -7.75187910e-02 -5.55858947e-03 1.92441240e-01
      -8.10601283e-03 -2.00295472e-03 5.16845137e-02 -4.45376895e-02
      1.67638630e-01 8.66294205e-02 -5.17293625e-02 -2.30181050e-02
      3.05782966e-02 -3.32940929e-02 1.14308402e-03 2.86211465e-02
      -2.92070396e-02 1.02229446e-01 4.73346114e-02 -1.27034299e-02
      1.14995867e-01 4.46396368e-03 1.08307444e-01 0. 5.55559248e-02
      8.95886272e-02 -1.72219798e-03 -7.71608502e-02 1.16593912e-02
      -4.72194925e-02 5.66053912e-02 1.42581286e-02 6.83436841e-02
      -5.60244098e-02 7.46131912e-02 1.19330116e-01 4.21951674e-02
      4.47207913e-02 5.63082956e-02 -5.41294962e-02 3.50025930e-02
      6.51926175e-02 -1.42406836e-01 1.06960297e-01 -4.14864020e-03
      5.75088151e-03 -1.79342821e-03 -1.72003359e-01 -4.33977060e-02
      5.46509139e-02 1.12220332e-01 5.94770312e-02 1.16085730e-01
      2.90496070e-02 2.97287982e-02 0. -1.29412800e-01 1.37108251e-01
      5.57433367e-02 1.15884006e-01 9.99740064e-02 -2.23192394e-01
      -7.36104399e-02 -3.73492017e-02 -3.06531060e-02 -1.91452622e-01
      4.13472913e-02 -4.33434965e-03 -2.48667020e-02 -5.61919659e-02
      6.51137903e-02 5.86031713e-02 1.78401582e-02 2.16437373e-02
      -1.23619363e-01 1.13821082e-01 3.11900005e-02 4.89535332e-02
      -1.92951597e-02 -2.24770173e-01 9.80079547e-03 1.83388665e-02
      -4.00936045e-02 -1.24033809e-01 8.64851475e-02 -4.94512096e-02
      1.26102436e-02 0. -2.01123226e-02 1.29351929e-01 -4.44995724e-02
      8.98268912e-03 2.39888400e-01 -1.15302726e-04 1.09430306e-01
      2.56768137e-01 1.02840498e-01 -1.60046458e-01 1.39827549e-01
      1.08083233e-01 -1.05936546e-02 -6.43571168e-02 8.17570928e-03
      -5.39593659e-02 -2.77615190e-02 7.57478029e-02 -1.73527628e-01
      1.51140779e-01 -2.71477643e-02 -3.78579050e-02 3.06292642e-02
      -1.22363105e-01 -3.11109256e-02 1.18044339e-01 7.95443952e-02
      7.31616318e-02 3.40643048e-01 -1.07520185e-01 6.97281361e-02 0.
      -3.63157205e-02 4.77195159e-03 -2.77037714e-02 -1.38464972e-01
      6.35255799e-02 1.63541213e-02 -7.49424938e-03 4.62588342e-03
      -5.78487813e-02 -5.58200218e-02 -1.13977147e-02 5.74937835e-02
      -2.27131471e-02 -3.70030105e-02 -7.48357624e-02 -2.38295067e-02
      1.08307876e-01 -3.65352109e-02 -3.81583385e-02 -5.41713126e-02
      1.86651591e-02 -1.19825616e-01 -3.32795419e-02 -2.03582823e-01
      -1.96119398e-02 7.18913227e-02 -1.37945145e-01 -8.51070061e-02
      -2.03455284e-01 1.04188770e-01 5.47938980e-02 0. -1.41916603e-01
      8.97590593e-02 -1.33860528e-01 -9.87302586e-02 2.08290797e-02
      2.62689982e-02 1.89329803e-01 5.92429973e-02 -2.49906760e-02
      -1.72291119e-02 4.59076017e-02 9.14342552e-02 5.25902994e-02
      -1.45927100e-02 -1.08147264e-02 -2.42195036e-02 -1.65669799e-01
      4.17651758e-02 6.00929325e-03 8.08298588e-03 -3.06221191e-02
      -3.53124924e-02 -6.17248751e-02 -1.35833606e-01 8.01252872e-02
      -5.02707101e-02 -1.20560035e-01 3.07303779e-02 -7.09393844e-02
      5.58836572e-02 -2.26969309e-02 0. -1.49455033e-02 5.75326234e-02
      4.35430091e-03 -1.51587045e-02 -1.33551110e-03 -8.06580111e-02
      9.16507915e-02 1.90716967e-01 1.46279365e-01 -1.17098972e-01
      3.96185443e-02 -1.01827152e-01 -5.64971343e-02 -6.26246706e-02
      9.39520299e-02 2.25516269e-03 2.62994785e-02 -3.58833210e-03
      -9.02196169e-02 2.28672605e-02 -2.08912883e-02 -1.01310179e-01
      -7.48480558e-02 2.80940682e-02 4.75787185e-02 2.29692757e-01
      1.13874599e-01 1.13428831e-01 -4.57672104e-02 5.99720962e-02
      -3.38603035e-02 0. 1.07046187e-01 5.01073413e-02 -5.22025581e-03
      -1.80010498e-01 -1.53449386e-01 -2.17203181e-02 8.64250436e-02
      1.14866011e-01 1.13633364e-01 -4.00070064e-02 1.00806631e-01
      -7.14253867e-03 -1.31580710e-01 -1.28730044e-01 -3.22796889e-02
      -3.43755707e-02 9.25247371e-02 1.10430874e-01 -3.79536711e-02
      1.83386117e-01 -5.33840843e-02 -3.36057931e-01 -3.01493526e-01
      -2.17565596e-01 -7.13475049e-03 2.40703419e-01 1.86973855e-01
      1.26262739e-01 -8.12936500e-02 6.36467338e-02 -8.91356021e-02 0.
      1.45988120e-03 1.09080998e-02 1.58371449e-01 4.65814471e-02
      -1.06163211e-01 -1.75054163e-01 -8.11259374e-02 3.51606272e-02
      1.17825344e-01 2.59423349e-02 1.45462066e-01 1.87019557e-01
      -6.90971166e-02 8.15241262e-02 -1.70719400e-01 -1.74060971e-01
      -1.96812600e-02 4.06795256e-02 2.68754568e-02 8.80007520e-02
      2.55630851e-01 -5.18277325e-02 -7.19935074e-02 -3.59615058e-01
      -2.81064332e-01 -5.71335405e-02 1.46585166e-01 2.87696049e-02
      -9.71659422e-02 1.65903151e-01 -7.15645328e-02 0. -4.50863801e-02
      6.09924085e-02 7.36646205e-02 8.86039287e-02 -6.15724642e-03
      2.19288282e-02 -4.33143377e-02 -8.46597459e-03 6.46948069e-02
      1.34695843e-02 -6.62211003e-03 1.18836142e-01 -3.69567722e-02
      1.57713324e-01 -9.78501979e-03 -6.77280575e-02 -3.97467539e-02
      -1.65702514e-02 -1.00049607e-01 -6.42442843e-03 2.07976341e-01
      9.52162780e-03 1.25153437e-01 -1.52595773e-01 -1.03365369e-01
      -8.29973782e-04 2.10703276e-02 9.88088474e-02 -2.50728186e-02
      1.44524589e-01 -6.76621124e-02 0. -7.27371424e-02 2.62853019e-02
      1.75577942e-02 1.85073674e-01 9.19116959e-02 2.32419800e-02
      -1.59602374e-01 -1.70105711e-01 -1.38078751e-02 -2.93777976e-02
      3.44230304e-03 -7.03181028e-02 2.44086119e-03 2.28323527e-02
      1.00736031e-02 -4.11602557e-02 3.08988728e-02 -1.94481555e-02
      -2.54496615e-02 -2.98525244e-02 -4.44786288e-02 5.61541095e-02
      -2.56912131e-02 -1.15859598e-01 -1.42759368e-01 -2.79201269e-02
      5.27325552e-03 3.14077246e-03 -6.35809004e-02 5.76084889e-02
      -7.39117712e-02 0. -7.04404861e-02 6.20446680e-03 -4.22484428e-02
      -1.89084862e-03 -7.85052627e-02 -1.28745213e-01 4.52693664e-02
      4.23711725e-02 -2.95852572e-02 -1.13827951e-01 -4.64822948e-02
      -2.71358844e-02 -4.32854006e-03 1.68769378e-02 1.06260471e-01
      5.12269186e-03 6.22034706e-02 -1.40906379e-01 -1.73919667e-02
      -8.29240307e-02 -4.42486964e-02 -2.45917626e-02 -1.38594329e-01
      -2.07014397e-01 8.08684230e-02 1.07471213e-01 -1.26651630e-01
      1.10217832e-01 4.73218597e-03 -8.28469172e-02 -2.20563158e-01 0.
      -1.63977906e-01 1.74338464e-02 4.27515768e-02 -3.29151675e-02
      1.28408894e-01 -8.32591113e-03 1.35813519e-01 2.19778921e-02
      9.82216224e-02 -4.47019413e-02 -4.96346168e-02 5.13893217e-02
      -1.15508430e-01 2.94033960e-02 4.19738628e-02 -4.66857925e-02
      1.70179282e-03 -6.81606308e-02 -4.57549170e-02 -2.79606190e-02
      9.06898975e-02 -1.27285436e-01 3.93891800e-03 -9.33779776e-02
      -1.48275020e-02 6.79463372e-02 2.66370960e-02 -3.54533643e-02
      -1.73930869e-01 1.22409418e-01 1.05437376e-01 0. -1.64669618e-01
      1.31832704e-01 -5.29198013e-02 -1.27956197e-01 -1.08835973e-01
      3.04828677e-02 1.05131313e-01 -8.82478580e-02 2.95085162e-02
      4.19911183e-02 7.88088292e-02 1.39100850e-01 6.28099963e-02
      -1.04885967e-02 8.36792439e-02 -2.22470537e-02 -3.21247615e-02
      2.32907217e-02 -7.92158172e-02 1.84454843e-01 5.00953309e-02
      -6.66509792e-02 -1.71820819e-01 -1.16547318e-02 2.15633921e-02
      -9.14023370e-02 1.02994917e-02 3.69675010e-02 -5.64586669e-02
      3.04802340e-02 4.51764613e-02 0. -1.04957640e-01 -3.36020552e-02
      7.41583183e-02 1.57874096e-02 8.43746439e-02 3.09738424e-02
      9.99341086e-02 -9.14512575e-02 -1.25956625e-01 -5.36099710e-02
      -1.04872622e-01 -6.23850711e-02 1.48461694e-02 -1.60580762e-02
      1.56756952e-01 5.33329062e-02 -2.14948431e-02 1.11551322e-01
      -1.44979462e-01 -1.08549520e-01 -4.09915112e-02 3.51713076e-02
      7.71902353e-02 5.93039058e-02 1.41261086e-01 -5.46923280e-02
      -1.94333736e-02 1.12494044e-01 -4.49088328e-02 9.03036736e-04
      -5.56060448e-02 0. -7.60339350e-02 -1.55857027e-01 -2.61997711e-02
      -2.51630485e-01 -8.19879845e-02 -4.34435010e-02 -9.96621102e-02
      -1.32611077e-02 -5.31578511e-02 -1.23289168e-01 -2.55132288e-01
      -3.83352228e-02 4.34878431e-02 -6.10600784e-02 5.82924001e-02
      8.59496146e-02 -5.65587096e-02 -1.07320115e-01 -2.98773617e-01
      -2.61189491e-01 -1.45902097e-01 -2.24924996e-01 -4.95538861e-02
      -1.11356005e-01 3.20138484e-02 -6.74431622e-02 -4.37247492e-02
      -1.27510309e-01 -1.18801467e-01 -5.93232997e-02 -2.86065966e-01 0.
      -1.51760325e-01 -2.63505653e-02 1.20950053e-02 -4.75138649e-02
      2.84726894e-03 -8.61495957e-02 -1.47865638e-01 -3.98337506e-02
      -2.08614528e-01 5.92043772e-02 -1.29993558e-01 -9.01212823e-03
      9.70038213e-03 2.94902101e-02 -1.13788344e-01 -1.49551988e-01
      -2.03829467e-01 -1.47211462e-01 -3.68566394e-01 -2.30845138e-01
      -1.34080350e-01 -8.02980065e-02 -5.07412031e-02 -2.08494842e-01
      -3.04897964e-01 -2.30453804e-01 -3.28172952e-01 -1.28431335e-01
      -2.51611382e-01 -7.95910582e-02 -1.75878450e-01 0. -1.68627605e-01
      1.65272492e-03 5.54754026e-02 5.43162227e-02 1.50617473e-02
      1.01624638e-01 1.27776280e-01 1.28370136e-01 -2.94724107e-02
      -6.66878670e-02 -1.90402623e-02 4.46014702e-02 -8.99617746e-02
      2.00586498e-01 2.61908472e-02 3.47285420e-02 -2.91055366e-02
      5.83661199e-02 -1.62316322e-01 -9.77242067e-02 5.71745597e-02
      -1.96885373e-02 1.44567370e-01 7.59407058e-02 1.04114786e-01
      2.84499656e-02 5.07741906e-02 6.77916855e-02 3.07801664e-02
      1.33073553e-01 -2.14692634e-02 0. -3.78687978e-02 5.07052094e-02
      -8.09398144e-02 8.35113674e-02 3.80907282e-02 -2.50532571e-02
      -1.08788848e-01 -7.37886354e-02 9.14536640e-02 -6.85493276e-02
      9.71581787e-02 -4.03874479e-02 -1.83119074e-01 2.48715710e-02
      -8.05436149e-02 8.92510116e-02 2.03099214e-02 8.62938166e-02
      -1.38180509e-01 1.14671424e-01 -1.51128337e-01 -5.74720688e-02
      -5.54836802e-02 -1.99164450e-01 -2.13895459e-02 3.38993175e-03
      6.83643669e-02 -6.96616014e-03 -2.90803518e-02 5.40691689e-02
      -7.33618513e-02 0. 6.21612975e-03 -3.92701663e-02 -1.00084722e-01
      8.98587033e-02 6.06201887e-02 1.29750380e-02 2.45610699e-02
      -2.66113188e-02 -1.93751156e-02 -1.20644316e-01 -5.23953699e-02
      3.67434993e-02 -4.03856896e-02 1.26696393e-01 -3.04812957e-02
      -1.24795921e-01 8.60953853e-02 1.40561685e-01 3.03308628e-02
      -7.30495080e-02 -5.47951460e-02 -5.58000803e-02 3.43027487e-02
      -1.31497905e-01 -6.88061342e-02 1.00934185e-01 2.41489131e-02
      1.50944754e-01 9.86746103e-02 -7.78216943e-02 -1.57521740e-01 0.
      -2.22038224e-01 -2.52751098e-03 -4.54775803e-02 4.13414799e-02
      -6.58992976e-02 -9.84440371e-02 6.36226125e-03 -2.57809963e-02
      -2.00609770e-02 1.59361921e-02 6.47367537e-02 1.56118199e-01
      4.01250720e-02 1.14825532e-01 1.02751516e-01 9.89464857e-03
      -5.25924470e-03 1.66339725e-02 -1.44291278e-02 4.19691466e-02
      1.00499362e-01 4.81864065e-02 -7.84550607e-02 -1.42373577e-01
      -1.71941668e-02 -1.51865762e-02 -1.22443810e-02 -5.71823791e-02
      -1.14700392e-01 1.47312582e-01 6.38084859e-02 0. -6.53528497e-02
      8.80600065e-02 -9.98084024e-02 -2.84423139e-02 3.77413519e-02
      -1.43389136e-01 -5.38318604e-02 7.06593320e-02 -7.30789499e-03
      1.57150477e-01 -2.32311301e-02 6.03256561e-02 1.26974836e-01
      -8.74392688e-03 1.49884865e-01 4.64175409e-03 -1.34257868e-01
      -3.83453444e-02 2.15625092e-02 3.99316661e-02 -1.16376691e-01
      1.13927998e-01 -8.15042108e-02 -9.65356305e-02 -5.60518429e-02
      -6.48875237e-02 -7.88636208e-02 6.05102107e-02 -7.16101052e-03
      1.88849717e-02 -2.85223890e-02 0. 6.65253177e-02 6.13957085e-02
      -4.68902774e-02 -3.37644406e-02 -4.97993119e-02 -8.49172398e-02
      -1.48531422e-02 -1.41746357e-01 -1.65646464e-01 2.37686053e-01
      7.17297802e-03 8.03905353e-03 7.86545575e-02 -6.03446998e-02
      4.58679870e-02 1.28161088e-01 3.03410105e-02 2.42972951e-02
      1.15854941e-01 2.53923424e-02 -2.72360504e-01 3.94967273e-02
      -1.30971685e-01 -7.18376040e-02 6.80795014e-02 -6.91999942e-02
      -9.78489071e-02 5.08144498e-02 6.05571270e-02 7.83833023e-03
      -7.66994208e-02 0. 1.69141755e-01 4.38160188e-02 -2.55596191e-01
      -3.04396629e-01 -3.65872569e-02 2.35751923e-02 -6.96504936e-02
      -4.18939628e-02 -1.83380440e-01 2.00049937e-01 -1.40330628e-01
      -7.78711066e-02 -1.04903072e-01 6.83645010e-02 1.74369708e-01
      -5.19884564e-02 -1.56363189e-01 6.73786253e-02 1.79047555e-01
      -8.87583047e-02 -3.37933511e-01 -3.04152101e-01 -8.66831862e-04
      -7.67703354e-02 -1.29450440e-01 -1.63222820e-01 -1.57166064e-01
      -2.16625705e-01 -6.19939528e-02 -1.39235277e-02 -2.62484699e-02 0.
      1.79313123e-01 -6.74999356e-02 -4.73375209e-02 -2.76277419e-02
      1.69378594e-02 -5.93356416e-02 -2.58969873e-01 -1.25527501e-01
      7.90221244e-02 2.34559000e-01 -4.03501838e-02 -1.14116505e-01
      -5.57840392e-02 8.79129395e-02 1.39213890e-01 2.75087208e-02
      -2.77688026e-01 -1.44744620e-01 1.75919235e-01 -1.90132573e-01
      -1.61262050e-01 -1.05128370e-01 -1.94713902e-02 -5.69337867e-02
      -2.00983971e-01 -3.04504156e-01 -3.34274918e-02 -1.73604228e-02
      -6.50267601e-02 -1.58333510e-01 2.64628418e-02 0. 2.03142121e-01
      -1.01362325e-01 -1.64058417e-01 1.71520598e-02 1.61630251e-02
      -1.50428116e-01 -5.32742962e-02 -1.47089496e-01 8.99473429e-02
      8.38875324e-02 6.61434531e-02 1.19062826e-01 7.86414966e-02
      -1.49866920e-02 1.53313819e-02 -7.33225867e-02 -1.17115468e-01
      -1.01170447e-02 9.43828672e-02 -7.59350359e-02 -2.21361835e-02
      3.82157378e-02 4.16396149e-02 -1.82266697e-01 -1.64446235e-01
      -3.13532770e-01 -3.01727224e-02 3.30899730e-02 -5.72690405e-02
      -8.52287374e-03 -3.43704075e-02 0. 1.91954806e-01 6.63365377e-03
      3.37493010e-02 -6.05187342e-02 -8.67361948e-02 -1.63663868e-02
      -1.97293144e-03 -6.78104907e-03 7.94892833e-02 -6.10226803e-02
      -8.63700137e-02 1.71867516e-02 -5.98622970e-02 8.73571858e-02
      3.92364338e-02 7.29829073e-02 9.62706842e-03 1.67303961e-02
      4.34834771e-02 -6.23216704e-02 1.36727607e-02 -1.21012412e-01
      -1.55486792e-01 -1.39458537e-01 8.60070437e-02 7.87369832e-02
      6.51049837e-02 2.23012287e-02 -2.47096196e-02 1.04895853e-01
      -1.98427811e-02 0. 3.47400978e-02 -9.96642411e-02 6.70911893e-02
      3.96187864e-02 2.07354128e-02 -1.13247216e-01 1.18449301e-01
      5.60514592e-02 8.11748877e-02 -1.23040907e-01 6.75877109e-02
      3.92707661e-02 -8.16407204e-02 9.20911953e-02 7.50218481e-02
      7.75814727e-02 3.02014016e-02 2.97811497e-02 -5.36853122e-03
      -8.31894204e-03 7.51333460e-02 -1.30921453e-01 -6.12178110e-02
      -1.81352019e-01 5.93684204e-02 1.20761551e-01 9.86469388e-02
      1.67797610e-01 9.36531276e-02 8.66051484e-03 -7.59870410e-02 0.
      4.92914580e-02 1.42726926e-02 1.38594300e-01 1.21489242e-01
      4.57357690e-02 5.30241355e-02 -7.15841772e-03 1.73620749e-02
      1.73301063e-02 -5.18093072e-02 -7.05265775e-02 -3.38497311e-02
      -8.75262469e-02 8.42213333e-02 6.17769398e-02 4.25397083e-02
      2.80112289e-02 -8.55322927e-03 4.43792865e-02 4.41246293e-03
      5.57346791e-02 -1.69332270e-02 1.44372266e-02 -3.84154730e-02
      4.33866642e-02 2.25418787e-02 -2.86283586e-02 -1.14144720e-01
      1.15105268e-02 6.76261485e-02 2.30273947e-01 0. -8.30443129e-02
      2.18216218e-02 -4.02551203e-04 6.54280707e-02 -5.85856624e-02
      -1.38069749e-01 -3.53884511e-02 7.33459741e-03 8.50814059e-02
      -5.55671491e-02 -7.82571137e-02 -6.15182519e-02 1.38490304e-01
      1.92090288e-01 8.12022984e-02 1.78478681e-03 3.35743986e-02
      -2.68681217e-02 -2.27619819e-02 -1.46946153e-02 -1.37233794e-01
      1.31854355e-01 1.16930611e-01 -8.35556760e-02 1.85419228e-02
      1.61264446e-02 -3.65513936e-02 7.07080886e-02 6.51551709e-02
      -1.39691457e-01 4.58329394e-02 0. 2.45583281e-02 -6.48535937e-02
      -1.30322635e-01 1.14176542e-01 3.87997068e-02 -1.01382457e-01
      1.56937931e-02 1.36198821e-02 1.67670205e-01 3.90392616e-02
      -3.14715773e-01 -2.24381760e-01 8.36809725e-02 7.27775320e-02
      -1.70695391e-02 1.07966691e-01 9.32815447e-02 -1.68720949e-02
      -9.87533256e-02 -2.44287834e-01 -4.16173011e-01 1.00129604e-01
      1.07041985e-01 -1.08784446e-02 1.23167090e-01 2.00658649e-01
      1.88925564e-01 -4.44115326e-02 2.72764228e-02 -1.98905673e-02
      -9.32871364e-03 0. 1.91815466e-01 4.23051417e-02 -1.62793621e-01
      2.78457929e-03 1.42040908e-01 9.58845392e-02 1.64376106e-02
      -3.04570775e-02 1.36473194e-01 4.18498337e-01 -5.55698611e-02
      -9.91108641e-02 3.97979766e-02 8.30566958e-02 6.48277104e-02
      -8.16445053e-02 -6.62599429e-02 1.22219441e-03 2.25347847e-01
      1.03879340e-01 -1.58793479e-01 -3.98026630e-02 1.23128653e-01
      1.09713823e-01 -9.24676005e-03 -4.67191190e-02 1.41057715e-01
      -6.10987656e-02 8.66182074e-02 1.25988245e-01 1.97002307e-01 0.
      3.04426581e-01 1.78063288e-01 6.38551358e-03 2.25978270e-02
      7.48104900e-02 1.05946735e-02 1.77078415e-02 -5.21086417e-02
      2.34901961e-02 2.15581685e-01 2.84145772e-02 -1.32466173e-02
      -1.32823586e-01 1.62998170e-01 5.48356548e-02 6.13433234e-02
      -1.13060653e-01 -1.55826181e-01 2.00749278e-01 1.48467228e-01
      -1.02761630e-02 -4.18495163e-02 1.94442898e-01 7.23353177e-02
      4.42641787e-03 -1.79824293e-01 -5.70035018e-02 7.43739307e-02
      1.53094605e-01 -4.91214916e-02 1.48891345e-01 0. 1.43799931e-01
      1.55006424e-01 -1.78639106e-02 7.29119256e-02 4.74055260e-02
      6.80923834e-02 1.13682009e-01 -1.18757583e-01 -9.91492122e-02
      -5.40014729e-02 5.34808524e-02 1.61658242e-01 4.00172137e-02
      -5.35742156e-02 1.99645851e-02 -4.07175086e-02 -2.69470572e-01
      -2.29479909e-01 -5.49696311e-02 1.37677208e-01 1.51440933e-01
      8.24462399e-02 1.58454373e-01 6.36672974e-02 2.52625607e-02
      -3.46301883e-01 -2.01311678e-01 3.89059782e-02 3.31237614e-02
      -1.15425318e-01 4.00979929e-02 0. -7.51552638e-03 9.53507796e-02
      3.38493623e-02 -5.42938188e-02 4.03310694e-02 1.85939781e-02
      5.61875105e-03 -6.35762215e-02 9.70138013e-02 -7.86565840e-02
      -7.27468133e-02 6.22699894e-02 -7.54199922e-02 -2.44839974e-02
      1.02293409e-01 1.01514503e-01 -1.45008147e-01 -1.21910155e-01
      -7.14361668e-02 -2.68920548e-02 -5.47125116e-02 -1.09233148e-01
      4.35864031e-02 7.17021599e-02 6.91725984e-02 -1.21628240e-01
      -3.49776447e-03 -7.04358965e-02 -1.96328852e-02 3.11463345e-02
      1.80163924e-02 0. -7.02207163e-02 5.28898463e-02 1.35072574e-01
      5.13910502e-02 -5.94499111e-02 -7.85007253e-02 1.29867405e-01
      7.91484490e-02 4.64702770e-02 4.32271790e-03 -3.29797044e-02
      6.10488746e-03 1.62359979e-02 -1.03466764e-01 1.21717654e-01
      -4.06440757e-02 -3.72577086e-02 -8.55311751e-02 3.23096383e-03
      3.06677166e-02 1.44902676e-01 5.71337454e-02 -8.53441060e-02
      -4.54583205e-02 -3.27288695e-02 3.20912190e-02 -3.57124046e-03
      1.39186770e-01 7.44144395e-02 -6.48131818e-02 -8.50688368e-02 0.
      1.34782597e-01 -1.05352335e-01 8.68679509e-02 6.07866347e-02
      7.58041367e-02 -1.32465633e-02 9.14923623e-02 1.14873387e-02
      -1.75949540e-02 5.67234643e-02 1.49348527e-01 2.25642622e-02
      -2.77679637e-02 3.20103653e-02 -1.03338137e-01 -2.80264625e-03
      1.00174192e-02 -4.66396622e-02 1.51681947e-02 1.22419447e-01
      9.86857489e-02 1.91998444e-02 -7.61756673e-03 -4.37177978e-02
      -1.96267874e-03 -5.45600541e-02 -7.98445717e-02 -9.80446264e-02
      -8.96041922e-04 3.04149166e-02 2.64224082e-01 0. -6.85854629e-02
      4.60494198e-02 -1.46130726e-01 1.06442012e-01 -3.52944583e-02
      -5.69913425e-02 5.55394813e-02 4.20542248e-02 2.39515509e-02
      1.30221888e-01 5.60547598e-03 -9.73040238e-02 1.20317012e-01
      9.37935188e-02 -4.02029864e-02 1.13109328e-01 6.05813507e-03
      -1.08618163e-01 3.27287652e-02 2.77451873e-02 -8.12615231e-02
      1.58890516e-01 6.20134287e-02 -8.30795020e-02 7.90189207e-02
      8.14260095e-02 2.82756664e-04 4.91121635e-02 1.12653136e-01
      -9.15006474e-02 1.93083435e-02 0. -4.03910689e-02 8.81136581e-02
      1.20098874e-01 1.10129945e-01 1.05567113e-01 -4.49598534e-03
      -1.43575622e-02 -3.26362774e-02 -1.35257900e-01 1.59222156e-01
      -1.03682347e-01 1.27737643e-02 3.60928886e-02 9.49143991e-02
      3.26557904e-02 -1.00738872e-02 -1.10444561e-01 -1.97770610e-01
      -1.72939271e-01 -6.12505823e-02 1.25341088e-01 9.10275206e-02
      1.28575101e-01 3.52571681e-02 -9.22976807e-03 -4.64519002e-02
      -1.56656444e-01 -9.15094465e-02 1.04483277e-01 -2.19644476e-02
      6.10606819e-02 0. 8.15006196e-02 -9.24535915e-02 -1.15014696e-02
      1.13169059e-01 1.02317549e-01 1.71599299e-01 1.70199335e-01
      6.84605027e-03 -6.93142489e-02 -1.76688749e-02 -2.98723858e-02
      7.81429112e-02 -7.63196265e-03 5.92920147e-02 1.34403976e-02
      -9.73113775e-02 3.42885889e-02 -1.00413509e-01 -2.27748379e-01
      -1.30530261e-02 1.31605864e-01 1.72890469e-01 1.28874555e-01
      6.48496151e-02 6.71188459e-02 -2.36213189e-02 -1.23420870e-02
      -6.08414263e-02 3.44098993e-02 3.35168540e-02 1.83656543e-01 0.
      3.01316250e-02 -8.56986120e-02 2.91808825e-02 9.34603140e-02
      2.10764199e-01 5.67850173e-02 1.87281236e-01 3.82103249e-02
      3.18555646e-02 1.79529916e-02 -8.85503888e-02 8.70088786e-02
      -7.11684152e-02 1.04881346e-01 1.03044580e-03 -2.28987820e-02
      7.03975186e-03 -4.87778932e-02 -9.43931490e-02 -2.82787699e-02
      -5.46783383e-04 5.41329086e-02 1.71175942e-01 9.73801091e-02
      2.02309445e-01 4.60201092e-02 6.52924599e-03 1.12805761e-01
      1.23975523e-01 -3.19151431e-02 6.78333342e-02 0. 1.31092489e-01
      -2.42281973e-01 -7.65720801e-03 4.20702845e-02 1.88756380e-02
      -5.03964722e-02 2.31503755e-01 4.33672145e-02 -8.21744427e-02
      6.00306271e-03 -1.47089824e-01 -1.03988275e-01 -2.43418850e-02
      2.46924907e-02 1.19210497e-01 6.58746585e-02 3.13910581e-02
      -1.19799845e-01 -1.23447448e-01 -1.77360564e-01 -8.31400529e-02
      1.52526870e-02 -2.49039400e-02 2.18385141e-02 2.41651714e-01
      2.84145251e-02 -7.96190873e-02 -2.15028860e-02 4.12790030e-02
      -5.60832657e-02 6.30314462e-03 0. 1.08977742e-01 1.25445807e-02
      -1.08774342e-02 1.39031768e-01 -8.50380659e-02 -1.40676185e-01
      5.85190989e-02 -1.05526745e-01 -8.33945945e-02 4.24748324e-02
      -1.59289390e-01 1.34596201e-02 2.66678212e-03 -1.04149222e-01
      2.79199183e-01 1.58156499e-01 -1.62395537e-01 1.18972454e-02
      -4.93188426e-02 5.50465770e-02 -1.04276501e-02 1.05971649e-01
      -1.37995929e-01 4.71103601e-02 1.55034393e-01 -1.09851971e-01
      1.77533757e-02 -1.19803093e-01 -6.90901931e-03 2.98355836e-02
      8.53650272e-02 0. 2.98376642e-02 -8.02658498e-02 4.77212816e-02
      8.45128149e-02 -2.37995069e-02 -4.70453277e-02 1.31408736e-01
      1.16937757e-01 5.02557270e-02 1.96136951e-01 -1.85113139e-02
      -5.57648353e-02 -1.64140686e-02 -5.35119101e-02 7.47693628e-02
      7.03577604e-03 -1.34670973e-01 -3.35835703e-02 2.98657436e-02
      9.80976317e-03 -3.74147817e-02 9.75411534e-02 -1.17147028e-01
      -8.32995921e-02 6.78954050e-02 6.21300377e-03 2.53833998e-02
      1.31784752e-02 1.95023581e-01 -7.33890161e-02 -5.15513215e-03 0.
      -1.10084349e-02 -6.86409622e-02 8.06350783e-02 -5.15622683e-02
      -1.35127559e-01 -1.11373790e-01 7.20912516e-02 -1.04663000e-01
      -3.18539441e-02 1.76145822e-01 -5.94069832e-04 1.07600473e-01
      -8.02124888e-02 1.56638417e-02 2.55383909e-01 2.57618688e-02
      6.46485314e-02 -6.35080487e-02 -5.49753085e-02 2.88536586e-03
      2.16953512e-02 -7.51244202e-02 -1.18484490e-01 3.60705033e-02
      5.11469655e-02 -6.93756267e-02 -9.06786174e-02 -1.20248444e-01
      -3.27693522e-02 1.17058448e-01 1.01666048e-01 0. -9.64177996e-02
      6.12908229e-02 1.09645210e-01 7.97409415e-02 -1.26778901e-01
      -8.78420919e-02 -5.52087799e-02 -1.02546468e-01 -2.59304550e-02
      9.76278409e-02 -1.50994435e-01 1.15496404e-02 -1.78801849e-01
      -1.08368285e-01 6.93611428e-02 7.88075477e-02 1.86514296e-02
      3.48216034e-02 7.80211464e-02 -2.71538347e-02 1.17916606e-01
      -5.48181124e-02 -8.15738663e-02 -4.46117334e-02 -6.14232663e-03
      -2.65262164e-02 6.37233704e-02 -5.70839122e-02 6.04329742e-02
      -1.13066442e-01 -6.53572232e-02 0. 1.49173111e-01 -5.88238053e-02
      -1.00036889e-01 1.30400425e-02 5.59392385e-02 -2.69084666e-02
      -1.76054120e-01 -1.64949104e-01 3.29160877e-02 1.08967140e-01
      -1.59718134e-02 -6.62592426e-02 8.96762591e-03 7.16297925e-02
      1.32307798e-01 1.25345081e-01 8.55818614e-02 -1.00511290e-01
      -1.22694522e-02 -6.74966499e-02 -1.57795474e-01 1.11053437e-02
      3.27625982e-02 1.44412485e-03 3.83004732e-02 3.62475887e-02
      -5.18233404e-02 -7.14934170e-02 1.10464571e-02 -1.17174173e-02
      1.07214436e-01 0. 1.02134563e-01 -2.81533618e-02 1.54895559e-02
      -1.89579818e-02 4.02543657e-02 -9.99105945e-02 -5.49568608e-02
      -1.18546654e-02 3.01375054e-02 4.69201542e-02 -8.08600560e-02
      -6.39887759e-03 2.89798435e-02 1.82118773e-01 -5.26724719e-02
      -7.98590407e-02 3.70360389e-02 6.67450763e-03 -3.60283293e-02
      -1.21452427e-02 8.99764709e-03 3.17374058e-02 5.94539270e-02
      -2.00898051e-01 -1.81932151e-02 -4.01727520e-02 4.14399020e-02
      -4.83954884e-02 2.12589577e-02 -4.38896008e-02 9.74817500e-02 0.
      1.97743505e-01 -5.94163090e-02 -8.16067532e-02 -1.27765447e-01
      -2.28963457e-02 3.80791128e-02 -3.09591815e-02 -4.70985956e-02
      -1.30318599e-02 1.83138147e-01 -3.07221618e-02 1.20267734e-01
      -4.80997674e-02 1.36446115e-02 1.04387745e-01 3.79296206e-02
      -4.97510508e-02 -3.30475681e-02 6.64013699e-02 -4.58547734e-02
      -6.66665137e-02 -5.45935370e-02 -1.21031582e-01 2.51416024e-02
      3.10048945e-02 -8.16718265e-02 6.35319278e-02 3.15875039e-02
      1.46531790e-01 -6.26780242e-02 -4.43563052e-02 0. 9.69889387e-02
      -8.52611735e-02 -9.96755809e-02 -1.05294175e-01 1.80295423e-01
      4.53488976e-02 1.73979662e-02 -1.49727151e-01 -9.54283476e-02
      9.89747941e-02 -2.37947330e-02 1.36076570e-01 1.17758006e-01
      7.39353299e-02 1.13399876e-02 5.74498326e-02 -8.97196531e-02
      -4.56689559e-02 -1.03225611e-01 -5.12486920e-02 7.66146705e-02
      6.48669675e-02 1.80122674e-01 -3.87204476e-02 7.42490962e-02
      -1.01069003e-01 -7.03317970e-02 -1.73074827e-02 1.08039923e-01
      -1.68053396e-02 -7.46162888e-03 0. -1.29167484e-02 6.13581911e-02
      -7.58318305e-02 7.22193271e-02 3.29171419e-02 -6.94279000e-02
      9.47960019e-02 -3.48453131e-03 2.42668670e-02 -3.73300887e-03
      6.19165860e-02 -7.45150298e-02 -1.52866729e-02 -1.26429394e-01
      1.95723288e-02 -3.42481397e-02 -3.57196406e-02 -1.88008547e-01
      -6.02555685e-02 1.30973369e-01 -7.11542219e-02 2.93051321e-02
      -5.87605350e-02 -7.84859583e-02 4.15561758e-02 -1.78641211e-02
      -1.37663230e-01 -2.14109212e-01 -4.38554734e-02 -1.71482079e-02
      1.46630451e-01 0. 4.49024662e-02 5.31466976e-02 -4.13273275e-02
      7.88456947e-02 -9.97480378e-02 -1.26488894e-01 5.37877828e-02
      2.14364659e-02 6.02230579e-02 7.89898410e-02 -3.07795499e-02
      3.23355198e-02 -4.40236740e-02 3.93456817e-02 1.37016401e-01
      -1.37602519e-02 1.84069425e-01 -2.10084748e-02 -2.51000319e-02
      1.80430003e-02 7.01611210e-03 3.09343990e-02 -1.54378377e-02
      -1.89850867e-01 -1.74234316e-04 1.03050753e-01 6.11620694e-02
      4.65847775e-02 1.63851619e-01 -8.69559422e-02 6.83617815e-02 0.
      1.12063056e-02 5.58672771e-02 4.23185900e-02 4.39994112e-02
      6.48502111e-02 -1.69023752e-01 8.31714794e-02 5.14403805e-02
      -2.89086699e-02 7.81027153e-02 -1.43540418e-02 5.22032101e-03
      -1.09497599e-01 -5.79528026e-02 1.36720553e-01 6.42448440e-02
      2.28915643e-02 -9.61365029e-02 -6.03913292e-02 1.55741274e-02
      1.97021458e-02 -6.80994838e-02 -3.66362631e-02 -3.43676172e-02
      6.08396828e-02 5.47380261e-02 -5.71613833e-02 -7.95862898e-02
      -5.65046594e-02 1.11061811e-01 1.11842304e-01 0. 9.56811532e-02
      -6.87161684e-02 -4.86071594e-02 -1.24529816e-01 1.56037975e-02
      -3.23620252e-02 1.04654953e-01 -4.58942093e-02 -2.60683298e-02
      1.03249997e-01 -1.12142764e-01 6.33908585e-02 4.14136052e-02
      -1.83531200e-03 2.58671232e-02 1.30102500e-01 -6.02004351e-03
      -7.06182122e-02 1.71873178e-02 -1.40226975e-01 4.61682454e-02
      -1.06675409e-01 -4.97994237e-02 -5.33745736e-02 1.47960365e-01
      -5.34396283e-02 -9.78927091e-02 -8.04491458e-04 8.52059200e-02
      -4.58605587e-02 -1.81905515e-02 0. 6.60471395e-02 -1.86012506e-01
      -1.71001721e-02 -1.20364331e-01 1.05899557e-01 1.67849571e-01
      1.69562310e-01 -8.37594867e-02 -5.94323128e-02 3.49046625e-02
      -7.90694207e-02 -1.41331360e-01 1.25977229e-02 1.69751003e-01
      2.69809067e-02 6.33078739e-02 1.38880625e-01 2.08220240e-02
      -1.31904915e-01 -2.22398132e-01 -8.75060782e-02 -9.23904181e-02
      1.41766265e-01 -2.56643873e-02 1.32740006e-01 2.31842417e-02
      -6.21958859e-02 5.18732965e-02 1.82495806e-02 -2.37065889e-02
      9.00699347e-02 0. 9.41167846e-02 4.63127457e-02 9.47489962e-02
      -1.52259124e-02 -1.84593711e-03 -6.81493059e-02 9.41439793e-02
      8.16485584e-02 2.69414365e-01 1.83150351e-01 -6.28428832e-02
      -6.77997172e-02 -1.58948395e-02 6.56586811e-02 3.68720032e-02
      -3.96111049e-02 2.67396104e-02 -9.68670938e-03 9.66181010e-02
      9.60831270e-02 -1.03359278e-02 -2.51296367e-02 -6.20550886e-02
      -1.73465922e-01 6.25117263e-03 5.61983287e-02 1.09494507e-01
      3.54687572e-02 6.92162812e-02 1.03122041e-01 1.27711728e-01 0.
      2.52433777e-01 1.67927504e-01 1.26848564e-01 -4.17498220e-03
      -6.00242987e-02 -6.82092533e-02 -1.06320694e-01 1.59774087e-02
      7.44848624e-02 1.55943856e-01 -1.31115139e-01 2.53836699e-02
      -5.76487258e-02 3.61657552e-02 2.54429709e-02 3.37976366e-02
      8.85733776e-03 -2.22917441e-02 1.11770101e-01 8.45309570e-02
      7.69771785e-02 -2.64767297e-02 -1.29209712e-01 -1.23725116e-01
      -8.92763212e-02 3.01535428e-02 9.04748589e-02 6.87213019e-02
      1.17434770e-01 -1.02297601e-03 3.80646959e-02 0. -2.70526521e-02
      -8.07519928e-02 -8.12932383e-03 7.69725367e-02 9.41265225e-02
      2.68808305e-02 3.06986040e-03 -8.82875174e-02 -9.69681218e-02
      2.03776490e-02 3.07289767e-03 5.52970264e-03 2.39316486e-02
      1.04344487e-01 3.47147435e-02 4.11548689e-02 -1.04193680e-01
      -1.29944514e-02 -2.45835990e-01 -6.34237826e-02 -5.52613251e-02
      1.96667497e-05 2.20497157e-02 2.26763263e-02 1.29277995e-02
      -5.25722168e-02 -1.15505084e-01 -1.07766204e-01 3.24067771e-02
      2.71073133e-02 5.56993112e-02 0. 2.86902338e-02 -3.95166911e-02
      7.96071142e-02 8.15214366e-02 1.57215409e-02 -7.07581192e-02
      -3.55383046e-02 -3.41389403e-02 7.28779659e-02 7.32564479e-02
      -5.34062833e-02 -5.29218130e-02 1.29234746e-01 6.10430129e-02
      -1.29521703e-02 6.98602870e-02 9.85043272e-02 -1.49064094e-01
      -1.30094141e-01 -2.62387972e-02 -3.83148976e-02 1.06255367e-01
      6.61882013e-02 -1.04757540e-01 7.26645300e-03 7.99590796e-02
      -1.07168719e-01 -8.41328949e-02 -4.92158486e-03 6.75580055e-02
      1.45013019e-01 0. -1.28142629e-02 1.45103829e-02 5.72896972e-02
      -3.35915312e-02 -9.47829857e-02 -1.57937314e-02 7.18816370e-02
      3.70418169e-02 9.24279541e-02 7.27973953e-02 -8.27784017e-02
      3.02248970e-02 1.57956257e-01 1.24563254e-01 -1.95032060e-02
      -1.90102875e-01 1.25428811e-02 1.95409834e-01 -9.02143642e-02
      -9.34976637e-02 3.00565679e-02 9.11966488e-02 6.71006590e-02
      -6.34352416e-02 -1.26291573e-01 3.94677334e-02 1.87935412e-01
      7.75396377e-02 1.96644530e-01 -4.17068489e-02 -3.57719623e-02 0.
      7.38518164e-02 -1.96268335e-02 1.06116742e-01 4.83935326e-02
      3.55199389e-02 -1.97682735e-02 -2.06797067e-02 -1.32744275e-02
      1.39484614e-01 6.40578717e-02 2.18597114e-01 7.78298825e-02
      -1.52008727e-01 3.88332903e-02 1.20647565e-01 -4.85538319e-02
      1.09234899e-02 -1.18134260e-01 1.17861845e-01 1.95933089e-01
      1.54992834e-01 -6.32074848e-02 -6.06237687e-02 -3.30882557e-02
      -5.33004291e-02 2.23860331e-02 2.46385392e-02 1.02626784e-02
      1.31336190e-02 3.33465859e-02 1.98854819e-01 0. 1.82487637e-01
      -1.83889642e-02 -2.43760590e-02 5.47304424e-03 1.20428130e-01
      7.69015774e-02 6.30431771e-02 -5.02469055e-02 -3.40305306e-02
      -2.62964424e-02 2.65553277e-02 9.23644230e-02 3.56713869e-02
      1.34049535e-01 7.30819032e-02 7.13959038e-02 -1.26927361e-01
      -1.32353783e-01 -6.48553073e-02 -6.27623796e-02 1.05158031e-01
      1.05329745e-01 9.98867303e-02 7.04062581e-02 1.34626240e-01
      -1.69753090e-01 -7.18170628e-02 1.52704298e-01 4.87337671e-02
      -3.41216363e-02 5.36909588e-02 0. -4.04780917e-03 -8.93004164e-02
      1.23785017e-02 -7.04590306e-02 1.34319598e-02 -1.25017129e-02
      1.68172177e-02 3.35813314e-02 -1.33246645e-01 5.51217794e-02
      -8.73375311e-02 -1.21975832e-01 1.81644335e-01 1.00188874e-01
      4.03745174e-02 -2.68193427e-02 1.07385963e-02 -1.17590174e-01
      -2.67750144e-01 -9.90064740e-02 5.04872249e-03 1.49463117e-01
      6.76788166e-02 -1.36882275e-01 -3.34053785e-02 5.37868217e-02
      -1.34290114e-01 1.18661467e-02 -2.94042025e-02 1.55852083e-02
      -9.18564275e-02 0. 2.70093322e-01 -3.39044221e-02 -2.50025745e-02
      2.76366621e-02 2.43315876e-01 1.11355083e-02 1.16594341e-02
      -6.32022694e-02 -6.01126067e-02 5.39376736e-02 -4.84669097e-02
      1.40382694e-02 2.47670803e-02 -1.44434068e-03 -8.50191861e-02
      -6.90964516e-03 1.92838803e-01 9.07203853e-02 -8.83945748e-02
      9.35909280e-04 1.50139891e-02 1.61071252e-02 7.66674813e-04
      -1.94773957e-01 8.96967854e-03 -9.27524734e-03 -3.84404399e-02
      3.14759910e-02 5.69233410e-02 8.78425837e-02 1.14178680e-01 0.
      5.44889942e-02 -7.09547177e-02 -6.86471239e-02 -1.09894376e-03
      1.30928427e-01 1.79829314e-01 1.28682116e-02 2.02528816e-02
      9.49149393e-03 2.60718763e-01 -6.49729446e-02 1.68177605e-01
      -8.55200067e-02 -1.11307248e-01 7.71615580e-02 1.02526061e-01
      2.61029936e-02 -1.89601853e-01 -1.08980201e-02 -1.10866100e-01
      -3.67501229e-02 -8.15831646e-02 -1.22966968e-01 5.38294576e-02
      4.73616533e-02 3.12918946e-02 -5.43172993e-02 6.84750751e-02
      1.20393604e-01 3.40081431e-04 2.31302753e-02 0. 2.05635615e-02
      -1.31074950e-01 -3.69393872e-03 3.75722982e-02 -5.82207516e-02
      9.86978412e-03 4.45621350e-04 2.62773652e-02 -4.70291153e-02
      -8.21047649e-02 1.97134260e-02 7.35448226e-02 -4.14453819e-03
      -6.16024435e-02 2.22193614e-01 1.31852046e-01 -1.41436562e-01
      -1.02443263e-01 -3.37356240e-01 -1.32739648e-01 4.36094999e-02
      2.65995902e-03 -2.95543730e-01 1.25218078e-01 9.92369130e-02
      -1.32888304e-02 -5.15580699e-02 -6.01856112e-02 -1.38375154e-02
      -2.05280930e-02 5.22582382e-02 0. -4.23935102e-03 -9.86074060e-02
      7.43844220e-03 -2.32069679e-02 6.48993030e-02 4.75430712e-02
      -7.24915490e-02 3.20048183e-02 8.93209875e-03 1.28777981e-01
      -1.33934587e-01 -8.90465602e-02 9.01291296e-02 6.72004893e-02
      5.31951785e-02 5.48767932e-02 7.73217455e-02 6.03450797e-02
      -7.12459832e-02 -1.06909044e-01 -1.25066146e-01 1.10286683e-01
      1.46512780e-02 -4.36950698e-02 -2.58279964e-02 1.70721605e-01
      -2.03396305e-02 -1.40042022e-01 3.66463251e-02 9.69102979e-02
      1.34299710e-01 0. 1.32978652e-02 2.97329817e-02 -4.82005812e-02
      -1.09521098e-01 1.46354184e-01 1.77592814e-01 2.35304283e-03
      1.71915144e-02 -4.14277613e-03 3.93756106e-03 -4.45092618e-02
      2.85921153e-02 1.62066035e-02 2.16407739e-02 4.72946875e-02
      -1.44700646e-01 4.59758677e-02 1.65422857e-01 -1.27910990e-02
      2.02040169e-02 -2.86309095e-03 -6.68518022e-02 7.02651888e-02
      9.78183746e-03 -1.44358221e-02 7.23815709e-02 1.03964895e-01
      3.32944881e-04 2.22293347e-01 -6.79919347e-02 1.71996597e-02 0.
      -3.59980762e-03 -1.26351938e-01 -9.28591713e-02 -1.40018910e-01
      2.83508096e-02 3.73831741e-03 4.04826924e-02 -4.14082110e-02
      -2.03610472e-02 -3.71089466e-02 1.09639376e-01 8.30587596e-02
      -1.11656137e-01 1.27774835e-01 1.59900278e-01 4.93320338e-02
      7.88478628e-02 -2.24690437e-02 -9.78144854e-02 -4.96909134e-02
      2.64763571e-02 -1.52868465e-01 3.84583883e-02 -1.53317451e-02
      7.31351972e-02 -3.31478827e-02 -9.65844542e-02 -6.71506003e-02
      -7.88594130e-03 1.58227794e-02 9.94203091e-02 0. 6.54336214e-02
      -1.16677947e-01 -6.40738010e-02 -5.55674434e-02 1.51438974e-02
      8.07056352e-02 1.37401633e-02 -5.96298911e-02 3.59355137e-02
      4.37161289e-02 6.49981126e-02 4.36329767e-02 -7.66956285e-02
      -6.73581101e-03 -6.84558004e-02 4.28957231e-02 6.07914105e-02
      7.85415694e-02 -7.70775005e-02 1.70886684e-02 -2.68554520e-02
      -1.10030018e-01 1.69699546e-02 -5.21784015e-02 7.57145807e-02
      -1.47426836e-02 1.11195430e-01 4.53178249e-02 1.25599250e-01
      -7.39647448e-02 -5.08972853e-02 0. 1.03843547e-01 -5.52833155e-02
      1.16928361e-01 2.39504166e-02 -7.85364360e-02 -9.44832414e-02
      -1.16387263e-01 -4.70047779e-02 -2.08303586e-01 8.91437680e-02
      -1.69479996e-01 -7.99503643e-03 6.77943453e-02 -4.55688201e-02
      4.46909061e-03 2.25564957e-01 9.45050567e-02 -1.17927203e-02
      -1.32510781e-01 -7.63087496e-02 1.26918897e-01 1.29780501e-01
      -9.79880765e-02 -1.47441551e-01 1.18366681e-01 7.79983848e-02
      -6.96317926e-02 -5.46549000e-02 2.39127632e-02 -7.86371231e-02
      5.81684709e-02 0. 1.78432733e-01 -2.12987930e-01 -1.72531471e-01
      2.76588015e-02 9.45697948e-02 6.12148792e-02 9.34856292e-03
      -6.73559606e-02 -2.55098164e-01 5.81088774e-02 -7.83071853e-03
      6.71830997e-02 9.79333147e-02 9.96085405e-02 1.70498677e-02
      1.66739941e-01 1.11595653e-01 1.59190949e-02 -1.78540140e-01
      -8.70693550e-02 -6.58759549e-02 1.19999297e-01 6.35012835e-02
      -4.39629517e-02 1.52585104e-01 8.00778195e-02 -1.13343939e-01
      -2.11452600e-02 5.54490723e-02 -3.49530838e-02 1.37147322e-01 0.
      -4.31937492e-03 -1.79665357e-01 -5.65895289e-02 -1.99372042e-02
      1.25544131e-01 2.78189275e-02 -5.80441579e-03 -1.47528216e-01
      -1.15812078e-01 2.42834300e-01 -1.08306194e-02 1.85236022e-01
      1.73524320e-01 9.92579833e-02 2.14890093e-02 6.52912259e-02
      -3.15435119e-02 7.05103874e-02 -1.29580021e-01 -3.36053260e-02
      1.07014365e-01 1.46801993e-01 2.56915689e-02 -5.78448586e-02
      9.00247619e-02 -1.15165263e-01 5.07446891e-03 6.93919212e-02
      7.78448135e-02 1.39331613e-02 4.59991135e-02 0. 9.26641524e-02
      -5.07912338e-02 9.33541581e-02 -9.29587558e-02 -1.28169596e-01
      -6.49945661e-02 6.36287034e-02 5.48903160e-02 -6.83640540e-02
      1.42818153e-01 6.32388517e-02 9.72890109e-02 1.63056418e-01
      8.51148367e-02 1.97595134e-02 -1.49300313e-02 -7.45059699e-02
      -2.81764884e-02 -1.14038892e-01 -5.70103452e-02 1.43170804e-01
      6.41089156e-02 -7.06513077e-02 -8.60189945e-02 7.70968795e-02
      3.89314778e-02 -1.00547910e-01 -2.28795279e-02 5.19416928e-02
      5.23176752e-02 8.49883109e-02 0. -2.88422350e-02 5.09782843e-02
      2.18581744e-02 -1.04640117e-02 8.04686695e-02 -6.74632639e-02
      -8.30789730e-02 -2.20104586e-02 -4.59188707e-02 1.26362398e-01
      -4.02792878e-02 6.77636638e-02 2.18335800e-02 -6.24276102e-02
      -3.44689824e-02 -2.79952101e-02 4.33041155e-02 1.70215309e-01
      -3.67116742e-02 1.16593353e-01 8.50889012e-02 -1.63743214e-04
      -2.84342077e-02 -2.02632844e-01 -1.03184551e-01 1.16506321e-02
      8.93942267e-02 -7.22204521e-02 -9.52918306e-02 7.73701742e-02
      1.65488482e-01 0. -1.84584712e-03 -7.04462677e-02 -1.46382645e-01
      -5.55870496e-02 8.88863727e-02 2.09359750e-02 -1.16487414e-01
      -8.63554403e-02 -1.36685446e-01 2.36472666e-01 8.91678557e-02
      1.20786853e-01 6.86415806e-02 2.37674545e-02 1.86503828e-01
      -3.09620816e-02 4.84287553e-02 1.07415609e-01 -3.59394923e-02
      5.31265466e-03 -5.63939214e-02 1.31576387e-02 -8.57384468e-04
      5.92812859e-02 -5.11129275e-02 -5.54234302e-03 -4.54310887e-02
      2.78127454e-02 1.13823891e-01 -5.82100870e-03 2.74088979e-02 0.
      1.69063553e-01 -3.60933393e-02 -3.74865979e-02 3.07839662e-02
      3.61355729e-02 7.31136575e-02 -3.75524834e-02 -6.44408762e-02
      -8.11848119e-02 6.30122051e-02 -6.74326047e-02 1.07270017e-01
      2.25704107e-02 1.04129292e-01 3.88502106e-02 -9.17063933e-03
      1.26210287e-01 6.84055239e-02 3.60559411e-02 -1.58054590e-01
      1.32219791e-01 4.91533102e-03 -5.58807254e-02 -1.01432942e-01
      -3.28394696e-02 4.19988818e-02 3.43048759e-02 1.03953043e-02
      8.22562948e-02 5.37181236e-02 9.22450870e-02 0. 2.80301064e-01
      2.56579872e-02 -1.87657215e-02 2.67242752e-02 2.29831636e-02
      -1.40148982e-01 -3.58242483e-04 -7.27788955e-02 2.50882320e-02
      1.53374717e-01 -6.26597479e-02 8.71644728e-03 -8.44479203e-02
      -9.09584090e-02 8.70508403e-02 -3.58065106e-02 -2.31397934e-02
      3.74972522e-02 9.01818797e-02 -4.22673475e-04 5.00788689e-02
      -9.03790593e-02 -3.29393297e-02 -2.36758869e-02 -2.97482274e-02
      -4.39968072e-02 1.65308099e-02 6.39381781e-02 7.77369142e-02
      -6.35748804e-02 -1.28915766e-02 0. 1.41339451e-01 -8.30844939e-02
      -1.29662052e-01 7.47681037e-02 -5.91540523e-03 -7.89565593e-02
      -8.48140717e-02 -4.67677377e-02 -9.82562527e-02 8.33661854e-02
      -1.30873859e-01 -5.41927367e-02 5.61100021e-02 -1.09942332e-02
      7.49151483e-02 1.58969507e-01 8.79487619e-02 -8.63406155e-03
      -2.01603770e-01 -6.31817281e-02 -7.77246058e-02 1.37737483e-01
      -9.99427065e-02 -8.94991234e-02 7.76494145e-02 1.14448391e-01
      -1.75929442e-02 -7.69089733e-04 9.75433551e-03 -6.96318969e-02
      3.48449126e-02 0. -2.08329726e-02 -3.42886329e-01 -1.80160657e-01
      1.25571461e-02 8.69519413e-02 -6.54554367e-02 5.08462116e-02
      -1.59321781e-02 -1.02477662e-01 1.55715600e-01 -2.49260440e-02
      -5.67997545e-02 9.46462229e-02 1.40057072e-01 8.43314901e-02
      5.67334369e-02 1.80026829e-01 -1.07131049e-01 -2.73987025e-01
      -1.86522380e-01 -2.44770214e-01 9.42918137e-02 1.95342034e-01
      3.33935916e-02 1.10444918e-01 1.25890896e-01 -1.09637156e-01
      1.87198387e-03 -1.90890003e-02 -5.07695936e-02 4.21840176e-02 0.
      9.93760526e-02 -2.27144696e-02 -1.81860887e-02 -7.14172572e-02
      5.01507893e-02 2.64415890e-02 5.53175919e-02 -1.39311686e-01
      -2.58546323e-01 -1.22472197e-01 -1.53714597e-01 1.09734826e-01
      9.07744244e-02 1.41433552e-01 8.54375288e-02 8.66351798e-02
      -8.84661749e-02 3.02405935e-02 -2.38102213e-01 -1.66571850e-03
      9.97945219e-02 4.12381589e-02 8.30237865e-02 7.28224963e-02
      9.23179761e-02 -2.82443225e-01 -1.39464706e-01 -1.14555797e-02
      3.28677259e-02 -1.98068283e-03 -6.62351772e-02 0. -1.75370313e-02
      -1.25968382e-02 2.51953285e-02 -1.06163569e-01 -3.60075533e-02
      3.85916932e-03 1.61310852e-01 -1.27249613e-01 -1.42030850e-01
      1.20791703e-01 -8.17316957e-03 5.19144572e-02 1.28316224e-01
      5.59306704e-02 -1.45583171e-02 2.57924125e-02 -1.31032586e-01
      -1.69990957e-01 -2.31445283e-01 1.73595492e-02 9.13531110e-02
      4.78973612e-02 -1.81895662e-02 -7.38501996e-02 2.17193082e-01
      -9.66492072e-02 -1.34360135e-01 -8.99651051e-02 -3.16027179e-02
      5.36690606e-03 2.55838167e-02 0. 6.84203357e-02 -7.46783167e-02
      -5.82335889e-02 -4.99225222e-02 -1.29014462e-01 -1.32992351e-02
      2.04892736e-02 -7.19889700e-02 6.37930036e-02 1.07450105e-01
      -6.26238808e-02 6.95358869e-03 -5.15862182e-02 8.83073583e-02
      -6.19026050e-02 -1.03395125e-02 5.88838942e-02 -4.29330841e-02
      5.04708067e-02 -6.71047643e-02 -4.59760055e-02 -1.42979220e-01
      -3.14479545e-02 -8.00120458e-02 1.05896806e-02 4.36635166e-02
      -3.29858400e-02 -7.40719959e-02 -1.03713080e-01 1.86243337e-02
      5.91179654e-02 0. 3.08789667e-02 -6.03879988e-02 3.24314646e-02
      1.26798060e-02 1.01301782e-01 6.74857423e-02 5.32599315e-02
      3.40166613e-02 -2.72038542e-02 1.12655982e-01 -3.49698253e-02
      -1.13045974e-02 -1.89910065e-02 3.01995706e-02 -1.28067536e-02
      7.99469873e-02 9.77579877e-02 -2.90836929e-03 5.15366644e-02
      -4.06006463e-02 7.53398752e-03 -1.41787473e-02 8.17420427e-03
      -3.28262001e-02 1.33249253e-01 1.46933898e-01 -6.70841113e-02
      5.29935174e-02 6.39094263e-02 3.67383659e-02 7.45363012e-02 0.
      1.60989031e-01 1.16319008e-01 5.39569370e-02 6.27214536e-02
      3.21085192e-02 5.14815859e-02 2.67158132e-02 3.85124385e-02
      1.82026606e-02 1.07072011e-01 3.88208963e-02 2.07724124e-02
      -7.35048056e-02 2.69496236e-02 3.40103544e-02 -1.12980030e-01
      4.92230169e-02 -7.63782412e-02 1.44603610e-01 5.14480695e-02
      1.22206025e-01 -2.05189865e-02 -3.20521519e-02 -3.60656939e-02
      -7.08527938e-02 5.16888648e-02 -3.54535468e-02 5.69734611e-02
      4.90932316e-02 6.93675056e-02 9.56173614e-02 0. 8.33087638e-02
      -8.95049050e-02 -8.45908374e-03 7.88694099e-02 -6.16679303e-02
      -3.72784585e-02 2.88564386e-03 -1.40978992e-02 1.92260966e-02
      1.09342456e-01 -4.25753109e-02 -6.69905096e-02 4.61030239e-03
      -4.44508269e-02 -1.99812930e-02 6.83504902e-03 8.83678645e-02
      -1.82206929e-02 5.82914315e-02 -3.06947306e-02 -2.64322199e-02
      6.17254004e-02 -8.55050832e-02 -4.28748615e-02 5.07283723e-03
      4.53066528e-02 -3.84644642e-02 4.73894216e-02 5.09252697e-02
      -2.72657108e-02 -7.56599084e-02 0. 1.23010688e-01 -3.94511074e-02
      1.53947127e-04 -3.04676536e-02 2.22715214e-02 6.05040342e-02
      -2.47289259e-02 9.30149034e-02 -3.88075821e-02 6.32795393e-02
      -1.09714836e-01 -3.95800947e-04 4.09580991e-02 3.80669832e-02
      2.57463870e-03 1.27025276e-01 2.19911523e-02 4.05715927e-02
      -1.23372972e-01 -3.36676165e-02 9.58999619e-03 -3.30445804e-02
      -1.32440835e-01 -4.84242104e-02 9.24077630e-02 1.52319938e-01
      -9.68862511e-03 1.01696081e-01 4.27796841e-02 2.90961601e-02
      1.02064209e-02 0. 8.08243454e-03 -1.61552131e-01 -9.05291140e-02
      1.01996996e-02 4.68146577e-02 7.16332793e-02 9.01135281e-02
      5.70740364e-02 -1.24445915e-01 -1.54917045e-02 5.32782264e-03
      -3.14744338e-02 1.00690722e-01 3.53049189e-02 6.60993680e-02
      1.49921263e-02 6.63897842e-02 -4.24659289e-02 -1.69538662e-01
      -4.80626784e-02 5.87925501e-03 1.44998372e-01 5.88924550e-02
      8.32813457e-02 1.73819810e-01 1.83895111e-01 4.27372800e-03
      1.06880672e-01 8.53058789e-03 -3.03393928e-03 -6.20491989e-02 0.
      9.89331678e-03 -1.03944488e-01 5.37656397e-02 1.46815300e-01
      7.62834325e-02 1.82831325e-02 4.59900945e-02 -1.35131136e-01
      -1.69060886e-01 -5.27455732e-02 -8.01193863e-02 5.65616526e-02
      3.00930720e-02 1.19029097e-01 6.90720007e-02 5.96048161e-02
      6.69248104e-02 -6.49964362e-02 -1.05236843e-01 -2.10031420e-02
      1.20971307e-01 1.81047752e-01 1.66981563e-01 7.93002322e-02
      1.82159007e-01 -1.65945310e-02 -6.92456365e-02 -5.42006874e-03
      -4.33472320e-02 1.00039870e-01 1.77019723e-02 0. 1.69411544e-02
      -2.32162829e-02 2.78868731e-02 1.97798852e-02 5.53374104e-02
      -7.96413720e-02 1.33704895e-03 -1.09287247e-01 -7.09755495e-02
      2.29408175e-01 6.07293509e-02 8.25524479e-02 5.66793233e-02
      8.07950720e-02 5.52207455e-02 7.82779381e-02 5.42262495e-02
      -5.56881540e-02 -9.95229706e-02 -1.35596283e-02 1.13535233e-01
      4.08880562e-02 1.76577608e-03 -1.56723768e-01 4.01264355e-02
      -5.76415248e-02 -3.12641263e-02 2.57372335e-02 -2.31200270e-02
      1.29748806e-01 9.40771401e-02 0. 7.41465241e-02 6.79046363e-02
      -2.38112919e-02 -5.50212562e-02 -3.96060310e-02 -1.56509295e-01
      5.61116487e-02 -6.34902418e-02 2.37913076e-02 8.63212198e-02
      -2.12519094e-02 1.25057817e-01 3.39963064e-02 -8.03653598e-02
      -1.08897738e-01 4.53168340e-02 9.77986306e-02 3.56622487e-02
      1.20575294e-01 -1.42697822e-02 8.01313743e-02 -5.73826348e-03
      -8.83330256e-02 -1.84503660e-01 4.88527827e-02 5.15379161e-02
      -2.59782211e-03 -4.20132764e-02 -3.24312337e-02 5.43780550e-02
      6.58649132e-02 0. 8.68547931e-02 -8.78849905e-03 1.10275723e-01
      -7.56465942e-02 9.13634822e-02 -7.22263306e-02 4.62728180e-02
      3.03547122e-02 4.23471332e-02 1.24004260e-01 -1.07977353e-01
      -5.45159802e-02 4.62659560e-02 1.62177429e-01 8.15222189e-02
      -1.03867427e-01 4.43495214e-02 -4.25515175e-02 1.09921418e-01
      -2.85642501e-02 3.41822766e-02 -5.23600057e-02 1.29253045e-01
      -4.34154123e-02 -1.07938759e-01 6.90236911e-02 -1.45588398e-01
      2.54283901e-02 4.79699895e-02 5.04381619e-02 6.48245066e-02 0.
      2.26436466e-01 -4.49464843e-02 2.19964553e-02 -9.63764787e-02
      1.37619898e-02 -3.87375131e-02 1.01259835e-01 -1.31882457e-02
      -3.77650857e-02 5.07984646e-02 2.14005169e-02 4.29890975e-02
      8.45195800e-02 -1.52226478e-01 1.36335776e-03 -9.94505584e-02
      4.07863595e-02 7.00306520e-02 5.20652719e-02 -2.41347998e-02
      9.33185872e-03 -2.26342361e-02 -1.23695835e-01 -1.10344641e-01
      6.80827349e-02 1.07275657e-01 8.85495538e-05 -5.81530742e-02
      4.25914936e-02 9.61288996e-03 9.67647657e-02 0. -1.59017369e-01
      -1.48818910e-01 -2.84139663e-02 2.26789471e-02 -2.21066717e-02
      2.53622998e-02 -7.68487677e-02 -1.29796281e-01 -4.86672781e-02
      7.20939264e-02 2.00275658e-03 3.71743441e-02 5.69640324e-02
      -7.02063590e-02 5.70771843e-02 -2.04549748e-02 -3.68641526e-03
      9.60903168e-02 -1.40277281e-01 -3.44059467e-02 7.02882884e-03
      7.79654533e-02 -1.55897308e-02 -2.02280153e-02 -4.63361330e-02
      -7.58294091e-02 -3.38826217e-02 -2.52280403e-02 8.43661875e-02
      -1.58708602e-01 -6.00329749e-02 0. 9.60042104e-02 3.39779332e-02
      -1.08625084e-01 -6.91215843e-02 -5.02782613e-02 -9.45373625e-03
      -7.30938390e-02 -1.12326905e-01 -1.36433542e-01 -6.49213716e-02
      -1.80393472e-01 -4.19617556e-02 -8.40620846e-02 2.23524198e-01
      -3.61197367e-02 3.57157551e-02 3.59603716e-03 1.24346420e-01
      -9.03822258e-02 -1.11738302e-01 -4.42489684e-02 -1.95843115e-01
      5.25223576e-02 -8.03996399e-02 6.03183806e-02 -8.71437564e-02
      -7.93061703e-02 -4.10311520e-02 3.35230529e-02 -1.96498513e-01
      -7.94741791e-03 0. -4.59791906e-02 1.93112455e-02 -2.53687780e-02
      -9.28069800e-02 -7.32047949e-03 1.33937359e-01 2.77815070e-02
      1.01138512e-02 -8.13537687e-02 -9.66319516e-02 -9.88868847e-02
      -7.87264779e-02 -3.12785842e-02 1.43803999e-01 1.46702239e-02
      7.05849156e-02 -9.77204219e-02 -8.50580484e-02 -3.23633939e-01
      -7.76133612e-02 -1.37635291e-01 -9.69668627e-02 5.77828400e-02
      1.54100552e-01 1.48470268e-01 -5.41041121e-02 -1.31207943e-01
      -4.32037115e-02 6.32221177e-02 -1.18261769e-01 -5.30422740e-02 0.
      -1.49397880e-01 -7.57810026e-02 9.70326737e-02 2.78423447e-02
      1.89407796e-01 -2.16117948e-02 -1.53872296e-01 -3.57637890e-02
      -8.29961058e-03 3.69739495e-02 -1.62938032e-02 -1.37980301e-02
      8.14471319e-02 5.36054261e-02 1.06834667e-03 -9.60549489e-02
      -1.11263860e-02 -1.29769608e-01 -2.38771528e-01 -1.01520941e-01
      3.92335951e-02 1.85514778e-01 1.86770037e-01 -8.59572366e-03
      -1.05770580e-01 -4.39702235e-02 -6.96159378e-02 -1.03203155e-01
      -3.99236530e-02 -8.72662850e-03 4.60753404e-02 0. -3.80247347e-02
      -5.06696478e-02 -3.56971622e-02 -6.88154697e-02 9.28636733e-03
      -7.78517723e-02 -1.49466738e-01 -6.50615990e-02 2.38884781e-02
      1.78926915e-01 6.52300566e-02 1.15940847e-01 1.01323701e-01
      -5.60071506e-02 7.09439814e-02 -1.30542107e-02 -2.80361995e-02
      -1.33888781e-01 -5.03466129e-02 1.02177858e-02 3.60275842e-02
      6.08088188e-02 -3.72945443e-02 -3.63545530e-02 -1.43861741e-01
      1.14854220e-02 -6.05833754e-02 -1.29456311e-01 -1.90916881e-02
      -4.26448788e-03 8.16154629e-02 0. 1.98035724e-02 -8.61098394e-02
      -1.28158912e-01 -9.76400599e-02 9.20715407e-02 -4.44408804e-02
      -5.42550124e-02 -7.07896352e-02 -7.30767697e-02 -1.42243892e-01
      -1.45157464e-02 1.40862420e-01 -2.32644305e-02 -1.67715903e-02
      -6.37125149e-02 1.55727461e-01 6.51521906e-02 5.22715785e-02
      -5.62603623e-02 -1.02632210e-01 6.43429235e-02 -1.51445732e-01
      -7.70029798e-03 -1.21311598e-01 1.51934549e-01 7.96713457e-02
      1.21718990e-02 -1.87894985e-01 -8.67560431e-02 2.00850423e-02
      1.18288763e-01 0. 1.92170427e-03 -1.66425016e-02 7.93583393e-02
      6.50070375e-03 1.23596020e-01 5.35073280e-02 -4.29358780e-02
      -2.77313939e-03 7.18862563e-02 1.55566826e-01 -4.35011908e-02
      -3.29636433e-03 2.64794305e-02 3.79003547e-02 -9.40372944e-02
      5.47449514e-02 5.22515886e-02 -5.46046440e-03 5.31172231e-02
      -6.99511841e-02 1.53420255e-01 3.00074499e-02 4.67973016e-02
      -1.15057096e-01 2.87640803e-02 2.28277426e-02 3.78051773e-02
      8.78856182e-02 7.12377429e-02 -2.78969966e-02 8.32920820e-02 0.
      1.45585448e-01 -3.96151617e-02 -9.01814103e-02 -8.79744589e-02
      1.30640477e-01 -1.18890917e-02 1.65501207e-01 -8.15530792e-02
      -9.40317735e-02 4.47617173e-02 8.97524729e-02 1.11476727e-01
      9.26788747e-02 1.64381728e-01 1.32982759e-02 2.25932412e-02
      8.91205296e-02 -1.87156871e-02 5.46035767e-02 -2.63311360e-02
      -2.08366755e-02 -2.56849155e-02 1.90310995e-03 -7.28288814e-02
      9.78963152e-02 -2.99241245e-02 -1.08495228e-01 -3.42726149e-02
      8.84837583e-02 1.08804964e-01 1.41428143e-01 0. 3.85455675e-02
      -1.42662618e-02 -6.89117238e-02 5.96016683e-02 1.01186164e-01
      -4.26060446e-02 -1.03483191e-02 -5.91045283e-02 -6.77611306e-02
      -2.88564782e-03 -1.02925889e-01 -1.75851863e-02 -3.32192518e-02
      1.24357887e-01 -2.64751054e-02 -9.68816429e-02 -4.81112413e-02
      9.47789773e-02 1.13829621e-03 -3.49908993e-02 -4.64361869e-02
      2.54369024e-02 -5.57973869e-02 4.50750887e-02 -1.38262818e-02
      -8.41097683e-02 -7.04523548e-02 -4.77177016e-02 9.92920622e-02
      -1.40442148e-01 7.49860005e-03 0. 7.80853406e-02 6.99997917e-02
      -1.75506193e-02 1.42666891e-01 4.26366031e-02 -8.36840048e-02
      -2.03106329e-02 -1.38068944e-01 -5.41320145e-02 1.03446305e-01
      4.30935360e-02 -3.57191935e-02 -8.95757154e-02 -8.73120595e-03
      -3.96986566e-02 7.69112445e-03 -1.00116581e-01 1.32365108e-01
      4.21415269e-02 4.12681401e-02 -2.74246112e-02 -4.79066139e-03
      -1.05922781e-01 -1.61637977e-01 -1.10183414e-02 -1.02187261e-01
      5.15447110e-02 -8.44136700e-02 1.86579928e-01 -1.26770437e-01
      3.98761705e-02 0. 8.32047686e-02 5.62669560e-02 -4.44126464e-02
      -5.23563987e-03 -1.31343886e-01 -1.20758481e-01 -2.73057222e-01
      -1.37774080e-01 -1.48015976e-01 4.30000238e-02 -7.57555813e-02
      -8.82463381e-02 -1.15902901e-01 9.58410725e-02 1.91172343e-02
      5.24238311e-02 1.36016294e-01 1.69757307e-01 -1.25424430e-01
      -3.21360789e-02 -8.93108696e-02 -4.93973531e-02 -1.86541900e-01
      -2.74008006e-01 -1.75378919e-01 -1.80232842e-02 3.59353833e-02
      -1.93877727e-01 1.19915426e-01 -2.03636184e-01 4.90283147e-02 0.
      5.00748353e-03 -1.48445353e-01 -1.06154442e-01 -3.11882734e-01
      -2.69451052e-01 -1.04569994e-01 -1.48307905e-02 -4.31241989e-02
      3.27690877e-02 1.19767539e-01 6.36047795e-02 -1.71201508e-02
      1.03054591e-01 5.02578989e-02 2.44838577e-02 -5.40413037e-02
      -3.21658771e-03 -1.17725087e-02 -1.34595975e-01 -1.07706264e-01
      -1.23891845e-01 -1.18826538e-01 -2.42754981e-01 -2.15006217e-01
      -5.25382056e-04 -2.33259257e-02 8.33731890e-03 -2.29433417e-01
      -3.48053426e-02 -1.89951882e-01 1.30968690e-01 0. 9.51465741e-02
      3.77434082e-02 -7.97889084e-02 -1.39201775e-01 -1.19112208e-01
      -3.10634430e-02 -5.01317671e-03 -3.46829444e-02 1.35062769e-01
      1.64220378e-01 6.62647262e-02 -9.71949920e-02 -6.87558055e-02
      -1.91359278e-02 2.09085718e-01 -3.13482769e-02 -6.46350160e-02
      8.08655098e-02 -3.20359543e-02 3.08301672e-02 -1.99374244e-01
      -1.93831146e-01 -5.66358566e-02 -3.97696719e-02 -1.29772648e-02
      -1.26056820e-01 1.09004274e-01 -1.45752326e-01 5.11127003e-02
      -4.96135056e-02 1.90665573e-01 0. 1.45778954e-01 -1.63664147e-02
      -6.64895996e-02 -2.45768297e-02 2.12901048e-02 5.77649400e-02
      4.22451608e-02 -1.51192144e-01 -7.41128344e-03 -6.45702183e-02
      1.21959895e-01 -1.21848704e-03 -4.23914306e-02 -7.33335018e-02
      1.82378352e-01 -1.23568885e-01 -6.74853548e-02 -2.16106083e-02
      2.43315585e-02 6.05473481e-02 -6.60357028e-02 -6.22666068e-02
      -1.54566988e-02 -2.70139929e-02 -1.04828617e-02 -1.49744213e-01
      3.88241303e-03 -1.51869595e-01 -2.89255623e-02 -3.40063423e-02
      1.72942385e-01 0. 1.41820893e-01 -7.39771724e-02 -9.62340683e-02
      5.49479723e-02 -7.10907951e-02 1.12729862e-01 8.42747744e-03
      -3.84223983e-02 -7.90614542e-03 5.26082478e-02 8.46018568e-02
      9.30570960e-02 -3.13740149e-02 -1.86223295e-02 -2.95581203e-02
      1.02969982e-01 3.96941192e-02 1.46376625e-01 1.42275706e-01
      8.30762926e-03 -2.03646459e-02 -2.51099020e-02 -5.73819876e-02
      -1.10402264e-01 8.82472917e-02 -3.72114815e-02 1.06538773e-01
      1.32024974e-01 1.29949093e-01 -8.54254439e-02 4.50325161e-02 0.
      -1.47875259e-02 7.80640729e-03 -6.42125607e-02 2.80439667e-02
      4.25339602e-02 8.89538415e-03 1.07014701e-01 -1.99820567e-03
      6.26641363e-02 5.69215231e-02 2.18049008e-02 -5.76065630e-02
      8.48552492e-03 1.49759740e-01 1.23010226e-01 3.80132757e-02
      -8.02955963e-03 4.13194150e-02 -6.21252246e-02 3.03114634e-02
      -1.23169810e-01 -3.44660580e-02 6.31255805e-02 1.58336740e-02
      5.71492650e-02 -5.51169813e-02 4.01469246e-02 -1.02065675e-01
      4.85704280e-02 1.10178240e-01 2.02416673e-01 0. -4.82293218e-02
      1.87747151e-01 1.14259101e-01 1.16666421e-01 -1.74321190e-01
      -1.24930911e-01 -5.14042377e-02 7.57818818e-02 -6.45166934e-02
      -6.64315820e-02 -1.87606905e-02 -4.26335186e-02 -9.34262201e-02
      -1.09237887e-01 9.03906599e-02 5.87264495e-03 3.39612924e-02
      7.53599778e-02 -9.87092108e-02 1.71406969e-01 1.15177862e-01
      -3.41052786e-02 -1.91276014e-01 -9.52410847e-02 -8.63966420e-02
      4.28196192e-02 -2.24333219e-02 -7.32086971e-02 9.49687660e-02
      -1.03834994e-01 3.78325284e-02 0. -7.50957429e-02 9.68587697e-02
      1.36120722e-01 -2.35299226e-02 -2.43913494e-02 -1.41067371e-01
      -9.60095413e-03 -1.57271866e-02 4.61575948e-02 5.32317609e-02
      4.68360707e-02 -4.05785488e-03 4.42655943e-02 6.24744445e-02
      -5.24447337e-02 -2.55342014e-03 -7.61364028e-02 6.16082773e-02
      -1.11279520e-03 6.91769794e-02 9.03613865e-02 -3.53383645e-02
      -6.02313019e-02 -7.13720769e-02 1.72980851e-03 -6.18464733e-03
      1.24231778e-01 -1.63940117e-01 1.71637967e-01 -8.43819752e-02
      1.34641960e-01 0. 4.34796587e-02 1.50564983e-02 7.77536705e-02
      -6.63259849e-02 4.66830619e-02 -1.62701473e-01 -2.47936621e-02
      3.55011821e-02 6.74762502e-02 1.24356560e-01 1.37238175e-01
      -1.72304362e-01 1.74755216e-01 1.03511505e-01 1.15983725e-01
      -1.42263221e-02 1.59200560e-02 9.94725674e-02 7.87591934e-02
      9.42693502e-02 -4.50334400e-02 3.17368396e-02 -5.11045158e-02
      -1.69652119e-01 -8.32922831e-02 7.48894066e-02 1.33502334e-01
      -1.74219217e-02 1.99823439e-01 -1.19420961e-01 2.27796108e-01 0.
      1.04697742e-01 3.14220525e-02 1.37915224e-01 -6.64987639e-02
      -1.71606719e-01 -7.29969814e-02 -3.06007285e-02 6.53492510e-02
      5.81741892e-02 9.92585346e-02 1.25384301e-01 -2.40432732e-02
      5.60982823e-02 1.07078783e-01 1.88931614e-01 2.58706184e-03
      -1.11990474e-01 7.52236471e-02 5.86251765e-02 9.02928486e-02
      1.35232776e-01 -1.10224992e-01 -1.60323337e-01 -8.45978856e-02
      2.57720817e-02 2.41865478e-02 1.22970261e-01 -4.72179316e-02
      1.54760167e-01 -4.47968580e-02 2.08019063e-01 0. 1.28153458e-01
      4.28730436e-03 -6.22033924e-02 -8.33999366e-03 7.87798837e-02
      5.36821708e-02 4.79326248e-02 4.20488790e-02 3.86624523e-02
      -5.02676368e-02 4.44410518e-02 5.03402390e-02 -5.97829074e-02
      6.14237487e-02 1.03031710e-01 4.00742842e-03 -1.35436237e-01
      1.18834011e-01 3.94183472e-02 8.51620138e-02 4.49828841e-02
      -7.49028549e-02 2.62612365e-02 -6.88216239e-02 6.88341036e-02
      -7.29026422e-02 9.74652022e-02 -2.35162396e-02 7.99447596e-02
      1.08894166e-02 1.49335057e-01 0. -3.76942158e-02 -8.63753930e-02
      2.87362430e-02 -3.89330015e-02 7.08057508e-02 -1.08185671e-01
      5.27586453e-02 -4.32654135e-02 3.71475182e-02 -1.40662804e-01
      1.01988263e-01 -1.31870676e-02 -2.38603968e-02 2.42174640e-01
      4.97039557e-02 -1.21841349e-01 -2.07349062e-02 5.46168871e-02
      -1.41434744e-01 1.69879030e-02 2.30670869e-02 -5.77199012e-02
      5.46672978e-02 -9.47471559e-02 -4.41084318e-02 -7.47138588e-03
      7.34272227e-02 -1.20865673e-01 3.48424464e-02 -1.90119278e-02
      1.06539704e-01 0. -1.07390545e-02 -9.09955874e-02 -2.27062088e-02
      1.64669111e-01 8.37048665e-02 -1.64783616e-02 1.12939797e-01
      -7.37368986e-02 -4.94113564e-03 -4.25173864e-02 5.84596694e-02
      2.64532827e-02 1.68187022e-02 8.21024999e-02 1.16279334e-01
      2.06151400e-02 -2.98004318e-02 5.03498279e-02 -9.78909507e-02
      -3.59408446e-02 -1.49841458e-02 1.14879206e-01 3.92328650e-02
      9.52190999e-03 1.15890250e-01 -1.24559455e-01 1.79791357e-02
      1.00235723e-01 2.42440447e-01 -1.59989044e-01 2.49537956e-02 0.
      -5.24091609e-02 1.27402216e-01 2.63437424e-02 -8.18563718e-03
      8.27774853e-02 5.18211275e-02 9.07169953e-02 7.87025783e-03
      1.69926486e-03 -3.69752967e-03 3.79001051e-02 -8.84317905e-02
      3.42123397e-03 1.32116154e-01 8.88798833e-02 1.38533741e-01
      1.07441336e-01 1.10656060e-01 -1.10100523e-01 1.02303542e-01
      -5.36904335e-02 -1.85905839e-03 7.21001327e-02 -9.80999619e-02
      5.97874112e-02 6.63244873e-02 5.65995909e-02 6.47295043e-02
      -1.32495195e-01 3.63438785e-01 1.07305780e-01 0. -6.91164657e-02
      1.20005712e-01 9.08638090e-02 4.13388461e-02 -1.60198880e-03
      1.12985000e-01 6.22533485e-02 7.86847472e-02 2.87809353e-02
      1.42124463e-02 1.11244181e-02 -9.20404717e-02 -1.38318792e-01
      5.05760796e-02 4.55603153e-02 9.52270720e-03 -7.11747333e-02
      1.35325417e-01 -1.05669618e-01 8.73376653e-02 -1.00677852e-02
      -9.07214135e-02 5.70039563e-02 8.65996908e-03 -6.17755242e-02
      -5.54343909e-02 3.28595303e-02 7.67368078e-02 -2.29849853e-03
      1.56763479e-01 -2.89799944e-02 0. -4.55536060e-02 5.30330427e-02
      -7.90048093e-02 1.05738884e-03 6.68505207e-02 2.34331153e-02
      7.99031649e-03 -1.34925768e-01 9.44524333e-02 6.23741709e-02
      6.51218966e-02 -3.73711549e-02 -3.53872292e-02 9.50048715e-02
      -5.59948571e-02 -1.42859863e-02 -1.02008153e-02 6.59519732e-02
      -3.04845423e-02 8.24477375e-02 -1.24658704e-01 -1.26213431e-01
      7.98666179e-02 -8.91512483e-02 -9.75609571e-02 -1.21025898e-01
      1.25688016e-01 1.96373183e-03 -6.76985607e-02 1.03044204e-01
      2.04585586e-02 0. 1.84070244e-02 -3.71278846e-03 3.35192792e-02
      4.30924743e-02 8.60622823e-02 8.15797001e-02 -3.07495845e-03
      -1.00229457e-01 -9.26522631e-03 4.10033986e-02 1.34937569e-01
      7.41679519e-02 2.66727861e-02 2.87535624e-03 -5.40934019e-02
      1.11147039e-01 -5.18852212e-02 1.23284355e-01 -6.13143258e-02
      8.53750408e-02 6.68435767e-02 -3.68462056e-02 -7.52831344e-04
      -7.67611861e-02 -1.99110694e-02 -1.56376883e-01 8.41375589e-02
      1.53087527e-01 4.84504141e-02 8.19430128e-02 -2.20952351e-02 0.
      -1.48130998e-01 -5.04672304e-02 -2.00887755e-01 -1.84248891e-02
      4.36723530e-02 1.06086545e-01 9.65193436e-02 -2.68817358e-02
      3.13961618e-02 7.00919144e-03 1.27379924e-01 3.32184657e-02
      1.07942097e-01 6.37483746e-02 2.09186543e-02 6.31927401e-02
      -1.44774083e-03 1.45890703e-02 -1.58436641e-01 5.63061126e-02
      -1.26126975e-01 1.01322327e-02 3.00255269e-02 2.61740722e-02
      7.90895373e-02 -1.70101188e-02 3.91805358e-02 8.63343552e-02
      -2.52786279e-02 1.15769394e-01 -4.98145968e-02 0. 6.03309199e-02
      6.00668341e-02 -1.99355155e-01 3.20853628e-02 3.39143574e-02
      5.51762134e-02 6.10661060e-02 -1.29732825e-02 1.66157559e-01
      1.97858978e-02 4.75922637e-02 2.53082123e-02 -6.59515858e-02
      3.04805767e-02 -7.60197057e-04 -6.03382513e-02 -4.42412831e-02
      1.04359858e-01 2.01156661e-02 1.28237531e-01 -1.23891488e-01
      -8.35824385e-02 -9.97852087e-02 -7.79467821e-02 -2.00245548e-02
      -7.56788403e-02 1.23154379e-01 9.11032483e-02 -5.72061948e-02
      1.43390134e-01 -2.98783071e-02 0. 3.37468088e-02 -4.10163426e-04
      1.92144094e-03 -2.54237317e-02 1.10015027e-01 -3.46435979e-02
      -4.04325761e-02 1.09891415e-01 4.65906933e-02 -4.34163995e-02
      5.36575727e-02 2.78690420e-02 -3.87269557e-02 6.97788000e-02
      -8.52369964e-02 -3.60586531e-02 4.11069132e-02 1.01848915e-01
      -1.02124214e-02 -1.92153020e-04 1.02952290e-02 -1.86905861e-01
      -2.73031574e-02 -1.41455114e-01 -6.79658875e-02 1.02417201e-01
      8.48550573e-02 7.56099373e-02 -5.36863692e-02 1.27377868e-01
      -1.16160931e-02 0. 5.47845103e-02 1.17150493e-01 -2.61713490e-02
      1.18264563e-01 1.53989205e-02 2.81269550e-02 -1.00194747e-02
      -9.05947909e-02 1.33145496e-01 -5.77993356e-02 -6.71938136e-02
      1.08647950e-01 1.09544374e-01 1.94683105e-01 -2.44805533e-02
      3.90369892e-02 -1.14758760e-01 2.76842490e-02 -1.27212465e-01
      -7.66943349e-03 -5.49697038e-03 -1.41613325e-02 8.36437419e-02
      -9.15409178e-02 2.30292790e-02 -1.66701585e-01 5.62683530e-02
      2.76321113e-01 1.12157978e-01 -4.62567806e-03 -1.22014485e-01 0.</_></support_vectors>
  <decision_functions>
    <_>
      <sv_count>1</sv_count>
      <rho>-1.7902291248100586e+00</rho>
      <alpha>
        1.</alpha>
      <index>
        0</index></_></decision_functions></my_svm>
</opencv_storage>
