<?xml version="1.0"?>
<opencv_storage>
<my_svm type_id="opencv-ml-svm">
  <svm_type>C_SVC</svm_type>
  <kernel><type>LINEAR</type></kernel>
  <C>1.</C>
  <term_criteria><epsilon>2.2204460492503131e-16</epsilon>
    <iterations>500000</iterations></term_criteria>
  <var_all>4096</var_all>
  <var_count>4096</var_count>
  <class_count>2</class_count>
  <class_labels type_id="opencv-matrix">
    <rows>1</rows>
    <cols>2</cols>
    <dt>i</dt>
    <data>
      -1 1</data></class_labels>
  <sv_total>1</sv_total>
  <support_vectors>
    <_>
      -1.80798516e-01 3.21932524e-01 6.90655828e-01 -1.19787648e-01
      5.63335001e-01 -2.98751771e-01 2.12380841e-01 -3.31575185e-01
      -7.00114621e-03 2.21062809e-01 -1.69109493e-01 -6.97812736e-02
      -4.37066615e-01 2.03912035e-02 -8.07932839e-02 3.71151716e-01
      1.10496424e-01 2.16246247e-01 -5.62190115e-01 -4.83677238e-01
      5.47521830e-01 -6.29328609e-01 -2.60563165e-01 -5.76238692e-01
      2.60470629e-01 -1.61192000e-01 1.40450567e-01 1.87944666e-01
      2.17668086e-01 2.76145730e-02 5.37230931e-02 0. -1.63570940e-01
      4.56571542e-02 3.62715244e-01 8.21750669e-04 -6.71106100e-01
      1.25910789e-01 9.62335020e-02 -2.22124700e-02 2.76366532e-01
      -6.12652600e-01 -1.96060352e-02 4.59662050e-01 4.15735468e-02
      -1.06184535e-01 2.84880072e-01 4.23062667e-02 -4.42054169e-03
      6.93529248e-02 -3.27980667e-02 -1.53869122e-01 3.55746090e-01
      3.62778485e-01 -4.68982905e-01 9.31479260e-02 3.38847600e-02
      3.17174971e-01 -4.75600772e-02 2.84202993e-01 1.07117206e-01
      -3.48169357e-01 5.38286939e-02 0. -2.19243228e-01 -1.64364085e-01
      7.69706909e-03 -1.02822319e-01 2.30652839e-01 -1.23207778e-01
      -1.26806321e-02 -2.68879741e-01 5.82998872e-01 -1.65540621e-01
      5.69277585e-01 -3.13052863e-01 -1.94097638e-01 1.31857350e-01
      9.78107825e-02 -5.72166964e-02 -1.89296514e-01 6.70235932e-01
      6.72748461e-02 4.35783342e-02 -1.50639027e-01 -2.18743011e-01
      1.75259337e-01 -4.68094587e-01 -1.09362908e-01 -4.57407624e-01
      1.50026813e-01 5.00892758e-01 -3.16349626e-01 2.51420677e-01
      -2.09631070e-01 0. -2.46427745e-01 1.84755623e-01 -3.45349193e-01
      -8.01118985e-02 6.40070796e-01 -2.46006817e-01 5.19542303e-03
      -2.28447154e-01 2.40722701e-01 -6.56114757e-01 2.09522203e-01
      1.68599635e-01 -1.73709676e-01 1.90221339e-01 -8.96985270e-03
      2.00161919e-01 5.19640446e-01 -2.38207310e-01 8.57087746e-02
      2.25261927e-01 4.25339669e-01 6.03519119e-02 -4.07964140e-02
      -1.49334753e-02 2.67420560e-01 2.45084688e-01 -4.45296556e-01
      1.72936231e-01 -1.18345134e-02 8.76272768e-02 -1.84832886e-01 0.
      -4.80322361e-01 -4.77929451e-02 -4.44870770e-01 -6.75955787e-02
      3.92632812e-01 7.48831481e-02 5.05067706e-01 -5.37977755e-01
      7.25028276e-01 -5.45030534e-01 -1.76634595e-01 8.94390702e-01
      3.73672992e-01 -5.77739716e-01 -1.66038841e-01 1.34372890e-01
      5.39608207e-03 -1.09060667e-01 1.91480994e-01 -5.14729023e-01
      6.17387116e-01 3.75595503e-02 -1.07214689e-01 -3.93676072e-01
      1.00244142e-01 -3.13902944e-01 2.40852330e-02 1.78428572e-02
      -3.43568236e-01 2.48598248e-01 5.46795651e-02 0. 1.67301804e-01
      3.64143610e-01 -4.98745918e-01 -7.06754923e-02 -1.68794710e-02
      3.67552191e-01 3.81678417e-02 -2.84121305e-01 2.62555063e-01
      -3.05939503e-02 -3.10698003e-01 1.55862048e-02 6.24465123e-02
      4.12574299e-02 -4.40695465e-01 2.71812398e-02 -1.09764151e-01
      5.51290631e-01 -9.49411318e-02 -2.47675359e-01 -5.05769908e-01
      -2.18458902e-02 -2.48541962e-02 -3.92948873e-02 -5.35472222e-02
      -1.33177504e-01 3.77499461e-02 1.03040069e-01 -9.69940424e-03
      4.47157770e-01 -4.76713926e-01 0. 8.51432309e-02 1.93373755e-01
      1.67229697e-01 2.13262260e-01 -2.17130706e-01 -6.46264255e-02
      -2.53510863e-01 -8.11218247e-02 -2.26297557e-01 -8.47101957e-02
      3.32878560e-01 -2.38728430e-02 -5.37035838e-02 1.39755130e-01
      1.07403081e-02 2.76938856e-01 3.57727438e-01 -2.48964339e-01
      -9.15754288e-02 -1.45964012e-01 5.07462732e-02 -1.89581923e-02
      3.24903101e-01 -6.82414234e-01 2.37402663e-01 1.03150278e-01
      -3.36970627e-01 -8.94884579e-03 7.11893961e-02 2.47430563e-01
      -6.30765110e-02 0. 8.50305408e-02 -4.30791080e-01 6.57474920e-02
      1.46515742e-01 -2.73171049e-02 -8.19458663e-02 5.46851493e-02
      5.20379901e-01 2.79587924e-01 -7.40811288e-01 4.66850549e-01
      4.58047330e-01 -1.92853610e-03 -2.60786325e-01 4.33212727e-01
      -2.44545773e-01 -1.78295910e-01 -6.89229369e-02 5.70722483e-02
      -2.76485533e-01 2.92357970e-02 -2.07168832e-01 -2.45218784e-01
      -7.26444721e-01 -4.25260931e-01 1.15047537e-01 -1.97947964e-01
      8.17849040e-02 2.01614290e-01 -1.40744343e-01 8.11246783e-02 0.
      -8.37802961e-02 -8.31337422e-02 3.10320314e-02 1.61833927e-01
      -1.00624196e-01 3.40220809e-01 -4.27287102e-01 6.53058961e-02
      7.63892606e-02 -1.18010007e-01 3.65287587e-02 -2.47419655e-01
      2.88511962e-01 -5.56119859e-01 2.89120734e-01 1.03364296e-01
      3.18540819e-02 -3.26744854e-01 -1.07933730e-01 -1.25978470e-01
      2.26471841e-01 1.68092504e-01 2.55512178e-01 -6.07317388e-01
      -2.13447567e-02 -1.44216910e-01 -3.53212565e-01 1.94172427e-01
      -1.10084690e-01 -1.86107323e-01 -1.42617032e-01 0. -1.22109622e-01
      -1.79690897e-01 -9.98008430e-01 3.06625277e-01 -3.46037336e-02
      1.18351012e-01 -2.36676693e-01 -2.16831386e-01 6.25044703e-01
      -2.92007509e-03 1.61122575e-01 -1.74793024e-02 -5.53640246e-01
      3.73464704e-01 -8.73579457e-02 4.57054466e-01 -4.45693433e-02
      -7.25726485e-02 -5.98027587e-01 -5.43975353e-01 -1.24734715e-01
      -1.71036012e-02 8.65485370e-02 -3.95208985e-01 -2.56820351e-01
      8.57952759e-02 8.40183049e-02 2.38797113e-01 -2.38746390e-01
      1.65359050e-01 -4.12798852e-01 0. -8.67113888e-01 2.56980717e-01
      -4.97817010e-01 3.94638270e-01 1.11551508e-01 -4.16955203e-01
      9.07859132e-02 1.97908059e-01 3.55486065e-01 5.61340712e-02
      4.29012269e-01 8.33065063e-02 -1.57827158e-02 -1.88652188e-01
      -2.73587048e-01 -1.34923562e-01 -9.43490788e-02 -6.87625855e-02
      4.52391446e-01 2.27945879e-01 3.88752311e-01 -3.36841978e-02
      2.59195864e-01 2.47805148e-01 3.46935481e-01 5.34108162e-01
      -3.22235823e-01 2.32779086e-01 -4.63819474e-01 1.95621923e-01
      -2.39002287e-01 0. 1.50903657e-01 2.95569658e-01 -1.33214384e-01
      -8.69534165e-02 1.35482132e-01 -3.48641664e-01 2.86831439e-01
      1.94840819e-01 -4.26834226e-01 -2.92570949e-01 2.04871595e-01
      3.40047449e-01 -3.45533490e-01 -2.22844824e-01 9.30594429e-02
      -2.25224823e-01 3.93511683e-01 5.20205557e-01 -6.25836942e-03
      5.39275348e-01 -1.37036860e-01 -7.12696135e-01 -6.61112309e-01
      -3.47717017e-01 -2.70555675e-01 7.68789649e-01 1.10434955e-02
      4.39057022e-01 -2.11668566e-01 5.33711500e-02 -2.92657148e-02 0.
      -4.62262928e-01 1.22016594e-02 -1.45394262e-03 5.83152711e-01
      -1.57426819e-01 1.71946101e-02 -1.16665117e-01 -2.21082911e-01
      2.37618849e-01 -1.00866452e-01 2.60788471e-01 -2.02159295e-04
      1.55049441e-02 -1.62371323e-01 4.80523139e-01 7.70043805e-02
      2.71163404e-01 3.87244046e-01 3.56784642e-01 2.61439890e-01
      3.58212054e-01 -1.30166803e-02 -5.11650980e-01 -4.54430223e-01
      -6.09601676e-01 -4.21938449e-01 3.82638514e-01 2.28945747e-01
      -5.22954240e-02 4.09451902e-01 -5.81037141e-02 0. -1.26413167e-01
      8.07250559e-01 5.40278144e-02 3.54410149e-02 -3.09869915e-01
      2.31706634e-01 3.04119349e-01 -5.04379749e-01 1.64934009e-01
      -3.45808357e-01 -6.31926432e-02 -2.82306939e-01 -5.51337719e-01
      -1.89968999e-02 -1.70598522e-01 6.70270668e-03 3.21130306e-01
      -2.39970535e-01 1.71501577e-01 2.28127204e-02 4.40074086e-01
      -1.38549060e-01 5.61325073e-01 -3.48149389e-01 1.58780709e-01
      2.23889768e-01 -4.96209294e-01 8.91335532e-02 -2.48376444e-01
      2.94582427e-01 -4.59456325e-01 0. -2.23351866e-01 2.74585098e-01
      1.76335741e-02 2.80413002e-01 -1.30033754e-02 1.39819890e-01
      1.38881980e-02 -7.00155258e-01 1.19062178e-02 -2.22077042e-01
      2.06175014e-01 -7.11718649e-02 2.84006327e-01 -3.17245722e-01
      3.29960287e-01 -3.12091142e-01 3.64294291e-01 -2.62729704e-01
      -5.86699069e-01 2.13582739e-02 1.30614460e-01 -1.07453853e-01
      2.26605475e-01 -2.93816775e-01 -1.28110796e-01 5.87592423e-01
      -1.90774068e-01 1.29802838e-01 -4.18836743e-01 4.16487247e-01
      -2.21329793e-01 0. 2.98710316e-01 2.78034359e-02 1.52352853e-02
      7.58227333e-02 -3.78332213e-02 2.38888204e-01 1.22349396e-01
      -4.88421917e-01 -2.70589530e-01 6.94502965e-02 -6.15475357e-01
      -2.93764234e-01 -6.97162747e-02 -1.29070178e-01 3.03031445e-01
      -1.53919294e-01 -8.30955952e-02 1.12270005e-01 7.25857198e-01
      -4.20855999e-01 -7.52354488e-02 7.67428195e-03 3.92466307e-01
      -6.64927438e-02 2.14371994e-01 1.32149994e-01 -2.13918626e-01
      4.48183306e-02 -1.84170440e-01 8.32704753e-02 -3.57960582e-01 0.
      5.92297912e-01 -3.24934810e-01 1.64285794e-01 -1.27663156e-02
      2.13808984e-01 1.86897710e-01 4.14377391e-01 1.58662274e-01
      1.64709762e-01 -2.85673767e-01 2.51661956e-01 5.46960644e-02
      -2.91920245e-01 -2.56005079e-01 3.99533391e-01 -3.23128521e-01
      -5.93698680e-01 -2.47974128e-01 5.28561234e-01 -6.04533911e-01
      5.28508127e-01 -2.14679763e-02 -1.24330267e-01 3.47057790e-01
      -4.22434032e-01 -6.98893294e-02 2.82000482e-01 3.07541132e-01
      -3.94516855e-01 1.52725369e-01 5.90909086e-02 0. 3.89264613e-01
      3.40831399e-01 1.68283954e-01 3.83189437e-03 2.43554860e-01
      5.04540540e-02 1.39111221e-01 -3.40232998e-01 1.49809450e-01
      1.72284637e-02 7.79808238e-02 -3.76056850e-01 -1.37320489e-01
      1.94816440e-02 -4.13243100e-02 -3.63853484e-01 9.96283516e-02
      1.97432980e-01 -1.63222384e-02 -1.68653801e-01 4.77416456e-01
      -8.90484527e-02 -5.05041108e-02 -2.35591363e-02 -4.86296952e-01
      -1.26407072e-01 3.14814627e-01 6.35438636e-02 -3.83951515e-02
      3.08092237e-01 -3.24379057e-02 0. -8.67187381e-02 -9.36759915e-03
      5.30001640e-01 4.68258649e-01 -5.15569091e-01 -1.75532520e-01
      2.26080477e-01 -8.53172362e-01 3.22700113e-01 -2.76871651e-01
      4.37131166e-01 -3.73501629e-01 -1.35884015e-03 -4.10201937e-01
      9.15923536e-01 -3.15929025e-01 1.78256378e-01 4.34781760e-02
      -3.57123643e-01 -3.84461671e-01 1.12316065e-01 2.14237496e-01
      2.34304979e-01 6.82822764e-02 7.07288444e-01 1.23981044e-01
      1.51715264e-01 2.45153308e-01 -3.73313278e-01 1.52810439e-01
      2.41900254e-02 0. 4.06745434e-01 -4.64966744e-01 1.99445173e-01
      -4.31638926e-01 -1.46186769e-01 3.21867973e-01 -6.11244798e-01
      9.74502787e-02 -1.20341919e-01 -2.22381085e-01 2.74110325e-02
      3.72161806e-01 -3.51359278e-01 -3.89757566e-02 6.62267447e-01
      2.38827080e-01 -3.19535166e-01 -4.17772867e-03 -1.00188935e+00
      -5.80391645e-01 -2.91711569e-01 -1.06254947e+00 7.72769302e-02
      1.01567910e-03 8.84874463e-02 -8.94104615e-02 -8.24616775e-02
      -1.75053835e-01 6.82500675e-02 1.08994618e-01 -1.83506355e-01 0.
      -1.06316939e-01 -6.58270493e-02 -4.06892478e-01 -8.88545692e-01
      1.66966990e-01 2.72487670e-01 -2.45764062e-01 -6.35634065e-02
      -3.85188788e-01 4.96589601e-01 4.96562898e-01 2.39428028e-01
      5.06754935e-01 -3.41775894e-01 1.47258356e-01 3.73406671e-02
      2.09459603e-01 -5.93415678e-01 -4.07082796e-01 -2.24295110e-01
      1.14827417e-01 2.42666319e-01 -4.40056138e-02 1.10485986e-01
      -5.54873049e-01 -4.91115123e-01 -4.10884261e-01 3.24672088e-02
      -9.99476528e-04 -1.94583103e-01 -8.41062665e-02 0. -2.10582614e-01
      1.30165234e-01 -3.45219374e-01 2.86617815e-01 -5.63501239e-01
      -6.29171655e-02 2.72859693e-01 5.71150541e-01 -3.61207604e-01
      -4.58980381e-01 2.02436879e-01 2.71759838e-01 -5.51754199e-02
      4.32326585e-01 -3.67056608e-01 2.83528268e-01 -3.65119874e-01
      3.88883263e-01 -2.69352347e-01 -2.51154691e-01 -1.21534780e-01
      4.89544660e-01 -2.70399243e-01 -4.78966013e-02 2.23693132e-01
      3.69791657e-01 2.96251196e-02 -1.52587056e-01 1.06838301e-01
      1.87134609e-01 -1.17831305e-01 0. -1.72371536e-01 -2.71615684e-01
      -6.93767816e-02 2.77282089e-01 2.90078729e-01 -8.68826658e-02
      1.76363662e-01 -1.61745623e-01 1.88056514e-01 -2.14149714e-01
      5.79384267e-01 1.66936576e-01 -3.96012187e-01 -1.54566720e-01
      5.76233745e-01 -2.56006092e-01 -6.60478696e-02 1.13152586e-01
      -6.74141105e-03 5.22640944e-01 -2.31711835e-01 -2.09203377e-01
      8.13648477e-02 -4.46663380e-01 1.11069068e-01 1.48860469e-01
      5.56008339e-01 2.21757486e-01 9.89577249e-02 -2.76340861e-02
      -4.85596471e-02 0. -7.01548636e-01 1.12159386e-01 3.10868293e-01
      3.90894920e-01 -2.93475151e-01 5.58051944e-01 -6.07399903e-02
      3.69558707e-02 1.96750507e-01 -4.01053965e-01 1.23184256e-03
      -1.60472929e-01 3.40950370e-01 -2.36561060e-01 4.36849535e-01
      -1.45434126e-01 3.92292030e-02 1.57415494e-01 4.40084338e-01
      3.14467311e-01 -4.07565245e-03 -6.72373891e-01 1.49034977e-01
      -6.77209258e-01 9.16686207e-02 3.65138680e-01 -2.51526952e-01
      6.82442412e-02 2.22931370e-01 1.27230719e-01 -1.44018024e-01 0.
      -6.07974291e-01 -3.21768492e-01 -8.45312979e-03 2.81068504e-01
      3.43648225e-01 4.03077364e-01 2.38002953e-03 -1.62347659e-01
      -4.53422293e-02 -1.29730135e-01 7.80946910e-01 -8.43040869e-02
      -1.52509063e-01 5.20797431e-01 -1.26939574e-02 -6.75802454e-02
      2.69555598e-01 2.89315820e-01 -1.57566443e-01 -1.27855852e-01
      3.04112136e-02 -7.47542530e-02 -4.07376260e-01 -5.39771914e-01
      -4.09911692e-01 -4.10662293e-02 9.28082019e-02 1.94584876e-01
      5.26357554e-02 9.10987332e-02 2.73598462e-01 0. 2.40095966e-02
      4.49117452e-01 -4.76421207e-01 -3.93212736e-02 2.72042364e-01
      2.10846394e-01 -2.61840612e-01 6.03698611e-01 7.29916319e-02
      3.17796245e-02 -1.02998190e-01 3.32332909e-01 -2.35186473e-01
      -7.86565617e-02 2.76610136e-01 2.60100573e-01 3.68420005e-01
      -2.10628077e-01 2.96690613e-02 -3.25655282e-01 6.29587173e-02
      1.95934355e-01 -3.12902480e-01 -2.21738249e-01 -2.76625127e-01
      3.57232839e-01 -1.66480735e-01 2.69441962e-01 1.85454503e-01
      -4.98219021e-02 3.00562799e-01 0. 1.55465230e-01 5.21836877e-01
      1.43769711e-01 -1.94475487e-01 -8.92813921e-01 4.09087330e-01
      1.31244615e-01 -6.34570479e-01 -2.75181562e-01 5.14528513e-01
      3.41034323e-01 1.34530112e-01 -4.85426337e-01 3.10165197e-01
      -1.06714971e-01 2.44959608e-01 3.14514369e-01 -3.57671022e-01
      -3.35131437e-01 2.81991899e-01 -7.83849657e-01 -1.28911793e-01
      -2.96786398e-01 1.81896016e-01 1.16569355e-01 -1.62884086e-01
      -1.60638854e-01 -3.18241894e-01 2.34536365e-01 -1.14175439e-01
      3.27177912e-01 0. 2.03065559e-01 7.23348260e-01 -9.09307376e-02
      -5.47536686e-02 -1.12616345e-01 -1.03152022e-01 5.00014842e-01
      -2.93486863e-01 -5.30706823e-01 6.86184317e-02 -1.86957166e-01
      -5.55702597e-02 -1.96706414e-01 2.70325333e-01 3.19885045e-01
      -3.31383079e-01 -8.45848396e-02 -6.94190338e-02 -1.03178710e-01
      4.44614142e-03 -7.13649988e-01 -5.06463528e-01 1.59897327e-01
      -2.07278252e-01 -2.19353750e-01 -1.13641731e-01 -4.02696073e-01
      -6.49397492e-01 2.33921453e-01 1.61648124e-01 2.42038622e-01 0.
      2.15064824e-01 -5.20314753e-01 -3.14489126e-01 3.69409591e-01
      1.93740070e-01 -5.83036095e-02 -4.40659046e-01 -3.88099402e-01
      8.93664062e-01 5.41096739e-02 2.29041688e-02 -1.52387455e-01
      1.10191479e-01 -6.17465265e-02 5.66249073e-01 -2.52224833e-01
      2.19977573e-01 -6.14911854e-01 -4.51177448e-01 -3.32210630e-01
      -5.65082252e-01 -3.86074305e-01 -7.39057362e-02 -4.36438113e-01
      -5.70802331e-01 -7.23646343e-01 -1.89696997e-02 1.25269741e-01
      2.19660327e-01 -7.10346043e-01 2.91016906e-01 0. -2.26388633e-01
      -2.70456344e-01 -3.23896140e-01 8.71579275e-02 3.25251102e-01
      -4.83343393e-01 2.56249934e-01 -6.36439472e-02 6.36339307e-01
      1.85481116e-01 2.14196220e-01 4.76514906e-01 6.02773368e-01
      -4.49025065e-01 7.35923871e-02 -2.85536498e-01 3.78965408e-01
      3.17504942e-01 1.02500007e-01 -4.05750155e-01 -4.48399454e-01
      2.65511841e-01 5.19009173e-01 -1.06268787e+00 -2.27380112e-01
      -8.93601716e-01 2.07277402e-01 1.98336765e-01 2.22511977e-01
      -1.47400439e-01 4.10899907e-01 0. 4.91259664e-01 -5.67195356e-01
      3.64427298e-01 -2.62782007e-01 1.95717424e-01 1.84404224e-01
      5.18388808e-01 -1.56001136e-01 7.28438795e-02 2.26437539e-01
      -6.59651458e-02 2.86149979e-01 2.07344115e-01 8.33418891e-02
      4.44769800e-01 -1.83375895e-01 -9.10729393e-02 -2.62746543e-01
      2.64502704e-01 -4.03699189e-01 2.40521833e-01 -3.09992969e-01
      1.08148456e-01 -5.21711469e-01 -6.27277012e-04 2.81673837e-02
      -5.78055203e-01 2.26165250e-01 2.02288508e-01 3.32701892e-01
      -6.06806055e-02 0. -4.22625303e-01 -4.96393710e-01 -1.42383367e-01
      2.85299957e-01 -2.02718884e-01 -9.22762975e-02 3.86145592e-01
      -1.53700367e-01 -4.74176973e-01 -8.97863284e-02 2.51438022e-01
      2.02871948e-01 -3.83758336e-01 -3.19382027e-02 6.33831978e-01
      4.18284804e-01 -4.55543399e-01 4.42030072e-01 -1.37052849e-01
      2.99298793e-01 -2.39538357e-01 -1.64451540e-01 -4.19528604e-01
      -2.76443124e-01 -2.10427754e-02 9.24293995e-02 1.02823630e-01
      1.08260773e-01 3.89030017e-02 5.32702543e-03 -3.05883616e-01 0.
      2.68140256e-01 2.71415830e-01 3.76478016e-01 -3.94782163e-02
      -5.75658143e-01 -1.49063662e-01 -1.84275378e-02 -8.89831260e-02
      4.61339384e-01 -1.41188771e-01 1.07580751e-01 -5.57751417e-01
      1.96516827e-01 1.48306623e-01 -4.77796972e-01 -1.21577837e-01
      -4.65667278e-01 -6.79902971e-01 -1.84771374e-01 -1.81738839e-01
      -1.17425673e-01 1.67116359e-01 5.86139381e-01 -1.76785946e-01
      4.17463988e-01 4.61074710e-02 -1.07548699e-01 -4.68547381e-02
      -5.02489693e-02 -8.85874689e-01 2.82610893e-01 0. 5.30170083e-01
      3.15649286e-02 -1.38668045e-02 1.32441416e-01 -5.02949119e-01
      -1.15352273e-02 -9.11635518e-01 2.94576257e-01 2.39132345e-01
      -3.66990238e-01 1.20635033e-01 2.10061580e-01 4.52031970e-01
      1.40337482e-01 -5.15007861e-02 -2.33562768e-01 -7.87250325e-02
      3.28350395e-01 1.13279194e-01 -2.72067219e-01 -8.07905346e-02
      3.48380923e-01 3.78962785e-01 3.56640130e-01 1.36430681e-01
      1.08215725e-02 -1.67529240e-01 5.29159941e-02 2.08941102e-01
      -3.41234833e-01 2.24821508e-01 0. 4.58097339e-01 -1.55810520e-01
      2.70628750e-01 1.60725750e-02 2.61234432e-01 -2.73875535e-01
      1.73666663e-02 2.58938313e-01 2.54730612e-01 1.76961005e-01
      1.07439281e-02 -6.88940659e-02 -2.96657711e-01 -2.72241086e-01
      -1.22320078e-01 -4.47988436e-02 1.86574116e-01 -3.71755630e-01
      -4.74417090e-01 -8.17244351e-01 -1.04231238e+00 -1.42763957e-01
      9.49216932e-02 9.48370844e-02 3.96228224e-01 1.21670052e-01
      3.41235250e-01 -3.86853367e-01 3.21389169e-01 -3.48124243e-02
      2.44051084e-01 0. 1.43140897e-01 -2.57068604e-01 -7.24793553e-01
      2.49304309e-01 3.39027852e-01 2.63098896e-01 2.16523796e-01
      -1.30768418e-01 5.52397311e-01 5.49927950e-01 -5.61980903e-01
      1.91953674e-01 8.60315710e-02 -1.12235956e-02 4.67180133e-01
      -2.23058000e-01 -1.44893453e-01 1.38268396e-01 2.17368320e-01
      4.84764218e-01 -4.12334263e-01 -2.10459828e-01 6.93540573e-02
      1.39950752e-01 1.89956307e-01 -8.49864408e-02 8.91627967e-02
      -1.59604579e-01 3.78119081e-01 2.76275650e-02 2.92700231e-01 0.
      1.16375685e+00 5.55915713e-01 -4.03409034e-01 1.16008192e-01
      1.15822695e-01 4.64724123e-01 4.66892332e-01 -4.80474204e-01
      -3.89453381e-01 5.01575708e-01 -1.87889755e-01 -2.73863524e-01
      1.01961307e-01 3.45190167e-01 1.53075278e-01 -1.17484622e-01
      -4.77625549e-01 -5.81281632e-02 1.27241582e-01 3.78093719e-01
      -8.99735391e-02 5.66754714e-02 1.19606532e-01 2.97120344e-02
      -8.53765756e-02 -1.94412425e-01 6.75916493e-01 3.51280510e-01
      2.40313187e-01 -1.92015827e-01 3.53056431e-01 0. 6.68494761e-01
      6.43027723e-01 -4.05234814e-01 2.84744442e-01 -5.47268569e-01
      2.26019353e-01 2.94409245e-01 2.46748269e-01 2.15777773e-02
      3.61936390e-02 -4.06229317e-01 -2.32034177e-02 1.78502172e-01
      -1.76084101e-01 -1.78209230e-01 -7.41692781e-02 1.07320227e-01
      -1.68794379e-01 -8.84733558e-01 4.18179452e-01 -2.82097515e-03
      8.92012179e-01 1.39785901e-01 -1.81658641e-01 2.59598672e-01
      -1.35508823e+00 -3.50885183e-01 -3.93522270e-02 4.39929396e-01
      -2.75647134e-01 2.18176067e-01 0. -1.40068412e-01 -1.77587956e-01
      2.85789251e-01 -6.05716169e-01 5.49631529e-02 -6.49047315e-01
      1.37018323e-01 -2.50154167e-01 -1.28652737e-01 3.30255896e-01
      2.30133131e-01 5.29994443e-02 -3.11845928e-01 3.59077513e-01
      3.43369812e-01 3.85221988e-01 3.23511153e-01 3.05404454e-01
      -5.35755217e-01 -5.22661097e-02 -3.81799340e-01 1.07680976e-01
      2.89788187e-01 9.54763591e-02 3.66001219e-01 2.56591383e-02
      -1.38668373e-01 -5.17126083e-01 4.46531594e-01 1.83942512e-01
      1.43410087e-01 0. 3.73034716e-01 1.10931154e-02 -4.36138242e-01
      -3.10947541e-02 -1.76355168e-01 -4.71309811e-01 1.90164372e-01
      7.93273151e-01 -1.08053625e-01 1.88027285e-02 -2.33635753e-01
      -3.90943676e-01 1.61593303e-01 -1.82456732e-01 3.75129759e-01
      -4.32384014e-01 -6.55750096e-01 7.96329826e-02 -2.13737234e-01
      -2.35190734e-01 1.56274382e-02 8.96514714e-01 -1.27100989e-01
      1.39390260e-01 -2.27329861e-02 2.67529130e-01 -1.43301830e-01
      -4.30105656e-01 2.37821475e-01 -4.94493514e-01 1.60979211e-01 0.
      4.45764750e-01 -5.09711444e-01 2.67277658e-01 1.29853994e-01
      2.76913762e-01 -3.44192684e-01 -4.16324660e-02 -2.65323818e-01
      -2.45270789e-01 -1.47404507e-01 -1.38737410e-01 -8.93361773e-03
      -8.94952416e-02 -4.33317125e-01 -2.30893925e-01 -1.17880814e-01
      -4.51640077e-02 4.55023170e-01 1.48049027e-01 1.91306189e-01
      4.53719229e-01 2.56739166e-02 -2.74711810e-02 -3.17794949e-01
      4.85953510e-01 -2.72567958e-01 2.65507489e-01 -2.28581861e-01
      4.10061181e-01 -5.41004896e-01 -1.32203177e-01 0. 2.20009282e-01
      -7.33573496e-01 -4.89054978e-01 2.83476919e-01 -2.09917977e-01
      -6.90111160e-01 4.33833957e-01 -4.92742751e-04 -1.18990608e-01
      -2.63648182e-01 5.30346990e-01 -2.42609710e-01 4.19177502e-01
      -1.19566873e-01 1.70695230e-01 4.43577975e-01 -4.17454690e-02
      1.80503324e-01 -2.80401945e-01 -8.19341689e-02 -3.03080436e-02
      2.18092307e-01 -3.05193305e-01 -2.46004418e-01 4.70910460e-01
      2.85849780e-01 -1.67384610e-01 1.49966590e-02 -6.29674736e-03
      -3.67143214e-01 2.50921875e-01 0. 2.02709019e-01 2.43109316e-01
      5.01940608e-01 7.36977682e-02 7.78329074e-02 2.64948830e-02
      1.58403605e-01 -1.63756073e-01 7.53299939e-03 5.77291787e-01
      -4.27065402e-01 -8.48172829e-02 3.94221991e-01 -7.84311146e-02
      1.47953615e-01 -4.36649710e-01 -5.02321184e-01 -3.29655260e-01
      -8.61064553e-01 -5.30395210e-01 3.26907426e-01 5.11181891e-01
      3.29190977e-02 5.20316422e-01 -3.42728078e-01 -5.36040366e-01
      2.73056269e-01 -9.52839330e-02 2.27616727e-01 -1.54796615e-01
      2.05599084e-01 0. -2.07755014e-01 4.61857244e-02 3.63870189e-02
      -1.41178966e-01 -3.34975570e-01 4.77720708e-01 7.57794976e-01
      4.30221945e-01 -6.23706914e-03 -4.15656984e-01 2.13470697e-01
      -3.10000718e-01 -2.93447137e-01 -4.31360334e-01 -2.11329594e-01
      -1.30057767e-01 1.91901520e-01 -5.01552746e-02 -4.28888053e-01
      4.68741268e-01 7.09292591e-01 2.87173003e-01 5.09885728e-01
      1.23430945e-01 6.91040337e-01 -3.58747333e-01 7.95033932e-01
      -5.44903614e-02 1.89404096e-02 -1.37158185e-01 -5.70322573e-03 0.
      -6.47781134e-01 -1.43924281e-01 1.25095934e-01 7.50176549e-01
      5.50404310e-01 -7.20044553e-01 1.29727870e-01 1.44794926e-01
      -3.76222253e-01 -1.11925595e-01 -4.25013661e-01 -2.52593189e-01
      -6.90348089e-01 -1.87969759e-01 -1.37754261e-01 -1.52727395e-01
      -5.24607539e-01 -3.83905508e-03 -7.23209321e-01 7.89116621e-01
      2.41781045e-02 6.45811141e-01 6.16851091e-01 -7.51659414e-03
      1.75714582e-01 4.57791269e-01 4.48999822e-01 -3.38072062e-01
      -1.03157207e-01 -5.56871474e-01 -2.62682736e-01 0. 7.34536290e-01
      -2.46197537e-01 2.05831490e-02 4.18853283e-01 -2.37548514e-03
      -4.87766951e-01 1.32003158e-01 4.18274373e-01 -1.38747349e-01
      4.40949082e-01 -2.42583707e-01 -5.13656735e-01 -5.12174845e-01
      2.01040953e-01 5.16628265e-01 6.94285426e-03 -1.65769219e-01
      4.40929681e-01 -8.49454761e-01 9.11657661e-02 -2.28180572e-01
      1.57382846e-01 -6.97428286e-02 1.20205514e-01 3.80766958e-01
      1.91644371e-01 -3.84333223e-01 -3.32433321e-02 3.20201725e-01
      -1.43852592e-01 3.38414580e-01 0. 2.17171952e-01 3.30972701e-01
      2.21726075e-02 -1.53291419e-01 -1.91811755e-01 -2.36754715e-01
      3.64991605e-01 4.39241007e-02 -5.92556894e-01 2.56424040e-01
      -1.24666601e-01 -2.04571009e-01 2.53198147e-01 8.31701308e-02
      7.15905428e-01 1.92126945e-01 -4.25213963e-01 4.59005594e-01
      -3.97557914e-01 3.36174041e-01 -1.46657825e-01 4.46770072e-01
      3.34140807e-02 -1.71747357e-01 3.29673320e-01 -1.97205663e-01
      -2.43421793e-01 -1.78070650e-01 -3.67073789e-02 2.88022041e-01
      4.02962565e-01 0. -9.00546759e-02 -1.19316973e-01 -2.01896671e-02
      1.08104199e-01 -2.07237601e-01 -1.79486856e-01 3.11123788e-01
      4.32355970e-01 -1.88668817e-01 3.71463209e-01 3.79452735e-01
      1.82378560e-01 -2.86208540e-01 -7.59503007e-01 4.13417101e-01
      1.98299885e-01 -4.57317084e-01 1.80074558e-01 -2.61851251e-01
      1.26856953e-01 -6.87551260e-01 1.18684895e-01 -4.90808219e-01
      1.48573285e-02 4.33711886e-01 3.12006980e-01 6.76697791e-02
      -2.46420607e-01 1.50448516e-01 1.23697139e-01 9.89335850e-02 0.
      5.00010014e-01 -1.70283049e-01 -2.32137963e-01 2.71705598e-01
      -2.45660335e-01 -1.20699525e-01 -4.44196574e-02 -2.22641975e-01
      3.68191116e-02 3.70667338e-01 -2.69500047e-01 1.02414355e-01
      -1.18422704e-02 -2.48781353e-01 7.20090628e-01 -1.75742447e-01
      4.95785356e-01 -9.04415607e-01 4.43849713e-01 -2.13840798e-01
      -4.26387221e-01 7.57881030e-02 -2.75620390e-02 2.05626264e-01
      -2.95448843e-02 5.58573186e-01 -4.42533314e-01 -1.60634235e-01
      9.22869146e-02 1.18782133e-01 -1.20499596e-01 0. -1.60658613e-01
      1.28765807e-01 -2.38390148e-01 6.06100075e-02 3.69422138e-02
      -1.40610924e-02 1.97979406e-01 -3.12254727e-02 1.92785114e-01
      -1.79229736e-01 -3.06126595e-01 3.37637752e-01 -5.40371001e-01
      -2.34135062e-01 -1.15741054e-02 -2.36169938e-02 2.38285452e-01
      1.10195680e-02 -1.56452015e-01 -1.21818796e-01 1.42290145e-02
      -6.62261173e-02 -3.28820914e-01 -4.45673950e-02 1.63700998e-01
      8.53856057e-02 3.29698980e-01 1.61009431e-01 2.14852095e-01
      -5.90731442e-01 -3.75005156e-02 0. 8.74150321e-02 -4.42697883e-01
      -6.26042411e-02 -4.25336719e-01 4.53344554e-01 -3.74757946e-01
      -3.05852950e-01 -1.69252202e-01 -1.85886651e-01 2.23406643e-01
      1.85748234e-01 -3.12828541e-01 -1.16501302e-01 4.26838249e-01
      4.12434876e-01 1.01361349e-01 4.22294289e-01 -2.26866364e-01
      -3.06493759e-01 -4.53986973e-01 5.53981662e-01 1.37806728e-01
      3.66978049e-01 -3.95648032e-01 -9.57980976e-02 2.16392547e-01
      9.59894061e-03 -2.24574432e-01 -2.94400841e-01 1.93967685e-01
      1.78995430e-01 0. -6.71494007e-02 3.04430246e-01 -1.00630447e-01
      -6.96922541e-01 7.14460671e-01 8.75561610e-02 -4.57059853e-02
      -3.00258100e-01 -2.14349821e-01 2.62392648e-02 8.99678767e-02
      -1.86489910e-01 -1.61667198e-01 1.41302153e-01 -1.69355094e-01
      -3.30943882e-01 8.12439322e-01 -1.37446851e-01 3.62342820e-02
      1.97425082e-01 2.62609184e-01 2.43488342e-01 -6.87553361e-02
      -5.90081215e-01 1.94863439e-01 -1.38370156e-01 1.47973195e-01
      -3.19563836e-01 -1.11375973e-02 -1.70847863e-01 3.90994996e-01 0.
      7.52982676e-01 8.70605260e-02 -1.50820196e-01 -7.03603700e-02
      2.06956580e-01 7.59740591e-01 -4.45707887e-02 -7.80448457e-03
      1.01385294e-02 6.00257874e-01 -6.53253868e-02 2.71733642e-01
      -4.52511132e-01 2.81132966e-01 2.08147138e-01 -4.62914020e-01
      1.60459921e-01 -1.72907665e-01 1.42247736e-01 -1.83920503e-01
      5.02589643e-02 1.27937257e-01 -2.62851030e-01 2.02592939e-01
      -1.39671996e-01 7.64422351e-03 1.57853007e-01 1.08177580e-01
      5.19675374e-01 -7.48424558e-03 2.80663371e-01 0. 6.08485527e-02
      2.23872766e-01 -4.62323278e-01 -7.12349951e-01 1.13179117e-01
      -2.96207994e-01 7.45695904e-02 -4.49691981e-01 -1.63676277e-01
      -2.36343276e-02 4.27766517e-02 7.41552263e-02 -9.42060351e-02
      5.30507088e-01 -8.98818448e-02 1.84857771e-01 7.49767870e-02
      4.08490956e-01 -5.61231554e-01 2.09575891e-01 8.05451795e-02
      -2.99484074e-01 -1.88803780e-04 -1.84268683e-01 5.52410126e-01
      -1.06781460e-01 -3.13980609e-01 2.84533594e-02 3.80017847e-01
      -2.41860360e-01 -4.04072613e-01 0. 3.86200263e-03 1.16266720e-01
      -1.48433304e-04 7.91153982e-02 -4.53256182e-02 -4.43310976e-01
      2.99128324e-01 1.79508388e-01 5.00083864e-01 -4.25298065e-01
      4.93387043e-01 -1.43970679e-02 -1.49815068e-01 -3.02670866e-01
      2.84821969e-02 -8.61312926e-01 5.83584458e-02 -4.87549603e-01
      3.33038837e-01 2.86564410e-01 -8.68399665e-02 5.95143531e-03
      2.75892224e-02 -1.12199247e-01 -3.36343020e-01 8.97767320e-02
      -2.40584016e-01 -5.56029558e-01 -1.17658913e-01 -6.44010082e-02
      2.80060351e-01 0. 7.02914894e-01 1.73487872e-01 9.82130095e-02
      -1.32176921e-01 2.31974125e-02 -5.51460423e-02 4.54928400e-03
      1.44967258e-01 2.48104468e-01 -1.27393767e-01 -6.16537742e-02
      -6.40874729e-02 -1.54948443e-01 2.71857172e-01 -5.51182069e-02
      -2.84621656e-01 1.01281375e-01 -1.90173194e-01 -5.57891689e-02
      -5.41185379e-01 2.60510921e-01 -4.33365665e-02 2.03262404e-01
      1.24732278e-01 -2.39700854e-01 1.80937648e-01 1.62548292e-02
      -3.26264411e-01 6.18212894e-02 1.20301232e-01 4.47371155e-01 0.
      3.66606146e-01 -5.41746914e-02 4.30953354e-01 2.60333151e-01
      3.77727270e-01 -4.87671942e-01 1.75722152e-01 5.65151609e-02
      -1.49422795e-01 -2.37882659e-01 3.66375238e-01 -3.95461172e-03
      -2.07780719e-01 -9.20736045e-02 -2.06158906e-01 4.17614013e-01
      1.26543552e-01 -2.54487187e-01 -6.48820043e-01 -2.06834078e-01
      2.57080138e-01 1.35037348e-01 8.07017386e-02 -2.36941427e-01
      6.56674523e-03 1.59847885e-01 -5.14203608e-01 9.00736824e-02
      -3.19617875e-02 6.58274442e-02 2.93147624e-01 0. 2.17885062e-01
      2.54161984e-01 -3.49989645e-02 -3.15402716e-01 -4.50801067e-02
      1.18253767e-01 3.82169396e-01 -3.09590667e-01 -4.76023853e-01
      5.64176202e-01 1.86552048e-01 2.45578170e-01 1.07629336e-01
      3.06441575e-01 -2.41593227e-01 -9.76097286e-02 2.63969749e-01
      2.48958513e-01 -1.32238239e-01 -8.97256359e-02 -9.58247855e-02
      2.59667058e-02 -6.41604185e-01 1.74274713e-01 1.14088483e-01
      3.99783440e-02 -7.54833445e-02 -2.06118748e-01 4.85513061e-01
      1.99516252e-01 1.69489250e-01 0. 1.39615336e-03 -1.51884764e-01
      -1.39592052e-01 -3.15283597e-01 5.48594445e-02 1.39683619e-01
      -1.27708524e-01 9.34385955e-02 -2.39405423e-01 -7.61259871e-04
      -2.13797897e-01 -2.70840019e-01 2.10554376e-02 5.19848049e-01
      -1.05074085e-02 2.55490780e-01 4.58349496e-01 -2.15564817e-01
      -7.92437315e-01 -1.18934207e-01 -2.52894014e-02 1.28081590e-01
      6.86024576e-02 -2.71360993e-01 -9.56217572e-02 -3.73068690e-01
      1.38310224e-01 -1.99482247e-01 -2.63163652e-02 -2.00639412e-01
      3.59864920e-01 0. -2.76751250e-01 -1.00312509e-01 -1.49102286e-01
      -2.42043793e-01 2.18191832e-01 1.56341240e-01 3.01455945e-01
      4.20208901e-01 -3.14867258e-01 3.81777853e-01 -8.64387453e-02
      -8.63688812e-02 1.05870643e-03 4.70998198e-01 2.30614632e-01
      -1.09662175e-01 -2.41265744e-02 -3.24079573e-01 4.04523522e-01
      8.07521418e-02 7.74171501e-02 8.16641524e-02 -1.01129603e+00
      -5.08018017e-01 1.08726725e-01 -4.06374514e-01 -1.02982432e-01
      -1.56483948e-01 1.59843072e-01 -1.96636513e-01 4.13371533e-01 0.
      4.69619393e-01 4.58166569e-01 1.86356515e-01 7.12488517e-02
      -3.87544423e-01 2.90775806e-01 2.12177977e-01 -9.83371884e-02
      8.75048041e-02 -1.70807824e-01 -4.13641125e-01 2.14324161e-01
      -6.42250329e-02 3.02113086e-01 2.31775060e-01 -4.99329239e-01
      -7.89167732e-02 -7.78595656e-02 -9.88779292e-02 -5.88591360e-02
      9.13658962e-02 2.63747305e-01 -6.29354715e-01 -9.63202059e-01
      4.39672731e-02 1.85276866e-01 9.61726084e-02 -1.41831189e-01
      3.64826113e-01 -2.78939575e-01 4.01670158e-01 0. 6.39549568e-02
      1.14677817e-01 -1.35755792e-01 -1.69719905e-01 5.39465666e-01
      -3.78887236e-01 4.41062719e-01 3.61787789e-02 -4.06521827e-01
      1.12686738e-01 2.44916938e-02 4.17303890e-01 1.72264576e-02
      2.78544575e-01 1.46582246e-01 -1.78119931e-02 -8.95921886e-02
      -5.19708097e-01 -7.47495830e-01 -1.70290336e-01 4.16915566e-02
      -1.83402479e-01 -3.72365892e-01 -5.93761563e-01 3.99058819e-01
      -2.77985603e-01 -4.96592134e-01 -9.17092338e-02 3.16154808e-01
      -1.56671721e-02 1.47496322e-02 0. 7.36186206e-01 2.40517631e-01
      -6.48591220e-02 5.17337799e-01 -1.63499504e-01 1.45239606e-01
      -3.05565506e-01 -3.81317198e-01 2.65377730e-01 -2.67935753e-01
      -1.09924249e-01 1.09758496e-01 3.74117166e-01 -2.48812020e-01
      1.29959688e-01 2.47668564e-01 4.89793837e-01 -2.93412749e-02
      9.90221128e-02 -5.38229048e-01 -1.46801034e-02 2.35815331e-01
      6.48926720e-02 -5.18225413e-03 -2.45688632e-01 1.99507400e-01
      -3.35101396e-01 1.08709760e-01 1.64663285e-01 1.09812893e-01
      4.10982370e-01 0. -1.10487148e-01 7.56393597e-02 3.65969352e-03
      -2.46744692e-01 -8.65387768e-02 9.26289111e-02 -5.08619733e-02
      4.53985244e-01 -3.46292257e-02 -9.07852687e-03 2.09439114e-01
      2.07860604e-01 8.25819373e-02 -3.87415826e-01 1.76981220e-03
      -3.08457673e-01 -5.34418821e-01 4.41974372e-01 -4.53617007e-01
      -6.84912264e-01 7.77261704e-02 -2.83660799e-01 3.29046309e-01
      2.06235498e-01 -2.97099441e-01 3.72708067e-02 -1.55911162e-01
      -4.54151541e-01 2.92917162e-01 -1.48276668e-02 8.22094604e-02 0.
      2.50804782e-01 -1.07530288e-01 -2.44610384e-03 -2.73729980e-01
      2.98255030e-03 -4.09253210e-01 -4.73151058e-01 1.21249177e-01
      1.28682321e-02 8.11344385e-01 8.39463994e-02 2.09079802e-01
      -7.50853240e-01 7.93928877e-02 3.09967518e-01 3.41549635e-01
      -1.10658839e-01 -1.64677501e-01 -5.01192153e-01 6.60728058e-03
      6.07657909e-01 2.24222057e-02 -3.91059905e-01 -1.00403033e-01
      3.23464602e-01 -2.01753512e-01 -2.32251793e-01 -1.95606366e-01
      3.83674353e-01 -5.45006216e-01 3.24357331e-01 0. -1.49037644e-01
      -1.19121343e-01 -1.60147831e-01 2.52930876e-02 7.31962085e-01
      -1.66274324e-01 5.19374125e-02 -1.93877891e-02 -5.26187420e-01
      2.29029104e-01 1.25215407e-02 -2.35289529e-01 -2.12035209e-01
      2.88790107e-01 1.34185016e-01 1.41346559e-01 -3.80169004e-01
      8.16753656e-02 -1.78088278e-01 -4.68681008e-01 1.87409937e-01
      4.86099362e-01 -2.96552420e-01 -4.05581415e-01 5.44598699e-01
      -1.86369598e-01 -8.80677905e-03 2.64137983e-01 -2.19915941e-01
      -5.08989275e-01 3.37060362e-01 0. 1.72926057e-02 -3.49251032e-01
      -9.12583768e-02 -3.27625364e-01 -2.96597213e-01 3.36319387e-01
      1.87223524e-01 2.38076195e-01 1.02963760e-01 4.19953704e-01
      2.48232901e-01 -3.08518350e-01 -1.40924394e-01 3.82018924e-01
      3.36232811e-01 -5.03906727e-01 4.43268806e-01 1.36104003e-01
      -7.34914064e-01 2.17779651e-01 2.11186960e-01 -4.38192427e-01
      2.83425272e-01 -7.57714391e-01 -5.28623879e-01 -7.88471922e-02
      -2.85495102e-01 4.79406804e-01 -3.24413359e-01 3.29009175e-01
      -9.29267481e-02 0. 8.63037527e-01 -1.77001968e-01 -2.04150796e-01
      -3.60254586e-01 5.81693769e-01 2.89752394e-01 -4.61910248e-01
      -1.12911090e-01 -2.55297214e-01 3.37255657e-01 8.99967365e-03
      -1.02093220e-01 1.24643087e-01 2.91352253e-02 8.89179334e-02
      1.39832303e-01 9.36484814e-01 2.25907564e-01 -6.35241047e-02
      -7.23528191e-02 4.77339327e-02 -2.97775149e-01 -8.98827240e-03
      -3.81540596e-01 2.04819534e-03 -4.31435943e-01 -3.67926329e-01
      7.07973614e-02 1.05448671e-01 4.68440443e-01 2.75505453e-01 0.
      4.57765847e-01 3.36023241e-01 -2.31538966e-01 -9.75848511e-02
      3.93565476e-01 9.82470438e-02 -2.03389049e-01 -1.21187985e-01
      7.75037259e-02 5.64758539e-01 1.60184726e-01 5.99345446e-01
      -1.53781295e-01 -4.41890776e-01 1.00125515e+00 -1.20903119e-01
      9.62480158e-02 -1.02974892e-01 -4.05827552e-01 -3.68740290e-01
      -4.44497108e-01 -2.17320427e-01 -3.74426067e-01 -8.79249051e-02
      1.48587264e-02 1.51841998e-01 -6.97850659e-02 4.25503314e-01
      4.65477228e-01 1.30607396e-01 6.81220964e-02 0. 5.31166613e-01
      5.72429213e-04 2.35186949e-01 5.62896952e-02 -2.40920782e-01
      -3.76680642e-02 -5.67631721e-01 1.34403184e-01 -5.59368193e-01
      1.06420508e-02 4.30168182e-01 2.81437367e-01 -2.14597136e-01
      3.74769330e-01 3.74925613e-01 7.20942542e-02 -3.13816100e-01
      2.69407630e-01 -7.52312601e-01 -5.36523223e-01 7.05720857e-02
      -2.44383827e-01 -1.01307380e+00 1.60246328e-01 -2.96173096e-01
      6.40167475e-01 -8.79998878e-02 2.97106773e-01 9.40164253e-02
      7.40897059e-02 -7.06220940e-02 0. 8.17145631e-02 -6.02832474e-02
      9.01166126e-02 -8.46309066e-02 5.11846542e-01 2.09702641e-01
      -2.48173982e-01 -3.50421183e-02 1.72506019e-01 5.59123121e-02
      8.87494460e-02 -5.88466108e-01 3.19118887e-01 4.17042643e-01
      1.51396185e-01 -1.31226465e-01 9.49499197e-03 -7.14596510e-02
      1.68386206e-01 -2.28517279e-02 -6.03270531e-01 4.36201394e-01
      3.72427046e-01 -2.18796521e-01 2.01340914e-01 3.79649848e-01
      -3.82978171e-01 -3.63466501e-01 1.32254288e-01 5.65604985e-01
      8.43606815e-02 0. 2.45670915e-01 4.55178469e-01 3.28104168e-01
      -2.47056201e-01 -2.44780272e-01 7.45094195e-02 2.43662640e-01
      6.26301691e-02 -5.00738084e-01 -8.27368349e-02 -1.60841390e-01
      -2.21917704e-01 -8.24914873e-02 -2.01682359e-01 -2.78002154e-02
      -6.81543827e-01 6.85229141e-04 9.84474570e-02 -4.37879115e-02
      -1.30138800e-01 3.52651700e-02 1.12876736e-01 -4.16589856e-01
      -6.10716939e-01 4.57414240e-01 4.58384529e-02 2.20789313e-01
      -5.30385792e-01 5.64820431e-02 -1.68873698e-01 1.98388830e-01 0.
      5.36186099e-01 -1.89878613e-01 -1.49236813e-01 -1.12677487e-02
      -1.23584107e-01 1.16162278e-01 -4.64579225e-01 1.14588197e-02
      -2.79077232e-01 -3.59493047e-02 -2.54816175e-01 -1.28391743e-01
      -3.26556176e-01 -7.74930939e-02 2.39329934e-01 2.46518180e-01
      4.60799634e-01 -7.41300313e-03 -4.58646864e-01 -1.00590453e-01
      7.06706166e-01 4.77445781e-01 2.22393975e-01 -6.18109643e-01
      -9.01896413e-03 3.17004025e-01 -3.15759093e-01 -7.75656290e-03
      2.47279182e-01 -2.54527628e-01 -1.91368371e-01 0. 2.11484298e-01
      1.67951118e-02 1.70347214e-01 -1.01274565e-01 -2.29128525e-01
      7.04122007e-01 -2.42514953e-01 -4.81097661e-02 3.94057214e-01
      6.58975482e-01 2.15841576e-01 7.20993131e-02 -9.64573473e-02
      -2.24691972e-01 -2.37837341e-02 5.22319460e-05 2.88562000e-01
      2.55185775e-02 6.53192354e-03 1.84425771e-01 -1.32739795e-02
      -3.27250868e-01 -3.06084007e-01 -2.41595104e-01 1.44256830e-01
      3.68055314e-01 1.97581146e-02 2.43674338e-01 8.22467566e-01
      -1.23326227e-01 -9.81168896e-02 0. 4.77999866e-01 5.34184016e-02
      1.07401825e-01 -2.12959230e-01 -1.50782749e-01 7.78786987e-02
      -5.49909055e-01 5.95956445e-02 -2.04939768e-01 2.91147053e-01
      -2.18299001e-01 -1.25847384e-01 3.53321791e-01 -1.08712785e-01
      2.46688113e-01 5.33820510e-01 -1.55126467e-01 5.16854301e-02
      -8.29775929e-01 -1.82176828e-01 -2.29262430e-02 5.93195438e-01
      -2.64311522e-01 -5.26678920e-01 3.33465546e-01 2.89973319e-01
      -4.35879588e-01 -1.41033977e-01 3.06447625e-01 -2.34480470e-01
      3.17203075e-01 0. 4.90057379e-01 -6.34427786e-01 -3.40012789e-01
      2.05626562e-01 -3.34692933e-02 3.39295954e-01 -5.20495653e-01
      -1.19946957e-01 -7.83363059e-02 -3.00729066e-01 6.43374845e-02
      7.77794272e-02 1.83132976e-01 -7.33253062e-02 5.17028868e-01
      5.07435799e-01 2.88232237e-01 -2.47007370e-01 -2.86062539e-01
      -7.61569813e-02 -6.50798753e-02 5.65301239e-01 -3.84565145e-01
      -4.15905535e-01 3.77971023e-01 2.41459444e-01 -3.16953868e-01
      -3.32621336e-01 6.02217913e-02 -4.33044229e-03 4.30017769e-01 0.
      -4.21800941e-01 -3.78572792e-01 3.63077298e-02 -3.09684813e-01
      5.04644215e-01 1.06440574e-01 5.48569337e-02 -7.29468226e-01
      -2.22380683e-01 8.05920303e-01 7.19241500e-02 2.39902690e-01
      6.20873690e-01 7.35945702e-02 -5.39283976e-02 1.34461284e-01
      2.20461249e-01 1.35664299e-01 -8.67182255e-01 -3.70805442e-01
      6.17151223e-02 5.50269783e-01 -2.28279799e-01 -2.72671849e-01
      7.02263892e-01 2.41099373e-01 -5.65658091e-04 7.80798420e-02
      3.14874798e-01 -2.16543838e-01 2.42765382e-01 0. 1.44381002e-01
      1.76613480e-01 -4.93048280e-02 -7.66635358e-01 -6.82430387e-01
      -3.78797017e-02 1.12749487e-01 2.39025071e-01 -3.20182443e-01
      5.60210943e-01 -1.05296753e-01 -5.96910007e-02 3.76162499e-01
      2.78385222e-01 -3.62591386e-01 1.40407830e-01 -3.14054489e-01
      -4.54382636e-02 -5.86112440e-01 -9.03808296e-01 6.02772795e-02
      4.62525822e-02 -5.39798617e-01 1.48775829e-02 4.51755255e-01
      4.84501064e-01 -5.04349291e-01 -5.03076017e-01 1.12448581e-01
      -1.93089887e-01 2.46398211e-01 0. 5.85583448e-02 2.05523178e-01
      6.70288643e-03 -1.42988041e-01 4.92268413e-01 -2.07288414e-01
      4.48226720e-01 2.74981201e-01 7.95835927e-02 3.23299021e-01
      9.02529582e-02 2.06094220e-01 -1.28304372e-02 -5.32232225e-01
      1.71162114e-02 -2.61243343e-01 -2.09863901e-01 1.80802777e-01
      -2.13318959e-01 3.00692916e-01 9.79104340e-02 1.16405196e-01
      2.18280703e-01 -4.17902946e-01 -7.85919651e-02 -2.87219048e-01
      -2.71654010e-01 -2.05553904e-01 -1.71491683e-01 1.87003314e-01
      6.69438720e-01 0. -6.14603423e-02 8.90638828e-02 -4.07058746e-01
      -2.25077927e-01 5.82980253e-02 2.31492631e-02 -3.06253254e-01
      -1.86370522e-01 -2.08180219e-01 5.59892178e-01 1.45441487e-01
      3.29030633e-01 -1.78918794e-01 3.21739749e-03 1.92205593e-01
      -7.16390312e-01 7.13325292e-02 -1.44610211e-01 -3.54732633e-01
      -2.01170340e-01 -3.06628384e-02 2.12791741e-01 -1.56783517e-02
      4.78224605e-01 2.64706351e-02 4.36332375e-01 -2.00064018e-01
      -8.87960792e-02 -1.22290917e-01 -1.12415902e-01 -1.30308732e-01 0.
      2.86393195e-01 6.27918588e-03 -3.15377295e-01 6.04742877e-02
      3.00201833e-01 3.12985361e-01 1.44807681e-01 4.55655940e-02
      -4.68384117e-01 -7.02946261e-02 -1.09056264e-01 1.53709009e-01
      3.66714329e-01 8.48285947e-03 9.68722180e-02 -4.33907598e-01
      2.67333359e-01 -3.03145111e-01 6.83604255e-02 -4.53939915e-01
      2.08987206e-01 5.64751208e-01 -2.19166353e-01 8.51937395e-04
      -9.89333987e-02 9.17721763e-02 -5.54557331e-02 1.09401524e-01
      2.74317563e-01 -7.43927294e-03 -2.11453140e-01 0. 6.58237875e-01
      1.74202919e-01 -2.64624804e-01 2.39307180e-01 2.89529383e-01
      -5.76805234e-01 9.36425626e-02 4.11704570e-01 1.68700337e-01
      4.97114137e-02 4.64094579e-02 -1.83126424e-02 -4.59352106e-01
      3.92839275e-02 5.88502407e-01 1.07812330e-01 -4.63034600e-01
      -4.43981141e-01 -1.59352288e-01 -7.11111054e-02 1.54668808e-01
      -4.04006094e-02 -2.79643804e-01 -3.29994634e-02 4.52957809e-01
      -3.54807377e-01 1.30476549e-01 2.03419641e-01 1.68496057e-01
      -5.15465587e-02 -1.82329230e-02 0. 1.22276738e-01 -1.72643557e-01
      -1.36554748e-01 1.06401406e-01 7.28432909e-02 1.71622217e-01
      -4.76248235e-01 -1.90056235e-01 -4.08570543e-02 5.13316453e-01
      -5.08323610e-01 -4.00074959e-01 2.05201268e-01 -7.04133064e-02
      -3.87397781e-02 5.28616965e-01 5.72300851e-02 2.54093766e-01
      -1.10324538e+00 3.32109302e-01 6.64433464e-02 7.52983153e-01
      -3.47250074e-01 -2.71923423e-01 4.42012735e-02 4.89508867e-01
      4.14318621e-01 -4.77989428e-02 -6.94326982e-02 -7.50503540e-02
      1.91193566e-01 0. -1.95016697e-01 -6.48729622e-01 -4.23480749e-01
      1.19092219e-01 3.35286498e-01 -1.79798782e-01 -3.98395538e-01
      6.46743253e-02 -3.53496164e-01 9.70604479e-01 -3.03395480e-01
      -8.76456648e-02 -6.02452219e-01 6.39466345e-02 4.20610726e-01
      3.58662084e-02 3.09735239e-02 -1.92074373e-01 -5.14168739e-01
      2.56070774e-02 -5.02341926e-01 -2.87079196e-02 4.64560062e-01
      2.55631030e-01 -2.82578263e-02 2.68574715e-01 -2.34530661e-02
      -2.19050333e-01 -5.40997505e-01 2.26139165e-02 1.04140759e-01 0.
      2.90134996e-01 -5.68180867e-02 -3.33408713e-01 -9.09424722e-02
      -1.67323515e-01 2.03216285e-01 4.16212201e-01 -2.69343406e-01
      -3.01738352e-01 2.64729559e-01 1.28062889e-01 1.59654170e-01
      3.03078406e-02 3.89322966e-01 3.00818984e-03 -4.93714303e-01
      -9.67419147e-02 1.82933867e-01 -3.34851533e-01 -4.73172553e-02
      2.04305217e-01 2.54010677e-01 3.95752251e-01 3.15041244e-01
      -2.51170676e-02 -6.13785446e-01 5.33640459e-02 9.56895202e-02
      1.96447194e-01 -3.13792541e-03 -1.67588681e-01 0. 2.77814239e-01
      -4.00343567e-01 -3.95200625e-02 -5.23195088e-01 -2.78497815e-01
      -4.57016602e-02 3.77787679e-01 -5.34453511e-01 1.09666392e-01
      4.11101490e-01 -1.40431181e-01 9.14536119e-02 9.84549403e-01
      7.26385787e-02 -8.48297477e-02 9.28742662e-02 -4.86317396e-01
      -4.44060028e-01 -9.07704771e-01 2.07349092e-01 8.84109735e-01
      3.53492439e-01 2.07668543e-01 -1.33233592e-01 6.25102878e-01
      3.99391621e-01 1.57054171e-01 -1.26205832e-01 5.03332652e-02
      -6.68053776e-02 -1.21053681e-01 0. 3.01044345e-01 -6.38695508e-02
      1.23634979e-01 -5.41830063e-01 -1.63013861e-01 -1.93828478e-01
      3.42502177e-01 -2.00862974e-01 4.15607005e-01 7.59741485e-01
      -9.88899916e-02 -3.99142116e-01 -1.62375867e-01 6.12656415e-01
      1.06804535e-01 -2.28758410e-01 -2.15116084e-01 -9.09804404e-02
      2.51391619e-01 2.26811484e-01 1.82249174e-01 -1.28018916e-01
      1.30805984e-01 -1.49249896e-01 4.01615072e-03 3.55270594e-01
      -5.65178871e-01 1.01773925e-01 -7.39313960e-02 1.64778568e-02
      9.86663625e-02 0. 1.60484910e-01 -1.18564896e-01 -4.44038749e-01
      -1.82262901e-02 5.79182565e-01 1.22353867e-01 3.60762715e-01
      2.84122556e-01 -2.00067520e-01 -4.97080326e-01 3.20746191e-02
      7.52222717e-01 -1.85890213e-01 -2.14872375e-01 3.47253263e-01
      -5.02918959e-01 3.83834481e-01 2.87417889e-01 -2.91955143e-01
      4.11970139e-01 1.00430265e-01 7.23491088e-02 -4.39709127e-01
      -2.74986416e-01 1.68469980e-01 2.29754567e-01 -5.52293897e-01
      -6.67728111e-02 1.22268267e-01 1.14993028e-01 3.61274421e-01 0.
      -5.19200861e-01 4.72483784e-01 -1.03181787e-01 -2.09524214e-01
      -8.45278382e-01 -6.12988770e-02 -5.17829776e-01 2.32883617e-01
      -1.76433977e-02 4.07244384e-01 2.15626638e-02 -1.97435409e-01
      -1.89666808e-01 2.16738462e-01 2.04073593e-01 -1.18631549e-01
      -4.19222593e-01 4.23813006e-03 2.46854350e-01 3.10302451e-02
      3.81403863e-01 -1.03049040e-01 3.84921610e-01 6.81061625e-01
      2.68165350e-01 -4.54152040e-02 2.00579673e-01 -1.11265361e-01
      9.90153998e-02 -3.86054248e-01 -3.74645203e-01 0. 3.74300301e-01
      1.70894518e-01 -6.81858659e-02 -2.00808704e-01 1.64826959e-01
      -3.98971736e-01 1.96671799e-01 4.72404987e-01 2.19994903e-01
      1.06237017e-01 9.27746296e-03 -1.74412653e-01 -9.93672609e-02
      -4.21755195e-01 8.25093389e-02 -2.85763413e-01 -3.05372000e-01
      -1.10504001e-01 -5.96251339e-02 3.71147573e-01 2.44032498e-02
      -1.27882138e-01 4.49481187e-03 -2.72369117e-01 -3.42089087e-02
      1.45593628e-01 -3.57035063e-02 -2.84240723e-01 3.72914255e-01
      -3.85012567e-01 1.69992521e-01 0. 5.38488291e-02 -2.60725290e-01
      -2.89858162e-01 -5.54110050e-01 -1.47229537e-01 4.44715321e-01
      1.12433136e-01 -1.27790004e-01 -1.73669279e-01 1.33950830e-01
      -2.63180047e-01 -1.75552398e-01 3.98602456e-01 -3.86520810e-02
      3.66133392e-01 5.45733497e-02 2.17125401e-01 3.14520970e-02
      -4.96901155e-01 1.68178733e-02 1.41241461e-01 -7.97343533e-03
      -4.09459740e-01 -3.01694572e-01 4.02972549e-02 3.95638615e-01
      -1.53177470e-01 1.78765059e-01 2.15376079e-01 -4.14498687e-01
      -8.23755711e-02 0. -1.94870800e-01 -9.70694423e-02 -2.04347104e-01
      -9.21347588e-02 1.24887668e-01 -3.52968931e-01 5.49764074e-02
      2.77042150e-01 -4.21532333e-01 1.36405006e-01 -5.40294886e-01
      -1.05036283e-02 3.37416083e-01 -1.66422635e-01 8.90333280e-02
      -1.89875945e-01 5.82959801e-02 -2.04390347e-01 -1.42318696e-01
      2.19805092e-01 5.09323657e-01 8.50736082e-01 6.03634380e-02
      -8.90819579e-02 4.52529430e-01 5.56232572e-01 5.66954672e-01
      1.90222729e-02 -2.20040932e-01 -3.13574940e-01 -1.43647641e-01 0.
      -6.07542284e-02 -4.22611654e-01 3.49890262e-01 2.71327458e-02
      -5.20192862e-01 1.02259303e-02 1.70733497e-01 -6.00487813e-02
      -4.92311507e-01 -3.68984222e-01 1.20219499e-01 6.58654124e-02
      -1.38214111e-01 5.39436266e-02 -2.86628395e-01 1.07865959e-01
      -4.84186299e-02 -6.96413994e-01 1.22285239e-01 4.28146720e-01
      4.36107874e-01 3.49002361e-01 2.77945250e-01 2.70877689e-01
      7.82544076e-01 3.33391249e-01 3.89045924e-01 -4.92013276e-01
      -3.65103126e-01 1.06096327e-01 -2.80733824e-01 0. 1.81710795e-02
      -3.26489434e-02 -1.14900075e-01 -1.81990694e-02 -2.08286002e-01
      -2.59060830e-01 -2.90348679e-01 -1.24215320e-01 -2.67758369e-01
      2.26873949e-01 -2.33482122e-02 -1.50356770e-01 2.70554453e-01
      2.09045820e-02 -6.20960481e-02 1.96591899e-01 -7.70092085e-02
      2.51878891e-03 -6.99266016e-01 -2.98648089e-01 8.10817927e-02
      1.53052405e-01 -1.65543303e-01 -5.00281632e-01 2.18467657e-02
      4.65355754e-01 1.43285051e-01 -4.55656946e-01 -1.82168081e-01
      1.27273798e-01 8.97737443e-02 0. -1.20301329e-01 2.03012869e-01
      2.13302225e-01 2.96835154e-01 1.99460760e-01 2.98722208e-01
      9.32659432e-02 -5.16661465e-01 3.17100167e-01 2.85883807e-03
      -1.08910158e-01 2.70967424e-01 -5.58321141e-02 3.80860776e-01
      -2.00713620e-01 -2.92278558e-01 -2.48638600e-01 1.89064946e-02
      -4.77789462e-01 1.27138078e-01 3.36473078e-01 3.31375711e-02
      -1.56278804e-01 1.89568967e-01 -1.36556178e-01 -3.83206271e-02
      -5.16795591e-02 -9.90668312e-02 2.67855585e-01 -3.82987559e-02
      2.23982766e-01 0. 9.19153988e-02 -1.85899094e-01 1.95354909e-01
      -1.12584531e-01 -7.14193564e-03 -2.48717844e-01 2.00066194e-02
      -1.64383780e-02 2.20928013e-01 -4.85483781e-02 2.31400669e-01
      -6.30058467e-01 -1.66550159e-01 3.14761132e-01 7.31267273e-01
      -5.42287290e-01 -1.64315477e-01 6.79943204e-01 1.09529905e-01
      -8.46651196e-03 2.30520573e-02 -6.53455406e-02 4.32819203e-02
      -2.38402277e-01 -1.83996424e-01 4.04844105e-01 2.85383135e-01
      -5.28627098e-01 -7.09881932e-02 1.38015315e-01 6.32735193e-01 0.
      2.57239461e-01 -2.88718510e-02 7.86106765e-01 -4.22095060e-01
      8.04718584e-02 -3.91002953e-01 -2.01997742e-01 -4.39104646e-01
      -6.84486553e-02 -9.00789946e-02 5.59697330e-01 -4.49656248e-01
      -9.42170992e-02 -4.00583386e-01 1.89391896e-01 -3.39661658e-01
      -1.25219598e-01 2.98955292e-01 -9.84789878e-02 3.97211522e-01
      1.98616460e-01 1.07497118e-01 3.35981041e-01 -3.88593748e-02
      3.11108083e-01 4.74616259e-01 -1.69499647e-02 1.50129413e-02
      6.40464351e-02 -4.25548226e-01 -6.79073632e-02 0. -7.82791004e-02
      -5.17362773e-01 1.08511530e-01 -1.20495312e-01 7.14139819e-01
      -3.57479930e-01 -6.05627857e-02 -3.77426259e-02 -6.01628497e-02
      3.61527026e-01 2.87793100e-01 -4.32282925e-01 -7.99010321e-02
      -1.51349500e-01 3.82933229e-01 5.29414117e-02 -1.94497705e-01
      5.17356873e-01 -5.05570769e-01 1.33240744e-01 5.13801932e-01
      4.88935649e-01 -9.06401575e-02 1.04451247e-01 1.54120222e-01
      2.40549967e-01 -2.05271631e-01 1.41717017e-01 4.58791435e-01
      -3.13652545e-01 -1.28896520e-01 0. 5.15861154e-01 2.00947121e-01
      6.55582324e-02 4.31087390e-02 -1.76113084e-01 -3.02201390e-01
      -1.65071502e-01 -2.16389850e-01 -2.48251513e-01 3.50882173e-01
      -3.16205710e-01 -2.47542202e-01 -5.31225920e-01 8.60480547e-01
      -3.37180309e-02 -2.36094996e-01 4.30298716e-01 3.58829975e-01
      -2.21116811e-01 -4.31743190e-02 3.07745218e-01 3.68530899e-01
      -1.59525216e-01 -2.93010920e-01 6.91983640e-01 -1.64619997e-01
      3.28654915e-01 2.02315360e-01 5.42788744e-01 -5.21780849e-01
      -5.68469316e-02 0. 2.62483567e-01 6.96661547e-02 -3.56249154e-01
      4.83599864e-02 -2.01848149e-01 -6.75743446e-02 -4.00936157e-01
      3.33110511e-01 3.80648822e-01 -3.81495148e-01 -4.00232039e-02
      2.84337163e-01 -5.63105464e-01 -1.25342652e-01 3.38131756e-01
      -5.55769876e-02 -6.46632761e-02 -6.20869435e-02 -9.89061713e-01
      -3.07099044e-01 -4.48953688e-01 -7.47862214e-04 -2.28207350e-01
      1.05722845e-01 3.60817075e-01 1.83658853e-01 -2.23301262e-01
      1.23094320e-01 1.46101773e-01 -3.10407013e-01 -2.42649108e-01 0.
      -2.23109648e-01 8.23065639e-02 -2.02139586e-01 -2.75706083e-01
      5.43770075e-01 -1.94862653e-02 -4.96427536e-01 1.92693785e-01
      -2.54763216e-01 6.71783462e-02 1.70655608e-01 -1.98482126e-01
      6.75811470e-02 2.74276525e-01 -1.89625934e-01 -2.66177237e-01
      -1.03788294e-01 2.67854512e-01 -1.07127368e+00 -3.57238948e-01
      4.66073632e-01 4.09494668e-01 3.82022679e-01 -3.35637897e-01
      -1.11950085e-01 -1.72195181e-01 -2.47076094e-01 -4.78960633e-01
      -1.46516621e-01 1.06361173e-01 2.53534347e-01 0. 2.88976133e-01
      -2.65309900e-01 8.06010365e-02 -2.52239406e-01 -2.03308985e-01
      -6.28373325e-02 6.51057810e-02 -2.67662495e-01 6.67191967e-02
      5.40809572e-01 9.32115167e-02 -1.92046091e-01 -1.45059107e-02
      -2.02564165e-01 8.44905198e-01 -7.73603559e-01 -4.21207458e-01
      -1.47909641e-01 -3.81935596e-01 8.92271847e-02 6.65409788e-02
      6.02002025e-01 -4.46556985e-01 5.72449923e-01 -1.77012593e-01
      -2.62709502e-02 6.15790077e-02 -4.27457005e-01 -1.30168170e-01
      -1.04343472e-02 1.80160329e-01 0. 1.45861223e-01 1.22667208e-01
      -5.50702333e-01 8.04583728e-02 -1.22664154e-01 -7.76384771e-02
      5.91245703e-02 -8.43503833e-01 -4.64388758e-01 -3.33277702e-01
      5.73630512e-01 5.29006533e-02 -1.43193305e-01 1.98088020e-01
      1.40125811e-01 -1.90192178e-01 4.50768292e-01 2.98658162e-01
      -8.14726233e-01 3.06573570e-01 2.68403441e-02 -7.40583092e-02
      -1.63586326e-02 9.52716917e-02 7.58402884e-01 3.09589952e-01
      -1.32160336e-01 -9.61194217e-01 -9.38975140e-02 2.45326504e-01
      5.25380194e-01 0. 4.43696491e-02 1.27208740e-01 -1.19588196e-01
      -1.36245623e-01 -4.45242643e-01 -3.25536728e-01 -2.15769917e-01
      8.79132688e-01 -1.61094740e-02 8.60945135e-02 -5.53935673e-03
      -3.55992138e-01 -3.46114457e-01 -3.83670062e-01 -1.15078360e-01
      9.99555960e-02 -1.49685726e-01 -1.08174577e-01 9.13950875e-02
      -1.47170335e-01 5.42584479e-01 5.32899685e-02 4.47997153e-01
      1.47485286e-01 -1.97478920e-01 1.16226457e-01 6.11480884e-02
      -1.09595132e+00 -3.43262032e-02 -3.72396916e-01 8.02180827e-01 0.
      1.58003256e-01 -2.06379861e-01 -5.47841549e-01 -1.87553614e-01
      -1.33100882e-01 4.52932976e-02 6.93318903e-01 -2.73063350e-02
      -4.55341935e-02 2.40059748e-01 1.38902158e-01 -2.22230908e-02
      -8.93113613e-02 -2.50948042e-01 -8.82266369e-03 -5.14529467e-01
      4.32488620e-01 5.44733070e-02 9.02920067e-02 -2.13041246e-01
      -2.12262183e-01 -1.52385116e-01 -6.79420903e-02 9.60365459e-02
      7.12857917e-02 1.71748400e-01 -1.49454484e-02 1.16019189e-01
      2.42074162e-01 -1.64165542e-01 -3.21682900e-01 0. 3.66585553e-02
      7.48297125e-02 -3.45558554e-01 2.81830318e-02 3.60134214e-01
      -1.04342131e-02 -1.05969585e-01 -2.55033106e-01 -1.10378005e-01
      2.40297034e-01 -2.45495468e-01 2.90722996e-01 -5.97462356e-01
      1.15139633e-01 -4.85741675e-01 4.08272147e-02 -1.54709503e-01
      -1.81523830e-01 1.30208045e-01 -2.80337967e-02 3.09174567e-01
      6.03376150e-01 3.07561029e-02 -1.08338594e-01 8.67247805e-02
      -2.14171588e-01 3.56361084e-02 -1.98205724e-01 2.52206475e-01
      -5.36597192e-01 -1.32822692e-01 0. 6.23373270e-01 4.45577562e-01
      -5.35341382e-01 1.59495056e-01 -1.19222462e-01 -7.02496111e-01
      4.56519015e-02 -2.43392020e-01 -1.26233488e-01 3.87687832e-01
      -5.37828915e-02 6.77443862e-01 -6.30034804e-01 1.87855721e-01
      2.50840396e-01 -9.70755070e-02 -2.68746167e-01 -4.48419064e-01
      -8.05163383e-02 -6.56844024e-03 7.65769407e-02 1.19750664e-01
      -7.85895139e-02 -3.36897552e-01 -6.87991530e-02 1.52811930e-01
      2.52577484e-01 -3.70563537e-01 7.05270708e-01 -3.80795449e-01
      -1.64541662e-01 0. 3.02595682e-02 1.48609012e-01 -4.60723549e-01
      -8.62045214e-02 -7.81899750e-01 -2.53616780e-01 -3.71005774e-01
      -1.54293314e-01 8.87036100e-02 1.91170886e-01 -1.96131855e-01
      2.30714053e-01 -4.67373997e-01 -1.01395652e-01 4.74728554e-01
      3.01890343e-01 -3.50742042e-01 -6.80880845e-02 -8.09114456e-01
      2.49307510e-02 1.57980695e-01 3.23564798e-01 -4.38703030e-01
      -7.79749870e-01 5.59458993e-02 -1.85037211e-01 5.79478368e-02
      -2.73743331e-01 3.38665634e-01 -6.63464248e-01 -2.61951447e-01 0.
      1.04116416e+00 -1.58052845e-03 -3.56063902e-01 -4.50209320e-01
      1.92162916e-01 -1.00753225e-01 1.81513235e-01 -9.46572796e-02
      -6.25410855e-01 4.59841788e-02 3.17912459e-01 1.39631936e-02
      1.09817229e-01 3.30047071e-01 -3.55612896e-02 -3.77095431e-01
      4.90281433e-02 -8.36750939e-02 -7.59889126e-01 -2.24616513e-01
      -7.45314956e-02 -8.24522693e-03 -7.96283901e-01 -6.45858228e-01
      4.06151414e-01 1.88753694e-01 -2.42599234e-01 -1.83779165e-01
      -1.70684382e-01 -1.80444747e-01 6.08722806e-01 0. 2.85081238e-01
      -1.85137689e-01 -5.05308092e-01 1.30643472e-01 1.67416930e-01
      -1.42414391e-01 -5.14593581e-03 -3.89759839e-01 8.19180384e-02
      3.57065469e-01 2.98218489e-01 -2.99345434e-01 1.71665683e-01
      -3.81228924e-01 2.69877791e-01 -4.16762143e-01 1.20775044e-01
      1.20518178e-01 -3.41953158e-01 1.29555792e-01 -5.73253036e-02
      1.53171882e-01 1.65412188e-01 -4.94458020e-01 -1.28124103e-01
      -1.47254124e-01 1.04094714e-01 -3.47639948e-01 -2.78491646e-01
      -5.19306585e-02 5.26308000e-01 0. -1.98837593e-01 5.25533676e-01
      -8.04409757e-02 -6.12624027e-02 -4.32680190e-01 -2.61352044e-02
      2.07258090e-01 1.61704272e-01 1.35502309e-01 -1.04970358e-01
      1.67435080e-01 -4.10587519e-01 -1.39404997e-01 -1.62278816e-01
      1.07786453e+00 -4.30209756e-01 -1.30179912e-01 3.92064303e-02
      -1.76030055e-01 3.86438161e-01 1.40743822e-01 1.85823888e-01
      4.92839456e-01 -7.06517845e-02 4.44882691e-01 1.70449942e-01
      1.37339592e-01 -4.80715901e-01 -2.13008076e-01 3.45858693e-01
      4.12690639e-01 0. 2.43403330e-01 4.71480377e-02 -7.94313326e-02
      2.43241519e-01 -2.75958955e-01 9.31017548e-02 -7.09108412e-02
      -4.57118392e-01 -4.50575173e-01 -7.41172805e-02 -6.97294250e-02
      2.19256822e-02 2.88580284e-02 -1.89313382e-01 -1.44375041e-01
      -5.32548428e-02 2.46414453e-01 3.09579939e-01 3.57310116e-01
      2.51755975e-02 -6.99811243e-03 3.40925395e-01 -1.70423374e-01
      9.07766819e-02 3.33979875e-01 -2.91682363e-01 -2.68210471e-02
      -5.48063330e-02 -6.56094909e-01 2.54561424e-01 1.58833712e-01 0.
      -3.27727869e-02 -3.37571830e-01 6.66243955e-02 3.06485981e-01
      -2.87384182e-01 -3.30835909e-01 6.10540211e-01 3.96523513e-02
      -2.42896661e-01 4.07895356e-01 3.44887376e-01 -3.82191569e-01
      -3.00899874e-02 -9.68088508e-02 -3.59640032e-01 -3.54573429e-01
      -7.46640414e-02 -9.80555266e-03 -2.55309790e-01 -7.23736733e-02
      7.73628056e-02 2.72664309e-01 2.76326478e-01 8.11681673e-02
      2.99741656e-01 -1.21891484e-01 -9.47986394e-02 1.25166997e-01
      -8.46320391e-02 -3.23280931e-01 -7.70026892e-02 0. -1.45254582e-01
      -1.61696002e-01 -3.40830564e-01 3.59571636e-01 -7.90329874e-02
      2.49561146e-02 -1.03064425e-01 5.92761099e-01 -3.94117713e-01
      1.57424852e-01 3.44988316e-01 -3.24258596e-01 -5.31478047e-01
      -3.73251766e-01 2.43003547e-01 3.37263457e-02 -1.70619756e-01
      2.50994653e-01 6.44182190e-02 2.10032657e-01 1.93899557e-01
      2.63844550e-01 2.67677099e-01 7.91335285e-01 2.73465533e-02
      1.69608757e-01 2.65071660e-01 -1.56283855e-01 5.24023436e-02
      -1.17152050e-01 -6.94328099e-02 0. 1.71218708e-01 2.11283311e-01
      -1.12550989e-01 -2.54586861e-02 1.66522250e-01 -2.88342685e-01
      4.17447507e-01 -1.20696180e-01 -4.73515570e-01 -2.00912595e-01
      2.36348018e-01 -3.46440040e-02 -1.56514272e-01 3.31860065e-01
      -1.79760844e-01 9.15325955e-02 -2.10590035e-01 -1.71570748e-01
      7.99792930e-02 -1.51233912e-01 -3.14014673e-01 1.64535433e-01
      -2.23909970e-02 1.35280833e-01 3.54037076e-01 2.22104251e-01
      1.49162814e-01 -2.49223799e-01 1.60938278e-01 -2.05785394e-01
      1.29861593e-01 0. -1.61784794e-02 -2.41667368e-02 2.08391979e-01
      -3.82173419e-01 -2.19535008e-01 -1.41309276e-01 -2.53483832e-01
      2.29445040e-01 5.07144481e-02 4.98178601e-01 -1.31761074e-01
      -1.07464790e-01 3.41705233e-01 4.26077694e-01 5.97826004e-01
      -2.40980133e-01 -1.48950920e-01 3.26465160e-01 1.94228336e-01
      -3.26127380e-01 2.58976340e-01 7.62426630e-02 5.46175778e-01
      -5.38348816e-02 -7.06425071e-01 2.27659822e-01 4.12016690e-01
      -1.25029549e-01 5.38295567e-01 -3.38572919e-01 4.02741253e-01 0.
      5.66181004e-01 -2.18748629e-01 6.42664135e-01 -1.22824505e-01
      -4.71457154e-01 1.60770848e-01 -4.01623219e-01 -6.09189942e-02
      2.45692000e-01 -1.21697605e-01 5.06570041e-01 -1.66915566e-01
      -2.53980815e-01 5.31468213e-01 5.87239936e-02 5.82486033e-01
      -1.27464712e-01 6.11933023e-02 3.01311135e-01 1.39406696e-01
      3.06238413e-01 -8.33828568e-01 2.70628538e-02 4.47836844e-03
      2.57448584e-01 1.91682652e-02 4.48822826e-01 -3.18434089e-01
      4.52043772e-01 3.37069072e-02 4.97413158e-01 0. -2.62451172e-01
      -4.32425700e-02 -1.44241586e-01 5.71612060e-01 9.31493491e-02
      2.33721003e-01 1.04791082e-01 2.44587176e-02 -2.32802078e-01
      -1.76491007e-01 7.46966600e-02 -1.12646028e-01 -1.41896158e-01
      -7.18125701e-02 8.44710022e-02 9.03006420e-02 -1.02958225e-01
      1.29720598e-01 1.43720821e-01 2.88569123e-01 1.40901864e-01
      -2.42834562e-03 3.60060722e-01 -3.03916097e-01 3.14554960e-01
      -1.45517930e-01 -1.88017845e-01 -4.56591666e-01 2.61523604e-01
      -1.37748241e-01 3.88620615e-01 0. -2.64379203e-01 -5.03599763e-01
      3.75741601e-01 -4.12464201e-01 -3.07597548e-01 -5.37531935e-02
      -1.45889461e-01 -1.32429421e-01 2.85020918e-01 -1.35846019e-01
      1.97727352e-01 -4.79765177e-01 1.89721793e-01 4.07600641e-01
      -3.57431412e-01 -8.62114877e-02 -4.68167774e-02 2.51429468e-01
      -8.00558031e-02 -2.85148621e-01 -2.41345063e-01 -3.20035100e-01
      -1.32275268e-01 -2.66596705e-01 6.55750511e-03 3.15414488e-01
      4.42321986e-01 -3.03176850e-01 -1.99494839e-01 -1.95862293e-01
      1.23924784e-01 0. 2.61839122e-01 -2.31202304e-01 -2.33291164e-01
      7.41913915e-01 -4.25206661e-01 -1.05346493e-01 4.50934798e-01
      -6.99431226e-02 -2.10927233e-01 3.66010075e-03 5.77570200e-01
      1.52952731e-01 2.06419185e-01 -2.97918230e-01 -1.12782866e-01
      -7.41304085e-02 -7.44891353e-03 -1.33929670e-01 -3.69011343e-01
      -5.28880395e-02 -5.48927188e-02 4.19119507e-01 -1.86887220e-01
      3.44471216e-01 6.65619448e-02 -3.72510523e-01 -3.61054003e-01
      3.27946991e-01 -3.95041658e-03 6.28028112e-03 -9.77998152e-02 0.
      1.02042869e-01 2.90732253e-02 3.40813220e-01 -2.38376439e-01
      -2.76377827e-01 8.55369717e-02 -6.46670759e-02 -6.67829961e-02
      -1.47653654e-01 -8.96144062e-02 4.45491791e-01 -6.02490067e-01
      -1.29425004e-01 -4.21442330e-01 1.50176123e-01 3.47375125e-01
      5.08298695e-01 -7.56538957e-02 -2.93757290e-01 1.84177697e-01
      -2.95567632e-01 2.31596217e-01 3.39296818e-01 -2.60538608e-02
      -1.47350311e-01 1.50690749e-02 -2.50421017e-01 9.69491974e-02
      1.95728421e-01 4.29759361e-02 -3.84526342e-01 0. -2.62525052e-01
      -5.77433594e-02 1.66304424e-01 -4.60423112e-01 5.02765365e-02
      -4.07336414e-01 1.33184910e-01 4.55730230e-01 3.40461850e-01
      -1.94469213e-01 2.26442769e-01 -1.78737760e-01 1.40036643e-01
      -2.42842594e-03 7.78169259e-02 -1.44185051e-01 -9.23508853e-02
      -9.17537734e-02 -1.70804441e-01 -2.23623797e-01 5.59543669e-01
      1.69950295e-02 2.45451957e-01 -5.00526056e-02 -2.91610301e-01
      -8.32545757e-02 -4.76738177e-02 -2.72132218e-01 2.91323721e-01
      -2.12420687e-01 5.10083660e-02 0. -6.34787679e-01 6.69482291e-01
      2.03035161e-01 -4.06918585e-01 9.48305428e-02 -3.67360353e-01
      2.10433379e-01 -1.76238880e-01 3.04062188e-01 -4.11152750e-01
      4.48298663e-01 -3.56343865e-01 -1.14211708e-01 -1.85885191e-01
      4.51161414e-01 -4.26829189e-01 1.09617539e-01 -1.74558610e-02
      -3.85971159e-01 5.17341256e-01 2.64363319e-01 -6.89033806e-01
      3.11626405e-01 -1.46624044e-01 -2.52005875e-01 1.02996051e-01
      8.04960608e-01 -2.09937632e-01 6.46215081e-02 -3.55228037e-01
      2.14751780e-01 0. 2.87841633e-02 2.07109556e-01 -2.70531714e-01
      5.26468866e-02 8.66332501e-02 -3.64579827e-01 3.45690638e-01
      -1.67147011e-01 -3.43042195e-01 -4.64338481e-01 6.82096258e-02
      4.09983754e-01 1.63898394e-01 -2.02221066e-01 -2.49051064e-01
      3.24615687e-02 -7.63622597e-02 5.24455309e-01 -9.60093960e-02
      -8.99667144e-02 1.36375483e-02 -1.07338004e-01 4.96236563e-01
      8.49078372e-02 -8.88281837e-02 -3.14370662e-01 1.75069943e-01
      1.16791561e-01 -1.40801966e-01 -1.26832470e-01 4.83603105e-02 0.
      -3.03275257e-01 -7.84511045e-02 -1.92049220e-01 1.34917259e-01
      -1.95952222e-01 3.36023510e-01 1.08538665e-01 4.16031070e-02
      3.19348544e-01 -3.31157237e-01 2.17407167e-01 2.14411885e-01
      -8.85053426e-02 -2.13792734e-02 -2.01517865e-01 3.64212841e-01
      -8.80050212e-02 -1.64310113e-01 -1.57941863e-01 -3.07789028e-01
      1.06304958e-02 -8.35657120e-02 1.35379463e-01 2.50099748e-01
      -9.08708200e-02 1.26773059e-01 2.73551553e-01 -2.01301500e-01
      1.63996756e-01 1.98734060e-01 -1.27554312e-01 0. -9.07198433e-03
      3.99382204e-01 -6.03214025e-01 1.83947161e-01 -1.16382837e-02
      -6.31495118e-02 4.32049623e-03 2.86824882e-01 5.34126461e-01
      -5.12622058e-01 4.75981176e-01 6.09363317e-01 -2.43925706e-01
      2.69837920e-02 -3.85458082e-01 1.76992550e-01 -8.27426851e-01
      2.69591570e-01 -3.58172148e-01 6.29058421e-01 2.26811126e-01
      -3.93930376e-01 -2.43330747e-01 -5.09027839e-01 -1.86052591e-01
      -2.87695855e-01 4.58089262e-01 -8.23811665e-02 1.98263749e-01
      1.10890999e-01 -8.01644772e-02 0. -3.20012778e-01 3.54662150e-01
      3.01867574e-01 1.41310856e-01 7.11778700e-02 -1.46433145e-01
      -3.07947248e-01 2.71808058e-01 -2.91861713e-01 1.09986685e-01
      5.31574450e-02 -1.62009254e-01 2.89975345e-01 4.23049740e-02
      4.94461656e-01 1.47723198e-01 -2.16064662e-01 -7.18564615e-02
      1.36675239e-01 -6.19151779e-02 -3.46125066e-02 -2.41053775e-01
      4.76877093e-02 7.18161345e-01 1.77526563e-01 3.23031604e-01
      -2.29367405e-01 -1.09335691e-01 2.50783801e-01 -1.05664656e-02
      2.28443235e-01 0. -1.00244045e-01 -7.63620902e-03 -1.27748102e-01
      -7.98311457e-02 -3.08037937e-01 -5.35208762e-01 -1.01219393e-01
      -8.79932940e-02 5.49599230e-01 -1.06877796e-01 1.03462398e-01
      -7.88635984e-02 2.61002302e-01 8.48469958e-02 -2.73666084e-01
      -2.01022074e-01 -2.23759145e-01 8.73147190e-01 -8.11556578e-01
      -2.24491879e-01 -3.58697861e-01 -2.31419042e-01 3.56336832e-01
      -2.41661683e-01 2.28315890e-01 -1.77011967e-01 4.35858160e-01
      6.38929904e-02 2.03908503e-01 -4.67323333e-01 2.97947936e-02 0.</_></support_vectors>
  <decision_functions>
    <_>
      <sv_count>1</sv_count>
      <rho>-9.2984782468702250e+00</rho>
      <alpha>
        1.</alpha>
      <index>
        0</index></_></decision_functions></my_svm>
</opencv_storage>
