<?xml version="1.0"?>
<opencv_storage>
<my_svm type_id="opencv-ml-svm">
  <svm_type>C_SVC</svm_type>
  <kernel><type>LINEAR</type></kernel>
  <C>1.</C>
  <term_criteria><epsilon>2.2204460492503131e-16</epsilon>
    <iterations>500000</iterations></term_criteria>
  <var_all>4096</var_all>
  <var_count>4096</var_count>
  <class_count>2</class_count>
  <class_labels type_id="opencv-matrix">
    <rows>1</rows>
    <cols>2</cols>
    <dt>i</dt>
    <data>
      -1 1</data></class_labels>
  <sv_total>1</sv_total>
  <support_vectors>
    <_>
      -1.88603684e-01 1.11797437e-01 1.60617247e-01 -1.51796848e-01
      5.02942167e-02 1.23532057e-01 4.15940695e-02 -9.45935119e-03
      5.75172491e-02 1.36276096e-01 9.34159830e-02 8.91880468e-02
      5.23937643e-02 -3.73401865e-02 -4.45957631e-02 1.02459349e-01
      1.89780742e-02 2.46472880e-02 -1.32122397e-01 5.77896759e-02
      1.37278721e-01 -1.73836052e-01 -8.64119604e-02 -1.55889526e-01
      1.23309419e-01 3.61139677e-03 2.61140484e-02 -1.34402156e-01
      6.49051592e-02 5.35599813e-02 3.13350409e-01 0. -8.26594904e-02
      4.42214385e-02 4.17001033e-03 -5.54990470e-02 -9.11747739e-02
      2.84648519e-02 4.97937277e-02 2.28512008e-02 1.46779209e-01
      -3.30412239e-02 8.43758956e-02 1.49285033e-01 6.05526939e-02
      -4.73735221e-02 -1.33578554e-02 4.87143807e-02 -1.60608757e-02
      -5.95586561e-02 -5.49869798e-02 -3.17829847e-02 5.47713935e-02
      -2.57994477e-02 -2.51278281e-01 -1.42499372e-01 6.01488240e-02
      5.16478382e-02 2.69550588e-02 -3.71387750e-02 8.27359110e-02
      -5.58893010e-02 1.23655856e-01 0. -9.38668698e-02 6.56405138e-03
      5.20540327e-02 1.46872744e-01 1.05254047e-01 -1.39391914e-01
      -3.44817676e-02 -1.59432948e-01 1.49810895e-01 2.99982168e-02
      1.91820800e-01 -2.94217803e-02 -2.24957876e-02 1.44115314e-02
      5.09259179e-02 5.25088236e-02 1.12183385e-01 7.28523508e-02
      -1.64834023e-01 1.06325254e-01 -2.01892341e-03 1.73198543e-02
      7.75445700e-02 -6.54347539e-02 -3.49762999e-02 -6.03196211e-02
      -3.26586775e-02 4.87613976e-02 8.89581740e-02 9.59091540e-03
      9.12960470e-02 0. -2.77275085e-01 7.14186504e-02 -7.78840780e-02
      6.25966713e-02 1.71558261e-01 -8.73596519e-02 5.03714308e-02
      -5.93212880e-02 -8.78170058e-02 -5.00167198e-02 -1.42745057e-03
      9.23608691e-02 4.41309661e-02 7.47881159e-02 -2.09835339e-02
      4.29306664e-02 1.73372090e-01 7.78517798e-02 -1.08534679e-01
      5.17405607e-02 -8.17804877e-03 6.88501522e-02 7.09378794e-02
      -1.85948491e-01 5.68472408e-02 9.60721672e-02 -8.98157656e-02
      -4.21688892e-02 6.72368556e-02 -1.68309249e-02 8.57104287e-02 0.
      -3.13465521e-02 8.49244371e-02 -1.11000843e-01 -7.76058882e-02
      2.46565536e-01 3.59650478e-02 7.39379786e-03 1.67604182e-02
      1.11840703e-01 -4.28872146e-02 6.45887330e-02 2.83035904e-01
      -2.43303273e-02 -6.94369227e-02 -8.71140137e-03 5.16815931e-02
      7.68864900e-02 1.06246158e-01 -8.53483006e-02 -6.33111503e-03
      1.12813920e-01 -8.40519741e-02 3.27587710e-03 -1.10486500e-01
      3.35972495e-02 1.05038740e-01 2.39518844e-02 1.68795399e-02
      1.17699876e-01 5.45474850e-02 1.50549680e-01 0. 2.55462006e-02
      1.03470698e-01 -3.19267064e-02 -9.33350176e-02 -4.40663239e-03
      -5.14599085e-02 8.26843679e-02 1.06446005e-01 2.41958782e-01
      -8.39445516e-02 4.78270166e-02 6.87136427e-02 2.12735329e-02
      5.14047034e-02 -9.17204767e-02 -1.03331786e-02 -3.84229347e-02
      8.16980749e-02 -9.89435688e-02 -1.22798570e-02 -6.54010922e-02
      -1.13617979e-01 1.47099886e-02 -1.93961903e-01 -4.58198227e-03
      7.31436014e-02 2.20744908e-01 4.63098027e-02 5.00599854e-02
      4.77287173e-02 5.64697795e-02 0. 9.47077647e-02 1.76076353e-01
      9.67904329e-02 1.45756453e-01 1.80814624e-01 -6.71552569e-02
      7.91319758e-02 -3.32071483e-02 3.53109911e-02 -1.58991724e-01
      1.07032925e-01 8.57839454e-03 -9.40348208e-02 4.69435714e-02
      -4.40301821e-02 -2.36763284e-02 2.79830117e-02 6.23545758e-02
      -8.27993080e-02 1.66855320e-01 8.37309882e-02 2.95835547e-02
      4.92041633e-02 -2.56746948e-01 2.44045630e-02 2.63884906e-02
      1.97118241e-02 -6.82382137e-02 1.42828241e-01 9.90993679e-02
      1.28188387e-01 0. 1.20825119e-01 4.91730832e-02 7.75601491e-02
      -4.55315299e-02 1.73129588e-01 5.95078319e-02 1.76215805e-02
      1.60388008e-01 -4.28783894e-02 -1.28560811e-01 4.96239327e-02
      2.75023226e-02 -7.87497219e-03 -6.81652203e-02 1.28147621e-02
      -6.12613484e-02 1.61881953e-01 2.06266269e-01 -9.88799706e-02
      7.29360036e-04 4.01366018e-02 -6.43595830e-02 -4.34418023e-02
      -1.19835176e-01 -7.43208751e-02 2.04412282e-01 1.92575064e-02
      7.27766976e-02 3.62630844e-01 -8.87601003e-02 1.25698447e-02 0.
      -6.65000752e-02 1.90072916e-02 4.54041641e-04 -7.37915933e-02
      -9.01159495e-02 -1.31775498e-01 -4.04135436e-02 2.46392582e-02
      -4.01610248e-02 -1.08653061e-01 -5.58667146e-02 7.93426260e-02
      1.67340785e-02 7.52539979e-03 6.69252798e-02 -2.16936716e-03
      1.55407516e-03 -5.29519580e-02 -1.55495256e-01 -1.21683642e-01
      3.64097022e-02 -3.85939479e-02 -9.77431312e-02 -2.44092360e-01
      -5.52928401e-03 1.49120223e-02 -1.27768397e-01 -1.20787151e-01
      -1.77920297e-01 8.86576027e-02 -2.96713784e-04 0. -9.34852734e-02
      8.99407268e-02 -1.15459688e-01 4.37764404e-03 -9.61513743e-02
      -1.40256155e-02 1.32515669e-01 1.06708631e-01 1.76375315e-01
      -1.09897166e-01 3.47346850e-02 7.71306306e-02 -3.08335871e-02
      1.75412484e-02 8.83247554e-02 2.15691086e-02 -1.23407334e-01
      -2.72934027e-02 -1.29585296e-01 1.27811115e-02 3.05169262e-02
      -7.96926543e-02 -1.48615330e-01 -1.05680034e-01 8.11355859e-02
      1.30120348e-02 3.04540992e-02 6.12477660e-02 -1.96461082e-02
      4.90941368e-02 -2.53291316e-02 0. -1.06665445e-02 9.05399993e-02
      3.12465262e-02 7.95328096e-02 -6.52212501e-02 -8.82681385e-02
      8.27866048e-03 1.33929908e-01 1.04637876e-01 -1.46816075e-02
      9.36417133e-02 -1.84681281e-01 -2.71859728e-02 4.83144820e-02
      5.05262129e-02 -2.41414532e-02 4.81257327e-02 3.92240435e-02
      -8.63773152e-02 1.85853988e-02 -8.73720795e-02 4.36765179e-02
      -1.22263014e-01 -2.63779070e-02 2.31678076e-02 2.46270254e-01
      6.40312955e-02 7.76985437e-02 5.64544536e-02 4.10599522e-02
      -2.75932439e-02 0. 1.05299782e-02 1.89083330e-02 -3.19600478e-02
      -5.11618815e-02 -1.27964556e-01 -1.59142524e-01 8.05493593e-02
      1.78155497e-01 1.72660183e-02 -4.61667627e-02 2.79383659e-01
      1.73058417e-02 -2.02555478e-01 -1.26731008e-01 -6.05865344e-02
      1.19229630e-01 1.64391294e-01 2.06019863e-01 -3.22794914e-02
      2.31258735e-01 -8.07649568e-02 -2.37822160e-01 -2.95953929e-01
      -2.69488007e-01 1.17878512e-01 2.97393143e-01 9.88420919e-02
      9.33379978e-02 -1.46864755e-02 2.66876984e-02 2.92315632e-02 0.
      -5.05021885e-02 8.95443484e-02 9.82500017e-02 1.23538356e-02
      -9.90445986e-02 -1.90147549e-01 -4.87736203e-02 3.09094763e-03
      9.93019566e-02 1.29453475e-02 3.51997524e-01 1.14587136e-01
      1.93992686e-02 7.48971105e-02 -1.85041606e-01 -6.11417480e-02
      3.77965197e-02 1.12438463e-01 4.90402095e-02 2.56205171e-01
      1.95066601e-01 4.97999229e-02 -1.27239197e-01 -3.93975288e-01
      -9.96134356e-02 -2.14296449e-02 1.07651442e-01 1.07987992e-01
      -5.10303304e-03 9.00435671e-02 -8.16270988e-03 0. -2.47491270e-01
      8.15434307e-02 1.55207692e-02 -2.86689475e-02 -4.73377779e-02
      7.85296597e-03 1.04020990e-01 -6.09033741e-02 9.19134617e-02
      -2.02694461e-02 6.08465597e-02 4.88340892e-02 -3.77420112e-02
      3.22669335e-02 2.50553968e-03 5.75824045e-02 -3.70392799e-02
      -7.14970008e-02 -2.14959607e-01 1.23598345e-01 9.99346524e-02
      -5.45713119e-02 7.96492249e-02 -1.01055041e-01 1.18311286e-01
      1.47097297e-02 -4.13569324e-02 5.75704686e-02 -5.77018335e-02
      8.62844586e-02 -1.08809501e-01 0. -2.86992770e-02 1.37321008e-02
      -5.22195138e-02 1.47051709e-02 7.15262145e-02 -4.90941331e-02
      -7.11033046e-02 -9.89099741e-02 -1.17746200e-02 -2.07270950e-01
      -6.34378120e-02 -7.65497237e-02 -4.00340967e-02 -2.79617161e-02
      3.39322649e-02 2.49969214e-02 1.62321310e-02 6.92377388e-02
      -1.01606660e-01 -1.20127469e-01 -9.77333859e-02 -1.09785743e-01
      -2.92426976e-03 -1.76521048e-01 -6.58084899e-02 -4.26174812e-02
      -1.55043649e-02 -4.78178486e-02 -1.42886475e-01 4.48034815e-02
      -8.16404372e-02 0. -7.21375421e-02 -7.24172369e-02 -1.27226725e-01
      -6.62341267e-02 -1.08422540e-01 -3.84353213e-02 9.55609903e-02
      6.86060190e-02 -6.24873210e-03 -1.03523731e-02 -5.80459684e-02
      -4.69394308e-03 2.47336943e-02 1.24813668e-01 6.17626347e-02
      -7.83687830e-02 -5.46638593e-02 -1.21134907e-01 -4.20705006e-02
      -1.44210801e-01 -1.52969182e-01 -3.92251685e-02 2.49765888e-02
      -1.20040700e-01 2.69848201e-02 5.53454831e-02 -1.32006913e-01
      1.14118360e-01 1.75957046e-02 -1.01234727e-01 -2.39264786e-01 0.
      -1.08613834e-01 -1.47722578e-02 1.07604943e-01 -7.05922693e-02
      1.15556605e-01 -6.03976436e-02 9.20949280e-02 8.39819759e-02
      -9.92940813e-02 -5.90534545e-02 1.43228337e-01 5.67387566e-02
      -1.83747128e-01 4.52175215e-02 1.44628495e-01 -6.95617497e-02
      -5.34519218e-02 -5.68561256e-02 -5.14683686e-02 9.30242054e-03
      1.67815953e-01 -1.89038634e-01 1.05163470e-01 2.25541461e-02
      -1.20284773e-01 -3.11878864e-02 -7.89538473e-02 -6.61419332e-02
      -1.58094570e-01 1.24863960e-01 1.05364576e-01 0. -1.62554365e-02
      1.28000416e-02 -4.24609194e-03 1.31421816e-02 -4.06185687e-02
      -4.97698225e-02 6.68163970e-02 4.62952033e-02 -3.19629312e-02
      6.31997436e-02 -8.45078081e-02 5.13514020e-02 9.33719520e-03
      -4.83845137e-02 -6.45864336e-03 -3.81658636e-02 6.81652054e-02
      1.08441181e-01 -3.99136841e-02 7.73198117e-05 1.10567935e-01
      4.25887704e-02 -3.96484919e-02 -1.01586938e-01 -6.10090569e-02
      3.05161104e-02 6.65326044e-02 5.35212718e-02 -6.00323826e-02
      4.85248193e-02 1.41671700e-02 0. 9.43681747e-02 3.43821831e-02
      1.87629491e-01 4.14054953e-02 1.85520668e-02 1.26408460e-03
      -1.30386623e-02 -1.38859292e-02 1.40561527e-02 3.31925862e-02
      -1.12163827e-01 -2.03181449e-02 -3.48814353e-02 -7.38813579e-02
      1.75655857e-01 3.68725322e-02 9.29045901e-02 -6.98436797e-02
      -1.05163679e-01 -8.54311511e-02 1.07925534e-01 -9.99709126e-03
      2.87677329e-02 1.42866418e-01 3.16617526e-02 3.51919793e-02
      -1.36645496e-01 8.73178616e-02 -7.62853678e-03 8.84306729e-02
      1.67961773e-02 0. 3.88352610e-02 -2.72608399e-01 -1.67511195e-01
      -3.08775455e-01 -2.21057516e-02 -7.14905262e-02 -4.08375859e-02
      -1.24245428e-01 -3.60200927e-02 -8.91339555e-02 2.43098065e-02
      -8.18441287e-02 -4.33648638e-02 -6.70451298e-02 -3.85413766e-02
      -5.30673265e-02 -8.29044655e-02 -7.32311308e-02 -3.24152201e-01
      -2.11204916e-01 -2.80230314e-01 -2.83578485e-01 -1.12445474e-01
      -7.64827281e-02 -2.54849456e-02 -1.40065178e-01 -1.89065710e-01
      -1.41428009e-01 -1.69176593e-01 -1.33393943e-01 -2.67618269e-01 0.
      -1.15066685e-01 -1.83173362e-02 -6.19251728e-02 -1.13087162e-01
      3.54758762e-02 -5.54465540e-02 -8.00230503e-02 -1.88029319e-01
      -2.76760250e-01 -4.49346900e-02 -4.77034785e-02 -3.44570056e-02
      -2.46216753e-03 1.20547585e-01 -3.43542770e-02 -1.70229062e-01
      -1.35907978e-01 -1.83239013e-01 -2.84512550e-01 -1.82794496e-01
      -9.19213593e-02 3.50365080e-02 -1.19240051e-02 -1.04812652e-01
      -3.79052877e-01 -2.67312080e-01 -3.39611381e-01 -8.11768994e-02
      -1.96350977e-01 -1.82743534e-01 -2.02479094e-01 0. -2.13767603e-01
      -5.10061672e-03 -1.01845913e-01 -1.37499105e-02 -3.50297168e-02
      -8.47895909e-03 1.61559358e-01 1.04201190e-01 -3.06384657e-02
      -1.35350870e-02 1.55886441e-01 7.45410845e-02 -6.32015616e-02
      2.44705975e-01 4.73897681e-02 -2.61934008e-02 -9.38347429e-02
      3.67419496e-02 -1.61501691e-01 -9.74770810e-04 -5.13041131e-02
      -4.37047631e-02 3.83387841e-02 7.46474229e-03 1.64243788e-01
      3.79686318e-02 -1.38225069e-03 3.24445479e-02 2.33508218e-02
      1.00235537e-01 -5.24879806e-02 0. 5.27330209e-03 1.64896399e-02
      6.33504167e-02 8.91456604e-02 5.10578603e-02 -9.40132886e-02
      -1.45377040e-01 -4.02660621e-03 6.48675114e-02 2.31895745e-02
      -8.07061512e-03 -9.93123464e-03 -1.79210886e-01 -4.90841866e-02
      8.40778202e-02 1.43812373e-01 9.77812409e-02 -4.80942503e-02
      2.61721760e-02 2.19774451e-02 3.24979909e-02 -1.16062626e-01
      -2.05995440e-02 -1.12984672e-01 -1.50474748e-02 1.16691194e-01
      3.31769511e-02 7.63762295e-02 9.57460795e-03 4.59058350e-03
      -4.28181179e-02 0. 1.28452107e-02 -7.17345849e-02 -5.86618073e-02
      9.53026265e-02 7.29113817e-03 2.05660641e-01 -4.76231091e-02
      1.96407009e-02 -2.85721733e-03 -8.97213593e-02 -1.06998444e-01
      -3.74540612e-02 -1.65096804e-01 1.73554584e-01 1.27961114e-01
      -7.93968141e-02 4.59737815e-02 1.35100469e-01 -5.44864535e-02
      -1.20476387e-01 -3.86870131e-02 -1.05652384e-01 3.33462097e-02
      -1.01383008e-01 -5.42462803e-02 1.44416898e-01 -2.44666357e-02
      1.29234701e-01 1.55079156e-01 -2.38739848e-02 -1.83231160e-01 0.
      -1.04658581e-01 -8.59868452e-02 -4.05649189e-03 -5.15975244e-03
      2.36827899e-02 7.47603690e-03 -9.80910007e-03 3.28367501e-02
      -6.73293462e-03 3.31570655e-02 7.47251930e-03 9.91903022e-02
      2.23951176e-01 3.84024903e-02 -6.55222610e-02 -4.13559936e-02
      9.21658128e-02 -1.11329239e-02 -7.93052278e-03 -1.03531033e-01
      7.78930485e-02 1.06016830e-01 -1.55005669e-02 -8.97950456e-02
      -1.77990004e-01 1.18108466e-03 2.14275047e-02 -8.77600536e-02
      -3.64525951e-02 3.51071954e-02 1.94661409e-01 0. -3.53515223e-02
      1.27476037e-01 1.59474555e-02 -6.32074773e-02 6.76669478e-02
      -3.59528363e-02 -5.25279082e-02 9.45413485e-02 -1.24286627e-02
      9.74803939e-02 2.24011987e-02 -6.24778457e-02 5.71532547e-02
      -4.81927432e-02 1.02164447e-01 -1.62796397e-02 -1.14903543e-02
      -3.84659953e-02 5.47873415e-02 6.05773851e-02 -2.29533836e-02
      5.65259308e-02 -1.52956635e-01 -7.88862780e-02 -5.96988387e-02
      8.64523351e-02 -3.06966007e-02 7.20058009e-02 2.74754260e-02
      -3.23059969e-02 3.10910027e-02 0. 5.49151450e-02 1.06619567e-01
      -8.78528655e-02 -1.07773624e-01 -4.98077162e-02 -1.17945790e-01
      3.06100175e-02 -1.65096864e-01 -1.07008770e-01 9.73165035e-02
      9.82306227e-02 -1.77078079e-02 -4.72165793e-02 8.04991359e-05
      3.03804558e-02 1.60487756e-01 3.05769127e-02 -4.26501445e-02
      -1.52919563e-02 6.65796176e-02 -1.94649488e-01 -9.62396637e-02
      -3.20134722e-02 -1.01690680e-01 1.11232758e-01 -7.84342885e-02
      -1.76791921e-01 -3.47298570e-02 -3.34366038e-02 2.73472257e-02
      -2.22742278e-02 0. 3.55846375e-01 8.69052708e-02 -1.40768513e-01
      -2.05910012e-01 -7.90743753e-02 -9.59518328e-02 -7.05012083e-02
      -4.13210206e-02 -2.17552677e-01 -7.88445119e-03 -9.70085040e-02
      -1.08861431e-01 -8.78900662e-02 8.71351957e-02 1.89118683e-01
      -8.11102055e-03 -9.15429145e-02 2.92208716e-02 1.11388788e-01
      -3.70138362e-02 -3.38062763e-01 -2.35052288e-01 -8.88216868e-02
      -6.88447505e-02 -1.37849927e-01 -6.57595694e-02 -2.00603962e-01
      -2.05616653e-01 -2.26040650e-02 -1.58637706e-02 6.42738119e-03 0.
      9.83272120e-02 -3.62212174e-02 -6.34995475e-02 2.77051004e-04
      -2.21560802e-02 -6.31060824e-02 -2.13003114e-01 -1.81953639e-01
      1.36685044e-01 1.38005987e-01 -4.35611326e-03 -1.89288463e-02
      -1.65352434e-01 1.37089118e-01 1.57196894e-01 -8.16355646e-03
      -1.81240171e-01 -1.46491185e-01 1.11849397e-01 -1.00687549e-01
      -1.61132708e-01 -1.51397780e-01 1.28288064e-02 -1.22725099e-01
      -2.13429794e-01 -3.59596580e-01 -1.79606974e-02 9.89237148e-03
      3.52478027e-02 -2.18006670e-01 -3.30837741e-02 0. 1.11165084e-01
      -4.26082835e-02 -1.42594993e-01 4.21779491e-02 -2.92306021e-02
      -1.83393463e-01 -1.11522853e-01 -1.16990559e-01 1.19696341e-01
      9.79237780e-02 -1.37887359e-01 -2.73669884e-02 -3.50815356e-02
      8.86177048e-02 1.00573897e-01 -1.47556746e-02 -4.36863825e-02
      8.49205628e-02 1.63215585e-02 -1.19221397e-01 -8.16293359e-02
      -1.65873468e-02 -6.32844493e-03 -2.12705418e-01 -1.09785326e-01
      -3.33353072e-01 1.01305887e-01 -2.47901883e-02 -1.97008029e-02
      -6.28862306e-02 -5.77925844e-03 0. 2.00156018e-01 -6.84984252e-02
      1.31852776e-01 3.64674767e-03 -1.36569381e-01 -8.83445963e-02
      -6.31951988e-02 -8.37900117e-02 1.04126886e-01 -1.53922960e-02
      -6.69681504e-02 7.09713111e-03 4.83859703e-02 8.89718533e-02
      8.49237293e-03 1.52043700e-01 2.58443207e-02 -1.63687523e-02
      9.22157019e-02 -9.55690742e-02 8.12420100e-02 4.21545543e-02
      -7.99090788e-02 -2.05359042e-01 9.24648717e-02 -1.08987559e-02
      3.33962552e-02 4.21933904e-02 7.14140162e-02 2.15506088e-03
      -6.63758675e-03 0. 8.72533396e-02 -6.89067319e-02 -3.81464250e-02
      -6.49554580e-02 -8.79096836e-02 -1.16434254e-01 1.38523519e-01
      -1.81787070e-02 3.65007371e-02 -1.54975295e-01 6.06397577e-02
      7.18470514e-02 -6.31180778e-02 -6.14579730e-02 1.13698900e-01
      1.35171890e-01 1.55565664e-01 5.04151210e-02 3.21960784e-02
      -2.25934312e-02 1.45199886e-02 -7.44147375e-02 -5.43491803e-02
      -1.77934393e-01 1.41828984e-01 9.75322500e-02 -3.65002803e-03
      1.37376875e-01 1.02056645e-01 -6.05940446e-02 -9.60930064e-02 0.
      5.69631867e-02 7.80264586e-02 9.15760174e-02 -8.07259157e-02
      -4.70459349e-02 -1.03922263e-01 -2.18147170e-02 -2.82338113e-02
      -3.96820642e-02 -1.53172584e-02 -6.07190728e-02 4.88088317e-02
      -1.12064481e-02 4.71454225e-02 1.01853728e-01 8.68733227e-02
      6.68940321e-02 3.01051028e-02 -5.15917391e-02 -5.55668436e-02
      6.23607561e-02 -8.15084204e-02 1.59766786e-02 -1.30041540e-01
      6.68975711e-02 -3.87101900e-03 -9.80021805e-02 -6.96522593e-02
      3.18909250e-02 -1.21937785e-02 1.44036517e-01 0. -5.89708537e-02
      3.16736437e-02 1.91495270e-02 -4.15260624e-03 -9.05292109e-02
      -1.06495105e-01 -4.94416580e-02 7.88449124e-02 6.38011321e-02
      -7.04427902e-03 5.64417355e-02 -2.18961105e-01 8.27538446e-02
      1.40376732e-01 5.84799461e-02 -1.61276180e-02 1.56205706e-02
      -2.00715307e-02 -6.80437461e-02 2.73683779e-02 -1.86382949e-01
      9.27282125e-02 7.23028928e-03 -6.18031435e-02 -3.99883790e-03
      1.03138827e-01 4.40498181e-02 3.38872112e-02 1.11654617e-01
      -1.60678953e-01 3.51618300e-03 0. -1.52517892e-02 -1.64695948e-01
      -1.49225831e-01 2.00269178e-01 2.90973429e-02 -4.63610031e-02
      7.39426985e-02 -6.43616319e-02 1.15809493e-01 5.09053282e-02
      -1.48202986e-01 -2.52054870e-01 6.13211654e-02 7.54517466e-02
      -7.32648745e-02 9.43335071e-02 9.62536111e-02 -6.80616591e-04
      -2.49961808e-01 -2.23044008e-01 -3.95008415e-01 1.41666666e-01
      1.47395253e-01 1.20745460e-02 1.44548401e-01 4.28182669e-02
      4.62877005e-02 -1.27358362e-01 3.95050384e-02 -5.47118373e-02
      8.75454471e-02 0. 2.62999803e-01 -7.21138492e-02 -2.47807309e-01
      6.41763136e-02 6.41120747e-02 2.79472601e-02 1.01078145e-01
      -1.26374019e-02 2.24551320e-01 3.29313517e-01 -1.23050913e-01
      -1.73925925e-02 6.69566449e-03 -8.37806016e-02 6.67547658e-02
      -3.32740508e-02 3.71193327e-02 4.62065544e-03 2.73016959e-01
      -4.17574123e-02 -1.67146996e-01 4.43035224e-03 -1.59819592e-02
      5.62958121e-02 7.54848421e-02 -1.98821779e-02 1.37499273e-01
      -5.38051873e-02 7.08592013e-02 8.64660293e-02 1.78995699e-01 0.
      3.13889891e-01 1.61918983e-01 -1.73734538e-02 1.17479861e-01
      4.03892361e-02 1.15903415e-01 4.12596837e-02 -2.47784272e-01
      -2.02993546e-02 1.40020475e-01 2.79781409e-03 5.94673567e-02
      2.66719013e-02 9.14781913e-02 5.84574528e-02 -1.17361061e-02
      -2.02664770e-02 -1.24021575e-01 1.99040517e-01 1.91131443e-01
      -3.45967361e-03 1.53699815e-01 1.13208652e-01 6.36262596e-02
      -2.46868879e-02 -2.19836041e-01 -4.81640268e-03 1.34217978e-01
      1.67555630e-01 -3.73586044e-02 7.88834468e-02 0. 4.50347923e-02
      1.16869725e-01 -2.40174737e-02 9.86991301e-02 9.93120372e-02
      -3.73597927e-02 1.62370488e-01 -1.52263999e-01 -3.54320966e-02
      9.83107015e-02 -8.94251987e-02 -5.04192598e-02 3.27025889e-03
      3.71702760e-02 1.82358265e-01 -1.17146395e-01 -1.61822706e-01
      -1.28347024e-01 -8.98651853e-02 8.90342072e-02 5.26504554e-02
      1.32615939e-01 1.53556302e-01 8.11558440e-02 3.25542316e-02
      -3.48772764e-01 -1.71738312e-01 4.63993698e-02 6.05630130e-02
      -1.14377484e-01 2.96471342e-02 0. 1.41600044e-02 1.12895407e-01
      8.49477351e-02 -8.95701349e-02 -4.52405065e-02 -1.01006746e-01
      4.12330218e-02 -5.93852922e-02 -3.35579589e-02 3.83724868e-02
      7.46235112e-03 -9.18723196e-02 2.03406382e-02 1.31455779e-01
      1.28887609e-01 1.50799947e-02 -1.06867746e-01 -6.57460988e-02
      2.10721884e-02 3.32704782e-02 -6.55642804e-03 3.62103656e-02
      6.06949590e-02 4.13471870e-02 8.53231698e-02 -1.66296333e-01
      -1.02400156e-02 -6.65740967e-02 2.83203293e-02 1.31692123e-02
      2.58332007e-02 0. -1.07160829e-01 9.50598682e-04 2.99967751e-02
      -8.20140913e-02 -7.13530704e-02 -1.04743488e-01 1.48476988e-01
      7.17266649e-02 8.04995000e-02 -3.71197425e-02 3.65238078e-02
      5.98025732e-02 4.56213914e-02 -3.79500054e-02 1.68870598e-01
      5.09114563e-03 -7.77547061e-02 -3.76825081e-03 -5.39926253e-02
      -9.10625532e-02 4.03086841e-02 7.12417662e-02 -7.76983723e-02
      -1.26476074e-02 6.04216941e-02 -8.84113312e-02 1.82265916e-03
      7.26552606e-02 1.28653616e-01 -7.91800916e-02 -6.28757477e-02 0.
      1.84444353e-01 9.72490162e-02 9.25107002e-02 1.41610196e-02
      3.08121108e-02 -3.39584425e-02 1.67487383e-01 1.02051556e-01
      -3.49588916e-02 1.45697678e-02 -9.60694328e-02 9.69238521e-04
      -5.37370937e-03 7.97300935e-02 -7.49755576e-02 4.73061651e-02
      -1.28888234e-01 -7.51451403e-02 -2.77959835e-02 2.38124486e-02
      7.90906996e-02 5.44942245e-02 -4.37667146e-02 -1.35811493e-01
      1.22464575e-01 -1.17022835e-01 -2.69218292e-02 -7.15570450e-02
      5.61915897e-02 6.32991195e-02 1.32104412e-01 0. 6.69534132e-02
      -9.48614180e-02 -9.72575173e-02 1.89164981e-01 -5.19501865e-02
      -1.31823540e-01 1.09619029e-01 5.40899001e-02 6.43718839e-02
      1.15824468e-01 -2.72803307e-02 -3.50594483e-02 2.13511229e-01
      1.29694551e-01 -5.09093143e-02 6.67816624e-02 -2.67543662e-02
      -6.24466641e-03 -4.93803136e-02 -5.27367890e-02 -4.68862727e-02
      2.84479201e-01 7.14702085e-02 -8.39739218e-02 1.20416567e-01
      3.06452811e-02 2.07629874e-01 8.34125727e-02 1.37291238e-01
      -4.50454615e-02 5.43237180e-02 0. 6.74676290e-03 -2.73352042e-02
      1.74293928e-02 1.72219276e-01 4.18430492e-02 5.08005507e-02
      -9.49847102e-02 -1.48685619e-01 -1.91381089e-02 1.92110747e-01
      -1.00554198e-01 5.81267755e-03 1.87368855e-01 5.88286109e-02
      1.24638397e-02 -1.19699892e-02 -1.39405727e-02 3.96020897e-02
      -2.00983822e-01 -1.23768643e-01 -5.77152660e-03 2.54480332e-01
      1.30659312e-01 3.42984721e-02 -1.32336691e-01 -4.19485085e-02
      9.31175500e-02 -1.91144329e-02 7.93581903e-02 4.18596994e-03
      1.09336510e-01 0. -4.60170116e-03 -4.42904495e-02 -9.67534911e-03
      1.19847001e-03 9.64682996e-02 1.22260280e-01 1.69260636e-01
      -7.18248785e-02 -1.03120189e-02 -7.73498416e-02 1.04064476e-02
      7.93673173e-02 4.41424036e-03 1.07622512e-01 4.29885685e-02
      -1.51722789e-01 -4.89973873e-02 -5.52039221e-03 -1.54078677e-01
      1.08832167e-02 8.20173249e-02 6.10673688e-02 2.43547797e-01
      7.21879452e-02 3.89443152e-02 -9.77654308e-02 7.00660869e-02
      -4.53602262e-02 4.26899968e-03 4.81044911e-02 9.18355435e-02 0.
      -2.05017701e-02 -3.15891728e-02 4.74483222e-02 1.39564797e-01
      2.65899181e-01 1.44443110e-01 1.60686180e-01 1.15863308e-02
      -5.97299412e-02 6.12628646e-03 -7.22093061e-02 3.43055874e-02
      -1.64281905e-01 -4.00563143e-02 7.61266844e-03 -3.12516019e-02
      1.59197617e-02 -1.02084316e-01 -7.86825344e-02 4.01830748e-02
      -1.18605827e-03 4.14080322e-02 2.01399311e-01 2.05369219e-01
      1.43899441e-01 8.40773135e-02 3.58801186e-02 6.32643476e-02
      1.33308187e-01 -4.52360623e-02 -4.31251340e-03 0. 2.04778880e-01
      -1.48617029e-01 1.31962016e-01 4.39570136e-02 5.20817116e-02
      -6.33023158e-02 1.37506604e-01 3.40355970e-02 -3.42780608e-03
      1.06808089e-01 -1.37425855e-01 -3.82726714e-02 -1.27478033e-01
      6.43040240e-02 1.29329607e-01 7.68120959e-02 7.42428601e-02
      -1.26166657e-01 -1.00438096e-01 -1.41550019e-01 5.94716705e-02
      -5.94138913e-02 9.34282914e-02 8.15544277e-02 1.39487788e-01
      5.29846251e-02 -1.19525239e-01 -3.99244539e-02 1.43580765e-01
      -6.73298305e-03 9.68824849e-02 0. 5.07370606e-02 -2.27318443e-02
      -2.99710222e-03 5.18956184e-02 -1.00244351e-01 -1.29304871e-01
      1.55024067e-01 -6.24051541e-02 -2.69567706e-02 -3.22339833e-02
      -1.26624897e-01 3.70185860e-02 -4.28989008e-02 4.35474478e-02
      2.22596318e-01 2.22375557e-01 -5.46556115e-02 -3.98156680e-02
      -5.69873396e-03 -5.98370768e-02 2.40160991e-02 -1.95145421e-02
      -3.59234656e-03 5.23872264e-02 2.63836116e-01 -5.50491884e-02
      1.05279237e-02 -8.21827501e-02 1.11526661e-01 -4.82837036e-02
      8.60320628e-02 0. -3.94442938e-02 -1.29330158e-01 -2.92725954e-02
      1.55799493e-01 5.00990674e-02 -1.28016546e-01 3.66221443e-02
      5.00665158e-02 -5.07731624e-02 3.87064926e-02 -2.91434024e-03
      8.36711749e-02 -8.42265598e-03 5.61277792e-02 1.28062367e-01
      2.02283300e-02 -2.11441606e-01 -4.52523178e-04 -2.13683657e-02
      -1.26157671e-01 1.07027660e-03 1.51321664e-01 -1.00883590e-02
      -1.10742316e-01 5.62137254e-02 -1.03350483e-01 3.77201661e-02
      5.76319955e-02 1.44415855e-01 -1.96498126e-01 3.55557911e-03 0.
      7.32645169e-02 -9.05541033e-02 -2.23859437e-02 -6.73703402e-02
      -7.04438686e-02 -7.34279081e-02 7.94431195e-02 -9.16116089e-02
      -6.78591952e-02 1.09858982e-01 -6.21340126e-02 1.80135846e-01
      -2.08322494e-03 5.55391312e-02 1.34844601e-01 2.16032322e-02
      2.13193502e-02 -1.00344412e-01 -2.30536219e-02 -9.13277939e-02
      2.53237616e-02 -6.56095073e-02 -1.49463832e-01 -2.39124876e-02
      8.25916976e-02 -7.65993297e-02 -6.84126392e-02 -1.00274831e-01
      -6.73318133e-02 7.02211708e-02 1.10487692e-01 0. 3.37717682e-02
      1.07175507e-01 2.68482678e-02 9.30303186e-02 -1.14921927e-01
      -1.34396285e-01 -4.24749367e-02 -1.25228554e-01 6.55078143e-03
      7.95750841e-02 -2.49680117e-01 4.07500044e-02 -1.13845900e-01
      -5.66059947e-02 1.01084271e-02 6.18575513e-02 4.04934473e-02
      3.97564843e-02 4.51884940e-02 -1.92380637e-01 2.21227035e-02
      -2.75452621e-03 -7.96678215e-02 -1.47986159e-01 2.86846254e-02
      -2.09152978e-02 9.61579904e-02 -4.19899039e-02 5.26657291e-02
      -9.39845219e-02 -5.68084083e-02 0. 5.20776724e-03 -7.64922053e-02
      -1.18605912e-01 1.90894324e-02 1.36612058e-01 -4.87361010e-03
      -1.37788743e-01 -1.16965003e-01 3.58959027e-02 2.91414419e-03
      -1.24751620e-01 3.50410864e-02 6.38758317e-02 3.79077420e-02
      1.12682529e-01 8.49848762e-02 1.06810376e-01 -6.65510967e-02
      -1.10963419e-01 -2.24737391e-01 -9.85894427e-02 1.10854559e-01
      3.86061333e-02 4.08868268e-02 3.63512225e-02 5.13801537e-02
      -5.31682037e-02 -5.38461022e-02 -3.26889940e-03 -1.31268809e-02
      6.78818375e-02 0. 1.38406113e-01 9.95760337e-02 3.23262401e-02
      -1.42186722e-02 5.82170449e-02 -3.37900333e-02 -9.25667807e-02
      -1.48522943e-01 8.87574926e-02 9.01944637e-02 -1.31057605e-01
      -6.16665818e-02 3.36514898e-02 1.46064833e-01 -7.73309246e-02
      -7.80684650e-02 8.50651637e-02 -7.23399445e-02 2.54434329e-02
      8.80166143e-02 -6.43974217e-03 5.81049845e-02 5.63746579e-02
      -2.26948336e-01 -1.04710475e-01 -1.43903524e-01 -3.49915959e-02
      -1.10279508e-01 2.05327347e-02 -9.12289508e-03 1.28424987e-01 0.
      1.01703838e-01 7.36407638e-02 -7.25841895e-02 -1.08951949e-01
      -1.03217207e-01 1.55284271e-01 1.06581099e-01 1.08490147e-01
      3.15284282e-02 1.60714179e-01 -4.74858098e-02 -1.06339976e-02
      -1.21963404e-01 9.69687104e-02 3.45804207e-02 -3.20831649e-02
      -1.80040561e-02 -1.11210279e-01 8.89880061e-02 4.02423851e-02
      -1.19670488e-01 -9.59754735e-02 -3.67886089e-02 4.15906310e-02
      5.08505888e-02 7.31282309e-02 7.63306692e-02 5.36914729e-02
      1.46027148e-01 -1.07524812e-01 2.25250628e-02 0. 1.11519679e-01
      -4.04233262e-02 -1.41556561e-01 -8.23034272e-02 6.78594932e-02
      7.20891505e-02 5.69464546e-03 -9.22185332e-02 -1.20849073e-01
      9.48735625e-02 -9.06775296e-02 8.48812982e-02 4.36375029e-02
      1.83846846e-01 3.22468616e-02 6.09222949e-02 -6.12571836e-02
      -9.94410515e-02 -4.09567989e-02 -7.54766464e-02 2.28610981e-04
      -1.73071574e-03 1.94294021e-01 9.07115638e-03 1.05172619e-01
      -8.10780674e-02 -1.21214479e-01 -8.97817314e-03 5.50674908e-02
      -3.33381910e-03 -2.91581172e-02 0. 1.15649305e-01 4.56250198e-02
      -1.05799966e-01 1.09390825e-01 -1.20166920e-01 -1.94006994e-01
      2.41011847e-02 -1.25030696e-01 4.95050587e-02 7.97504410e-02
      1.29658625e-01 -1.34541921e-03 1.67905558e-02 -1.68538578e-02
      1.30557800e-02 -4.47272472e-02 -6.76565990e-02 -2.22215131e-01
      1.05025999e-01 2.11339351e-02 -8.26947093e-02 6.17260970e-02
      -4.97737937e-02 -1.27233699e-01 -1.63578838e-02 -9.92735848e-02
      -1.13279045e-01 -1.19396619e-01 -5.05723692e-02 -1.27551416e-02
      3.45744416e-02 0. 2.02701181e-01 -2.50653066e-02 -1.94703811e-03
      4.63465452e-02 -1.71886027e-01 -7.71371201e-02 -2.93055307e-02
      8.16216245e-02 1.60442665e-02 6.16377592e-02 -2.31295135e-02
      4.63911109e-02 -4.69973572e-02 1.51915565e-01 6.01835474e-02
      -5.69702648e-02 8.52606073e-02 -9.35893431e-02 1.03025869e-01
      -8.10149461e-02 4.58472334e-02 2.52080783e-02 5.78447431e-02
      -1.30800247e-01 -1.14026278e-01 5.61617054e-02 -5.99191524e-02
      1.05172962e-01 1.55214489e-01 -1.18709400e-01 -3.51065025e-02 0.
      1.37007982e-01 1.73530877e-02 -4.11089249e-02 -2.02248134e-02
      8.58253241e-02 -1.01929054e-01 1.77824572e-01 -5.55384047e-02
      -2.90525798e-02 8.25570226e-02 4.37985100e-02 6.81151263e-03
      -1.00500017e-01 -2.06501335e-02 -1.16126217e-01 6.19062036e-02
      1.06102437e-01 -1.35369316e-01 -2.42335442e-02 1.28391057e-01
      -1.98258068e-02 -6.32300004e-02 5.73946722e-03 -1.42112255e-01
      2.18007371e-01 1.16966972e-02 -1.09945580e-01 -8.90697762e-02
      -3.58999074e-02 3.15224901e-02 1.39968365e-01 0. 5.17494120e-02
      4.81749512e-02 -3.38585712e-02 -1.94113761e-01 1.53755350e-02
      7.13358894e-02 1.92654252e-01 5.45024201e-02 -3.81952524e-02
      5.80643192e-02 -1.58124626e-01 1.66401312e-01 5.26256114e-02
      1.47043075e-02 9.84758362e-02 5.19051552e-02 -9.91225541e-02
      -1.49277478e-01 -7.90854394e-02 -1.38507783e-01 9.81158763e-02
      -1.12108864e-01 4.57865512e-03 7.93776065e-02 2.18987823e-01
      8.29759892e-03 -5.43566905e-02 -3.25261988e-02 6.60877451e-02
      -1.19945137e-02 7.42576048e-02 0. 3.58227380e-02 -5.29125445e-02
      -7.10822046e-02 -5.36182486e-02 1.22536428e-01 2.88531519e-02
      -4.74745519e-02 -9.70648229e-02 -1.47732664e-02 -1.38101429e-01
      2.69277878e-02 -4.14744988e-02 -2.56387461e-02 1.33609131e-01
      7.52388239e-02 5.78151010e-02 1.62098467e-01 -4.27363627e-02
      -2.25134283e-01 -5.90151735e-02 -4.99614812e-02 -3.60319130e-02
      9.51681882e-02 1.84606668e-02 -2.18655588e-03 4.45413291e-02
      -1.13630399e-01 2.09473409e-02 -3.27417962e-02 -2.26494819e-02
      6.17968775e-02 0. 1.18545532e-01 1.14656404e-01 -5.72586581e-02
      -4.03523073e-02 -4.54882160e-02 -8.61474723e-02 3.47832069e-02
      3.17836776e-02 1.13398291e-01 1.70799762e-01 -1.43350050e-01
      5.72475009e-02 1.74764395e-01 3.12423427e-02 -1.19184181e-01
      -1.11646987e-02 1.02001242e-01 -9.48387831e-02 1.48265466e-01
      1.95794720e-02 -4.55171941e-03 6.35603219e-02 -5.56412712e-02
      -3.20592761e-01 2.69287191e-02 5.72888814e-02 2.53034960e-02
      4.04308699e-02 -1.49090523e-02 7.13868961e-02 6.87591881e-02 0.
      1.72969282e-01 1.23702399e-01 5.34016676e-02 1.02611035e-01
      -7.31867328e-02 -1.11076813e-02 7.96777532e-02 -6.23147823e-02
      -5.01491912e-02 7.38107562e-02 -1.13388382e-01 1.08628191e-01
      -1.91932991e-02 -6.74524903e-02 2.03059223e-02 2.54560113e-02
      -4.65152459e-03 1.06865197e-01 6.23832196e-02 1.67036187e-02
      5.23283184e-02 3.72870192e-02 -2.07007289e-01 -9.17839780e-02
      4.72750403e-02 -1.17838653e-02 1.43083632e-01 7.38300532e-02
      1.67153716e-01 3.24880220e-02 -5.38068414e-02 0. -6.24017157e-02
      -1.75170451e-01 -2.98061036e-02 5.75152896e-02 1.52957231e-01
      1.53318802e-02 5.51871471e-02 -1.05714470e-01 -1.62692443e-01
      1.61468294e-02 -1.14762031e-01 1.06141880e-01 -1.45274475e-02
      4.45088651e-03 8.86502862e-02 7.49117211e-02 1.19953183e-02
      -6.42119497e-02 -1.98579445e-01 -1.86233073e-01 2.87293959e-02
      3.13785113e-02 4.71672863e-02 9.93953124e-02 7.90092573e-02
      -6.62003979e-02 -1.26031876e-01 -1.42606437e-01 4.49906141e-02
      1.27470484e-02 1.60452630e-02 0. 1.24325752e-01 -1.30148411e-01
      3.89414839e-02 1.33256987e-01 -1.63408592e-02 4.42688391e-02
      -2.95199524e-03 -9.71245915e-02 -4.12989128e-03 1.12987526e-01
      -7.38659501e-02 -7.58147314e-02 1.38877425e-02 -1.26349568e-01
      -3.78694125e-02 3.85924801e-02 8.08279142e-02 -6.02335669e-03
      1.15442216e-01 -1.42094299e-01 -2.63509876e-03 1.00151375e-01
      7.35824555e-02 -1.79814976e-02 -4.97718994e-03 3.71817104e-03
      -2.54299454e-02 -8.06024671e-02 1.33709786e-02 -4.58502509e-02
      1.20845705e-01 0. 5.34264930e-02 6.77875951e-02 2.79070497e-01
      5.71044013e-02 -1.07738845e-01 1.15362465e-01 6.01385348e-03
      1.45805791e-01 6.59430251e-02 4.27321866e-02 -1.36164412e-01
      -1.05076529e-01 5.17235957e-02 -6.00066520e-02 -3.40640135e-02
      -1.29504293e-01 -8.24380070e-02 -4.00307169e-03 6.86309412e-02
      -1.20566860e-01 1.09337509e-01 1.05353057e-01 -5.13280481e-02
      2.44238637e-02 -6.33425415e-02 6.63046986e-02 3.57330665e-02
      5.81825450e-02 2.41308957e-01 -1.14041403e-01 -7.89259002e-02 0.
      1.14266083e-01 -1.20051831e-01 2.88829673e-02 5.54120503e-02
      1.08136728e-01 7.77002648e-02 9.33117494e-02 -4.54153866e-02
      3.94837745e-03 7.33698234e-02 2.03407690e-01 1.20206587e-02
      -1.21959753e-01 2.37789322e-02 5.14825955e-02 2.05734726e-02
      7.32619986e-02 -3.42370681e-02 2.71766726e-02 9.81390923e-02
      4.18695025e-02 -1.12020946e-03 -7.38933384e-02 -7.14237243e-02
      9.53388810e-02 -1.61862355e-02 6.48845509e-02 1.42783094e-02
      3.67051028e-02 7.27601722e-02 1.67529419e-01 0. 1.38094887e-01
      -4.45749983e-02 4.12120111e-02 -5.62380813e-02 -2.84607504e-02
      1.69660747e-02 9.93919969e-02 -1.17689431e-01 -6.15107790e-02
      4.11135564e-03 -5.42463660e-02 9.77853015e-02 6.14610314e-02
      1.07812077e-01 7.30608478e-02 1.01950847e-01 -1.27209768e-01
      -1.40639678e-01 -2.19708942e-02 -1.50983825e-01 1.01679944e-01
      5.18478118e-02 -7.60285696e-03 2.74704639e-02 2.25945920e-01
      -1.73008159e-01 -5.43468520e-02 5.69730699e-02 1.97069477e-02
      -9.97202173e-02 7.54959434e-02 0. -1.15499459e-01 -1.00841813e-01
      1.00539867e-02 -6.75645769e-02 1.19999856e-01 1.08346324e-02
      -2.64319554e-02 -1.67617970e-03 -2.05906063e-01 1.10627188e-04
      -2.99734138e-02 -3.06938309e-02 8.07783455e-02 4.60617729e-02
      -1.96496956e-02 3.47830057e-02 1.72429532e-01 1.17413318e-02
      -2.72923887e-01 -9.53429416e-02 7.31093884e-02 3.74798775e-02
      6.72755316e-02 -2.12225810e-01 -5.04182018e-02 2.01503620e-01
      -2.78044730e-01 8.74307156e-02 -3.38901691e-02 -1.93564165e-02
      -8.67187902e-02 0. 2.25885823e-01 -5.29011711e-02 -8.94011036e-02
      3.25297751e-03 1.25503182e-01 8.76777470e-02 -1.18212476e-01
      -7.53390789e-02 3.21892137e-03 8.55839029e-02 -6.22034632e-02
      1.36110231e-01 8.06274489e-02 6.71050400e-02 -1.44832477e-01
      -4.88871522e-02 2.28652403e-01 -8.60591084e-02 7.67315254e-02
      -9.29329321e-02 -6.93369703e-03 6.93501309e-02 4.08789888e-02
      -1.85722485e-01 -1.52622744e-01 6.60388321e-02 -1.00622259e-01
      6.91187456e-02 -8.55818950e-03 1.06966212e-01 4.90271952e-03 0.
      1.60119966e-01 -3.99585851e-02 9.49362665e-03 -3.30745839e-02
      -4.81495028e-03 1.76076531e-01 -5.22765666e-02 -7.39942566e-02
      1.81367644e-03 2.16198236e-01 -6.68233037e-02 2.61847883e-01
      -3.88621762e-02 -3.10384184e-02 -2.38369755e-03 -2.42930613e-02
      8.81443731e-03 -1.22541353e-01 -5.53815800e-04 -1.26055747e-01
      8.18508044e-02 3.08813062e-03 -4.79473546e-03 7.59301335e-02
      -6.16986342e-02 2.32225098e-02 -3.14031057e-02 8.28578100e-02
      8.26390311e-02 3.59889194e-02 -3.91811021e-02 0. -1.19593060e-02
      -1.48510680e-01 1.86571591e-02 -5.79250008e-02 -3.60622555e-02
      1.71365160e-02 -5.81293926e-02 -2.76336093e-02 -1.51589707e-01
      9.91260707e-02 -2.89474651e-02 5.61644323e-02 -6.27583265e-03
      6.78835362e-02 8.81574526e-02 1.36332184e-01 -4.62011993e-02
      -7.51265213e-02 -2.58186013e-01 -1.36609435e-01 5.44066681e-03
      -2.38809288e-02 -4.07675058e-02 9.08043310e-02 1.14171900e-01
      -2.75115967e-02 -1.36994213e-01 -5.93804307e-02 -3.73895876e-02
      2.03948319e-02 -1.36039359e-03 0. 8.80319774e-02 -1.13032088e-01
      7.05735087e-02 1.81565005e-02 6.33407831e-02 1.03167081e-02
      4.53788936e-02 2.31076740e-02 -7.94247314e-02 6.89883828e-02
      -7.41966441e-02 -8.63035321e-02 1.07304856e-01 2.65461160e-03
      7.28485733e-02 9.42435414e-02 6.46796152e-02 -3.32525298e-02
      1.92297455e-02 -1.31788924e-01 -1.05256297e-01 1.66529238e-01
      -1.35027980e-02 -3.65164764e-02 1.58940494e-01 7.57493675e-02
      -2.01992556e-01 -1.51529789e-01 1.16694428e-01 9.49217230e-02
      1.01799995e-01 0. 1.49598420e-01 1.05549403e-01 -2.46459264e-02
      -9.62020829e-02 -7.61149777e-03 7.77482707e-03 2.91699879e-02
      1.78419575e-01 7.18301488e-03 8.09215605e-02 -1.52982235e-01
      -4.77692811e-03 7.41509199e-02 9.91527215e-02 -1.17791630e-02
      -1.34491578e-01 -7.84666045e-05 2.11783230e-01 1.11410849e-01
      -1.11327535e-02 -3.80970770e-03 7.18330815e-02 5.32415882e-02
      -7.41391480e-02 -9.00150742e-03 1.57033041e-01 1.72654286e-01
      2.70013907e-03 2.96658128e-01 -1.11276180e-01 5.28673269e-02 0.
      1.70053110e-01 -3.88405509e-02 -1.07295878e-01 -1.32325083e-01
      4.62256707e-02 -4.07795869e-02 -6.92330748e-02 1.15311826e-02
      -3.21108364e-02 9.59790405e-03 8.64380300e-02 1.23770244e-01
      5.60649149e-02 4.90629748e-02 2.57060472e-02 -3.51850539e-02
      1.00421101e-01 5.17323539e-02 1.03328548e-01 6.29941970e-02
      6.64960146e-02 -1.15309004e-02 7.34562501e-02 -1.30424574e-01
      -8.04660991e-02 3.10762804e-02 4.24663015e-02 -4.14450740e-04
      -2.05550063e-02 1.00335255e-01 5.01906946e-02 0. 2.08798140e-01
      -6.56771436e-02 -6.03213049e-02 -5.25733009e-02 -8.99402946e-02
      1.05933838e-01 7.67120048e-02 -6.85672686e-02 3.31148505e-02
      1.89833105e-01 4.59976979e-02 6.48418441e-02 -1.81217074e-01
      5.03716804e-02 8.72744992e-02 1.06009267e-01 5.90084568e-02
      -7.42526650e-02 6.22079857e-02 -1.55420443e-02 -3.12095862e-02
      -1.76030129e-01 -5.59194461e-02 -1.58352274e-02 1.65382504e-01
      -4.00467888e-02 3.11065614e-02 4.36659493e-02 1.43930897e-01
      -1.02631692e-02 2.78885532e-02 0. 6.05172068e-02 -1.36570543e-01
      -4.62210597e-03 4.62431833e-02 -1.06031723e-01 1.60114130e-03
      -1.65398896e-01 -7.57887587e-03 -1.13866411e-01 7.66000226e-02
      -1.82966769e-01 -8.15739948e-03 -5.64909093e-02 7.14655444e-02
      3.35302949e-02 1.79440588e-01 1.36360422e-01 5.59622608e-02
      -6.11887388e-02 -1.58047080e-01 3.06928661e-02 5.77065162e-02
      9.00982171e-02 -1.39593542e-01 2.57710963e-02 2.07378328e-01
      -4.13482040e-02 -2.48807985e-02 5.35974242e-02 -6.57067895e-02
      -1.95603464e-02 0. 2.73398370e-01 1.49587533e-02 -1.61622167e-01
      -2.27132905e-02 5.74902147e-02 1.51869267e-01 -6.28965199e-02
      -3.06581836e-02 -1.28702492e-01 -1.76917817e-02 -3.51851434e-02
      8.05103630e-02 -2.15399247e-02 3.09120696e-02 1.02101505e-01
      1.20993480e-01 7.87819549e-02 -6.30582264e-03 -6.11695163e-02
      -4.35271338e-02 -5.77143542e-02 -4.48070168e-02 1.10616371e-01
      4.96715046e-02 2.68309936e-02 2.50959229e-02 -1.35227263e-01
      -8.22109580e-02 1.02893166e-01 4.35299389e-02 1.35520324e-01 0.
      9.26052919e-04 -7.76234493e-02 -1.26914486e-01 -7.16325790e-02
      1.53978571e-01 5.39265983e-02 3.64079326e-02 -3.29477228e-02
      -1.26233369e-01 2.63504773e-01 -1.09215781e-01 9.35016796e-02
      1.23113625e-01 3.28593291e-02 2.29530521e-02 1.51500329e-01
      -5.79778776e-02 -3.88589799e-02 -8.11750740e-02 -9.79418680e-02
      -4.73244637e-02 7.96864554e-02 6.32515773e-02 -1.11303097e-02
      1.45176977e-01 -4.88214456e-02 -8.03350136e-02 2.30034720e-03
      1.44663021e-01 -8.14312249e-02 7.17714280e-02 0. 6.03336953e-02
      -1.06491230e-01 6.70361891e-02 -1.49312764e-01 1.57579947e-02
      -9.42088943e-03 1.43477097e-01 9.86419469e-02 -1.83891892e-01
      2.42862925e-01 -1.35365665e-01 1.06527306e-01 1.56893641e-01
      6.76021278e-02 -8.56370330e-02 6.72423244e-02 -4.88260351e-02
      -1.83753699e-01 -1.39615834e-01 -2.19931513e-01 1.11388780e-01
      1.05212620e-02 -1.82943928e-04 -8.28058571e-02 1.89643830e-01
      6.40887320e-02 -1.44674525e-01 -2.17978712e-02 3.96069176e-02
      -4.68147211e-02 8.73065814e-02 0. 5.44401817e-02 3.00711114e-02
      4.29717861e-02 1.72745362e-02 1.06284514e-01 -6.41672760e-02
      -8.10036287e-02 -1.30667001e-01 -1.33415714e-01 2.07443669e-01
      1.13215484e-02 9.53332856e-02 7.00507760e-02 4.60652262e-02
      -4.41076346e-02 -4.06220672e-04 2.52106208e-02 6.47533461e-02
      -3.59164812e-02 1.07428558e-01 1.01985604e-01 8.03557858e-02
      1.25650242e-01 -1.20391428e-01 -7.55608156e-02 -1.00732833e-01
      -3.71629260e-02 -9.67944935e-02 -6.36639297e-02 1.46058664e-01
      1.64047122e-01 0. -1.76296141e-02 -8.62131342e-02 1.24277184e-02
      1.26909176e-02 1.34563401e-01 -5.67000061e-02 -8.63706097e-02
      -8.81525576e-02 -6.78389519e-02 1.49445474e-01 -4.28707190e-02
      9.96106789e-02 6.06912300e-02 6.99016452e-03 7.91828930e-02
      -2.55772434e-02 -2.13299207e-02 7.92451054e-02 -3.67227904e-02
      -1.56525105e-01 8.41790363e-02 1.76066011e-02 2.46429332e-02
      6.12098118e-03 -5.40621057e-02 -6.77532330e-02 -2.39516012e-02
      6.00622520e-02 1.25226632e-01 -6.81324154e-02 -5.01399375e-02 0.
      1.62630472e-02 -7.63204843e-02 -4.02431116e-02 -1.65164694e-02
      1.65466547e-01 -1.66908335e-02 -9.13088918e-02 -2.54046246e-02
      2.38285940e-02 1.26159459e-01 1.89723093e-02 1.25246868e-01
      1.09617881e-01 1.60331745e-02 4.13344130e-02 2.37707961e-02
      -5.45340329e-02 -7.17118904e-02 2.82552205e-02 -8.10315162e-02
      7.47901201e-02 7.33852610e-02 6.38937280e-02 -9.79149416e-02
      -3.47218700e-02 -2.12062076e-02 1.79755911e-02 1.74349509e-02
      1.46823674e-02 5.85510246e-02 3.84776741e-02 0. 1.95184439e-01
      2.99983546e-02 -6.46585152e-02 3.51376683e-02 -5.92936948e-02
      -1.32614553e-01 4.11687605e-02 1.32546080e-02 -1.00041190e-02
      1.62269965e-01 -6.88799396e-02 1.76265642e-01 -4.52813320e-02
      -8.94606337e-02 7.84736052e-02 -4.05900218e-02 -1.89143345e-01
      3.38172428e-02 5.72897382e-02 -5.12913987e-02 9.81837809e-02
      2.70262137e-02 4.36401963e-02 4.49353307e-02 7.89181970e-04
      -1.33265525e-01 5.04811369e-02 7.54342228e-02 4.01665717e-02
      -4.80061918e-02 -3.66499685e-02 0. -6.43702224e-02 -4.87684384e-02
      6.45933300e-03 1.39990136e-01 -4.80638966e-02 -9.11104754e-02
      -4.65528704e-02 -3.17701548e-02 5.51022170e-03 -6.87368913e-03
      -9.45511237e-02 -7.16337860e-02 3.80735641e-04 -4.19902690e-02
      6.23723865e-03 2.48713553e-01 6.83713183e-02 4.35535610e-02
      -1.56443641e-01 -9.10045952e-02 -1.84852816e-02 1.72968984e-01
      -1.25787146e-02 -3.36126201e-02 2.05282494e-01 1.03458025e-01
      1.01751924e-01 1.58253703e-02 3.49518023e-02 -4.90829423e-02
      -1.41716078e-02 0. -1.12491399e-01 -2.51304239e-01 -9.16298032e-02
      -7.06460103e-02 1.68601811e-01 -5.76110743e-02 1.32096671e-02
      -7.10197240e-02 -1.49721250e-01 3.82996686e-02 -2.19535362e-03
      9.48612392e-03 9.61269159e-03 9.16612074e-02 1.39254346e-01
      6.18125945e-02 8.10337737e-02 -9.01325643e-02 -2.55981416e-01
      -1.69037923e-01 -1.07719228e-01 -4.75633405e-02 2.15371504e-01
      1.24958523e-01 1.67076141e-01 3.11458707e-02 -6.55766726e-02
      -5.68824783e-02 -1.42939553e-01 1.95354931e-02 4.65128645e-02 0.
      2.19542280e-01 -1.18986346e-01 2.39894539e-02 -5.67872413e-02
      5.57136275e-02 -4.35038991e-02 -2.12251581e-02 -9.78983492e-02
      -3.75687480e-01 -1.44734517e-01 -1.40832394e-01 1.11947440e-01
      1.62625298e-01 8.42354000e-02 7.83054531e-02 1.27307266e-01
      -1.62801333e-02 1.45949900e-01 -2.18492240e-01 -8.26869607e-02
      9.79692340e-02 1.24402635e-01 1.48400083e-01 6.60996139e-03
      1.48412332e-01 -1.46227553e-01 -1.06399067e-01 6.49438202e-02
      1.28595904e-02 1.30743869e-02 -9.38567817e-02 0. -5.80227040e-02
      -4.28113341e-02 6.29644096e-02 -3.31529863e-02 -5.59573919e-02
      2.63968017e-03 1.21708632e-01 2.00050212e-02 9.08859540e-03
      1.80465654e-01 4.16741893e-03 2.53466610e-02 1.43241063e-01
      1.76169667e-02 -3.38293836e-02 4.74586412e-02 -1.14934593e-01
      -1.44722849e-01 -3.40818435e-01 2.55443268e-02 1.11455537e-01
      8.74594599e-02 -8.88494030e-03 -1.16933659e-01 1.62475392e-01
      1.59226786e-02 2.15066187e-02 1.75644655e-03 3.42769995e-02
      6.40856400e-02 -2.88097467e-02 0. 2.16706097e-01 5.36992913e-03
      2.40109190e-02 -1.62700638e-02 -1.26110882e-01 -1.00176893e-01
      -3.08882655e-03 -4.05182503e-02 -4.47503664e-03 2.16522887e-01
      -6.53264578e-03 7.38982558e-02 -4.39692736e-02 8.64239931e-02
      -9.69790220e-02 7.78247416e-02 9.66650713e-03 2.07555257e-02
      9.14718509e-02 5.82274608e-02 1.49259875e-02 -6.88357130e-02
      2.37807892e-02 -9.72507223e-02 1.05294250e-02 -4.75660246e-03
      5.53004444e-02 -9.88537073e-03 -1.16799250e-01 1.58356994e-01
      1.06475152e-01 0. 9.30954143e-03 -6.16067685e-02 -8.38916153e-02
      4.04829867e-02 1.57267049e-01 -1.12090707e-02 6.42609075e-02
      3.99457850e-02 -1.44730940e-01 3.35226730e-02 -4.96711023e-02
      9.13174748e-02 3.22398208e-02 5.44905104e-02 1.32287368e-01
      3.24949101e-02 7.48693943e-02 9.38679948e-02 8.65781587e-03
      -8.02504644e-02 -6.89892918e-02 7.09086955e-02 -7.39760548e-02
      -4.54104738e-03 7.25734308e-02 1.25352144e-01 -6.93918169e-02
      8.94175246e-02 5.72096147e-02 9.45179984e-02 -2.97176396e-03 0.
      -1.31174043e-01 5.84068969e-02 5.44697866e-02 5.01707755e-02
      -8.18766057e-02 6.63324445e-02 -5.44499122e-02 1.28924996e-02
      5.10903522e-02 2.29455933e-01 8.66075903e-02 -5.40837646e-02
      -1.04726851e-01 8.97311196e-02 1.43226430e-01 -3.43363062e-02
      8.44170079e-02 -1.22060277e-01 -6.03089109e-03 9.09192413e-02
      2.81854700e-02 -5.44266850e-02 -2.34136498e-03 9.82796475e-02
      -2.23894604e-02 9.98526588e-02 -3.48645151e-02 5.17870560e-02
      1.44627560e-02 6.00572750e-02 3.58984321e-02 0. -2.10864060e-02
      -4.85655740e-02 -1.09445877e-01 -1.67065449e-02 -7.51484558e-02
      2.67575104e-02 -6.56621382e-02 -1.87726328e-04 -2.65737660e-02
      1.09363563e-01 -2.31575202e-02 1.41783372e-01 3.18170600e-02
      -1.18894920e-01 5.69256470e-02 -1.48214148e-02 7.37017393e-02
      -6.86205749e-04 -6.33427128e-02 -1.31270895e-02 8.14202949e-02
      2.66007818e-02 -1.11636616e-01 1.96276456e-02 -7.46233463e-02
      7.89931640e-02 -1.58335064e-02 4.03976142e-02 3.78073975e-02
      -3.17398496e-02 -8.44542235e-02 0. -1.82910841e-02 8.74901097e-03
      -6.12627566e-02 -5.08631505e-02 -4.31969091e-02 8.85718036e-03
      -6.71838131e-03 -4.47705537e-02 -4.84437495e-02 -8.36226065e-03
      5.54789901e-02 9.25673405e-04 7.94125274e-02 -1.02239493e-02
      1.18285783e-01 1.66333467e-01 7.02635497e-02 5.93758486e-02
      -4.48476076e-02 1.33588567e-01 1.57813895e-02 2.50332225e-02
      -1.26025364e-01 -8.00824910e-03 1.14788920e-01 7.30514303e-02
      -9.75013420e-04 1.22636013e-01 4.39007357e-02 -2.16447320e-02
      -1.49981035e-02 0. -1.55372351e-01 -1.60117701e-01 2.09952518e-02
      1.35599837e-01 1.44718811e-01 -4.15959060e-02 9.54008773e-02
      6.87649548e-02 -1.14463702e-01 -9.22920182e-02 3.02290008e-03
      -5.54862171e-02 1.85416229e-02 5.41150868e-02 7.55157024e-02
      1.47257894e-02 9.46388692e-02 -7.88941011e-02 -1.68901160e-01
      -3.36801820e-02 2.11576596e-02 1.42471716e-01 1.71988502e-01
      1.93812251e-02 1.62958130e-01 1.65486619e-01 -6.73317984e-02
      7.13861287e-02 -7.16564655e-02 2.67753880e-02 -1.33917704e-02 0.
      3.99849974e-02 -5.37436716e-02 5.99226840e-02 6.49595559e-02
      -5.64778708e-02 -5.57920486e-02 6.83489516e-02 -6.11990318e-02
      -2.10915565e-01 -3.45270447e-02 -6.81929663e-02 3.93461995e-02
      3.20734531e-02 1.36610284e-01 4.96973060e-02 4.95979004e-02
      -9.09988396e-03 5.20949671e-03 -9.17614698e-02 -2.68608239e-03
      1.32417768e-01 1.05880708e-01 1.45762106e-02 -9.51819029e-03
      1.81069285e-01 1.83373336e-02 -3.80987786e-02 -3.01563311e-02
      -5.40179759e-03 8.02205205e-02 -4.66409698e-02 0. 1.84515715e-01
      -1.09080896e-01 1.88262984e-02 9.79607180e-03 -5.10714315e-02
      7.01430393e-03 -1.28276378e-01 -1.07925765e-01 -1.78517401e-01
      2.88861871e-01 4.52459827e-02 6.47573620e-02 5.13127409e-02
      9.74132195e-02 -1.56739485e-02 7.08058253e-02 -3.03393472e-02
      1.48365982e-02 -1.19905330e-01 -1.31506994e-02 8.41611028e-02
      4.05641925e-03 -2.20668223e-02 -9.43971127e-02 -2.44777929e-02
      -7.42683858e-02 -3.22710201e-02 -4.90295105e-02 -5.94263802e-05
      8.77493694e-02 7.09404573e-02 0. 1.01562291e-01 1.24816410e-01
      -7.17303082e-02 -2.98328716e-02 -2.24690568e-02 -3.39120999e-02
      5.90945967e-02 -4.12316062e-04 -3.50985564e-02 1.10395819e-01
      8.77225772e-03 1.15307547e-01 -2.13669389e-02 6.46107122e-02
      -5.58217578e-02 2.16270257e-02 -7.94450194e-02 -3.62791307e-02
      5.91329150e-02 1.51140019e-01 -1.50160613e-02 -2.89319884e-02
      2.63015479e-02 -3.90059091e-02 2.81838831e-02 -5.06827533e-02
      -2.57025138e-02 -1.90791506e-02 -5.17707728e-02 5.51227219e-02
      1.19349688e-01 0. 6.80132955e-03 -2.12540794e-02 3.35548893e-02
      6.20526150e-02 1.01388127e-01 -1.33305684e-01 1.09976493e-01
      6.26861155e-02 9.30978358e-02 4.80076708e-02 -1.14110656e-01
      8.02958906e-02 -6.81570843e-02 8.91251862e-02 1.11129940e-01
      -1.16420373e-01 -5.32176867e-02 -3.52641530e-02 -2.34128647e-02
      -8.33815113e-02 4.53296378e-02 -4.82666232e-02 8.57693329e-03
      -1.99378468e-02 -4.08655740e-02 5.47855254e-03 3.89721915e-02
      2.83075683e-03 3.96547355e-02 5.48576899e-02 2.35173870e-02 0.
      6.69055954e-02 -2.16559973e-02 1.34566829e-01 -2.69992407e-02
      2.29667291e-01 -7.97351822e-02 2.18140967e-02 -3.45788896e-02
      -3.75219509e-02 4.94395420e-02 1.65239140e-01 7.35116657e-03
      -1.00260794e-01 -2.11715978e-02 1.92911521e-01 -6.69587851e-02
      -8.44328478e-03 3.12780254e-02 3.25980149e-02 1.99840218e-01
      7.41037205e-02 -9.84528139e-02 2.94993706e-02 -1.52076241e-02
      3.27169485e-02 1.21836394e-01 -1.30007677e-02 -2.41440088e-02
      1.11814544e-01 -1.04230372e-02 1.59323364e-01 0. -1.58965454e-01
      -1.09950192e-01 -4.26290110e-02 -7.11488798e-02 1.85318276e-01
      -8.61661285e-02 6.14306936e-03 -1.53711662e-01 -7.26264343e-02
      1.27709508e-01 2.54538991e-02 1.60399675e-02 7.81115517e-03
      -5.60141131e-02 -6.19942881e-02 -5.76417297e-02 5.92707172e-02
      1.76813781e-01 -1.27099589e-01 -1.12093790e-02 2.92690732e-02
      -1.69772878e-02 4.39759567e-02 -1.38335168e-01 -7.94617534e-02
      -3.44361663e-02 6.49382621e-02 -1.00579550e-02 9.83408093e-02
      -1.61122248e-01 -5.26886024e-02 0. 3.62368906e-03 1.16667911e-01
      -6.95418790e-02 -7.59849772e-02 1.08295314e-01 -4.75055203e-02
      -5.14660105e-02 -2.06699073e-02 -1.79600433e-01 2.11005099e-02
      -2.75165796e-01 -1.66201577e-01 -1.35969996e-01 8.61961767e-02
      -8.14860761e-02 1.84158329e-02 2.34778337e-02 1.18534312e-01
      -1.58934489e-01 -8.06081295e-02 -1.04405604e-01 -2.14618459e-01
      1.55798951e-02 -1.27680182e-01 8.20121840e-02 -1.38886692e-02
      -6.93031102e-02 -3.66724692e-02 2.63933539e-02 -1.93302050e-01
      -8.26908574e-02 0. 1.61820091e-02 5.34885377e-02 4.79539577e-03
      -3.00752968e-02 -7.75472866e-03 9.98400748e-02 -1.74751284e-03
      7.37038404e-02 -9.70222279e-02 -1.30240217e-01 -1.12556100e-01
      -1.42329350e-01 -6.37594238e-02 7.93499947e-02 2.86099333e-02
      4.30697501e-02 -2.78078783e-02 -1.37185836e-02 -1.53972775e-01
      1.68608818e-02 -1.17182441e-01 -7.54779391e-03 9.40613970e-02
      9.30185020e-02 1.26697794e-01 -1.26988553e-02 -1.68763295e-01
      2.87104007e-02 -9.00559500e-03 -8.41302723e-02 -4.30404134e-02 0.
      -1.72837436e-01 -1.46461025e-01 -7.52570620e-03 -1.89142786e-02
      5.99779747e-02 8.44597071e-03 -1.21785058e-02 -6.10281527e-03
      -6.27395958e-02 -4.02799621e-02 -1.05771519e-01 -9.73984003e-02
      8.95149931e-02 -7.84283155e-04 -1.04666008e-02 -6.41057491e-02
      6.01768121e-03 -4.54394482e-02 -3.22045296e-01 -2.12911710e-01
      -1.53804952e-02 1.50024399e-01 6.48830011e-02 -9.87453479e-03
      6.89094281e-03 -4.42236774e-02 -7.00575486e-02 -1.08621754e-01
      -1.58239856e-01 -6.10552449e-03 -2.26235781e-02 0. 7.81296007e-03
      -2.81401426e-02 -6.08189739e-02 3.34758796e-02 -8.28341693e-02
      1.43805340e-01 -1.97683927e-02 -1.23796098e-01 -4.07133587e-02
      4.18886691e-02 1.39746249e-01 7.95520470e-02 -5.50922519e-03
      -5.28314486e-02 1.39447749e-01 -1.01251110e-01 -5.76381795e-02
      -9.52924713e-02 -9.49367955e-02 9.00220573e-02 -4.32046577e-02
      1.51275352e-01 -8.23233649e-02 1.06508352e-01 -1.11613803e-01
      -6.82371408e-02 -8.63433853e-02 -4.90360595e-02 -8.63284767e-02
      6.01124093e-02 3.61897498e-02 0. 4.52823937e-02 -7.31497332e-02
      1.11996185e-03 3.87699110e-03 8.58621895e-02 1.29360957e-02
      4.68040183e-02 -2.09794082e-02 -1.02847278e-01 -1.85316190e-01
      1.07749917e-01 3.17757204e-02 -3.26332301e-02 -1.41178034e-02
      -1.60619810e-01 -1.69487540e-02 -6.65740669e-02 -5.54921143e-02
      -2.30961472e-01 7.71158026e-04 3.58049013e-02 -4.50391434e-02
      6.79527074e-02 -1.48678422e-01 2.51752324e-02 -3.87104191e-02
      -2.55994108e-02 -1.66959390e-01 -9.27468613e-02 3.99536304e-02
      3.43646072e-02 0. 4.74467464e-02 -3.22780348e-02 -3.20724286e-02
      4.25832383e-02 -1.42510207e-02 2.12661121e-02 9.00737122e-02
      1.88771054e-01 5.70167117e-02 2.58300662e-01 5.58270663e-02
      1.37542635e-02 6.50491789e-02 -9.80000943e-02 -5.15069254e-02
      1.02291554e-02 2.03690697e-02 -1.03171496e-02 -5.46809612e-03
      -3.92255522e-02 6.70511425e-02 1.43093377e-01 -1.14793509e-01
      -2.64730621e-02 6.29775133e-03 -7.78316171e-05 6.17363937e-02
      5.11226170e-02 1.14338063e-01 3.03664431e-02 1.02220848e-01 0.
      8.03100690e-02 -1.49872862e-02 -1.38564870e-01 -3.31439599e-02
      7.47849643e-02 -2.36714911e-03 2.38996476e-01 -5.98071441e-02
      -1.27628326e-01 1.43996850e-01 1.98884651e-01 1.96751952e-02
      -5.38383685e-02 4.57426421e-02 3.63360196e-02 3.19806859e-02
      1.13623708e-01 6.66766092e-02 1.72181457e-01 1.69348821e-01
      -1.15549110e-01 -2.88570952e-02 -6.29620627e-02 -7.06302822e-02
      1.85955241e-01 6.91386387e-02 -3.82912084e-02 4.30931104e-03
      5.89491166e-02 1.76843867e-01 5.24818823e-02 0. 4.53932732e-02
      3.28885391e-02 -6.29411414e-02 1.20482005e-01 -1.03782285e-02
      -1.64663658e-01 -1.06243871e-03 -5.46232834e-02 -1.21296793e-01
      -7.41140991e-02 -1.11078070e-02 -2.23521702e-02 -6.32947236e-02
      5.25233820e-02 1.86208207e-02 -6.86498210e-02 -1.24349713e-01
      4.78321239e-02 -4.87423651e-02 2.82037053e-02 -7.60041624e-02
      1.09755695e-01 -9.18771774e-02 -1.24285994e-02 -4.07269523e-02
      -9.37564820e-02 -3.12915109e-02 -3.04828733e-02 7.82902166e-02
      -1.71661451e-01 -9.35054794e-02 0. 7.47669414e-02 1.17071256e-01
      -3.92713286e-02 -3.22474018e-02 -5.01273535e-02 -2.24108920e-01
      -2.18352407e-01 -9.29942653e-02 3.35828289e-02 1.24310642e-01
      4.05635834e-02 -2.61415821e-02 4.97239828e-02 6.81984574e-02
      -1.43117423e-03 -2.25041769e-02 -5.22818938e-02 8.35661888e-02
      1.19637856e-02 1.46390140e-01 1.24149732e-02 -3.90362814e-02
      -9.71295163e-02 -9.20872614e-02 -1.49927139e-01 -6.92584068e-02
      9.47229266e-02 -7.60889575e-02 1.31520212e-01 -1.10486768e-01
      -2.39872225e-02 0. 5.92807531e-02 9.67476517e-02 -1.99399553e-02
      -5.82828559e-02 -2.46966392e-01 -3.21012586e-01 -2.01949984e-01
      -1.47757843e-01 -1.01912566e-01 1.22360587e-01 -1.06401421e-01
      -2.12214366e-02 -6.96163177e-02 6.30498603e-02 4.74619642e-02
      9.16426033e-02 4.19768505e-03 7.57542700e-02 -2.32933331e-02
      -2.01518890e-02 5.63532002e-02 -7.99114704e-02 -2.65249640e-01
      -2.38028631e-01 -6.47434890e-02 -1.52371258e-01 -3.11183259e-02
      -1.69546261e-01 6.55545890e-02 -2.15132028e-01 -2.71506961e-02 0.
      7.94077292e-02 -8.33140984e-02 -2.53120035e-01 -2.07785487e-01
      -1.80018038e-01 -1.40081897e-01 -6.58505335e-02 -4.50544804e-02
      -1.37573639e-02 6.86689094e-02 7.60164112e-02 8.85667279e-02
      8.39212462e-02 9.90192369e-02 -1.04551822e-01 5.21275662e-02
      6.12692125e-02 3.63305993e-02 -1.27777547e-01 -2.69118361e-02
      -1.43256351e-01 -1.12980746e-01 -1.48939103e-01 -2.29699314e-01
      -8.14618357e-03 4.36005145e-02 1.23262713e-02 -1.28337130e-01
      -4.64702807e-02 -1.25992566e-01 8.95156190e-02 0. -2.65253894e-02
      1.03932679e-01 -1.19367957e-01 -1.51508272e-01 -2.07889646e-01
      -1.40573129e-01 5.69729619e-02 2.80626211e-02 9.90728363e-02
      1.35398775e-01 1.72289401e-01 7.35892681e-03 -2.73028226e-03
      4.51361574e-03 1.03084512e-01 -3.69293801e-02 -7.56596699e-02
      -3.17526199e-02 -3.49527560e-02 2.36958802e-01 -4.74969372e-02
      -1.38719320e-01 -8.50400850e-02 -5.88955134e-02 6.75034970e-02
      2.74147596e-02 -1.65940486e-02 -8.24987069e-02 -3.76363620e-02
      -2.53838897e-02 1.06746279e-01 0. 4.76867296e-02 -8.31143651e-03
      5.60968090e-03 7.80290514e-02 2.53717955e-02 2.01774128e-02
      4.87355255e-02 -7.29661062e-02 -3.27153807e-03 -9.37036276e-02
      1.79478377e-02 -2.66687796e-02 -9.52513739e-02 -4.50105704e-02
      1.42076448e-01 -8.33062902e-02 4.23024595e-02 9.10725258e-03
      -6.74218759e-02 -3.25601175e-02 -6.16260245e-02 -1.43499940e-03
      2.43980139e-02 -5.08507080e-02 -8.57326388e-03 2.43459977e-02
      1.71040017e-02 -1.37111068e-01 -2.51562875e-02 2.96775158e-03
      1.63332179e-01 0. 1.91368505e-01 -6.85568079e-02 -6.92288652e-02
      2.76969038e-02 2.28173081e-02 8.21835548e-02 1.25081474e-02
      -9.15419012e-02 -1.12656374e-02 1.80334017e-01 -3.84251866e-03
      6.45280853e-02 5.49073191e-03 1.08452469e-01 -5.71242049e-02
      9.90833994e-03 -3.36631238e-02 7.52311051e-02 1.25139713e-01
      -1.16302921e-02 -7.50690177e-02 1.09747471e-02 -5.31857088e-02
      -1.13441482e-01 2.25750217e-03 -1.22814216e-01 3.26849557e-02
      8.75896364e-02 8.16289559e-02 -4.77547497e-02 8.84487480e-02 0.
      -4.09096144e-02 -1.99745856e-02 -5.75341284e-02 9.09654796e-02
      -3.56787108e-02 -6.45585731e-02 2.88992584e-01 -7.84029067e-03
      -1.12423457e-01 5.17897494e-02 -4.13808227e-02 -1.48089731e-03
      2.76150629e-02 1.45946160e-01 9.15239602e-02 1.58482809e-02
      -1.95326321e-02 6.83045983e-02 -1.70308128e-02 -3.26989442e-02
      -2.85360552e-02 6.38365448e-02 8.04010704e-02 5.94195025e-03
      1.73939899e-01 -5.21322042e-02 -2.77945790e-02 -1.70004532e-01
      -2.45806202e-03 1.79902747e-01 1.71537310e-01 0. -8.13502967e-02
      7.07594901e-02 4.97620068e-02 7.94431418e-02 -1.18634842e-01
      -1.15462556e-01 -4.46661934e-03 2.47266609e-02 -1.13173842e-01
      -6.22883849e-02 -7.09052058e-03 -7.57946223e-02 -6.68794215e-02
      2.56370623e-02 1.86768577e-01 5.44244386e-02 -8.53624381e-03
      7.66791776e-02 -1.18575074e-01 6.55439273e-02 -2.79845390e-03
      -1.12735452e-02 -4.68345508e-02 4.50893566e-02 4.42744419e-02
      -1.58838481e-02 -2.67730188e-03 -9.11086574e-02 9.91994962e-02
      -1.11837313e-01 6.34526834e-02 0. -1.21667804e-02 -6.00015558e-03
      7.94987846e-03 -1.12544775e-01 -2.16385140e-03 -3.12434435e-02
      1.16559435e-02 -1.19355641e-01 5.14041260e-03 8.84568617e-02
      6.56803465e-03 -5.80178723e-02 1.50535190e-02 7.67743289e-02
      1.36062562e-01 8.91541615e-02 -3.08342017e-02 4.11945349e-03
      9.88058746e-02 8.28163549e-02 -6.24587387e-02 -8.41154158e-02
      -9.40039605e-02 -3.42103839e-02 9.44090411e-02 -2.62647569e-02
      6.02136739e-02 -1.07896939e-01 1.23867169e-01 -9.30893719e-02
      1.09461166e-01 0. 5.61349466e-02 6.13206401e-02 2.60057915e-02
      4.83091362e-02 4.93049696e-02 -1.87659994e-01 -8.12806934e-02
      5.17851599e-02 1.11724645e-01 1.09071955e-01 6.44259807e-03
      -1.53326232e-03 2.71495664e-03 1.19734943e-01 1.54552832e-01
      4.39532101e-02 8.70612860e-02 1.10388450e-01 9.29082111e-02
      2.34779939e-02 -1.48119703e-02 -3.14917527e-02 -2.94913352e-02
      -1.51970699e-01 -4.96563651e-02 1.26410469e-01 2.03633785e-01
      -1.33334356e-03 2.33989313e-01 -6.22904263e-02 1.91684574e-01 0.
      8.23522136e-02 4.02908213e-02 1.85182560e-02 -3.32127623e-02
      -8.16911086e-02 -8.85827467e-03 -8.68796185e-02 8.48797038e-02
      -4.54427442e-03 9.03733671e-02 1.82232052e-01 -1.36831729e-02
      1.33709367e-02 1.08215585e-01 1.57495782e-01 5.92030995e-02
      -1.24456838e-01 5.21878675e-02 1.52474135e-01 1.59972072e-01
      4.83602695e-02 -8.64725038e-02 -9.41393077e-02 -2.33720522e-02
      1.88490469e-02 -5.01100048e-02 8.20209533e-02 -3.06761432e-02
      1.62131682e-01 -4.52354774e-02 1.66353017e-01 0. -4.00856324e-02
      -8.88596699e-02 -1.16186380e-01 -2.20508315e-02 -6.48819432e-02
      -3.71513218e-02 -2.04568962e-03 2.71190815e-02 1.11459866e-01
      -3.53221260e-02 9.00715142e-02 6.23340458e-02 -4.21523079e-02
      2.85395123e-02 5.78994025e-03 5.53871281e-02 -1.13121726e-01
      -4.59030783e-03 5.36355935e-02 5.96490130e-02 2.49881521e-02
      -4.36215848e-02 8.82595852e-02 -1.60418496e-01 4.64272536e-02
      -4.16445322e-02 6.32855445e-02 -1.41743571e-01 5.95970266e-02
      -1.16453201e-01 1.11038677e-01 0. 4.77461964e-02 -9.35407653e-02
      -4.97615710e-02 -1.99904405e-02 -6.70600832e-02 -1.06321856e-01
      1.71237122e-02 1.11106694e-01 1.23651385e-01 -9.10432637e-02
      -5.49828634e-02 2.64036097e-02 2.94479951e-02 1.59666762e-01
      -2.15915009e-01 -8.76296237e-02 -4.44193892e-02 1.66251361e-01
      1.06724049e-03 -8.78366083e-02 -2.22218875e-02 2.29706299e-02
      1.00232273e-01 -1.95758522e-01 -2.81531513e-02 1.03185013e-01
      2.17409760e-01 -1.28071427e-01 4.13656421e-02 -1.25160500e-01
      1.41501725e-01 0. 5.60869165e-02 4.55627851e-02 -4.03901972e-02
      1.54909223e-01 2.66737808e-02 5.39748259e-02 2.25114822e-02
      -5.94023690e-02 1.02558985e-01 -1.20820209e-01 7.44897872e-02
      8.84706825e-02 2.06197356e-03 1.02269454e-02 4.99911942e-02
      4.12477478e-02 -3.60569060e-02 -2.73489915e-02 -1.38160989e-01
      5.52779399e-02 6.83620153e-03 1.27761021e-01 -8.97784159e-03
      -3.51463747e-03 -1.56731289e-02 -7.52864331e-02 5.01626953e-02
      1.50185317e-01 1.63645387e-01 -1.20941862e-01 1.67651903e-02 0.
      2.60606688e-02 1.34148672e-01 4.47608754e-02 3.41937877e-02
      7.44616836e-02 -7.18717873e-02 8.07526261e-02 7.38711357e-02
      2.55253632e-03 -7.54733458e-02 5.29429950e-02 5.80928586e-02
      -7.44395331e-02 7.19973678e-03 3.04980874e-02 -3.39210443e-02
      5.46188653e-02 5.58700338e-02 -6.92097396e-02 1.90563053e-02
      3.88478264e-02 -9.65147540e-02 1.08552119e-02 -9.91166607e-02
      -4.57088947e-02 1.24513291e-01 8.66517499e-02 6.67877495e-04
      -2.03260183e-01 3.16127628e-01 1.10058598e-01 0. -4.44174595e-02
      7.13804886e-02 9.42370743e-02 4.04237397e-02 1.04758136e-01
      -4.13177945e-02 1.60768814e-02 8.13130066e-02 1.59181412e-02
      4.76429909e-02 8.42993706e-02 -6.77927583e-02 -1.19397335e-01
      4.53679003e-02 9.38688368e-02 -2.33500972e-02 -2.57246830e-02
      -5.55464439e-03 -1.27528012e-01 7.63457865e-02 6.73013777e-02
      -1.31312996e-01 1.55833624e-02 -3.39622609e-02 -7.10108057e-02
      -1.39261251e-02 -1.72077082e-02 1.47675112e-01 -7.99063873e-03
      1.04993165e-01 -7.13288710e-02 0. -3.92185934e-02 6.86213896e-02
      4.95567322e-02 -4.39574048e-02 4.76818234e-02 -7.74361566e-02
      3.72620970e-02 -2.33180165e-01 5.80961369e-02 4.77135554e-02
      1.74266756e-01 1.24841064e-01 -2.04428714e-02 -7.31943734e-03
      1.23111308e-01 5.29519692e-02 -3.49472323e-03 -1.54485647e-02
      -1.58134960e-02 1.40965566e-01 1.06953830e-01 -1.39947891e-01
      2.97587626e-02 -1.25679538e-01 2.31178533e-02 -1.80246249e-01
      7.57380873e-02 1.17039673e-01 -4.60136309e-02 1.34847507e-01
      -4.38981727e-02 0. -9.92067829e-02 4.93156984e-02 4.70219515e-02
      3.53374071e-02 1.90885484e-01 5.71153909e-02 -1.12899885e-01
      -2.54798234e-01 3.10391132e-02 -7.49621987e-02 2.72763032e-03
      6.45026937e-02 4.38187644e-02 1.52481580e-02 1.35150388e-01
      -7.25715328e-03 8.69805366e-03 -5.93968555e-02 -1.75409228e-01
      -2.85031032e-02 7.56351501e-02 2.48631258e-02 -1.39342789e-02
      -5.87377623e-02 -9.40003395e-02 -1.81637958e-01 -3.65681499e-02
      1.17412910e-01 -8.20083395e-02 9.64884087e-02 -9.77920219e-02 0.
      -1.07501447e-01 -5.19574955e-02 -1.31369725e-01 -9.85472426e-02
      -3.50646861e-03 1.10122316e-01 8.98743048e-02 7.38399252e-02
      1.07828796e-01 2.34361887e-02 1.20267108e-01 -5.06233014e-02
      -3.93084483e-03 8.41388553e-02 1.06753390e-02 8.22730139e-02
      -4.26192302e-03 -2.85571888e-02 -4.59250361e-02 1.29850311e-02
      -1.92431733e-01 -1.22699238e-01 -9.79960710e-02 -9.42421239e-03
      1.07137553e-01 3.05943619e-02 8.24148431e-02 1.03466369e-01
      -5.21099083e-02 1.43773094e-01 -9.03843641e-02 0. -2.65219025e-02
      6.16879575e-02 -4.35773134e-02 1.29093274e-01 5.99869527e-03
      1.05362475e-01 6.77700862e-02 1.51365977e-02 1.30630136e-01
      -6.45886287e-02 -2.58391220e-02 -8.44740719e-02 -8.33482817e-02
      1.04991920e-01 -5.74158039e-04 4.22802158e-02 -7.26806745e-02
      1.20451942e-01 -6.44935593e-02 9.58528519e-02 -5.53654507e-02
      2.29697414e-02 -4.80231643e-02 -9.30792913e-02 7.62894079e-02
      -6.65609911e-02 2.07351968e-01 7.79820830e-02 -2.10224930e-02
      1.65724695e-01 -4.27041352e-02 0. 1.98476966e-02 6.18383363e-02
      -7.30509534e-02 4.19627838e-02 1.44723251e-01 -5.24260588e-02
      6.37262836e-02 1.20511539e-01 2.47920789e-02 -4.58741002e-02
      4.52939831e-02 -2.22221073e-02 -6.32203594e-02 1.36281967e-01
      -1.00269150e-02 -1.15307659e-01 -1.80929136e-02 2.61843391e-02
      -9.31637138e-02 2.02145483e-02 -1.26747549e-01 -1.12475336e-01
      5.86357899e-02 -1.96735680e-01 -4.36706431e-02 8.23531970e-02
      3.61773558e-02 1.59835577e-01 -2.16734856e-02 5.43111190e-02
      -5.81519119e-02 0. -1.78946077e-03 7.84570258e-03 -4.32797074e-02
      -2.74719764e-02 7.77938589e-02 9.48996171e-02 -5.68107292e-02
      -9.98441875e-02 1.51995078e-01 2.19738949e-02 8.24509338e-02
      1.18822306e-01 7.84893241e-03 1.97371900e-01 1.92473978e-01
      7.91391637e-03 -9.34834778e-02 -2.03773030e-03 -1.48367137e-01
      1.72450636e-02 1.75797734e-02 -1.12331577e-01 1.42219707e-01
      -4.67908056e-03 -1.55406995e-02 -1.30793378e-01 8.37201700e-02
      3.31563473e-01 1.15759052e-01 -6.14901248e-04 -1.46580026e-01 0.</_></support_vectors>
  <decision_functions>
    <_>
      <sv_count>1</sv_count>
      <rho>-1.8369086156052878e+00</rho>
      <alpha>
        1.</alpha>
      <index>
        0</index></_></decision_functions></my_svm>
</opencv_storage>
