<?xml version="1.0"?>
<opencv_storage>
<my_svm type_id="opencv-ml-svm">
  <svm_type>C_SVC</svm_type>
  <kernel><type>LINEAR</type></kernel>
  <C>1.0000000000000001e-01</C>
  <term_criteria><epsilon>2.2204460492503131e-16</epsilon>
    <iterations>100000</iterations></term_criteria>
  <var_all>4096</var_all>
  <var_count>4096</var_count>
  <class_count>2</class_count>
  <class_labels type_id="opencv-matrix">
    <rows>1</rows>
    <cols>2</cols>
    <dt>i</dt>
    <data>
      -1 1</data></class_labels>
  <sv_total>1</sv_total>
  <support_vectors>
    <_>
      -9.23449025e-02 1.03483319e-01 1.52811110e-01 1.87935811e-02
      1.07531399e-01 3.86371724e-02 4.38496061e-02 5.59636094e-02
      3.77394678e-03 9.38720480e-02 1.18630394e-01 1.03932805e-02
      -7.72078410e-02 -1.74436375e-01 4.72924151e-02 6.20189542e-03
      6.23407550e-02 1.17661543e-01 -8.75275210e-02 1.20968230e-01
      8.30730423e-02 -1.06566072e-01 -9.21266600e-02 -4.58969213e-02
      2.67411470e-02 2.86961030e-02 2.54119616e-02 -1.24064252e-01
      6.44882396e-02 8.46154988e-02 2.75358766e-01 0. -1.54185891e-01
      -1.60502307e-02 -6.17821813e-02 -8.18120241e-02 -4.40370431e-03
      -6.21208400e-02 6.97932765e-02 5.19845448e-02 8.50390792e-02
      -1.25833839e-01 8.96373615e-02 1.41036585e-01 8.23559687e-02
      -2.72445306e-02 8.51618573e-02 1.15650324e-02 6.51274845e-02
      -5.81476511e-03 -1.81440651e-01 5.01062907e-02 4.95572463e-02
      -1.10419709e-02 -2.63103619e-02 -3.59033272e-02 1.01071693e-01
      -4.29372583e-03 3.96747235e-03 -2.41869912e-02 6.75026700e-02
      -5.64506166e-02 8.02873820e-02 0. -2.05180682e-02 3.10113523e-02
      2.79825572e-02 -4.80490848e-02 1.17003046e-01 -1.23682536e-01
      -3.53278220e-02 -9.55919549e-02 1.58175156e-01 -2.83536874e-02
      2.97204815e-02 8.15833360e-02 -1.27979759e-02 7.12818354e-02
      1.25294730e-01 4.95414436e-02 1.08357230e-02 4.50946242e-02
      -1.38844058e-01 1.69701930e-02 9.70252007e-02 -5.20431474e-02
      1.21533975e-01 -4.60233539e-02 5.36586791e-02 -8.22789147e-02
      6.79379478e-02 4.31575105e-02 5.54474220e-02 -8.47156066e-03
      9.05086324e-02 0. -1.04782335e-01 2.24595554e-02 -2.76883319e-02
      -1.82625726e-02 2.28568107e-01 1.21275894e-02 -3.03959064e-02
      -2.71153692e-02 5.27704954e-02 -3.52526158e-02 6.20321669e-02
      2.68986132e-02 -1.64154768e-01 6.95595071e-02 7.54655385e-03
      2.86139287e-02 1.62056446e-01 4.41299416e-02 -9.85066146e-02
      -1.77490171e-02 1.54329371e-03 -1.13237478e-01 9.72192809e-02
      -8.67907852e-02 2.86611021e-02 9.10296664e-02 -1.64825302e-02
      1.08420597e-02 4.59707119e-02 2.20113415e-02 6.68908209e-02 0.
      -1.19723596e-01 4.21216385e-03 -3.30742970e-02 5.32214306e-02
      7.40139261e-02 7.65536800e-02 -3.54865864e-02 -2.63606533e-02
      2.57987138e-02 -7.99251050e-02 7.73447901e-02 1.48480654e-01
      2.58250050e-02 2.29873937e-02 -6.65529491e-03 -4.73752767e-02
      4.19498906e-02 7.03393146e-02 -3.62431780e-02 -6.28326237e-02
      8.74517038e-02 6.03044927e-02 -4.94472645e-02 -4.24369201e-02
      -8.22366700e-02 -7.63335871e-03 -1.39445132e-02 5.55836456e-03
      6.43396005e-02 8.43794178e-03 4.99443747e-02 0. -1.66640189e-02
      4.63401563e-02 -2.42342101e-03 2.42448784e-02 7.54025355e-02
      -2.52160020e-02 -4.08505611e-02 5.94596798e-03 1.24277905e-01
      -1.07696347e-01 -1.22847576e-02 3.29803340e-02 -3.70357484e-02
      1.77342854e-02 2.19612140e-02 -1.62049849e-02 -1.17068235e-02
      6.01505190e-02 -1.64776742e-01 -8.45327154e-02 -1.44067630e-02
      1.76825728e-02 1.04819573e-01 -9.08247828e-02 -7.90860280e-02
      6.31696135e-02 1.12861574e-01 2.45108362e-03 2.08253358e-02
      8.08552653e-03 3.41414995e-02 0. -5.92390308e-03 1.16073325e-01
      5.24116829e-02 1.15393162e-01 5.09335883e-02 -9.11224410e-02
      6.95426539e-02 -1.65663604e-02 -4.03247327e-02 -1.32748440e-01
      1.08360134e-01 5.55397011e-02 -9.43247303e-02 -1.37801558e-01
      -5.99856898e-02 5.82910776e-02 4.48416173e-02 5.34040518e-02
      -7.54550025e-02 9.56629440e-02 7.00755268e-02 5.03206509e-04
      -3.32137458e-02 -2.64795512e-01 2.34215800e-02 -3.39162983e-02
      -2.70572193e-02 -5.37571125e-02 7.18563348e-02 2.19014045e-02
      2.88205687e-02 0. 1.41508609e-01 6.68281242e-02 4.79130410e-02
      -1.93230284e-03 2.00702086e-01 6.84949607e-02 7.62199536e-02
      1.32527217e-01 7.61787519e-02 -1.46189079e-01 5.81936575e-02
      3.86379883e-02 6.64092740e-03 -4.61045727e-02 -2.36930954e-03
      5.58688417e-02 5.68990596e-02 1.06301442e-01 -8.34624693e-02
      4.98342998e-02 3.02863698e-02 -1.34741003e-02 5.88116609e-02
      -8.27993453e-02 3.71724181e-02 1.62292019e-01 1.11370206e-01
      1.19249277e-01 3.51035088e-01 -7.67892450e-02 4.78858426e-02 0.
      -1.14227295e-01 1.40903168e-03 -2.00213622e-02 -1.06260210e-01
      2.51902174e-03 -1.49480909e-01 -9.18872934e-03 -3.56421843e-02
      -2.94636143e-03 -3.49028478e-03 -3.74620818e-02 8.59537199e-02
      7.41934031e-02 4.30200212e-02 -4.56038527e-02 -5.22299930e-02
      3.32916975e-02 -4.87312004e-02 -8.76831785e-02 -4.12996486e-02
      3.81292924e-02 -3.69300763e-03 -1.93035472e-02 -2.70125419e-01
      -6.63743913e-02 -1.38633996e-02 -1.15540363e-01 -5.94764985e-02
      -2.08352581e-01 8.84319171e-02 -2.04353104e-03 0. -2.25266516e-02
      2.65570562e-02 -1.96370959e-01 -1.27753820e-02 -3.82938944e-02
      -5.06859198e-02 1.22928746e-01 4.74696569e-02 1.25987783e-01
      -5.79961762e-02 7.41561726e-02 6.23520464e-02 -2.51392126e-02
      -2.49208920e-02 1.60708502e-02 3.64147425e-02 -1.19878523e-01
      4.46064658e-02 -8.83078575e-03 4.08679843e-02 -1.15657285e-01
      -1.81384869e-02 -1.18500870e-02 -1.44207463e-01 6.14566021e-02
      -5.40770851e-02 7.72252232e-02 1.05443440e-01 -5.91867939e-02
      4.71242703e-02 -8.96304920e-02 0. 3.95974843e-03 8.76819938e-02
      2.25569159e-02 -1.25763342e-02 5.87062463e-02 -1.99660987e-01
      9.76987928e-02 6.93607926e-02 1.06970571e-01 -1.00768983e-01
      -5.59064969e-02 -8.18296298e-02 -9.63950455e-02 3.05458030e-04
      1.34427935e-01 1.14813512e-02 1.50531549e-02 -3.39345597e-02
      -7.00018927e-02 -2.58210599e-02 -6.81651931e-04 -1.12498127e-01
      3.56163010e-02 -6.14913180e-02 7.43825659e-02 1.29761145e-01
      2.04157531e-02 1.01645000e-01 -6.49331287e-02 5.40962480e-02
      -7.80186281e-02 0. 1.15220966e-02 1.29104063e-01 -2.21137945e-02
      -1.52360812e-01 -1.15278110e-01 -1.43151864e-01 6.94769546e-02
      1.50124848e-01 8.75724778e-02 1.85127649e-02 7.66208246e-02
      5.91961183e-02 -1.18568875e-01 -1.67496800e-01 -4.54315869e-03
      1.34124113e-02 1.23807393e-01 1.28726467e-01 1.16091713e-01
      1.44728333e-01 8.05406552e-03 -2.65791059e-01 -2.75624603e-01
      -2.43561327e-01 1.03480257e-02 2.48185009e-01 1.27870545e-01
      1.29195645e-01 -9.92512628e-02 9.46166888e-02 -5.64140789e-02 0.
      -4.87126298e-02 7.75543153e-02 1.34174362e-01 6.04495220e-02
      -8.11035186e-03 -8.06499794e-02 -9.31067243e-02 5.45481034e-02
      4.38296162e-02 -2.09812168e-02 7.01935738e-02 4.72757891e-02
      7.22524885e-04 -1.10570975e-02 -1.33127689e-01 -3.56523991e-02
      -7.94552118e-02 1.38101131e-01 3.15454416e-02 9.75735486e-02
      1.80113360e-01 5.85264973e-02 -1.02372192e-01 -2.80701488e-01
      -1.86515287e-01 -9.18817669e-02 1.99127063e-01 3.86430547e-02
      -7.85798281e-02 1.52326703e-01 -5.77095710e-02 0. 1.81326584e-03
      1.71319813e-01 9.31310281e-02 -2.83537414e-02 1.83756426e-02
      -3.11008655e-02 -3.14591266e-02 -4.08385098e-02 1.12481341e-01
      5.55626210e-03 4.34306413e-02 6.29863888e-02 -4.97078076e-02
      6.55701235e-02 -2.10348014e-02 -7.98812881e-02 -6.22130260e-02
      -2.77372804e-02 -2.98862793e-02 1.29026264e-01 1.49791315e-01
      -9.16061029e-02 7.49164894e-02 -1.45609751e-01 -6.94771111e-02
      -2.86364108e-02 4.96846102e-02 6.57699108e-02 -3.34683768e-02
      1.04834020e-01 -4.17533815e-02 0. -3.88266966e-02 8.89466796e-03
      2.64251456e-02 8.73954222e-02 2.44468134e-02 -3.71065363e-02
      1.95594337e-02 -3.82751785e-02 5.45524694e-02 -6.44440651e-02
      4.70295222e-03 -9.55255777e-02 -4.88807186e-02 -7.92583525e-02
      4.13975157e-02 -1.30492663e-02 4.12850305e-02 -1.85288135e-02
      -7.25447375e-04 -4.13292199e-02 -2.21100170e-02 1.36295781e-02
      1.83941033e-02 -1.70496017e-01 7.62188062e-03 1.92718673e-02
      2.62039900e-03 5.11214212e-02 -1.00872420e-01 6.60287663e-02
      -7.53139108e-02 0. -4.30369610e-03 -5.02364188e-02 7.34862462e-02
      -1.57867484e-02 -1.07719405e-02 -1.62555128e-01 -2.96509964e-03
      2.84778103e-02 -1.85783114e-02 -8.73654634e-02 -1.10951155e-01
      2.06926242e-02 -1.47412447e-02 -1.75437033e-02 3.73642286e-03
      -1.56202596e-02 -6.29731501e-03 -8.70804414e-02 -2.47893333e-02
      -1.54871613e-01 1.59954298e-02 -2.94014961e-02 -3.22698839e-02
      -2.41912752e-01 -8.64712987e-03 4.44800332e-02 -7.10057616e-02
      5.25521040e-02 -3.17085572e-02 -4.55235392e-02 -2.00839579e-01 0.
      -1.91844001e-01 -1.87602658e-02 6.37327582e-02 -3.26521099e-02
      3.24232653e-02 1.38281507e-03 7.15088248e-02 9.74908378e-03
      -1.15574701e-02 -8.13445970e-02 6.88986555e-02 2.37209257e-02
      -1.02174796e-01 3.84026840e-02 1.16599254e-01 1.35524813e-02
      4.16384488e-02 -4.98825535e-02 -1.15113601e-01 -6.62953854e-02
      5.68258241e-02 -9.41116214e-02 -5.29105701e-02 -1.00780884e-02
      -9.73205455e-03 4.35348339e-02 -3.61922570e-02 -4.18014526e-02
      -1.10920295e-01 6.41079694e-02 8.54993984e-02 0. -2.68560294e-02
      1.01690345e-01 -6.63607344e-02 -5.28269708e-02 -8.48542154e-02
      -2.22825259e-02 6.48666471e-02 1.66621408e-03 -4.51758830e-03
      -5.37341945e-02 2.62566973e-02 4.78986874e-02 2.08597854e-02
      -3.14569958e-02 3.80900130e-02 -4.87424582e-02 -9.22131985e-02
      9.69475359e-02 -3.85954827e-02 1.69962436e-01 1.44349504e-02
      -4.37371135e-02 -1.26891717e-01 -2.33915094e-02 -7.42937112e-03
      -8.41445699e-02 1.12777241e-01 6.62028231e-03 -2.47921068e-02
      3.56349541e-04 -2.25217305e-02 0. -1.01369031e-01 -2.03477424e-02
      3.58399153e-02 -2.12409487e-03 -4.29320820e-02 -2.95035075e-02
      6.42259717e-02 -4.62999716e-02 -1.48789193e-02 -8.17145780e-02
      8.62243474e-02 -7.35045294e-04 -2.17177812e-03 2.21477058e-02
      1.81875587e-01 1.06549241e-01 5.51697053e-02 1.85239837e-02
      -1.55091032e-01 -1.94862636e-03 8.62180218e-02 4.46328595e-02
      2.78575290e-02 3.23341377e-02 1.60836682e-01 1.90969016e-02
      -4.99325525e-03 4.89686169e-02 4.77713067e-03 3.87541093e-02
      1.52054764e-02 0. -5.25037423e-02 -1.80954188e-01 -1.12851210e-01
      -1.76213995e-01 -1.56575646e-02 -2.39265542e-02 -7.41254687e-02
      -1.30132250e-02 -7.49339759e-02 -1.30021736e-01 -2.07818419e-01
      -1.60422325e-01 -1.09484740e-01 1.10805631e-02 3.58653478e-02
      9.83047262e-02 1.18516600e-02 -1.28369629e-01 -2.66657770e-01
      -2.90046364e-01 -2.52903759e-01 -2.47659832e-01 -3.14229093e-02
      -8.13939869e-02 8.77809303e-04 -4.77042049e-02 -2.09408969e-01
      -1.76863417e-01 -1.56443179e-01 -1.04760818e-01 -1.76258445e-01 0.
      -1.33874074e-01 -9.72348303e-02 -1.72317121e-02 -9.20742527e-02
      8.66513625e-02 -2.12473180e-02 -2.27837443e-01 -7.84222931e-02
      -2.16320679e-01 6.90287165e-03 -2.84595601e-02 -2.89510582e-02
      9.64880884e-02 1.41663626e-01 -6.89740255e-02 -8.26203674e-02
      -2.02083409e-01 -2.28053808e-01 -2.40779698e-01 -1.37043417e-01
      -6.10034727e-02 3.50133292e-02 3.66282351e-02 -1.75132692e-01
      -2.95012712e-01 -2.48485789e-01 -3.87539506e-01 -1.42515317e-01
      -2.00353190e-01 -1.19948849e-01 -9.89400819e-02 0. -1.38111308e-01
      2.64924951e-02 -1.92054047e-03 -3.09517477e-02 6.93833306e-02
      -3.37771550e-02 5.90630099e-02 4.64348942e-02 -3.65545787e-02
      -8.96603093e-02 2.04137508e-02 6.89976215e-02 -7.22330937e-04
      2.01151758e-01 1.64292883e-02 7.71623477e-02 -8.45868662e-02
      6.38796240e-02 -2.02801615e-01 1.09653147e-02 2.13305745e-02
      3.46678426e-03 8.34865198e-02 -1.40351979e-02 1.13450095e-01
      1.39627093e-02 -2.99658254e-02 -1.13914197e-03 2.45581791e-02
      8.24786127e-02 3.99666931e-03 0. -4.65135612e-02 4.50508483e-02
      6.60156831e-02 2.62467414e-02 9.58898012e-03 -8.29619169e-02
      -2.22215280e-02 1.63675882e-02 5.00429608e-02 -4.97976132e-02
      -4.88570854e-02 -8.56209174e-02 -1.05398551e-01 3.60997729e-02
      8.85131955e-02 1.00090362e-01 7.64392167e-02 -8.11371580e-03
      -3.11392955e-02 -1.10590877e-03 -5.66025376e-02 -9.85595882e-02
      -8.13577697e-02 -1.93067715e-01 9.30289403e-02 7.16449693e-02
      6.55002845e-03 -1.70669507e-03 2.39694528e-02 1.05464468e-02
      -2.18211254e-03 0. 2.27405014e-03 4.61927541e-02 1.01048775e-01
      7.03723207e-02 2.05881838e-02 7.70152733e-02 -1.41623989e-02
      4.75999415e-02 2.49799974e-02 -5.47958314e-02 -1.09612294e-01
      -5.17680719e-02 -1.08277023e-01 1.32230997e-01 -6.69897199e-02
      -9.69736874e-02 -1.56183252e-02 6.67079091e-02 6.93533123e-02
      3.49038281e-02 3.12284715e-02 -2.98518706e-02 3.60118710e-02
      -2.09559932e-01 -5.10185547e-02 7.51063302e-02 4.29414660e-02
      5.89447096e-02 1.31475523e-01 -6.74550608e-02 -8.95840004e-02 0.
      -1.27379686e-01 3.10770087e-02 4.00944538e-02 3.81137319e-02
      2.87467185e-02 4.91171293e-02 -7.81923309e-02 -1.75299972e-01
      -9.04366076e-02 4.67145257e-02 1.07138805e-01 3.59448083e-02
      1.16979763e-01 8.40956718e-02 7.01436251e-02 -1.01301037e-01
      7.88464919e-02 6.96550235e-02 -4.59987037e-02 9.57433432e-02
      6.55417815e-02 8.33788291e-02 -4.51418534e-02 -1.42913917e-02
      -1.82675198e-01 -9.33204070e-02 1.67472977e-02 -6.19137064e-02
      -4.27504852e-02 1.22865036e-01 8.74201581e-02 0. 1.44971097e-02
      1.62216388e-02 -8.64302218e-02 -3.11655942e-02 8.17744806e-02
      -6.92913756e-02 -8.14183354e-02 1.04111191e-02 -7.41972923e-02
      4.92637232e-02 1.33109353e-02 7.10809603e-02 8.51565972e-02
      6.79893345e-02 9.09938738e-02 -3.85717396e-03 -1.07299618e-01
      -3.77185903e-02 1.64071880e-02 -7.53079541e-03 5.98217957e-02
      7.06534609e-02 -1.27384616e-02 -7.32652247e-02 -7.93277323e-02
      -8.17110986e-02 -8.26331675e-02 5.92921162e-03 2.24863086e-03
      -2.41612196e-02 2.03775652e-02 0. 8.73893350e-02 -3.20720300e-02
      -6.44328445e-02 -4.95992005e-02 -5.85336573e-02 6.53175218e-03
      8.28229710e-02 -1.32577822e-01 -7.59562186e-04 9.69706103e-02
      9.98647958e-02 -9.38026011e-02 1.62049979e-02 -2.29169894e-02
      7.17358440e-02 9.98311341e-02 4.80674691e-02 -1.12071401e-03
      4.17240076e-02 -3.75272259e-02 -2.42517546e-01 -3.16694081e-02
      -1.40251324e-01 -3.74413691e-02 1.38290286e-01 -6.00154251e-02
      -5.17921336e-02 -2.28580739e-02 5.72668165e-02 1.22341132e-02
      2.57658418e-02 0. 1.86660662e-01 4.18571308e-02 -1.16557479e-01
      -1.70837447e-01 -8.36356878e-02 -1.31175682e-01 -6.91801906e-02
      -7.14310110e-02 -4.63704057e-02 7.58428723e-02 -1.29633158e-01
      -1.92438453e-01 -1.30007833e-01 4.71409224e-02 1.23691045e-01
      -1.14664711e-01 -3.79761234e-02 -4.88602519e-02 9.38316882e-02
      -2.29192469e-02 -3.31386954e-01 -2.55077004e-01 -1.42795637e-01
      -8.71428400e-02 -1.63879529e-01 -1.24460511e-01 -1.09637052e-01
      -1.83134288e-01 -7.46323988e-02 -8.66921619e-02 -6.45163655e-02 0.
      2.44018249e-02 -1.08260155e-01 -3.85877490e-02 -3.64799462e-02
      -4.23121406e-03 -1.28447518e-01 -1.47511646e-01 -1.47332102e-01
      9.15622562e-02 2.00086787e-01 -5.66313043e-04 -5.18213436e-02
      -7.37194866e-02 1.08069815e-01 6.28990754e-02 -1.55257598e-01
      -1.54418588e-01 -1.24333933e-01 6.24349192e-02 -1.10021368e-01
      -1.43406376e-01 -1.38962165e-01 -2.18756627e-02 -1.42432973e-01
      -2.52143174e-01 -3.06511879e-01 -3.69055085e-02 -2.36048233e-02
      -8.69631693e-02 -1.60997778e-01 -5.08472137e-02 0. 8.75688866e-02
      -8.49717557e-02 -2.77792029e-02 1.59351751e-02 4.41905633e-02
      -1.63791835e-01 8.00311100e-03 -1.27273351e-01 -7.95401074e-03
      9.62761194e-02 -6.12966679e-02 9.38071311e-02 9.43070501e-02
      -6.71566948e-02 -3.68880220e-02 4.95221792e-03 -1.49635762e-01
      1.10231027e-01 5.35971224e-02 -6.62779585e-02 3.35815772e-02
      8.97767097e-02 -9.17204469e-03 -1.56378835e-01 -4.79855202e-02
      -2.21980393e-01 1.70285627e-02 -1.53698800e-02 -6.61195368e-02
      6.03162684e-03 -5.37606515e-03 0. 1.07636116e-01 7.21487030e-02
      8.93932730e-02 -7.52916411e-02 7.07238689e-02 -4.02771160e-02
      3.37472111e-02 -5.59265837e-02 4.28457856e-02 -8.23031738e-02
      -6.35433346e-02 4.24959473e-02 1.31357890e-02 7.22496957e-02
      2.92649381e-02 4.40996736e-02 -4.98562269e-02 1.02600530e-01
      1.79274660e-02 -6.08255528e-02 9.93197039e-02 -2.55352762e-02
      -9.62171778e-02 -1.98505446e-01 9.06428322e-02 -1.04782790e-01
      1.64906625e-02 2.33355146e-02 2.15216409e-02 9.41161215e-02
      2.74985600e-02 0. 1.56680141e-02 -6.34643063e-02 -6.27641603e-02
      -6.98451847e-02 2.49113087e-02 4.63368781e-02 1.92723647e-01
      -1.46341408e-02 1.16325757e-02 -1.15131862e-01 -2.89127026e-02
      -1.66476220e-02 -1.07818864e-01 9.08104628e-02 8.58389512e-02
      -9.01161321e-03 3.13437507e-02 6.48292378e-02 -4.23188359e-02
      8.09349213e-03 -5.23615330e-02 -1.57683060e-01 -4.45325077e-02
      -8.38825926e-02 5.62406518e-02 1.49374790e-02 4.46407050e-02
      1.35092944e-01 5.53798899e-02 -5.40030524e-02 -1.00707322e-01 0.
      -2.53876001e-02 5.57337329e-02 7.02875927e-02 2.67531108e-02
      2.76434259e-03 -3.08452770e-02 -5.13647422e-02 2.83563994e-02
      -1.00996494e-02 1.09191477e-01 -9.34402794e-02 -8.86140317e-02
      3.60780326e-03 -1.47471447e-02 -7.98892975e-03 7.22064003e-02
      1.52582645e-01 4.16697972e-02 5.41350208e-02 -7.59125804e-04
      -5.49518168e-02 -3.56851192e-03 4.03460860e-02 -6.46232218e-02
      6.84372708e-02 1.20136641e-01 4.77049267e-03 -1.52554616e-01
      4.85895649e-02 2.27184594e-02 1.94696397e-01 0. 7.24886656e-02
      -2.30941568e-02 -2.22108257e-03 1.18356213e-01 -1.32748783e-01
      -1.67402685e-01 -6.17850199e-02 1.83403064e-02 8.49449113e-02
      1.84198737e-01 -9.25487801e-02 -1.81172192e-01 1.32527705e-02
      5.48721738e-02 7.15702102e-02 -4.43334877e-02 -6.28523808e-03
      -3.93932350e-02 5.03246374e-02 -3.39573026e-02 -1.71669811e-01
      1.32716045e-01 -1.48418974e-02 -1.49261430e-02 -2.08205320e-02
      -1.34143792e-02 -2.56337095e-02 -2.49207597e-02 8.67987499e-02
      -1.84596896e-01 6.00412153e-02 0. -4.07357179e-02 -1.54730126e-01
      -1.47434592e-01 1.17901295e-01 7.48022273e-02 -2.10022926e-02
      9.61839929e-02 7.50785843e-02 1.60022110e-01 1.11710824e-01
      -1.32610545e-01 -1.46107197e-01 -3.85533497e-02 3.38115804e-02
      6.31074905e-02 6.96179718e-02 -5.17815584e-03 5.24699055e-02
      -3.62654440e-02 -2.06894785e-01 -3.06940824e-01 8.27904344e-02
      3.81365530e-02 8.37813020e-02 1.80765942e-01 1.01691470e-01
      1.80844963e-01 -9.89716202e-02 9.34782252e-02 -1.23303412e-02
      9.71858203e-02 0. 1.07146941e-01 1.86242349e-03 -9.78550911e-02
      -3.55485827e-02 9.75746736e-02 6.52668327e-02 6.94581354e-03
      -3.01076639e-02 2.53019214e-01 2.80828536e-01 -8.79457295e-02
      -1.13748901e-01 -5.98278753e-02 7.88641572e-02 1.99551489e-02
      -4.85919490e-02 8.46295524e-03 -6.85465336e-02 1.56343415e-01
      -9.77320014e-04 -1.14409409e-01 -9.88883302e-02 1.06245287e-01
      1.34350345e-01 3.05389743e-02 -1.66610871e-02 1.53677344e-01
      -7.41654560e-02 8.49591494e-02 7.12112710e-03 1.60158560e-01 0.
      3.25984448e-01 1.69140548e-01 5.12681566e-02 5.08941039e-02
      9.55426022e-02 1.32681113e-02 3.08524072e-03 -2.16538087e-01
      -8.69266838e-02 1.74915388e-01 -1.65213645e-02 4.50366512e-02
      3.17801721e-02 1.60295144e-01 6.81997985e-02 3.01936455e-02
      -8.23563710e-02 -8.05299133e-02 2.82863170e-01 1.58305869e-01
      7.65113309e-02 1.28136784e-01 2.18363106e-01 1.31722197e-01
      2.32319366e-02 -2.12138414e-01 5.72476862e-03 9.98414978e-02
      1.50047928e-01 -4.41023745e-02 1.41508222e-01 0. 5.70649840e-02
      4.83339503e-02 -1.07682776e-02 3.52454334e-02 -1.39864497e-02
      -1.79422423e-02 1.21872716e-01 -1.15337156e-01 -7.45142549e-02
      6.88742921e-02 -3.50862136e-03 3.80617641e-02 6.79012910e-02
      -7.08531961e-02 1.03494391e-01 7.05843344e-02 -2.25996763e-01
      -1.19274832e-01 -4.26969863e-02 6.64061010e-02 8.56407732e-02
      1.22310489e-01 -1.77602209e-02 9.05402005e-02 1.67482510e-01
      -3.38724196e-01 -1.28394112e-01 -4.30892929e-02 3.64632271e-02
      -6.86036795e-02 5.60207926e-02 0. 5.53135015e-02 9.28777680e-02
      5.57696261e-02 -7.60378763e-02 -1.61694139e-02 -2.47066114e-02
      7.35507458e-02 -6.10224009e-02 8.74598995e-02 3.68854497e-03
      9.64710955e-03 -8.90731961e-02 -1.45439506e-02 1.18213959e-01
      6.88189864e-02 4.86239344e-02 -4.26297598e-02 3.91999893e-02
      -1.73911974e-02 8.99032131e-02 -5.71322553e-02 -1.94425900e-02
      4.00396101e-02 4.30234522e-02 1.07977219e-01 -7.06452131e-02
      4.91656996e-02 -4.41663973e-02 7.51957670e-02 3.81381400e-02
      8.59140828e-02 0. 1.21592365e-01 7.18134120e-02 1.50154475e-02
      -3.69780138e-02 -3.20103504e-02 -2.69375090e-02 1.46462008e-01
      1.04716584e-01 2.66444273e-02 -4.34403643e-02 -1.48569727e-02
      -1.78783592e-02 -1.55947655e-02 7.06681982e-02 5.45982718e-02
      -1.03070490e-01 -4.18930128e-02 -6.28678873e-02 3.30550447e-02
      8.76674205e-02 1.72304325e-02 6.44263811e-03 -7.59335235e-02
      -3.54893995e-03 1.05042262e-02 -2.05640476e-02 -1.38281460e-03
      7.25588948e-02 1.52548119e-01 -1.09416924e-01 -1.38756847e-02 0.
      1.07672378e-01 4.96442169e-02 1.43954515e-01 7.94736519e-02
      3.38031277e-02 5.71290478e-02 6.63853064e-02 2.95874616e-03
      3.05257104e-02 5.54651469e-02 2.76759434e-02 -5.96172437e-02
      -9.70994588e-03 1.00765318e-01 -6.54854551e-02 8.62874836e-03
      -4.23109755e-02 -1.06438994e-01 4.73003183e-03 1.24123573e-01
      3.20209935e-02 2.75880788e-02 -1.49147436e-02 -4.71163765e-02
      9.46508572e-02 -6.58344030e-02 -7.13339373e-02 -4.83820997e-02
      4.82186973e-02 5.12351654e-03 2.21556678e-01 0. 3.81019749e-02
      -2.68640593e-02 -4.20667641e-02 1.26680687e-01 -8.45862851e-02
      -2.35632077e-01 -2.41213944e-02 -2.57819938e-03 6.96543530e-02
      3.63038927e-02 -4.21277471e-02 -9.46935117e-02 1.33570746e-01
      1.68543592e-01 7.31421039e-02 8.23010579e-02 -2.92723086e-02
      -7.90706351e-02 -5.51496372e-02 -1.61159076e-02 -6.85310811e-02
      1.67156830e-01 3.97384018e-02 -1.27412722e-01 2.62483358e-02
      -4.21559252e-03 6.88384920e-02 5.63920066e-02 1.33229256e-01
      -1.48641795e-01 -9.26113036e-03 0. -6.57919049e-02 -3.20112035e-02
      -4.95842472e-02 1.76538318e-01 1.76318586e-02 -1.37841264e-02
      4.29313071e-02 5.68406731e-02 -2.92454027e-02 1.87950492e-01
      -9.95456204e-02 -1.61823351e-02 5.42350933e-02 1.15264662e-01
      6.22568429e-02 2.18654927e-02 -1.31795868e-01 -1.06617421e-01
      -1.57752186e-01 -1.23729855e-01 -1.06897391e-01 1.89449757e-01
      1.33158579e-01 2.69018542e-02 4.54174653e-02 -4.26897705e-02
      -6.99669197e-02 -6.19988479e-02 6.66918233e-02 -3.55723165e-02
      1.20896272e-01 0. -4.56975028e-03 5.11262054e-03 3.26850638e-02
      9.45866704e-02 9.19959098e-02 1.72996357e-01 1.46998063e-01
      -5.20732105e-02 -1.95739251e-02 7.91289285e-02 2.76324879e-02
      9.70233604e-02 -1.02770096e-02 9.62293446e-02 2.41791494e-02
      -5.19401990e-02 2.75059305e-02 -1.59424767e-01 -1.19862072e-01
      8.76348540e-02 1.37302205e-01 1.09680034e-01 1.92706436e-01
      9.08392370e-02 7.67711699e-02 -3.27775404e-02 -7.14718131e-03
      -1.98178645e-02 9.26593542e-02 4.93711792e-02 1.59785897e-01 0.
      4.19720449e-02 1.14833061e-02 -3.26960310e-02 8.89386237e-02
      2.00912058e-01 -1.37073975e-02 9.68818292e-02 -6.55721780e-03
      -1.07247243e-02 1.22101111e-02 -9.75178406e-02 7.30185257e-03
      -1.06723763e-01 8.27891901e-02 -6.99841138e-03 7.20527722e-03
      3.97506021e-02 -1.06323496e-01 -4.66145091e-02 2.64296196e-02
      -7.31284022e-02 6.29060855e-03 1.96977511e-01 1.19562149e-02
      1.53795794e-01 4.52662893e-02 2.92770658e-02 1.51228253e-02
      1.14464305e-01 -8.05459693e-02 4.91024032e-02 0. 6.05194755e-02
      -1.90720752e-01 -5.32403998e-02 2.27971207e-02 2.11195033e-02
      -3.14644352e-02 1.42491624e-01 1.38221756e-02 3.43861692e-02
      -1.13919880e-02 -9.83974859e-02 -8.07158425e-02 -9.62877125e-02
      -1.71985012e-02 6.40679523e-02 1.20041065e-01 -2.10820418e-02
      -1.34602264e-01 -1.25213489e-01 -9.99573693e-02 -9.66680497e-02
      -5.01847640e-02 6.61495794e-03 6.31327778e-02 1.72719896e-01
      -2.54431739e-02 -9.27973539e-02 -5.45607507e-02 3.32159735e-02
      -1.29010424e-01 2.97445413e-02 0. 2.98667010e-02 1.01381876e-02
      -7.96767510e-03 7.93949664e-02 -6.52836859e-02 -2.73610260e-02
      9.33406800e-02 -8.74397382e-02 -7.79230222e-02 -6.47959707e-04
      -1.32667437e-01 -1.52217876e-02 1.72207132e-02 -5.96865527e-02
      1.45684794e-01 1.31119505e-01 -5.97638786e-02 -1.93514321e-02
      -1.26870230e-01 2.74894945e-02 1.05049051e-02 4.70314324e-02
      -2.11121677e-03 5.72416559e-02 1.89008474e-01 -3.14243995e-02
      -4.58457507e-02 -1.04754463e-01 1.77977700e-02 1.49841662e-02
      5.00295274e-02 0. -3.11802458e-02 -5.23970537e-02 -4.02397513e-02
      4.80856225e-02 7.37665445e-02 3.93175744e-02 6.29026368e-02
      8.36686566e-02 -1.34259416e-02 8.38754550e-02 1.36481086e-02
      3.65091972e-02 3.56943682e-02 -2.58718785e-02 7.46508762e-02
      4.00021970e-02 -1.06626466e-01 1.41544109e-02 -3.80937457e-02
      -1.28902914e-02 -2.23392583e-02 9.10363123e-02 -2.84517859e-03
      1.97274350e-02 3.74096371e-02 -8.72120354e-03 6.47160634e-02
      5.48560992e-02 1.76552936e-01 -8.35309476e-02 1.07641136e-02 0.
      -3.87825519e-02 1.67773720e-02 -7.48018967e-03 -8.56495425e-02
      -1.43937832e-02 2.27947403e-02 -3.00271786e-03 -2.14328468e-02
      8.80799964e-02 1.32145315e-01 -4.22620997e-02 5.88175394e-02
      3.10841179e-03 -5.57629503e-02 1.06851295e-01 -1.27696414e-02
      3.60852219e-02 -9.23622027e-02 3.26508507e-02 1.04491608e-02
      -4.71117012e-02 -8.45478103e-02 -4.99849953e-02 7.34644523e-03
      1.92809775e-02 -1.11792274e-02 -3.27478386e-02 -7.14620203e-02
      -1.59722902e-02 7.32723251e-02 5.69469407e-02 0. 5.75060956e-02
      4.25833985e-02 -4.50718962e-03 1.52814714e-03 -5.47030829e-02
      -4.27531600e-02 2.20893808e-02 -2.02667788e-02 7.18169510e-02
      6.83036074e-02 -1.49826840e-01 7.56283849e-02 -6.62871450e-02
      9.33198445e-03 -7.68531039e-02 -2.92198174e-02 -3.53230610e-02
      3.62469852e-02 5.77512570e-02 -1.01130612e-01 3.33462516e-03
      -5.52264936e-02 1.41953882e-02 -1.49703443e-01 -9.46696661e-03
      -3.66172567e-02 6.47936538e-02 2.32012756e-02 1.14122197e-01
      -1.26424402e-01 -5.55431060e-02 0. 1.07636102e-01 -1.41538624e-02
      -1.12916023e-01 9.33541730e-03 4.38905135e-02 -2.60507036e-03
      -5.22619113e-02 -8.23251158e-02 2.42165360e-03 8.96527618e-02
      -1.50918677e-01 -3.27459127e-02 3.10161561e-02 9.02727991e-02
      1.44664183e-01 5.89397624e-02 -1.10025639e-02 -5.03613316e-02
      -1.03674650e-01 -9.09739211e-02 -1.43601477e-01 2.43296139e-02
      7.41496831e-02 7.36678094e-02 6.19234368e-02 -2.93847453e-02
      -6.70483187e-02 -6.17239885e-02 1.42853195e-02 -1.71586741e-02
      9.69065875e-02 0. 8.34150612e-02 2.20085606e-02 3.52815464e-02
      -2.00205669e-02 1.42366916e-01 -6.29355758e-02 -2.72740680e-03
      -1.02108821e-01 7.08700810e-03 1.86268553e-01 -6.19685687e-02
      -5.99265797e-03 1.48998275e-02 6.05518259e-02 -6.80803657e-02
      -8.43960270e-02 1.42853670e-02 -8.35057274e-02 4.83550653e-02
      6.90603331e-02 -1.16874715e-02 3.29664932e-03 1.19301848e-01
      -1.76897153e-01 1.40662333e-02 -9.67785940e-02 -5.23846447e-02
      -7.24749938e-02 -1.17229810e-03 1.60618033e-02 9.26712900e-02 0.
      1.82242349e-01 -8.11035112e-02 -4.17133570e-02 -1.06186129e-01
      -1.00903876e-01 6.71703443e-02 -5.40856319e-03 3.79369035e-03
      2.66939756e-02 1.30977228e-01 -4.28852662e-02 3.00507192e-02
      5.87946214e-02 -6.81736320e-03 1.39507735e-02 3.58497426e-02
      -6.38244674e-02 -8.55569015e-05 8.73645395e-02 -3.01983077e-02
      -5.57345524e-02 2.95727141e-02 -9.17128623e-02 4.64791805e-03
      4.35484350e-02 -2.35743970e-02 4.48492244e-02 1.50189847e-02
      1.02164157e-01 -8.46030042e-02 1.48405181e-02 0. 6.38047904e-02
      3.25428471e-02 -8.38515013e-02 -9.02473927e-02 1.02276474e-01
      9.77997482e-02 7.25728348e-02 -1.77293792e-02 3.51371132e-02
      2.93752421e-02 -3.77419442e-02 9.13795605e-02 8.06340426e-02
      1.38293788e-01 -7.52237858e-03 5.05646281e-02 -5.08336686e-02
      -1.05251968e-01 -1.08770959e-01 -2.05259100e-02 3.21956575e-02
      4.57276329e-02 1.49186924e-01 1.81821771e-02 8.08775276e-02
      2.41204188e-03 -7.37583563e-02 1.98478885e-02 1.57528728e-01
      -5.99636696e-02 7.17140734e-02 0. -1.47234285e-02 4.98512909e-02
      -1.18001789e-01 7.42578655e-02 -1.00468434e-01 -1.78198949e-01
      1.94957629e-02 -1.15750358e-02 1.18385777e-01 2.30029635e-02
      -2.40793154e-02 -6.34865537e-02 1.11256549e-02 3.23920026e-02
      -3.49481846e-03 1.46645289e-02 -6.34832820e-03 -2.26481929e-01
      -7.57488683e-02 4.12486792e-02 -1.31445035e-01 6.90152124e-02
      -9.02077109e-02 -1.45817950e-01 4.28343564e-03 8.74983054e-03
      -6.95528835e-02 -1.70088157e-01 -5.19091859e-02 -6.12555183e-02
      9.29567814e-02 0. 6.67150170e-02 2.51878947e-02 -2.69396137e-02
      6.46437928e-02 -4.64621969e-02 -1.21496581e-01 -4.09237333e-02
      2.61413157e-02 4.57684547e-02 7.68616274e-02 -8.01376700e-02
      9.51226503e-02 -4.37276624e-02 2.30724812e-01 7.17923045e-02
      -6.11460349e-03 3.98465581e-02 -7.75276823e-03 -2.73969807e-02
      -3.93097810e-02 8.61545727e-02 4.00498807e-02 6.39505535e-02
      -1.47365630e-01 -5.42972311e-02 8.75272322e-03 4.82561029e-02
      6.31456673e-02 1.51323676e-01 -6.83502331e-02 2.79451218e-02 0.
      -3.36707309e-02 -1.47242881e-02 -7.84267113e-03 3.27082500e-02
      1.36375934e-01 -8.81578401e-02 7.29092509e-02 2.80734543e-02
      9.05475765e-02 1.27401426e-01 7.32983947e-02 -3.03362496e-02
      -8.25385749e-02 3.16839255e-02 1.50269736e-03 1.25318235e-02
      7.16581643e-02 -1.42238215e-01 -2.68351678e-02 2.25525945e-02
      -4.20599654e-02 -6.43725097e-02 5.19183315e-02 -7.13633150e-02
      1.69372689e-02 5.30035645e-02 -5.35209551e-02 -9.69736502e-02
      -2.43644025e-02 1.00083783e-01 1.52860865e-01 0. 5.28843179e-02
      -5.71640506e-02 -4.93263528e-02 -6.22850321e-02 2.69605089e-02
      -3.30779478e-02 9.62497517e-02 5.84717132e-02 -6.05062470e-02
      1.65332139e-01 -7.28389025e-02 1.61630213e-01 3.37178484e-02
      1.22047514e-02 6.21546619e-02 7.78250098e-02 -1.75364297e-02
      -8.99407715e-02 1.81617495e-02 -1.27231613e-01 8.10314342e-02
      -3.26116756e-02 -1.59964412e-02 1.58718750e-02 7.93594196e-02
      5.48984744e-02 -1.04339771e-01 3.15252542e-02 1.35005713e-01
      -5.65689094e-02 3.36995497e-02 0. 6.35440350e-02 -1.91267192e-01
      -1.00678824e-01 -1.43737709e-02 4.41100337e-02 1.00869492e-01
      1.16143137e-01 -2.35883594e-02 -1.53661028e-01 -2.69334540e-02
      -7.53257349e-02 -2.28187796e-02 3.77437042e-04 1.05184540e-01
      2.01608744e-02 4.20902483e-02 1.45842865e-01 5.61298393e-02
      -9.66351777e-02 -1.94602594e-01 -1.13530472e-01 -3.01282760e-02
      3.68975848e-02 -5.38480692e-02 1.12165026e-01 6.47568703e-02
      -8.46362039e-02 -2.25397777e-02 1.13864671e-02 -3.55897956e-02
      8.71917158e-02 0. 8.72347653e-02 1.50251277e-02 1.10872030e-01
      -4.93449159e-02 -3.29242758e-02 -6.36088103e-02 8.10846835e-02
      2.46300250e-02 1.05017833e-01 1.91078827e-01 2.18470651e-03
      -1.88538320e-02 -2.59188153e-02 9.68155414e-02 -5.31531982e-02
      -1.10412715e-03 7.96607211e-02 -3.86974681e-03 1.43785447e-01
      6.74166977e-02 5.17858714e-02 -5.72831370e-02 -8.56175497e-02
      -2.12522462e-01 2.85090506e-02 -6.44244999e-03 6.39999285e-02
      3.49332578e-02 1.11142509e-02 8.09433609e-02 1.29840374e-01 0.
      9.96342227e-02 1.19545795e-02 1.50668263e-01 2.78166961e-02
      -8.09242427e-02 -9.18861777e-02 -4.55704331e-02 4.26979549e-02
      6.23171171e-03 7.05667436e-02 -1.04594544e-01 4.51445719e-03
      4.26521432e-03 -5.57263047e-02 -1.42370863e-02 1.06154181e-01
      -6.96267411e-02 -4.93794866e-02 3.56066935e-02 3.25721060e-03
      7.68569335e-02 4.98471297e-02 -1.18709326e-01 -1.58597216e-01
      4.09232378e-02 3.05088405e-02 8.47584940e-03 3.80033143e-02
      5.24032936e-02 -5.65946288e-02 -2.78916582e-02 0. -3.91690321e-02
      -1.37383953e-01 -4.87177121e-03 2.74737948e-03 1.54603004e-01
      2.02136338e-02 -2.33502630e-02 -3.34519893e-02 -1.42723888e-01
      -2.91566886e-02 -2.59323249e-04 1.71509162e-01 5.44752888e-02
      -3.84105667e-02 6.12591133e-02 3.96861359e-02 -5.13098910e-02
      -7.45185539e-02 -2.30124652e-01 -1.42998695e-01 1.02412395e-01
      3.09840329e-02 2.86369752e-02 8.50509480e-03 -1.10288132e-02
      -3.00215706e-02 -1.35410935e-01 -6.45433739e-02 3.92265804e-02
      -3.66808102e-03 -4.06599930e-03 0. 6.86225295e-02 -1.19349651e-01
      -1.81470793e-02 7.28146881e-02 7.42126927e-02 -1.22618699e-03
      -2.02707890e-02 -2.52901055e-02 1.35479197e-01 9.70025286e-02
      7.12429537e-05 -1.39576448e-02 5.90119995e-02 -9.61633474e-02
      -1.03303149e-01 -1.32750382e-03 3.45643647e-02 -1.24133915e-01
      -3.24873179e-02 -6.78771734e-02 -1.57183018e-02 1.08713187e-01
      -2.95390957e-03 -1.54165581e-01 -6.38495525e-03 5.89967445e-02
      -3.24425511e-02 -9.22942162e-02 1.08752865e-02 -2.35528946e-02
      1.13744520e-01 0. 4.15927470e-02 6.03773119e-03 5.26416488e-02
      4.75216599e-04 6.80189952e-02 1.13825396e-01 2.67667882e-02
      1.37249092e-02 -2.43047327e-02 -5.04324809e-02 -1.60229981e-01
      3.06657124e-02 5.71671277e-02 5.32668978e-02 -2.32263911e-03
      -2.09955379e-01 -2.50397902e-02 6.93188235e-02 -8.77084285e-02
      -1.41948685e-01 6.43332209e-03 2.22201832e-02 1.11661285e-01
      -1.12378942e-02 -1.21226326e-01 1.43049210e-02 6.10791706e-02
      6.93406612e-02 1.14670642e-01 -1.08037397e-01 -4.71161790e-02 0.
      6.24419600e-02 -4.73367423e-02 5.39545575e-03 6.30272506e-03
      6.80722669e-02 2.46173516e-02 1.39892765e-03 -7.57434145e-02
      -4.32767645e-02 7.98463672e-02 1.60602272e-01 2.71041747e-02
      -1.51142967e-03 6.60262108e-02 1.11224964e-01 5.87574430e-02
      2.00247820e-02 4.25706469e-02 3.95545438e-02 1.42449230e-01
      5.86642362e-02 3.25603336e-02 -3.57769094e-02 -1.36398776e-02
      7.29474425e-02 -3.73691805e-02 8.13902728e-03 -2.61432640e-02
      6.35451078e-03 5.44994101e-02 2.32345536e-01 0. 1.33804932e-01
      -5.82516268e-02 1.66655183e-02 -5.14977127e-02 1.15050130e-01
      -2.63609309e-02 4.80489582e-02 -1.42852819e-04 -2.97242962e-02
      6.86709359e-02 2.96680126e-02 2.94971671e-02 4.95076068e-02
      5.47374487e-02 1.34605449e-03 6.34065121e-02 -1.81234285e-01
      -2.04292703e-02 -5.08500487e-02 -2.48241965e-02 2.79431082e-02
      3.02523724e-03 -1.86969386e-03 -1.60756916e-01 9.27633420e-02
      -1.23006620e-01 4.15765159e-02 6.38426989e-02 4.50796038e-02
      -6.57560229e-02 7.12718591e-02 0. -4.21520323e-02 -5.52618243e-02
      4.44507413e-02 -1.43208327e-02 1.40431479e-01 -8.16300660e-02
      8.75023380e-03 5.50033450e-02 -1.89997658e-01 -5.02486294e-03
      -9.89939868e-02 -1.19691543e-01 1.18127972e-01 1.18568785e-01
      5.11270687e-02 5.56770340e-02 2.66018752e-02 -1.70073682e-03
      -2.20933437e-01 -7.43450671e-02 -5.26963267e-03 1.00636356e-01
      1.79147705e-01 -1.52350917e-01 -1.77729465e-02 9.46886837e-02
      -1.60824746e-01 1.47475516e-02 -3.54180038e-02 2.47223526e-02
      6.45600085e-04 0. 1.35149181e-01 2.35629044e-02 -1.81188565e-02
      3.02316416e-02 1.17325246e-01 4.59634094e-03 -7.41529763e-02
      -6.54276386e-02 -2.06528436e-02 1.42728433e-01 -1.11438576e-02
      -1.62864868e-02 1.79707836e-02 1.83900464e-02 -2.79282592e-02
      2.80593168e-02 1.59619376e-01 6.76146075e-02 3.12968455e-02
      4.72733304e-02 -6.04536384e-02 -2.99368221e-02 -3.62278800e-03
      -3.79330590e-02 -7.96255767e-02 2.76542595e-03 -1.12090511e-02
      6.67635873e-02 7.32381269e-03 9.69710499e-02 7.00800940e-02 0.
      9.71111506e-02 -8.66274834e-02 -2.55292337e-02 -1.48186758e-01
      5.62908314e-02 7.73455054e-02 6.27643988e-02 -2.07686797e-03
      -1.09816613e-02 3.15778971e-01 7.11756423e-02 2.04460561e-01
      1.87538937e-02 -1.42008141e-01 -4.22807075e-02 6.05203100e-02
      6.50108755e-02 -1.19388252e-01 9.81754735e-02 -3.76514383e-02
      1.03107663e-02 -1.17167577e-01 -8.37177783e-02 -2.81341057e-02
      8.11683163e-02 4.56015840e-02 -1.21569308e-02 6.93649948e-02
      1.16537139e-01 3.29374894e-02 -5.70407137e-03 0. 2.73727123e-02
      -1.92306414e-01 -3.65927480e-02 -9.71207470e-02 -5.06290868e-02
      6.79866225e-02 -1.53907621e-02 2.53139883e-02 -1.45075604e-01
      -3.79074761e-03 -2.10686829e-02 6.39149174e-02 -5.41680551e-04
      2.53961068e-02 9.75026712e-02 8.13460946e-02 -2.37402320e-02
      -3.26828882e-02 -2.50169992e-01 -2.40920112e-01 2.93356478e-02
      -9.39348489e-02 -1.85288504e-01 6.71633184e-02 5.62613271e-02
      3.75979468e-02 -9.92542058e-02 -4.82863002e-02 -3.57122421e-02
      -2.82958578e-02 3.82221350e-03 0. 2.39142515e-02 -1.79674745e-01
      -5.05473837e-02 2.67375801e-02 -2.01704390e-02 4.26999442e-02
      2.60682348e-02 3.45506482e-02 -3.95082869e-02 1.42717212e-01
      2.38083377e-02 -4.51830290e-02 6.35664314e-02 1.66309923e-01
      7.60061368e-02 6.02472946e-02 8.62546712e-02 7.92996399e-03
      -6.61083311e-02 -3.16413231e-02 -1.18261844e-01 1.12798460e-01
      -8.64927564e-03 -4.44090217e-02 1.15722016e-01 1.51829287e-01
      -3.57734859e-02 -1.01448059e-01 1.00875743e-01 8.61543864e-02
      1.24533512e-01 0. 1.51783109e-01 4.98787127e-02 -5.52959740e-02
      -7.25482032e-02 7.65087977e-02 9.53026712e-02 8.86119679e-02
      7.00367093e-02 -4.31006141e-02 2.78363805e-02 4.76696622e-03
      2.72130910e-02 4.59153391e-02 2.65598986e-02 -4.31740992e-02
      -1.39630824e-01 7.03658015e-02 1.43708140e-01 1.14645706e-02
      6.21920638e-02 -1.92333292e-02 2.34165508e-02 1.09742666e-02
      -1.13878384e-01 -7.55817257e-03 1.21388271e-01 1.41750574e-01
      8.66966322e-03 2.46450886e-01 -7.75967091e-02 6.98375925e-02 0.
      9.17892382e-02 -4.22692075e-02 -8.02999586e-02 -1.61157444e-01
      3.51600931e-03 5.53738438e-02 1.11060438e-03 -1.78288221e-02
      -7.15804752e-03 -1.07258804e-01 -2.60542277e-02 4.30391282e-02
      -8.19811970e-02 6.19893335e-02 1.67309329e-01 6.60852864e-02
      4.83938083e-02 8.19705240e-03 -8.12372342e-02 -3.24227735e-02
      -3.38901356e-02 -1.86642498e-01 4.42615850e-03 2.43283566e-02
      4.96826023e-02 1.86403655e-02 -4.59221452e-02 -5.91486059e-02
      4.98628942e-03 -2.15744879e-02 8.64828303e-02 0. 8.46962705e-02
      6.79158792e-03 5.21944873e-02 -1.11596659e-02 -5.39953746e-02
      1.03504032e-01 1.54834725e-02 -4.17097770e-02 4.30789217e-02
      2.69399080e-02 -6.34972192e-03 1.10337585e-02 -3.02365609e-03
      3.93129960e-02 -1.46319503e-02 2.70558093e-02 5.51275946e-02
      -3.19267958e-02 9.37232398e-04 5.72817363e-02 1.22672217e-02
      -4.88011092e-02 -6.07938170e-02 -1.06773362e-01 4.18549702e-02
      3.61616872e-02 7.13619143e-02 6.59864619e-02 1.35766849e-01
      -5.61367609e-02 -3.05486959e-03 0. 1.67394623e-01 -7.66161606e-02
      5.26439771e-03 1.09300159e-01 -2.61197854e-02 -7.02314079e-02
      -1.13595493e-01 -2.50617554e-03 -2.06702594e-02 5.72975054e-02
      -1.60918847e-01 -4.43572588e-02 6.20606169e-02 5.74032776e-02
      -4.17123698e-02 1.32519647e-01 5.06970361e-02 4.84079868e-02
      -1.29201382e-01 -1.25996113e-01 1.26053439e-02 1.61364242e-01
      1.38846459e-02 -1.56322032e-01 3.66983116e-02 7.31613040e-02
      1.95991732e-02 1.12117594e-02 4.65816073e-02 -5.28587252e-02
      5.80526777e-02 0. 1.26430601e-01 -1.73242837e-01 -1.13597222e-01
      3.47306766e-02 5.93974553e-02 1.61228150e-01 -7.38234520e-02
      -1.93788297e-02 -2.00794131e-01 -1.89616848e-02 -8.03266391e-02
      -9.00552887e-03 6.35296777e-02 7.94838816e-02 6.33313553e-03
      1.10767469e-01 1.28815308e-01 1.80360116e-02 -9.39457789e-02
      -1.57677323e-01 -3.86239104e-02 8.70409459e-02 8.34122226e-02
      5.24551533e-02 2.76499186e-02 8.99861977e-02 -1.00863077e-01
      -2.29953583e-02 1.69645064e-02 1.94094218e-02 3.35832462e-02 0.
      1.77553925e-03 -2.21603781e-01 -3.07757221e-02 -5.96168190e-02
      9.89324525e-02 -2.84779593e-02 1.40070245e-01 -1.43181875e-01
      -7.03081414e-02 2.34608367e-01 -1.00856731e-02 1.40239328e-01
      1.03651054e-01 4.19145338e-02 6.06163517e-02 7.52511248e-02
      -3.96911725e-02 -6.96486831e-02 -1.48562923e-01 -1.88642487e-01
      6.74238279e-02 3.93272080e-02 2.38790940e-02 -2.06435267e-02
      1.26243562e-01 -1.17358819e-01 -6.74374849e-02 1.26489857e-02
      6.60685003e-02 -2.14926880e-02 4.82128374e-02 0. 5.40027060e-02
      -1.03248842e-01 3.41464207e-02 -1.71289012e-01 -3.31130140e-02
      4.32797223e-02 6.83409870e-02 5.22007272e-02 -1.03600107e-01
      1.11465760e-01 -1.62789435e-03 9.99819115e-02 1.99776188e-01
      7.51978084e-02 -1.01060890e-01 7.03138709e-02 -7.99415261e-02
      -1.42383590e-01 -1.35170922e-01 -9.97400582e-02 1.57991752e-01
      3.21412720e-02 -4.73913513e-02 -3.35337338e-03 1.51158765e-01
      2.28371006e-02 -1.66515589e-01 -3.94120906e-03 2.97469180e-03
      3.02953902e-03 3.20858248e-02 0. 1.02127209e-01 -2.72764768e-02
      3.48274633e-02 3.01942043e-02 8.76760781e-02 -5.62434234e-02
      -9.13332701e-02 -4.61283214e-02 -9.08745825e-02 1.17741898e-01
      1.71211101e-02 -1.02023864e-02 3.43933962e-02 5.73823117e-02
      2.05109064e-02 3.30837145e-02 -5.81908552e-03 1.03767868e-02
      1.23761520e-02 2.43991874e-02 -2.05840524e-02 5.30240797e-02
      -1.75848585e-02 -9.89021957e-02 -8.91059339e-02 -6.18908145e-02
      -9.93594527e-03 -1.59103479e-02 -6.58835471e-02 8.55769143e-02
      9.87736061e-02 0. 2.91217715e-02 -3.10086627e-02 -4.18044394e-03
      -3.26749235e-02 8.21027458e-02 -3.76140773e-02 -1.45138815e-01
      -7.68901706e-02 -7.69392923e-02 9.72385854e-02 7.49536557e-03
      1.76381901e-01 4.12159301e-02 1.24731779e-01 1.13190096e-02
      -1.14345953e-01 1.41504854e-02 4.58769687e-02 -4.28423882e-02
      -1.06027164e-01 8.03562775e-02 2.20283456e-02 -3.60315219e-02
      -8.34870860e-02 -1.41899392e-01 -2.52859760e-02 -5.18753640e-02
      6.19037487e-02 5.35063297e-02 -2.01654825e-02 -4.29935493e-02 0.
      6.45372942e-02 -4.07640599e-02 1.07006453e-01 -5.28719984e-02
      8.18512589e-02 2.02576444e-02 -2.44357307e-02 4.42156903e-02
      7.04118283e-03 7.41543248e-02 2.42325980e-02 5.54525778e-02
      2.58767474e-02 -1.06118973e-02 5.92983253e-02 -4.60476801e-02
      5.77403046e-02 -8.52395967e-02 -1.00442544e-02 -4.35631610e-02
      1.35534555e-01 -6.40490800e-02 -3.98193374e-02 -1.37932852e-01
      -1.10309251e-01 3.76037844e-02 -7.15592317e-03 -2.68333852e-02
      6.08631857e-02 4.63812537e-02 9.00912136e-02 0. 2.15187177e-01
      2.81750355e-02 2.93401051e-02 8.94315913e-02 -8.50220211e-03
      -5.39189242e-02 -2.54819952e-02 3.92577238e-02 -4.54033948e-02
      1.11352667e-01 -1.30840866e-02 9.66141522e-02 -2.03577764e-02
      5.45325615e-02 9.17908326e-02 -6.78279176e-02 -5.78809762e-04
      -5.17770052e-02 6.94929361e-02 4.20508869e-02 1.57278568e-01
      -1.60987210e-02 -5.81080280e-03 -3.38426232e-02 -9.89730582e-02
      3.25070098e-02 -8.41544848e-03 7.17052296e-02 1.50568634e-01
      -2.95184124e-02 2.82131787e-02 0. 9.18498933e-02 -6.78054541e-02
      -1.54317230e-01 1.14402048e-01 2.00397074e-02 -2.56893858e-02
      -8.85416493e-02 3.81678678e-02 -5.02861701e-02 -8.59924592e-03
      -1.65988818e-01 -1.19019412e-01 1.76753057e-03 4.87643816e-02
      -1.86086092e-02 1.91289172e-01 9.15110558e-02 -2.77069546e-02
      -2.35652462e-01 -6.11570999e-02 -1.28560916e-01 1.44418344e-01
      5.06406128e-02 -7.53578469e-02 9.47731957e-02 1.42756701e-01
      2.02613752e-02 1.72419623e-02 4.07320745e-02 -1.18372813e-01
      -3.03954614e-04 0. -1.01858854e-01 -2.48519659e-01 -1.56398594e-01
      -4.64140736e-02 5.82881868e-02 5.29507324e-02 -3.57468948e-02
      -5.00178710e-02 -1.26884878e-01 1.61454469e-01 6.40558004e-02
      -6.96924254e-02 1.03018790e-01 7.91151449e-02 9.83856097e-02
      1.37846693e-01 1.44772947e-01 -1.25446439e-01 -1.48384526e-01
      -9.53315422e-02 -1.97154641e-01 7.58549795e-02 8.14782307e-02
      1.22828975e-01 1.23341650e-01 9.03199539e-02 -1.69083536e-01
      -2.60417070e-02 -4.07625362e-02 -2.50072242e-03 4.05064970e-02 0.
      4.24799919e-02 -1.24010690e-01 -9.68979846e-04 -4.32171337e-02
      7.49351978e-02 6.40411302e-02 6.18358552e-02 -1.16078772e-01
      -2.54318386e-01 -8.72724205e-02 -6.61797076e-02 1.57824010e-01
      1.55225754e-01 2.25652695e-01 6.31606504e-02 6.00760616e-02
      -2.61821803e-02 5.04092174e-03 -1.51452944e-01 -1.05275817e-01
      7.76594132e-02 1.19066015e-01 1.98871315e-01 1.19453423e-01
      1.41131267e-01 -1.54936641e-01 -1.36906400e-01 -1.04139568e-02
      7.00436309e-02 3.21376547e-02 -1.23778044e-03 0. 7.93179423e-02
      -3.84370051e-02 1.90023836e-02 -5.94959781e-02 4.13166732e-02
      2.82518733e-02 1.84033960e-01 -5.09843081e-02 -1.26871645e-01
      6.11846298e-02 -3.50191593e-02 8.81320983e-02 1.47653461e-01
      2.00698171e-02 -1.04582228e-01 6.51450604e-02 -6.70900568e-02
      -1.25869811e-01 -1.36802554e-01 4.92899343e-02 1.43541917e-01
      8.40464309e-02 2.09947601e-02 -8.68686512e-02 2.34983593e-01
      -3.85772064e-02 -3.22468914e-02 -4.78721596e-02 5.86336702e-02
      -9.29631665e-03 5.78169823e-02 0. 1.14517622e-01 1.98604446e-02
      2.56062783e-02 -9.48605388e-02 -4.23311405e-02 -2.76714638e-02
      8.62389654e-02 2.66042515e-03 3.84412222e-02 2.10247681e-01
      -2.08788533e-02 -7.28114247e-02 -1.19642742e-01 1.55738285e-02
      -1.08571239e-01 8.32633767e-03 6.15515187e-02 -1.30073383e-01
      4.86641824e-02 4.61705923e-02 -8.82152542e-02 -1.98334634e-01
      -7.44483173e-02 -8.23468417e-02 7.64520615e-02 1.04857869e-01
      -5.47579713e-02 -6.46389574e-02 -2.81162318e-02 8.48933589e-03
      6.83248043e-02 0. 7.16871470e-02 -1.10761911e-01 -3.73518318e-02
      8.59920401e-03 7.23655373e-02 6.05633818e-02 -5.48997410e-02
      -6.65295683e-03 -8.85565728e-02 1.96122438e-01 -8.53668153e-03
      1.55125633e-01 3.43288928e-02 1.26675963e-01 3.94179597e-02
      3.33595239e-02 5.75220995e-02 5.49544068e-03 7.81559274e-02
      -7.76080266e-02 8.23765248e-02 6.12681657e-02 -6.76050559e-02
      -1.78707354e-02 -1.81184132e-02 5.46865575e-02 -5.73908947e-02
      1.06597729e-01 1.33511305e-01 -1.79452803e-02 3.92291769e-02 0.
      -3.21204737e-02 8.28523412e-02 4.55874251e-03 -1.35014346e-02
      3.24043259e-02 2.56703813e-02 -6.69508874e-02 9.12097394e-02
      4.79109064e-02 9.26706269e-02 -3.88875511e-03 1.65817756e-02
      -4.03946154e-02 8.73791128e-02 1.19806968e-01 1.48155570e-01
      3.38041000e-02 -4.37661726e-03 9.23898146e-02 8.31991732e-02
      7.50237331e-02 -6.93588108e-02 3.29741016e-02 8.79907701e-03
      4.65196036e-02 8.30811635e-02 2.19938741e-03 6.14250414e-02
      1.93499271e-02 1.01914853e-01 1.10413425e-01 0. 3.66121642e-02
      -5.75432591e-02 -1.84861105e-02 6.46451637e-02 -1.04319587e-01
      -9.11965370e-02 -1.07391790e-01 3.46098724e-03 7.99033325e-03
      4.18239869e-02 -5.88417193e-03 1.51800206e-02 -2.90036201e-02
      -3.38390507e-02 6.57593133e-03 1.79995914e-04 8.30553845e-02
      -5.64623326e-02 6.10796437e-02 3.81548181e-02 7.59029686e-02
      -3.53325047e-02 -1.71436474e-01 -1.06103793e-01 -5.63940667e-02
      8.03768784e-02 -6.50899857e-02 1.44251287e-02 3.20856199e-02
      -8.42768103e-02 -7.75395781e-02 0. 1.72331363e-01 -2.42338032e-02
      -5.12885675e-02 5.11350110e-02 -5.43221645e-02 2.32949946e-02
      3.52834947e-02 -1.16210598e-02 1.04173943e-02 -2.38464419e-02
      -1.53374076e-01 3.73584069e-02 5.83924428e-02 6.91477582e-02
      1.12250395e-01 1.28027126e-01 5.92409000e-02 1.67106353e-02
      -1.46076903e-01 -4.39038761e-02 7.82166515e-03 9.60317701e-02
      -1.03689179e-01 -1.86340772e-02 1.34580284e-01 5.51209897e-02
      2.64553055e-02 9.16962251e-02 1.18866876e-01 2.73174234e-03
      1.14680070e-03 0. 2.45197676e-03 -1.53044626e-01 -8.22315514e-02
      4.44208942e-02 9.82364938e-02 4.06397544e-02 5.80855422e-02
      -1.28518865e-02 -5.39474450e-02 6.28629029e-02 -5.31539805e-02
      -1.70426220e-02 5.02312034e-02 1.23228980e-02 3.88137400e-02
      1.90133154e-02 6.06831573e-02 -5.28479740e-02 -1.12541266e-01
      -9.86037180e-02 -4.52771448e-02 1.29778519e-01 3.74878608e-02
      5.92719484e-03 9.52884704e-02 4.36238833e-02 -4.86398628e-03
      4.23401929e-02 1.48833133e-02 -4.92076054e-02 2.15134174e-02 0.
      -1.06728612e-03 -4.38532233e-02 7.42428657e-03 7.25755841e-02
      3.20731476e-02 7.06540570e-02 8.17195401e-02 -1.04970433e-01
      -2.93779969e-01 -1.63493790e-02 -1.14949703e-01 1.20418526e-01
      7.06547871e-02 1.10417537e-01 2.86578387e-02 9.63718817e-03
      1.03804901e-01 1.61331426e-02 -2.06067301e-02 -5.00920303e-02
      1.37992889e-01 1.47979125e-01 6.79047629e-02 3.47163789e-02
      1.27349272e-01 3.00751012e-02 -9.78286937e-02 -2.99260523e-02
      1.28581123e-02 6.13466427e-02 2.60544382e-02 0. 3.71392854e-02
      -6.96597919e-02 -3.67808416e-02 -3.80909517e-02 2.11476982e-02
      -1.97441485e-02 3.61516252e-02 -2.15311795e-02 -6.44560605e-02
      1.54212594e-01 -8.36199895e-02 1.04950890e-01 7.38283768e-02
      1.28209203e-01 1.63077544e-02 4.55776490e-02 2.90234201e-02
      -3.59031983e-04 -6.84249103e-02 -8.81171525e-02 1.04924984e-01
      1.61239728e-02 8.53506569e-03 -1.00737423e-01 7.32520372e-02
      1.96252633e-02 -3.01894043e-02 -6.42503500e-02 6.58631325e-02
      4.18310016e-02 1.03777520e-01 0. 6.15829229e-02 7.21351579e-02
      -8.30782205e-03 -1.25653623e-02 -7.74478242e-02 -1.43825084e-01
      5.07904962e-02 -2.49982718e-02 8.87797028e-03 1.68367490e-01
      2.14938577e-02 1.14252590e-01 -2.65527256e-02 6.13138676e-02
      5.58445603e-02 -1.72930610e-04 4.08494882e-02 -1.26541629e-01
      6.54291734e-02 1.01445757e-01 5.39663807e-02 -2.09124200e-02
      -3.68280485e-02 -7.42289349e-02 4.31703404e-02 6.54442608e-02
      -1.00327328e-01 -9.34074372e-02 4.80431989e-02 2.55995933e-02
      1.30589247e-01 0. 9.99517888e-02 -7.07597435e-02 5.02707325e-02
      -3.61905694e-02 8.17350820e-02 -5.43873459e-02 7.55961761e-02
      3.37926708e-02 1.87500268e-02 7.57209510e-02 -1.65825477e-03
      8.52174014e-02 2.38289479e-02 9.30849910e-02 1.18617512e-01
      -1.14078037e-01 6.30747527e-02 1.35976328e-02 9.61613804e-02
      -1.14095815e-01 7.78778717e-02 -1.46157332e-02 1.35930944e-02
      2.83697005e-02 -7.92350695e-02 6.60242438e-02 2.44147647e-02
      2.41284593e-04 1.74736947e-01 -1.20101087e-02 9.92079228e-02 0.
      1.26176000e-01 2.83993483e-02 5.81711680e-02 -6.99177161e-02
      1.19308941e-01 8.43227934e-03 -9.31564812e-03 -5.61980307e-02
      3.89466458e-03 8.13288894e-03 -3.13189812e-02 2.19948310e-03
      6.45971624e-03 6.37623519e-02 1.92896172e-03 3.14286351e-02
      -4.31410559e-02 2.43587792e-02 4.05590385e-02 -1.23082874e-02
      -1.88236777e-02 -7.30633140e-02 3.01641263e-02 -1.29285287e-02
      9.20816585e-02 -2.86342893e-02 -3.20191383e-02 -7.14059398e-02
      6.93661049e-02 4.08829898e-02 8.97367597e-02 0. -1.86607271e-01
      -1.45767719e-01 1.13944206e-02 -5.90396719e-03 -3.07923406e-02
      -1.18954089e-02 -6.47761077e-02 -1.00413792e-01 -7.43534565e-02
      5.58387600e-02 1.66065712e-02 4.45635095e-02 6.95246086e-02
      1.93529073e-02 -7.73590133e-02 6.76442403e-03 2.42398102e-02
      1.33594498e-01 -1.50948077e-01 -1.92800444e-02 7.30167404e-02
      8.96872804e-02 -4.33863737e-02 -2.39214897e-02 2.36723553e-02
      -6.35620579e-02 -2.72751413e-02 4.45810053e-03 7.19901472e-02
      -1.92659184e-01 -3.27465683e-02 0. 1.51886985e-01 -9.09988433e-02
      3.65801677e-02 -6.76568970e-02 -6.32602125e-02 -6.51070252e-02
      -4.49068025e-02 -1.58540815e-01 -1.08361840e-01 -4.14230265e-02
      -1.36640370e-01 -3.10041923e-02 -1.97433364e-02 1.63435772e-01
      -6.23866916e-02 2.34560240e-02 5.53546511e-02 1.78737745e-01
      -9.56395045e-02 -1.02969721e-01 -5.58293704e-03 -8.05644393e-02
      5.64463716e-03 -1.01608858e-01 5.69313653e-02 -9.99167487e-02
      2.22956166e-02 2.27707960e-02 2.85257604e-02 -1.29742816e-01
      -5.38185388e-02 0. -5.86893074e-02 -1.39664635e-01 -8.26796070e-02
      -5.30956499e-02 -7.35056922e-02 4.48314510e-02 -4.82953787e-02
      5.56703657e-02 -9.45365131e-02 -5.27708046e-02 -3.50955911e-02
      -5.39433770e-02 -5.56095690e-02 2.56437119e-02 3.64148356e-02
      1.00173868e-01 3.49689252e-03 -6.48575872e-02 -2.63070524e-01
      -6.40092939e-02 -1.13225341e-01 -4.69632968e-02 -6.58462569e-03
      7.28282034e-02 7.95524865e-02 6.41033128e-02 -1.17403984e-01
      -2.12192256e-02 -8.24559294e-03 -1.10895552e-01 -1.17265664e-01 0.
      -1.81997344e-01 -7.05306903e-02 1.23334847e-01 -1.17077865e-02
      6.73987344e-02 -2.95423716e-03 4.38556224e-02 -9.88290235e-02
      -1.23630978e-01 -8.45893845e-02 -1.14025034e-01 2.55001225e-02
      8.04706812e-02 1.14260167e-01 4.60312814e-02 2.38549337e-02
      -6.08685054e-02 -1.11908121e-02 -3.13810974e-01 -1.35653719e-01
      8.59543011e-02 7.61864856e-02 2.18003124e-01 -2.45459825e-02
      4.16148566e-02 -1.00278303e-01 -6.71971515e-02 -8.49774331e-02
      -8.93167406e-02 2.96562649e-02 3.35678831e-02 0. -9.95278955e-02
      -1.50113404e-01 -4.48089950e-02 -5.40945008e-02 -1.44105598e-01
      -3.51343006e-02 9.01205000e-03 -7.98623189e-02 2.90670693e-02
      1.74841315e-01 1.40729934e-01 1.40081793e-01 1.97794265e-03
      1.03856094e-01 8.07991400e-02 -1.11462355e-01 -1.38242140e-01
      -9.21910182e-02 -1.08677685e-01 1.95684563e-02 7.05641285e-02
      -3.17623932e-03 -7.61748385e-03 -7.65414967e-04 -1.15934543e-01
      -1.49773389e-01 -5.69116212e-02 -1.22156605e-01 -5.40689230e-02
      2.99900845e-02 1.93453245e-02 0. 3.35582383e-02 -1.02890536e-01
      -6.69641569e-02 -7.23065883e-02 -7.91312382e-03 5.64680621e-03
      5.07583879e-02 -3.13863419e-02 -1.32533284e-02 -3.16234790e-02
      1.15631282e-01 6.01768047e-02 -3.86187322e-02 4.12348844e-02
      1.19746001e-02 3.61693278e-02 -6.51142001e-02 -1.53134177e-02
      -1.09831437e-01 8.36185273e-03 -9.18731967e-04 -1.12452693e-01
      2.70722304e-02 -8.56134295e-02 9.98288691e-02 -3.38721611e-02
      4.89087868e-03 -1.55254543e-01 -4.10398282e-02 3.46804857e-02
      1.19077802e-01 0. 6.97084218e-02 -3.94099504e-02 1.05656190e-02
      -2.97540129e-04 -4.39907014e-02 1.54884765e-02 -4.56303684e-03
      -5.22783324e-02 -1.37154050e-02 9.44227725e-02 7.73333609e-02
      6.53878320e-03 4.67715785e-04 4.91728708e-02 4.68318984e-02
      1.19733820e-02 5.47647104e-02 9.35942084e-02 7.56622776e-02
      -2.94229947e-03 7.37785026e-02 -2.35165562e-03 -5.10839969e-02
      -2.77090948e-02 1.05468665e-04 -3.57252620e-02 4.40731011e-02
      4.13431488e-02 8.80158767e-02 -3.58136147e-02 8.39872435e-02 0.
      8.02572668e-02 -9.89147276e-03 -4.22757454e-02 -4.01425660e-02
      1.58331364e-01 -1.76554471e-02 5.79673871e-02 -2.50529684e-02
      -6.48615882e-02 1.50200859e-01 6.11731373e-02 7.36120045e-02
      -1.59228500e-02 -7.37739820e-03 5.78557998e-02 8.34204350e-03
      5.33419065e-02 -2.65870206e-02 9.41200852e-02 4.08468582e-02
      -1.03024440e-02 -5.38302325e-02 -3.38400491e-02 -5.09346165e-02
      6.13376796e-02 -7.41938362e-03 -1.17960297e-01 -2.11059302e-02
      1.77264884e-02 1.18934736e-01 9.71944705e-02 0. 1.76765285e-02
      5.14153577e-03 -9.71275717e-02 1.91482604e-02 5.56644052e-02
      2.22988389e-02 3.60793644e-03 -1.58344582e-02 2.65460685e-02
      1.02243073e-01 7.61260837e-02 6.21406548e-02 -4.72986661e-02
      4.04517241e-02 -2.45485753e-02 -1.13172662e-02 -1.05210304e-01
      -2.62562707e-02 -2.40830928e-02 1.40267566e-01 6.37965230e-03
      4.61107008e-02 -9.24035832e-02 -1.76460494e-03 -1.83612350e-02
      -7.25319907e-02 -2.47846358e-02 3.16946097e-02 1.50069118e-01
      -9.82526466e-02 -3.47438268e-02 0. 1.94386408e-01 7.41753653e-02
      -2.83923130e-02 3.08670718e-02 -1.90906860e-02 -8.16750824e-02
      -6.26053810e-02 -1.14738680e-01 -6.49388507e-02 1.00368895e-02
      -9.24327876e-03 -3.92713659e-02 -1.99712589e-02 -6.78934008e-02
      -8.74354318e-02 -4.02337909e-02 -3.73865175e-03 1.03049353e-01
      4.88522165e-02 7.62701184e-02 -1.52249560e-02 4.79540676e-02
      -1.40398026e-01 -1.63215563e-01 -1.01296417e-01 -8.41558799e-02
      1.79445371e-02 -5.87513000e-02 1.09145939e-01 -1.13783516e-01
      -4.34836783e-02 0. 8.67459085e-03 4.87907678e-02 -1.19391251e-02
      -8.37140623e-03 -1.29696831e-01 -2.09223628e-01 -1.97133482e-01
      -4.80763763e-02 -9.38335806e-02 -1.14043951e-02 -6.30130991e-02
      -3.76286209e-02 -4.82379012e-02 -3.27416398e-02 -9.65326675e-04
      -5.45545109e-03 2.36792322e-02 8.23570192e-02 -8.58619511e-02
      -1.32393464e-02 -7.19722919e-03 1.53711252e-02 -1.99639603e-01
      -2.75541067e-01 -1.35637566e-01 -2.42674407e-02 -1.22523075e-02
      -1.74288020e-01 4.37208973e-02 -1.80567667e-01 -3.49761397e-02 0.
      6.39522001e-02 -1.40634954e-01 -1.32125735e-01 -1.67094767e-01
      -1.94275305e-01 -1.70570657e-01 -7.78931379e-02 1.58440564e-02
      -3.47044878e-02 9.35277715e-02 1.14014573e-01 -2.28416800e-04
      7.76990876e-02 1.38435028e-02 -1.66301783e-02 -5.78966290e-02
      -2.61339843e-02 -3.45798070e-03 -5.06609865e-02 -4.83550914e-02
      -8.58947039e-02 -1.21923625e-01 -2.12917864e-01 -2.62879521e-01
      -5.72947487e-02 3.45779993e-02 1.30292242e-02 -2.18150839e-01
      -4.26019542e-04 -1.64402246e-01 7.99796581e-02 0. 4.47325557e-02
      -9.01970640e-02 -9.48504433e-02 -4.05581668e-02 -1.60971671e-01
      -4.55594510e-02 4.46085259e-02 -8.85751694e-02 7.14008734e-02
      1.20622359e-01 6.69233054e-02 -2.53973044e-02 1.05973391e-03
      2.84290202e-02 1.70000017e-01 -4.44215648e-02 -4.29166406e-02
      3.08486968e-02 3.24696004e-02 -1.87069047e-02 -5.25476225e-02
      -5.39093725e-02 -1.30075112e-01 -8.85889754e-02 2.79756077e-02
      -6.32919520e-02 4.17276137e-02 -1.50582626e-01 -1.79532822e-02
      -4.17168140e-02 1.84409454e-01 0. 6.47606775e-02 -7.18379468e-02
      -6.92119598e-02 1.31920036e-02 -3.54687087e-02 1.33131623e-01
      1.39521673e-01 -5.01336940e-02 6.33094972e-03 -7.79647529e-02
      9.83748734e-02 9.41918697e-03 -2.32129227e-02 -3.71091664e-02
      7.85328224e-02 -7.80023932e-02 8.58907995e-04 2.69029546e-03
      1.99266244e-03 4.68215868e-02 -6.10465407e-02 -1.70032736e-02
      1.68701389e-03 -1.35934856e-02 4.37809229e-02 -3.80016975e-02
      3.72458845e-02 -1.22288272e-01 -1.19679915e-02 1.40280072e-02
      1.69193253e-01 0. 1.23018235e-01 -1.15456931e-01 -5.74084446e-02
      1.11398660e-01 -3.65698896e-02 5.95866330e-02 5.24014607e-02
      -9.93575603e-02 -1.47966272e-03 1.44677505e-01 7.00167939e-02
      4.37703617e-02 -3.71127799e-02 2.70459317e-02 2.08461806e-02
      4.89474460e-02 4.85979430e-02 1.09788187e-01 1.23107091e-01
      1.18192134e-03 -7.10436553e-02 6.92592096e-03 -6.50609806e-02
      -2.50601135e-02 3.29643115e-02 -8.40205848e-02 7.84965381e-02
      1.24108255e-01 1.26942083e-01 -7.57397488e-02 6.63809478e-02 0.
      3.34569067e-02 5.91506325e-02 3.46589200e-02 8.09863359e-02
      -4.55452837e-02 9.52696707e-03 9.10172388e-02 1.02654025e-02
      -1.22559548e-03 8.05686638e-02 4.40147705e-02 3.73066776e-02
      -1.07393183e-01 7.68013746e-02 -3.26273181e-02 -1.96022708e-02
      3.82816941e-02 8.64548460e-02 5.82912657e-03 6.89648762e-02
      3.73492092e-02 -3.41193266e-02 1.83233079e-02 -1.39152678e-02
      5.99469766e-02 1.90066639e-02 5.50391786e-02 -1.12497091e-01
      1.42842615e-02 1.48869246e-01 1.73775569e-01 0. -4.85679507e-02
      6.76927641e-02 5.16557023e-02 8.58285502e-02 2.41312291e-03
      -9.33792442e-02 -1.25471950e-02 4.80690114e-02 -3.58905867e-02
      3.33323590e-02 1.07966000e-02 -7.23058060e-02 -4.80916165e-02
      -8.77184346e-02 9.91040096e-02 8.53834022e-03 5.43772355e-02
      3.10201291e-02 -1.05741676e-02 7.92400166e-02 5.29081523e-02
      1.45900603e-02 -4.81253788e-02 -1.38428155e-02 -3.89150381e-02
      5.37234508e-02 -2.05742102e-02 -8.21699724e-02 1.31752625e-01
      -5.32750674e-02 4.81581278e-02 0. 1.37384413e-02 9.91344303e-02
      8.66787806e-02 4.09728922e-02 -2.23926697e-02 -1.25408053e-01
      -3.89221087e-02 -4.55923043e-02 7.88160227e-03 3.99018563e-02
      6.57194704e-02 -7.21897334e-02 -1.44506304e-03 6.04484938e-02
      2.09334418e-01 -6.21620566e-02 -2.81405710e-02 -4.45411839e-02
      3.89829166e-02 1.53183058e-01 2.23084213e-03 3.65053304e-02
      -7.64160305e-02 2.83868555e-02 -1.03775300e-01 -1.54404237e-03
      -4.46346700e-02 -1.04230903e-01 1.62367493e-01 -1.03782527e-01
      1.31919995e-01 0. 1.48468241e-01 3.97825940e-03 -2.76286583e-02
      -6.93202391e-02 -3.50252092e-02 -1.39327168e-01 -7.73619954e-03
      1.82874035e-02 3.04576699e-02 7.01028109e-02 8.54884014e-02
      -9.23896302e-03 2.06284784e-02 1.87328473e-01 1.52135387e-01
      8.25750362e-03 1.03088431e-02 8.88258442e-02 1.25419334e-01
      9.08406600e-02 5.61732752e-03 -1.87872164e-02 -2.73883436e-02
      -6.02666400e-02 -6.68722764e-02 3.71920802e-02 1.03962071e-01
      -7.15034902e-02 2.17529967e-01 -1.06007665e-01 2.12647319e-01 0.
      1.13265261e-01 7.65732974e-02 -4.52691764e-02 -6.33029714e-02
      -6.39309660e-02 -6.85149059e-02 2.25809813e-02 3.56961489e-02
      7.53591880e-02 1.15714066e-01 1.52770028e-01 5.67154447e-03
      -6.28924817e-02 2.04606906e-01 8.47493857e-02 3.41749489e-02
      -7.11376965e-02 -1.74764823e-02 8.75263587e-02 1.04190543e-01
      -5.96785964e-03 -1.84124738e-01 -1.37188490e-02 -6.35973662e-02
      1.04415379e-02 2.63378080e-02 6.87963217e-02 -7.15083778e-02
      1.72215283e-01 -7.64950216e-02 2.24987626e-01 0. 6.65084869e-02
      1.99518222e-02 -3.78815867e-02 1.24055631e-01 -1.00647822e-01
      -1.18779361e-01 4.28725891e-02 5.43757379e-02 1.42655373e-01
      -3.61881219e-03 -1.93621945e-02 -4.22564149e-02 -9.56765711e-02
      6.95675984e-02 7.31149241e-02 4.47298773e-02 -2.50614733e-02
      3.04976106e-02 7.50750005e-02 1.16168996e-02 1.41743040e-02
      -1.37727307e-02 -5.15818223e-03 -1.16296105e-01 3.51044498e-02
      5.10847121e-02 1.23999618e-01 -3.68207209e-02 5.45247346e-02
      -6.80350363e-02 1.56417415e-01 0. -7.49831721e-02 -4.91817035e-02
      2.04516426e-02 -1.56680215e-02 -7.09211230e-02 -6.61059394e-02
      1.37714772e-02 3.36373411e-03 9.20775756e-02 -7.29125217e-02
      9.06470884e-03 -3.07577532e-02 3.65852341e-02 1.43628418e-01
      -4.29904871e-02 -4.93956208e-02 4.09567058e-02 8.04238170e-02
      -7.81986192e-02 -9.53938346e-04 -3.53339091e-02 -4.08123806e-02
      5.49760461e-02 -7.92863294e-02 -8.41642618e-02 9.43730846e-02
      8.33581239e-02 -1.09563783e-01 -4.41076979e-03 -3.69492993e-02
      1.35559484e-01 0. -8.73832032e-03 -6.97960779e-02 1.40764089e-02
      9.19754207e-02 1.03384800e-01 -7.91866556e-02 4.46851514e-02
      -1.19441837e-01 -1.22885476e-03 9.83930938e-03 3.50988396e-02
      7.28032142e-02 7.36011341e-02 5.27559854e-02 6.85861483e-02
      4.02170159e-02 -1.51859177e-02 3.39778662e-02 -4.27735895e-02
      -2.55957525e-02 5.23785986e-02 1.01186015e-01 7.30665103e-02
      3.15379426e-02 -8.39071255e-03 -1.15143828e-01 -5.85434921e-02
      1.34052038e-01 1.88652799e-01 -1.49891436e-01 -9.03790724e-03 0.
      -8.14945996e-02 6.25321195e-02 -3.58366291e-03 -9.31102857e-02
      4.43936177e-02 7.20317066e-02 7.43093640e-02 1.20940628e-02
      6.97792023e-02 -3.05185262e-02 -5.17279506e-02 -3.49585968e-03
      -1.15283404e-03 6.70285821e-02 8.74311924e-02 3.69872246e-03
      8.63502771e-02 1.12010324e-02 -1.53073981e-01 2.05783397e-02
      -3.70805687e-03 -9.52143297e-02 6.34125993e-02 -1.24542024e-02
      -3.83839197e-02 2.51400191e-02 5.53208441e-02 -1.04419952e-02
      -1.47152722e-01 2.43123189e-01 6.80377111e-02 0. -8.28149095e-02
      6.65517896e-02 1.68216467e-01 -4.80237650e-03 5.19852974e-02
      -1.94920273e-03 5.89067638e-02 3.87135409e-02 -4.25136508e-03
      -1.19470127e-01 -7.81124309e-02 -3.63739431e-02 -2.64166724e-02
      -2.48179305e-02 6.28845617e-02 -2.58084442e-02 2.94361226e-02
      -1.07675400e-02 -1.54731795e-01 1.16202673e-02 7.74930343e-02
      -1.20880462e-01 1.66545585e-02 -4.24576849e-02 -7.03962892e-02
      -5.34066884e-03 -1.54485228e-02 6.64741024e-02 -8.11265409e-02
      8.69059637e-02 -4.34464887e-02 0. -8.29806477e-02 1.16097324e-01
      2.57077403e-02 -7.86152855e-03 7.34074637e-02 -1.97838023e-02
      1.14527702e-01 -3.24224904e-02 1.10818878e-01 -9.82677788e-02
      2.93322634e-02 1.87369697e-02 9.00241174e-03 4.40402627e-02
      9.18115228e-02 6.09860243e-03 -2.89831720e-02 2.21198034e-02
      -1.11359186e-01 9.46588293e-02 -4.43359241e-02 -8.64406601e-02
      -4.10554558e-03 -4.08401601e-02 9.87761375e-03 -7.93975741e-02
      8.23179856e-02 5.76615445e-02 -2.42583919e-02 1.38861731e-01
      1.22417724e-02 0. 2.25546807e-02 7.58018568e-02 1.36008980e-02
      5.56204375e-03 1.05165668e-01 -9.89234373e-02 6.25672862e-02
      -8.15557688e-02 -1.19718015e-02 -1.51870385e-01 1.87125523e-02
      4.46340516e-02 2.86495741e-02 3.69906463e-02 6.30260035e-02
      2.14552209e-02 -7.63201853e-03 7.81157389e-02 -8.80633444e-02
      7.44886473e-02 2.51879338e-02 -7.85998926e-02 -4.42025512e-02
      -7.21560121e-02 -3.16398814e-02 -1.18512273e-01 3.95623781e-02
      5.19830994e-02 -1.58491768e-02 6.78425804e-02 2.03325669e-03 0.
      -9.41998139e-02 -2.92632845e-03 -1.00700065e-01 1.88524649e-02
      9.65849981e-02 6.69414699e-02 8.74542743e-02 2.53130049e-02
      6.29356429e-02 -4.40655835e-03 2.53094956e-02 -1.36277042e-02
      3.08972201e-03 -6.16601761e-03 -6.08452149e-02 1.16617344e-01
      2.81457435e-02 5.43196574e-02 -1.52834624e-01 -2.90561970e-02
      -1.27703890e-01 -9.41748917e-02 2.38372665e-03 8.13338067e-03
      9.83194262e-02 1.21819628e-02 1.07901327e-01 1.25011459e-01
      -1.82079826e-03 5.51145934e-02 -3.56161669e-02 0. 8.72483198e-03
      1.33000925e-01 1.49174789e-02 1.10733181e-01 -2.43780725e-02
      5.03795408e-02 7.22311884e-02 -1.56358499e-02 1.17116727e-01
      -4.11486588e-02 -1.18510956e-02 -3.51897553e-02 6.61459193e-03
      5.45905456e-02 -8.59296415e-03 4.00027726e-03 -8.34986195e-03
      2.16267891e-02 4.32556421e-02 8.61358121e-02 -4.70818691e-02
      2.82983063e-03 -7.40364008e-03 3.54971662e-02 1.46629680e-02
      -3.78383063e-02 9.76337567e-02 1.66770518e-01 -1.05425604e-02
      9.64637995e-02 -4.11322154e-02 0. -5.01309559e-02 4.17134129e-02
      2.84031797e-02 -6.73463419e-02 6.11803383e-02 -6.41158372e-02
      -8.84341076e-02 3.17771509e-02 1.95831899e-02 -1.33664925e-02
      1.04670294e-01 -7.38775916e-03 -6.23159185e-02 1.48385748e-01
      -4.88898493e-02 -4.13071327e-02 6.47866577e-02 7.60632940e-03
      -3.59754600e-02 6.02547750e-02 -1.98843889e-03 -1.58860669e-01
      1.11111425e-01 -5.61979152e-02 -1.51917964e-01 1.05264395e-01
      -8.33426602e-03 9.00277123e-02 -1.12525620e-01 1.02691777e-01
      -4.96415459e-02 0. -2.82490980e-02 3.34061719e-02 -3.11152101e-03
      3.60133313e-02 -9.52041242e-03 -1.09867668e-02 1.65934451e-02
      -4.95920070e-02 1.21566720e-01 5.29962294e-02 4.02227901e-02
      1.05028093e-01 1.02455840e-01 2.03281075e-01 -2.38368823e-03
      6.39160722e-02 -2.58381572e-02 6.67356094e-03 -4.29105051e-02
      4.65418696e-02 6.78647608e-02 3.91457379e-02 1.43922001e-01
      -1.07945930e-02 1.49531793e-02 -1.04452208e-01 2.54123863e-02
      2.62316257e-01 1.09427400e-01 5.73301651e-02 -1.21498682e-01 0.</_></support_vectors>
  <decision_functions>
    <_>
      <sv_count>1</sv_count>
      <rho>-1.4328192030072839e+00</rho>
      <alpha>
        1.</alpha>
      <index>
        0</index></_></decision_functions></my_svm>
</opencv_storage>
