<?xml version="1.0"?>
<opencv_storage>
<my_svm type_id="opencv-ml-svm">
  <svm_type>C_SVC</svm_type>
  <kernel><type>LINEAR</type></kernel>
  <C>1.0000000000000001e-01</C>
  <term_criteria><epsilon>2.2204460492503131e-16</epsilon>
    <iterations>500000</iterations></term_criteria>
  <var_all>4096</var_all>
  <var_count>4096</var_count>
  <class_count>2</class_count>
  <class_labels type_id="opencv-matrix">
    <rows>1</rows>
    <cols>2</cols>
    <dt>i</dt>
    <data>
      -1 1</data></class_labels>
  <sv_total>1</sv_total>
  <support_vectors>
    <_>
      -1.81027904e-01 4.58948128e-02 7.68742710e-02 -4.84468639e-02
      6.08268678e-02 6.82323575e-02 -5.55032119e-03 5.53153753e-02
      6.17811866e-02 1.16561286e-01 8.30392092e-02 1.11831456e-01
      -1.02524376e-02 -2.10891999e-02 -2.22391281e-02 1.88600633e-03
      5.14850318e-02 1.27384305e-01 -6.73665702e-02 3.88406552e-02
      1.19770110e-01 -1.09899573e-01 -2.44299341e-02 -1.12288661e-01
      -5.29277101e-02 1.50113890e-03 1.23240851e-01 -1.48239896e-01
      4.52724919e-02 4.69209030e-02 3.25925976e-01 0. -8.36208910e-02
      -7.52307549e-02 2.64657252e-02 -4.94298413e-02 -2.76920889e-02
      1.58913787e-02 6.47297949e-02 -2.63978075e-02 2.29825787e-02
      -1.58310950e-01 1.01966202e-01 7.78186470e-02 5.63283116e-02
      -1.12540491e-01 -6.61808401e-02 -2.71052551e-02 1.53689208e-02
      6.99047595e-02 -1.31058604e-01 -4.16836515e-02 5.37122674e-02
      -2.35265791e-02 -1.57999545e-01 -1.35564730e-01 3.11027691e-02
      8.36430397e-03 2.37281118e-02 -5.42599261e-02 -1.80074275e-02
      -1.02107413e-01 9.18549895e-02 0. -5.49520329e-02 1.14640474e-01
      4.46615219e-02 -1.86771285e-02 1.38034761e-01 -1.75433770e-01
      1.12695890e-02 -1.44495638e-02 5.82925305e-02 -1.44176162e-03
      1.31781906e-01 4.67690453e-02 1.93071477e-02 3.57159734e-04
      -3.29454020e-02 4.98545961e-03 6.94660395e-02 1.15510084e-01
      -1.03240095e-01 1.57498568e-01 5.07049747e-02 4.53868322e-03
      2.96397526e-02 -1.16645902e-01 -1.58726759e-02 -1.21050384e-02
      5.43879420e-02 7.29825050e-02 8.36968329e-03 3.22359651e-02
      1.01924665e-01 0. -9.00992006e-02 1.64894670e-01 1.13730080e-01
      -1.17244599e-04 2.38391057e-01 3.53901051e-02 8.18011686e-02
      8.59617908e-03 3.40477005e-02 2.08174577e-03 4.29068170e-02
      1.33264780e-01 -5.05111888e-02 1.57895252e-01 -8.44499096e-02
      3.52189094e-02 8.19338635e-02 3.20490040e-02 -4.63409610e-02
      1.59486100e-01 1.13170177e-01 -4.37084846e-02 1.54014006e-01
      -7.15183616e-02 8.60791057e-02 7.80531690e-02 -1.61333680e-02
      9.17361826e-02 8.55577588e-02 1.13092259e-01 1.51326820e-01 0.
      5.20170107e-02 2.91402377e-02 4.84105051e-02 8.14054254e-03
      7.77974203e-02 1.67497590e-01 4.81780954e-02 -2.16736309e-02
      1.32295623e-01 -1.16418190e-01 -2.90890355e-02 1.30681291e-01
      -1.04080945e-01 2.83372365e-02 -1.06196282e-02 -4.38803528e-03
      1.44754052e-01 3.30636688e-02 -4.02032211e-02 -4.22582328e-02
      7.87476525e-02 -1.10882282e-01 -3.54502499e-02 4.23010029e-02
      3.13534476e-02 7.66304508e-02 5.39805219e-02 6.85224012e-02
      7.65812770e-02 5.70882447e-02 8.72683153e-02 0. -4.00138088e-02
      8.38998929e-02 -7.09414408e-02 -6.19988181e-02 -2.87200399e-02
      -7.82677457e-02 1.82542787e-03 -5.02495840e-02 9.33879092e-02
      3.26506384e-02 4.15251739e-02 3.18465419e-02 -1.45764565e-02
      1.10467434e-01 2.02212129e-02 3.45918909e-02 8.85275155e-02
      4.67341468e-02 -8.76143575e-02 2.69777179e-02 -5.33831045e-02
      -6.87003434e-02 3.73077504e-02 -1.05234072e-01 -1.37220963e-03
      9.91596840e-03 1.17410660e-01 5.99502996e-02 8.22224170e-02
      2.61883046e-02 -5.47961257e-02 0. 5.15337009e-03 1.43548464e-02
      -2.83168312e-02 5.15679829e-02 4.90283109e-02 -1.36217639e-01
      -1.58579424e-02 3.27775218e-02 -2.04043183e-02 -1.67987168e-01
      5.05906567e-02 5.23441508e-02 -3.95675451e-02 -2.09032521e-02
      -3.43943685e-02 6.16968758e-02 1.51929125e-01 9.38947648e-02
      -1.16449475e-01 4.74153366e-03 3.74847688e-02 -9.37769655e-03
      -2.60331836e-02 -2.46691853e-01 1.87947042e-02 7.10536763e-02
      2.73982175e-02 -4.50818837e-02 4.49878499e-02 2.46700011e-02
      2.24172566e-02 0. 1.03149362e-01 2.10623979e-03 8.83355960e-02
      1.21494822e-01 1.86246604e-01 -8.48267674e-02 2.41616052e-02
      9.14569795e-02 4.80180047e-02 -1.31949469e-01 1.30321279e-01
      1.02484897e-01 -2.00971905e-02 -3.41919325e-02 6.89429268e-02
      2.43398901e-02 8.45501423e-02 1.20134346e-01 -1.47702217e-01
      -6.61135931e-03 9.91454944e-02 4.39953022e-02 3.76897193e-02
      -1.05726682e-01 -1.06530348e-02 1.18304051e-01 5.10297194e-02
      1.31419539e-01 3.18947494e-01 -3.90976705e-02 2.46235393e-02 0.
      -1.34499803e-01 7.39791691e-02 -6.10486194e-02 1.29724480e-03
      5.37294373e-02 -8.63424316e-02 -3.17866355e-03 6.32275641e-02
      -2.94714253e-02 1.10672554e-02 -3.00192498e-02 4.48752418e-02
      5.97838759e-02 8.55373889e-02 -2.73914281e-02 5.38230389e-02
      3.32797617e-02 -5.14566004e-02 -3.48955877e-02 4.65839170e-02
      3.21960375e-02 8.96528270e-03 1.89474262e-02 -2.46230781e-01
      -4.16665862e-04 2.52417903e-02 -1.45719543e-01 -6.38537332e-02
      -1.41878650e-01 1.41233385e-01 9.14592221e-02 0. -9.92416367e-02
      -2.88129430e-02 -1.04564562e-01 -1.45196065e-03 6.67714095e-03
      5.14355600e-02 1.16586648e-01 5.32495864e-02 5.01617640e-02
      -1.18021995e-01 -7.42873922e-02 1.23174302e-03 -1.13819046e-02
      7.27815777e-02 -1.20555563e-02 -2.87853740e-02 -1.15492821e-01
      3.71337086e-02 -8.35807323e-02 -7.54645094e-02 -9.97937992e-02
      -4.29018587e-02 -1.03737421e-01 -1.05248719e-01 1.87971983e-02
      -3.17698754e-02 6.51334301e-02 2.96539515e-02 -6.87345043e-02
      -4.23679641e-03 -5.32434583e-02 0. -8.46798182e-04 9.41072106e-02
      -5.76904975e-02 4.24593650e-02 3.86982709e-02 -1.70479551e-01
      5.23930676e-02 7.32186362e-02 1.70219257e-01 -1.02982759e-01
      3.84080559e-02 -8.45377147e-02 -1.10524170e-01 6.81306422e-02
      4.71729487e-02 -6.32869601e-02 -3.28903683e-02 9.24211554e-03
      -3.85015830e-02 8.38464722e-02 -7.08065331e-02 -8.91982093e-02
      4.17818762e-02 -1.16638474e-01 1.43950470e-02 1.21380292e-01
      1.17298625e-01 1.41169235e-01 -9.99421179e-02 6.27067760e-02
      -9.88376886e-02 0. -1.60206351e-02 2.24533025e-02 8.17315876e-02
      -1.31736174e-01 -4.31236885e-02 -6.20436780e-02 8.74559134e-02
      1.82938889e-01 5.37710041e-02 -1.33105516e-01 7.44321058e-03
      -1.34264566e-02 -1.68846563e-01 -1.26733541e-01 5.90170436e-02
      7.57572949e-02 2.67113987e-02 6.55203536e-02 -8.54492858e-02
      7.27922246e-02 -3.42864022e-02 -2.94043094e-01 -2.38496602e-01
      -1.68857381e-01 9.16544423e-02 2.03152597e-01 7.69062713e-02
      1.55074626e-01 -1.25767097e-01 7.51281157e-02 -1.19631864e-01 0.
      -1.68819185e-02 8.61686934e-03 8.51306394e-02 -2.56525673e-04
      -6.80341348e-02 -1.23414218e-01 -1.85989305e-01 3.70391645e-02
      1.34439006e-01 -6.38277158e-02 1.09239988e-01 1.34455457e-01
      2.25495268e-02 -5.45994304e-02 -1.49451435e-01 -3.94463837e-02
      -1.32240634e-02 9.97862741e-02 1.08656650e-02 1.51893452e-01
      2.44074538e-01 -4.29033376e-02 -1.42220974e-01 -3.27915609e-01
      -1.72901511e-01 -7.21847732e-03 1.43055692e-01 1.13846384e-01
      -1.28977805e-01 1.33184776e-01 -1.57588795e-01 0. -4.89735641e-02
      1.46117896e-01 7.97119960e-02 9.82231945e-02 -2.34924126e-02
      3.00341519e-03 4.83451970e-02 -4.28800806e-02 1.28763214e-01
      -2.22457219e-02 -1.21218264e-02 4.03503403e-02 -3.63930576e-02
      5.96559420e-02 1.17905578e-02 -4.52517271e-02 -1.46017909e-01
      -1.00427642e-01 -6.17659055e-02 7.75884986e-02 1.70279235e-01
      3.45300734e-02 7.84715638e-02 -7.45888203e-02 -1.20847784e-02
      -6.99620768e-02 -1.60547495e-02 6.99000508e-02 -1.24638891e-02
      1.05894268e-01 -9.82028171e-02 0. -6.25068555e-03 3.90256532e-02
      2.46305973e-03 1.10301889e-01 -4.83505391e-02 -9.48495120e-02
      -1.33778565e-02 -1.16321474e-01 -7.24562034e-02 -1.69965476e-02
      7.86327757e-03 -8.14152732e-02 -7.86874592e-02 -3.11206491e-03
      3.13391201e-02 -4.25389521e-02 9.71761346e-02 -1.21854125e-02
      -2.99611017e-02 9.38663539e-03 -8.38999823e-02 -2.49735638e-02
      1.96989290e-02 -1.80839330e-01 -6.57001957e-02 -1.47051169e-02
      -1.12743609e-01 2.03936733e-02 -8.54607150e-02 1.94484517e-02
      -9.50343683e-02 0. 2.80840951e-03 -4.44198623e-02 9.31724459e-02
      -3.01335342e-02 -5.53525425e-02 -9.61805284e-02 -2.72496007e-02
      5.18539362e-02 -6.79196864e-02 -8.72320086e-02 -2.35970858e-02
      -5.21687381e-02 -1.14778690e-02 -3.68667953e-02 7.75410607e-02
      -3.37213054e-02 6.04491793e-02 -1.05401799e-02 -8.75808671e-02
      -8.84579942e-02 2.22902913e-02 -3.54185216e-02 -6.87059686e-02
      -1.88639626e-01 -5.04349656e-02 6.13933541e-02 -5.33168912e-02
      1.28170043e-01 2.45192717e-03 -4.50695455e-02 -2.22746193e-01 0.
      -1.01636112e-01 -1.90379526e-02 8.01865458e-02 1.58380289e-02
      4.26033698e-02 -3.05897910e-02 1.14092946e-01 6.41961396e-02
      -6.89855814e-02 -7.31320679e-03 6.64065853e-02 -3.34332772e-02
      -5.63512370e-02 4.02308628e-02 5.41718230e-02 -8.88092518e-02
      -5.31504005e-02 -9.51207355e-02 -3.46872434e-02 2.23080534e-02
      4.14407402e-02 -5.81353419e-02 -3.52274664e-02 -7.17671588e-02
      -8.07269365e-02 6.06654398e-03 -8.56951699e-02 -8.91496539e-02
      -1.35307819e-01 9.36163217e-02 9.46842209e-02 0. -1.36603694e-02
      4.24119569e-02 -3.91368866e-02 -5.38743585e-02 -1.23378988e-02
      2.10514516e-02 9.58184972e-02 3.75056788e-02 -5.50830886e-02
      -6.16477095e-02 -2.01805718e-02 2.41949335e-02 9.48189870e-02
      1.28823251e-01 -1.01972558e-02 -5.83583787e-02 -1.28931389e-03
      1.16738036e-01 -8.97955596e-02 2.60002874e-02 1.75977740e-02
      1.81867145e-02 -3.74770649e-02 -1.42507523e-01 -2.53455359e-02
      -5.39543107e-02 4.11431007e-02 4.73357551e-02 1.29286358e-02
      2.77273282e-02 2.30686795e-02 0. -9.08418223e-02 -7.38356337e-02
      4.37008068e-02 3.46728489e-02 1.86002329e-02 -1.07548228e-02
      5.91043644e-02 -2.68505029e-02 8.56539607e-03 -1.62235260e-01
      8.03311076e-03 -9.97258350e-03 2.88541410e-02 8.79140049e-02
      2.11284116e-01 2.62802392e-02 2.40431204e-02 -3.77152562e-02
      -1.04642712e-01 -7.10222572e-02 4.11012806e-02 1.16313845e-02
      1.48892209e-01 4.76067513e-02 1.05853952e-01 2.64794398e-02
      -2.64450777e-02 9.09578875e-02 6.42911950e-03 1.35760810e-02
      -4.55108285e-02 0. 9.46551040e-02 -2.67611980e-01 3.76857375e-03
      -1.82933971e-01 -9.45608839e-02 -7.96559379e-02 -1.09773062e-01
      -1.72110461e-02 -4.67995405e-02 -8.38534534e-02 -1.04024053e-01
      -9.90218148e-02 -4.97349128e-02 -1.29287511e-01 2.55414611e-03
      2.95053553e-02 3.18523347e-02 -4.78158817e-02 -1.21589087e-01
      -2.29722634e-01 -1.90043628e-01 -2.90411353e-01 -1.06390141e-01
      -1.34024933e-01 -7.33612105e-03 2.06825025e-02 -8.74789357e-02
      -1.08884826e-01 -1.54073820e-01 -9.15370658e-02 -1.87590003e-01 0.
      -2.07156509e-01 -9.30850208e-02 -4.74381726e-03 -6.54658452e-02
      8.43901858e-02 -7.24692941e-02 -2.13693231e-01 5.35871349e-02
      -1.43666551e-01 5.25550637e-03 -1.05768539e-01 -6.88212737e-02
      1.30137399e-01 -9.87805799e-03 -5.91015145e-02 -1.14865631e-01
      -2.08440065e-01 -1.09764963e-01 -2.74807096e-01 -1.40718564e-01
      -8.40278938e-02 5.02006933e-02 -5.57339415e-02 -1.31396115e-01
      -2.78685629e-01 -2.30614930e-01 -2.20745251e-01 -1.26532853e-01
      -1.75687417e-01 -1.42507181e-01 -1.22626022e-01 0. -2.92174220e-02
      -5.80135174e-03 -5.52755743e-02 -2.30673179e-02 2.13303212e-02
      -5.81899472e-02 2.36628093e-02 1.06970057e-01 4.45200428e-02
      -1.03868768e-01 -7.22537488e-02 4.90858965e-03 1.24627268e-02
      1.82402626e-01 1.22994408e-01 -7.26265425e-04 -1.04034506e-01
      -2.03940067e-02 -1.07962616e-01 -7.54287168e-02 -9.27550998e-03
      1.50674200e-02 8.24996978e-02 7.40832910e-02 2.50132140e-02
      2.03559026e-02 -1.09016290e-02 -2.73444895e-02 1.31314564e-02
      3.90974879e-02 -3.00081074e-03 0. -5.68348467e-02 8.78674090e-02
      3.82644013e-02 7.31897801e-02 3.19695584e-02 -1.06696375e-01
      -2.76325010e-02 -2.08720863e-02 1.12239487e-01 1.37418965e-02
      3.29052210e-02 2.89462823e-02 -1.13652863e-01 -1.79517753e-02
      -1.18114995e-02 7.38537684e-02 -5.38316695e-03 -2.93933898e-02
      -3.69583108e-02 4.27217409e-02 -4.29095747e-03 -9.12937298e-02
      -6.73378333e-02 -2.29672715e-01 2.56960038e-02 -1.12543870e-02
      1.80750769e-02 4.87070084e-02 1.59014594e-02 2.12775674e-02
      -3.74499969e-02 0. 7.40186647e-02 -1.76710282e-02 1.59814227e-02
      3.88244465e-02 4.79772650e-02 4.18794900e-02 -4.09229696e-02
      -1.55437961e-02 -4.24432382e-02 -1.12146407e-01 -4.11907397e-02
      6.36578947e-02 -4.50640991e-02 1.53319724e-02 7.13478820e-03
      -7.95412660e-02 3.17274481e-02 8.09692144e-02 -5.65367565e-02
      -1.73832178e-02 4.88226488e-02 -5.99401854e-02 6.73235804e-02
      -9.17984694e-02 -7.09540918e-02 1.18466821e-02 1.29784821e-02
      1.29555702e-01 9.47775543e-02 -6.60011768e-02 -1.47499725e-01 0.
      -3.09459809e-02 -2.19928753e-03 1.54522741e-02 6.12646751e-02
      3.62136662e-02 1.60618909e-02 -2.87209600e-02 -4.22428511e-02
      -3.58129889e-02 1.14235599e-02 2.20681522e-02 6.58251047e-02
      8.58363286e-02 5.30770011e-02 6.98703080e-02 -7.40296766e-02
      1.15050957e-01 -3.77507545e-02 -7.66532049e-02 1.05128866e-02
      3.02867349e-02 9.99612510e-02 -3.77197750e-02 -6.06860733e-03
      -1.61770612e-01 -9.44778789e-03 -4.40796129e-02 1.16294632e-02
      -1.09531835e-01 1.41837701e-01 9.76927429e-02 0. 3.22278147e-03
      5.77246919e-02 -6.33382797e-02 2.18183007e-02 3.08480356e-02
      -1.29477501e-01 6.01460552e-03 7.93388784e-02 2.59125307e-02
      1.12174824e-01 1.29334116e-02 -2.83967778e-02 -2.39914861e-02
      9.77582019e-03 5.98449521e-02 7.99040273e-02 -7.48417601e-02
      -2.04034671e-02 1.11914791e-01 7.64717609e-02 1.84016731e-02
      8.24525207e-02 -8.64077434e-02 -1.65992931e-01 3.98539193e-02
      -2.80128270e-02 -7.23487558e-03 1.13642573e-01 -2.66087968e-02
      4.56487574e-02 -5.76999411e-02 0. 1.05911747e-01 8.90575796e-02
      -1.01569220e-01 -4.45178412e-02 -1.03478432e-01 -1.15634076e-01
      3.65870334e-02 -1.14794083e-01 3.56927030e-02 1.02818117e-01
      1.45749614e-01 -1.56365991e-01 -2.40648352e-02 2.95396019e-02
      5.81735605e-03 1.54901430e-01 -4.77388356e-04 3.80026549e-02
      1.02371246e-01 9.51633677e-02 -2.23454148e-01 -5.03355563e-02
      -8.50341693e-02 -1.43380746e-01 1.33934423e-01 -6.83115497e-02
      6.88298270e-02 6.11247495e-03 -1.83889214e-02 1.00620843e-01
      -4.91352193e-02 0. 1.10596485e-01 3.68665196e-02 -6.32668585e-02
      -1.60341606e-01 -7.97947943e-02 -3.24381776e-02 -1.20780719e-02
      -7.82194734e-02 -1.75386846e-01 8.96349177e-02 -9.82841328e-02
      -2.90142685e-01 -9.69356075e-02 1.10757396e-01 5.95769621e-02
      -9.27687213e-02 -3.97089273e-02 7.13932812e-02 9.58010703e-02
      -2.10733041e-02 -3.08756948e-01 -2.34647259e-01 1.03895625e-04
      -6.99894726e-02 -1.25853017e-01 -1.27135187e-01 -4.44217846e-02
      -2.11043730e-01 -7.15779364e-02 -2.21537594e-02 -4.43152301e-02 0.
      6.72799498e-02 -5.45204207e-02 -9.22985822e-02 -3.11834700e-02
      -4.05621119e-02 -1.36145294e-01 -1.98202133e-01 -8.66545364e-02
      6.01326562e-02 1.25532880e-01 -6.73456863e-02 -1.81750342e-01
      -1.30488276e-01 2.15288058e-01 9.49364156e-02 8.23097024e-03
      -1.56483576e-01 -1.02964677e-01 6.29589409e-02 -1.31106064e-01
      -2.72602618e-01 -1.87941328e-01 1.07927723e-02 -1.31982878e-01
      -1.70013949e-01 -2.85306692e-01 -4.42943610e-02 -6.34659007e-02
      -3.29089016e-02 -2.04117715e-01 -3.28806713e-02 0. 8.99155810e-02
      -4.19354029e-02 -9.54643115e-02 -7.89801590e-03 1.77873839e-02
      -6.91647083e-02 -2.35926919e-02 -6.01208732e-02 7.65233906e-03
      3.84669937e-02 -2.00415161e-02 -2.77874582e-02 1.36552691e-01
      2.59844288e-02 -1.35132838e-02 -3.13846059e-02 -8.71488005e-02
      8.16445574e-02 2.34451406e-02 -3.49656940e-02 -8.47360268e-02
      1.08326077e-01 4.02141437e-02 -1.65223181e-01 -2.70881746e-02
      -1.83060065e-01 2.36440916e-02 8.23927298e-03 -3.19612958e-02
      -2.88266726e-02 1.48141887e-02 0. 9.50752646e-02 -3.84296030e-02
      5.03197536e-02 -1.08990259e-01 -7.43681043e-02 2.14828402e-02
      8.01304504e-02 -9.31321364e-03 8.25418252e-03 7.04997331e-02
      -9.19663254e-03 -6.25432655e-02 7.07383230e-02 1.15785763e-01
      -3.36375013e-02 1.01791672e-01 3.71082849e-03 2.81592850e-02
      3.35351638e-02 -4.35116552e-02 -3.23687517e-03 -6.11165911e-02
      -1.08124144e-01 -1.42680421e-01 1.39962792e-01 2.69302800e-02
      3.00233997e-03 5.67382947e-02 6.32086843e-02 4.87409197e-02
      -2.28039585e-02 0. 8.82400274e-02 -9.78652462e-02 -3.77673097e-02
      -9.80197819e-06 -1.94794804e-04 -8.74020308e-02 -5.58162853e-02
      -8.24110955e-02 -9.24772490e-03 -1.21347122e-02 -3.69953178e-02
      4.71094213e-02 -1.16348185e-01 3.55364941e-02 7.40554556e-02
      1.11291826e-01 1.23952985e-01 6.77616447e-02 1.57058723e-02
      -3.09005175e-02 -3.31895910e-02 -1.60103410e-01 -4.63427342e-02
      -1.70746893e-01 1.43478876e-02 3.01354006e-02 6.46845847e-02
      8.56322423e-02 1.17985755e-01 -6.05166554e-02 -1.37559831e-01 0.
      -6.62488714e-02 8.53823274e-02 3.86546366e-02 4.93077412e-02
      1.13523148e-01 3.32558043e-02 -1.16682395e-01 -2.39041299e-02
      3.89425196e-02 5.97565845e-02 -1.08980604e-01 -4.39754361e-03
      -5.46967350e-02 5.23063578e-02 -1.52096441e-02 7.11506680e-02
      5.16354777e-02 1.82692520e-02 -2.24665068e-02 1.95220653e-02
      2.62807123e-02 -3.34606767e-02 1.00816965e-01 -1.93683971e-02
      2.19220016e-02 4.96847630e-02 -4.66624508e-03 -6.87780380e-02
      1.67039372e-02 2.99291424e-02 1.26826212e-01 0. 2.22008433e-02
      2.11455896e-02 5.33005260e-02 1.22515626e-01 -2.94990577e-02
      -1.27817363e-01 -6.05176017e-02 -3.02065304e-03 5.85666895e-02
      -2.69909906e-05 -2.18812618e-02 -1.01412475e-01 -1.02646155e-02
      1.69683859e-01 1.12754405e-01 9.48549435e-03 -4.84359562e-02
      -7.24239275e-02 1.74076855e-03 5.62023930e-02 -6.23745285e-02
      1.15128450e-01 1.24981746e-01 -3.10769398e-03 4.04322296e-02
      -6.01119176e-02 -3.87498736e-02 9.67357904e-02 1.06431171e-01
      -1.61038831e-01 2.34993920e-03 0. -4.74849530e-02 -1.49038449e-01
      -1.40879139e-01 7.25808069e-02 5.93004599e-02 -3.27379741e-02
      1.94528848e-02 -1.31148519e-02 1.21620484e-01 4.16013785e-02
      -1.29564837e-01 -2.07337409e-01 -9.32461694e-02 8.18871260e-02
      2.75706556e-02 4.73064370e-02 6.67821541e-02 -3.34927104e-02
      -1.23774543e-01 -2.00643241e-01 -3.50252956e-01 -1.24908390e-03
      1.21753350e-01 5.67679368e-02 6.86053932e-02 1.04901329e-01
      1.37597039e-01 -9.21040699e-02 -3.50759253e-02 -4.47112285e-02
      2.63256580e-02 0. 1.58139527e-01 -1.40594458e-02 -2.59839594e-01
      8.37272126e-03 1.03088312e-01 1.08953096e-01 4.51226197e-02
      1.72212888e-02 2.31735244e-01 3.16517055e-01 -2.92530525e-02
      -1.04424194e-01 -1.03613324e-01 5.06740808e-02 1.13727540e-01
      -6.27055112e-03 2.70667821e-02 1.63575076e-02 2.32511565e-01
      4.56976891e-02 -2.81130254e-01 -8.16632584e-02 3.91097367e-02
      9.80384946e-02 5.76493554e-02 4.47864123e-02 1.72432557e-01
      -6.43384457e-02 8.63506645e-02 1.38026625e-01 1.60284802e-01 0.
      3.35034490e-01 2.14335814e-01 -5.82374372e-02 6.43790439e-02
      8.23005661e-02 6.86605796e-02 5.75255090e-03 -1.44088402e-01
      2.38184016e-02 1.83152422e-01 7.70771760e-04 2.54925340e-02
      -3.94580178e-02 9.05025154e-02 -9.77610238e-03 8.39344189e-02
      -1.05264753e-01 -1.78454295e-01 2.32142419e-01 1.81908309e-01
      -9.09715705e-03 5.34758903e-02 1.01330273e-01 5.34337247e-03
      4.14113104e-02 -2.18931317e-01 -2.45599151e-02 5.70336469e-02
      1.15665741e-01 2.87246760e-02 1.01617821e-01 0. 2.08696470e-01
      1.64574072e-01 -5.71495853e-03 1.28032625e-01 2.71603353e-02
      9.93287638e-02 6.73563629e-02 -1.07322991e-01 -1.01900466e-01
      6.40159007e-03 5.10491654e-02 6.81082830e-02 5.08748293e-02
      -8.72667506e-03 3.39600258e-03 -4.51443195e-02 -1.94250673e-01
      -1.66831449e-01 -8.23165998e-02 1.48939878e-01 1.03346765e-01
      2.21844435e-01 5.60452081e-02 6.86271265e-02 4.65493910e-02
      -3.61248195e-01 -1.73112854e-01 1.48066431e-02 7.97284767e-02
      -4.85357307e-02 6.95346147e-02 0. 4.41083051e-02 1.31645814e-01
      1.20388411e-01 -2.93784682e-02 -1.10811673e-01 3.01836152e-02
      2.05098446e-02 -2.08729394e-02 5.71893528e-02 -8.29469860e-02
      -5.45231849e-02 -2.15403866e-02 7.80737726e-04 1.14557356e-01
      5.41108511e-02 1.90669186e-02 -7.03681633e-02 -1.52246859e-02
      -5.58374152e-02 1.44143235e-02 1.79097727e-02 4.97836955e-02
      7.24190697e-02 3.95081379e-02 3.65295075e-02 -8.08966085e-02
      4.67805117e-02 -5.14797755e-02 7.43916184e-02 1.97364129e-02
      4.54445109e-02 0. -3.89795601e-02 2.85652988e-02 4.71135341e-02
      9.02251676e-02 -8.73940364e-02 3.82182859e-02 5.47292978e-02
      7.22903982e-02 9.59554538e-02 5.80468476e-02 -4.89581749e-02
      7.02001750e-02 -3.48002240e-02 -1.14161996e-02 3.72104309e-02
      -4.62697372e-02 -2.52634808e-02 -6.53606504e-02 -4.48948927e-02
      6.88261390e-02 1.01289697e-01 5.11872694e-02 -4.95315976e-02
      -3.31756957e-02 -1.16838338e-02 -6.82595186e-03 4.17164713e-03
      5.66057898e-02 1.60464719e-01 -7.03118742e-02 -3.63978818e-02 0.
      1.04240336e-01 -1.21309850e-02 4.17045206e-02 2.73002144e-02
      9.85573977e-02 1.02577684e-02 1.10065013e-01 3.44990790e-02
      -4.17407556e-03 -1.29051870e-02 3.42020839e-02 -6.28466010e-02
      -9.76231880e-03 1.77191142e-02 2.96109337e-02 4.83487956e-02
      3.93610001e-02 -4.81954701e-02 -7.98323676e-02 7.00843558e-02
      -3.78996483e-03 -2.92365327e-02 1.60323121e-02 -6.49242923e-02
      1.30262554e-01 4.32752445e-02 -4.57141288e-02 -3.30369845e-02
      6.63357973e-02 2.01799721e-02 1.56695679e-01 0. 9.22473054e-03
      -9.31195989e-02 -8.33705440e-02 1.29626542e-01 -5.82187288e-02
      -1.09206200e-01 6.35441914e-02 -9.25588384e-02 3.16902599e-03
      1.07124977e-01 8.52071866e-02 -1.13131873e-01 1.52784362e-01
      8.04051980e-02 -5.06274290e-02 6.88237846e-02 4.32946777e-04
      -9.26034078e-02 -5.33466773e-05 1.38283251e-02 -1.18746392e-01
      2.27230310e-01 4.50725220e-02 -1.46220550e-01 9.96492505e-02
      -6.30580410e-02 -3.08623016e-02 9.17486548e-02 1.31783098e-01
      -1.78834438e-01 -4.11588550e-02 0. 8.03513336e-04 -8.40401128e-02
      4.64004278e-02 1.38036355e-01 5.22396192e-02 5.08592501e-02
      -2.57279584e-03 -4.92927693e-02 -1.04653813e-01 7.56294727e-02
      -5.53092845e-02 2.47610547e-02 1.42157495e-01 6.68452159e-02
      -3.09371706e-02 6.95673972e-02 -1.22812755e-01 -1.28485575e-01
      -1.81470603e-01 -8.00086185e-02 6.06071018e-02 2.17086256e-01
      9.27431062e-02 -9.76761524e-03 2.27489416e-02 -8.25530365e-02
      -7.62104318e-02 -6.28830567e-02 7.57693574e-02 -2.79154554e-02
      5.70759140e-02 0. -1.13042938e-02 -3.54854278e-02 4.48503606e-02
      1.48244664e-01 1.42147839e-01 1.07487410e-01 7.31205791e-02
      -1.73777388e-03 1.04329251e-02 -6.49297237e-02 -8.27154368e-02
      9.45888609e-02 5.33083640e-02 1.03385113e-01 2.60367170e-02
      -3.47119831e-02 8.66869092e-03 -1.88802406e-02 -1.40530556e-01
      -8.29340331e-03 9.18412209e-02 2.25711659e-01 2.21953019e-01
      6.07882142e-02 5.29311150e-02 -5.56799695e-02 7.69976005e-02
      -2.01189294e-02 4.54788171e-02 7.03930408e-02 1.69412702e-01 0.
      -6.20095655e-02 -7.43805543e-02 -1.88926477e-02 1.65756658e-01
      3.40429187e-01 5.01644686e-02 1.02066979e-01 5.55051863e-02
      -3.63482931e-03 -2.42636874e-02 -3.51171307e-02 1.43968947e-02
      -1.20002076e-01 1.96212847e-02 -5.71688414e-02 1.14099056e-01
      8.51836652e-02 1.92293581e-02 -9.25260857e-02 4.58309278e-02
      -7.56667480e-02 8.81168246e-03 2.07365319e-01 5.45598045e-02
      2.32136831e-01 4.80630249e-02 4.46598381e-02 6.97125047e-02
      1.07757740e-01 1.44282300e-02 7.72630721e-02 0. 6.83329105e-02
      -1.44199163e-01 -7.09324032e-02 4.93932962e-02 1.26361161e-01
      3.65213118e-02 1.39034301e-01 -2.56452914e-02 4.27036621e-02
      -1.11395977e-02 -9.34327990e-02 -1.18841662e-03 -9.81829911e-02
      1.05757071e-02 2.79788896e-02 5.24438247e-02 -6.67853327e-03
      -1.83750093e-01 -1.78150520e-01 -1.13275379e-01 -3.12412065e-02
      -4.09316197e-02 1.00283526e-01 5.13550118e-02 1.85234949e-01
      -5.86545505e-02 -1.05828837e-01 -1.54563747e-02 5.40346913e-02
      -8.39816406e-02 6.84085069e-03 0. 3.35885473e-02 3.21502760e-02
      -4.53079976e-02 9.33124498e-02 -1.80809442e-02 -2.66383588e-02
      1.25123933e-01 -1.46021649e-01 -1.15143908e-02 -6.32529557e-02
      -6.66702837e-02 3.03419046e-02 1.19445948e-02 -1.54550551e-02
      1.57910690e-01 1.46136582e-01 -1.64534859e-02 1.35145485e-02
      -7.47943074e-02 1.37029793e-02 -6.75752386e-02 6.73897266e-02
      -4.81747510e-03 5.66528030e-02 1.83592618e-01 -6.84157312e-02
      -1.83772168e-03 -3.83476280e-02 4.19861749e-02 3.56355533e-02
      7.13296980e-02 0. 9.88422781e-02 -2.32287571e-02 -4.01852466e-02
      6.59370273e-02 3.14064287e-02 3.53110172e-02 9.99724567e-02
      2.91547142e-02 -8.54203627e-02 1.35039717e-01 -6.92560971e-02
      -2.38117278e-02 7.90587440e-03 -6.80979043e-02 1.09055325e-01
      -2.11491715e-02 -4.67523597e-02 7.66186714e-02 -2.52447389e-02
      -5.34604490e-02 -1.05526716e-01 1.06287412e-02 -6.00941293e-02
      1.68809630e-02 2.75070630e-02 -2.19743121e-02 8.50984827e-04
      2.67965868e-02 1.31810740e-01 -5.23843654e-02 4.05435823e-02 0.
      7.80276731e-02 -1.02522140e-02 6.60927519e-02 1.14312232e-01
      -1.15977958e-01 -2.13229001e-01 4.98673096e-02 -1.00358970e-01
      2.77684946e-02 8.94740522e-02 -3.24888602e-02 9.75093022e-02
      3.07571515e-02 1.23145012e-02 1.87737763e-01 -3.09780110e-02
      7.51466453e-02 2.59888568e-03 -5.01750745e-02 -2.55641844e-02
      8.70410427e-02 1.12704314e-01 -4.50433008e-02 -6.19771481e-02
      5.75127937e-02 5.83771709e-03 -2.57086977e-02 -6.72720326e-03
      1.11205727e-02 1.02013610e-01 4.83639464e-02 0. 4.01687585e-02
      1.24619752e-02 2.21528183e-03 6.05700873e-02 -4.97030318e-02
      -9.99721289e-02 -4.91732405e-03 -7.49365166e-02 -1.78380369e-03
      6.88824952e-02 -6.30293116e-02 2.35806294e-02 -4.69377600e-02
      -6.02047667e-02 -3.44990566e-03 -1.30587080e-02 2.67258915e-03
      4.85164598e-02 6.77139387e-02 -3.39820236e-02 -5.76112792e-03
      -3.61033855e-03 -6.87661022e-02 -1.51131734e-01 -1.73314149e-03
      -4.46528755e-02 4.35918942e-02 4.62289825e-02 1.37928605e-01
      -1.47830710e-01 -1.11244097e-01 0. 6.44551963e-02 -1.36334315e-01
      -1.00484863e-01 5.02719805e-02 1.09270729e-01 3.92790399e-02
      -7.32287541e-02 -1.06512427e-01 -1.39522264e-02 8.42824876e-02
      -9.78538021e-02 -7.33362213e-02 3.60326618e-02 2.46043559e-02
      1.43287152e-01 7.53759816e-02 1.39737457e-01 1.65721998e-02
      -8.97462368e-02 -1.55896902e-01 -9.63179022e-02 9.74576846e-02
      5.92083894e-02 4.84069362e-02 -1.11278286e-02 6.63897619e-02
      2.93409601e-02 -1.75554715e-02 3.37804575e-03 8.89814273e-03
      9.08226743e-02 0. 9.58258510e-02 -1.06903922e-03 3.86591069e-02
      -5.95212132e-02 6.31162897e-02 -9.84827876e-02 -2.63271444e-02
      -6.49539530e-02 4.10488481e-03 1.12923667e-01 -1.59654580e-02
      -5.95255084e-02 8.36786106e-02 1.50492728e-01 1.96904633e-02
      -2.30038054e-02 2.87175830e-02 -1.52378390e-02 3.58090140e-02
      5.87388687e-02 -3.58179733e-02 5.30788191e-02 7.64638558e-02
      -1.62173584e-01 2.24079508e-02 -1.22579329e-01 -1.38130067e-02
      -7.06713125e-02 3.07323970e-03 3.00767794e-02 1.47415236e-01 0.
      8.62645730e-02 -1.51078431e-02 -7.37682655e-02 -1.38991103e-01
      -8.39855894e-02 -2.68493183e-02 -1.89417899e-02 1.85994115e-02
      6.38188943e-02 1.50607958e-01 -4.45984378e-02 5.26048131e-02
      -6.36707023e-02 5.97838573e-02 6.49796277e-02 8.06593373e-02
      2.31433157e-02 -1.72076207e-02 2.44501587e-02 -3.21789905e-02
      -8.13693181e-02 -1.13867290e-01 -1.21029511e-01 -4.76974174e-02
      8.05798545e-02 2.59770490e-02 2.96423342e-02 1.40861981e-02
      1.08983651e-01 -8.30573216e-02 1.53020583e-02 0. 3.11547220e-02
      -9.45079885e-03 -4.46636900e-02 -8.73948485e-02 6.64862022e-02
      8.69757459e-02 4.30861264e-02 -5.88123016e-02 -2.40890738e-02
      1.82871409e-02 -4.81873304e-02 7.16267973e-02 4.31106836e-02
      5.80413863e-02 -6.19415380e-02 4.63387407e-02 -4.68473248e-02
      -1.37863889e-01 -1.15908794e-01 -5.02827130e-02 1.18157774e-01
      2.85906624e-02 1.38648435e-01 -3.30489245e-03 8.12605619e-02
      -9.19354185e-02 -1.37917325e-01 -1.97720602e-02 7.68597052e-02
      -6.60391822e-02 -1.65715795e-02 0. -3.42730880e-02 3.08392402e-02
      -3.08706537e-02 3.39082479e-02 -7.87988771e-03 -1.29094213e-01
      3.29507440e-02 -7.31039569e-02 1.28519952e-01 2.20059585e-02
      -1.71663016e-02 5.29414453e-02 2.89201550e-02 -3.00608128e-02
      -1.01652779e-01 -1.27268136e-02 3.92182879e-02 -1.73462495e-01
      5.93190715e-02 4.78873812e-02 6.70733377e-02 1.75574832e-02
      -1.86518906e-03 -1.51370093e-01 2.54562330e-02 -1.24943564e-02
      -3.03501058e-02 -1.47167623e-01 -4.07900065e-02 -1.10271601e-02
      8.53835568e-02 0. 1.59166276e-01 6.52770624e-02 -9.69133377e-02
      9.63738654e-03 -3.96661907e-02 -1.90663919e-01 -5.55272028e-02
      8.62966757e-03 -3.40728313e-02 8.66142660e-02 -3.74996439e-02
      1.59747839e-01 -9.55870748e-03 1.58578023e-01 -2.50206385e-02
      -7.29339272e-02 9.94942263e-02 -4.07157990e-04 -5.37119061e-02
      -2.46725287e-02 3.17755044e-02 1.31636090e-03 1.21679373e-01
      -1.98282093e-01 -1.11431725e-01 2.29586847e-02 -4.08101045e-02
      5.20887040e-02 9.16924998e-02 -8.62576738e-02 2.96294577e-02 0.
      7.18385801e-02 -2.51397956e-02 8.53393376e-02 5.29583879e-02
      4.49036509e-02 -1.27579957e-01 3.54720987e-02 1.83842313e-02
      -3.53218764e-02 1.36982113e-01 6.97288811e-02 6.71769381e-02
      -1.41780689e-01 4.63060336e-03 -2.09413823e-02 3.05547062e-02
      -1.74956489e-02 -1.73296958e-01 -7.69545063e-02 1.14609990e-02
      5.12916520e-02 -6.59079105e-02 2.73765298e-03 -1.27467588e-01
      3.32360789e-02 -1.64258573e-02 -1.65522277e-01 -1.14499569e-01
      -2.88777351e-02 2.01559886e-02 1.59242541e-01 0. -7.21416343e-03
      4.88947472e-03 -3.58394235e-02 -8.23467001e-02 3.63964005e-03
      -2.16614138e-02 -3.13601777e-04 3.51030417e-02 -9.70537141e-02
      8.08243304e-02 -6.69289455e-02 9.90198255e-02 -1.36541789e-02
      -3.76839153e-02 -2.84076463e-02 7.99783096e-02 -5.69837466e-02
      -4.64934446e-02 5.55388769e-03 -1.11729704e-01 6.63120002e-02
      -7.12150484e-02 -2.32844111e-02 -3.62143479e-02 4.65978608e-02
      -1.71112698e-02 -1.08533017e-01 -2.12515853e-02 9.79714170e-02
      -1.36430785e-01 -3.03859729e-02 0. -8.11343491e-02 -1.64808139e-01
      -5.59293441e-02 -4.65038978e-02 8.05236995e-02 6.28423318e-02
      -4.63781552e-03 -3.43583524e-02 -1.39099076e-01 -3.33871394e-02
      8.83713923e-03 -4.94644083e-02 8.24998133e-03 7.61698633e-02
      6.42872676e-02 -1.66493189e-02 1.35645673e-01 7.89659619e-02
      -1.44827068e-01 -1.78253233e-01 -1.26108289e-01 -2.90147346e-02
      1.12887904e-01 2.69204620e-02 -4.92458455e-02 5.44291511e-02
      -1.05027109e-01 -3.40999216e-02 -1.29551115e-02 -7.50806406e-02
      7.00695664e-02 0. 2.17733718e-02 3.61810736e-02 1.97853446e-02
      -9.50641092e-03 1.97773669e-02 -1.75815225e-01 2.22916752e-02
      -2.09477618e-02 9.86653119e-02 2.62056828e-01 3.53191905e-02
      5.30141108e-02 -3.08043454e-02 1.19444050e-01 -4.04528007e-02
      -5.71999550e-02 1.04883000e-01 -6.91300705e-02 8.22198316e-02
      5.36545925e-02 8.05164650e-02 -3.08363531e-02 -2.10203603e-02
      -2.23077551e-01 -3.33572775e-02 4.80702426e-03 6.06901664e-03
      -2.84239594e-02 -7.39320472e-04 5.77838346e-02 1.54911876e-01 0.
      2.86522567e-01 4.48820889e-02 4.62232754e-02 4.73665353e-03
      -8.21203068e-02 -1.21343255e-01 3.71268317e-02 3.65152508e-02
      5.45826778e-02 1.05704837e-01 -9.00825337e-02 4.58407812e-02
      -9.07274894e-03 1.63828656e-02 -2.25803442e-02 1.34134796e-02
      1.26107344e-02 -8.99707619e-03 1.38947710e-01 -6.35364268e-05
      4.24751751e-02 -3.35876122e-02 -1.26287505e-01 -1.56698495e-01
      2.45113336e-02 7.79294670e-02 3.24116312e-02 -2.76879943e-03
      1.54754475e-01 -2.10332125e-02 4.36285213e-02 0. -1.47960205e-02
      -1.55229092e-01 -2.58054696e-02 6.84567541e-02 7.50597417e-02
      -6.91403914e-03 1.56438109e-02 -1.70450304e-02 -1.14531159e-01
      -5.07679023e-02 9.25252512e-02 9.37876403e-02 -3.23900878e-02
      1.47572368e-01 1.25753254e-01 2.65909750e-02 -9.24035255e-03
      -6.24200664e-02 -2.15320662e-01 -9.48751196e-02 2.21278388e-02
      -1.26753021e-02 6.35919869e-02 1.90015975e-02 2.07996462e-02
      -9.53546166e-02 -1.44014195e-01 -8.50428343e-02 8.84132534e-02
      1.12553807e-02 5.90307340e-02 0. 8.16174448e-02 -9.01562423e-02
      1.48863941e-02 8.68620351e-02 -3.81898088e-03 -5.89288026e-02
      -6.74569383e-02 -6.88322447e-03 1.31964192e-01 9.34727788e-02
      7.12497858e-03 1.22839669e-02 2.55586319e-02 -7.25074410e-02
      5.57272471e-02 7.21892864e-02 1.13895901e-01 -1.13876417e-01
      3.85129526e-02 -3.17316428e-02 -6.86528627e-03 2.71821227e-02
      -1.65288430e-02 -6.24672361e-02 2.75221746e-03 4.85406369e-02
      -6.40678033e-02 -6.64480925e-02 2.92761195e-02 8.07584147e-04
      1.69277862e-01 0. 5.20816781e-02 6.80516735e-02 1.23904087e-02
      -1.55989854e-02 -5.14599495e-02 2.50166114e-02 5.87900244e-02
      3.29783894e-02 2.01116782e-03 8.88502374e-02 -1.30027875e-01
      1.57051794e-02 9.91084427e-02 1.04167620e-02 -5.41750342e-02
      -1.03071332e-01 4.02110405e-02 2.15731598e-02 -3.12643424e-02
      -5.28611839e-02 -1.38646783e-02 3.56892422e-02 4.72398475e-02
      -5.09942584e-02 -4.14122939e-02 -2.06874255e-02 3.33291665e-02
      9.35993046e-02 1.30380034e-01 -1.10739090e-01 -3.17579582e-02 0.
      8.70284811e-02 9.08997804e-02 1.25815809e-01 -2.04198733e-02
      8.53637531e-02 2.06454545e-02 1.79456323e-02 -3.08443364e-02
      5.84909343e-04 1.28782704e-01 1.85455397e-01 -1.39064128e-02
      -1.49186209e-01 5.45129878e-03 1.03089340e-01 1.58628896e-02
      5.05991839e-02 -2.60573756e-02 8.20874721e-02 1.51277140e-01
      1.11862026e-01 -8.65724012e-02 -1.38785422e-01 -2.81314254e-02
      5.03792316e-02 -8.74508731e-03 -3.22270058e-02 -2.97123231e-02
      4.40244190e-02 9.49937999e-02 2.09883958e-01 0. 2.81885285e-02
      -5.42783588e-02 1.97318569e-02 4.28972114e-03 3.49640660e-02
      1.90808922e-02 6.43341392e-02 -3.83209847e-02 -7.92843997e-02
      2.50820816e-02 4.47377451e-02 1.00453459e-01 9.16296318e-02
      8.36665630e-02 3.34225781e-02 1.03678733e-01 -9.02297795e-02
      -3.92021164e-02 -7.63347447e-02 -6.61218166e-02 1.14512734e-01
      1.31563157e-01 -4.63210791e-03 -9.95816737e-02 1.39733553e-01
      -9.42547992e-02 -1.04535837e-02 7.61792734e-02 1.47510111e-01
      -1.19541891e-01 6.17590249e-02 0. -2.47305585e-03 -8.04759637e-02
      1.18748769e-01 -7.38404840e-02 6.27273768e-02 5.89112133e-05
      -7.26712346e-02 -7.00949132e-02 -1.41725704e-01 3.93663496e-02
      -1.82908576e-03 -5.03082871e-02 9.90198925e-02 1.53180555e-01
      -3.37025453e-03 1.28342863e-02 9.34594944e-02 9.93397981e-02
      -2.13974938e-01 -5.62505983e-02 8.93613026e-02 3.58250476e-02
      6.71240985e-02 -2.25369468e-01 -1.03277750e-01 3.61858010e-02
      -5.34058101e-02 4.65802737e-02 5.72942272e-02 -3.02913319e-02
      1.21863848e-02 0. 2.12910980e-01 -5.05895950e-02 -1.47465289e-01
      -7.61362445e-03 2.55975127e-01 2.69525424e-02 -5.62108457e-02
      -5.29780723e-02 -3.92854810e-02 2.36297339e-01 -7.21079368e-06
      1.34468600e-01 3.34487669e-02 6.33484591e-03 -1.08072899e-01
      4.63007465e-02 2.13070080e-01 8.01599696e-02 -1.69018153e-02
      -3.19324471e-02 2.71797031e-02 -9.87470965e-04 4.36943211e-02
      -1.64281905e-01 -3.87565829e-02 7.83436373e-02 -1.93449389e-02
      7.03848600e-02 -1.97849777e-02 1.38116717e-01 1.80717692e-01 0.
      1.59520313e-01 -5.73868724e-03 -6.57462999e-02 -5.28188944e-02
      1.11990139e-01 8.11595395e-02 6.16216175e-02 -8.28815326e-02
      1.82585549e-02 2.39113122e-01 1.86327193e-02 2.20430866e-01
      -1.76049080e-02 -3.87191996e-02 3.33952568e-02 4.37326245e-02
      9.56966057e-02 -8.24473724e-02 2.13840008e-02 -4.27750014e-02
      7.30936415e-03 -6.88471049e-02 -6.82062730e-02 -6.26584291e-02
      3.38805802e-02 -8.25600978e-03 -7.28174895e-02 1.16140470e-01
      7.11670369e-02 9.50143263e-02 6.53802231e-02 0. -1.26498146e-02
      -9.87759531e-02 -2.39308309e-02 -5.40622398e-02 -9.14430842e-02
      1.03390701e-01 -2.60156039e-02 -5.45867011e-02 1.78810954e-02
      5.53045087e-02 1.22028319e-02 6.58648089e-02 -1.80009776e-03
      4.24271375e-02 1.62260473e-01 1.00539915e-01 -1.00052264e-02
      -1.05337635e-01 -2.15773419e-01 -1.88595861e-01 3.45355645e-02
      -8.43442231e-02 -2.11580426e-01 1.29975453e-01 3.96726094e-02
      -1.61314867e-02 -7.59616271e-02 -2.41895597e-02 2.24438147e-03
      6.21280931e-02 -1.87493674e-03 0. -4.71777320e-02 -1.05477072e-01
      -1.19603075e-01 2.85800565e-02 1.59992985e-02 -9.96457320e-03
      8.30310397e-03 3.45290564e-02 -8.63875262e-03 -1.58032216e-02
      -7.91930258e-02 -1.02348521e-01 1.01532981e-01 1.09394304e-01
      6.47650883e-02 4.47882190e-02 7.34220594e-02 2.00536158e-02
      -1.51844338e-01 -1.35752022e-01 -1.70032740e-01 1.34050548e-01
      -2.15782151e-02 -7.03738183e-02 5.84486648e-02 8.71198326e-02
      1.47014959e-02 -1.40653253e-01 3.12494636e-02 3.34166177e-02
      8.21916610e-02 0. 8.95607993e-02 7.65352696e-02 -7.98472315e-02
      -6.93648756e-02 3.89521196e-02 6.02811351e-02 5.31808548e-02
      6.06830530e-02 -5.64176477e-02 2.27771848e-02 -1.03815664e-02
      -3.64493616e-02 1.28912672e-01 5.84350787e-02 1.32016316e-02
      -1.29298896e-01 2.77900342e-02 1.27110139e-01 -4.85469513e-02
      6.05873354e-02 -1.04517460e-01 6.84175938e-02 -1.11534717e-02
      -7.68921152e-02 -2.09266562e-02 1.68539491e-02 1.12783268e-01
      5.73174395e-02 2.04176590e-01 -7.52086714e-02 -9.19904280e-03 0.
      1.23621061e-01 -4.19765003e-02 2.33976613e-03 -1.38588011e-01
      3.95394489e-02 -6.34266213e-02 -7.33921379e-02 -4.76797251e-03
      -6.79196492e-02 -5.21888100e-02 1.27872452e-01 8.88088718e-03
      -1.05218805e-01 6.51103705e-02 1.23994000e-01 9.50965099e-03
      4.37589474e-02 -2.06571631e-02 -1.03453457e-01 -3.14626992e-02
      5.16637461e-03 -1.90153539e-01 2.11643409e-02 -4.73356880e-02
      -7.60410056e-02 -3.75306532e-02 -9.25251022e-02 -7.00172111e-02
      -8.17098171e-02 4.61195000e-02 9.45253223e-02 0. 4.81990464e-02
      -3.63157205e-02 3.64897680e-03 -5.95814921e-02 -1.20575642e-02
      8.75139683e-02 6.10552989e-02 3.55257429e-02 1.09296225e-01
      4.12156843e-02 7.36701787e-02 -4.77340557e-02 -6.80452446e-03
      8.30770209e-02 4.95782495e-03 3.58351070e-04 1.03395293e-02
      -1.37341946e-01 -3.56817208e-02 4.33537774e-02 -8.27164054e-02
      -1.08199947e-01 -2.06580795e-02 -5.22275381e-02 6.99067935e-02
      5.41405473e-03 2.05762647e-02 8.14211220e-02 1.19927429e-01
      -3.05881109e-02 -4.86572199e-02 0. 7.50260428e-02 -2.08080839e-02
      1.08298503e-01 -3.18183936e-02 -6.43958747e-02 -4.41519767e-02
      -1.10232055e-01 5.86312227e-02 -1.31053194e-01 4.94103208e-02
      -1.47032320e-01 8.07739329e-03 7.02717900e-02 6.46909401e-02
      4.35625203e-03 1.52592093e-01 1.15994617e-01 -1.02272141e-03
      -1.35980979e-01 -1.08296715e-01 4.62925695e-02 4.83084470e-02
      1.31947435e-02 -1.22875944e-01 3.75691094e-02 1.90985084e-01
      -7.65320584e-02 2.45552417e-02 5.96037842e-02 -5.29619604e-02
      4.27347682e-02 0. 1.28715038e-01 -7.07622021e-02 -1.17916815e-01
      1.49266375e-02 3.17731388e-02 7.99382329e-02 9.56526864e-03
      -9.32305008e-02 -2.13839740e-01 5.10601252e-02 -6.67319894e-02
      3.83740701e-02 1.08933374e-01 8.14549327e-02 5.73362000e-02
      1.22061633e-01 9.35367420e-02 3.26588564e-02 -8.26727301e-02
      -6.46707341e-02 -4.55363430e-02 1.28090128e-01 9.72560719e-02
      3.22745112e-03 1.03569962e-01 3.61697674e-02 -1.21813133e-01
      -2.24699397e-02 4.95595112e-03 4.41013873e-02 1.09106518e-01 0.
      -2.26707617e-03 -1.44650549e-01 -3.34448107e-02 -1.86711904e-02
      8.20078850e-02 5.72236851e-02 1.23859987e-01 -1.51906326e-01
      -9.84609872e-02 1.56293646e-01 -7.19109550e-02 1.87498450e-01
      1.08802065e-01 9.87525433e-02 4.31090668e-02 3.65127809e-02
      7.31448689e-03 -6.21407926e-02 -8.61307532e-02 -1.00803666e-01
      1.29347384e-01 7.42404833e-02 3.59451510e-02 7.07683212e-04
      1.10450223e-01 -6.67375103e-02 -1.44943282e-01 5.57419136e-02
      4.76041287e-02 -3.56853852e-04 4.68792133e-02 0. 2.66200807e-02
      -5.81083633e-02 1.93148647e-02 -1.60242736e-01 -1.74644440e-02
      -5.17255219e-04 1.17029771e-01 4.42346558e-03 4.99346294e-02
      1.67882532e-01 -2.67870873e-02 1.07248530e-01 1.53589115e-01
      1.27091169e-01 -1.88751947e-02 -2.11603548e-02 1.28575438e-03
      -1.70978442e-01 -1.72734082e-01 -1.28287941e-01 1.11093313e-01
      -1.34677989e-02 5.88267185e-02 -7.27295876e-04 1.37210935e-01
      2.90700570e-02 -1.29741162e-01 -4.08527032e-02 2.08706837e-02
      7.53077790e-02 8.62291008e-02 0. 6.59269467e-03 8.64796937e-02
      -3.68861444e-02 7.83635303e-02 4.86947559e-02 -3.35431658e-02
      -5.69759682e-02 -1.31562352e-02 -2.44319607e-02 8.52011740e-02
      -6.21825196e-02 4.50280719e-02 1.88119302e-03 6.48597702e-02
      -3.76163311e-02 -1.13125509e-02 2.79397834e-02 1.16413198e-01
      -5.94720952e-02 3.14237587e-02 -3.09702195e-02 2.16672402e-02
      -2.85115838e-03 -1.17803358e-01 -5.38065732e-02 -1.13260718e-02
      1.04154058e-01 -6.53188378e-02 -2.80704945e-02 8.82511660e-02
      1.39651686e-01 0. -1.28149856e-02 3.72826345e-02 -3.90833169e-02
      5.54704480e-02 1.10589206e-01 7.50699639e-02 -1.28855765e-01
      -1.73308793e-02 -7.80109763e-02 9.13259909e-02 6.99650776e-03
      1.49495630e-02 1.33018699e-02 6.12128675e-02 3.47377919e-02
      2.72755474e-02 3.41919158e-03 1.08696995e-02 -9.84636396e-02
      6.00358695e-02 -4.18974198e-02 4.71712686e-02 -6.72701672e-02
      1.50394570e-02 -4.16036583e-02 -1.71703100e-02 -2.71352194e-02
      5.40424660e-02 1.39992133e-01 -4.41717841e-02 -2.42793001e-02 0.
      5.38351387e-02 -2.22842153e-02 9.81365666e-02 -1.94561929e-02
      -5.36466986e-02 4.18080669e-03 -5.55868186e-02 3.09624542e-02
      5.87447066e-05 2.05662623e-02 -1.41883045e-02 1.13261744e-01
      1.08612003e-02 8.76493901e-02 7.39746764e-02 6.59788176e-02
      8.17555189e-02 3.34786833e-03 -2.78858114e-02 -6.19555376e-02
      1.22487515e-01 1.39769055e-02 -4.40015420e-02 -7.31057525e-02
      -3.60938860e-03 2.98448931e-02 -2.95077935e-02 3.01640816e-02
      3.83743597e-03 9.61618796e-02 9.58290100e-02 0. 1.32303178e-01
      5.35763502e-02 -2.65404359e-02 7.42289471e-03 -5.16203903e-02
      -1.46229178e-01 -4.30835746e-02 -3.17299739e-02 -6.02276139e-02
      1.27762884e-01 -1.04711153e-01 3.15002240e-02 -3.92246339e-03
      6.80353716e-02 4.55822088e-02 -2.25489940e-02 -2.93613896e-02
      4.23627608e-02 2.22449768e-02 -4.16748673e-02 3.17533836e-02
      -3.21564823e-02 -4.17860113e-02 -6.57481626e-02 -6.06088266e-02
      -5.19717075e-02 2.29219552e-02 9.22744200e-02 2.79079974e-02
      -4.98979874e-02 -7.56721869e-02 0. 5.58463410e-02 -7.12601766e-02
      -1.45145848e-01 5.37105603e-04 1.83169711e-02 9.00895298e-02
      2.17183027e-02 8.12650006e-03 -9.98343006e-02 2.14312356e-02
      -1.26759917e-01 -3.17972712e-02 2.05552131e-02 5.74669056e-02
      -1.90441497e-02 1.14735290e-01 3.59486490e-02 -1.32848695e-02
      -2.06350982e-01 -5.05569279e-02 -1.51519505e-02 3.06196865e-02
      -4.00058180e-02 -2.60839630e-02 1.16780505e-01 8.55032131e-02
      -5.14714979e-03 3.58262509e-02 -2.53682286e-02 -7.35156890e-03
      -3.25003266e-02 0. -1.08760990e-01 -2.10612640e-01 -1.42016858e-01
      -5.03343977e-02 -7.19935459e-04 5.02800345e-02 3.96738946e-02
      -1.68195125e-02 -1.47199780e-01 8.64654630e-02 1.00690834e-02
      7.83742871e-03 6.57253936e-02 1.23612851e-01 1.92051772e-02
      1.05943218e-01 4.18409929e-02 -3.10888514e-02 -2.58250356e-01
      -1.27966017e-01 -1.71732962e-01 6.17458252e-03 8.30600113e-02
      8.31684470e-02 1.52349904e-01 1.04445368e-02 -4.63836342e-02
      -2.33524572e-02 -8.44721645e-02 3.78170013e-02 -3.95477936e-03 0.
      1.45095021e-01 -1.92742720e-01 -8.69636163e-02 -7.58795291e-02
      4.60895896e-02 3.62913385e-02 -6.47892710e-03 -1.94710419e-01
      -3.22583944e-01 -1.29583329e-01 -6.51585534e-02 1.51089162e-01
      1.01585992e-01 1.63029909e-01 1.05481572e-01 9.95258242e-02
      -2.00240649e-02 1.77786108e-02 -2.16257125e-01 -1.09356001e-01
      7.27123544e-02 6.19460307e-02 1.13944620e-01 1.39006719e-01
      9.87204909e-02 -2.36871690e-01 -1.47059768e-01 -2.57403851e-02
      1.33558111e-02 -1.92018459e-03 -9.32490006e-02 0. 8.26177001e-02
      -4.57176939e-02 1.25337718e-03 7.49850646e-03 -7.32211098e-02
      -5.28202057e-02 8.41904879e-02 -8.20133612e-02 -4.46433015e-02
      9.07888785e-02 6.66072443e-02 7.84288421e-02 1.60198063e-01
      2.56611835e-02 -9.66062769e-03 1.23875730e-01 -5.70340715e-02
      -1.52997002e-01 -1.93632632e-01 7.62782767e-02 1.04880057e-01
      1.63240507e-01 -7.34717175e-02 -4.44073156e-02 1.97861955e-01
      -2.56406330e-02 -1.18262276e-01 -4.33958657e-02 -3.38381506e-03
      6.05661795e-02 8.19136798e-02 0. 8.91260579e-02 7.22142085e-02
      -3.90796885e-02 4.38042218e-03 -4.70546968e-02 -1.05318874e-01
      1.14522293e-01 4.58476227e-03 1.17191700e-02 7.59251267e-02
      -4.10488956e-02 -5.84197743e-03 2.66065039e-02 6.33774847e-02
      1.94322094e-02 -1.36902854e-02 3.21412347e-02 -4.26033996e-02
      5.71353827e-03 5.90980984e-02 -4.97686565e-02 -1.75313000e-03
      -7.28712184e-03 -1.13533445e-01 4.51902375e-02 6.54167086e-02
      2.17784047e-02 -7.51876831e-02 -3.01128216e-02 9.54975113e-02
      1.13224246e-01 0. 1.36182904e-01 -1.61768589e-02 1.52630955e-02
      2.45590806e-02 6.41423911e-02 1.48588177e-02 -2.21494511e-02
      5.41463755e-02 -1.22212410e-01 6.16093613e-02 -2.40008458e-02
      5.49098104e-02 4.71882373e-02 3.84862721e-02 2.83233020e-02
      1.20087728e-01 6.36994615e-02 3.56203429e-02 -2.26444453e-02
      8.02457519e-03 2.66914032e-02 3.21244895e-02 -6.15945011e-02
      -7.78361484e-02 5.47205172e-02 1.18249029e-01 -6.92794174e-02
      9.27491039e-02 1.43785894e-01 -1.23851448e-02 4.66871597e-02 0.
      1.53511856e-02 1.00956626e-01 -3.11759394e-03 -2.57390961e-02
      5.26159741e-02 1.74891166e-02 -4.51527536e-02 8.95986110e-02
      -5.02084084e-02 4.74731252e-02 -2.34233607e-02 2.56080460e-02
      -3.00773922e-02 -2.65993620e-03 1.10395566e-01 1.53661435e-02
      3.54907811e-02 -3.14312540e-02 7.68460846e-03 2.25219317e-02
      1.36657432e-03 -1.03616446e-01 9.03152972e-02 5.60407192e-02
      -6.19815066e-02 1.10433348e-01 -8.08480475e-03 -1.04075065e-02
      -7.55670434e-03 8.47870782e-02 7.39067271e-02 0. 6.20342493e-02
      5.07044233e-02 -3.93973440e-02 2.65614856e-02 -3.76107506e-02
      -1.24045566e-01 2.77700908e-02 -4.17142287e-02 3.86484042e-02
      1.41661748e-01 -6.43126713e-03 2.21749395e-02 -1.90924443e-02
      -8.48964602e-02 6.90471157e-02 2.07045525e-02 1.03827722e-01
      9.69406962e-02 3.44547816e-02 3.92516218e-02 4.06399854e-02
      -1.64118484e-02 -4.24943045e-02 -2.53089480e-02 1.37161743e-02
      6.31553605e-02 5.87792359e-02 9.81550068e-02 1.10861614e-01
      -4.41815928e-02 -2.01683342e-02 0. 1.02911204e-01 -2.74008811e-02
      -1.24556400e-01 -1.44860940e-02 -1.03678495e-01 -2.22435761e-02
      2.56905686e-02 -3.60450707e-02 1.14969574e-02 1.07571846e-02
      -8.06743279e-03 4.29538898e-02 5.20684347e-02 5.68910576e-02
      1.44300908e-01 1.36515507e-02 6.49729520e-02 5.54598775e-03
      -1.20199971e-01 4.97999564e-02 2.12440211e-02 -8.07281584e-03
      -8.90696049e-02 -1.67633705e-02 3.98864746e-02 8.20923746e-02
      5.45245633e-02 8.59833136e-02 6.56240508e-02 -2.56484784e-02
      -3.41477245e-02 0. -6.48780987e-02 -2.43199497e-01 -9.32474136e-02
      2.93337461e-02 1.25782803e-01 1.01164572e-01 1.17027096e-01
      1.58269517e-02 -1.15070231e-01 -7.11057559e-02 3.41368094e-02
      1.04641832e-01 6.87326267e-02 -1.80293266e-02 7.33228549e-02
      -1.31804077e-02 5.53706251e-02 -9.32946950e-02 -1.61995888e-01
      -2.80223768e-02 8.85128751e-02 1.09190494e-01 9.11689848e-02
      7.28381574e-02 1.36916041e-01 7.93339387e-02 -2.11011693e-02
      2.76209265e-02 -3.05589437e-02 -7.65877776e-03 1.68826729e-02 0.
      1.59937963e-02 -9.71032605e-02 2.73576621e-02 8.77500847e-02
      8.71306360e-02 6.26857653e-02 4.12384346e-02 -1.10642783e-01
      -9.04814154e-02 -3.37889977e-02 -7.96635225e-02 9.15505737e-02
      5.55039681e-02 2.84751132e-02 2.90551130e-02 6.10999903e-03
      6.51477873e-02 -5.11294715e-02 -1.36204049e-01 -1.02478787e-02
      1.21542297e-01 1.12719163e-01 1.13539800e-01 2.91610193e-02
      1.08545370e-01 -5.74608967e-02 6.97584543e-03 -2.99435109e-02
      -4.12295852e-03 9.49982256e-02 2.79657054e-03 0. 4.49041389e-02
      -1.03621729e-01 -1.57653857e-02 3.98199633e-02 -3.88584472e-02
      2.03364082e-02 -1.91954263e-02 -1.20232128e-01 -2.84406692e-02
      2.51818120e-01 1.13114245e-01 9.24850479e-02 8.80402550e-02
      6.27470016e-02 2.34532854e-04 5.38045503e-02 4.37348038e-02
      -5.59611619e-02 -1.59312058e-02 3.40434425e-02 7.53783211e-02
      8.88974890e-02 -7.77408062e-03 -7.64479339e-02 3.37837785e-02
      -1.20122815e-02 -1.14884134e-02 -4.15684655e-02 -4.79952246e-03
      1.34073406e-01 1.14508256e-01 0. 1.26702324e-01 -7.60074658e-03
      -1.48995975e-02 -3.58043648e-02 -3.77766788e-02 -3.83937322e-02
      5.92668634e-03 -3.86968330e-02 -1.41994536e-01 5.30543402e-02
      5.37271313e-02 9.65007246e-02 3.99273150e-02 2.42781043e-02
      -1.55147426e-02 -1.57386772e-02 3.14645804e-02 1.40536926e-03
      8.85907263e-02 -1.50203863e-02 6.45109117e-02 2.30803862e-02
      -3.32286693e-02 -3.50201540e-02 -2.60768142e-02 -3.44940424e-02
      -6.67276233e-02 -4.09661010e-02 -6.11190051e-02 4.43275049e-02
      9.85651538e-02 0. 1.97433501e-01 -3.93670909e-02 1.01485342e-01
      -1.08056113e-01 5.11528365e-02 -4.95886356e-02 1.06960442e-02
      2.21760888e-02 1.15300398e-02 1.27151623e-01 -1.16181942e-02
      -4.21629399e-02 4.83199023e-02 6.94693029e-02 -2.51052175e-02
      -1.03891373e-01 6.24667555e-02 5.50463907e-02 6.05317205e-02
      -4.25997227e-02 2.87246834e-02 -8.85639563e-02 5.42552620e-02
      -1.25007749e-01 -1.13599941e-01 5.35364673e-02 1.65410992e-02
      3.70271318e-02 7.30718225e-02 2.52123419e-02 4.24716808e-02 0.
      2.08656043e-01 6.64247721e-02 1.15403548e-01 -1.17794417e-01
      7.16030449e-02 -3.84117775e-02 7.55698532e-02 6.39655218e-02
      5.02996193e-03 6.67675436e-02 -9.74474847e-03 3.52481380e-03
      2.29497310e-02 1.58025175e-02 1.05919637e-01 -2.93077398e-02
      -3.16029601e-02 5.14021628e-02 7.85436556e-02 6.93808645e-02
      1.71897784e-02 -5.71996570e-02 -3.69432718e-02 -6.98428750e-02
      2.07736939e-02 1.55269668e-01 4.50242348e-02 -3.43155414e-02
      7.35946670e-02 1.04069799e-01 1.61249712e-01 0. -1.12378366e-01
      -1.49238795e-01 3.32489088e-02 -5.01267959e-06 -1.30426697e-05
      5.15881963e-02 -5.50688244e-02 -1.00918904e-01 -4.26984988e-02
      9.34866145e-02 4.04457264e-02 3.36921699e-02 7.06727281e-02
      8.04149285e-02 4.70720492e-02 1.62640971e-03 -3.02693527e-02
      8.10305774e-03 -1.44281030e-01 -3.76069583e-02 8.78315940e-02
      8.16223919e-02 1.36271147e-02 -1.97785478e-02 -1.13152169e-01
      -5.91806956e-02 -4.43768203e-02 3.40552181e-02 1.20996110e-01
      -1.47155315e-01 -2.21511945e-02 0. 9.46502537e-02 -5.18154688e-02
      -1.28366858e-01 -4.93067093e-02 9.75022838e-02 -1.12087399e-01
      -6.35682270e-02 4.04777005e-03 -1.38250023e-01 -1.93505380e-02
      -1.30542606e-01 -1.38914049e-01 -9.67667550e-02 1.22599505e-01
      1.24348970e-02 9.03903544e-02 -2.14932840e-02 1.40967533e-01
      -9.61628184e-02 -6.87731802e-02 -1.63772970e-01 -1.75564751e-01
      1.75925978e-02 -1.48246706e-01 6.69033006e-02 7.75361154e-03
      3.60919312e-02 -5.98982573e-02 6.12441115e-02 -1.25627443e-01
      -5.85599914e-02 0. 3.84395197e-02 -1.31577998e-01 -1.13398790e-01
      -8.69787559e-02 2.92619225e-02 1.38406321e-01 -2.55657732e-02
      6.51649013e-02 -1.56398937e-01 -1.24409422e-01 8.14704970e-03
      -2.34056171e-02 -3.15367617e-03 -4.96897206e-04 9.79742929e-02
      1.09159067e-01 -7.71661326e-02 1.96097530e-02 -2.34447941e-01
      -8.68209749e-02 -5.26767373e-02 -5.10989316e-02 -5.21290256e-03
      1.71946317e-01 9.33547243e-02 1.04505227e-04 -8.15970302e-02
      -2.91315094e-02 3.61640602e-02 -1.01742066e-01 -1.67243071e-02 0.
      -1.90783158e-01 -1.34850755e-01 6.83950335e-02 1.97701734e-02
      9.08542871e-02 6.85058301e-03 -2.17364766e-02 -1.78785041e-01
      -9.25110281e-02 -3.04989554e-02 2.29539163e-02 -6.91157877e-02
      8.27917904e-02 3.18235978e-02 9.03139189e-02 1.09553114e-02
      -8.88304599e-03 -1.10924616e-01 -3.23476702e-01 -1.46614760e-01
      -3.17554995e-02 1.23293459e-01 6.82464167e-02 1.64190482e-04
      5.90848364e-02 -1.57779247e-01 -1.08290792e-01 -1.00887820e-01
      -1.08226232e-01 -3.64132039e-02 5.06598391e-02 0. -4.47802059e-02
      -9.72108319e-02 -2.32955832e-02 -7.36434013e-02 -3.61407362e-02
      -1.07200099e-02 3.90372276e-02 -7.36957192e-02 3.37630324e-02
      9.14564580e-02 1.71229720e-01 -7.88520090e-03 4.76848669e-02
      -4.95071113e-02 9.01410729e-02 -1.40800208e-01 -9.57787633e-02
      -1.15345530e-01 -1.41040325e-01 -4.32553329e-03 -6.59546852e-02
      1.10653602e-02 -1.11475319e-01 2.61536054e-03 -9.91343334e-02
      -1.04684815e-01 -7.93684199e-02 -1.28977358e-01 -1.19356826e-01
      4.06477079e-02 6.83920532e-02 0. 6.48980290e-02 -3.93969566e-02
      -3.90421189e-02 -8.13638568e-02 4.10233922e-02 2.93202046e-02
      8.30915123e-02 -3.18478234e-02 -9.36366841e-02 -1.26638964e-01
      2.94676255e-02 7.08374977e-02 1.77700762e-02 3.00191389e-03
      -1.21232666e-01 -1.14421539e-01 -3.00365742e-02 -1.17722740e-02
      -1.43363670e-01 -4.28917632e-02 1.81208421e-02 -1.01155385e-01
      3.57477106e-02 -9.99188647e-02 -1.56398062e-02 -2.69049201e-02
      -3.63039300e-02 -1.23881042e-01 -9.49324369e-02 9.24456306e-03
      4.45887372e-02 0. 9.86915752e-02 -2.62517110e-02 7.49835819e-02
      5.15620923e-03 9.70872771e-03 -5.79295121e-02 -2.14330219e-02
      1.32291272e-01 7.51771554e-02 1.35369599e-01 2.43102331e-02
      -6.67968094e-02 -4.13589701e-02 3.32003273e-02 -1.66257489e-02
      2.37017144e-02 -5.78473322e-04 -4.77851331e-02 2.58727372e-02
      -3.58425230e-02 1.03910878e-01 -1.77344084e-02 4.62505855e-02
      -1.14935741e-01 -1.05925323e-02 4.05246392e-02 5.73601872e-02
      3.19201723e-02 8.27627331e-02 -1.27252890e-02 5.54103367e-02 0.
      3.87426838e-02 -4.52819653e-02 -1.07153282e-01 -4.84694578e-02
      4.52123098e-02 3.61609012e-02 1.00258738e-01 -1.91670246e-02
      -3.05850133e-02 6.94583431e-02 7.04597384e-02 9.26030651e-02
      5.26183173e-02 2.02450324e-02 1.24241291e-02 1.92310531e-02
      1.02965450e-02 3.45300115e-03 2.14888901e-02 2.69482005e-02
      -5.67816496e-02 -1.40044671e-02 -1.03126533e-01 5.30832149e-02
      3.98565978e-02 -2.57993601e-02 -6.65631704e-03 -2.26642452e-02
      -2.85076560e-03 6.09499365e-02 1.15652122e-01 0. -4.67546880e-02
      8.44267383e-03 -1.35003224e-01 3.77284549e-02 3.83022130e-02
      -4.57206741e-02 -1.45532200e-02 -4.43031378e-02 -4.24696803e-02
      -4.79369750e-03 1.45411408e-02 1.13990819e-02 1.09708877e-02
      9.02885944e-02 -1.06004037e-01 -4.08380590e-02 -1.08609432e-02
      1.19547062e-02 -2.99258865e-02 6.36396408e-02 -7.78878853e-02
      3.51271555e-02 -3.20166908e-02 -2.16996390e-02 -3.58880423e-02
      -1.91570114e-04 -1.26547394e-02 -3.19672897e-02 7.64422566e-02
      -1.14807166e-01 -5.58491275e-02 0. 9.51945558e-02 2.14058738e-02
      -9.53744650e-02 4.86228280e-02 5.13329618e-02 -1.44510537e-01
      -1.30717322e-01 -1.34857193e-01 -9.13066193e-02 9.47406814e-02
      6.43118992e-02 4.50658873e-02 -6.85052946e-02 -1.85706746e-02
      3.99605557e-03 2.79809870e-02 2.27237539e-03 1.66108951e-01
      3.06905098e-02 6.33968115e-02 -8.46708007e-03 -1.44241545e-02
      -1.07851356e-01 -9.88924131e-02 -5.25171012e-02 -4.61172238e-02
      5.79640456e-02 -9.93524417e-02 1.14272088e-01 -7.04342723e-02
      2.59064846e-02 0. 3.71226296e-02 -3.54778697e-03 -4.13462408e-02
      -1.88412536e-02 -1.52857915e-01 -2.86073446e-01 -1.93069696e-01
      -3.93091254e-02 -1.35757744e-01 1.03287466e-01 4.35309038e-02
      1.90375224e-02 -8.10732245e-02 -6.31288216e-02 3.41154076e-02
      1.33098915e-01 2.11815014e-02 1.87780678e-01 -5.91961443e-02
      4.70631495e-02 -9.62539949e-03 -5.47155254e-02 -2.55394429e-01
      -2.48379767e-01 -9.01311636e-02 -1.96107738e-02 3.35829183e-02
      -1.38729602e-01 7.84973055e-02 -1.72180533e-01 2.69530490e-02 0.
      1.21350333e-01 -7.95654058e-02 -4.59512956e-02 -1.37335300e-01
      -1.10826120e-01 -1.88128069e-01 -2.94398870e-02 -5.59958890e-02
      -5.46113886e-02 7.07116723e-02 9.73046124e-02 -3.97924818e-02
      6.27140887e-03 5.63946106e-02 -8.03442113e-03 -2.76199318e-02
      3.41174677e-02 -1.14007115e-01 -6.51348457e-02 -3.74095030e-02
      -9.39698890e-02 -1.13157637e-01 -1.59765229e-01 -2.35801026e-01
      -1.92468078e-03 -5.43698808e-03 -1.44341737e-01 -1.85634866e-01
      -3.89705179e-03 -1.37132332e-01 8.85331631e-02 0. 3.03191580e-02
      -2.58386862e-02 -5.23137152e-02 -1.38312846e-01 -1.90537468e-01
      -4.95827124e-02 6.67045861e-02 8.72085523e-03 8.39741901e-02
      9.11372155e-02 9.39545482e-02 -3.92083079e-02 8.16400442e-03
      2.53901929e-02 -2.34576743e-02 -1.35955960e-03 6.47360235e-02
      6.58971164e-03 2.66576447e-02 -1.49111096e-02 -7.33667836e-02
      -1.60418227e-01 -1.03055470e-01 -1.03516363e-01 6.97544962e-02
      9.54267010e-03 5.00804372e-02 -9.48093832e-02 -1.84251610e-02
      -4.60470431e-02 1.39991641e-01 0. 4.12496813e-02 -7.85158649e-02
      -2.96047032e-02 -6.53830990e-02 -2.22875848e-02 1.58659428e-01
      7.58420229e-02 -9.13524255e-02 -1.06573512e-03 -4.07382548e-02
      -8.65059439e-04 -9.26731974e-02 -6.35123625e-02 -6.47688434e-02
      9.79734585e-02 -8.72808471e-02 1.03703357e-01 2.11715773e-02
      -3.44070941e-02 -5.96199073e-02 -8.53819549e-02 -7.99175203e-02
      2.94368938e-02 6.76584151e-03 7.51224486e-03 -7.17529701e-03
      4.54663225e-02 -9.94921625e-02 -3.68668325e-02 -1.57136582e-02
      8.63366202e-02 0. 8.72361585e-02 -7.15347603e-02 -4.06994708e-02
      1.28981918e-01 -5.68970032e-02 6.47589117e-02 8.68636072e-02
      -1.09500468e-01 5.84397130e-02 1.27071396e-01 1.37085423e-01
      9.75707844e-02 -6.35599121e-02 2.78212074e-02 7.37511665e-02
      9.78574716e-03 6.09366521e-02 6.77857846e-02 1.56378120e-01
      9.12770107e-02 3.05968486e-02 9.47203301e-03 -6.91142753e-02
      -5.13046682e-02 4.64932136e-02 -1.18317634e-01 1.71900734e-01
      1.22322023e-01 1.07469581e-01 2.65963189e-03 9.08805653e-02 0.
      -6.35761097e-02 4.62552495e-02 -3.80797428e-04 1.09556587e-02
      -5.48038259e-02 1.12076160e-02 9.20725092e-02 1.55901443e-02
      -1.63319763e-02 4.53261994e-02 2.51953723e-03 -1.44029232e-02
      1.01079389e-01 7.03591853e-02 4.50810418e-02 -3.38323973e-02
      4.65617217e-02 7.83537049e-03 -6.11261614e-02 3.59451249e-02
      -1.37522640e-02 6.57688305e-02 2.63845944e-03 3.68431546e-02
      6.24480145e-03 2.71178000e-02 1.71621069e-02 -1.21914573e-01
      4.57119830e-02 7.93879032e-02 1.43663108e-01 0. -1.29552335e-01
      1.24508008e-01 -7.92392064e-03 -1.42662339e-02 -1.06903873e-01
      -1.03280947e-01 -4.94774915e-02 2.45447475e-02 -4.19391356e-02
      -2.75922678e-02 2.03064922e-02 2.28304099e-02 9.04198643e-03
      4.48542461e-03 9.68995765e-02 1.84524234e-03 7.55098043e-03
      4.62246798e-02 -7.49570876e-02 1.49050266e-01 6.18752316e-02
      -5.80645651e-02 -8.23554695e-02 -2.28554923e-02 -6.37843311e-02
      2.83510759e-02 5.16394116e-02 -1.37259677e-01 1.09333292e-01
      -9.83572528e-02 6.84434772e-02 0. -1.09644294e-01 -1.67279020e-02
      4.21527550e-02 2.09178403e-02 2.73962356e-02 -8.39829296e-02
      -4.95488159e-02 -8.39787796e-02 7.45594618e-04 4.54402901e-02
      4.82250042e-02 4.10301751e-03 5.58602102e-02 1.46324143e-01
      9.55856666e-02 6.29262552e-02 -3.17729334e-03 -1.55350044e-02
      1.26399072e-02 5.25889173e-02 4.19969447e-02 2.35977937e-02
      -4.85637337e-02 5.77887148e-02 2.44120397e-02 1.21704200e-02
      8.45244154e-02 -1.54257685e-01 1.42676845e-01 -8.64005014e-02
      1.86171755e-01 0. 1.20066971e-01 -6.51538223e-02 2.05944944e-02
      9.17874090e-03 -4.48809303e-02 -2.58752406e-01 -3.19606289e-02
      1.00906335e-01 3.27809267e-02 7.21006989e-02 5.82614988e-02
      -3.30391601e-02 4.39181440e-02 9.56701934e-02 1.53806090e-01
      -3.38899530e-02 1.32781528e-02 1.02778859e-01 9.10773799e-02
      -1.70889637e-03 -1.97164156e-02 3.73505540e-02 -7.59190693e-02
      -1.29744142e-01 -1.00054637e-01 1.42594203e-01 1.15133360e-01
      -8.74778107e-02 1.96985558e-01 -1.31707773e-01 1.89860165e-01 0.
      1.25800207e-01 5.20581193e-02 6.89940713e-03 -1.74237639e-02
      -1.97126478e-01 -1.19595163e-01 -2.16155872e-02 3.91984507e-02
      -8.20619464e-02 6.81520998e-02 7.41116926e-02 -9.01640765e-03
      -6.23969026e-02 9.94248316e-02 1.35006741e-01 4.14390191e-02
      -4.89141382e-02 1.28709272e-01 1.23254269e-01 9.02868807e-02
      1.84035506e-02 -1.32388473e-01 -2.44955998e-02 -4.34991345e-03
      3.97590920e-02 1.82027016e-02 3.43833901e-02 -1.23565525e-01
      1.68760166e-01 -1.20526798e-01 1.75575063e-01 0. 3.45759615e-02
      -2.21440736e-02 -2.03639213e-02 -4.18976182e-03 -5.04496768e-02
      2.02482892e-03 -6.60891011e-02 -5.17891906e-02 4.51639593e-02
      9.72172394e-02 -4.32085618e-02 2.34052613e-02 1.26254380e-01
      6.10540546e-02 6.33984506e-02 9.45016891e-02 3.37711163e-03
      7.98922256e-02 8.29543397e-02 1.55540695e-02 3.17962952e-02
      3.68231647e-02 5.46185020e-03 -1.57646015e-02 2.34851288e-03
      -3.65905762e-02 7.40387365e-02 -1.07457973e-01 1.59996077e-01
      -7.50662163e-02 1.98186308e-01 0. -1.86280794e-02 -1.29140615e-01
      -2.34620646e-02 -4.08402830e-02 -9.66322199e-02 3.17371413e-02
      -8.11129622e-03 3.61654162e-03 4.21780236e-02 -7.83350319e-02
      -1.93608180e-02 2.18308438e-02 2.37714648e-02 5.92815317e-02
      -7.68010393e-02 -3.94618884e-02 2.79027242e-02 9.68267173e-02
      -1.30139306e-01 -6.78595826e-02 -3.02234571e-02 -4.50966060e-02
      -8.40196759e-02 -9.43717435e-02 -6.99774697e-02 -2.11662296e-02
      9.62807611e-02 -2.03750983e-01 7.75958002e-02 -1.09082282e-01
      1.29819065e-01 0. 2.70909276e-02 5.92706390e-02 3.43895443e-02
      1.63063556e-01 6.90179272e-03 4.26146351e-02 9.64083970e-02
      -4.83467169e-02 -1.51414992e-02 -3.84354703e-02 5.62687516e-02
      1.99576449e-02 -3.32494965e-03 8.81467089e-02 3.36695462e-02
      4.19067889e-02 1.28216818e-01 4.95218001e-02 -8.19255412e-02
      1.18450597e-01 3.32627282e-03 8.03885460e-02 -2.71866098e-02
      -3.10166236e-02 3.26842740e-02 -4.86142784e-02 7.91914389e-03
      1.06531955e-01 2.64742106e-01 -1.41623482e-01 1.20212555e-01 0.
      -2.76757386e-02 -7.57540809e-03 6.55938163e-02 -5.52218482e-02
      -1.31720584e-02 -9.85897332e-03 6.78551495e-02 -3.13415378e-02
      7.37518957e-03 1.04929775e-01 5.09429313e-02 -5.78050949e-02
      9.38081220e-02 1.55471444e-01 5.59986383e-02 5.51358908e-02
      1.37193710e-01 5.11120744e-02 -3.36596407e-02 2.51765102e-02
      -1.92319863e-02 -4.84357849e-02 3.00901178e-02 -7.22356290e-02
      -2.53016427e-02 1.55824982e-02 3.42358500e-02 4.44421470e-02
      -1.20498873e-01 3.19984049e-01 5.90726137e-02 0. -6.11769781e-02
      8.52061957e-02 6.93761855e-02 -8.89217257e-02 3.75495218e-02
      9.44207236e-02 -4.11529131e-02 -4.40266170e-02 -4.62528020e-02
      3.67038213e-02 -2.21600570e-03 3.12921242e-03 -1.69543270e-02
      2.14945171e-02 2.26553008e-02 1.83969643e-02 -9.76339448e-03
      1.02497645e-01 -3.92379910e-02 3.66355292e-02 9.57623422e-02
      -1.24003872e-01 3.13853957e-02 -1.58023816e-02 -1.33940428e-01
      -1.12016074e-01 7.87237484e-04 6.38655126e-02 -6.69237003e-02
      1.05114028e-01 -1.67487897e-02 0. -8.00562277e-02 8.49910602e-02
      -3.33232060e-02 1.68767255e-02 1.53658509e-01 6.26914501e-02
      6.67847246e-02 -7.73441866e-02 8.14499483e-02 -1.03468113e-02
      1.56106781e-02 4.81180400e-02 -5.92541061e-02 3.99448238e-02
      3.58415209e-02 6.17612749e-02 2.54512653e-02 7.61950165e-02
      -3.21146920e-02 5.13344221e-02 -3.22541296e-02 -8.12305659e-02
      -1.80996663e-03 -1.02121204e-01 2.64348648e-02 -5.19115217e-02
      1.32096350e-01 1.12406023e-01 -2.88708787e-02 1.30502433e-01
      2.59288289e-02 0. 6.67915121e-02 8.60954821e-02 -2.97806785e-02
      -9.95953381e-03 1.80752873e-01 -2.11539213e-02 2.45630313e-02
      -1.00719251e-01 -3.41260768e-02 -3.37334420e-03 -7.39383511e-03
      6.84074685e-02 6.12437390e-02 1.19732834e-01 1.28211081e-03
      6.06635993e-04 -5.32831289e-02 1.41293947e-02 -4.60552387e-02
      6.62606582e-02 3.63350064e-02 -2.34114602e-02 1.01937495e-01
      -2.45751385e-02 -4.61150557e-02 -1.25185803e-01 -6.54489454e-03
      9.96890962e-02 -2.63335407e-02 1.22988813e-01 -2.48418227e-02 0.
      -6.30700588e-02 -4.73348703e-03 -1.65775910e-01 8.65119789e-03
      1.09472834e-01 1.32877573e-01 7.54867718e-02 1.55274561e-02
      4.43910509e-02 5.92928901e-02 2.89230645e-02 2.30524018e-02
      1.32961420e-03 5.06315455e-02 -1.53433727e-02 3.98525111e-02
      5.84950438e-03 4.44806404e-02 -9.49024335e-02 -6.03251643e-02
      -1.55809522e-01 -7.99390525e-02 1.91660915e-02 8.17464814e-02
      8.29752162e-02 1.35534555e-02 7.46852160e-02 1.11289948e-01
      -7.76964938e-03 8.31315964e-02 -2.38341000e-03 0. -7.50006130e-03
      4.11743484e-02 -1.41860083e-01 8.96839201e-02 6.97848573e-02
      4.04418074e-02 8.78408644e-03 3.28003392e-02 7.28605837e-02
      -4.17603366e-02 3.58856805e-02 3.83449011e-02 -3.16058919e-02
      1.43924788e-01 2.96605490e-02 -5.41577898e-02 -6.84072301e-02
      8.04462731e-02 -5.29561080e-02 5.74247576e-02 -6.30704388e-02
      1.17208324e-02 4.89641838e-02 -4.09759730e-02 -4.70491797e-02
      -3.49307209e-02 1.02681637e-01 1.24142796e-01 -5.21657243e-02
      1.08374611e-01 -2.07824223e-02 0. 9.22880098e-02 1.50856227e-02
      5.45538738e-02 6.68000281e-02 -1.08237360e-02 -2.17353962e-02
      -7.92744979e-02 7.99973309e-02 1.32337436e-01 -8.76641124e-02
      7.31116086e-02 -1.05465325e-02 -5.64459004e-02 7.74450153e-02
      -4.78034839e-02 -2.29037553e-02 1.08095836e-02 -2.13489085e-02
      -8.05930719e-02 7.60892555e-02 -6.49951724e-03 -1.09481782e-01
      -1.92766096e-02 -8.38232487e-02 -1.09882280e-01 8.48801807e-02
      6.33365139e-02 5.84065393e-02 -7.34215602e-02 1.58335939e-01
      -2.83548534e-02 0. 2.42060218e-02 -1.77692506e-03 8.50162469e-03
      3.07487026e-02 -1.98026784e-02 8.29023123e-02 -4.77587208e-02
      -3.47235985e-02 9.58326384e-02 6.98906854e-02 1.51057197e-02
      1.97296292e-02 4.60865814e-03 1.74102560e-01 -2.77982093e-02
      1.14592604e-01 2.98571046e-02 8.70215595e-02 -7.25829527e-02
      3.28163691e-02 2.69230977e-02 -8.67687091e-02 9.31313261e-02
      1.13384109e-02 -3.63827273e-02 -7.86695257e-02 7.07381219e-02
      2.75323749e-01 9.59954932e-02 2.80589145e-02 -1.04640141e-01 0.</_></support_vectors>
  <decision_functions>
    <_>
      <sv_count>1</sv_count>
      <rho>-1.3500152138645101e+00</rho>
      <alpha>
        1.</alpha>
      <index>
        0</index></_></decision_functions></my_svm>
</opencv_storage>
