<?xml version="1.0"?>
<opencv_storage>
<my_svm type_id="opencv-ml-svm">
  <svm_type>C_SVC</svm_type>
  <kernel><type>LINEAR</type></kernel>
  <C>5.0000000000000000e-01</C>
  <term_criteria><epsilon>2.2204460492503131e-16</epsilon>
    <iterations>500000</iterations></term_criteria>
  <var_all>4096</var_all>
  <var_count>4096</var_count>
  <class_count>2</class_count>
  <class_labels type_id="opencv-matrix">
    <rows>1</rows>
    <cols>2</cols>
    <dt>i</dt>
    <data>
      -1 1</data></class_labels>
  <sv_total>1</sv_total>
  <support_vectors>
    <_>
      -1.66375309e-01 2.10764781e-01 6.49612546e-02 -1.40141966e-02
      1.27882168e-01 7.89164379e-02 -6.38626367e-02 3.32119912e-02
      -9.12935510e-02 5.19838668e-02 5.99973015e-02 9.68159065e-02
      -6.46195784e-02 1.11632012e-01 -1.80060025e-02 5.09938896e-02
      1.09759472e-01 1.72230020e-01 -1.06106155e-01 1.51204094e-01
      8.42787325e-02 -7.95342550e-02 2.90202126e-02 -5.38457856e-02
      -3.49043608e-02 5.76469377e-02 1.44398483e-02 -1.56009391e-01
      3.77017744e-02 9.10394490e-02 3.81279111e-01 0. -7.84497485e-02
      2.91808285e-02 -9.59795713e-02 -5.97877987e-02 -1.45246819e-01
      -1.05374483e-02 7.72169828e-02 -3.23258191e-02 1.57153115e-01
      -4.03355397e-02 3.97514403e-02 1.08670801e-01 1.06122017e-01
      5.82037456e-02 3.23368013e-02 -9.38235372e-02 -7.91458264e-02
      1.12840392e-01 -1.04745805e-01 7.62384459e-02 -6.91184029e-02
      1.91822164e-02 -6.73020184e-02 -3.79402265e-02 -4.73042438e-03
      -7.09385350e-02 7.82501400e-02 -6.11223876e-02 6.70057312e-02
      -8.42259228e-02 1.18809447e-01 0. -9.19725150e-02 6.56029806e-02
      9.63127241e-02 -3.79782878e-02 -4.52373829e-03 -1.34213403e-01
      -3.93672325e-02 -8.58695880e-02 8.91419426e-02 4.50906483e-03
      7.08404407e-02 7.24188089e-02 1.03953928e-02 -2.36827917e-02
      2.60011468e-04 1.00791797e-01 -1.96979055e-03 7.20086619e-02
      -1.07600182e-01 1.17153734e-01 7.68858194e-02 -6.11614473e-02
      -6.75308257e-02 -1.42137319e-01 3.90951075e-02 -1.23869449e-01
      7.10892454e-02 -1.35879451e-02 -1.98637345e-03 -4.66414578e-02
      1.38914704e-01 0. -2.41954073e-01 8.62396508e-02 6.82874098e-02
      -4.06918041e-02 2.39583448e-01 5.67643195e-02 8.97262320e-02
      -7.82407597e-02 2.22135987e-02 -1.49687156e-01 1.33738399e-01
      6.78947493e-02 -7.76009411e-02 1.56888310e-02 -1.04320981e-01
      8.05981904e-02 1.76835209e-01 1.22124262e-01 -2.43445754e-01
      1.41329363e-01 9.83823091e-02 -9.89715308e-02 1.23851551e-02
      -1.22196026e-01 1.23994783e-01 4.37020101e-02 2.90974528e-02
      1.87859999e-03 1.73617557e-01 -1.63541622e-02 6.10954203e-02 0.
      -2.92628002e-03 8.03065002e-02 -7.94093218e-03 -1.37147410e-02
      1.57906145e-01 4.76804152e-02 1.76215529e-01 3.11901271e-02
      1.58104748e-01 -6.11049198e-02 -5.45092262e-02 1.29031464e-01
      5.43099232e-02 -3.94182242e-02 -6.07010722e-02 4.18511853e-02
      2.47636363e-02 1.27042100e-01 1.44984452e-02 -5.66103216e-03
      7.91519508e-02 6.96446970e-02 -1.10790916e-02 -2.07169484e-02
      1.12903796e-01 -2.65184641e-02 1.49532855e-01 3.93371657e-02
      1.47601247e-01 8.79676733e-03 1.75768733e-01 0. -2.72614602e-02
      5.15637100e-02 -7.88802207e-02 -5.55408224e-02 8.05999860e-02
      -1.39302760e-02 3.47099937e-02 1.07175730e-01 9.39328298e-02
      -8.36090222e-02 -9.61264521e-02 2.05528620e-03 6.39308095e-02
      3.58228497e-02 -6.91215321e-02 -6.23309650e-02 3.07599958e-02
      1.76413387e-01 -1.71779767e-01 -6.27189353e-02 -1.35144055e-01
      3.03817187e-02 7.60241076e-02 -7.53898770e-02 -5.51091656e-02
      1.05287872e-01 2.09977642e-01 -2.93832682e-02 1.38378039e-01
      -1.15251644e-02 -7.82634504e-03 0. 1.86302271e-02 1.22359805e-01
      7.38271177e-02 7.80021623e-02 1.01110861e-01 -9.18499380e-02
      5.64415641e-02 -4.17690352e-02 -5.11735193e-02 -1.75971165e-01
      2.50278953e-02 1.27479687e-01 -9.38904285e-02 1.46011449e-02
      -1.29067615e-01 4.79380321e-03 6.34331256e-02 8.51270705e-02
      -1.00624926e-01 4.24192660e-02 1.29462168e-01 1.72583461e-02
      3.08208708e-02 -3.27641338e-01 6.67076707e-02 -3.76319215e-02
      -1.25738373e-03 -8.62896293e-02 1.23078629e-01 -8.69965833e-03
      6.01156391e-02 0. 1.88798066e-02 1.58428192e-01 4.04906981e-02
      -4.09842022e-02 2.92569607e-01 -6.34661093e-02 7.05750510e-02
      1.60108104e-01 3.99058163e-02 -1.64236829e-01 2.49975510e-02
      4.17219661e-02 -2.91469675e-02 -1.24958470e-01 -7.05321729e-02
      -4.03813384e-02 5.70564717e-02 2.43868411e-01 -1.24080822e-01
      1.12266742e-01 -4.97593991e-02 -8.42665732e-02 -3.05634807e-03
      -1.76069975e-01 -3.50878760e-02 1.06333889e-01 4.40175757e-02
      -1.03845168e-02 3.51958126e-01 -8.33964422e-02 3.16846073e-02 0.
      2.90927030e-02 7.08317161e-02 5.13337851e-02 -2.86072642e-02
      5.34171388e-02 -1.95039198e-01 -5.46171889e-02 1.65885463e-02
      -6.30329847e-02 8.94313958e-03 -5.17836865e-03 1.39377518e-02
      2.22189855e-02 -2.13962421e-02 -4.74918373e-02 -1.04518933e-02
      9.77027863e-02 -5.08066006e-02 -3.17036808e-02 2.97887661e-02
      6.46135285e-02 -3.49415839e-03 -9.32520181e-02 -2.99305409e-01
      -2.21086144e-02 5.59678562e-02 -1.69729218e-01 -9.77168679e-02
      -1.77007064e-01 1.06970295e-01 1.14695221e-01 0. -1.25500858e-01
      -5.40611446e-02 -1.50765985e-01 -3.42571735e-02 2.34134635e-03
      -5.62265553e-02 4.32199501e-02 5.84947094e-02 3.88298556e-02
      -1.88438725e-02 -1.74969546e-02 1.76209603e-02 -3.48675326e-02
      7.28337169e-02 2.00891942e-01 -4.36274670e-02 -8.99859145e-02
      -1.13390246e-02 -1.51849955e-01 -3.09701078e-02 -5.60837202e-02
      -4.45913337e-02 -1.26644615e-02 -5.70369884e-02 -4.29967120e-02
      -2.77587660e-02 -7.53426999e-02 9.58084092e-02 -1.23582534e-01
      -1.55251268e-02 -5.22723906e-02 0. 6.58620847e-05 3.37592438e-02
      -5.59717976e-02 -9.42230038e-03 4.42187153e-02 -7.10296407e-02
      3.76090556e-02 1.39995813e-01 1.60029501e-01 -7.75660202e-02
      -8.17964599e-02 9.90209728e-03 -3.12261414e-02 4.08241153e-02
      2.02205367e-02 -1.47409330e-03 1.26831651e-01 -2.00348925e-02
      -1.22161500e-01 -5.19247390e-02 2.43611466e-02 -4.54639271e-03
      -4.99416962e-02 -1.28427148e-01 2.88883671e-02 2.34894559e-01
      5.99845126e-02 1.03618681e-01 -1.07905716e-01 1.38047218e-01
      -8.86972249e-03 0. 4.56423685e-02 -2.27852687e-02 2.68935747e-02
      -3.32924351e-02 -2.81192176e-03 -1.37660457e-02 4.41369303e-02
      7.49887526e-02 3.50108108e-04 -1.04429878e-01 1.93548784e-01
      -1.83213968e-02 -1.74000368e-01 -8.19777697e-02 -2.02555396e-02
      9.91925015e-04 1.32865503e-01 1.63894951e-01 1.82763748e-02
      1.46044210e-01 -2.62002833e-02 -2.12719753e-01 -1.63106173e-01
      -2.72436202e-01 3.20085809e-02 2.54305422e-01 8.88533518e-02
      1.50498703e-01 -5.28316125e-02 7.27227405e-02 -7.06075430e-02 0.
      1.61535237e-02 9.86911654e-02 1.10375643e-01 3.23800603e-03
      -4.08533737e-02 -4.85250615e-02 -1.27875760e-01 -8.84735882e-02
      6.54590949e-02 1.35231670e-03 1.57801524e-01 8.43181834e-02
      -2.85792015e-02 -5.82243279e-02 -1.16018876e-01 -1.45814985e-01
      -5.78080341e-02 9.06354710e-02 -4.90097748e-03 1.85959205e-01
      2.32787475e-01 -2.63984017e-02 -9.25425962e-02 -3.17874342e-01
      -2.57493913e-01 -1.47586823e-01 9.39614624e-02 4.66417521e-02
      -8.51983055e-02 1.19776748e-01 -1.20887734e-01 0. -1.30597278e-01
      1.14547141e-01 8.36598128e-02 6.35060156e-03 1.49860773e-02
      -1.34840922e-03 2.85413936e-02 1.95539668e-02 1.15232304e-01
      5.74278347e-02 3.86573561e-02 -3.91441472e-02 -7.12729320e-02
      1.25469670e-01 1.56637691e-02 -1.11118227e-01 -6.16083778e-02
      -3.08154058e-02 -7.61506855e-02 7.79265314e-02 6.51766136e-02
      -6.57326356e-02 8.96242782e-02 -1.06473304e-01 -6.72878325e-02
      1.24632679e-02 3.98070365e-02 9.81492102e-02 -5.52473813e-02
      1.32981881e-01 -9.37728509e-02 0. -1.63208332e-03 8.28799531e-02
      4.16897349e-02 9.01625305e-02 5.78867691e-03 -1.29356757e-01
      -2.18764599e-03 -8.09974670e-02 -7.60865957e-02 -1.29206583e-01
      -1.90916266e-02 -3.38926539e-02 -2.53778696e-02 6.53180107e-02
      5.93581162e-02 2.30884850e-02 7.86688849e-02 4.16128002e-02
      -2.62982808e-02 -7.04864264e-02 -4.47421484e-02 -2.89429934e-03
      -6.42206147e-02 -1.81216553e-01 -6.43945765e-04 2.71593989e-03
      -4.10903394e-02 5.80658577e-02 -4.01576571e-02 7.91924745e-02
      -1.01466797e-01 0. -8.14627707e-02 2.97502689e-02 -2.50058342e-02
      -1.41521916e-01 5.29452600e-02 -1.30773038e-01 -8.21494590e-03
      3.74547094e-02 -3.08322664e-02 2.36439388e-02 -8.68747830e-02
      -2.83614220e-03 1.24843093e-02 7.89842978e-02 1.25606582e-01
      -2.86842510e-02 2.11411212e-02 -1.90893523e-02 -2.08255346e-03
      -1.42125368e-01 -7.79128000e-02 -1.12153284e-01 4.02375171e-03
      -2.47617513e-01 -1.20829372e-02 6.21115230e-02 -2.62797959e-02
      6.26285151e-02 2.47525889e-02 -1.23646436e-02 -1.56702876e-01 0.
      -1.91457257e-01 -3.19824778e-02 9.46076645e-04 -1.65716574e-01
      3.49548529e-03 -3.42992105e-04 1.79120302e-01 3.56174111e-02
      -2.13955659e-02 3.38555314e-02 1.27498895e-01 8.01874772e-02
      -1.75145734e-02 1.31442875e-01 1.34496063e-01 -8.60855877e-02
      -8.13667253e-02 -2.63891164e-02 -6.60232827e-02 7.67069533e-02
      9.31734443e-02 -9.48879868e-02 -6.12684339e-02 -1.85702275e-02
      -5.55638559e-02 3.97490896e-02 -9.36673582e-02 -2.50023305e-02
      -1.98789984e-01 1.68421447e-01 1.04589365e-01 0. -3.19774309e-03
      5.86925745e-02 -1.24047557e-02 -3.88788283e-02 -6.40394911e-02
      -5.65277897e-02 5.73842302e-02 -2.40653791e-02 -3.95723358e-02
      -2.61626928e-03 -1.29726455e-02 1.27767846e-01 1.15017835e-02
      3.57527062e-02 4.70258780e-02 -1.24993876e-01 2.39811838e-02
      1.22736342e-01 -5.75114265e-02 6.17026575e-02 1.00330859e-01
      2.31868904e-02 -9.97542292e-02 -1.12312764e-01 -7.46836141e-02
      -2.17849389e-03 2.82947030e-02 5.46294674e-02 -9.62548051e-03
      4.37357612e-02 -3.89724150e-02 0. -1.03810996e-01 -2.45250482e-02
      1.31068110e-01 -5.66591835e-03 2.54345126e-02 -2.37044226e-03
      7.01116472e-02 7.77522521e-03 -3.56454845e-03 -7.79993236e-02
      -7.10806772e-02 -1.22569781e-02 -1.25404567e-01 -1.31765604e-01
      1.81068361e-01 4.23174612e-02 8.94187540e-02 2.10056845e-02
      -2.31891796e-01 -5.07357344e-02 1.14297457e-01 -6.10817187e-02
      4.67285216e-02 4.82656509e-02 1.17967993e-01 1.19628310e-01
      -3.07840593e-02 2.01059831e-03 -6.68585002e-02 5.11234216e-02
      1.83233395e-02 0. 3.97105627e-02 -2.31182754e-01 -2.79743206e-02
      -2.48038590e-01 -8.74319952e-03 8.25156048e-02 -4.10838053e-02
      -1.16521880e-01 -1.24390535e-01 -5.12469523e-02 -2.03215346e-01
      -1.98576137e-01 -9.23895985e-02 -6.30794931e-03 4.10445184e-02
      5.95896654e-02 -6.35474026e-02 -2.03214679e-03 -3.28941971e-01
      -3.01321149e-01 -2.76916116e-01 -3.10099840e-01 -8.15295875e-02
      -8.53869319e-02 2.83211917e-02 -7.65074790e-02 -1.45490155e-01
      -1.20345958e-01 -1.33067787e-01 -1.10525265e-01 -1.98153749e-01 0.
      -1.86880335e-01 -1.40612751e-01 -6.81693316e-04 -1.39796913e-01
      -3.08790244e-02 -1.08537246e-02 -1.73486888e-01 -1.15009651e-01
      -2.08803177e-01 -3.66260856e-02 -2.30891779e-02 -7.25612268e-02
      6.53963238e-02 4.30674814e-02 -4.78625335e-02 -1.02833398e-01
      -9.35475752e-02 -1.79347321e-01 -3.80738199e-01 -1.22089267e-01
      -4.11937162e-02 2.16662809e-02 -1.70535117e-01 -1.19756609e-01
      -2.15952337e-01 -2.18339413e-01 -2.80591220e-01 -1.68950692e-01
      -2.54506588e-01 -1.27616599e-01 -1.34533927e-01 0. -9.79852006e-02
      -2.31985934e-02 8.80947113e-02 5.24935648e-02 4.04093377e-02
      1.63553566e-01 1.38914704e-01 1.51821315e-01 -1.76957212e-02
      -1.03816643e-01 6.62511140e-02 -5.84367290e-02 -4.91209403e-02
      1.39380157e-01 2.73285899e-04 -1.16954461e-01 -9.87512842e-02
      -1.20917279e-02 -1.72791347e-01 2.45499462e-02 9.43786129e-02
      5.28087057e-02 9.95486751e-02 7.70216435e-02 4.48851064e-02
      4.27870192e-02 -3.96969318e-02 5.27790375e-02 9.79524478e-03
      7.35622868e-02 -1.20921582e-02 0. -5.53174242e-02 -3.36061679e-02
      3.46414410e-02 8.46884698e-02 7.81543031e-02 -1.73786525e-02
      -4.75938320e-02 8.99552479e-02 1.90775730e-02 2.92467140e-02
      1.14211299e-01 -5.52718267e-02 -1.29047707e-01 -1.48983911e-01
      2.57262364e-02 5.71995974e-02 8.70781988e-02 2.60743462e-02
      -1.28938286e-02 5.90458475e-02 -1.28613517e-01 -6.56441599e-02
      -1.34380639e-01 -1.37484908e-01 -3.71445864e-02 1.55428350e-01
      8.17133039e-02 9.42371115e-02 -1.42050246e-02 9.75842215e-03
      -1.49067258e-02 0. -9.49223861e-02 -5.11209220e-02 -2.68680751e-02
      6.89179152e-02 4.38915081e-02 1.46156326e-01 -4.26580757e-02
      7.35127553e-02 -3.98521796e-02 -1.64598376e-02 -6.96867853e-02
      -1.38572566e-02 -5.33449091e-02 9.01852921e-02 -2.35729665e-03
      -6.57355636e-02 6.20183870e-02 9.13406909e-02 4.93913442e-02
      -2.21023317e-02 1.61865645e-03 -6.45241588e-02 3.23784612e-02
      -1.13153964e-01 -1.39986714e-02 1.42061755e-01 7.13986829e-02
      1.56054333e-01 1.07589329e-03 2.80687418e-02 -1.38455153e-01 0.
      -1.89160123e-01 3.09618190e-02 4.63735312e-02 2.18084473e-02
      3.63293961e-02 5.86310141e-02 -2.32906789e-02 -2.01781206e-02
      -7.16341212e-02 1.16927318e-01 7.83494711e-02 5.96329905e-02
      1.04313418e-01 4.56073135e-02 9.83237699e-02 -8.08272958e-02
      -3.38225067e-02 4.41516005e-02 -6.16897643e-02 1.61444128e-01
      3.97145748e-02 1.16787711e-02 -8.05155486e-02 -2.23390665e-02
      -1.16004206e-01 4.07723449e-02 -4.40298654e-02 -1.78517234e-02
      -1.49818212e-01 2.03654632e-01 1.16040453e-01 0. -6.99535236e-02
      3.28023694e-02 -7.12167323e-02 5.16502857e-02 -8.59434542e-04
      -1.72574639e-01 -2.26421325e-04 5.25155701e-02 1.16445022e-02
      1.36420965e-01 4.81171161e-02 4.19408903e-02 2.02627540e-01
      3.90335079e-03 5.02384342e-02 4.13049385e-02 -9.87211913e-02
      -2.94436719e-02 1.86736137e-02 -8.67769402e-03 -3.84512581e-02
      2.04547986e-01 -7.05787390e-02 -1.73911810e-01 8.48553237e-03
      -3.03640869e-02 -1.06733434e-01 5.78056239e-02 -3.11389510e-02
      8.30481797e-02 -1.21252518e-03 0. 9.17280614e-02 -2.06198972e-02
      -5.20506576e-02 -3.42250429e-02 -1.29508436e-01 -1.66219875e-01
      2.47610901e-02 -1.64177150e-01 -9.73174274e-02 6.95222169e-02
      1.13403052e-01 -9.94394794e-02 1.23153916e-02 -2.62422077e-02
      9.94254425e-02 1.61964908e-01 4.61919717e-02 2.39516068e-02
      -1.42400274e-02 -6.72173351e-02 -2.13482618e-01 -4.34381701e-02
      -1.74338594e-01 -7.16928467e-02 9.53081027e-02 -9.99301523e-02
      -7.16950968e-02 -3.18844579e-02 -5.77123985e-02 5.16421013e-02
      -3.11225113e-02 0. 8.35342854e-02 -4.72483411e-02 -1.57968760e-01
      -2.62516022e-01 -2.24658307e-02 1.10600041e-02 -3.01671065e-02
      -7.90910646e-02 -8.11336637e-02 1.91145211e-01 2.14673835e-03
      -1.42169312e-01 -1.68269560e-01 6.85298368e-02 1.52318284e-01
      -5.31211905e-02 -1.39072448e-01 -8.67542066e-03 1.03622697e-01
      -6.54218271e-02 -2.63448417e-01 -2.66619205e-01 -1.71475392e-02
      -3.63988951e-02 -1.21780932e-01 -2.21744806e-01 -1.08714685e-01
      -2.24273086e-01 -3.34876925e-02 -2.25388985e-02 -4.17439975e-02 0.
      2.64810026e-01 -1.17039159e-01 -1.09910391e-01 1.05414027e-02
      -2.21509580e-02 -1.45117119e-01 -1.74848497e-01 -1.50893107e-01
      -1.54396351e-02 1.03190407e-01 -5.71060628e-02 -7.59029388e-02
      -7.87869841e-02 1.02029674e-01 1.31981626e-01 -4.85147210e-03
      -1.96128070e-01 -9.00051966e-02 8.46790597e-02 -1.81136712e-01
      -1.68421373e-01 -8.27140138e-02 -7.89711401e-02 -1.18906513e-01
      -1.69456020e-01 -3.23062688e-01 -9.94817019e-02 -8.68062600e-02
      -2.44258773e-02 -2.09003940e-01 2.53157746e-02 0. 2.77665347e-01
      -1.02527402e-01 -1.03934750e-01 -9.63423494e-03 -2.24510618e-02
      -1.65155560e-01 -5.08957393e-02 -9.34612080e-02 -1.68399682e-04
      1.25509158e-01 2.72544455e-02 5.76125011e-02 8.02590325e-02
      1.47649990e-02 2.23317686e-02 -3.20842564e-02 -1.75313413e-01
      8.81218612e-02 9.82005596e-02 -4.45680805e-02 -4.89348285e-02
      2.39731260e-02 -4.71891351e-02 -1.76363841e-01 -7.78353214e-02
      -2.82800615e-01 -2.09664851e-02 -6.76903315e-03 -4.01718207e-02
      -2.14700457e-02 3.91336903e-02 0. 1.10424303e-01 6.94787409e-03
      4.12585065e-02 -1.01860844e-01 -5.81996143e-02 8.57519880e-02
      7.03749806e-02 -1.06448777e-01 3.61432061e-02 3.06258146e-02
      -1.10656982e-02 -1.38052151e-01 -1.07481610e-02 1.06514148e-01
      7.02741295e-02 3.11949775e-02 1.80212557e-02 2.60352381e-02
      -1.48398860e-03 -3.30741741e-02 -6.79600090e-02 -8.15658867e-02
      -8.75568315e-02 -6.08989224e-02 8.89279395e-02 -5.95707558e-02
      -7.82000273e-02 5.88195920e-02 5.42231351e-02 3.99916386e-03
      -1.93719510e-02 0. -3.95210385e-02 -9.90450308e-02 1.80469546e-02
      -9.17658657e-02 -9.93172750e-02 -9.24205408e-02 9.41453874e-02
      -2.14784741e-02 2.72426754e-02 -1.00412391e-01 3.53661738e-02
      7.91376382e-02 -3.66621390e-02 7.36500695e-02 1.23928770e-01
      4.47364412e-02 -1.66140648e-03 7.67078111e-03 4.19834778e-02
      3.21331271e-03 1.06787235e-01 -1.72882020e-01 -1.22434735e-01
      -1.74259678e-01 4.79325578e-02 6.22347975e-03 7.66696706e-02
      6.21422380e-02 3.72192264e-02 -4.67649139e-02 -8.95350948e-02 0.
      1.44010978e-02 6.43038750e-02 5.18019423e-02 -8.28386284e-03
      -4.33095805e-02 -6.76393732e-02 -8.91498178e-02 -7.88802803e-02
      -7.03758746e-02 5.86603805e-02 -8.13665092e-02 -1.56698719e-01
      5.48317581e-02 2.34048124e-02 6.94589764e-02 5.59071116e-02
      -2.09796173e-03 -7.93816801e-03 -5.78009291e-03 1.94157157e-02
      -1.07991770e-01 7.30033498e-03 3.65627594e-02 -5.00043184e-02
      2.01927423e-02 -2.05512587e-02 -2.20798068e-02 -2.04352230e-01
      -5.39173745e-02 -1.00401957e-02 1.67915672e-01 0. -3.36638256e-03
      -1.47662805e-02 -6.91324249e-02 2.67300941e-02 -8.73204768e-02
      -1.34446785e-01 -3.24004181e-02 6.55357167e-02 1.08333841e-01
      5.83191514e-02 1.06818050e-01 -9.39689726e-02 -3.28780934e-02
      1.43433675e-01 8.28769058e-02 -5.71408086e-02 -7.53602758e-02
      -7.62705952e-02 -2.56877393e-02 6.48551881e-02 -1.62626639e-01
      2.62040086e-02 6.10745745e-03 -1.31510058e-02 1.32122440e-02
      -1.67754181e-02 -8.13138578e-03 4.22170460e-02 3.59351449e-02
      -1.67665288e-01 4.94421944e-02 0. 7.90357664e-02 -1.40671030e-01
      -1.34851754e-01 4.80673350e-02 2.90386826e-02 1.16969422e-02
      1.58937156e-01 2.55465619e-02 9.80725437e-02 1.24083869e-01
      -1.38255373e-01 -2.69023478e-01 -3.24609280e-02 1.78005189e-01
      -2.48023011e-02 1.19770477e-02 5.87883927e-02 1.21649578e-01
      -1.00235872e-01 -2.15402454e-01 -4.05849576e-01 3.84078696e-02
      1.83562666e-01 9.55761150e-02 1.71825171e-01 1.00173846e-01
      2.24367812e-01 -4.95569035e-02 5.08147590e-02 2.47062817e-02
      7.05946982e-02 0. 1.18851744e-01 -7.69407023e-03 -1.65761471e-01
      -6.64016157e-02 9.50550660e-02 8.14067200e-02 5.13564050e-02
      8.88657048e-02 1.89105630e-01 2.64952421e-01 -5.59738725e-02
      2.14812299e-03 -1.48947705e-02 8.90451968e-02 -6.86371978e-03
      -4.89554293e-02 -4.36235480e-02 -1.55091751e-04 1.80032104e-01
      4.40801531e-02 -1.04141027e-01 -1.01657391e-01 1.50554299e-01
      5.62064461e-02 1.93046257e-02 3.31265852e-02 1.88196003e-01
      -8.76272917e-02 1.32975101e-01 6.11514747e-02 1.62417173e-01 0.
      3.54965627e-01 2.42571518e-01 2.79600415e-02 6.43853769e-02
      5.52003160e-02 5.43741435e-02 -2.60281749e-02 -1.62174881e-01
      -1.02224320e-01 1.62335411e-01 6.08766777e-03 3.73350427e-04
      5.09709679e-02 8.00089091e-02 6.49412200e-02 9.63259302e-03
      -1.74918309e-01 -2.06573695e-01 2.19796896e-01 1.49955273e-01
      -6.88167708e-03 1.12675019e-01 8.74472409e-02 8.91192779e-02
      -3.48865204e-02 -2.63853729e-01 -1.09437294e-01 4.05399054e-02
      1.33311555e-01 -6.47432730e-02 1.27481684e-01 0. 4.85007279e-02
      1.24107473e-01 -2.03862619e-02 4.06865999e-02 9.99691896e-03
      8.58728066e-02 1.87073365e-01 -8.42555836e-02 -1.43491298e-01
      -3.44082862e-02 3.03412490e-02 8.87938514e-02 1.15402527e-01
      4.14779410e-03 4.28787582e-02 -1.11216856e-02 -2.48453230e-01
      -2.47200519e-01 -1.41688406e-01 1.86804295e-01 6.57993332e-02
      1.90942198e-01 6.96917549e-02 1.02820039e-01 1.24323674e-01
      -3.77915829e-01 -2.67979264e-01 1.59987193e-02 4.31888960e-02
      -1.09195143e-01 4.45794351e-02 0. 1.80455092e-02 1.15291484e-01
      6.34086207e-02 -1.73082687e-02 -1.83000877e-01 -1.50084654e-02
      4.96525280e-02 -5.00034057e-02 -2.28722487e-02 1.09304432e-02
      6.30073994e-02 -1.99227799e-02 -6.59719035e-02 1.28029570e-01
      1.63803712e-01 8.62442255e-02 -1.31505609e-01 -9.98944975e-03
      -3.94983627e-02 5.78442514e-02 -6.45164624e-02 -4.53705788e-02
      -5.44143468e-02 6.03084266e-02 1.23361602e-01 -1.78368032e-01
      -2.50552911e-02 -5.79449721e-02 1.04957752e-01 1.26931798e-02
      2.64803302e-02 0. 1.31165832e-02 -7.83315860e-04 2.46630386e-02
      9.78613123e-02 -2.80992519e-02 -1.11392930e-01 1.64536014e-01
      1.49568513e-01 6.18112320e-03 6.28728345e-02 -1.53833386e-02
      -7.60323694e-03 3.30181457e-02 4.42208871e-02 1.78889811e-01
      -1.37710720e-02 -1.18809320e-01 -1.17060810e-01 1.10941753e-01
      5.90889389e-03 1.38333384e-02 1.25415921e-01 -3.60417739e-02
      5.78657491e-03 8.03625658e-02 1.72620937e-02 -6.38465360e-02
      7.29310215e-02 1.31056175e-01 -5.76569252e-02 2.43283380e-02 0.
      1.61127567e-01 3.10364272e-02 1.35701284e-01 -5.25096282e-02
      5.86959384e-02 4.53350022e-02 1.74187452e-01 5.20058982e-02
      -1.56806454e-01 -1.01520583e-01 2.92241406e-02 4.55891155e-03
      7.33109340e-02 1.07305549e-01 -2.18937844e-02 -3.00925542e-02
      3.76795717e-02 6.11000396e-02 -6.66738451e-02 1.13666557e-01
      1.38108850e-01 2.53566392e-02 -1.68551616e-02 -1.09364755e-01
      1.15866967e-01 7.48086022e-03 -4.14203256e-02 -7.22731352e-02
      4.14358005e-02 9.69034359e-02 2.20755205e-01 0. -6.00871397e-04
      -1.11402594e-01 -7.12248757e-02 8.30169097e-02 1.72687322e-02
      -1.18783742e-01 7.65903667e-02 4.31914255e-02 -9.13623534e-03
      6.32566400e-03 2.84347758e-02 -3.64641249e-02 1.80967212e-01
      1.82907477e-01 2.65929550e-02 9.35460627e-02 -2.55078860e-02
      -1.17532879e-01 -3.92463394e-02 5.27669536e-03 4.40848731e-02
      1.82191148e-01 1.51945099e-01 -1.29164413e-01 1.55640990e-01
      3.56026329e-02 -1.74510330e-02 4.72108610e-02 1.49691656e-01
      -1.04770012e-01 2.48635132e-02 0. 1.23222880e-01 -1.93659440e-02
      3.31730135e-02 9.59330872e-02 5.09392694e-02 -3.85295674e-02
      4.87827882e-02 5.34254350e-02 -8.39263946e-02 1.94900975e-01
      -1.92510828e-01 8.47532228e-02 6.18858673e-02 1.42174408e-01
      9.61978547e-03 4.51093446e-03 -1.75640672e-01 -1.67090476e-01
      -1.75093859e-01 -1.86548129e-01 3.85301411e-02 8.43473673e-02
      1.42202988e-01 -3.76483016e-02 -2.50066407e-02 -7.08680078e-02
      -5.20639904e-02 -9.27199572e-02 4.81528006e-02 4.48871925e-02
      1.06337823e-01 0. 5.67348823e-02 -9.42472517e-02 2.64512431e-02
      1.52343502e-02 8.30908418e-02 1.69306353e-01 2.08930373e-01
      9.61986706e-02 -5.33015281e-02 -1.23700082e-01 -1.34976907e-02
      1.23812512e-01 4.71929796e-02 -2.06690142e-03 1.85873993e-02
      -1.22679517e-01 2.94339526e-02 -9.79937762e-02 -2.01953202e-01
      3.24817076e-02 1.53029934e-01 1.36458918e-01 1.51852936e-01
      8.62513706e-02 6.39588088e-02 2.64163073e-02 3.14425044e-02
      -6.68757632e-02 5.93176410e-02 5.64588606e-02 1.24332532e-01 0.
      1.09341599e-01 -1.30447403e-01 5.93828708e-02 1.42004192e-01
      2.44042739e-01 6.78700046e-04 1.89769417e-01 1.23347506e-01
      6.36889488e-02 -1.52169121e-02 -7.36502782e-02 1.05013419e-02
      -5.45950085e-02 2.19696015e-02 6.12149164e-02 3.61043103e-02
      1.33211434e-01 -1.20200261e-01 -4.97085229e-02 -5.46872355e-02
      2.92992163e-02 1.05913796e-01 1.36068895e-01 8.67786258e-02
      2.49404013e-01 1.16513401e-01 4.52896506e-02 7.58704692e-02
      1.55747160e-01 1.15528097e-02 1.34490550e-01 0. 1.58333495e-01
      -1.85751721e-01 -1.00164331e-01 1.19976200e-01 5.35895228e-02
      -8.12326074e-02 1.87990665e-01 1.05470093e-02 4.39631343e-02
      -5.57536744e-02 -1.43109590e-01 -6.39191791e-02 -6.61359653e-02
      7.28167146e-02 5.10830544e-02 4.87682447e-02 -6.16089739e-02
      -1.65494993e-01 -2.14618385e-01 -7.96407983e-02 -1.38209850e-01
      3.66561934e-02 3.42009664e-02 5.68732247e-03 2.00381443e-01
      -1.02603205e-01 -1.27257988e-01 5.28394897e-03 6.53042793e-02
      -1.33217439e-01 -2.03857105e-02 0. 3.28238942e-02 7.18176514e-02
      -9.21408646e-03 1.51375219e-01 -7.73424953e-02 -1.68220609e-01
      1.10078752e-01 -1.17278069e-01 -4.79211621e-02 5.17485887e-02
      -4.57921438e-02 -1.02407485e-02 4.70313206e-02 4.82324399e-02
      2.03709245e-01 1.68333635e-01 -2.32897386e-01 -3.36662424e-03
      -1.42472573e-02 1.12777613e-01 2.30659754e-03 9.84063148e-02
      -4.33368050e-02 -5.20825805e-03 2.60230124e-01 -1.61956072e-01
      5.81230707e-02 -7.00415522e-02 5.60523607e-02 1.37104560e-02
      8.17731321e-02 0. 1.76413319e-04 -1.53946318e-03 6.05344819e-03
      1.51238710e-01 1.75992846e-01 9.94168818e-02 1.22497551e-01
      1.33376241e-01 3.59241515e-02 9.26092081e-03 -1.40237017e-02
      -7.83849582e-02 2.70915367e-02 -1.23027600e-01 1.71765089e-01
      -1.26317926e-02 -1.06935948e-01 5.51770851e-02 1.89138930e-02
      1.30922850e-02 -1.06799453e-01 1.43201396e-01 3.73948105e-02
      1.19807772e-01 5.16862720e-02 3.44355516e-02 7.73773417e-02
      8.37606415e-02 1.87873647e-01 -4.82700989e-02 8.37186575e-02 0.
      2.79274825e-02 -2.73299403e-02 6.30448982e-02 -5.24692871e-02
      -9.16896164e-02 -9.08967853e-03 9.30489898e-02 5.15394434e-02
      -4.63223830e-02 1.10943146e-01 -8.54550973e-02 6.40938282e-02
      -3.94229256e-02 6.43567070e-02 1.67110264e-01 -4.53301892e-02
      7.98694342e-02 -7.38132074e-02 -1.36730764e-02 -1.22884244e-01
      4.17640544e-02 -6.66185394e-02 -1.25871703e-01 -3.82060208e-03
      2.84867398e-02 1.38410062e-01 -6.64861500e-02 -4.98499684e-02
      -5.01864180e-02 1.39683500e-01 7.86799341e-02 0. 5.66980280e-02
      6.23795241e-02 -8.60551931e-03 -6.36867434e-02 -3.61744165e-02
      -1.24973498e-01 8.26660693e-02 -1.17072172e-01 3.71506512e-02
      2.07696091e-02 -6.72060177e-02 5.26341191e-03 -8.61582235e-02
      7.82686099e-02 4.09479514e-02 9.36284475e-03 3.00012678e-02
      -1.34530235e-02 3.02420501e-02 -6.73563685e-03 -2.09898744e-02
      -9.69108343e-02 -2.11319085e-02 -1.97037175e-01 2.97082532e-02
      -2.40222253e-02 5.44464439e-02 5.54480031e-03 1.04622908e-01
      -6.76749498e-02 -8.67202803e-02 0. 9.19412449e-02 -1.35144219e-01
      1.64660327e-02 -3.26740369e-03 9.02583078e-02 2.30379533e-02
      -7.02989921e-02 -2.07683712e-01 1.19456137e-02 1.07802413e-01
      -7.35800862e-02 4.21010703e-02 -2.97667682e-02 6.68321475e-02
      9.58613381e-02 1.04572348e-01 6.98865652e-02 -1.50386523e-02
      -1.26442134e-01 -1.86464936e-01 3.43747512e-02 -2.87744813e-02
      5.86176440e-02 6.11447208e-02 6.80257604e-02 -3.35011259e-02
      -1.60801001e-02 -5.82646765e-02 -4.05115113e-02 8.48313347e-02
      1.01590008e-01 0. 2.08708555e-01 5.09984046e-02 1.61254629e-01
      -1.63273122e-02 1.32147804e-01 -6.74249753e-02 -8.09690356e-02
      -1.05326049e-01 1.51935639e-02 1.75266564e-01 -1.03462227e-01
      -1.01090968e-01 1.62994564e-02 1.92068279e-01 -7.24364221e-02
      -7.05078617e-02 -6.34627743e-03 -1.27424210e-01 3.53536978e-02
      -2.82350220e-02 9.27763730e-02 7.01602548e-02 1.45028338e-01
      -1.65162280e-01 -4.07102108e-02 -1.17963344e-01 -5.39480560e-02
      -6.32599369e-02 -2.60561928e-02 5.50506301e-02 1.28838658e-01 0.
      2.81028539e-01 -3.94265093e-02 -9.96431708e-02 -7.30650052e-02
      -4.19266075e-02 -1.09303566e-02 -4.68768664e-02 6.21030517e-02
      9.56402048e-02 7.91777447e-02 -1.32949188e-01 -1.72553267e-02
      -8.28611031e-02 4.13703099e-02 1.41282573e-01 3.35351862e-02
      3.86462025e-02 -2.14836925e-01 1.09670147e-01 -1.13403857e-01
      -8.07335302e-02 -1.22060522e-01 -9.15616155e-02 4.56278212e-02
      1.77058578e-02 7.63233304e-02 -4.27032411e-02 4.39960015e-04
      6.01708405e-02 -4.49931212e-02 -9.48347244e-03 0. 7.15631172e-02
      -1.06870823e-01 -2.07558885e-01 -5.66306747e-02 1.45299464e-01
      2.90078839e-04 5.25375418e-02 -1.10879969e-02 -2.38472801e-02
      -1.19152442e-02 2.52781957e-02 1.98836401e-01 3.88459787e-02
      1.32464603e-01 -5.12236822e-03 1.75151005e-01 -8.00451040e-02
      -4.92986105e-02 -1.86037105e-02 -2.24185772e-02 4.43113185e-02
      3.49229537e-02 1.41624227e-01 -5.82125261e-02 1.41154051e-01
      -8.31534043e-02 -6.85983673e-02 3.59684862e-02 1.23504750e-01
      -1.97581556e-02 -4.00399975e-03 0. -2.06543282e-02 3.48134264e-02
      -1.28137395e-01 -1.20536201e-02 5.00610359e-02 -1.37492374e-01
      6.22577816e-02 -5.71105704e-02 1.15785636e-01 -9.08409711e-03
      8.80842954e-02 -3.77803035e-02 3.98770012e-02 4.53661382e-02
      -8.26178044e-02 -6.37704432e-02 8.75429343e-03 -1.35121435e-01
      -7.49529302e-02 1.01251334e-01 -1.07102260e-01 8.73639900e-03
      -2.91870087e-02 -2.57027417e-01 2.49404609e-02 -1.26328468e-02
      -9.52914357e-03 -1.38837889e-01 -2.35167723e-02 -2.91708354e-02
      7.89444596e-02 0. 1.08924106e-01 2.03038286e-02 8.15939903e-03
      2.98984395e-03 -6.43120036e-02 -7.61462376e-02 -1.25529394e-02
      -6.09682165e-02 4.01943065e-02 2.48295199e-02 -1.03341050e-01
      7.55795464e-02 -2.16675904e-02 6.50734305e-02 4.42009494e-02
      9.60452762e-03 6.92916289e-02 8.97815973e-02 -7.04931915e-02
      -5.53910173e-02 4.43243049e-02 2.81205531e-02 -1.51305916e-02
      -1.54129162e-01 -1.95650924e-02 -8.53441432e-02 -3.26033123e-02
      1.05407357e-01 1.33934662e-01 -1.21751375e-01 -1.39087411e-02 0.
      -1.47473700e-02 -6.36389777e-02 1.00780830e-01 -1.09759904e-02
      1.39695359e-02 -1.27891123e-01 5.18540405e-02 -6.03409559e-02
      4.02231626e-02 4.95665930e-02 5.84193058e-02 -3.87524976e-03
      -1.28012910e-01 -5.80560528e-02 -1.30838715e-02 7.86138847e-02
      1.01106770e-01 -1.49278447e-01 -1.67399406e-01 1.80236548e-02
      1.09773234e-01 -3.32927443e-02 -8.87393393e-03 -1.01632021e-01
      8.78673047e-02 5.32339374e-03 -8.48926976e-02 -1.07540302e-01
      -6.71498477e-02 -2.14591809e-02 1.32337451e-01 0. 6.84416220e-02
      -4.06765305e-02 -2.78268531e-02 -1.03587791e-01 -3.07032447e-02
      -4.47721370e-02 9.89775136e-02 4.09663543e-02 -4.23101000e-02
      8.72577205e-02 -9.79032367e-02 9.31477025e-02 -1.25260726e-02
      3.14726606e-02 -2.52522677e-02 5.03837317e-02 4.99125160e-02
      -1.38806760e-01 -3.23303342e-02 -1.27866983e-01 4.08122204e-02
      -7.14676157e-02 7.20058009e-02 -4.46184613e-02 5.51876351e-02
      6.36421070e-02 -1.32653415e-01 -2.18117535e-02 1.02669418e-01
      -8.38729292e-02 -1.76345110e-02 0. -1.85256954e-02 -1.71306700e-01
      -9.06354338e-02 9.57249571e-03 2.68238559e-02 1.41657561e-01
      7.54531771e-02 2.69692317e-02 -6.22137785e-02 -2.95400713e-02
      -6.95544556e-02 -4.70035076e-02 -2.07729954e-02 9.39155295e-02
      9.53535456e-03 1.49720281e-01 1.36192784e-01 3.22834961e-02
      -2.03349590e-01 -1.47650674e-01 -7.32009560e-02 1.15434788e-02
      7.93444440e-02 3.07482481e-03 1.18313655e-01 5.96891679e-02
      -5.74232340e-02 1.08960439e-02 -3.65088955e-02 1.14027252e-02
      1.04988135e-01 0. 6.09488524e-02 -2.19996888e-02 9.97464359e-02
      -3.27526219e-02 -1.21068507e-01 -1.67361930e-01 -5.42705040e-03
      1.23832114e-01 1.44054383e-01 2.96884060e-01 3.85162607e-02
      -2.17722524e-02 6.91987500e-02 6.73510209e-02 -5.15656285e-02
      -2.66595092e-02 -9.77402329e-02 -8.13673139e-02 2.19558895e-01
      -1.52684096e-02 5.88797666e-02 6.03018515e-02 -1.54090628e-01
      -2.84014612e-01 -4.09485698e-02 -2.55435053e-02 7.88267031e-02
      2.98627298e-02 3.66120366e-03 4.25911509e-02 5.24909496e-02 0.
      1.11384548e-01 1.62616029e-01 2.08072942e-02 4.72104698e-02
      -1.16995297e-01 -4.16601934e-02 -6.30610213e-02 1.23675816e-01
      1.58162877e-01 -4.72048372e-02 -1.65829644e-01 7.31773973e-02
      -3.03483848e-02 3.55702415e-02 5.13005108e-02 9.06340927e-02
      2.87142247e-02 -6.47669844e-03 5.51271848e-02 8.38971324e-03
      6.69705942e-02 -3.78279313e-02 -1.02332041e-01 -1.26237869e-01
      2.50739828e-02 1.05038784e-01 1.32007033e-01 4.29758206e-02
      1.05781347e-01 3.98154892e-02 1.49201192e-02 0. -5.36863059e-02
      -6.13295734e-02 -3.35225835e-02 9.51413736e-02 8.98129344e-02
      -2.14230344e-02 -6.54606223e-02 -5.99175692e-02 -1.42826453e-01
      -4.07825187e-02 8.86261091e-03 2.32850105e-01 3.69306356e-02
      3.02040037e-02 8.89096782e-02 2.83380467e-02 1.52064404e-02
      -8.15205835e-03 -1.56639084e-01 -7.24418089e-02 9.62419286e-02
      5.89659326e-02 9.52192396e-02 2.02790089e-02 -2.90934090e-02
      -4.07050550e-02 -1.68667600e-01 -4.70081121e-02 7.64667466e-02
      2.15380993e-02 1.46010285e-02 0. 2.74339821e-02 -1.52937502e-01
      7.68016055e-02 9.12186205e-02 -4.82228026e-02 -8.52478221e-02
      -1.58751264e-01 -4.13598493e-02 6.16931878e-02 5.95845431e-02
      -5.69232181e-03 4.85132169e-03 7.88887143e-02 -6.12587966e-02
      -2.61046756e-02 4.18909965e-03 8.36919844e-02 -1.02585308e-01
      -2.43458860e-02 -1.34355500e-01 7.68326083e-03 1.50986165e-01
      4.39894274e-02 -9.20566842e-02 -1.05642356e-01 6.27720803e-02
      -8.72344822e-02 -1.17278531e-01 -6.87083811e-05 -5.25922067e-02
      7.85786808e-02 0. 1.02711923e-01 7.71763921e-02 4.62843403e-02
      4.84464839e-02 -4.09511365e-02 -6.14321698e-03 1.10258861e-02
      1.39385208e-01 8.87688771e-02 -3.14763375e-02 -8.73524249e-02
      3.48501354e-02 1.39950673e-04 5.12419753e-02 -2.68880315e-02
      -7.73910880e-02 -4.31620814e-02 1.56418562e-01 -7.89055601e-02
      -8.33068565e-02 2.54143998e-02 3.57026756e-02 9.02247801e-02
      -9.17221457e-02 -2.29957160e-02 3.46946456e-02 1.46609128e-01
      4.98155653e-02 2.13104159e-01 -6.46451116e-02 1.05958544e-02 0.
      1.09915510e-01 3.41695100e-02 1.28344357e-01 3.19140851e-02
      2.28996754e-01 3.42419813e-03 -1.15118101e-02 1.93264950e-02
      -4.43761870e-02 7.99828544e-02 1.79274261e-01 -6.35097921e-02
      -1.07060663e-01 -3.82155553e-02 4.57421206e-02 7.29706213e-02
      -2.85764150e-02 1.59367956e-02 -1.03414329e-02 8.99124444e-02
      9.48002785e-02 -5.75925559e-02 6.02301061e-02 -3.97903211e-02
      8.06308240e-02 -9.63244215e-02 -7.28622824e-03 -1.59564130e-02
      1.16382368e-01 5.01541095e-03 2.04149231e-01 0. 1.48825645e-01
      -4.10032459e-02 7.02975839e-02 -2.29483414e-02 4.32568081e-02
      6.48169145e-02 9.33721364e-02 -1.44217154e-02 -1.49742991e-01
      6.69464376e-03 1.05887372e-02 7.10173771e-02 7.66626671e-02
      7.85191059e-02 -7.83638470e-03 1.95569964e-03 -1.98742688e-01
      -4.64976914e-02 -5.77503406e-02 -2.21061576e-02 1.78935692e-01
      6.69972077e-02 3.41567211e-02 -2.47515589e-02 1.02967650e-01
      -1.56526461e-01 -7.57007971e-02 5.22982217e-02 8.49041864e-02
      -1.40652731e-01 9.05717611e-02 0. -4.10424843e-02 1.12445396e-03
      -4.08032313e-02 -9.63178277e-02 8.07830095e-02 2.43412871e-02
      -4.47127558e-02 -3.86359431e-02 -9.94758978e-02 -2.04532072e-02
      -3.37946825e-02 -1.22913577e-01 6.21110238e-02 1.78420871e-01
      -6.34213388e-02 3.38130109e-02 8.67350698e-02 3.92011628e-02
      -1.62139937e-01 5.43996459e-03 -1.12739392e-01 -5.04757790e-03
      2.15158716e-01 -1.64980158e-01 -2.00524535e-02 4.76120450e-02
      -1.20000497e-01 -1.69560276e-02 2.45947769e-04 -1.34895016e-02
      -1.46027794e-02 0. 2.01282933e-01 -8.31818616e-04 9.04989522e-03
      -2.60887314e-02 1.73582181e-01 6.65503293e-02 -7.63332918e-02
      -4.80368137e-02 -7.66446218e-02 1.87114909e-01 -1.46159891e-03
      1.93390921e-02 2.83448640e-02 3.40785198e-02 -1.29606649e-01
      3.32737081e-02 2.00883031e-01 3.80951166e-02 3.49184833e-02
      -4.24547354e-03 5.25719374e-02 5.49013633e-03 -9.79381241e-03
      -2.01952666e-01 -5.45001030e-02 1.49067016e-02 -5.30329086e-02
      2.13489290e-02 5.67108467e-02 9.82927158e-02 1.21850908e-01 0.
      1.31995171e-01 -9.30998474e-02 -3.24645005e-02 -1.76709935e-01
      1.25587076e-01 1.77405611e-01 8.40119943e-02 -2.77702697e-03
      3.22808214e-02 1.71536565e-01 6.01594113e-02 1.96941167e-01
      -7.00746151e-03 -2.83475053e-02 6.78540096e-02 5.14882021e-02
      5.61692491e-02 -1.15719557e-01 7.76398480e-02 3.24937291e-02
      5.31812906e-02 -1.48723930e-01 -1.63362361e-02 -1.56495266e-03
      7.75773898e-02 1.56090576e-02 4.97485586e-02 7.62836263e-02
      1.41088620e-01 4.64173295e-02 6.58620968e-02 0. -2.60533337e-02
      -2.05324888e-01 -3.96746397e-02 -8.22834894e-02 2.79052388e-02
      6.40879646e-02 -4.08669002e-02 3.78151946e-02 -1.18287906e-01
      3.24782915e-02 -2.34178063e-02 6.29044995e-02 1.99662708e-02
      6.30528554e-02 1.42241240e-01 7.69656524e-02 -1.37056500e-01
      -1.01730682e-01 -2.12707698e-01 -1.52190953e-01 3.90291475e-02
      -1.13630131e-01 -1.45314902e-01 1.14260778e-01 2.43348684e-02
      -3.11051160e-02 -1.39351767e-02 -6.60559237e-02 -1.10086249e-02
      -3.14974077e-02 -8.00534338e-03 0. 8.61770213e-02 -6.56689703e-02
      -4.49091718e-02 7.61081874e-02 -5.65876178e-02 7.21789300e-02
      -9.72446650e-02 3.95848900e-02 -9.20572877e-02 1.58558264e-01
      -1.45768225e-01 -1.35368735e-01 1.80190757e-01 6.35871813e-02
      1.45883858e-01 9.24933553e-02 9.58554149e-02 7.95290098e-02
      -6.56562671e-02 -7.77295753e-02 -1.30920187e-01 2.37560347e-01
      -6.43418357e-02 1.05903432e-01 6.08146824e-02 1.35800153e-01
      -7.78981969e-02 -9.75194424e-02 8.72267038e-02 1.04425125e-01
      1.19195983e-01 0. 8.57694969e-02 5.09414561e-02 -3.96369025e-02
      -3.24092396e-02 1.21531431e-02 -3.39854993e-02 1.31250173e-01
      1.23395063e-01 4.23478559e-02 1.08640499e-01 -6.20131008e-02
      1.74686499e-02 -1.86845916e-03 1.19107582e-01 6.92079263e-03
      -1.72942221e-01 4.66530547e-02 1.76210001e-01 2.10091528e-02
      -3.22520025e-02 2.68669464e-02 6.23574341e-03 -3.18961255e-02
      -1.30488038e-01 3.18711326e-02 1.01737611e-01 1.49672046e-01
      3.41452425e-03 2.32742950e-01 -4.38052267e-02 8.01180229e-02 0.
      2.21759722e-01 -1.22033298e-01 -4.04775925e-02 -1.30031839e-01
      3.25841941e-02 3.15345526e-02 -6.94617117e-03 1.00213833e-01
      -1.04505196e-01 -2.37188097e-02 6.36065155e-02 1.36701614e-01
      6.15220629e-02 3.00702848e-03 1.62155088e-03 3.57797667e-02
      1.06240764e-01 5.67649938e-02 -7.61270896e-02 -9.46562141e-02
      6.78138658e-02 -2.07447447e-02 1.20978363e-01 2.27146428e-02
      -1.70588978e-02 7.39938617e-02 -1.05671212e-01 -1.52785908e-02
      3.81375626e-02 5.66459857e-02 1.20191269e-01 0. 1.33339673e-01
      5.33973752e-03 -2.82660723e-02 -2.11757608e-02 -1.21234827e-01
      1.46642745e-01 9.11839381e-02 -4.04737843e-03 5.38142072e-03
      1.16806580e-02 2.20749341e-02 5.77434599e-02 -4.45203558e-02
      -6.58783037e-03 -3.33938785e-02 -4.13089693e-02 3.47813368e-02
      9.97038372e-03 -6.96460232e-02 1.56782717e-02 -1.01254862e-02
      -7.93801993e-02 -6.09047003e-02 4.60610762e-02 6.77332580e-02
      -4.43607680e-02 3.65231447e-02 3.11989933e-02 1.67468369e-01
      -6.86077550e-02 -2.74814479e-02 0. 1.62003636e-01 -6.55908044e-03
      8.73565674e-02 2.48019006e-02 -8.48645866e-02 -4.42600064e-02
      -1.44871056e-01 6.01394773e-02 -7.23311082e-02 -6.72171116e-02
      -2.07456291e-01 -9.38608646e-02 -3.59902829e-02 -4.69085947e-02
      -7.12677017e-02 1.52411520e-01 7.49078467e-02 4.92426865e-02
      -2.25504994e-01 -1.83230117e-01 1.11603993e-03 3.82433906e-02
      -3.19607705e-02 -1.12403125e-01 7.50142336e-02 1.49221793e-01
      -4.94129695e-02 -6.44945800e-02 1.96059812e-02 -1.06960319e-01
      2.70585287e-02 0. 1.64966956e-01 -1.00656889e-01 -1.04382388e-01
      -2.27796659e-02 1.45982308e-02 1.39088437e-01 5.78284897e-02
      -1.11327142e-01 -2.07931191e-01 3.12618501e-02 -5.42967170e-02
      -5.23418747e-02 1.74217317e-02 8.32159296e-02 -3.85961076e-03
      6.63973391e-02 1.15370348e-01 -8.72035697e-03 -2.09251940e-01
      -3.24504152e-02 -3.91096137e-02 -2.51606684e-02 2.73627359e-02
      5.65713122e-02 1.48931071e-01 -6.92142081e-03 -1.01669870e-01
      -3.91438864e-02 -3.09767411e-03 2.38485215e-03 5.11012487e-02 0.
      -2.34643370e-02 -1.22673586e-01 1.68635591e-03 -1.41758159e-01
      1.13009989e-01 2.64715478e-02 -2.10111476e-02 -2.10866407e-01
      -9.77406576e-02 9.93361473e-02 5.77244274e-02 1.55537397e-01
      1.65221736e-01 5.07224537e-02 -3.22014955e-03 1.44528702e-01
      7.24835917e-02 -7.02117532e-02 -1.68849945e-01 -5.30888839e-03
      1.38345793e-01 3.21311429e-02 9.25619453e-02 -1.03030661e-02
      9.05261561e-02 -6.06724285e-02 -9.58261788e-02 4.26441692e-02
      6.37221411e-02 -1.89299621e-02 4.85253148e-03 0. 5.80556393e-02
      -1.59431979e-01 1.03926048e-01 -1.33501604e-01 -3.52933630e-02
      6.62256964e-04 8.76757130e-02 1.03947900e-01 -9.57961679e-02
      1.58539131e-01 -2.69152522e-02 9.40656960e-02 1.29699275e-01
      -3.26987989e-02 5.14602056e-03 4.25324179e-02 6.98301801e-03
      -1.07124858e-01 -1.75002366e-01 -1.31805271e-01 1.37371972e-01
      -5.38520189e-03 -6.13524951e-02 1.07832756e-02 1.56944990e-01
      1.11846805e-01 -7.64662996e-02 -1.99348293e-02 2.56848298e-02
      4.18048985e-02 4.69472259e-02 0. 7.14096725e-02 9.24110487e-02
      1.41331721e-02 9.68585610e-02 7.26945326e-02 -1.06748126e-01
      -8.69353488e-02 -4.37337533e-02 -1.29925366e-02 1.43895313e-01
      -7.37148598e-02 -5.09240013e-03 2.59427931e-02 -1.00300439e-01
      -9.90747213e-02 -1.46403704e-02 7.27474391e-02 5.26902974e-02
      -3.01258471e-02 7.41381496e-02 -2.91298497e-02 1.08990639e-01
      -4.46649268e-03 -2.27997452e-01 -9.17319134e-02 -1.92782842e-02
      3.88788246e-02 -7.52087012e-02 -1.00071348e-01 1.06436014e-01
      1.15772039e-01 0. -8.41491297e-03 -3.79780717e-02 -3.07231825e-02
      3.67215574e-02 1.24940261e-01 -2.39731800e-02 -8.04906860e-02
      -1.28198430e-01 -1.23243339e-01 1.77336261e-01 -3.03306840e-02
      8.89125466e-02 4.72790711e-02 -1.11051805e-01 7.94668943e-02
      -7.71562830e-02 2.39971280e-02 -1.81992687e-02 -7.11701140e-02
      -5.54371551e-02 4.66799736e-02 1.00854546e-01 -9.45905596e-02
      -2.82870121e-02 -1.08992904e-01 -8.21582675e-02 -9.78057683e-02
      -1.35193942e-02 5.31613417e-02 -5.58235161e-02 -2.67658178e-02 0.
      2.08437786e-01 -6.08098991e-02 5.43462746e-02 3.44901369e-03
      -4.73118126e-02 5.81737012e-02 -3.04985396e-03 -2.05877945e-02
      -2.60268562e-02 1.81067795e-01 2.48965360e-02 7.22079650e-02
      5.52140400e-02 -4.28176783e-02 8.46253633e-02 1.63829420e-02
      9.95010287e-02 6.43846169e-02 4.93565239e-02 -9.80393961e-02
      1.35478497e-01 5.96117079e-02 -1.16779082e-01 -1.18078701e-01
      5.33670299e-02 7.06549063e-02 1.37644801e-02 3.48945446e-02
      8.56609121e-02 9.01227668e-02 1.29711747e-01 0. 1.85186446e-01
      2.79917009e-02 6.92984741e-03 -2.54367525e-03 -8.47600624e-02
      -1.53872833e-01 -2.32903678e-02 -2.58079208e-02 4.94328269e-04
      1.68228731e-01 -1.09574914e-01 6.53356016e-02 -7.26035014e-02
      -4.07646298e-02 2.68750754e-03 -8.86151567e-02 -9.70338285e-02
      -1.14660766e-02 4.09956500e-02 -3.63031104e-02 1.25117823e-01
      -1.06882125e-01 -5.38950115e-02 -9.46690813e-02 -1.15326852e-01
      -1.51503965e-01 1.14704696e-02 4.52384260e-03 1.87957007e-02
      -8.17598253e-02 -6.10496253e-02 0. 1.71408858e-02 -6.09927848e-02
      -2.24270299e-03 9.77095738e-02 -4.00622375e-02 -7.72737665e-03
      -3.71382269e-03 8.68617296e-02 -9.18498449e-03 -5.78784645e-02
      -1.55576155e-01 -1.15374222e-01 -2.05542743e-02 4.37683836e-02
      -3.04083657e-02 1.75496221e-01 1.30917728e-01 3.15930359e-02
      -2.11636588e-01 -1.35195121e-01 -2.10487470e-02 8.42514709e-02
      2.12306716e-02 -5.76673299e-02 1.96094871e-01 2.05700874e-01
      -2.50653122e-02 6.34012148e-02 4.37830426e-02 -6.93353638e-02
      -2.44269409e-04 0. -1.64503127e-01 -3.17740202e-01 -1.16190575e-01
      -9.88819301e-02 2.77281813e-02 -8.58686641e-02 -6.30030259e-02
      -2.63442229e-02 -9.74314660e-02 2.19905585e-01 6.93947226e-02
      -7.45433569e-02 4.08134796e-02 2.57180363e-01 1.08114004e-01
      1.31959632e-01 1.43902838e-01 -5.32792248e-02 -2.73095608e-01
      -8.97013173e-02 -2.04758242e-01 -2.93948706e-02 2.12785870e-01
      -1.46293715e-02 1.27403513e-01 9.47129577e-02 -1.44070953e-01
      5.79259694e-02 -5.56186326e-02 -2.85936110e-02 -2.02819183e-02 0.
      7.78925046e-02 -8.63071606e-02 9.68494192e-02 -6.95547238e-02
      9.58625376e-02 -8.10970459e-03 -6.75546601e-02 -1.78441986e-01
      -2.52223074e-01 -1.13181159e-01 -9.54727978e-02 5.08846752e-02
      7.40025416e-02 1.23754658e-01 1.30225018e-01 1.57247573e-01
      -1.18633462e-02 1.31340884e-02 -2.63643622e-01 -6.64565852e-03
      1.17942765e-01 3.98737900e-02 1.18085019e-01 7.38457963e-02
      1.13243222e-01 -1.90457389e-01 -9.79616120e-02 3.83770950e-02
      1.33024389e-02 2.68646795e-02 -1.08174339e-01 0. -2.15833019e-02
      -3.49311456e-02 7.75669068e-02 -1.10372879e-01 -5.27227223e-02
      2.49909721e-02 1.29768118e-01 -9.94762629e-02 -8.21047798e-02
      1.62158534e-02 -5.82282096e-02 5.57977781e-02 2.12821558e-01
      1.09020565e-02 7.92644918e-03 1.64550953e-02 -1.18372709e-01
      -7.78868124e-02 -1.71213374e-01 1.16431355e-01 1.04886673e-01
      9.48210955e-02 -2.93534901e-02 3.74540966e-03 1.54254079e-01
      -5.98801672e-02 -3.92481610e-02 -5.54109626e-02 -4.89170440e-02
      4.77912985e-02 7.87216239e-03 0. 3.12012993e-02 -5.92322946e-02
      -4.38394286e-02 -5.47996685e-02 -9.34937503e-03 4.20929752e-02
      6.33724034e-02 -3.96869443e-02 1.01023048e-01 2.16714755e-01
      1.06302667e-02 -5.42047508e-02 -1.58192348e-02 2.73168739e-03
      -1.09382473e-01 -1.00688629e-01 9.56598371e-02 -2.60147490e-02
      1.17844017e-02 2.96737608e-02 -4.12877537e-02 -3.03750578e-02
      -4.66805398e-02 -4.19086367e-02 -2.99519580e-02 8.55431259e-02
      7.57292509e-02 -4.83669341e-02 -8.35106969e-02 9.10656229e-02
      6.45746887e-02 0. -1.67884491e-02 -4.76312563e-02 -4.45742421e-02
      3.93474568e-03 1.67652741e-01 1.21600494e-01 1.20216096e-02
      7.75608048e-02 -1.57110646e-01 8.93890411e-02 -7.23538697e-02
      1.71030988e-03 5.85665964e-02 1.73256293e-01 1.21262521e-02
      3.04574869e-03 1.42103255e-01 -2.76217703e-02 -4.51644212e-02
      -4.20516133e-02 -3.71657945e-02 4.13314551e-02 1.25538316e-02
      -4.49602604e-02 3.23846526e-02 2.03206122e-01 -1.26016662e-01
      9.64534208e-02 3.96108739e-02 4.77344356e-02 5.04340716e-02 0.
      5.06710932e-02 9.34746787e-02 -8.49266828e-04 -3.66807845e-03
      -4.00460251e-02 1.21423587e-01 -9.16033909e-02 7.97275528e-02
      -6.47905543e-02 9.22802016e-02 -2.86638290e-02 3.05485874e-02
      -6.80312049e-03 4.67896126e-02 1.59398705e-01 4.56841243e-03
      7.74767473e-02 9.63776261e-02 2.50871405e-02 1.06027937e-02
      3.90204638e-02 -5.56284487e-02 -4.58687097e-02 2.46948563e-03
      -3.07720993e-02 1.31799176e-01 -3.93208265e-02 6.03668988e-02
      4.86322381e-02 8.14640522e-02 1.00066565e-01 0. 5.51475547e-02
      -1.78072006e-02 -8.60281959e-02 3.87400761e-02 -3.60483415e-02
      1.99363101e-02 -4.95419130e-02 -7.27302432e-02 -1.25618791e-02
      1.39266878e-01 -4.05404270e-02 4.71367426e-02 -6.39216788e-03
      -3.77017483e-02 3.58496644e-02 -4.96837962e-03 3.69078480e-02
      8.33355412e-02 8.41711164e-02 3.12347077e-02 1.83585323e-02
      1.62349306e-02 -2.48833783e-02 -5.51785715e-02 -5.77386022e-02
      -1.85868349e-02 8.54234993e-02 7.14588091e-02 5.95082380e-02
      -6.09610565e-02 -2.66371649e-02 0. 1.10736080e-01 1.81326699e-02
      -4.10243347e-02 9.50746890e-03 -4.43787966e-03 8.88711661e-02
      3.67729217e-02 -2.17294949e-03 -9.74179730e-02 -1.58007126e-02
      -1.00795589e-01 -2.42878329e-02 -3.01640239e-02 2.03493144e-02
      1.10019088e-01 1.57205924e-01 1.40604481e-01 1.61655694e-02
      -1.24151809e-02 1.21195372e-02 1.65649336e-02 3.67313959e-02
      -8.15296397e-02 3.24862227e-02 1.63509935e-01 1.31573290e-01
      -9.89688560e-02 1.53681263e-01 5.84423766e-02 1.60922948e-02
      -4.33029793e-02 0. -6.24463335e-02 -1.48530975e-01 -1.18488595e-01
      1.83536019e-02 1.21062957e-01 4.42056470e-02 5.48957549e-02
      -5.42904856e-03 2.61327140e-02 -5.73357120e-02 -8.20951760e-02
      -4.15867381e-03 -2.54999753e-02 9.26240310e-02 1.24265134e-01
      1.05215386e-02 8.72278959e-02 -1.71354401e-03 -1.78683341e-01
      -1.17646670e-02 -1.39108850e-02 8.67280960e-02 1.79559916e-01
      2.99304798e-02 1.28921539e-01 3.02466378e-02 1.00126676e-01
      6.57052621e-02 2.05361303e-02 1.48129361e-02 -6.63634017e-02 0.
      7.56088942e-02 -5.27247265e-02 1.15864120e-01 5.07406108e-02
      1.02409184e-01 8.47098902e-02 -2.55824588e-02 -1.85146078e-01
      -2.18641922e-01 1.05278315e-02 -1.36128202e-01 -1.52941607e-02
      1.77229813e-03 8.22677389e-02 9.53480750e-02 9.84882116e-02
      1.10292673e-01 -1.63024385e-02 -1.41035959e-01 5.10445535e-02
      1.45124957e-01 8.15916359e-02 1.42452106e-01 9.25954059e-02
      1.25136971e-01 4.33604158e-02 -8.63868743e-02 -2.52223350e-02
      1.46431290e-02 8.75160024e-02 7.07115931e-03 0. -4.62818593e-02
      -2.97932904e-02 -3.30773890e-02 6.53088233e-03 -4.25311923e-02
      -3.88332456e-02 3.51036456e-03 -7.55608529e-02 -1.59359083e-01
      1.48288801e-01 1.67122371e-02 1.02078281e-01 1.00994602e-01
      7.31298253e-02 8.89726505e-02 8.36179182e-02 -2.00293143e-03
      -1.04231434e-02 -6.91142753e-02 1.54991588e-02 6.79998547e-02
      7.13078231e-02 -6.24126159e-02 -9.89085659e-02 8.82172659e-02
      -2.55434476e-02 -1.09098844e-01 -6.02372475e-02 -8.73024389e-03
      4.46783341e-02 1.11956619e-01 0. 1.09241024e-01 -2.14368794e-02
      -6.22747792e-03 2.37884093e-02 -1.00800768e-01 -1.10272907e-01
      1.93693619e-02 -9.99517515e-02 -2.33757924e-02 1.71252966e-01
      5.59079982e-02 1.19903266e-01 2.46090833e-02 -3.01149599e-02
      -9.49614402e-03 5.53983729e-03 4.87088002e-02 2.01950073e-02
      6.43380433e-02 1.66076869e-02 1.32424086e-01 4.29305919e-02
      -7.95319825e-02 -1.30602419e-01 1.48690492e-02 -2.55873747e-04
      3.55700441e-02 -3.96067016e-02 -2.40836330e-02 5.24192639e-02
      1.04061000e-01 0. 1.73403814e-01 -6.24495037e-02 6.74883500e-02
      4.14379872e-02 5.75315394e-02 3.44079104e-03 -6.66871071e-02
      1.07079241e-02 5.17526194e-02 6.30410835e-02 -3.81105323e-03
      2.16960739e-02 -4.54254746e-02 1.71210304e-01 -4.46021324e-03
      -4.47883941e-02 -2.12387983e-02 -3.81160644e-03 7.90015087e-02
      -5.19805849e-02 9.99933109e-02 -4.87045990e-03 1.27288505e-01
      -1.61928423e-02 -1.15706496e-01 -2.95146182e-02 3.31774801e-02
      1.01585463e-02 7.97120780e-02 3.73963900e-02 6.55536652e-02 0.
      1.22818850e-01 -2.83856727e-02 8.06878060e-02 -6.63771778e-02
      1.62920468e-02 -9.46426764e-02 8.55165999e-03 -4.53054309e-02
      -3.20324488e-02 4.19391021e-02 4.97505534e-03 6.94996342e-02
      5.34706712e-02 -8.51330757e-02 8.43767226e-02 -1.70740727e-02
      -1.98606718e-02 3.66537310e-02 4.80836779e-02 -3.81097570e-02
      2.94271242e-02 -1.76683231e-03 -1.28152892e-01 -1.28957182e-01
      2.42575463e-02 8.42490047e-02 -5.40503375e-02 -6.38683513e-02
      7.10302293e-02 -1.81675106e-02 7.25016519e-02 0. -6.96704239e-02
      -5.93366139e-02 -6.30532503e-02 -4.38415669e-02 1.09154344e-01
      1.83075888e-03 -5.62030002e-02 -5.62079698e-02 -5.02492152e-02
      -1.58807505e-02 5.77882603e-02 8.07352513e-02 2.17191875e-02
      7.91002251e-03 5.83847202e-02 1.47083839e-02 1.82096660e-02
      5.79969548e-02 -7.82019272e-02 2.73111053e-02 2.94309687e-02
      1.70625988e-02 4.98033613e-02 1.57404821e-02 -7.64276907e-02
      1.41340289e-02 -3.03013865e-02 5.73281646e-02 1.47853404e-01
      -1.53608158e-01 -4.49763201e-02 0. 1.81915879e-01 1.11370660e-01
      3.01848538e-02 4.74354662e-02 1.36501878e-01 -6.34700209e-02
      -4.72695306e-02 -6.55190498e-02 -1.27649866e-02 3.55839171e-02
      -1.93467155e-01 -8.30576345e-02 -1.11735001e-01 6.17941320e-02
      -8.54561031e-02 2.55646817e-02 5.62110683e-03 -2.46486440e-02
      1.39331026e-02 -6.62639886e-02 5.15084602e-02 -1.04670219e-01
      7.22518787e-02 -1.32114589e-01 8.31509009e-02 -4.36638929e-02
      -1.51593424e-02 5.35579473e-02 5.06944843e-02 -1.21204793e-01
      -7.28489505e-03 0. 1.81641821e-02 -8.19822624e-02 -3.10949981e-02
      -1.70939919e-02 4.62000370e-02 7.14077353e-02 -5.78002669e-02
      -3.67773175e-02 -1.87805131e-01 -9.07942727e-02 -5.19844703e-02
      -7.98495784e-02 -1.60023764e-01 -3.78002040e-02 7.47605711e-02
      6.28549308e-02 -2.06126813e-02 2.60313391e-03 -2.31126949e-01
      -1.02543741e-01 -8.77704769e-02 -9.65584368e-02 7.45698996e-03
      9.01924372e-02 4.05266024e-02 -5.61640896e-02 -1.41745016e-01
      -5.20801321e-02 -4.49029729e-02 -7.81815201e-02 -9.71293598e-02 0.
      -7.97210038e-02 -1.25127435e-01 4.96716276e-02 -1.79621372e-02
      1.31833732e-01 6.91710636e-02 -7.79776797e-02 -7.53852278e-02
      -6.90276623e-02 8.90634581e-02 1.00049879e-02 -3.17893513e-02
      7.75673911e-02 1.33683175e-01 5.40770702e-02 -5.21830618e-02
      -9.22839120e-02 -7.81605989e-02 -1.90313295e-01 -7.05077052e-02
      5.15097193e-02 1.04914993e-01 1.50909171e-01 -3.68228368e-02
      -3.60177383e-02 -1.14546254e-01 -5.89332320e-02 -5.17860427e-02
      -9.99388993e-02 3.93251702e-02 7.25450292e-02 0. -3.07137240e-02
      -1.06215723e-01 -1.45134851e-01 -1.54821493e-03 -1.43310726e-01
      -6.21386012e-03 8.59796163e-03 -8.64188224e-02 -7.35560954e-02
      2.13994280e-01 9.38300937e-02 4.10392098e-02 4.59107086e-02
      -8.63110349e-02 1.48232684e-01 -6.54495284e-02 -5.74908257e-02
      -7.93930292e-02 -5.90192825e-02 -6.36080420e-03 -1.26384690e-01
      6.40179589e-02 -1.65464282e-01 -4.00411300e-02 -5.01773134e-02
      -4.90906909e-02 -2.66817138e-02 -1.34681344e-01 -6.48171678e-02
      5.66575676e-03 3.81993242e-02 0. 3.91877182e-02 -8.73477533e-02
      -1.72907531e-01 -4.23385799e-02 -5.40753230e-02 -3.05823013e-02
      -7.41320895e-04 -9.25911516e-02 -1.20767042e-01 -4.88368459e-02
      8.31694007e-02 4.60334793e-02 1.56646799e-02 -1.61428899e-02
      2.68175229e-02 1.23033345e-01 1.58174224e-02 2.93526668e-02
      -8.61761719e-02 -3.96570824e-02 -2.91066114e-02 -1.03406133e-02
      1.54301822e-02 -1.31955832e-01 1.52306139e-01 -1.14615299e-02
      1.77107230e-02 -2.21871331e-01 -7.08258674e-02 6.27467856e-02
      9.45386887e-02 0. 1.28789097e-01 -1.04637347e-01 -3.93988192e-02
      -1.21842688e-02 5.46353944e-02 -8.02485272e-02 -5.59319146e-02
      5.91874905e-02 -9.03481543e-02 1.94903284e-01 1.09918267e-01
      1.06725525e-02 -3.81125249e-02 2.57889405e-02 2.14092899e-03
      1.06517121e-01 -7.80000025e-03 6.17204085e-02 8.10538605e-02
      1.07477447e-02 1.27230063e-01 2.48705465e-02 9.60419013e-04
      -9.53311771e-02 3.23553309e-02 -3.23550925e-02 1.41267534e-02
      -3.01922318e-02 9.01779532e-02 -2.58186180e-02 1.19326383e-01 0.
      4.30273339e-02 -1.20521128e-01 -9.79251564e-02 -7.18444586e-02
      1.17637664e-02 -4.61303182e-02 1.66993245e-01 -9.39808711e-02
      -8.69526528e-03 2.23715290e-01 9.47674960e-02 5.76420799e-02
      1.00321405e-01 1.46772757e-01 4.65647578e-02 8.92381370e-02
      6.60466030e-02 -3.43769439e-03 1.01552844e-01 -4.62961197e-02
      -8.15813169e-02 3.12455855e-02 -9.71497297e-02 -1.19911931e-01
      7.59804100e-02 -8.91523361e-02 -1.90611724e-02 -1.12077929e-02
      4.12560962e-02 1.45804241e-01 1.09022960e-01 0. -7.08910823e-02
      -1.64819956e-02 -1.23008095e-01 9.11870133e-03 5.41626588e-02
      -6.22165874e-02 1.77724902e-02 -3.57201998e-03 -3.44864535e-03
      -2.94772387e-02 -4.53165878e-04 1.21672422e-01 -1.21740764e-02
      1.18847482e-01 -1.39512077e-01 2.13396419e-02 -8.02051276e-02
      1.68733075e-02 -4.33117598e-02 1.82873774e-02 3.60143967e-02
      9.07417908e-02 -1.28415138e-01 -1.87515289e-01 -2.10193787e-02
      -6.90512955e-02 -3.15971971e-02 1.11778975e-02 1.09062381e-01
      -1.40734985e-01 -6.51366860e-02 0. 1.58331499e-01 3.19002904e-02
      -9.87045094e-02 6.01739101e-02 3.16457227e-02 -2.08490446e-01
      -8.69895667e-02 -5.79204373e-02 -2.85597220e-02 -6.28605951e-03
      1.85710099e-02 -3.01548261e-02 -6.75030202e-02 -1.79347899e-02
      -2.42694076e-02 -4.47267517e-02 7.57892504e-02 1.04816183e-01
      1.72602981e-02 2.04751231e-02 -3.42015214e-02 1.80807547e-03
      -9.74383801e-02 -1.17302485e-01 -5.69534488e-02 2.84982920e-02
      4.81912903e-02 -7.80362710e-02 1.52605265e-01 -1.26668960e-01
      -3.76129225e-02 0. 9.64262411e-02 -3.48250978e-02 -1.47385091e-01
      -7.22695068e-02 -1.38805643e-01 -2.16071323e-01 -8.84521380e-02
      -8.57535601e-02 -2.17782468e-01 -2.97829472e-02 -7.59466961e-02
      9.80007835e-03 -4.92004454e-02 -3.29443514e-02 1.56423196e-01
      2.39319745e-02 9.39237326e-03 7.62339756e-02 -9.44867805e-02
      -9.39002931e-02 -1.03351906e-01 -5.94450869e-02 -2.20526382e-01
      -2.26062283e-01 -3.19986641e-02 -5.82069904e-02 -9.95198116e-02
      -1.94514364e-01 3.88831981e-02 -2.27516815e-01 -1.99114438e-03 0.
      2.29399279e-02 -9.04048979e-02 -1.14750631e-01 -1.64959595e-01
      -2.62747407e-01 -1.60538822e-01 4.62495536e-02 -6.60395101e-02
      -3.11051663e-02 -3.47806886e-02 1.06241181e-01 -4.69662435e-02
      8.88163894e-02 8.97481441e-02 2.89285649e-02 -3.07010245e-02
      -1.00269010e-02 2.97970586e-02 -1.40203804e-01 -8.84302572e-05
      -1.33781567e-01 -4.28106524e-02 -2.97704309e-01 -2.75245935e-01
      3.16567048e-02 -5.00892252e-02 -2.67205928e-02 -1.82169780e-01
      -4.82734889e-02 -1.43380716e-01 9.08425525e-02 0. 3.60993221e-02
      1.76526308e-02 -1.49475202e-01 -1.14023529e-01 -1.80449754e-01
      -1.64800033e-01 6.15925603e-02 -3.72482054e-02 8.64415839e-02
      2.08797112e-01 1.10724047e-01 -5.46738729e-02 -8.40009078e-02
      -5.76042756e-03 7.77458325e-02 -1.18001416e-01 -2.28224117e-02
      4.93520685e-02 1.04662418e-01 8.32014233e-02 -1.39630333e-01
      -1.55531362e-01 -1.10440694e-01 -1.19820349e-01 -4.59984802e-02
      -3.56842466e-02 9.58585888e-02 -1.86352551e-01 -4.26190570e-02
      -3.32988240e-02 1.28934637e-01 0. -7.78489141e-03 -1.00220375e-01
      -6.56318590e-02 7.29028136e-04 -1.61201637e-02 1.29420817e-01
      2.43785270e-02 -7.46097863e-02 3.99179086e-02 -9.84682441e-02
      -6.36922196e-02 -7.00874403e-02 -8.67999569e-02 -2.17038617e-02
      1.65497348e-01 -4.18626852e-02 3.06000584e-03 -3.17275971e-02
      -4.96558733e-02 -1.47219539e-01 -8.42272192e-02 -7.02643543e-02
      -1.10941611e-01 -1.99368373e-02 -3.38436384e-03 -5.02760224e-02
      3.74974012e-02 -2.38498539e-01 -5.33982031e-02 -1.39744468e-02
      1.57047644e-01 0. 1.60774022e-01 -6.68031424e-02 -7.23942220e-02
      2.01772094e-01 -2.57593486e-02 2.33765580e-02 -2.15119440e-02
      -1.71926960e-01 -5.23716062e-02 1.26699626e-01 3.79150808e-02
      7.14245215e-02 -6.93164170e-02 1.89783335e-01 1.25495896e-01
      1.24880828e-01 6.28734985e-03 1.25422448e-01 1.62061363e-01
      7.28603080e-03 -5.95575459e-02 2.92029064e-02 -8.43410194e-02
      -6.22803196e-02 3.33710313e-02 -1.88002139e-01 6.87244534e-02
      4.17615697e-02 1.29059359e-01 9.36671905e-03 1.56273246e-01 0.
      -2.71200612e-02 -4.30581123e-02 -5.55184335e-02 1.66340657e-02
      -2.82308012e-02 -4.49940376e-02 1.79947793e-01 -2.60107592e-02
      7.01487064e-03 4.81642149e-02 6.95667937e-02 1.06996037e-01
      9.11026169e-03 5.76531217e-02 9.65361074e-02 -5.46850823e-02
      4.36831564e-02 3.05788480e-02 3.47184800e-02 1.80811901e-02
      2.13700458e-02 -3.12170926e-02 2.19884086e-02 -4.15322604e-03
      9.21856388e-02 -9.33318511e-02 1.88119896e-02 -1.36180162e-01
      1.87217351e-03 1.57796070e-01 1.58598661e-01 0. -1.10284425e-01
      5.03070839e-02 1.58250239e-02 4.70981523e-02 -8.42415765e-02
      -4.87741232e-02 -1.03972955e-02 1.11202277e-01 -4.30907831e-02
      -1.33621231e-01 2.56906990e-02 -3.32300700e-02 -5.70627861e-03
      9.46510732e-02 1.09265111e-01 9.64662153e-03 -2.32337769e-02
      6.63479194e-02 -9.97546911e-02 4.99583334e-02 1.49276843e-02
      -7.97359552e-03 -4.04078886e-02 -1.33088138e-03 1.58257224e-02
      6.54953942e-02 2.85843629e-02 -7.00019747e-02 1.19822308e-01
      -8.97773951e-02 5.76130487e-02 0. -5.68531686e-03 9.16045085e-02
      6.92970306e-02 -1.76136475e-02 1.92490313e-02 -1.15700603e-01
      4.91081253e-02 -7.76068345e-02 1.72706526e-02 1.17591619e-02
      5.15903756e-02 -7.70469978e-02 4.76520844e-02 -2.62165368e-02
      1.21855855e-01 -1.75876040e-02 -8.81504491e-02 -5.07776253e-02
      1.00191541e-01 1.15251899e-01 -4.08790167e-03 2.07796739e-03
      -1.19719692e-01 -1.28569473e-02 -1.84032787e-02 -8.17084908e-02
      4.14695218e-02 -1.49110317e-01 1.71846896e-01 -1.21061474e-01
      9.97396559e-02 0. 6.91922158e-02 1.41214114e-02 5.81265464e-02
      1.70151386e-02 -1.23139368e-02 -1.84711352e-01 2.17034649e-02
      8.28743875e-02 9.58233848e-02 8.42330977e-02 3.70576084e-02
      -6.24289885e-02 -8.67411122e-03 1.14803664e-01 1.68626681e-01
      -2.40093507e-02 -9.50216055e-02 6.18427992e-02 1.16095103e-01
      7.96664208e-02 1.68406907e-02 -3.48232873e-02 -5.08321896e-02
      -8.65353569e-02 -8.58767778e-02 2.58055571e-02 1.25913754e-01
      -6.27175048e-02 2.18975678e-01 -1.39301032e-01 1.89639136e-01 0.
      1.09110124e-01 -3.74019193e-03 1.16634779e-01 5.99035248e-02
      -2.48289302e-01 -3.51134762e-02 5.87188192e-02 2.46570595e-02
      -6.27737567e-02 5.98830320e-02 1.25071807e-02 -5.05934209e-02
      -6.21184893e-02 7.28014112e-02 1.26301587e-01 8.89847353e-02
      -7.84393679e-03 2.09577948e-01 7.15668499e-02 1.75626948e-02
      5.71430661e-02 -9.90227014e-02 -1.65838256e-01 -9.17423368e-02
      1.12923726e-01 3.64764128e-03 1.64384663e-01 -1.18038774e-01
      1.71488076e-01 -4.38895412e-02 2.11341858e-01 0. -3.11508402e-02
      -3.16814668e-02 6.10927008e-02 1.12265363e-01 3.85124609e-03
      -6.47378266e-02 4.42687981e-02 -2.24394426e-02 5.46014495e-02
      4.19533215e-02 -7.21834823e-02 -8.71643052e-02 -1.69265158e-02
      1.14204467e-03 1.26850754e-02 5.43634631e-02 -4.20220904e-02
      1.15230039e-01 1.14612795e-01 -4.63391803e-02 2.10676622e-02
      5.98726645e-02 -6.08696677e-02 -1.37864605e-01 7.66887292e-02
      -3.98635343e-02 1.32304728e-01 -1.41001597e-01 6.32671490e-02
      -5.19085526e-02 1.92408741e-01 0. -4.60615568e-02 8.99651553e-03
      7.41366446e-02 2.68355198e-03 7.06154108e-02 -1.63950957e-02
      7.92576075e-02 7.04937950e-02 1.22261345e-01 -8.52055177e-02
      2.07638200e-02 -7.98310265e-02 -6.87758252e-02 1.77993909e-01
      -3.29864062e-02 -7.71286488e-02 -1.13311402e-01 5.85267544e-02
      -8.71033967e-03 9.60984267e-03 1.32208345e-02 -6.71381354e-02
      6.54931590e-02 -1.34811997e-01 1.13280956e-02 2.86802556e-02
      1.05700426e-01 -1.12124771e-01 2.81375386e-02 -1.97965130e-02
      1.82052106e-01 0. -1.55847357e-03 2.82735098e-03 3.35624702e-02
      2.41535261e-01 1.83025319e-02 -6.65001646e-02 7.40885660e-02
      -4.42306511e-02 -3.02202813e-02 -5.04832603e-02 5.65922223e-02
      -2.67411303e-02 -7.81802982e-02 1.75194621e-01 1.69977576e-01
      7.37381876e-02 -3.31895724e-02 -1.80232506e-02 -1.19181685e-01
      3.49706002e-02 -3.17065492e-02 9.50602740e-02 7.69403577e-03
      2.27314280e-03 7.49945268e-02 -5.80182821e-02 -2.04466004e-02
      1.13796204e-01 1.24990486e-01 -8.51079226e-02 8.04616734e-02 0.
      1.23673910e-02 1.34573206e-01 -7.12866262e-02 -4.32194173e-02
      1.54672071e-01 -7.97887444e-02 5.08840159e-02 -4.82350886e-02
      6.30446598e-02 -7.88174793e-02 1.16875991e-01 7.19830906e-03
      3.71731669e-02 1.28624856e-01 1.53624937e-01 6.94795847e-02
      1.22623123e-01 2.52736062e-02 -6.41646758e-02 1.32409140e-01
      -9.24606696e-02 -6.54280037e-02 1.91550106e-01 -5.18702678e-02
      -3.00443918e-02 3.84161584e-02 -2.40537822e-02 2.92846467e-02
      -1.25604555e-01 3.29146683e-01 1.23112068e-01 0. -7.38128647e-02
      -4.56805117e-02 3.77776548e-02 -3.02667040e-02 9.33733061e-02
      4.36923280e-02 4.71074991e-02 5.26620857e-02 1.00814372e-01
      4.81994376e-02 -5.85296303e-02 5.99198090e-03 -6.85270876e-02
      9.62157771e-02 2.15549469e-01 -2.70525143e-02 -8.43855366e-02
      7.24789798e-02 3.19919102e-02 -9.94080156e-02 9.95476246e-02
      -1.08291522e-01 1.39882639e-01 6.39049560e-02 -5.01863286e-02
      -6.05061799e-02 7.98455402e-02 9.02642831e-02 -9.27949511e-03
      1.36814028e-01 -1.71672087e-02 0. 7.47563839e-02 8.56139958e-02
      6.31194934e-02 6.20762967e-02 2.06394717e-02 1.36755491e-02
      1.32299528e-01 -1.83168205e-03 7.85438642e-02 -2.46737823e-02
      -2.53718253e-02 -2.07972489e-02 -3.63502465e-02 -3.16530559e-03
      9.37313493e-03 -3.03274766e-02 -1.52483985e-01 2.68843733e-02
      4.16572094e-02 6.87507391e-02 -5.31416247e-03 -9.00061280e-02
      2.07674969e-02 -7.80355856e-02 4.63064946e-02 -8.39080215e-02
      7.71947354e-02 9.32430327e-02 -3.01809553e-02 9.61165726e-02
      -3.09670232e-02 0. 3.63444462e-02 -4.91887331e-04 1.14650568e-02
      6.86894432e-02 1.90419540e-01 4.85694930e-02 -6.49661049e-02
      -3.43197845e-02 3.60899754e-02 -1.46797029e-02 7.27539957e-02
      1.58602912e-02 -2.12755837e-02 2.54449137e-02 1.50535498e-02
      2.81043965e-02 -6.46579862e-02 -2.03523245e-02 3.44166881e-03
      1.08998157e-01 1.35719897e-02 -1.19623631e-01 1.24041423e-01
      -4.73668240e-03 -8.55188295e-02 -8.60060528e-02 1.39046949e-03
      1.01744182e-01 -5.09379385e-03 9.97229889e-02 -4.17297930e-02 0.
      -1.29460588e-01 -1.24700563e-02 -4.94088158e-02 8.52803439e-02
      8.97276849e-02 1.08534984e-01 -1.40630445e-02 3.17758590e-04
      6.77861180e-03 -2.96219736e-02 -2.02674861e-03 -2.75363326e-02
      1.77040976e-02 -3.58937532e-02 2.51906980e-02 3.22820321e-02
      3.39859799e-02 3.76390293e-02 -1.17611513e-01 -6.77549560e-03
      -1.83890671e-01 -2.54453365e-02 3.33861969e-02 -3.46411616e-02
      -1.07361682e-01 4.50072298e-03 9.31742266e-02 2.71853600e-02
      -3.76945212e-02 1.12370268e-01 -3.72982211e-02 0. -9.87236053e-02
      7.78502524e-02 -8.96429196e-02 5.34502231e-02 -6.01646602e-02
      7.43360072e-02 -1.61235612e-02 3.75781581e-02 1.28755420e-01
      -1.06489718e-01 -3.82480808e-02 -1.75696742e-02 1.01701409e-01
      2.98262760e-03 3.95393334e-02 3.36742178e-02 -5.31715639e-02
      2.21133642e-02 -8.90402347e-02 2.83555426e-02 -1.48380265e-01
      -1.88228376e-02 -7.23752677e-02 -1.21648386e-01 -1.09755941e-01
      -8.66908729e-02 1.28692865e-01 2.46195477e-02 -7.91583583e-02
      1.04241438e-01 -6.40587555e-03 0. -3.06641441e-02 7.20924512e-02
      1.52060529e-02 -6.78084418e-02 -5.41208312e-02 -5.31091280e-02
      3.29011213e-03 1.19670600e-01 -3.49512696e-02 -1.15695745e-02
      1.06662691e-01 1.76044572e-02 -6.35719346e-03 1.22855693e-01
      3.51351127e-02 -3.11867055e-02 -3.92497368e-02 4.70077954e-02
      4.30589169e-03 1.27590165e-01 -4.13244776e-03 -1.17533803e-01
      6.36421219e-02 -1.19732767e-01 -1.05277814e-01 1.05294839e-01
      -9.74168628e-03 5.58105484e-02 -8.37585330e-02 1.33223280e-01
      -6.04185835e-03 0. 8.23994577e-02 2.82998458e-02 -1.69640630e-02
      1.80815011e-02 -1.87152985e-03 1.48979127e-02 -4.42639440e-02
      -1.73517652e-02 1.08644202e-01 7.73883425e-03 1.27563462e-01
      1.15760885e-01 -1.94141874e-03 1.93236694e-01 8.19935724e-02
      1.76428869e-01 -4.50700372e-02 1.54613592e-02 -3.77813466e-02
      8.78834948e-02 -8.21989961e-04 -1.32948205e-01 1.58917561e-01
      -4.85468283e-02 5.40452190e-02 -7.58619681e-02 6.92526698e-02
      3.53513986e-01 1.05773754e-01 2.61048935e-02 -8.79817903e-02 0.</_></support_vectors>
  <decision_functions>
    <_>
      <sv_count>1</sv_count>
      <rho>-1.7319804535433505e+00</rho>
      <alpha>
        1.</alpha>
      <index>
        0</index></_></decision_functions></my_svm>
</opencv_storage>
