<?xml version="1.0"?>
<opencv_storage>
<my_svm type_id="opencv-ml-svm">
  <svm_type>C_SVC</svm_type>
  <kernel><type>LINEAR</type></kernel>
  <C>1.</C>
  <term_criteria><epsilon>2.2204460492503131e-16</epsilon>
    <iterations>500000</iterations></term_criteria>
  <var_all>4096</var_all>
  <var_count>4096</var_count>
  <class_count>2</class_count>
  <class_labels type_id="opencv-matrix">
    <rows>1</rows>
    <cols>2</cols>
    <dt>i</dt>
    <data>
      -1 1</data></class_labels>
  <sv_total>1</sv_total>
  <support_vectors>
    <_>
      -5.28862357e-01 3.36012334e-01 5.85178494e-01 5.53788953e-02
      2.20573917e-01 2.14942232e-01 5.54325163e-01 -1.99327737e-01
      -8.53769630e-02 1.00201212e-01 -7.03317747e-02 2.76472401e-02
      -2.30857953e-01 -1.76181644e-01 -1.12578943e-01 9.77278426e-02
      1.19494043e-01 3.64683509e-01 -1.37374341e-01 -3.62816095e-01
      2.88907647e-01 -1.60060167e-01 -1.53198406e-01 -5.14697433e-01
      3.64637345e-01 -2.81453073e-01 -1.21474855e-01 3.95225361e-03
      3.50977987e-01 1.44780343e-02 2.30517983e-01 0. -7.52937555e-01
      6.93021063e-03 3.51431519e-01 4.96725813e-02 -3.82104695e-01
      1.57049343e-01 -3.04252058e-01 -9.58520919e-02 1.74840152e-01
      -3.71771634e-01 1.49905547e-01 3.36260647e-01 -6.12703376e-02
      1.87165171e-01 -2.22878810e-02 -1.21879270e-02 -1.04626231e-01
      3.28630298e-01 1.74554676e-01 -2.00286835e-01 2.20833749e-01
      4.12068784e-01 -1.09337866e-01 -1.90310284e-01 1.35905027e-01
      2.05392390e-01 2.78839339e-02 3.09280574e-01 -6.39665052e-02
      -3.01616907e-01 -1.15949191e-01 0. 5.26400097e-02 -2.80445874e-01
      -2.68318802e-01 -1.43934879e-02 3.27892721e-01 -2.33779907e-01
      -5.87996691e-02 -3.44843030e-01 8.20151329e-01 9.41228792e-02
      4.64609951e-01 -4.60699834e-02 -3.02592009e-01 1.41583383e-01
      1.28717110e-01 -2.21552610e-01 5.69036650e-03 3.54792267e-01
      2.31248185e-01 1.58801615e-01 -2.12744325e-01 -3.51208031e-01
      -9.80659872e-02 -3.13114196e-01 -4.38216403e-02 -4.76394236e-01
      1.46412775e-01 7.58177757e-01 -4.95177180e-01 3.02306563e-01
      -2.73319572e-01 0. -1.78035632e-01 2.20038652e-01 -1.64832063e-02
      -3.48514169e-02 7.47971416e-01 -7.98004344e-02 1.13555614e-03
      -2.04098478e-01 9.47456621e-03 -4.70325559e-01 -2.42447387e-02
      4.05001678e-02 9.46590230e-02 3.93386275e-01 -1.52122930e-01
      1.49690062e-01 6.47997499e-01 -1.33817896e-01 1.15493320e-01
      -8.81187692e-02 4.70033526e-01 -5.30065075e-02 -1.37343064e-01
      -2.45045885e-01 1.39998123e-01 -9.20597538e-02 -4.83762830e-01
      3.57262343e-01 -2.98848629e-01 4.82988387e-01 -6.47826716e-02 0.
      -3.45372856e-01 9.57619399e-03 -2.25781322e-01 -3.72156054e-02
      8.97594094e-02 2.25970581e-01 2.45651469e-01 -5.41542530e-01
      8.27832758e-01 -2.93157876e-01 -1.45042107e-01 8.57944250e-01
      3.04031491e-01 -4.74655420e-01 1.63324311e-01 1.18650846e-01
      5.03344648e-02 -4.76709992e-01 9.09985825e-02 -5.35516262e-01
      5.31705320e-01 -4.45911512e-02 -3.85385305e-01 -1.14340015e-01
      3.62409800e-01 3.30338441e-02 -6.55171946e-02 -5.66115305e-02
      -8.87785181e-02 1.95969746e-01 1.16106316e-01 0. 1.95997998e-01
      3.71484399e-01 -1.55427977e-01 1.08828442e-02 -3.23390007e-01
      2.73395568e-01 -2.42814228e-01 -2.13668719e-01 3.03562701e-01
      -2.78220385e-01 -8.01091492e-02 -1.72757059e-01 -1.03140824e-01
      3.08682397e-02 -4.12851781e-01 -1.88497141e-01 3.44005555e-01
      2.60331661e-01 -6.57597259e-02 -1.11532539e-01 -5.02579391e-01
      3.51910293e-02 3.24507087e-01 -1.96575209e-01 -1.72910959e-01
      -7.63835460e-02 -1.97898410e-02 5.36912717e-02 -2.53234476e-01
      3.99455220e-01 -3.79208267e-01 0. 1.67524312e-02 1.73889235e-01
      5.74149899e-02 2.25015506e-01 -4.13410589e-02 -2.19743192e-01
      -1.48921972e-03 -1.65265009e-01 -4.06019747e-01 -1.47231147e-01
      2.12647527e-01 1.85284644e-01 -5.88569231e-02 1.73684552e-01
      1.05230838e-01 1.76761180e-01 2.64972359e-01 1.26903743e-01
      -1.45190796e-02 1.37536172e-02 1.03245437e-01 3.51608917e-02
      2.98146993e-01 -5.85543573e-01 3.98471594e-01 -1.48134500e-01
      -2.02545062e-01 -2.02630803e-01 -1.18875243e-01 5.85975409e-01
      5.54280207e-02 0. -1.11648738e-01 -3.25560093e-01 -6.59702942e-02
      1.40759908e-02 2.83186585e-01 -2.67211020e-01 1.12977065e-01
      6.74821913e-01 1.68446824e-01 -6.72180116e-01 3.59819770e-01
      3.27750593e-01 7.89514259e-02 -3.62673938e-01 4.07741457e-01
      -4.96340483e-01 -1.49326831e-01 7.17834458e-02 2.15511382e-01
      -1.20544814e-01 -1.22817270e-01 -2.08045587e-01 -7.10665137e-02
      -2.80087739e-01 -5.29628456e-01 2.55041331e-01 -4.10773873e-01
      -3.75321414e-03 1.23124540e-01 -1.69312686e-01 7.28719756e-02 0.
      -1.47902399e-01 -2.67337650e-01 -1.01059921e-01 1.73236400e-01
      3.07048578e-02 3.62995155e-02 -2.96398610e-01 2.94071466e-01
      -8.45785718e-03 8.86836946e-02 -2.88075984e-01 -1.00967355e-01
      4.36271802e-02 -4.26055670e-01 6.97991699e-02 2.13651150e-01
      2.04988271e-01 -2.97132134e-01 -1.52924061e-01 -1.85947344e-01
      1.51676729e-01 -2.01913491e-01 4.86203372e-01 -6.76144898e-01
      -2.59870082e-01 1.48838878e-01 -4.38760787e-01 1.70452923e-01
      -2.98502184e-02 -1.23442583e-01 -3.84062827e-01 0. -1.48533463e-01
      7.51372054e-02 -5.68095624e-01 6.36160299e-02 -5.43909967e-02
      4.10754710e-01 -1.18536815e-01 -1.86683074e-01 4.41244513e-01
      6.51111603e-02 2.62350887e-01 3.43638301e-01 -3.62763792e-01
      -1.28607512e-01 -2.42882505e-01 5.66171467e-01 1.56251997e-01
      -1.84283212e-01 -4.73407805e-01 -1.81896359e-01 3.13202143e-02
      -3.97302330e-01 -6.65809885e-02 -3.78305286e-01 -1.18303746e-01
      1.08558247e-02 7.47798756e-02 4.48861182e-01 1.62672810e-02
      -3.14503573e-02 -2.50067919e-01 0. -7.88409591e-01 3.49265456e-01
      -9.54571307e-01 3.74505758e-01 1.71775773e-01 -4.06333417e-01
      3.15768659e-01 -1.10467558e-03 7.17054307e-01 -1.66900247e-01
      -5.34699075e-02 1.98779911e-01 -2.77637620e-03 -2.93002129e-01
      2.10722804e-01 -1.47457913e-01 8.21637511e-02 -1.16305547e-02
      1.94801047e-01 -5.03928103e-02 2.40091726e-01 8.36269185e-02
      1.67940155e-01 4.09387350e-01 2.89940447e-01 3.80129933e-01
      -2.59840101e-01 3.37602139e-01 -3.42183948e-01 2.75040381e-02
      -2.14131430e-01 0. -3.65846664e-01 5.05755424e-01 1.21480517e-01
      -1.05345391e-01 -1.43385127e-01 -1.97023302e-01 4.69889849e-01
      6.87513649e-01 8.73405263e-02 -7.36100227e-02 1.74837053e-01
      3.50934535e-01 -4.74998236e-01 -4.73097950e-01 3.81115645e-01
      -2.58555263e-01 3.64700407e-01 -1.63167287e-02 1.59430087e-01
      4.29888725e-01 -1.38027504e-01 -1.06205297e+00 -6.30005121e-01
      -9.98743549e-02 -2.97063649e-01 1.08510697e+00 -3.44641693e-02
      4.60447639e-01 -2.17969850e-01 1.73412815e-01 7.21913725e-02 0.
      -2.08112091e-01 -1.82327867e-01 7.25485608e-02 3.91717702e-02
      1.63851768e-01 -3.22782755e-01 -1.05337165e-01 -1.95136383e-01
      2.84642786e-01 -3.58514518e-01 3.26676100e-01 1.10534921e-01
      3.36043000e-01 -9.17969644e-02 3.74230325e-01 -7.25276396e-02
      3.06307942e-01 3.44409108e-01 -1.24020867e-01 3.21948826e-01
      6.43956363e-01 -2.27887034e-01 -1.18968911e-01 -1.01378047e+00
      -6.19631350e-01 -4.23225820e-01 6.87480688e-01 1.80294186e-01
      -1.83038652e-01 3.46306652e-01 4.38723154e-02 0. -3.20927590e-01
      7.77531624e-01 8.42088908e-02 1.55421883e-01 -2.96294689e-01
      2.20935211e-01 5.45417845e-01 -6.00942612e-01 -3.77144329e-02
      -5.70311658e-02 -2.94037133e-01 -2.66946852e-01 -1.83275342e-01
      -1.86890215e-01 2.21397892e-01 -3.63106340e-01 1.63151771e-01
      2.35447511e-02 2.09328741e-01 2.57351026e-02 4.11445677e-01
      -2.02267289e-01 6.40006423e-01 -1.54682338e-01 3.41985852e-01
      -6.92379400e-02 -3.13468874e-01 1.33244708e-01 -1.94258094e-01
      3.65616322e-01 -5.00496209e-01 0. -5.47425985e-01 4.18761104e-01
      1.34058192e-01 2.22849637e-01 3.26267868e-01 3.13380733e-02
      -7.32199550e-02 -5.33840060e-01 1.34181648e-01 -6.15761208e-04
      3.48260626e-02 -5.70668101e-01 2.72609919e-01 -2.02924535e-01
      2.75723279e-01 -2.20877945e-01 1.53553009e-01 -4.70998734e-01
      -5.06057620e-01 -4.60609645e-02 -4.83928397e-02 -2.10386679e-01
      2.87953883e-01 -5.16885877e-01 -2.60879010e-01 3.05317432e-01
      -3.02547336e-01 -2.12402478e-01 -2.96693951e-01 3.93979043e-01
      -1.75454736e-01 0. 2.67443229e-02 2.03304797e-01 2.18582693e-02
      -2.15176836e-01 -1.15717702e-01 1.00808613e-01 1.29153252e-01
      5.28195873e-02 4.39292230e-02 -1.93463594e-01 -6.11502789e-02
      -1.82007775e-01 1.83225647e-01 1.55436387e-02 8.69476125e-02
      -5.96820191e-03 2.71374524e-01 -1.27362415e-01 5.08095443e-01
      -5.23250461e-01 6.68071136e-02 9.38202813e-02 -3.46028566e-01
      -1.79394946e-01 2.34512404e-01 3.99814814e-01 -1.52397603e-01
      2.23159030e-01 -1.88482314e-01 4.13721763e-02 3.46654616e-02 0.
      9.01721716e-02 -1.32507190e-01 4.32200044e-01 1.89920794e-02
      -1.49694353e-01 4.16079946e-02 6.05695784e-01 9.12464783e-02
      3.17479730e-01 -1.55440830e-02 3.46938550e-01 5.33670038e-02
      -1.90240383e-01 -4.86319959e-01 2.42428124e-01 -3.95876914e-01
      -2.73397118e-01 -3.52050334e-01 4.17891026e-01 -3.38084400e-01
      1.93732426e-01 -2.27858201e-01 3.00143915e-03 4.37129289e-01
      -3.47085714e-01 -3.37134540e-01 3.07597220e-01 2.64910400e-01
      -4.44094241e-01 1.73751652e-01 1.20688349e-01 0. 3.31934154e-01
      1.05532542e-01 -6.25065938e-02 -2.32490852e-01 2.09403589e-01
      1.07835494e-01 3.44814450e-01 -1.19576596e-01 -1.19658440e-01
      6.91970289e-02 2.62885094e-01 -2.76130229e-01 2.10023463e-01
      4.68774280e-03 -1.84448272e-01 5.25236838e-02 -2.77006384e-02
      4.58965808e-01 -3.17466974e-01 -2.17734471e-01 1.47239357e-01
      -8.64698216e-02 -1.70767922e-02 7.19062891e-03 -8.81513476e-01
      -3.48404616e-01 2.71074414e-01 1.86020151e-01 -1.10873915e-01
      5.19317687e-01 -5.92874885e-02 0. 6.54674247e-02 2.74941474e-01
      5.35245717e-01 2.16038689e-01 -6.76613808e-01 -8.84326026e-02
      1.59541219e-01 -5.21695375e-01 2.49633238e-01 -3.96942407e-01
      3.18889588e-01 -3.59844327e-01 1.19187281e-01 -4.19068694e-01
      9.51156557e-01 -1.56416804e-01 1.27420798e-01 1.25401497e-01
      -3.45398575e-01 -8.42166394e-02 4.56897207e-02 1.05904326e-01
      1.82486221e-01 1.80443659e-01 5.85423172e-01 1.79974094e-01
      1.03358373e-01 2.71312445e-01 -2.91025825e-02 -6.09275475e-02
      6.56887218e-02 0. 7.11983263e-01 -2.26518169e-01 -4.57846224e-02
      -3.02472830e-01 1.27118722e-01 1.66780993e-01 -6.84766412e-01
      -1.82388917e-01 -2.47860774e-01 3.53446677e-02 -6.88111246e-01
      2.99785972e-01 1.09071679e-01 -6.62108213e-02 6.02386892e-01
      1.58576310e-01 -2.62276500e-01 -4.77818772e-02 -1.05145884e+00
      -8.20434928e-01 -4.52976078e-01 -1.07997537e+00 4.74009782e-01
      -3.82938921e-01 2.99811214e-02 1.29597262e-01 -3.33966792e-01
      -2.22962480e-02 -1.70699522e-01 2.21602302e-02 -8.51930380e-02 0.
      3.71462524e-01 6.33427501e-02 -6.80514991e-01 -6.72829151e-01
      2.03850627e-01 3.74299198e-01 -1.03124134e-01 -5.86226955e-03
      -6.22308969e-01 2.82811999e-01 5.74152112e-01 2.16575220e-01
      2.31742367e-01 -1.80706784e-01 -2.87699066e-02 1.15703577e-02
      -5.46750650e-02 -2.58915126e-01 -5.24503827e-01 -8.62877294e-02
      1.11683056e-01 3.11235249e-01 -1.16247542e-01 3.00276190e-01
      -2.96301126e-01 -4.09059018e-01 -7.53710508e-01 1.27387345e-01
      8.66636634e-02 -2.50707597e-01 -9.43449885e-02 0. -1.96614400e-01
      2.15368092e-01 -2.90118098e-01 1.35319963e-01 -2.79033273e-01
      -7.53676519e-02 1.26564619e-03 2.15588868e-01 -4.37252462e-01
      -3.01061422e-01 3.05595428e-01 1.61899880e-01 -1.60131633e-01
      6.35779142e-01 -4.88148719e-01 -6.60331473e-02 -1.30268455e-01
      3.82420719e-01 -1.18927144e-01 -2.89177954e-01 -6.70775548e-02
      5.84851861e-01 1.32548317e-01 2.38272727e-01 -7.55892098e-02
      3.37888420e-01 9.68982056e-02 -6.98245987e-02 -8.87408853e-02
      2.20868394e-01 -2.37094134e-01 0. 5.07140197e-02 5.73465712e-02
      1.50700111e-03 4.68351573e-01 2.00409427e-01 2.55089179e-02
      1.84979066e-02 -6.60460964e-02 3.10377121e-01 -2.06969887e-01
      3.76795530e-02 1.09471075e-01 -5.56243896e-01 -2.96057671e-01
      7.00439453e-01 6.49833828e-02 -1.47954643e-01 2.63846740e-02
      2.85743661e-02 2.32901752e-01 -3.27428550e-01 -1.85938776e-01
      -1.28483877e-01 -2.69053310e-01 -9.16112065e-02 -3.54740173e-02
      2.64170140e-01 2.81912923e-01 1.19417779e-01 1.05362684e-02
      -3.55017856e-02 0. -2.98155129e-01 2.79473010e-02 4.72447649e-02
      6.60468042e-01 -4.54547465e-01 5.25612712e-01 -1.41659945e-01
      9.22229886e-02 2.40125895e-01 -6.47385299e-01 -1.19665340e-01
      -9.80703682e-02 2.64032304e-01 -1.36827275e-01 4.35663275e-02
      1.04149235e-02 4.18353043e-02 1.14314586e-01 3.71659309e-01
      1.30616233e-01 6.08723648e-02 -4.83291686e-01 1.00831471e-01
      -5.49981892e-01 -3.57123278e-02 1.83524132e-01 -1.48198768e-01
      2.85564363e-01 7.68924654e-02 7.72937536e-02 -3.58917832e-01 0.
      -3.94727021e-01 2.75302920e-02 -4.01021242e-01 3.10741328e-02
      5.40885329e-01 2.43021384e-01 2.27417797e-01 -3.18452179e-01
      1.52413592e-01 -1.71579435e-01 3.20373356e-01 3.67278516e-01
      -1.18528984e-01 2.46315956e-01 -3.70827049e-01 2.81201303e-02
      2.19905913e-01 2.42988214e-01 -4.97646868e-01 -8.33002776e-02
      -6.62509277e-02 -2.79048651e-01 -7.49514401e-02 -3.70666564e-01
      -3.11585993e-01 1.14309322e-02 1.78447887e-01 1.38261378e-01
      1.24353565e-01 -1.23861089e-01 2.72395998e-01 0. -4.58037369e-02
      3.89893264e-01 -2.68174857e-01 -1.36773989e-01 -2.08772290e-02
      1.64712369e-01 -1.52755901e-01 7.23728776e-01 -1.67751297e-01
      1.51588514e-01 1.35715455e-01 2.15605780e-01 2.94745434e-02
      9.27196220e-02 7.65459016e-02 4.15860891e-01 2.50205278e-01
      -4.37331013e-02 7.38270581e-02 -6.07065618e-01 1.28516778e-01
      3.13134372e-01 -4.10636753e-01 -1.28504395e-01 -3.88115823e-01
      2.54951149e-01 -2.55428731e-01 3.70225728e-01 5.76301701e-02
      5.10094017e-02 3.74453962e-01 0. 1.65262878e-01 6.69543862e-01
      -2.96552870e-02 -2.21812487e-01 -6.22611284e-01 2.37942502e-01
      -7.49537200e-02 -7.01618791e-01 -5.09414494e-01 4.07520562e-01
      2.59651661e-01 1.60832301e-01 5.41850440e-02 2.51070350e-01
      2.01371819e-01 4.07447428e-01 2.29365379e-01 3.80994822e-03
      -6.24738596e-02 1.39171392e-01 -6.53395653e-01 -4.00806636e-01
      -2.73064047e-01 2.41373837e-01 -1.70936242e-01 -4.76376951e-01
      -2.83190347e-02 -4.17157821e-02 1.86760455e-01 1.28651381e-01
      1.44877851e-01 0. 3.24435771e-01 6.13897502e-01 -3.24536383e-01
      -1.34077549e-01 -4.13667351e-01 4.39651728e-01 5.07097542e-01
      -2.73577124e-01 -1.81994244e-01 3.14671397e-01 -2.55735993e-01
      1.77909970e-01 -2.04904571e-01 3.28272194e-01 -5.18880002e-02
      -1.46925420e-01 -1.74293160e-01 -3.17215383e-01 -4.83923793e-01
      4.43298817e-01 -4.45045829e-01 -7.75755942e-01 -2.92017996e-01
      -3.08039010e-01 -3.20980489e-01 -2.10710198e-01 -4.70503718e-01
      -4.51058388e-01 2.81260878e-01 3.53554815e-01 -7.66923204e-02 0.
      -1.80314332e-02 -8.16209733e-01 -3.10683966e-01 4.40047026e-01
      1.89462483e-01 1.13854356e-01 -3.63897562e-01 -3.19692343e-01
      5.83331764e-01 3.36977720e-01 1.79864317e-01 -4.15638477e-01
      1.70893088e-01 -1.56520233e-01 6.30668759e-01 -1.60514191e-01
      2.61710763e-01 -6.57837391e-01 -1.19707681e-01 -7.32771337e-01
      -5.42690217e-01 -2.48080999e-01 1.43811330e-01 -1.81460768e-01
      -4.25323397e-01 -5.83948791e-01 -1.73700210e-02 3.49045873e-01
      1.72779024e-01 -6.89228296e-01 2.02253591e-02 0. -5.40579408e-02
      -4.39218163e-01 -6.70231134e-02 -1.92010626e-01 2.98623323e-01
      -6.99182928e-01 1.38317987e-01 2.33184114e-01 3.39652568e-01
      2.55815893e-01 -2.80255675e-02 3.54049623e-01 3.47153604e-01
      -5.61638594e-01 -1.67069621e-02 2.39996314e-02 4.29003686e-01
      4.25118625e-01 -1.49944248e-02 -4.95978922e-01 -9.04670358e-02
      4.22407717e-01 2.69965887e-01 -1.16906345e+00 -3.56508017e-01
      -8.85707617e-01 2.32384000e-02 8.66540819e-02 3.38041991e-01
      -2.83167690e-01 2.29489356e-01 0. 1.49967402e-01 -4.12824422e-01
      4.82131541e-01 -4.04011846e-01 6.40490949e-01 2.05528259e-01
      4.79090124e-01 -2.86248684e-01 2.68171102e-01 1.35971978e-01
      -6.68745562e-02 2.29511917e-01 8.58915672e-02 -3.19447927e-02
      8.47594738e-01 -4.02413577e-01 1.01207316e-01 -2.33015399e-02
      1.64391682e-01 -4.76875901e-01 1.87631756e-01 -4.00807500e-01
      1.21738963e-01 -4.99857903e-01 -1.93481952e-01 -1.10815920e-01
      -4.24069494e-01 2.67640471e-01 4.38216597e-01 2.43219182e-01
      -7.24826008e-03 0. -3.57819647e-01 -2.38754079e-01 7.95117468e-02
      5.60522735e-01 -3.53104293e-01 -7.64911547e-02 5.96178889e-01
      3.14148888e-02 -2.66828239e-01 -2.49369457e-01 5.95664620e-01
      -8.97066891e-02 -6.64099395e-01 4.53380421e-02 5.93418419e-01
      1.42412260e-01 -3.10217172e-01 3.69914025e-01 6.33681938e-02
      2.89812744e-01 -1.81547195e-01 -1.42663065e-02 -2.43329480e-01
      -7.42991418e-02 4.93310764e-02 1.89558476e-01 -1.87330991e-02
      5.37891947e-02 5.13730407e-01 -7.55764470e-02 -2.99618602e-01 0.
      3.58524352e-01 6.28844380e-01 7.23835528e-01 7.28866383e-02
      -5.38717449e-01 -2.26225317e-01 -1.70090005e-01 6.24418557e-02
      6.17667317e-01 -2.07198158e-01 9.72357392e-02 -2.89427787e-01
      -4.69739772e-02 -9.67291743e-02 -5.32947481e-01 -7.07101151e-02
      -3.90050799e-01 -5.43423533e-01 -4.42898721e-01 -3.88514698e-01
      -1.22017033e-01 -9.52695757e-02 4.55717504e-01 -3.84672955e-02
      3.05022150e-01 1.12215795e-01 5.76316044e-02 -3.64616103e-02
      1.05622470e-01 -4.30495292e-01 1.01565585e-01 0. 5.60506523e-01
      4.56413180e-01 -3.43185961e-02 2.70905256e-01 -4.65195179e-01
      -1.17937669e-01 -6.32120967e-01 2.58222967e-01 -1.05465412e-01
      -2.60601878e-01 3.52926999e-01 1.04585119e-01 1.44873187e-01
      9.27937701e-02 3.05322349e-01 -1.27824113e-01 -1.28019899e-01
      2.87441730e-01 -1.09568521e-01 -4.13831651e-01 -4.95360084e-02
      3.86051863e-01 -1.40221655e-01 6.33242548e-01 2.48623222e-01
      -3.07777345e-01 -3.88055801e-01 1.67539150e-01 2.68699050e-01
      -2.99397200e-01 3.16884816e-01 0. 1.10792346e-01 -6.01740507e-03
      1.92090571e-01 3.75601530e-01 5.22498786e-01 -4.14499432e-01
      1.66167259e-01 1.69169009e-01 -2.51538530e-02 1.98010113e-02
      -5.16250841e-02 -4.51072119e-02 -3.00591737e-01 -3.13530147e-01
      -1.18002728e-01 -2.44399384e-01 2.24363357e-01 -1.40172243e-01
      -6.78912640e-01 -7.94808626e-01 -9.85746324e-01 1.08023711e-01
      3.62827837e-01 -4.50055636e-02 3.23935151e-01 2.87059307e-01
      4.49110270e-01 -2.14082673e-01 3.50875497e-01 -2.49850154e-02
      -5.45871481e-02 0. 3.47683102e-01 -2.87465751e-01 -2.32794940e-01
      9.54513177e-02 9.19268012e-01 8.71902704e-02 -2.35877223e-02
      1.97430730e-01 5.63261151e-01 5.26876271e-01 -1.09406881e-01
      -8.33084509e-02 1.93180591e-01 -2.09165424e-01 2.70838261e-01
      -4.04911131e-01 -1.81523666e-01 2.01917470e-01 -2.16287687e-01
      4.30911243e-01 -1.84583843e-01 -2.07047418e-01 2.35221893e-01
      1.75724342e-01 4.69385348e-02 -2.02615276e-01 2.79555738e-01
      -2.12157577e-01 4.88326162e-01 3.18641007e-01 2.87148118e-01 0.
      8.66135776e-01 4.12932813e-01 -1.16915934e-01 -2.52936661e-01
      1.15373492e-01 -9.05241643e-04 1.36284277e-01 -3.53818029e-01
      -2.43634254e-01 5.59606007e-04 2.97723502e-01 -4.25519705e-01
      -6.58664387e-03 1.43380523e-01 1.82270005e-01 1.53729334e-01
      -2.49374390e-01 -6.87294975e-02 1.67656779e-01 1.54746532e-01
      -1.49266586e-01 -2.28699028e-01 4.87598032e-01 1.75168991e-01
      -2.67404675e-01 -5.01143396e-01 1.93465337e-01 4.83514834e-03
      1.43763989e-01 -2.63517916e-01 3.93029749e-01 0. 8.82987380e-02
      5.78563988e-01 -5.62425673e-01 9.02403370e-02 -6.15215182e-01
      2.06901953e-01 4.33566004e-01 2.96635240e-01 1.61519200e-01
      1.50063783e-01 -4.43626106e-01 1.62003130e-01 1.72536284e-01
      -4.50853586e-01 5.50913289e-02 1.65201008e-01 1.00835524e-01
      2.03121621e-02 -5.75689733e-01 3.09776276e-01 -1.14789225e-01
      6.96249604e-01 -2.36661416e-02 -2.69688129e-01 3.28725964e-01
      -1.33136892e+00 -9.96413529e-01 1.59304608e-02 3.86568934e-01
      -4.94460583e-01 3.79349262e-01 0. -1.91887051e-01 -2.39620395e-02
      3.03282559e-01 -5.57389498e-01 -2.92923570e-01 -2.21209273e-01
      5.12134552e-01 5.41524030e-02 -2.00765699e-01 5.28929412e-01
      3.53304982e-01 -9.48513746e-02 -1.85706079e-01 1.43057764e-01
      1.57856166e-01 1.26091674e-01 2.27886617e-01 4.65641499e-01
      -3.44569862e-01 -2.83384733e-02 -1.57444790e-01 -8.61007795e-02
      4.85132039e-02 5.52695692e-02 -5.55151701e-02 -3.39269608e-01
      -1.54602736e-01 -2.46492282e-01 5.52061260e-01 2.44659856e-01
      -2.99715064e-02 0. -2.25525443e-03 2.59148121e-01 -1.17389597e-01
      -2.94223011e-01 1.57179385e-01 -4.19832945e-01 2.91215390e-01
      4.77504879e-01 3.59164141e-02 -3.21982056e-02 -1.08533405e-01
      -6.60955489e-01 -3.02142769e-01 -1.72566790e-02 2.60257334e-01
      -6.68146610e-02 -2.02243716e-01 1.07086431e-02 -5.06219029e-01
      4.76277769e-02 -1.51525095e-01 4.02933419e-01 -1.45540550e-01
      8.14827606e-02 8.67460296e-02 2.69243360e-01 -2.84761190e-01
      -4.20508593e-01 2.97477603e-01 -2.14083225e-01 -7.91076291e-03 0.
      4.55497950e-01 -4.81570631e-01 1.62321344e-01 2.66576946e-01
      -1.30109757e-01 -1.17895417e-01 5.26371459e-03 -1.59349635e-01
      9.15573388e-02 1.32006422e-01 5.11102676e-01 -1.56795934e-01
      -4.22380157e-02 -2.87094861e-01 -6.42058849e-01 1.10015692e-02
      2.54636079e-01 6.93746805e-02 -9.52442139e-02 -1.41480807e-02
      2.57747918e-01 1.66277260e-01 -2.56659776e-01 -3.18697691e-01
      4.64819670e-01 -1.56107083e-01 1.67003889e-02 -2.74000198e-01
      6.52502000e-01 -5.46866536e-01 1.41129822e-01 0. 3.67199689e-01
      -5.78131795e-01 -8.84533882e-01 1.44143626e-01 -1.46348134e-01
      -6.70738459e-01 3.38019997e-01 1.23363592e-01 2.34098043e-02
      6.63190335e-02 5.93035221e-01 -2.31429935e-01 3.03244382e-01
      2.45259240e-01 2.86345005e-01 1.65055856e-01 2.66832560e-01
      -1.76507998e-02 -2.56405592e-01 1.94346622e-01 -2.13123918e-01
      1.45898238e-01 1.17959240e-02 -3.01524878e-01 2.41996944e-01
      2.44359121e-01 1.74662583e-02 1.55077636e-01 1.85903698e-01
      -4.29509073e-01 2.73974538e-01 0. 2.92519122e-01 2.48309940e-01
      3.60878915e-01 8.67532119e-02 -6.69501275e-02 1.60018317e-02
      1.41002595e-01 -1.33178368e-01 -1.93240494e-01 7.82151282e-01
      -2.55740017e-01 1.69078141e-01 6.54490590e-02 -1.21334888e-01
      2.10135624e-01 -4.16337013e-01 -3.91273886e-01 -6.06591284e-01
      -8.14482391e-01 -3.09317619e-01 6.00693226e-02 9.69089940e-02
      8.66463110e-02 2.98639596e-01 -4.56061810e-01 -2.45275229e-01
      4.91503358e-01 -9.92687047e-02 1.52016491e-01 -1.85411602e-01
      2.21114367e-01 0. -1.63173720e-01 1.80954397e-01 1.35638297e-01
      -1.01244822e-01 -2.46295184e-01 3.54413003e-01 8.23432267e-01
      5.49067259e-01 4.30466719e-02 -3.48829746e-01 -3.25123072e-02
      -5.48213124e-01 1.57363921e-01 -4.97107714e-01 -2.73789138e-01
      -4.70630944e-01 2.17595592e-01 -2.10051492e-01 -3.04551423e-01
      2.43692562e-01 5.65795839e-01 5.34515977e-01 4.03528720e-01
      1.78189706e-02 5.32049000e-01 -4.06142890e-01 7.90250957e-01
      -1.76750124e-01 -2.15060845e-01 -5.85811026e-02 2.47531548e-01 0.
      -4.18519467e-01 -2.65084922e-01 4.00195047e-02 4.20534015e-01
      8.26865792e-01 -7.04943955e-01 1.10742904e-01 3.63331497e-01
      -2.65022218e-01 8.64833742e-02 -2.32158631e-01 9.31705981e-02
      -3.97817761e-01 6.31784126e-02 -2.64156103e-01 -6.48100972e-02
      -9.20396447e-01 1.36798576e-01 -3.31532389e-01 3.76852542e-01
      2.08080724e-01 3.75195503e-01 6.53103232e-01 -3.65253389e-02
      5.90587616e-01 5.16257882e-01 3.06117743e-01 -2.83272024e-02
      8.42598006e-02 -3.83148849e-01 -3.28871220e-01 0. 8.96326840e-01
      -3.72912526e-01 2.06380576e-01 -5.62193021e-02 2.32392594e-01
      -4.80340570e-01 2.70885497e-01 4.57432061e-01 -6.95705339e-02
      4.45519090e-01 1.20022818e-02 -5.93107104e-01 -4.97396022e-01
      1.33667663e-01 2.44764000e-01 4.77456115e-02 -1.68991104e-01
      4.31837231e-01 -8.74508142e-01 -7.39689022e-02 8.85399804e-02
      9.22132656e-02 -9.05476417e-03 -3.97661999e-02 6.38307452e-01
      1.08595960e-01 -4.47565645e-01 1.09820597e-01 4.86996591e-01
      -6.39382517e-03 -5.28311022e-02 0. 1.76268086e-01 4.28026021e-01
      6.96384311e-02 -1.53610989e-01 -3.62129390e-01 -5.13112843e-01
      5.42248189e-01 -4.51671392e-01 -5.01129031e-01 5.09858072e-01
      -2.73331791e-01 -3.33173692e-01 2.81984568e-01 8.77128839e-02
      8.14485908e-01 -2.50887629e-02 -3.68826598e-01 4.92654145e-01
      -5.52818835e-01 1.86878107e-02 -3.56768072e-02 4.88402694e-01
      1.06501533e-02 -7.16965795e-02 2.62121528e-01 -2.08282068e-01
      -3.18132579e-01 -2.87711620e-01 1.65092379e-01 1.20409317e-01
      2.00575650e-01 0. -7.11355954e-02 -2.76769489e-01 -2.42991582e-01
      -9.43698827e-03 1.76991731e-01 -3.25211614e-01 1.95267931e-01
      4.00580794e-01 -1.71594575e-01 2.72992492e-01 4.76718515e-01
      2.94708669e-01 5.16854636e-02 -1.20755577e+00 3.95583153e-01
      2.97047853e-01 -8.70805234e-02 4.13641110e-02 -1.43004194e-01
      1.28472030e-01 -5.77002168e-01 4.50338215e-01 -1.72789752e-01
      -1.89873576e-01 2.37919420e-01 4.84549046e-01 3.22531797e-02
      -3.11628640e-01 2.84334719e-01 -1.23626366e-01 2.50463128e-01 0.
      2.83186659e-02 -2.60257512e-01 -2.89966129e-02 2.48628631e-02
      1.07704349e-01 -2.76883513e-01 -1.57026172e-01 -2.75342792e-01
      1.00361936e-01 3.85877818e-01 -2.23190472e-01 2.78432012e-01
      -1.26191482e-01 -4.88460779e-01 6.50788844e-01 -3.05170745e-01
      4.97347593e-01 -6.01092279e-01 3.51943851e-01 -3.64117682e-01
      -2.07407579e-01 3.57932523e-02 2.02356786e-01 3.30479503e-01
      -1.52612869e-02 5.22455156e-01 -4.92456436e-01 -1.60077229e-01
      -3.45099084e-02 2.62718260e-01 -3.83459061e-01 0. -3.28952461e-01
      5.30945301e-01 8.65007564e-02 3.77535343e-01 -4.38943326e-01
      1.23746460e-02 3.19392622e-01 2.82937661e-02 2.06999078e-01
      1.68252468e-01 -3.44792873e-01 6.28489375e-01 -6.02480948e-01
      -6.02726266e-02 -8.35520998e-02 -1.02988303e-01 -2.42829859e-01
      1.63913622e-01 -2.56253392e-01 -1.04055077e-01 2.18568802e-01
      1.85867175e-01 -3.95907015e-02 -2.32425883e-01 2.87764907e-01
      -6.15685806e-02 -4.26272042e-02 1.14040218e-01 2.08258450e-01
      -1.89092577e-01 1.66446771e-02 0. 2.40612980e-02 -3.92793208e-01
      -2.38930836e-01 -7.85461292e-02 2.54728436e-01 -4.05427605e-01
      -5.28540850e-01 -4.93519247e-01 4.00160432e-01 2.12278187e-01
      -9.68430638e-02 -2.51483530e-01 -1.60982814e-02 1.36900216e-01
      6.79911315e-01 1.18670844e-01 4.71648052e-02 -4.91035014e-01
      -2.04868704e-01 -6.19729936e-01 4.80921753e-02 3.12005222e-01
      7.98489600e-02 -1.78778619e-01 -2.42549986e-01 2.22082287e-01
      -4.75150011e-02 -2.10337520e-01 -4.98769760e-01 5.61553687e-02
      1.25293925e-01 0. 3.73108089e-01 -4.44290228e-02 -2.19327174e-02
      -8.72324169e-01 7.22852528e-01 -2.37261906e-01 1.68060318e-01
      -1.24334916e-01 1.03806317e-01 2.66638398e-01 3.93120080e-01
      -2.32902810e-01 -4.40607294e-02 -2.27022283e-02 -5.68539463e-02
      -1.45584010e-02 6.42941356e-01 -2.62731194e-01 -2.70546317e-01
      9.83766466e-02 2.12646142e-01 -1.72775298e-01 1.23809658e-01
      -6.93979084e-01 4.06491429e-01 -1.37309060e-01 -7.54518211e-02
      3.52854989e-02 -8.72573331e-02 -2.42880974e-02 4.23415393e-01 0.
      3.05815667e-01 2.34193400e-01 -1.77610204e-01 2.40111664e-01
      1.04899488e-01 6.11084700e-01 -4.14812416e-01 5.15846498e-02
      -1.61195770e-01 3.91499966e-01 5.35529666e-02 -6.67890534e-02
      -4.42603379e-01 1.70723513e-01 3.80347103e-01 -2.74168074e-01
      3.78879726e-01 -1.35329410e-01 1.34809226e-01 6.79424182e-02
      -2.70462513e-01 1.49853364e-01 -5.19444764e-01 3.97955298e-01
      7.91794956e-02 -1.49800003e-01 -1.48211047e-02 -1.03772856e-01
      3.74956667e-01 1.85794920e-01 1.32358223e-01 0. 2.02366054e-01
      1.84194744e-01 -4.39020842e-01 -5.88256180e-01 2.23530784e-01
      -3.84210385e-02 -2.12287739e-01 -4.62776423e-01 -3.30233157e-01
      3.84409934e-01 -2.57390976e-01 2.80264109e-01 -9.97756720e-02
      3.07771236e-01 9.27395001e-02 1.48728415e-01 1.92709833e-01
      1.45865470e-01 -6.05528533e-01 2.38110274e-01 2.41248876e-01
      -4.79472205e-02 -8.73564929e-02 4.29508202e-02 2.99247503e-01
      -7.71000236e-02 -6.45930767e-01 -2.02663273e-01 2.71245748e-01
      -1.31044894e-01 -6.27328157e-02 0. 4.77573276e-02 -5.32051735e-02
      -1.35202020e-01 -3.98492739e-02 -9.45144966e-02 -4.98357922e-01
      4.28429723e-01 1.03067167e-01 6.55391812e-01 -2.76995957e-01
      4.61801589e-01 -3.27832848e-02 -2.22117946e-01 -5.33446252e-01
      7.14475662e-02 -7.60985851e-01 1.69908509e-01 -3.38510931e-01
      1.92547247e-01 -4.18449640e-02 -9.01797116e-02 1.92118764e-01
      6.08226135e-02 -5.57448231e-02 -4.15722013e-01 2.67566949e-01
      -1.40173703e-01 -5.62022448e-01 -1.23553321e-01 2.72976868e-02
      1.64172858e-01 0. 3.71363640e-01 3.19002509e-01 8.00664648e-02
      -5.42672396e-01 -5.18902205e-03 5.31295426e-02 1.25405431e-01
      2.88865000e-01 1.71952575e-01 1.94906667e-01 1.31875321e-01
      1.89683214e-01 -1.41167939e-02 -4.03510481e-02 -1.11985825e-01
      -3.57177258e-01 2.80360818e-01 -1.16994791e-01 -2.50590116e-01
      -5.25190711e-01 5.67061067e-01 -6.61135018e-02 7.32138380e-02
      1.61293298e-01 -4.89541262e-01 6.51209056e-02 -1.52786404e-01
      -5.76278493e-02 -2.00478663e-03 2.26881504e-01 3.12694579e-01 0.
      1.98969007e-01 2.81431943e-01 4.72317398e-01 1.40949830e-01
      1.99860737e-01 -2.79932767e-01 2.10974216e-01 -2.10394979e-01
      6.36001080e-02 1.51936725e-01 9.20725539e-02 -1.59810379e-01
      -6.72125399e-01 1.45132646e-01 -4.56826270e-01 3.32685441e-01
      2.72768855e-01 -1.96810275e-01 -5.91023922e-01 -2.71382153e-01
      3.03266682e-02 -2.66902655e-01 1.97229892e-01 -2.77917445e-01
      -6.21705689e-02 -4.54870164e-02 -4.10683423e-01 -9.11181718e-02
      1.01011217e-01 -2.10357970e-03 2.68827766e-01 0. 3.45939815e-01
      1.74036711e-01 9.84851569e-02 -4.17797178e-01 -2.63869643e-01
      1.23641621e-02 2.63056368e-01 -4.42155987e-01 -4.63008046e-01
      5.04765213e-01 1.27865136e-01 2.83977509e-01 1.50662869e-01
      1.85280964e-01 -2.34265491e-01 1.03479423e-01 4.73785430e-01
      2.48859427e-03 1.11594640e-01 -1.71019211e-01 -2.16080453e-02
      1.27041563e-01 -4.97117758e-01 4.09862965e-01 2.12667570e-01
      6.19057380e-02 -2.08170950e-01 -1.33098081e-01 5.53737283e-01
      -1.54844850e-01 1.60865575e-01 0. -7.47376634e-03 -6.11083925e-01
      1.03998691e-01 1.44259021e-01 5.57027720e-02 3.14319551e-01
      -2.89247721e-01 1.58932224e-01 3.19180675e-02 -1.01681963e-01
      -6.18221052e-02 -2.62089372e-01 -4.06069338e-01 3.22292030e-01
      2.05076590e-01 6.78618848e-02 3.51866543e-01 3.00978608e-02
      -6.27959609e-01 -6.64885268e-02 1.04859374e-01 2.76237458e-01
      -9.82819051e-02 6.34820089e-02 -4.19225544e-01 -2.93814782e-02
      8.08833018e-02 -2.57950991e-01 -4.06587049e-02 -1.35114282e-01
      4.55812335e-01 0. -2.95565814e-01 -4.15368527e-02 9.83524844e-02
      -3.96624982e-01 2.99459517e-01 1.67904526e-01 4.55561489e-01
      9.78363380e-02 -3.16833928e-02 5.25930762e-01 -2.01166332e-01
      -1.74138114e-01 9.34772193e-03 5.33834159e-01 4.48274076e-01
      -1.45815969e-01 3.86828966e-02 8.34670961e-02 4.55172122e-01
      -1.00152278e-02 5.08047044e-01 -9.94941127e-03 -9.11271870e-01
      -7.28793502e-01 2.32173204e-01 -3.64757985e-01 -2.80513503e-02
      6.63903207e-02 4.31931376e-01 -2.68386364e-01 4.64022040e-01 0.
      5.85233212e-01 3.92359346e-01 1.09525077e-01 -9.53376293e-02
      -6.99720979e-02 3.37156594e-01 1.37112305e-01 1.59243479e-01
      -6.64479285e-02 -3.49191487e-01 -4.24687862e-01 1.18129827e-01
      7.78245702e-02 2.80669075e-04 4.71024156e-01 -4.03979659e-01
      -1.97747245e-01 4.40997593e-02 2.67352432e-01 2.80451715e-01
      1.03806995e-01 1.47506088e-01 -8.08031678e-01 -1.19951630e+00
      1.03576116e-01 3.35506231e-01 5.72999753e-02 -2.59496659e-01
      4.66026187e-01 -1.95878044e-01 3.78077090e-01 0. 2.46057838e-01
      6.02807011e-03 -2.45755702e-01 -2.68924594e-01 2.24842295e-01
      -3.58742774e-01 2.42942557e-01 8.66068900e-02 -5.47627211e-01
      3.19726139e-01 2.54439443e-01 5.69175422e-01 -6.97041079e-02
      2.71510214e-01 5.74681640e-01 -8.68459567e-02 -2.32410207e-01
      -1.69305801e-01 -9.97398138e-01 -8.95493329e-02 9.12805349e-02
      -2.18404755e-01 -1.67140782e-01 -1.44286782e-01 5.22316456e-01
      -1.13513861e-02 -5.01431167e-01 -1.12669438e-03 2.53790408e-01
      3.72579731e-02 9.50683206e-02 0. 5.47365665e-01 5.33364415e-01
      8.39890689e-02 3.57596248e-01 -3.02485283e-02 -7.85760507e-02
      8.85694101e-02 -3.61169279e-01 3.37989092e-01 -2.04908580e-01
      -2.61879325e-01 -1.23261645e-01 8.67148787e-02 -3.24192137e-01
      1.64836183e-01 -5.37637137e-02 3.07076603e-01 6.35710284e-02
      6.24831617e-02 -4.29186761e-01 -1.60042688e-01 2.05967411e-01
      1.59661293e-01 -2.26404652e-01 -1.49786487e-01 -1.13013454e-01
      -1.16693906e-01 9.13405716e-02 2.28698105e-02 7.34421536e-02
      3.46478134e-01 0. 7.86024779e-02 8.68593082e-02 1.05331101e-01
      -1.17471918e-01 8.35783929e-02 -5.66208875e-03 -1.82083815e-01
      4.27153021e-01 -6.26541302e-02 -1.94850732e-02 2.87502021e-01
      2.31185183e-01 1.21615306e-01 -1.09231837e-01 4.12395447e-02
      -1.06953040e-01 -2.97734886e-01 3.70215774e-01 -3.03994805e-01
      -4.09781426e-01 1.81890845e-01 2.00532726e-03 1.80575699e-01
      -1.32750496e-01 -1.43363833e-01 1.37710720e-01 -1.45584732e-01
      -2.80389905e-01 5.01724839e-01 2.92512298e-01 -7.44997934e-02 0.
      2.17032745e-01 -1.96881056e-01 -1.10593848e-01 -5.65301478e-01
      -2.61280626e-01 -1.46033853e-01 -4.47506785e-01 4.57778066e-01
      -1.46446750e-01 8.07348549e-01 1.48418844e-01 3.02740902e-01
      -6.21902645e-01 -1.72450274e-01 4.18593675e-01 3.12951386e-01
      -3.35672110e-01 1.77664697e-01 -3.61176431e-01 4.68062125e-02
      5.01726687e-01 -4.06433903e-02 -1.04645789e-01 1.95922986e-01
      1.94757253e-01 -1.28330007e-01 -2.92768598e-01 -4.15511765e-02
      2.26109877e-01 -4.67253625e-01 2.06544653e-01 0. 3.97713840e-01
      -2.48309061e-01 2.89911687e-01 1.12744689e-01 8.68565261e-01
      -7.06930980e-02 1.69464186e-01 -3.51458222e-01 -2.90453583e-01
      2.76706256e-02 -1.37343258e-01 -4.76143748e-01 -1.78879797e-02
      1.26457691e-01 -5.42023778e-02 2.11935267e-02 -2.56370038e-01
      -1.92222938e-01 -4.42765176e-01 -3.96055102e-01 -9.80601236e-02
      4.35428590e-01 -3.38964999e-01 1.52448574e-02 4.28156644e-01
      -3.35118979e-01 -9.19629112e-02 2.98406243e-01 -1.86490323e-02
      -6.03171825e-01 2.85060048e-01 0. -1.57412753e-01 -3.81558478e-01
      -2.02804834e-01 -2.83052266e-01 1.36914700e-01 1.66151360e-01
      2.70544328e-02 2.91153133e-01 -1.78617775e-01 1.72919914e-01
      2.82718372e-02 -2.41139904e-01 -2.40681067e-01 2.65520573e-01
      1.85219228e-01 -3.21634024e-01 2.32053712e-01 1.04084015e-01
      -5.40564775e-01 4.63176876e-01 2.67729789e-01 -2.25591317e-01
      5.49446866e-02 -7.97078371e-01 -3.47055912e-01 1.86630264e-01
      -4.49552268e-01 4.44455683e-01 -5.45690894e-01 1.25738129e-01
      -2.11911753e-01 0. 1.01165378e+00 -4.30737197e-01 -1.09676242e-01
      6.82113171e-02 5.17023981e-01 1.75989404e-01 -2.47973144e-01
      -2.66261995e-01 5.89399785e-02 1.16064079e-01 -1.00226596e-01
      2.08162945e-02 -1.70814604e-01 3.34088176e-01 3.94730210e-01
      7.27907270e-02 7.46269763e-01 -5.47816865e-02 -2.42052630e-01
      -3.97446036e-01 -9.51679572e-02 -1.02568187e-01 -1.84501663e-01
      -2.40686998e-01 -3.95347513e-02 -4.61707056e-01 -3.44687924e-02
      7.33388364e-02 2.03596488e-01 5.23088515e-01 2.06936523e-01 0.
      1.60288110e-01 1.49325579e-01 -1.63364366e-01 -1.02551743e-01
      4.25426126e-01 1.02868833e-01 2.14636192e-01 -2.90721178e-01
      3.59666139e-01 6.29870415e-01 5.86010776e-02 8.14790726e-01
      -1.06806993e-01 -2.24012390e-01 8.32610965e-01 -5.59203446e-01
      9.26145092e-02 1.55008072e-02 -4.81685549e-01 -3.04742962e-01
      -2.99767256e-01 -2.94819355e-01 -2.88802385e-01 -5.01935668e-02
      -1.73227619e-02 1.02114029e-01 -6.23683445e-02 4.39051360e-01
      4.50171530e-01 9.01902169e-02 1.56443685e-01 0. 5.38557172e-01
      4.89644594e-02 2.08639845e-01 2.21674871e-02 -2.56633252e-01
      -1.87231787e-02 -4.07351911e-01 -8.59124884e-02 -4.28469665e-02
      -9.16400701e-02 2.72715449e-01 -5.89501709e-02 -3.88172626e-01
      2.28158653e-01 4.45142329e-01 1.03479467e-01 -3.40828836e-01
      -1.26607448e-01 -7.84831762e-01 -6.18017495e-01 -9.10048559e-02
      -3.46091181e-01 -9.31603014e-01 -6.57241866e-02 -1.03829652e-01
      3.78106534e-01 3.79342437e-01 2.31836602e-01 1.63703218e-01
      -6.00712635e-02 -3.11823994e-01 0. 1.52096257e-01 -5.75684085e-02
      3.35033715e-01 1.88352004e-01 3.21191609e-01 1.11451134e-01
      -1.83632523e-01 2.83827633e-01 -9.57429558e-02 6.15210272e-02
      -1.68316633e-01 -4.89976555e-01 1.12559669e-01 5.16605556e-01
      2.92939425e-01 -3.85439873e-01 -2.55880296e-01 4.27843817e-02
      1.08999908e-02 -2.27069840e-01 -3.33918899e-01 5.39105892e-01
      8.55032131e-02 -1.93491518e-01 4.28886116e-01 2.56219864e-01
      -3.12175661e-01 -4.86877352e-01 2.05343947e-01 4.66847688e-01
      1.83228657e-01 0. 2.98608929e-01 6.41312063e-01 1.28275767e-01
      -1.50743291e-01 -1.28841400e-01 4.26365435e-01 -1.73259854e-01
      -8.86435583e-02 -2.34514803e-01 -1.36087283e-01 -3.05313736e-01
      -4.32671130e-01 5.98817552e-03 -2.42668957e-01 5.90463430e-02
      -6.28896058e-01 1.36139765e-01 1.94622651e-01 -1.71520963e-01
      -3.40758651e-01 4.81931865e-02 7.90458843e-02 -5.43734670e-01
      -4.14220124e-01 1.32661283e-01 3.70068327e-02 1.12447627e-01
      -3.65882635e-01 1.26440138e-01 -1.46517023e-01 8.83736461e-02 0.
      3.37841868e-01 -3.39400232e-01 3.71893734e-01 -1.08656380e-02
      -3.20672929e-01 -8.81596096e-03 -8.14580470e-02 -2.87690222e-01
      4.27356027e-02 -1.94801331e-01 -4.09512110e-02 -1.99057445e-01
      -3.00990790e-01 5.55898398e-02 1.83523688e-02 1.46630287e-01
      1.85929060e-01 6.91471770e-02 -4.59098190e-01 7.86339641e-02
      7.58942187e-01 2.88769513e-01 4.65664983e-01 -5.08313656e-01
      2.26753905e-01 4.91518863e-02 -3.81957412e-01 4.38820198e-02
      8.49008709e-02 -2.52235055e-01 -1.38921544e-01 0. 4.11688715e-01
      -4.98956650e-01 -1.19027838e-01 7.91845322e-02 5.51081598e-02
      5.58744192e-01 -4.48910654e-01 -3.96123499e-01 5.05283058e-01
      9.08991337e-01 3.61647010e-01 5.20349145e-02 1.07533574e-01
      -1.44825131e-01 7.81908333e-02 3.63328785e-01 2.40577653e-01
      -3.12966436e-01 -3.27619791e-01 -8.15260876e-03 -2.36793280e-01
      -5.11261374e-02 -2.38031268e-01 -2.78521895e-01 1.41943675e-02
      1.03044122e-01 2.93819606e-01 2.80691892e-01 8.15309107e-01
      -1.67865381e-01 -7.89075270e-02 0. 3.73245806e-01 -6.29641041e-02
      4.72455546e-02 -2.65845925e-01 -6.11401260e-01 3.24174166e-01
      -3.88801485e-01 -9.27508473e-02 1.63850978e-01 4.43258882e-02
      -2.80257493e-01 -2.16402709e-01 5.22233009e-01 2.92262230e-02
      4.64464664e-01 6.05624974e-01 -2.77710021e-01 3.06501895e-01
      -7.04607606e-01 -7.38877729e-02 2.40997553e-01 6.56832874e-01
      -5.29367208e-01 -3.61449361e-01 2.63914317e-01 -3.95514704e-02
      -1.20306738e-01 5.48738129e-02 2.01843008e-01 -3.05390090e-01
      3.71468961e-01 0. 6.48672462e-01 -7.50374615e-01 -3.79137903e-01
      1.85178161e-01 2.52908468e-01 2.18520835e-01 -3.33704054e-01
      1.57231227e-01 -6.20818675e-01 -9.49812680e-02 4.43307668e-01
      -9.60846618e-02 1.38645500e-01 5.41022606e-02 5.60521841e-01
      6.48194611e-01 3.94054979e-01 -4.19243872e-01 -2.52526134e-01
      -3.34240496e-01 1.37338834e-02 5.32451808e-01 -3.32492232e-01
      -4.86101121e-01 2.74026632e-01 3.13679278e-01 -3.20277959e-01
      -3.70835930e-01 7.29931667e-02 1.88945398e-01 5.83593845e-01 0.
      -2.76905715e-01 -2.94611931e-01 3.88793088e-02 -3.76890957e-01
      6.46609366e-01 2.71037072e-01 2.12841272e-01 -5.84253252e-01
      2.44746991e-02 6.67648971e-01 -6.78117573e-02 5.41495860e-01
      5.25683284e-01 4.14805233e-01 -7.20840096e-02 -9.54970494e-02
      -2.90437751e-02 1.58528209e-01 -6.93442047e-01 -5.78038812e-01
      -8.73412043e-02 2.76454955e-01 -2.57908165e-01 -5.69084167e-01
      4.57262129e-01 5.92169724e-02 -1.95862442e-01 2.32817695e-01
      4.40549582e-01 -8.74145329e-02 2.17739016e-01 0. 9.54094157e-02
      2.55345196e-01 -1.69346437e-01 -4.05813456e-01 -2.83791065e-01
      -4.98591438e-02 2.08072260e-01 6.80963248e-02 -2.34348133e-01
      2.12468505e-01 9.59983189e-03 1.42870247e-01 4.38836396e-01
      2.26958171e-01 -6.31984413e-01 1.39391720e-01 -3.07027370e-01
      3.66855040e-02 -8.67579937e-01 -4.96757030e-01 2.24311620e-01
      3.26251328e-01 -5.32465935e-01 -2.95147330e-01 5.34662962e-01
      2.76231617e-01 -3.89247626e-01 -3.83507162e-01 1.34855583e-01
      -9.24126655e-02 2.23951638e-01 0. -1.66247070e-01 5.06627977e-01
      -1.70745403e-01 -4.10570771e-01 4.03495371e-01 1.15377739e-01
      1.27820913e-02 2.50926882e-01 1.04646403e-02 5.03474057e-01
      1.60210863e-01 5.35590649e-02 2.72133783e-03 -3.42228413e-01
      2.47371569e-01 -1.81121752e-01 5.56450747e-02 3.93166989e-01
      -3.01508784e-01 4.34652984e-01 -5.48890373e-03 1.17148325e-01
      8.38575289e-02 -5.71487069e-01 -3.48362684e-01 -4.75310422e-02
      1.10869883e-02 8.40981528e-02 -3.69024456e-01 3.51676613e-01
      6.14380240e-01 0. -1.14839412e-01 1.03622377e-02 -4.95578302e-03
      -4.27844942e-01 1.91372454e-01 1.65690422e-01 -2.95825511e-01
      -8.47609267e-02 -2.11906806e-01 2.86635190e-01 2.89125890e-01
      -1.13661222e-01 1.40443325e-01 1.66578814e-01 -1.30438074e-01
      -6.64177835e-01 3.32646579e-01 -3.65258306e-01 -1.09834746e-01
      -3.11671615e-01 4.08702977e-02 -8.89059901e-02 -1.17733646e-02
      2.68066853e-01 3.71135697e-02 4.35652494e-01 -2.99947381e-01
      1.24867007e-01 -2.01108247e-01 -1.04496494e-01 -2.10907891e-01 0.
      1.90712377e-01 -8.76695216e-02 -3.10340941e-01 8.49058107e-02
      -1.65760294e-02 4.23482805e-01 -1.80121828e-02 1.99963674e-01
      9.23591573e-03 -2.41002500e-01 -1.64531961e-01 2.37980485e-02
      3.56124282e-01 -1.74372092e-01 -9.00166631e-02 -1.49404764e-01
      -9.15378556e-02 1.16065275e-02 1.27818570e-01 -4.18918580e-01
      2.07711875e-01 1.05591071e+00 -2.66194850e-01 -2.48781472e-01
      2.05460265e-02 1.09369539e-01 4.21442129e-02 1.34424344e-01
      2.08765388e-01 3.96708883e-02 -4.03430194e-01 0. 8.01384926e-01
      3.10742497e-01 -2.90279597e-01 8.88623372e-02 2.05781192e-01
      -2.56463379e-01 1.13796286e-01 3.39054435e-01 2.78923988e-01
      3.01545888e-01 5.19282743e-02 -1.22128110e-02 -6.01378739e-01
      -2.53125504e-02 5.59333861e-01 9.06943753e-02 -5.42466938e-01
      -4.45376962e-01 -3.89004350e-02 4.37108055e-02 4.08657044e-01
      -2.27507189e-01 -3.38549912e-01 1.02458291e-01 1.23861626e-01
      -2.57571459e-01 -1.28383756e-01 2.28524238e-01 1.17535137e-01
      1.37309700e-01 -2.67913435e-02 0. 1.20679379e-01 -1.83575287e-01
      1.73648857e-02 1.89546615e-01 -2.97566563e-01 -1.67896792e-01
      -6.99655235e-01 4.76961106e-01 -3.57147723e-01 4.41483438e-01
      -6.15185976e-01 -3.29325289e-01 4.48651493e-01 -4.42476533e-02
      1.77014887e-01 5.88051498e-01 -1.43588856e-01 2.37482041e-01
      -7.84951448e-01 3.33757371e-01 2.09029272e-01 8.42781782e-01
      -3.20039898e-01 -3.45818728e-01 1.36660814e-01 7.63315439e-01
      8.95234793e-02 -3.16744335e-02 1.53392226e-01 -2.09677443e-01
      2.15139836e-02 0. -2.82312512e-01 -1.31532863e-01 -6.75551832e-01
      1.60480559e-01 -7.68944696e-02 -1.36758059e-01 -3.71692777e-01
      1.38313770e-01 -3.58214587e-01 1.13811469e+00 -3.63571227e-01
      1.21082217e-01 -4.48881239e-01 9.97538716e-02 1.72085941e-01
      2.33245760e-01 -1.30853951e-01 -2.68999070e-01 -3.84803802e-01
      -1.88780218e-01 -7.80890048e-01 1.54642582e-01 4.41534013e-01
      6.44243136e-02 3.49178046e-01 3.26004237e-01 -2.65919030e-01
      -3.30325514e-01 -3.43385607e-01 -1.24427401e-01 2.40856200e-01 0.
      5.44807673e-01 -3.99498045e-01 -3.94017905e-01 -3.78274083e-01
      1.59892067e-01 2.53759115e-03 4.09106404e-01 -3.44148785e-01
      -3.11548829e-01 1.52437583e-01 -2.80414727e-02 3.06284847e-03
      2.28215173e-01 -1.01292077e-02 1.66109100e-01 -3.96970361e-01
      -2.79448658e-01 -1.11305192e-01 5.85475303e-02 -4.24095616e-03
      -1.68615207e-01 4.41752881e-01 5.34001172e-01 2.71934986e-01
      1.57687709e-01 -8.42096210e-01 1.83225572e-01 2.22277325e-02
      -5.08782938e-02 -1.33629501e-01 -3.03092599e-01 0. 5.42251408e-01
      -6.14300847e-01 2.02904388e-01 -7.90814817e-01 -2.89862826e-02
      -4.63485271e-02 1.69842809e-01 -3.55731010e-01 5.84874079e-02
      7.16073275e-01 -1.13025583e-01 1.74831346e-01 9.09552455e-01
      1.32075185e-02 -3.23745236e-02 3.80394697e-01 -3.94479215e-01
      -7.59324431e-01 -9.99466896e-01 2.99378097e-01 9.91028488e-01
      2.26497382e-01 3.90628040e-01 -2.51471907e-01 6.73960090e-01
      4.63679790e-01 1.80255651e-01 3.83227505e-02 1.38178930e-01
      1.06670856e-02 -1.72008485e-01 0. 2.86154538e-01 -2.31402218e-01
      -1.94452658e-01 -1.38657346e-01 -5.03944516e-01 2.52873808e-01
      1.61417425e-01 -3.36879969e-01 3.92258972e-01 4.13333148e-01
      4.95322235e-02 -6.81442738e-01 -3.22036862e-01 8.29380214e-01
      -3.03976029e-01 -1.31892776e-02 -4.28032041e-01 -3.06131601e-01
      4.04736586e-02 2.22841591e-01 -1.41234472e-01 1.31578505e-01
      1.16187371e-01 -1.16789103e-01 1.25126287e-01 6.30840600e-01
      -6.36788487e-01 -1.09993868e-01 -2.93845087e-01 3.57274152e-02
      -1.38735145e-01 0. 2.27454677e-01 -5.01573026e-01 -8.17892700e-02
      -3.30880433e-02 5.36309481e-01 2.24433020e-01 3.49939436e-01
      3.13658565e-01 -2.11461321e-01 -7.57991672e-02 -1.07755445e-01
      4.33132976e-01 9.46127921e-02 -6.07750826e-02 1.87361628e-01
      -4.37296778e-01 1.76601470e-01 2.76856959e-01 2.19076023e-01
      -2.78727740e-01 -1.22638317e-02 2.66843319e-01 -4.55860764e-01
      -4.12827879e-01 2.09778160e-01 1.06846482e-01 -5.40602207e-01
      1.41479760e-01 -1.49588019e-01 2.26888761e-01 3.99141371e-01 0.
      -9.36394557e-02 1.06266484e-01 -1.46585435e-01 1.36487111e-01
      -4.66885298e-01 3.84272933e-02 -4.54230964e-01 1.64588094e-01
      1.46090835e-01 4.41694289e-01 -2.51395494e-01 -3.46152633e-01
      -3.26146901e-01 3.58125806e-01 3.66891026e-01 -7.56770074e-02
      -6.00880682e-01 1.04784720e-01 -1.45978123e-01 1.76872741e-02
      2.52443165e-01 -2.63972700e-01 4.00836080e-01 3.72041225e-01
      1.39601111e-01 -8.38825852e-02 5.11088558e-02 -4.16113511e-02
      2.85158128e-01 -2.26182267e-01 -4.40793842e-01 0. 2.84675539e-01
      -1.72734201e-01 -2.89334834e-01 8.23932886e-03 2.11817205e-01
      -3.19846213e-01 1.57631546e-01 1.69458807e-01 2.08539739e-01
      1.01739816e-01 -4.95903902e-02 -2.33847126e-01 4.42624912e-02
      -3.05958331e-01 1.26296997e-01 -3.23869139e-01 1.60965830e-01
      -1.34881496e-01 -1.63514107e-01 1.87161624e-01 2.22239345e-01
      9.19990167e-02 -3.13181430e-01 -2.90874600e-01 7.43971542e-02
      3.92885894e-01 -9.26029012e-02 -4.48005870e-02 2.05076396e-01
      -4.07472789e-01 7.91734979e-02 0. -9.94250774e-02 -5.03347635e-01
      -1.19855709e-01 -4.19289827e-01 -8.84950534e-02 2.93484330e-01
      8.34678411e-02 3.90083455e-02 -3.03529322e-01 1.79792289e-02
      -2.81863451e-01 -1.71039000e-01 2.16900826e-01 1.92424804e-02
      3.97297651e-01 -2.87669469e-02 -1.89426586e-01 1.72112286e-01
      -1.67861342e-01 2.68550694e-01 2.31731877e-01 6.01337552e-02
      -4.26509887e-01 -1.77193508e-01 6.55670511e-03 8.96653756e-02
      -1.73539087e-01 8.07616562e-02 1.72828827e-02 -3.30994487e-01
      -2.22208217e-01 0. -2.66207103e-02 -4.24599737e-01 1.87856313e-02
      -8.15235972e-02 3.19551975e-01 -3.07157308e-01 9.69323665e-02
      1.33777857e-01 -1.60318449e-01 2.97798985e-03 -5.59744537e-01
      9.63968560e-02 -1.26840323e-01 1.28485143e-01 -8.36806819e-02
      -1.82362199e-01 3.68162543e-01 -2.64604568e-01 -1.28549442e-01
      3.08075130e-01 4.24080878e-01 2.66195655e-01 3.42404038e-01
      -5.70285976e-01 4.85900491e-01 6.00181818e-01 2.67403871e-01
      1.45331010e-01 -1.68499649e-01 -2.35686570e-01 -2.37237409e-01 0.
      -1.87365368e-01 -2.39766032e-01 4.14684087e-01 1.41663104e-01
      -4.70029742e-01 3.22562419e-02 4.90276469e-03 1.45576984e-01
      -4.05774504e-01 -1.32578015e-02 1.53139364e-02 1.97437525e-01
      5.76290861e-03 1.15060203e-01 -3.34433019e-02 2.64777765e-02
      -8.51260722e-02 -3.42117012e-01 -4.20614816e-02 4.87139791e-01
      5.57510436e-01 5.60678661e-01 1.03466853e-01 1.34845868e-01
      5.12185991e-01 1.84793875e-01 1.09168425e-01 -4.21879441e-01
      -1.79628551e-01 3.70206594e-01 -8.81872028e-02 0. 2.81172246e-02
      1.49664342e-01 -8.71368498e-03 -1.02038495e-01 5.95217273e-02
      -5.89139581e-01 -3.65697891e-01 -3.60104889e-01 -3.24164122e-01
      6.69517756e-01 -1.95557714e-01 -9.99441445e-02 -6.38799369e-02
      1.60532594e-01 -5.81542850e-02 1.95657015e-01 -1.51480958e-01
      -1.09828070e-01 -7.26487458e-01 -4.66010243e-01 1.84614986e-01
      -5.50387017e-02 -2.03964159e-01 -8.41657937e-01 2.07393229e-01
      8.13038588e-01 2.29261518e-01 -5.56223691e-01 -7.51899406e-02
      5.41737005e-02 2.77322866e-02 0. 1.15469091e-01 2.40255222e-01
      -4.61156182e-02 -8.26297998e-02 -2.46495113e-01 4.32081074e-01
      -1.91282347e-01 -9.41247493e-02 -1.14012733e-01 4.57082808e-01
      -9.97130647e-02 3.85707617e-01 6.10166676e-02 3.00519973e-01
      -3.19875419e-01 -1.86882287e-01 -4.15566921e-01 3.67484391e-01
      -2.23723724e-01 1.05345517e-01 5.34195125e-01 3.66004795e-01
      7.09739327e-02 1.28645495e-01 -1.63562089e-01 2.15681255e-01
      5.09878099e-02 -2.39987552e-01 2.86907107e-01 -7.32787773e-02
      2.91719109e-01 0. 7.39016524e-03 -2.68217362e-02 5.95265567e-01
      -4.20693338e-01 -6.76266253e-02 -1.14837311e-01 1.18277952e-01
      -9.65329781e-02 7.32373446e-02 -2.02369779e-01 -1.18828580e-01
      -5.70589960e-01 -1.63078174e-01 1.17830351e-01 7.82399714e-01
      -4.83162224e-01 -2.83893138e-01 4.86398280e-01 8.13215822e-02
      -2.20808551e-01 5.65778092e-02 -1.26013532e-01 3.33887815e-01
      -9.77292471e-03 -2.35509917e-01 3.38504285e-01 2.42375672e-01
      -6.59192681e-01 -1.19896941e-01 -7.83914402e-02 6.84178472e-01 0.
      1.88000530e-01 -1.87254667e-01 8.69485617e-01 -3.37730110e-01
      2.80643821e-01 -8.25687945e-01 -1.40366420e-01 -2.73480833e-01
      -3.62262316e-02 -2.86571205e-01 5.95975518e-01 -4.84409600e-01
      -3.72785740e-02 -6.15062892e-01 1.41523078e-01 -2.97000617e-01
      -4.75937873e-01 3.76281381e-01 1.27625644e-01 6.32019341e-01
      -2.49014925e-02 3.85390013e-01 1.23767659e-01 2.73997307e-01
      3.63134682e-01 5.25159061e-01 2.23504439e-01 -5.28825670e-02
      1.01413511e-01 -5.57041764e-01 -2.19848230e-01 0. -5.65076955e-02
      -4.82123733e-01 7.21573606e-02 -2.74268717e-01 1.00078332e+00
      -3.43469709e-01 -6.73750788e-02 -3.09837699e-01 -3.11831623e-01
      3.87273610e-01 -2.12668017e-01 -3.31113130e-01 3.49160165e-01
      1.77918509e-01 1.77729458e-01 9.48995724e-02 -5.09500876e-02
      5.22641838e-01 -6.92266166e-01 1.95905957e-02 4.46048826e-01
      5.54272473e-01 -3.28474134e-01 -2.67862771e-02 1.76439211e-01
      3.50499213e-01 -1.51680395e-01 1.77082151e-01 5.77203453e-01
      -3.56523693e-01 -2.36346096e-01 0. 4.78685766e-01 1.03871979e-01
      -2.71511704e-01 -8.22738186e-02 9.42556337e-02 -2.51710624e-01
      -1.26088455e-01 -3.75953734e-01 -3.50410908e-01 2.76222587e-01
      -6.18957877e-01 -1.29600331e-01 -5.47792375e-01 7.02090383e-01
      -2.59397537e-01 -2.13229150e-01 1.60531759e-01 1.55456930e-01
      1.80767015e-01 -2.52837569e-01 1.89604491e-01 1.11275181e-01
      -1.79690227e-01 -2.22829744e-01 6.97048068e-01 -2.37694085e-01
      2.14029208e-01 8.38486627e-02 2.75708996e-02 -5.42076409e-01
      -1.61332265e-01 0. 3.46041441e-01 -1.53931797e-01 -3.70272338e-01
      1.75904613e-02 -4.32670325e-01 -1.25645483e-02 -2.74589360e-02
      2.45234653e-01 2.39353955e-01 -1.54208824e-01 -1.28970221e-01
      5.70901064e-03 -5.06907940e-01 2.21135080e-01 3.29624802e-01
      -9.77911055e-02 3.09491344e-02 1.74668059e-01 -1.35706055e+00
      8.02957937e-02 -4.87077028e-01 1.26324788e-01 -1.56955585e-01
      2.57336497e-01 2.89390355e-01 3.19397837e-01 -4.86357749e-01
      2.04852998e-01 9.83959734e-02 -1.28417403e-01 -3.04216444e-01 0.
      -4.18474227e-01 6.59204721e-02 -2.15886265e-01 -1.62270796e-02
      4.18779314e-01 6.37785718e-02 -3.10350090e-01 -1.24992102e-01
      -1.41012147e-01 -2.75978707e-02 8.60342458e-02 -2.91232407e-01
      8.76602009e-02 3.71776313e-01 -6.29717827e-01 -6.21892326e-02
      2.32158139e-01 1.30194083e-01 -9.05405045e-01 -3.08736116e-01
      3.29941332e-01 4.63743180e-01 5.57848394e-01 -4.19536024e-01
      -2.17193842e-01 -3.97176683e-01 -4.95056808e-01 -3.10387939e-01
      -3.08937132e-01 1.11042768e-01 1.39941126e-01 0. 2.68691033e-01
      -1.71447173e-01 -1.56791255e-01 -2.39922732e-01 1.04891673e-01
      -8.02476853e-02 1.63272783e-01 -4.73484874e-01 -1.10560572e-02
      2.33474210e-01 4.67785209e-01 -2.40671024e-01 -1.30591452e-01
      -6.90049008e-02 1.14343810e+00 -4.83667672e-01 -7.24589527e-01
      1.77234024e-01 -6.41058087e-02 6.17688484e-02 -2.76502579e-01
      5.76604545e-01 -2.36990944e-01 3.13422561e-01 4.08609807e-02
      -2.69742087e-02 1.51050180e-01 -5.78340113e-01 4.40210551e-02
      2.50044882e-01 1.79299489e-01 0. 8.54774266e-02 -9.57081914e-02
      -4.13644463e-01 7.31884390e-02 2.17574760e-02 -6.39206693e-02
      -2.60274053e-01 -6.17942870e-01 -4.01492208e-01 -3.85856152e-01
      7.05662847e-01 5.35196671e-03 -7.03096166e-02 1.40502468e-01
      -1.39270797e-01 2.35926539e-01 1.89245746e-01 2.66450375e-01
      -7.93622494e-01 1.42589808e-01 8.60112309e-02 -1.99718010e-02
      4.33020830e-01 -1.52943969e-01 1.04830933e+00 3.21176469e-01
      1.18317073e-02 -1.12590241e+00 -1.14106297e-01 2.83080041e-01
      6.15231991e-01 0. 5.87622970e-02 5.71921282e-02 1.01193905e-01
      -2.75885254e-01 -1.15734950e-01 1.73333026e-02 -3.22412997e-01
      6.77928507e-01 8.68234113e-02 -2.98147090e-02 5.01807332e-01
      -3.57996553e-01 -2.53150553e-01 -3.45441729e-01 -1.87136084e-01
      3.61178741e-02 -1.96509168e-01 -6.37125224e-02 -1.23371355e-01
      -2.96912879e-01 2.65260369e-01 1.88437663e-02 8.72401521e-02
      1.06013700e-01 3.17305550e-02 -2.95382440e-01 -3.24721374e-02
      -1.02561748e+00 3.17038804e-01 -4.11668748e-01 8.32393765e-01 0.
      2.49482736e-01 -1.51000489e-02 -4.05254245e-01 -1.62684381e-01
      1.38649240e-01 -3.24253663e-02 5.44236600e-01 -5.06105602e-01
      -7.44957253e-02 -1.69254914e-02 -1.05271544e-02 4.84094881e-02
      2.10031554e-01 2.12147534e-02 1.94475159e-01 -3.67352545e-01
      6.65119112e-01 -2.38574356e-01 3.19657773e-01 2.79033929e-02
      -1.43631592e-01 -1.61252655e-02 -4.30729747e-01 -8.57619643e-02
      5.44109754e-02 -2.16141552e-01 -1.07452311e-01 1.20997898e-01
      3.64287198e-01 -2.96285242e-01 -7.48393685e-02 0. 1.52159631e-01
      1.44460976e-01 3.55409682e-02 3.54308188e-01 5.36773384e-01
      -5.53293303e-02 4.46440540e-02 -1.20305739e-01 -7.29065463e-02
      8.61671939e-02 -4.57331866e-01 3.96590173e-01 -8.53082120e-01
      1.28436372e-01 -1.88368976e-01 1.08107701e-01 -4.35191840e-01
      2.02925295e-01 -6.65445626e-02 2.32620556e-02 1.73498422e-01
      3.57516795e-01 -2.73503929e-01 2.41847813e-01 1.45527855e-01
      -1.55318156e-01 8.52950811e-02 -7.13610798e-02 4.03475851e-01
      -1.95812598e-01 -1.32720649e-01 0. 5.24563789e-01 4.80623245e-01
      -1.66637704e-01 1.54621959e-01 -6.94240853e-02 -5.85711360e-01
      2.15558589e-01 -1.92628384e-01 -3.15478235e-01 5.26724398e-01
      6.43947273e-02 3.56696844e-01 -6.12758577e-01 2.79569402e-02
      4.67806086e-02 -3.46774459e-01 -2.81926334e-01 -1.37633741e-01
      1.82626352e-01 2.92111397e-01 2.04151556e-01 2.42080465e-01
      3.45852114e-02 -3.41946602e-01 6.06354438e-02 2.07449332e-01
      -7.90057480e-02 -2.86616385e-01 6.89106345e-01 -3.59190196e-01
      -1.89929277e-01 0. 8.67371559e-02 2.66118050e-01 -3.08674037e-01
      -1.79527968e-01 -3.31002772e-01 -4.41945530e-02 -5.90505600e-01
      -4.00498033e-01 2.17529535e-01 5.61163068e-01 -3.61266196e-01
      -3.88444513e-01 -4.27433401e-01 -3.15572172e-01 4.17413831e-01
      1.53471023e-01 7.63356239e-02 -2.13402405e-01 -1.08906460e+00
      -9.11565404e-03 2.54492313e-02 2.17966065e-01 -3.86071533e-01
      -5.64156771e-01 -2.01773062e-01 -3.27205569e-01 -1.18196771e-01
      -5.46112537e-01 2.93576777e-01 -5.24743915e-01 -6.26387894e-02 0.
      7.81167209e-01 -2.72466779e-01 -1.48706660e-01 -5.63862562e-01
      -9.92561132e-03 -9.01362672e-02 -1.14844665e-01 -4.11644159e-03
      -1.53185099e-01 -3.30166340e-01 3.72735202e-01 -1.71790749e-01
      -8.49483833e-02 5.85839391e-01 -7.89619461e-02 -1.48443177e-01
      2.24446818e-01 -2.46692657e-01 -5.69782615e-01 -2.24353269e-01
      -2.58656498e-02 -1.85850352e-01 -5.81559479e-01 -6.06241405e-01
      4.19917017e-01 2.09744900e-01 -3.87649238e-01 -1.83472261e-01
      7.62735028e-04 -3.52848440e-01 3.21514636e-01 0. 1.30236357e-01
      -2.66031921e-01 -2.57595122e-01 5.65899815e-03 -2.32892886e-01
      -2.15546712e-02 -2.36492716e-02 9.25495103e-02 1.01748317e-01
      3.53060097e-01 2.09791556e-01 -2.19431087e-01 -4.37655002e-02
      8.92751813e-02 3.29194754e-01 -2.24862143e-01 -3.10776770e-01
      2.63578892e-01 -5.47872305e-01 1.89893872e-01 -1.32050201e-01
      7.82818124e-02 7.59177804e-02 -5.01878381e-01 -1.00383177e-01
      -8.02342668e-02 3.96726094e-02 -4.18928474e-01 -1.53267145e-01
      -1.27145946e-01 6.87336981e-01 0. -1.74986109e-01 3.36210072e-01
      -9.72364098e-02 1.51244714e-03 -5.06115139e-01 3.74168754e-01
      1.34423956e-01 -5.90065680e-02 -1.21337973e-01 5.69498800e-02
      3.71708155e-01 -2.26171082e-03 -4.14076418e-01 -2.19029889e-01
      6.68802381e-01 -4.61704254e-01 -1.03195243e-01 -3.46006602e-02
      -6.54913038e-02 6.88236892e-01 1.93240926e-01 5.48698381e-02
      1.72257379e-01 -4.83695984e-01 7.45130181e-01 8.13794136e-02
      1.10125840e-01 -6.37288392e-01 -2.70491064e-01 2.99778014e-01
      4.90257412e-01 0. -1.42086104e-01 -8.13576207e-02 1.62238888e-02
      2.54817426e-01 -4.10759866e-01 2.33972352e-02 -1.80342749e-01
      -4.09635454e-01 -1.10754505e-01 2.41583079e-01 1.03810899e-01
      2.38789901e-01 -1.24938771e-01 4.48934808e-02 -2.27660373e-01
      2.14969531e-01 3.76174688e-01 2.62645811e-01 8.49559307e-02
      1.49777800e-01 -2.29549810e-01 -1.07002825e-01 -4.09696028e-02
      2.68107623e-01 2.30060279e-01 -2.95208812e-01 2.05551133e-01
      -7.06504583e-02 -3.16729784e-01 1.24851808e-01 3.04846346e-01 0.
      -1.12612866e-01 -2.92322934e-01 2.40304805e-02 2.04891473e-01
      -1.60678923e-01 -5.68522930e-01 7.48419881e-01 1.25857368e-01
      -1.63522452e-01 1.00758098e-01 1.53983474e-01 -1.84439689e-01
      5.17800033e-01 -4.05949771e-01 -9.82124358e-02 -4.56427425e-01
      -8.09071492e-03 7.27296323e-02 -2.14437291e-01 -1.00429408e-01
      -3.54189515e-01 1.89727500e-01 2.83521771e-01 3.25115383e-01
      1.99577630e-01 -3.94269019e-01 -1.27168387e-01 -8.13319683e-02
      1.07764766e-01 -3.06568034e-02 -2.32564956e-01 0. -1.68618202e-01
      -3.77501510e-02 -1.37799503e-02 2.18351126e-01 -3.15261692e-01
      2.35576257e-01 -2.77458608e-01 4.48805034e-01 -3.25490773e-01
      -5.16443998e-02 4.19325799e-01 -3.31367940e-01 -6.36484444e-01
      -5.90333879e-01 3.83661449e-01 6.99282587e-02 -2.57375538e-01
      3.54019046e-01 -5.32816201e-02 5.24767756e-01 2.55700678e-01
      1.28169566e-01 1.43668815e-01 4.11905050e-01 -9.11272094e-02
      1.28532335e-01 2.92786032e-01 -3.45868796e-01 6.44955263e-02
      -9.15919170e-02 -3.99336368e-02 0. 1.30627275e-01 2.01164261e-01
      -1.58823684e-01 -1.18050903e-01 -1.20081976e-01 -1.78137034e-01
      5.96066415e-01 -1.28548577e-01 -5.07447302e-01 -1.85363218e-01
      2.49692455e-01 -9.69346799e-03 1.03390124e-03 2.33326524e-01
      2.79587484e-03 -4.72129956e-02 -2.57064939e-01 4.02484871e-02
      2.16964349e-01 1.02200352e-01 -2.74931133e-01 2.20517099e-01
      -7.01956376e-02 -8.81738588e-02 1.82640508e-01 1.47599280e-01
      2.77157389e-02 -4.45196271e-01 2.99264193e-01 -3.25759828e-01
      3.51263851e-01 0. -6.76485002e-02 -1.17311776e-01 2.10487247e-01
      -6.36401549e-02 1.55534104e-01 -3.64158213e-01 -2.13448796e-03
      1.98889807e-01 1.33055955e-01 3.72300297e-01 3.72527428e-02
      -6.99218869e-01 3.26705962e-01 7.71222651e-01 3.69660228e-01
      -6.45968392e-02 -1.39001682e-01 2.83607781e-01 -1.43675372e-01
      7.19991550e-02 2.09853947e-01 2.91270375e-01 -8.19224399e-04
      -4.86762971e-01 -2.23565236e-01 3.53191257e-01 5.80845714e-01
      -1.93918943e-01 6.27631962e-01 -2.21825182e-01 4.20262724e-01 0.
      3.34047794e-01 6.18617423e-02 3.64163339e-01 8.43140017e-03
      -5.42943716e-01 3.36743563e-01 -2.92301536e-01 6.16579726e-02
      2.70517886e-01 -2.26555243e-01 4.68048751e-01 -2.00817779e-01
      -9.17955339e-02 5.07155001e-01 1.41526788e-01 3.92487586e-01
      -3.27979803e-01 5.21618366e-01 2.17479877e-02 1.58542722e-01
      3.86354327e-01 -7.74845004e-01 -4.75612938e-01 1.02849260e-01
      2.84281760e-01 -6.02421910e-02 7.37737715e-01 -2.99436375e-02
      6.90247893e-01 -2.08439082e-01 3.89992297e-01 0. -4.86814082e-02
      -3.94012146e-02 -1.16941921e-01 2.65671223e-01 2.05849633e-01
      -6.82978798e-03 3.72377038e-01 -2.23303601e-01 -2.25579113e-01
      -1.83351353e-01 2.76811551e-02 -2.56221145e-01 7.25964308e-02
      -4.37690198e-01 2.91391313e-01 5.77748157e-02 -3.15793663e-01
      -3.10993250e-02 2.68862486e-01 2.63133675e-01 4.11083968e-03
      -1.41812414e-01 3.98505390e-01 -4.83573496e-01 4.25619543e-01
      -2.10536718e-01 -2.37257391e-01 -3.83050621e-01 2.17530340e-01
      -3.86910945e-01 2.73574144e-01 0. 1.25195235e-01 -5.00242352e-01
      -6.01635780e-03 -6.43665120e-02 9.87084284e-02 6.19127825e-02
      -1.04880489e-01 -3.29690754e-01 3.22897494e-01 -3.48168939e-01
      4.07495916e-01 6.48017675e-02 8.81638471e-03 3.90261143e-01
      -4.92521405e-01 -1.63307503e-01 -1.87481239e-01 4.17301089e-01
      6.78478600e-03 2.89914850e-02 -5.25369406e-01 -4.50758606e-01
      5.21229863e-01 3.66448686e-02 -1.05225280e-01 3.35424662e-01
      3.81890088e-01 -1.70107141e-01 -1.48361355e-01 -5.33765033e-02
      2.30761856e-01 0. 9.99164581e-02 -2.65279680e-01 -3.36541533e-01
      6.98205829e-01 -5.07262945e-02 -2.02061176e-01 5.87794721e-01
      -2.54691280e-02 2.14739710e-01 4.86608669e-02 2.69687951e-01
      1.85721606e-01 2.86708593e-01 -1.24052957e-01 -3.89647454e-01
      4.16797221e-01 -4.87028509e-01 -1.02980964e-01 -4.58711199e-02
      3.59758106e-03 -4.05828178e-01 5.51629722e-01 1.36960208e-01
      4.20106202e-01 3.00877631e-01 -4.63360250e-01 -4.69893217e-02
      3.87216359e-01 1.85745969e-01 -1.18784174e-01 -6.55345842e-02 0.
      -3.05423409e-01 -3.12778205e-01 3.59234251e-02 -4.59691942e-01
      -3.91698003e-01 1.77998364e-01 6.04496226e-02 -2.42143750e-01
      -1.38162091e-01 -1.66001782e-01 5.96691012e-01 -5.49342453e-01
      1.92638069e-01 -2.06628188e-01 2.37127960e-01 1.13439202e-01
      3.83852869e-01 4.24327463e-01 -1.04519583e-01 4.29237783e-01
      -4.33960825e-01 2.87932724e-01 4.05370414e-01 -1.87813431e-01
      -2.93985277e-01 -2.39123315e-01 9.07162577e-03 -1.48805469e-01
      1.80938855e-01 -2.69975178e-02 -2.64133424e-01 0. -1.34552315e-01
      -1.16685860e-01 4.10823151e-02 -4.54173863e-01 2.46393427e-01
      -9.14438888e-02 -1.46265212e-03 3.34579885e-01 2.50658423e-01
      -2.29200944e-01 7.02001825e-02 -3.59860599e-01 -2.09202692e-01
      -7.28013664e-02 5.14031500e-02 -1.36459246e-01 -1.77313983e-01
      -5.19917570e-02 -2.08287150e-01 -3.62907164e-02 5.92367709e-01
      5.60018308e-02 8.16100463e-02 -3.81091177e-01 -6.54171854e-02
      -8.91729817e-02 9.91842896e-02 -3.01691979e-01 1.14841349e-01
      -3.00562620e-01 -3.23491800e-03 0. -2.18912393e-01 6.56363904e-01
      8.86541829e-02 -7.34474510e-02 6.24384917e-02 -2.95631200e-01
      3.53957087e-01 2.91315854e-01 1.53911278e-01 -1.82458133e-01
      1.53602049e-01 -1.05802722e-01 5.08550629e-02 -4.59399611e-01
      4.60835695e-01 -4.06349868e-01 -2.34513590e-03 -6.77718297e-02
      -3.02600861e-01 6.35525584e-01 4.10365224e-01 -5.09717941e-01
      7.35757723e-02 -2.27540433e-01 -3.31930518e-01 5.37331104e-01
      5.33139408e-01 8.99732038e-02 1.61787644e-01 -2.94748932e-01
      2.59745061e-01 0. 1.68166295e-01 6.70700446e-02 -3.12319189e-01
      -1.45661294e-01 6.98777735e-02 -3.05192500e-01 1.99425265e-01
      -1.04624018e-01 -1.08351111e-01 -6.26081884e-01 -3.07577997e-02
      4.82013226e-01 3.71606387e-02 6.30893037e-02 -1.62606820e-01
      3.21903490e-02 -1.70833468e-01 2.11252287e-01 -1.40035734e-01
      1.72148999e-02 4.88825589e-02 -2.29076385e-01 6.83788657e-01
      8.75874162e-02 -4.36140448e-02 -2.54783541e-01 -1.33661563e-02
      1.04666337e-01 -1.19702429e-01 -3.59418184e-01 7.45577514e-02 0.
      -5.42008698e-01 -1.69448126e-02 -3.66277128e-01 8.95667225e-02
      -1.80713862e-01 1.41269341e-02 7.43116438e-02 -2.95273989e-01
      2.38923058e-02 -1.37267530e-01 6.45027637e-01 5.26283562e-01
      2.85292208e-01 -1.40022978e-01 5.95960990e-02 1.90554425e-01
      1.19725093e-01 -1.53325781e-01 -4.20313388e-01 9.77208316e-02
      -2.41153046e-01 3.71285714e-02 -1.64850000e-02 -1.08989783e-01
      -6.60218522e-02 -6.68148100e-02 3.49415988e-02 -3.68874855e-02
      3.10700357e-01 1.02559082e-01 -2.83721894e-01 0. -1.65803134e-01
      3.00163537e-01 -5.00068367e-01 9.72018093e-02 -1.25080243e-01
      -1.17491595e-01 -8.09481964e-02 5.71235240e-01 5.29070199e-01
      8.68161619e-02 4.95641291e-01 -4.29090224e-02 -3.24854314e-01
      -7.58020505e-02 -2.87990272e-01 4.14122432e-01 -8.97370577e-01
      -3.75994407e-02 -5.64447582e-01 6.90827489e-01 -3.86010320e-03
      -1.89634100e-01 7.95712229e-03 -2.02324390e-01 -1.84446201e-01
      -2.10281715e-01 3.85051996e-01 5.31655364e-03 6.26530945e-02
      1.29941121e-01 -2.74120122e-01 0. -1.82095414e-03 2.09271953e-01
      2.77705222e-01 5.91643602e-02 7.42939189e-02 1.10435048e-02
      -1.32785723e-01 1.46752134e-01 -1.11903787e-01 1.88883156e-01
      -1.60340801e-01 -6.91451430e-02 -3.09383553e-02 -1.00927554e-01
      6.25569969e-02 2.22175166e-01 -6.16296083e-02 -9.03450921e-02
      8.42420012e-02 -2.61472970e-01 -4.48096469e-02 -3.24172288e-01
      -4.33398075e-02 3.36698174e-01 2.70483475e-02 6.03449821e-01
      -1.01582594e-01 -2.70787299e-01 3.67622018e-01 -1.20153941e-01
      2.55252600e-01 0. -1.35286316e-01 4.56239611e-01 1.48919635e-02
      9.90834609e-02 -3.95687461e-01 -1.02476604e-01 -2.81945854e-01
      -2.72304565e-01 1.14881463e-01 8.81240517e-02 -4.75283973e-02
      -4.25123796e-02 3.70810926e-01 6.86828643e-02 -3.85948151e-01
      4.36143517e-01 -3.19281399e-01 7.84654617e-01 -8.33975971e-01
      -9.54506546e-02 -2.17850491e-01 1.85003746e-02 3.66020799e-01
      -2.78373867e-01 2.10898414e-01 -3.45025361e-01 2.96271026e-01
      2.23424174e-02 5.42112708e-01 -4.70279664e-01 1.18209772e-01 0.</_></support_vectors>
  <decision_functions>
    <_>
      <sv_count>1</sv_count>
      <rho>-9.2306259619309312e+00</rho>
      <alpha>
        1.</alpha>
      <index>
        0</index></_></decision_functions></my_svm>
</opencv_storage>
