<?xml version="1.0"?>
<opencv_storage>
<my_svm type_id="opencv-ml-svm">
  <svm_type>C_SVC</svm_type>
  <kernel><type>LINEAR</type></kernel>
  <C>1.</C>
  <term_criteria><epsilon>2.2204460492503131e-16</epsilon>
    <iterations>500000</iterations></term_criteria>
  <var_all>4096</var_all>
  <var_count>4096</var_count>
  <class_count>2</class_count>
  <class_labels type_id="opencv-matrix">
    <rows>1</rows>
    <cols>2</cols>
    <dt>i</dt>
    <data>
      -1 1</data></class_labels>
  <sv_total>1</sv_total>
  <support_vectors>
    <_>
      -4.83887881e-01 4.28255826e-01 2.63064653e-01 -1.29453838e-01
      5.90734817e-02 2.90824234e-01 2.65334606e-01 2.23751977e-01
      -2.12455422e-01 4.66498658e-02 -1.64575931e-02 1.28408194e-01
      4.46859561e-02 -3.78782779e-01 -4.91603494e-01 3.07987243e-01
      -9.38522723e-03 5.95343590e-01 -5.84976792e-01 -7.35293794e-03
      1.50599301e-01 -1.17929883e-01 -1.98126093e-01 -2.31916308e-01
      2.99752980e-01 -1.62975341e-01 6.41559660e-02 8.32905248e-03
      2.12537460e-02 3.33081521e-02 3.76148999e-01 0. -4.15072680e-01
      -3.37939292e-01 3.00004840e-01 -2.44811270e-02 -3.48997951e-01
      2.16116354e-01 -2.63937443e-01 -1.02716811e-01 2.76855201e-01
      -3.33287030e-01 5.12533903e-01 4.06017005e-01 -4.51647699e-01
      6.19387813e-02 -5.96010163e-02 1.79435983e-01 -3.85976769e-02
      3.51384044e-01 -1.69722605e-02 -3.30320299e-01 3.82119752e-02
      -6.20978363e-02 -3.40661317e-01 1.06640369e-01 1.44962769e-03
      -1.30421743e-01 1.97237626e-01 3.33133250e-01 -3.78579721e-02
      -2.11259216e-01 -1.17953300e-01 0. -1.75663784e-01 -4.02444899e-02
      -1.83457732e-01 -3.82311307e-02 4.06940252e-01 -3.28217328e-01
      -3.27168331e-02 -2.54414767e-01 6.26246452e-01 -1.74643114e-01
      4.28438753e-01 -2.34973319e-02 1.41345896e-02 1.03884406e-01
      3.04104626e-01 -5.36575094e-02 -6.66157901e-02 3.01210970e-01
      1.66907430e-01 -1.32320877e-02 -2.32574478e-01 -1.16867915e-01
      -2.68298131e-03 -1.90503180e-01 -9.48309228e-02 -6.69414461e-01
      3.38457078e-01 4.14140522e-01 -3.63700479e-01 3.42131615e-01
      -9.04049911e-03 0. -6.18536413e-01 1.73918590e-01 -3.30675900e-01
      7.34456554e-02 6.99919701e-01 -4.23496395e-01 1.38728917e-01
      -4.31342274e-01 -6.11461736e-02 -5.05734146e-01 2.44799286e-01
      1.40291244e-01 1.62932232e-01 3.63029867e-01 -9.06104669e-02
      2.98997909e-01 7.23502696e-01 3.70394848e-02 -8.45289975e-02
      2.90640265e-01 1.33910820e-01 1.78120866e-01 -2.48409837e-01
      -1.98168680e-01 4.74084735e-01 2.03781039e-01 -7.07609296e-01
      2.70524263e-01 -6.63641021e-02 1.92439586e-01 -1.16086803e-01 0.
      -2.29600519e-01 -3.30105245e-01 4.33832668e-02 -2.50684857e-01
      1.88116312e-01 3.96652380e-03 4.45475370e-01 -3.82716000e-01
      7.84524918e-01 -4.87315416e-01 3.15444805e-02 7.24273324e-01
      2.71340579e-01 -2.37761438e-01 -3.04192435e-02 -1.07622407e-01
      1.69031322e-01 -1.00537471e-01 -1.61908031e-01 -7.94756413e-01
      3.75345349e-01 -3.62907201e-01 -2.44516134e-02 -2.90838748e-01
      6.08170740e-02 2.54917033e-02 1.80207491e-02 -1.93413794e-02
      -2.38723457e-01 1.60345793e-01 3.35725933e-01 0. 4.20488417e-01
      5.04308939e-01 -5.00583529e-01 -3.25769745e-03 -3.22152115e-02
      6.39377832e-02 -5.97713552e-02 -2.65795946e-01 2.28583187e-01
      4.02488597e-02 1.21825062e-01 -3.02709192e-01 7.32986107e-02
      -2.85586089e-01 -1.20567039e-01 -6.09116293e-02 3.46708409e-02
      5.24975836e-01 -3.35239992e-02 -2.23088786e-02 -4.64574099e-01
      2.52175927e-01 1.99045748e-01 -4.72390279e-02 -1.07244298e-01
      2.80016273e-01 1.34566471e-01 1.13029331e-01 -2.26883784e-01
      5.69983959e-01 -2.76554435e-01 0. -7.12674484e-02 1.51423097e-01
      3.27625275e-01 2.59436727e-01 1.18274353e-01 -3.34997475e-01
      4.84466590e-02 7.95480087e-02 -1.23406276e-01 -4.18690741e-01
      2.25862101e-01 -1.70664579e-01 -4.80089746e-02 -4.34335060e-02
      8.51446167e-02 -9.15343463e-02 1.57395124e-01 -1.66110963e-01
      -2.67102033e-01 -4.11459431e-02 1.85492694e-01 2.73105383e-01
      2.51318902e-01 -6.71396375e-01 1.76354021e-01 2.52538566e-02
      -2.64968455e-01 -7.34219030e-02 -1.60797194e-01 2.54313886e-01
      -2.71460321e-02 0. 3.74842994e-02 -2.22489581e-01 -5.03890961e-02
      1.29302561e-01 5.24093732e-02 -1.11413531e-01 1.45350963e-01
      4.53535914e-01 2.18120776e-02 -4.79215652e-01 5.05796254e-01
      2.27175251e-01 -2.40586430e-01 -9.15824100e-02 1.81408897e-01
      -2.87123531e-01 -1.17608599e-01 1.54624075e-01 2.04879850e-01
      -1.15158394e-01 -3.06953155e-02 -2.21500590e-01 1.24008581e-01
      -5.38406372e-01 -2.94165432e-01 -7.58837163e-02 -4.09771413e-01
      1.53997898e-01 4.16507363e-01 -1.89494297e-01 -2.35588193e-01 0.
      -6.39692694e-02 2.39299506e-01 3.80248308e-01 5.42283840e-02
      -3.95048469e-01 -8.80186039e-04 -4.07917827e-01 3.17441463e-01
      -6.33201227e-02 -3.96252513e-01 -5.38519084e-01 -3.50185990e-01
      3.50919783e-01 -4.29968715e-01 1.86114818e-01 1.12482131e-01
      -5.83388552e-04 -1.35044694e-01 -2.95809895e-01 -2.56470025e-01
      2.75192529e-01 -2.01393589e-01 2.26785004e-01 -2.93405771e-01
      -1.81298718e-01 4.53893803e-02 -4.85034883e-02 2.34025821e-01
      -3.42222691e-01 -2.04254672e-01 -2.25394994e-01 0. -3.32050771e-01
      6.13134466e-02 -6.24259233e-01 2.30738923e-01 1.10682875e-01
      1.58130407e-01 -1.56658933e-01 -6.64425967e-03 2.19147176e-01
      -1.03411324e-01 2.58510225e-02 2.98912257e-01 -4.19731922e-02
      2.02820107e-01 -1.38004243e-01 5.31593204e-01 2.77302898e-02
      -2.10791022e-01 -4.54428196e-01 -2.37890825e-01 4.88491356e-02
      -3.46053064e-01 5.51841781e-02 -2.53374785e-01 -3.26971300e-02
      3.46501917e-01 -2.92688042e-01 3.87477398e-01 -1.08750428e-04
      9.81185399e-03 -2.77856231e-01 0. -9.32852030e-01 3.58933806e-01
      -5.60149014e-01 5.15174568e-01 2.71888047e-01 -2.96160460e-01
      8.24793503e-02 2.43794546e-01 5.57554543e-01 -2.09351540e-01
      -7.57604912e-02 3.06993186e-01 -8.35161470e-03 -6.02754831e-01
      1.33485839e-01 -3.61186445e-01 -2.35919319e-02 1.99673161e-01
      3.47902924e-01 2.68306524e-01 1.94334567e-01 -5.27851172e-02
      -1.44279838e-01 2.90125877e-01 3.54507327e-01 3.91286671e-01
      1.15706347e-01 2.64296621e-01 -4.00900841e-01 1.27470106e-01
      -1.79511368e-01 0. -4.00154710e-01 4.13403302e-01 6.05400316e-02
      1.92859694e-01 -2.21706964e-02 -3.18775654e-01 4.21403170e-01
      2.15309933e-01 7.51758143e-02 -7.49984458e-02 2.50791043e-01
      1.81437105e-01 -1.06718540e-01 -2.98472404e-01 2.17597857e-01
      -2.00223818e-01 2.90326864e-01 -8.99059325e-03 2.42295474e-01
      4.59538281e-01 -3.57119769e-01 -8.30833316e-01 -8.71435642e-01
      -1.13614172e-01 -1.60923734e-01 7.29478538e-01 -1.04336534e-02
      5.17308533e-01 -1.82152569e-01 1.12555370e-01 -2.89484188e-02 0.
      -3.20537835e-01 -3.30990031e-02 2.05101684e-01 1.68793425e-01
      -8.29102099e-03 -1.44703165e-01 -1.58296719e-01 -1.32957980e-01
      3.98990661e-01 -1.38619646e-01 6.16450012e-01 -7.36034438e-02
      -1.14924768e-02 2.27216497e-01 1.49893597e-01 -1.02829479e-01
      1.64970130e-01 3.43905419e-01 3.36959451e-01 1.33837879e-01
      5.59248567e-01 -2.27600828e-01 -2.83154815e-01 -7.22321689e-01
      -5.02427399e-01 -3.61836523e-01 4.89400864e-01 8.26876089e-02
      1.17462687e-01 3.17038953e-01 2.53405645e-02 0. 1.46959275e-01
      8.06036651e-01 -2.28048354e-01 1.06119730e-01 -3.93373430e-01
      5.29133916e-01 3.26764226e-01 -6.46460056e-01 -2.16424137e-01
      -4.56829578e-01 -4.70912158e-02 -1.28577918e-01 -2.39538625e-01
      1.13098525e-01 7.20036104e-02 -4.34353083e-01 1.50338367e-01
      -1.12180546e-01 -6.91603869e-03 9.49082151e-02 2.54826963e-01
      1.36234239e-01 4.49976802e-01 -2.98796207e-01 -2.21786983e-02
      1.32332787e-01 -4.79315490e-01 -3.17914672e-02 -8.75501186e-02
      2.79669732e-01 -4.67879951e-01 0. -2.89055794e-01 6.91322625e-01
      -1.55692622e-01 2.98642486e-01 -1.84362292e-01 4.24619019e-01
      6.63626716e-02 -6.95502818e-01 1.35839581e-01 1.33739784e-01
      1.44384623e-01 -2.59800673e-01 1.92950666e-01 -3.33337307e-01
      2.91337490e-01 -1.95335910e-01 1.92195624e-01 -1.78781644e-01
      -4.61870879e-01 1.07786946e-01 -1.10115603e-01 -2.47999113e-02
      2.14813143e-01 -4.20820683e-01 -1.99057132e-01 3.70245099e-01
      -2.58699283e-02 -6.91543967e-02 -5.74291348e-02 3.51731688e-01
      -9.33796838e-02 0. 2.13487670e-02 7.65759945e-02 -2.03646168e-01
      2.11372524e-01 -3.15499336e-01 1.85748547e-01 3.50139529e-01
      -4.48770821e-01 -1.27652764e-01 -1.66721448e-01 3.99371386e-02
      1.93489119e-01 -2.05037072e-01 -4.04480815e-01 5.98819137e-01
      -3.84147704e-01 7.59385824e-02 2.15364039e-01 2.49295354e-01
      -3.45287889e-01 -3.26115400e-01 -7.35746622e-02 1.49837434e-01
      -1.51904792e-01 -7.99673423e-02 5.89951038e-01 -2.23583095e-02
      1.00286737e-01 -1.47319317e-01 1.19764164e-01 -2.08128512e-01 0.
      3.71157587e-01 -3.64600211e-01 2.36641258e-01 2.26712868e-01
      -1.16052255e-01 1.43846408e-01 7.38033235e-01 -1.97580636e-01
      3.69194478e-01 -5.42636395e-01 4.43961859e-01 1.73554607e-02
      -1.26579046e-01 -1.77026063e-01 -5.42299859e-02 -4.33454722e-01
      -5.21920264e-01 -2.63481498e-01 3.06074381e-01 -3.98985386e-01
      1.15680590e-01 -3.98279764e-02 1.55479118e-01 3.34719270e-01
      -2.36668199e-01 -6.79373324e-01 5.30559838e-01 9.81426314e-02
      -4.21562433e-01 1.01049013e-01 1.04210481e-01 0. 1.71128258e-01
      3.20989311e-01 1.15996212e-01 -2.78960347e-01 1.42599910e-01
      2.63441175e-01 -7.40763498e-03 9.40347090e-02 -1.78113922e-01
      8.62063617e-02 2.18684092e-01 -2.58757263e-01 1.41255200e-01
      7.39383996e-02 -1.75353050e-01 -2.62055159e-01 -2.89986938e-01
      3.99624079e-01 -2.93733329e-01 -4.51939590e-02 1.98042363e-01
      -3.23197752e-01 -2.34378934e-01 -2.70960666e-02 -7.80621111e-01
      -2.77133971e-01 3.52663994e-01 -1.22094313e-02 -4.28718254e-02
      3.83198798e-01 -5.59953377e-02 0. 2.22344741e-01 3.58490460e-02
      5.49564481e-01 4.63462651e-01 -4.07643229e-01 -3.57671887e-01
      2.95261800e-01 -1.97232246e-01 5.15192449e-02 -1.36923924e-01
      3.44910234e-01 -3.42384540e-02 1.83358833e-01 -5.53679943e-01
      9.85904694e-01 -1.87510535e-01 1.43601716e-01 -1.57761157e-01
      -8.98116007e-02 -2.19255999e-01 -8.59656259e-02 1.35797739e-01
      5.51143944e-01 1.61656807e-03 5.16472697e-01 2.13960245e-01
      -1.03545018e-01 4.86869931e-01 1.05675407e-01 1.13478653e-01
      -1.20018810e-01 0. 4.01353300e-01 -2.20067918e-01 3.80319268e-01
      -4.31063324e-01 -2.65855547e-02 -2.47760192e-02 -6.35632932e-01
      2.58809865e-01 -3.49200010e-01 -1.20343931e-01 -2.73658186e-01
      3.32700968e-01 6.26380295e-02 -1.32725462e-01 4.47216749e-01
      3.78956616e-01 -3.66675168e-01 1.36492819e-01 -1.19057238e+00
      -6.37946606e-01 -4.72301960e-01 -1.21980548e+00 1.78972051e-01
      -3.08786869e-01 1.70857489e-01 8.53972957e-02 -3.97093832e-01
      2.96990350e-02 1.20127693e-01 -2.76406463e-02 -2.08094269e-01 0.
      2.68563092e-01 3.15589830e-02 -4.82624203e-01 -7.20366716e-01
      1.48532450e-01 2.56131202e-01 -7.54601061e-01 1.74054593e-01
      -5.18731833e-01 3.11411232e-01 4.63361621e-01 3.58256310e-01
      4.91449833e-01 -2.56067485e-01 1.88284695e-01 9.87248346e-02
      3.28526735e-01 -5.58201134e-01 -5.95859528e-01 -1.65174633e-01
      1.00799054e-01 2.58983254e-01 2.19441101e-01 2.01463789e-01
      -6.39506280e-01 -2.25226864e-01 -6.58143044e-01 -2.39611231e-03
      -1.49185017e-01 1.16595589e-02 5.89649081e-02 0. -3.23147714e-01
      2.41319649e-02 -6.59302771e-02 1.74627349e-01 -3.14426303e-01
      -3.94033074e-01 1.38027236e-01 2.61396497e-01 -2.34164864e-01
      -1.92284361e-01 4.19484168e-01 1.39696017e-01 -2.44325995e-01
      5.29355764e-01 -2.91709572e-01 7.07978532e-02 -2.25065965e-02
      2.83471137e-01 -3.98354650e-01 -3.89663666e-01 -3.30304094e-02
      2.81798244e-01 8.10836256e-02 1.72615647e-01 2.09167793e-01
      -1.60097942e-01 3.32539648e-01 -6.66480362e-02 1.49896964e-01
      1.23250924e-01 -2.26082206e-01 0. 2.10079491e-01 1.00777850e-01
      -1.13705263e-01 2.11422920e-01 4.99448866e-01 7.57261217e-02
      -1.27067855e-02 -4.08941507e-01 -7.52918571e-02 -3.50151956e-01
      4.35864151e-01 -1.75097436e-01 -4.32305098e-01 -3.64568681e-01
      4.57372777e-02 1.37506768e-01 -4.29172777e-02 4.07807320e-01
      -4.38520551e-01 4.00308520e-01 -2.25222990e-01 -1.29918873e-01
      5.42857461e-02 -5.08354425e-01 -1.64696500e-01 8.53974447e-02
      3.48466188e-01 3.97703558e-01 -1.23673361e-02 -2.06324697e-01
      -1.08921558e-01 0. -4.22378808e-01 2.15356991e-01 4.07190442e-01
      3.70463818e-01 -3.71112525e-01 2.86952943e-01 8.17781780e-03
      -1.69549435e-01 1.98126704e-01 -1.62307233e-01 -5.29784441e-01
      -7.95339718e-02 3.58808756e-01 -2.03559130e-01 3.93610239e-01
      -2.75480360e-01 -9.54619274e-02 -2.75127753e-03 4.41315442e-01
      3.59208621e-02 1.13044204e-02 -4.90003943e-01 5.13213724e-02
      -5.37934005e-01 3.41766812e-02 3.03569824e-01 -2.29330644e-01
      -3.93879265e-02 2.08253056e-01 1.71565324e-01 -3.74952078e-01 0.
      -6.12122536e-01 5.68732545e-02 -3.57957095e-01 1.60479411e-01
      5.16146600e-01 2.30334580e-01 -1.07899576e-01 -1.26116246e-01
      -1.36788875e-01 -3.13348711e-01 4.52951908e-01 -1.11317541e-02
      5.98352626e-02 3.42235535e-01 -4.43931222e-01 -2.04148218e-02
      2.63813615e-01 1.89306691e-01 -5.89215197e-02 1.09702639e-01
      -2.17036143e-01 -2.06669867e-01 -1.11478329e-01 -3.81637126e-01
      -4.53504354e-01 -1.03094585e-01 2.77385920e-01 8.98535252e-02
      -1.14448108e-01 -1.36110142e-01 2.27768883e-01 0. -8.66863877e-02
      4.06662256e-01 -1.07425719e-01 2.45504633e-01 6.35726750e-02
      -7.22610429e-02 -4.11614120e-01 6.95064485e-01 6.54986724e-02
      9.89413112e-02 -3.26909870e-01 1.74041986e-01 -6.16756864e-02
      5.62006496e-02 2.31451780e-01 3.25956881e-01 1.10730499e-01
      1.38560897e-02 2.08330065e-01 -6.40925050e-01 3.18473615e-02
      3.48363727e-01 -4.14735794e-01 1.81244705e-02 -2.76138872e-01
      1.53090760e-01 -2.86180198e-01 3.83171111e-01 -1.19728863e-01
      2.19143823e-01 1.87230632e-01 0. 3.94526005e-01 3.52234662e-01
      -1.56792738e-02 -3.33541363e-01 -6.32578790e-01 4.56543237e-01
      3.68718415e-01 -9.15833831e-01 -1.79903984e-01 5.04157484e-01
      2.65013129e-01 1.24165185e-01 -6.74057305e-02 5.19784868e-01
      1.77352160e-01 1.56777233e-01 2.28077501e-01 -1.54111058e-01
      -1.10287443e-01 -5.61701022e-02 -5.88109434e-01 -5.98860621e-01
      -2.51849920e-01 2.72514194e-01 3.97597641e-01 -7.09519386e-01
      -4.31840003e-01 -2.00338215e-01 3.85074943e-01 2.70549059e-01
      1.33161172e-01 0. 2.32157975e-01 6.71444714e-01 -8.62287134e-02
      -1.75820351e-01 -2.52189219e-01 3.44480053e-02 6.66345000e-01
      -2.55239010e-01 -1.56193301e-01 1.45027503e-01 -4.66491878e-01
      1.97849482e-01 -2.56917756e-02 7.72946179e-02 4.77370709e-01
      -7.24407062e-02 -1.18070349e-01 -1.59073561e-01 -2.40840971e-01
      3.41727883e-01 -7.33677626e-01 -6.62537873e-01 -4.48910624e-01
      -5.08429330e-05 -3.33543450e-01 -4.22361940e-01 -3.75257522e-01
      -5.63107908e-01 4.05522972e-01 1.99689806e-01 3.04138362e-01 0.
      2.39991277e-01 -6.98453009e-01 -2.44837686e-01 2.66381502e-01
      6.12011194e-01 -2.15978488e-01 -3.16580772e-01 -2.65742153e-01
      7.48685718e-01 1.54844180e-01 6.90176338e-02 -2.49983758e-01
      -2.47761250e-01 -1.31436959e-01 7.15301991e-01 -2.62846053e-01
      4.88327742e-02 -4.36480582e-01 -4.72984537e-02 -7.93391705e-01
      -2.76532084e-01 -4.00833726e-01 -2.71614552e-01 -1.82064325e-02
      -3.76167148e-01 -6.85680211e-01 -1.21632636e-01 9.99560207e-02
      -6.91321446e-03 -5.74573219e-01 3.80163521e-01 0. -5.56298196e-02
      -2.63283879e-01 -4.77254927e-01 9.97301415e-02 1.99137315e-01
      -7.73088217e-01 6.04808927e-02 1.09864227e-01 3.24834585e-01
      2.43425772e-01 1.71643510e-01 5.92345715e-01 5.12475193e-01
      -2.19747886e-01 1.48981780e-01 4.94575948e-02 2.76510149e-01
      4.58610177e-01 1.04693249e-01 -2.94135064e-01 -5.46680748e-01
      5.23635983e-01 1.38862818e-01 -8.12802076e-01 -2.17030123e-01
      -4.64317381e-01 -1.56467527e-01 2.05743030e-01 9.77734253e-02
      9.73111764e-02 2.86705524e-01 0. 2.90255189e-01 -4.54205751e-01
      -3.36831287e-02 -4.22768861e-01 5.24077713e-01 1.66742325e-01
      4.00769651e-01 -1.63689151e-01 3.22011203e-01 3.01576614e-01
      5.40480874e-02 2.00655967e-01 2.80490011e-01 -7.86743686e-02
      6.52865827e-01 -1.34681076e-01 -1.78512573e-01 -2.31137320e-01
      2.15247154e-01 -3.62217456e-01 2.53874719e-01 -3.50525290e-01
      3.28538954e-01 -6.83592796e-01 5.48527539e-02 2.35841021e-01
      -4.31978136e-01 3.31769973e-01 4.48322743e-01 1.92698807e-01
      -2.67510802e-01 0. -4.09785688e-01 -1.33690745e-01 2.01005593e-01
      2.32677713e-01 -3.61476392e-01 3.51982504e-01 4.63363588e-01
      2.95445472e-01 -9.33666527e-02 -1.85678229e-01 3.88919055e-01
      2.58570556e-02 -2.83724695e-01 -1.34065896e-01 3.30981255e-01
      1.08254194e-01 -5.96582949e-01 6.76188707e-01 -1.49234459e-01
      9.18578506e-02 -1.78346932e-01 -2.62080252e-01 -1.81077853e-01
      -9.70653966e-02 7.08022267e-02 -7.42738601e-03 3.86670828e-01
      1.69761479e-01 3.32448781e-01 4.21035290e-02 -1.31223843e-01 0.
      2.00990215e-03 1.68042317e-01 7.87324548e-01 -1.02135241e-01
      -3.64801317e-01 -6.11928515e-02 -3.41591924e-01 -3.92787009e-02
      2.77830303e-01 -4.76157106e-02 -2.74852335e-01 -3.10380757e-01
      2.09178761e-01 1.24312110e-01 -2.23993227e-01 1.12136886e-01
      -3.74872953e-01 -4.57352221e-01 -2.01878369e-01 -4.18694586e-01
      1.00190692e-01 -3.56125772e-01 5.35787106e-01 -8.52294546e-03
      3.24937642e-01 2.59090543e-01 6.16770796e-03 -2.20659107e-01
      1.98764145e-01 -5.75880051e-01 1.65391743e-01 0. 4.50455695e-01
      1.09779567e-01 -1.80496082e-01 3.27275634e-01 -4.47391540e-01
      -7.94614926e-02 -6.93928003e-01 4.88871604e-01 9.30688828e-02
      -4.82048005e-01 4.67427611e-01 5.66079952e-02 2.56010860e-01
      1.50368467e-01 8.78137574e-02 -3.06812704e-01 -2.79892862e-01
      2.66427279e-01 -2.23953649e-01 -2.13701740e-01 -1.96699291e-01
      5.12803555e-01 -1.13384746e-01 4.69835371e-01 3.52201574e-02
      -2.86911000e-02 -3.60288709e-01 1.63453892e-01 -2.26929993e-03
      -3.99086773e-01 3.71815950e-01 0. 1.14859618e-01 3.29678029e-01
      1.26634967e-02 3.53888810e-01 1.43233672e-01 -8.05999637e-02
      1.44828603e-01 -2.67062336e-01 2.29306564e-01 2.46963337e-01
      -3.27349067e-01 -1.94351282e-03 -5.30518472e-01 -1.30527064e-01
      -3.56662840e-01 -2.41328284e-01 3.55366349e-01 -2.68227488e-01
      -6.34680748e-01 -7.78611779e-01 -9.17918742e-01 2.84268200e-01
      1.90161675e-01 -7.47910643e-04 3.04082602e-01 2.83839256e-01
      2.63467193e-01 -2.50423700e-01 1.02289431e-01 1.76226050e-02
      1.61658518e-03 0. 4.65646386e-01 -1.37403433e-03 -2.45516986e-01
      -5.78349307e-02 6.41049445e-01 1.14279110e-02 3.01863819e-01
      1.10772446e-01 5.53900957e-01 6.53797090e-01 -6.29296839e-01
      1.29985347e-01 -9.19725224e-02 1.32184759e-01 3.01886380e-01
      -3.81314158e-01 -1.51186168e-01 1.50791541e-01 1.82888746e-01
      3.73392045e-01 -2.90981829e-01 -1.36197329e-01 -1.45144224e-01
      9.81778651e-02 5.07925861e-02 -1.62217245e-01 1.19846709e-01
      -1.26858830e-01 3.95627052e-01 3.60162914e-01 2.64282346e-01 0.
      8.51548076e-01 4.85635787e-01 -6.51398599e-02 3.93051617e-02
      -1.72597505e-02 7.19517022e-02 3.06333095e-01 -2.61738807e-01
      -2.54943490e-01 2.18927816e-01 1.60573795e-01 -3.12654793e-01
      -1.75604939e-01 4.27176148e-01 1.24298468e-01 2.11726502e-01
      -9.05655697e-02 -9.47914943e-02 4.59110513e-02 1.08875655e-01
      -1.72085375e-01 1.52514517e-01 2.81516880e-01 1.44664496e-01
      -2.34185144e-01 -1.82742521e-01 5.26066720e-01 1.66211382e-01
      1.89344555e-01 7.41021559e-02 3.36261868e-01 0. 1.52789295e-01
      6.35326564e-01 -4.78289008e-01 1.97774991e-01 -4.42303389e-01
      3.08429599e-01 3.24000269e-01 3.04063141e-01 -9.82939228e-02
      1.80072621e-01 -5.37607253e-01 -8.64673108e-02 -2.76345517e-02
      -3.79324883e-01 3.55417654e-02 -2.00415328e-01 -8.41373727e-02
      1.12863518e-01 -4.93683100e-01 3.43952328e-01 -8.74372944e-02
      7.16048717e-01 -1.62595436e-01 -1.39038175e-01 4.21492189e-01
      -1.24096417e+00 -7.44285882e-01 -8.53532031e-02 2.50895113e-01
      -3.19530100e-01 1.14573829e-01 0. -1.69218689e-01 1.48761719e-01
      2.21536517e-01 -4.68490690e-01 -4.88933027e-02 -1.92539856e-01
      4.01728660e-01 8.86459425e-02 -1.06710218e-01 3.39234442e-01
      7.69859478e-02 -4.13591638e-02 -1.85463175e-01 5.62832952e-01
      -8.84999111e-02 2.41065234e-01 -2.08451346e-01 5.96194983e-01
      -2.76639074e-01 1.92272618e-01 3.89198773e-02 2.48560414e-01
      -5.89433275e-02 4.17948030e-02 8.35255533e-02 -3.34194720e-01
      -7.09828511e-02 -3.35273981e-01 4.32033449e-01 3.38579863e-01
      1.14954188e-01 0. 3.27748567e-01 5.12111336e-02 -5.82376122e-02
      -5.02929807e-01 2.03487784e-01 -3.40709418e-01 4.74272549e-01
      6.38050556e-01 -2.04587132e-02 2.57797912e-02 -1.17329411e-01
      -4.27036047e-01 -7.07029551e-02 -1.33129716e-01 3.79291236e-01
      -4.18927789e-01 -6.45914614e-01 -1.25038981e-01 -2.67549247e-01
      -2.20514126e-02 -1.58173114e-01 2.01703742e-01 -3.54029000e-01
      1.22029573e-01 3.04449499e-02 -2.41675880e-02 -3.13648522e-01
      -3.22544664e-01 1.44451454e-01 -1.49628773e-01 -3.08122840e-02 0.
      3.10158402e-01 -5.18596649e-01 1.95805475e-01 2.94311672e-01
      -4.24679592e-02 -1.14082985e-01 1.07475221e-01 -2.51212716e-01
      -1.17489442e-01 1.64736181e-01 1.83644250e-01 -3.82622778e-02
      8.67604911e-02 -4.44145709e-01 -3.83691281e-01 -4.85135103e-03
      -1.81257382e-01 2.94557035e-01 1.38445482e-01 2.80131370e-01
      3.34788740e-01 2.81006902e-01 -2.14488879e-01 -5.17153025e-01
      5.52969933e-01 -2.51642257e-01 4.20592338e-01 -1.99445620e-01
      3.78625214e-01 -3.89577776e-01 -5.78996073e-03 0. 3.18178475e-01
      -5.95330656e-01 -6.82561457e-01 1.50706008e-01 -2.57269889e-01
      -4.37068999e-01 2.56447911e-01 -1.18895620e-01 4.15945686e-02
      7.26068169e-02 5.38195372e-01 -1.94948465e-01 5.59460223e-01
      1.00006834e-01 3.62069100e-01 1.87015638e-01 1.00773811e-01
      -2.07961246e-01 -2.71934986e-01 2.83226758e-01 -1.66470021e-01
      3.31154346e-01 -3.62794012e-01 -2.96323061e-01 2.62391776e-01
      2.04924837e-01 2.13227235e-02 4.70288731e-02 6.75364956e-02
      -2.41506577e-01 2.17930242e-01 0. 4.71703976e-01 2.34626547e-01
      5.45893967e-01 4.29601856e-02 -2.01603547e-01 9.17029902e-02
      1.92366773e-03 -3.20242822e-01 -2.09880680e-01 1.14461613e+00
      -1.12860113e-01 1.01659104e-01 1.37495846e-02 -1.03133589e-01
      1.85603157e-01 -5.44226229e-01 -1.08835302e-01 -3.76603395e-01
      -1.02037418e+00 -3.54883343e-01 2.05963671e-01 1.78725064e-01
      2.11815953e-01 4.09603529e-02 -4.88529176e-01 1.32626206e-01
      3.73685300e-01 5.47773466e-02 3.63310993e-01 -3.56909335e-01
      3.42836052e-01 0. 2.39855591e-02 -1.03358783e-01 1.56650215e-01
      2.26459011e-01 -6.11730181e-02 4.77057129e-01 8.03901315e-01
      4.34535444e-01 5.75553626e-02 -7.03329384e-01 3.73645127e-02
      -4.42486018e-01 -2.54745096e-01 -3.61711442e-01 -2.53552437e-01
      -5.17217755e-01 3.93511236e-01 -1.78016365e-01 -3.26917708e-01
      3.95395637e-01 6.98602855e-01 5.01476645e-01 4.90012705e-01
      3.06849599e-01 5.26395619e-01 -1.20968603e-01 5.07469356e-01
      -3.15315187e-01 -1.39905095e-01 6.20234832e-02 2.68478215e-01 0.
      -2.20346913e-01 -1.88719898e-01 2.25181505e-01 3.91955972e-01
      9.96271014e-01 -3.32962781e-01 4.63551879e-01 1.74501151e-01
      -2.08114490e-01 4.40904032e-03 -5.25399983e-01 2.59548306e-01
      -4.70557958e-01 -2.73292899e-01 -3.11472714e-01 -1.93982627e-02
      -4.15526360e-01 -1.33604974e-01 -6.72660053e-01 2.98665732e-01
      3.15817356e-01 1.58238739e-01 3.76076579e-01 1.53599447e-02
      5.62742651e-01 3.22656482e-01 5.37042916e-01 -3.99232991e-02
      1.04592785e-01 -2.87233055e-01 -5.27237803e-02 0. 1.02122235e+00
      -6.67767644e-01 3.55475187e-01 -1.66131124e-01 1.52963087e-01
      -2.85082430e-01 -1.83818594e-01 3.97653162e-01 -3.54188979e-01
      5.44103086e-01 8.92565697e-02 -3.88023257e-01 -4.52783644e-01
      1.94060341e-01 1.76928580e-01 1.37519032e-01 -2.19244272e-01
      3.33947986e-01 -1.03664005e+00 -2.03473158e-02 8.39567408e-02
      -1.81667909e-01 -1.64672315e-01 3.68047878e-02 2.85110146e-01
      4.74293344e-02 -3.56085807e-01 -6.54571205e-02 2.20608443e-01
      -2.05623582e-01 3.73894840e-01 0. -3.40681046e-01 1.88810349e-01
      2.02575117e-01 -1.64106548e-01 -1.50366396e-01 -2.02659026e-01
      3.61446828e-01 -7.20360205e-02 -2.97332644e-01 5.59417009e-01
      -7.70077258e-02 -4.57168907e-01 3.14911604e-01 -1.26035526e-01
      8.59588861e-01 1.54710308e-01 -4.45689291e-01 4.30532187e-01
      -6.66669548e-01 -1.80094708e-02 -1.34032071e-01 1.89513713e-01
      -1.30137205e-01 -1.71523318e-01 2.21159846e-01 -1.69064373e-01
      -1.18563771e-01 -3.20955604e-01 3.15258913e-02 3.26810449e-01
      3.10940862e-01 0. -9.91426930e-02 -1.67515725e-01 -2.69013524e-01
      2.67351925e-01 3.40800956e-02 -2.28392333e-01 3.91392946e-01
      3.56266409e-01 -2.30675176e-01 3.69607329e-01 4.42700893e-01
      1.22673064e-01 -2.49163300e-01 -1.36738408e+00 7.86473811e-01
      -8.11184645e-02 -3.05387139e-01 -4.39718403e-02 -3.54029089e-01
      2.45759755e-01 -7.23572373e-01 1.90068766e-01 -2.72919148e-01
      -1.03678487e-01 4.09796119e-01 5.66566348e-01 7.11252838e-02
      -3.68509680e-01 5.36405668e-02 -4.11104760e-04 1.87427863e-01 0.
      3.33844602e-01 2.43935481e-01 -5.30035496e-02 2.14434206e-01
      1.15037635e-01 -1.03407688e-01 -2.58007646e-01 -1.26872733e-01
      1.73077136e-01 1.54950008e-01 -3.32892329e-01 1.97284564e-01
      -3.08814310e-02 -4.48557436e-01 4.57687199e-01 -3.23272467e-01
      9.18330103e-02 -8.41519475e-01 -8.43872428e-02 9.03820321e-02
      -2.54137099e-01 9.90730822e-02 3.23149472e-01 4.22476828e-01
      1.52256474e-01 7.69519806e-01 -1.94243848e-01 -1.96630210e-01
      2.16387153e-01 -1.39086381e-01 -1.33496583e-01 0. -3.55336517e-01
      1.46546677e-01 5.31581677e-02 1.47546366e-01 -1.12055153e-01
      -6.74384460e-02 5.60074508e-01 -3.26415032e-01 -1.64229468e-01
      3.40123824e-03 -2.38244995e-01 2.48391405e-01 -2.49507874e-01
      -4.89846505e-02 -2.41748258e-01 -9.96895060e-02 2.63889004e-02
      2.84943283e-01 8.28281790e-03 -2.68754393e-01 -4.08038497e-02
      1.23884007e-01 -2.45586053e-01 -2.94965893e-01 5.49549818e-01
      -1.32364169e-01 3.12228769e-01 4.45132470e-03 2.01626956e-01
      -4.43481326e-01 3.31929773e-02 0. -2.73613244e-01 -2.73339421e-01
      -3.86460632e-01 -5.32976747e-01 1.93104684e-01 -1.81529045e-01
      -2.84163952e-01 -3.08351636e-01 5.37953638e-02 2.27922052e-01
      -1.30303681e-01 1.62055250e-02 1.78726956e-01 4.10984069e-01
      2.64596879e-01 8.79597142e-02 1.68674424e-01 -4.33537006e-01
      -3.86398762e-01 -4.10423458e-01 2.59949505e-01 2.28514552e-01
      1.09745406e-01 -4.40584481e-01 3.24821025e-02 1.13419697e-01
      -2.28740200e-01 -5.76185547e-02 -3.43999684e-01 -2.40133956e-01
      7.49852955e-02 0. 9.38864425e-02 -1.46228611e-01 1.33394361e-01
      -5.65033317e-01 6.59812808e-01 -3.88510138e-01 -2.10553873e-02
      -1.67379290e-01 8.59547481e-02 2.06795484e-01 4.31256413e-01
      -3.09191681e-02 -3.06560040e-01 -9.97886881e-02 1.68606918e-02
      -1.71837226e-01 6.03600502e-01 -2.28548765e-01 -2.28875995e-01
      1.46567836e-01 3.36211622e-01 -3.10691833e-01 -1.40817583e-01
      -5.29219091e-01 2.89072931e-01 3.58850844e-02 2.71221120e-02
      -3.83146316e-01 -1.73918739e-01 1.31297067e-01 4.75595295e-01 0.
      3.81213635e-01 3.82101089e-02 -1.04576364e-01 7.78141385e-03
      2.43754257e-02 8.71832073e-01 -9.08072442e-02 -2.13925034e-01
      -1.47971988e-01 6.77756965e-01 -2.36156844e-02 1.70338228e-02
      -1.49657056e-01 7.81589523e-02 -2.32288036e-02 -6.95249856e-01
      7.64742196e-02 3.00975032e-02 -8.97169039e-02 -2.85832673e-01
      2.10008770e-01 2.34931111e-01 -6.39555812e-01 2.21228242e-01
      -4.71963361e-02 -2.03082979e-01 -1.09481163e-01 2.64140870e-02
      2.48708859e-01 -1.10729411e-01 1.90996021e-01 0. 6.05401397e-01
      3.52737717e-02 -5.15786052e-01 -4.56411839e-01 1.62614435e-01
      -4.66616079e-02 -7.72419050e-02 -2.65114993e-01 -4.42536622e-01
      1.79794412e-02 -8.49823654e-02 1.77227974e-01 6.91252053e-02
      6.59773111e-01 1.01166114e-01 5.76424412e-02 1.36227220e-01
      2.21103743e-01 -7.92100668e-01 5.33476472e-01 1.46523997e-01
      9.13936703e-04 1.02327846e-01 -5.84743135e-02 1.71042889e-01
      -2.55530715e-01 -7.72880733e-01 9.25100520e-02 3.80804598e-01
      -5.98447621e-02 -2.46217519e-01 0. 2.00388521e-01 3.94462012e-02
      -1.04532301e-01 2.63947248e-02 -1.43120140e-01 -2.75088489e-01
      4.29472923e-01 -1.28400698e-05 4.74707544e-01 -4.08178240e-01
      5.22007167e-01 -6.39955103e-02 -1.47964299e-01 -2.72391379e-01
      -4.96827215e-02 -9.00549591e-01 1.31505907e-01 -4.53667819e-01
      -1.53330594e-01 1.44521102e-01 7.45933279e-02 4.91159782e-02
      6.91456869e-02 4.15557027e-02 -5.43612182e-01 4.09156263e-01
      -9.08104554e-02 -5.97015619e-01 -9.25531834e-02 -1.49689224e-02
      2.35371962e-01 0. 4.55772161e-01 3.76469254e-01 9.25086290e-02
      -3.42205703e-01 5.96675314e-02 5.19177839e-02 3.76347802e-03
      3.17541696e-02 6.95189228e-04 1.37218013e-01 -6.11933284e-02
      -3.58065628e-02 -3.24196905e-01 6.37663975e-02 -9.37803909e-02
      -2.63410687e-01 2.66488343e-01 -1.69155180e-01 -2.38063768e-01
      -4.67706054e-01 5.36512554e-01 -1.46691248e-01 2.76897639e-01
      -1.10309340e-01 -3.15770328e-01 -4.68286127e-02 3.07562232e-01
      6.43028021e-02 -1.76332593e-01 7.73529857e-02 1.52654931e-01 0.
      3.70085388e-01 -3.34717989e-01 1.82006612e-01 6.15139417e-02
      9.71580595e-02 -2.66315550e-01 -5.28582633e-02 -2.09042430e-01
      -1.68423370e-01 3.54004622e-01 1.67380258e-01 8.65140110e-02
      -3.98019165e-01 -4.98957373e-03 -3.39831829e-01 7.22730875e-01
      -1.55736757e-02 3.61945145e-02 -6.05009437e-01 -1.68196231e-01
      4.17189389e-01 -1.16803266e-01 1.50879294e-01 -6.32503152e-01
      2.40613520e-01 -2.45089568e-02 -4.72713053e-01 4.48971130e-02
      2.59875715e-01 -2.41006181e-01 7.19102770e-02 0. 2.58324564e-01
      1.95807412e-01 -1.84852034e-01 -3.36635441e-01 3.70174497e-01
      1.17121831e-01 2.94343203e-01 -4.74975258e-01 -3.92008811e-01
      3.30125868e-01 5.44767678e-02 3.60909700e-01 1.83304608e-01
      2.09707255e-03 2.82530822e-02 -4.28540289e-01 4.82498080e-01
      -4.84379753e-02 -4.76316623e-02 -2.90055096e-01 1.74387619e-01
      -3.00558597e-01 -4.72700089e-01 6.20027184e-01 -2.86286205e-01
      1.93248719e-01 2.28934512e-02 -1.33289173e-01 2.68760145e-01
      -7.17726871e-02 3.19072455e-01 0. -2.72680193e-01 -1.41098186e-01
      -4.25617427e-01 -7.59567916e-02 -3.27314049e-01 1.63761929e-01
      5.84445009e-03 2.09510416e-01 -1.16212949e-01 9.61631984e-02
      -4.81961370e-02 -9.88751277e-02 -3.12071025e-01 4.37195599e-01
      1.31866068e-01 2.57067289e-02 3.28294486e-01 1.36566490e-01
      -8.45697463e-01 -1.53386742e-01 3.20966616e-02 1.50288016e-01
      -8.62609148e-02 5.56615591e-02 -7.93722942e-02 1.73093393e-01
      -3.62522416e-02 -2.13043213e-01 1.01036087e-01 -2.53512830e-01
      2.32060760e-01 0. -6.47562891e-02 1.34236917e-01 -1.92440122e-01
      -3.56951326e-01 2.77785629e-01 1.19026698e-01 3.01167011e-01
      2.38504022e-01 4.32422459e-02 7.31563151e-01 2.48882174e-02
      -2.26890773e-01 -4.79911491e-02 6.48344696e-01 3.87766182e-01
      -1.84108764e-01 -2.92815804e-01 -1.51335225e-01 3.71500075e-01
      -2.73350552e-02 -7.07637370e-02 -6.06186129e-02 -7.28498280e-01
      -4.66576874e-01 2.61283994e-01 -6.26603246e-01 -9.82639939e-02
      3.18427267e-03 1.23382986e-01 -1.17467038e-01 6.45785451e-01 0.
      9.06088769e-01 2.31628373e-01 2.85819739e-01 4.10956480e-02
      -1.28644362e-01 4.12530862e-02 -2.05065664e-02 3.20004970e-01
      6.30744472e-02 -6.34649098e-02 -7.76824355e-01 -4.42876332e-02
      2.55642571e-02 1.93462789e-01 3.04751903e-01 -1.48303330e-01
      -1.23954125e-01 -2.30304658e-01 2.47489899e-01 4.25053425e-02
      9.37485322e-02 2.77934134e-01 -5.88746667e-01 -1.09298933e+00
      -3.51577029e-02 4.41991091e-01 -1.72140658e-01 1.95548199e-02
      5.32353759e-01 -3.99488091e-01 2.60740072e-01 0. 5.48038892e-02
      -1.53752536e-01 -5.86043417e-01 -7.22692301e-03 2.94924110e-01
      -5.11961281e-01 4.61598843e-01 -1.71825185e-01 -4.50916171e-01
      2.41240665e-01 3.03617120e-01 6.92008257e-01 -1.54992314e-02
      3.13740112e-02 3.58525425e-01 -6.48834333e-02 8.05342048e-02
      -5.23219883e-01 -6.22930050e-01 1.93067104e-01 -1.05909787e-01
      -1.41276792e-01 -1.44022748e-01 -2.62996584e-01 4.18570697e-01
      4.40814439e-03 -5.85631609e-01 -3.41139168e-01 3.38283092e-01
      2.88687702e-02 -1.03156697e-02 0. 5.53984821e-01 3.49449843e-01
      9.74356830e-02 5.62350988e-01 -2.68335789e-01 1.07064389e-01
      -1.04247130e-01 2.01799899e-01 4.28867608e-01 -3.08300644e-01
      -1.37134016e-01 -1.50564328e-01 6.06074333e-02 -2.36636490e-01
      2.03777924e-01 2.93039441e-01 3.93143654e-01 -1.01940215e-01
      4.31971140e-02 -5.46796978e-01 3.82476225e-02 9.63120237e-02
      1.10903904e-01 -2.00929970e-01 -4.70514357e-01 1.60499867e-02
      5.86925894e-02 -8.20378438e-02 2.91574031e-01 -9.59596131e-03
      7.16632366e-01 0. -1.51778189e-02 2.38921568e-01 3.00049871e-01
      -1.82794720e-01 -2.77205110e-01 2.41128370e-01 2.97774523e-01
      1.77042261e-01 -1.20134883e-01 1.30799517e-01 2.27321029e-01
      7.60350898e-02 2.56885499e-01 -5.72194085e-02 -8.47125575e-02
      -2.97562033e-01 -3.38814229e-01 4.02911454e-01 -5.41613400e-01
      -7.02273965e-01 3.50510657e-01 -3.72356065e-02 2.75421590e-01
      -3.80074114e-01 -2.10220963e-01 -5.43583073e-02 -2.55023632e-02
      -1.83314513e-02 5.78117073e-01 -1.05917215e-01 5.86406002e-03 0.
      3.60020190e-01 -1.44350842e-01 9.49541256e-02 -4.18811500e-01
      -1.60295725e-01 2.20523834e-01 -3.28159720e-01 1.37055501e-01
      6.04141923e-03 7.00286210e-01 2.20697254e-01 1.16327852e-01
      -5.28167248e-01 5.61793707e-02 2.07817599e-01 -2.59083249e-02
      -3.56041580e-01 1.32456809e-01 -4.81915593e-01 6.06615916e-02
      4.63548303e-01 1.58069745e-01 -4.07067388e-01 1.47158295e-01
      1.82716861e-01 -8.46827962e-03 -5.23493327e-02 -1.81968331e-01
      4.25402224e-01 -4.55967337e-01 3.49534273e-01 0. 3.32424715e-02
      -2.52304971e-01 4.52155709e-01 -6.51916042e-02 8.73911798e-01
      -2.96531171e-01 3.86663377e-02 -1.78345710e-01 -4.42825496e-01
      6.16110396e-03 3.38519901e-01 -4.15971160e-01 -3.55560780e-02
      -1.39897540e-01 3.22611809e-01 5.32552488e-02 -4.85212147e-01
      6.27272874e-02 -2.53670335e-01 -4.83414322e-01 1.77437305e-01
      4.73381221e-01 -2.93925852e-01 -1.87350392e-01 4.59076732e-01
      1.83259998e-03 -9.85181928e-02 2.87678301e-01 -4.22265120e-02
      -6.57533467e-01 3.50524247e-01 0. 2.86942184e-01 -2.61876583e-01
      -6.88649863e-02 -4.51002717e-01 -3.29952896e-01 4.48548138e-01
      -2.81317383e-01 3.64083797e-01 -1.59019068e-01 1.79873660e-01
      2.41104767e-01 -4.29996580e-01 -1.47978142e-01 3.92274767e-01
      -2.73341909e-02 -2.44122908e-01 1.72106430e-01 1.50624111e-01
      -7.24449873e-01 5.01525998e-01 2.25253284e-01 -3.91208142e-01
      3.04616123e-01 -6.77754164e-01 -5.22576153e-01 2.87541777e-01
      -2.06790373e-01 3.84599835e-01 -3.21622610e-01 7.65164346e-02
      -2.17702463e-01 0. 1.20440865e+00 -2.65625417e-01 -3.01870763e-01
      -1.63759366e-01 3.43700826e-01 3.88799042e-01 -1.36891365e-01
      -3.58559400e-01 -2.80961573e-01 3.51538986e-01 -2.52126783e-01
      -2.01193523e-02 -1.07317068e-01 3.58419865e-01 3.38481814e-01
      2.81112008e-02 1.03508580e+00 -7.04828128e-02 -1.10131629e-01
      -4.59483624e-01 -1.08085014e-01 -4.26340923e-02 -1.85613744e-02
      -3.38292629e-01 5.37624061e-02 -2.54946172e-01 -4.45560038e-01
      2.52568185e-01 6.02908880e-02 5.01676142e-01 1.71083122e-01 0.
      1.09221943e-01 2.44536504e-01 -1.38683408e-01 -2.30641097e-01
      5.17368853e-01 8.87653381e-02 1.44838303e-01 -1.49234831e-01
      2.64815032e-01 7.46026754e-01 1.80074632e-01 8.87505651e-01
      6.82249293e-02 -4.31311280e-01 9.59569037e-01 -6.25629306e-01
      1.39041528e-01 5.49686588e-02 -5.31276941e-01 -2.30887830e-01
      -5.57414740e-02 -3.56896698e-01 -4.69953120e-01 -1.56159565e-01
      -2.17593268e-01 2.04996720e-01 -1.91665553e-02 7.45621800e-01
      6.18378460e-01 7.29511231e-02 -1.03145331e-01 0. 9.27241921e-01
      -5.48747852e-02 3.91946703e-01 1.69506773e-01 -3.01121324e-01
      -8.19389746e-02 -3.21889997e-01 7.20210820e-02 1.56030223e-01
      -9.28885955e-03 2.42343396e-01 1.54727936e-01 -3.20249975e-01
      2.95624249e-02 5.61261833e-01 -2.65119970e-01 -2.99632549e-01
      -4.01116073e-01 -9.16686475e-01 -8.18711102e-01 5.31217922e-03
      -1.05154186e-01 -1.03536439e+00 2.58301497e-01 -1.72953427e-01
      4.16223198e-01 9.15337503e-02 2.88113892e-01 -3.65448073e-02
      2.60290205e-01 -2.05727488e-01 0. 6.90817609e-02 -2.78352797e-01
      1.44437432e-01 -2.23914519e-01 4.02059555e-01 4.37459737e-01
      -7.05023587e-01 3.06206971e-01 -2.39826506e-03 2.29898602e-01
      1.93745106e-01 -3.86135370e-01 1.78821370e-01 5.02241611e-01
      3.65509391e-01 -3.34920436e-01 1.21004269e-01 -1.87252939e-01
      -3.81009467e-02 -3.19619954e-01 -2.65891492e-01 3.62494022e-01
      3.18768531e-01 -2.04023987e-01 8.93929899e-02 3.78675133e-01
      -4.09857839e-01 -2.79850692e-01 5.74391894e-02 5.46999395e-01
      6.78374693e-02 0. 3.69098961e-01 4.78972435e-01 2.95429349e-01
      -2.95712799e-01 -1.65469691e-01 2.00056762e-01 9.45139453e-02
      -1.46227151e-01 -6.28230631e-01 -1.66660845e-01 -2.15915769e-01
      -4.07746255e-01 -2.79538214e-01 -3.12384427e-01 6.25457317e-02
      -6.12628043e-01 1.43484667e-01 1.37959411e-02 1.55231627e-02
      -3.40538263e-01 1.30931959e-01 -6.19258471e-02 5.64026572e-02
      -5.57779610e-01 4.24204230e-01 8.88549611e-02 2.97240335e-02
      -5.67658007e-01 2.48096082e-02 -4.95826043e-02 -1.48900226e-01 0.
      6.18964195e-01 -2.10738376e-01 5.45044877e-02 -3.65997255e-01
      1.53112382e-01 1.95119843e-01 -1.29088029e-01 -5.47338799e-02
      -2.96172559e-01 -2.80773193e-01 -3.53636295e-01 7.79241696e-02
      -2.35031068e-01 1.08742476e-01 -5.82039207e-02 1.74982443e-01
      2.75812060e-01 1.06693290e-01 -3.50159496e-01 -4.35048580e-01
      8.58060002e-01 2.87825763e-01 4.69582587e-01 -8.14069808e-01
      1.38558209e-01 -1.45512894e-01 -3.84036213e-01 -8.72861221e-03
      1.19722180e-01 -3.09209615e-01 9.52060074e-02 0. 3.70403826e-01
      1.40344584e-02 1.63718894e-01 -2.06758454e-01 -1.76957637e-01
      5.47776699e-01 -3.05188090e-01 -2.32899874e-01 6.10962152e-01
      8.34649086e-01 1.70664936e-01 -1.82569548e-01 6.71157520e-03
      -1.17671341e-02 4.72434945e-02 4.81254645e-02 3.64197731e-01
      -1.68237090e-01 6.23120889e-02 -1.83621451e-01 -2.90028125e-01
      -2.67311096e-01 -4.26470131e-01 -3.35897416e-01 1.19894311e-01
      2.17116773e-01 3.04909885e-01 1.52219877e-01 9.99069571e-01
      -2.96453983e-01 3.80480364e-02 0. 4.81620163e-01 -2.18751997e-01
      5.75608090e-02 -1.79902479e-01 -5.38793325e-01 8.13648328e-02
      -4.36935648e-02 -2.77496159e-01 1.57495603e-01 -3.54689896e-01
      -1.84461817e-01 -1.55273139e-01 5.18690109e-01 -1.20163426e-01
      3.06202412e-01 4.38226759e-01 -2.87034154e-01 -1.62882194e-01
      -6.44944966e-01 -4.12798226e-02 5.51522017e-01 7.35323012e-01
      -7.35118836e-02 -5.09343207e-01 6.53052688e-01 8.58186632e-02
      -2.09830686e-01 -1.19144715e-01 1.98221117e-01 -5.39517283e-01
      2.33235180e-01 0. 6.96075559e-01 -4.20676023e-01 -3.30487669e-01
      1.18635319e-01 1.75275821e-02 2.96542197e-01 -2.65275925e-01
      -1.54840529e-01 -3.69680107e-01 -3.11385579e-02 4.51792121e-01
      -5.82055971e-02 3.35707545e-01 -1.29139215e-01 3.68200392e-01
      3.58671993e-01 2.90261894e-01 -3.04527253e-01 -4.51360017e-01
      -2.58122593e-01 -9.08610001e-02 3.85556102e-01 -1.59905702e-01
      -4.15355951e-01 5.37591040e-01 7.91143551e-02 -4.91723388e-01
      -1.64285690e-01 8.63521099e-02 1.16078340e-01 3.71710867e-01 0.
      -4.22820896e-01 -2.26508416e-02 -7.14097964e-03 -2.17366368e-01
      8.64987612e-01 -6.12946488e-02 5.77826388e-02 -4.49202508e-01
      -6.27138885e-03 6.88376665e-01 6.54884800e-02 3.32312375e-01
      5.06527483e-01 2.41472274e-01 9.37441736e-02 2.98037264e-03
      -3.51419091e-01 2.85346001e-01 -5.66415429e-01 -6.44343317e-01
      -6.44523054e-02 2.68019646e-01 -2.21633434e-01 -3.52045894e-01
      2.70432830e-01 1.95814341e-01 1.01869762e-01 3.14500540e-01
      6.27942204e-01 -1.59122422e-01 -2.86793541e-02 0. 2.25917861e-01
      1.53567851e-01 -3.25243026e-02 -8.41280043e-01 -3.82637560e-01
      2.16657162e-01 -9.47335288e-02 2.34509096e-01 -2.90505439e-01
      2.70944923e-01 8.77716169e-02 4.35267508e-01 7.53333569e-01
      3.38907063e-01 -5.65401971e-01 2.29454264e-01 -2.50830621e-01
      -4.41943184e-02 -7.97622740e-01 -4.49468970e-01 4.66428638e-01
      3.39683801e-01 -2.60079265e-01 -4.13111299e-01 6.58733368e-01
      3.78334820e-01 -4.96923953e-01 -1.70592368e-01 4.06681746e-03
      -5.23678474e-02 4.28300589e-01 0. -9.12638977e-02 3.93552035e-01
      -4.31278586e-01 -2.22967997e-01 6.53362930e-01 -9.70283151e-02
      -1.48549944e-01 2.27510214e-01 9.63816196e-02 3.94277349e-02
      1.46811336e-01 4.28119898e-01 8.68032277e-02 -3.53322834e-01
      1.90327704e-01 -1.13432355e-01 -1.04724623e-01 2.37143964e-01
      -1.37806371e-01 4.19724345e-01 7.88528174e-02 1.32287428e-01
      1.40867278e-01 -7.17338264e-01 -2.45058849e-01 -1.59931630e-01
      2.78459817e-01 -9.05043446e-03 -1.58743456e-01 1.62474126e-01
      4.46961492e-01 0. -5.18107489e-02 -3.62157375e-01 -3.29294384e-01
      -3.33139241e-01 2.41620228e-01 -2.22113326e-01 -5.35964668e-01
      2.68064559e-01 -2.10732862e-01 6.03856623e-01 5.77119291e-01
      4.24493909e-01 -5.70760518e-02 8.04887339e-02 2.74911046e-01
      -6.49299502e-01 -1.27235036e-02 -3.12911481e-01 -6.49373084e-02
      -4.12432104e-01 2.92813927e-01 1.42491758e-01 -1.84091941e-01
      4.89841610e-01 1.66864648e-01 4.93457288e-01 -1.69977039e-01
      -6.79823682e-02 -2.33919799e-01 9.91316214e-02 -8.32129568e-02 0.
      -7.81128556e-03 -1.69483468e-01 -1.95689008e-01 -1.31017470e-03
      1.82533816e-01 6.33417904e-01 -1.02119401e-01 -3.07150185e-01
      -1.83564611e-02 -1.06824497e-02 1.21981777e-01 2.71086514e-01
      4.04655114e-02 -1.41716152e-01 1.22582698e-02 1.20050751e-01
      2.75231034e-01 -4.14364517e-01 1.71642289e-01 -3.47828537e-01
      5.02371967e-01 5.78504145e-01 -1.69566885e-01 -1.96651876e-01
      1.84151396e-01 7.06891194e-02 1.34641856e-01 2.16102436e-01
      2.46768832e-01 2.15759531e-01 -5.42706251e-01 0. 5.34811735e-01
      2.26571187e-01 -1.87332332e-01 1.09007537e-01 3.43646556e-01
      -5.68521261e-01 -5.54403327e-02 2.87701130e-01 2.90570632e-02
      2.01650709e-01 -2.38731161e-01 -1.30530700e-01 -4.66531903e-01
      -3.25074732e-01 6.32357240e-01 -2.94635862e-01 -3.10450703e-01
      -2.89177567e-01 1.89831063e-01 -1.15109950e-01 2.98859775e-01
      -2.19857786e-02 -2.19785452e-01 2.88481444e-01 7.36235455e-02
      -4.19151306e-01 8.60444456e-03 -9.38441325e-03 2.68784046e-01
      -2.46002212e-01 -2.49862626e-01 0. 1.33037299e-01 -1.76466927e-01
      -2.14731276e-01 3.98338079e-01 5.55336103e-02 1.37979716e-01
      -6.78069890e-01 2.49258414e-01 -5.41311741e-01 4.71871048e-01
      -4.30303454e-01 -4.33247209e-01 7.76755959e-02 -5.87062798e-02
      -7.16989413e-02 4.48509187e-01 1.79320484e-01 1.00261927e-01
      -7.29247868e-01 3.31238121e-01 2.50428021e-01 7.95224786e-01
      -2.95767277e-01 -1.86664745e-01 9.88847613e-02 9.25293028e-01
      1.35903090e-01 1.08737471e-02 1.76777363e-01 -4.20928597e-01
      6.69910535e-02 0. 1.22849613e-01 -2.30409101e-01 -2.36984968e-01
      -1.32446915e-01 1.75020531e-01 -7.56426081e-02 -2.24233776e-01
      2.91764796e-01 -2.45676190e-01 1.20577085e+00 -3.16593319e-01
      -2.63194770e-01 -4.52828169e-01 2.28811186e-02 -1.49858790e-02
      1.06501348e-01 -1.72433525e-01 -3.44465703e-01 -8.29847991e-01
      -1.90307766e-01 -7.84890592e-01 -4.02058959e-02 2.91677505e-01
      1.20198399e-01 3.70467454e-01 4.66832101e-01 -2.61306405e-01
      -2.22229183e-01 -2.32898206e-01 -6.57621250e-02 1.50790274e-01 0.
      3.88471246e-01 -5.42742074e-01 -2.42451847e-01 -1.74405977e-01
      -1.17731705e-01 5.12580156e-01 1.88401848e-01 -5.09425282e-01
      -1.50798813e-01 -5.56389056e-02 2.65640020e-02 -1.83439441e-02
      2.28817910e-01 2.09883124e-01 9.50840786e-02 -2.31696203e-01
      -1.97036624e-01 -3.53630841e-01 -2.69227475e-01 2.54778147e-01
      6.34951368e-02 3.40137422e-01 1.36557743e-01 5.83970904e-01
      1.85870335e-01 -5.48467159e-01 6.27382519e-03 -2.74585932e-01
      1.85815826e-01 -2.08715767e-01 -1.47562817e-01 0. 4.94863242e-01
      -5.20341158e-01 4.22889680e-01 -4.75602686e-01 -2.56799608e-01
      2.12285921e-01 1.90102965e-01 -7.46919811e-01 1.19132079e-01
      6.36755884e-01 -6.24866672e-02 -1.21004559e-01 5.68370163e-01
      -1.43839475e-02 -1.22831263e-01 5.05461216e-01 -3.03096324e-01
      -7.32673407e-01 -1.03254437e+00 2.97238827e-01 7.99208403e-01
      2.69596994e-01 -3.91048789e-01 -2.95005918e-01 9.03837800e-01
      3.32034618e-01 3.79612073e-02 -2.75130998e-02 2.43186742e-01
      -2.69045919e-01 -4.38672304e-02 0. 1.64400473e-01 -1.03478156e-01
      -1.97075143e-01 -3.20612639e-01 -2.01558471e-01 -2.87109334e-03
      1.36599362e-01 -2.11471677e-01 3.43443185e-01 4.13661093e-01
      1.02237426e-01 -3.56385916e-01 -2.85352439e-01 5.47498107e-01
      -5.58951497e-03 -2.58051008e-01 -2.60255516e-01 -1.99212715e-01
      -5.56285866e-02 1.53218716e-01 2.20249370e-02 -3.83459218e-02
      1.46973848e-01 -6.14547469e-02 -3.31535302e-02 2.89169997e-01
      -2.94605017e-01 -5.87717742e-02 -9.41340253e-02 -7.14111179e-02
      -1.02869578e-01 0. -9.45179611e-02 -4.06534791e-01 -1.85870051e-01
      4.30242941e-02 6.62850976e-01 8.56460109e-02 -6.16560020e-02
      2.02840224e-01 -4.24170941e-01 1.79106444e-01 1.17772855e-01
      2.27083057e-01 -9.92042422e-02 -3.50249916e-01 4.84648108e-01
      -1.73449129e-01 3.27703863e-01 -1.17111303e-01 -1.16463751e-02
      -1.58603713e-01 2.79132705e-02 1.82964012e-01 -8.50159407e-01
      1.48032457e-01 4.26777303e-02 2.24514067e-01 -4.34349507e-01
      -9.89968106e-02 -2.08001137e-01 1.81103373e-04 5.03820300e-01 0.
      2.10796431e-01 7.92489767e-01 1.75129343e-02 -1.82330627e-02
      -5.76367915e-01 4.41952288e-01 -8.06677699e-01 2.39963517e-01
      -2.25180075e-01 5.58387348e-03 -3.39494020e-01 -6.34846687e-01
      -2.86681265e-01 1.53102666e-01 5.19692063e-01 1.43355265e-01
      -6.42443478e-01 -1.04453407e-01 -8.54322687e-02 4.70152050e-01
      8.98420662e-02 4.98180687e-02 6.94426894e-02 5.36705911e-01
      3.57771546e-01 1.40355825e-01 4.70671743e-01 -2.47298241e-01
      3.77621204e-01 -3.60148132e-01 -2.93395102e-01 0. 5.49808025e-01
      -3.46167721e-02 -3.65979016e-01 4.20387536e-02 -1.18144639e-01
      -1.91367179e-01 1.20135479e-01 -3.94429117e-02 2.65753269e-01
      2.63984412e-01 -1.08468205e-01 5.48254699e-02 -7.52670616e-02
      -7.72729963e-02 2.07749177e-02 -6.10653639e-01 -1.45427464e-02
      -1.05529867e-01 1.08670197e-01 -2.14770753e-02 1.17395036e-01
      1.60765037e-01 -1.13093436e-01 -2.61026204e-01 -6.15025572e-02
      4.21968639e-01 -6.18636534e-02 -4.55226786e-02 3.46349448e-01
      -5.77195883e-01 7.65117779e-02 0. 1.38988972e-01 -3.64492536e-01
      -3.18429053e-01 -4.24973428e-01 -1.77454159e-01 3.85037601e-01
      3.82396609e-01 1.09872296e-02 -2.15443894e-01 2.92377084e-01
      5.74095063e-02 -1.54121354e-01 2.74527460e-01 2.43773803e-01
      2.04898477e-01 -3.11488211e-01 2.14135990e-01 5.20042889e-02
      -6.16092861e-01 -2.03627404e-02 3.62878054e-01 1.37074411e-01
      -3.89754266e-01 -2.74140894e-01 1.51403606e-01 3.06006134e-01
      -1.01058409e-01 8.21842253e-02 3.99956495e-01 -2.83892095e-01
      -6.14793785e-02 0. -3.07034671e-01 -3.81803274e-01 1.32161885e-01
      -1.20673142e-01 2.66495645e-01 -4.56175089e-01 6.75922573e-01
      4.14700760e-03 -5.05318999e-01 3.51543203e-02 -6.00557148e-01
      -8.80238414e-02 -1.31912544e-01 -9.24000964e-02 9.42773744e-02
      -5.00494182e-01 4.52714175e-01 -1.62376359e-01 -2.63707042e-01
      4.63641509e-02 3.70785266e-01 4.18904692e-01 2.72734195e-01
      -4.28386748e-01 6.59915566e-01 4.97626126e-01 1.40729487e-01
      5.32194152e-02 -2.43249163e-01 -4.50536549e-01 -1.54164836e-01 0.
      2.29884982e-01 -2.83962846e-01 1.24029353e-01 1.77696615e-01
      1.05506971e-01 9.13007334e-02 4.52324860e-02 3.03161114e-01
      -4.10140932e-01 -4.82815564e-01 -2.43755445e-01 1.77736580e-01
      -1.24376483e-01 -1.51515780e-02 -7.44436383e-02 -2.40737170e-01
      -4.14689332e-02 -1.74773112e-01 6.30165264e-02 4.30657029e-01
      4.29499090e-01 2.28779539e-01 1.36037439e-01 -5.82940206e-02
      5.17191529e-01 4.12273526e-01 2.30649486e-01 -4.15737420e-01
      -3.21309209e-01 2.91399747e-01 5.10486551e-02 0. 3.11460406e-01
      -1.92499906e-01 -1.73014656e-01 1.76691681e-01 3.54890972e-01
      -5.43380499e-01 -5.00325024e-01 -8.26084495e-01 -8.26125666e-02
      3.27288687e-01 -1.19778961e-02 -1.37767062e-01 2.04524770e-01
      1.04905292e-01 -1.89687774e-01 6.49366230e-02 6.32735938e-02
      1.41233593e-01 -8.00281465e-01 -3.16723287e-01 1.22194469e-01
      1.22913063e-01 5.57759590e-02 -7.18290627e-01 6.15672953e-02
      4.53760684e-01 -4.09481954e-03 -4.57042426e-01 -2.00252727e-01
      2.53799319e-01 -2.46030428e-02 0. -9.00242701e-02 1.43634409e-01
      4.75869060e-01 2.67914888e-02 -1.56388670e-01 7.08769560e-02
      -6.16647899e-02 -4.16417122e-01 -5.26596345e-02 3.32461804e-01
      -1.17979422e-01 -1.36762023e-01 2.46436968e-01 1.31293349e-02
      -2.75888950e-01 -2.91676164e-01 -4.21287537e-01 2.90524632e-01
      -9.56986621e-02 3.21699753e-02 3.54101658e-01 3.64188462e-01
      -1.70736596e-01 -9.83952284e-02 3.72977257e-02 -1.29542258e-02
      2.84316894e-02 -2.57324427e-01 8.93930197e-02 -1.44890711e-01
      1.14351243e-01 0. 2.10563064e-01 1.02501318e-01 4.75893915e-01
      -2.51390129e-01 1.10378169e-01 -2.20857754e-01 -7.04145879e-02
      7.94548616e-02 3.05899620e-01 -3.26623082e-01 -2.84951717e-01
      -6.44095004e-01 3.97294722e-02 1.88817307e-01 8.25922787e-01
      -3.79163206e-01 -8.57143104e-02 2.75421709e-01 3.76894057e-01
      -2.39656657e-01 1.99846234e-02 5.48872612e-02 4.06077355e-01
      -3.66098173e-02 -1.20054580e-01 3.91563565e-01 1.40034094e-01
      -3.19402933e-01 -6.52026832e-02 2.49088247e-04 5.49993515e-01 0.
      1.84492752e-01 -4.30844724e-01 7.61132836e-01 -4.14710194e-01
      2.71762282e-01 -7.96970904e-01 -6.49393126e-02 -1.45712838e-01
      1.64255694e-01 -1.62025467e-01 3.89959693e-01 -2.60354400e-01
      -3.07069998e-02 -2.81134456e-01 1.15084246e-01 -1.37014344e-01
      -5.35887718e-01 1.30011678e-01 -1.52804762e-01 4.17202353e-01
      8.73194486e-02 1.77123278e-01 3.55264664e-01 -1.46071434e-01
      4.22738910e-01 6.57551646e-01 -3.38499583e-02 -2.08524421e-01
      2.13441253e-01 -5.03380895e-01 -8.77700821e-02 0. 1.37376413e-02
      -5.61895430e-01 2.62904796e-03 -1.49502054e-01 6.35134459e-01
      -2.00333133e-01 -1.44788265e-01 -3.01082700e-01 -1.56709328e-01
      5.59810102e-01 1.75653592e-01 -2.61218667e-01 4.56024408e-01
      -2.10944608e-01 -7.94831440e-02 3.28951538e-01 -4.20827940e-02
      2.42929952e-03 -7.80195892e-01 1.94908921e-02 4.17037398e-01
      7.52059162e-01 -4.71872628e-01 3.20765793e-01 -1.10410564e-01
      4.68960911e-01 -1.72482237e-01 2.76405308e-02 6.67991877e-01
      -4.71295863e-01 -1.93068996e-01 0. 3.45791340e-01 2.63907552e-01
      -4.15375173e-01 2.93617398e-02 -6.55991212e-02 -4.52794760e-01
      -4.88312662e-01 -1.37445271e-01 -2.12145373e-01 3.73461634e-01
      -4.05270934e-01 -1.74242169e-01 -5.03657758e-01 1.04555929e+00
      -2.41695032e-01 -9.37641859e-02 2.60083079e-01 4.41445373e-02
      -2.71114647e-01 -8.44892487e-03 3.73213619e-01 1.66892841e-01
      -9.31355432e-02 -6.75078928e-02 5.91316640e-01 -2.87171483e-01
      2.82370359e-01 -1.68370277e-01 2.23819137e-01 -4.42082703e-01
      -3.68180056e-03 0. 3.59753788e-01 -1.66397452e-01 -2.21894577e-01
      -4.37605977e-02 -2.46589869e-01 2.71582931e-01 -2.54979134e-01
      1.67445168e-01 2.50539243e-01 1.37649523e-03 -1.60115704e-01
      -9.59968120e-02 -2.23087355e-01 -1.03378959e-01 2.90163100e-01
      -1.11029819e-01 -6.87157139e-02 2.40440071e-01 -1.00414276e+00
      -3.77952844e-01 -4.75514293e-01 1.87561050e-01 -2.09086418e-01
      1.63771808e-01 2.06057847e-01 -2.46180464e-02 -1.65600955e-01
      1.26238331e-01 2.60410905e-01 -2.97933787e-01 -1.42759159e-01 0.
      -2.94775337e-01 2.69299537e-01 -1.40604988e-01 -7.97343627e-02
      4.41105962e-01 1.86366066e-01 -6.17197633e-01 -7.52741657e-03
      -1.83276221e-01 3.49387705e-01 -3.95197459e-02 -2.72490531e-01
      1.37272745e-01 2.49064982e-01 1.53391873e-02 -9.20026228e-02
      -4.33123522e-02 -5.28586982e-03 -9.10387933e-01 -2.04569340e-01
      3.32759231e-01 4.94055361e-01 6.02941871e-01 -2.78348893e-01
      -4.62711483e-01 -1.88485458e-01 -3.67734313e-01 -3.09210420e-01
      -2.99904525e-01 1.30909324e-01 4.17917937e-01 0. 5.38814545e-01
      6.90296944e-03 -9.64034721e-02 -2.28624195e-01 -1.91314444e-01
      -1.80968881e-01 1.68488964e-01 -2.95733303e-01 -1.48369521e-01
      6.89854980e-01 2.32924834e-01 -1.94953755e-01 -2.70224661e-01
      -3.06522936e-01 1.04365373e+00 -5.83721817e-01 -5.17093360e-01
      1.06320353e-02 -5.08953452e-01 -1.70671478e-01 -1.28514722e-01
      4.45301086e-01 -8.58743191e-02 3.62408996e-01 -4.11941372e-02
      7.38340244e-02 6.63084090e-02 -6.48281455e-01 -1.62425444e-01
      3.30882847e-01 3.27723265e-01 0. 1.09413922e-01 4.94074561e-02
      -5.13128877e-01 8.32250714e-02 -1.40367597e-01 -2.13187620e-01
      -2.87092894e-01 -4.77297962e-01 -2.37240314e-01 -2.74615198e-01
      8.62874925e-01 -6.80241659e-02 4.38630804e-02 2.26100266e-01
      6.10427968e-02 -1.18963383e-02 1.81901827e-01 2.85554737e-01
      -5.52443862e-01 2.73315191e-01 2.26598054e-01 3.35679084e-01
      2.47113556e-01 -7.66754001e-02 9.36009228e-01 3.93376887e-01
      2.32399717e-01 -8.36232603e-01 -6.29885197e-02 2.58265227e-01
      4.90359485e-01 0. -2.54624575e-01 1.15494639e-01 -2.09990367e-02
      -4.73108977e-01 2.22118333e-01 -2.11515203e-01 -4.36641335e-01
      6.68680966e-01 2.35190958e-01 2.06850637e-02 4.93027598e-01
      -5.08607447e-01 -4.27352756e-01 -2.42451653e-01 -3.54001433e-01
      5.30473553e-02 7.18747359e-03 -2.62496650e-01 -2.20625207e-01
      7.52936350e-04 4.13168281e-01 -5.30230440e-02 1.41940698e-01
      5.18044494e-02 -9.67502221e-02 -1.18752914e-02 9.31810886e-02
      -8.97643387e-01 1.80374697e-01 -4.37840253e-01 5.06289899e-01 0.
      7.08640590e-02 -1.50037795e-01 -4.72396433e-01 -5.83772659e-01
      1.39213860e-01 -2.71668166e-01 5.82713962e-01 -4.29866254e-01
      9.19198990e-02 3.59583907e-02 -9.11805499e-03 1.84221119e-01
      8.39169994e-02 2.26802066e-01 -1.15671732e-01 -1.91131517e-01
      4.73635107e-01 -1.35176659e-01 2.05021188e-01 1.92254670e-02
      -1.55590326e-01 -2.26803422e-01 -2.70149887e-01 1.77041665e-01
      2.04431489e-01 -8.06502178e-02 -9.74410251e-02 8.78984407e-02
      1.60496071e-01 -3.13786685e-01 -1.55974358e-01 0. 3.00868213e-01
      6.92259595e-02 -3.20656188e-02 4.13529307e-01 4.73031491e-01
      3.31626385e-02 2.19305113e-01 -2.75966495e-01 -3.39566678e-01
      3.56179625e-01 -3.19774270e-01 1.55563310e-01 -5.46217978e-01
      3.99186343e-01 -4.74686891e-01 -2.67746419e-01 -3.17581266e-01
      4.09665883e-01 -6.16694838e-02 -5.22176772e-02 7.17776567e-02
      6.14141643e-01 -3.67038250e-01 -1.32749543e-01 2.75661111e-01
      -1.32454082e-01 -8.96091312e-02 3.64684649e-02 3.00253689e-01
      -6.77664801e-02 -1.48224309e-01 0. 4.15355533e-01 3.18525821e-01
      -2.29216367e-01 -9.76288095e-02 -2.41898507e-01 -7.49357939e-01
      1.81984171e-01 -5.20595431e-01 -8.62135813e-02 2.43297100e-01
      1.09782092e-01 4.66332436e-01 -4.59881544e-01 -1.90324530e-01
      2.82581598e-01 -3.81141752e-01 3.49169344e-01 -2.66918659e-01
      -9.18622762e-02 3.15169513e-01 1.36721462e-01 -1.44483685e-01
      -5.13265669e-01 9.84097496e-02 -1.69393569e-02 1.44789293e-01
      2.82747567e-01 -4.82663244e-01 5.50825775e-01 -2.94527352e-01
      -1.77223638e-01 0. -1.37425706e-01 3.35066020e-01 -1.27877176e-01
      5.76487482e-02 -1.58080384e-01 -4.44533736e-01 -5.35947442e-01
      -2.32611448e-01 2.83061743e-01 4.15351748e-01 -4.50180203e-01
      -3.07882369e-01 -2.86175072e-01 -2.61678305e-02 2.30156109e-01
      1.07835256e-03 -4.99081537e-02 2.18551792e-02 -8.24629128e-01
      8.09696093e-02 8.54624510e-02 1.12066001e-01 -5.43769777e-01
      -6.16569817e-01 8.29080790e-02 -2.55777746e-01 8.75753723e-03
      -2.35466421e-01 5.10786474e-01 -6.97493553e-01 -2.43712708e-01 0.
      6.46751642e-01 -1.18494622e-01 -2.83829749e-01 -6.10508263e-01
      1.03403486e-01 1.58275634e-01 5.42813018e-02 1.76346377e-01
      -1.41752258e-01 -5.52898869e-02 2.60700852e-01 -4.03755903e-02
      3.44606861e-02 2.19171077e-01 2.67554801e-02 -3.91969144e-01
      1.98829714e-02 -1.98040664e-01 -4.98243213e-01 -1.74244896e-01
      -1.87729463e-01 -1.79928079e-01 -7.08252966e-01 -5.24406433e-01
      1.88059986e-01 2.85405904e-01 -2.90756702e-01 3.39190811e-02
      -3.46383303e-02 -3.52487385e-01 2.87101775e-01 0. 1.58579364e-01
      1.66298285e-01 -6.28141105e-01 1.53964788e-01 -3.66074312e-03
      4.87892367e-02 -1.31922975e-01 -7.12988898e-02 1.16999932e-02
      1.54903620e-01 3.11706752e-01 -1.16533995e-01 1.13603160e-01
      -2.88712084e-02 8.77344906e-02 -2.60372192e-01 -1.58047080e-01
      1.81116894e-01 -5.96556067e-01 1.41316861e-01 -3.72055560e-01
      1.55956611e-01 2.99139559e-01 -4.72966433e-01 -2.27219149e-01
      2.34985240e-02 -8.82654786e-02 -2.90142775e-01 -3.82552683e-01
      1.71299875e-02 6.50638640e-01 0. -1.24166068e-02 3.54543865e-01
      8.78031477e-02 -1.16346747e-01 6.18041232e-02 3.61656904e-01
      3.05130035e-01 2.21535355e-01 1.00444416e-02 -1.73999205e-01
      -1.08819142e-01 -3.37327898e-01 -8.97934735e-02 -5.47980487e-01
      6.31127298e-01 -6.19929373e-01 -1.03148170e-01 -1.93274528e-01
      4.54812169e-01 3.71484220e-01 1.81098163e-01 9.16131958e-03
      1.41472906e-01 -6.67714924e-02 5.30730069e-01 1.56879827e-01
      1.61971927e-01 -4.69057053e-01 -1.82858467e-01 2.16422528e-01
      3.08502406e-01 0. -2.53987968e-01 1.28814071e-01 -1.07569523e-01
      2.64837980e-01 -3.01993072e-01 1.10129546e-02 -2.91188359e-01
      -5.35573304e-01 -2.94410110e-01 2.81703085e-01 2.10328147e-01
      5.98466933e-01 1.46002471e-01 -1.50323749e-01 -2.14909270e-01
      9.92510244e-02 3.60973924e-01 1.15406141e-01 3.58305350e-02
      1.47013545e-01 2.38217833e-03 3.74136597e-01 -3.48915040e-01
      3.73222023e-01 2.78132170e-01 -1.04215257e-01 1.61578581e-01
      -1.02655245e-02 -3.45988929e-01 1.54813394e-01 2.32950166e-01 0.
      -2.81677157e-01 -1.85319722e-01 -2.22670689e-01 5.19813180e-01
      -4.31305528e-01 -1.87291861e-01 2.91720003e-01 -1.93055458e-02
      -2.04607993e-01 1.14142746e-01 4.12884243e-02 -1.29312336e-01
      -1.53436419e-02 -1.63057029e-01 1.07566170e-01 -4.39041853e-02
      -5.20751178e-02 -6.05128333e-03 -1.68988243e-01 -2.19602078e-01
      -5.04761159e-01 3.05499166e-01 5.69120273e-02 2.79939119e-02
      2.07286432e-01 -1.49217680e-01 -2.35646576e-01 -8.83353427e-02
      -8.26897770e-02 -1.01976402e-01 -1.35887057e-01 0. -3.15400839e-01
      -1.78361401e-01 -2.61555135e-01 3.93201143e-01 1.69280767e-02
      -8.73006135e-02 -8.05561393e-02 5.34565449e-01 -3.25289518e-01
      5.19448593e-02 5.20881414e-01 -2.65680104e-01 -6.50657773e-01
      -6.20492995e-01 1.50811210e-01 -9.25333202e-02 -2.44488180e-01
      2.61447012e-01 2.14982718e-01 4.09788281e-01 1.89592808e-01
      1.36027291e-01 1.55125469e-01 2.90463746e-01 -1.10726785e-02
      1.62610561e-01 3.23325425e-01 -3.61517161e-01 -1.83711171e-01
      -7.67194107e-02 5.97857349e-02 0. 3.44669461e-01 3.18620317e-02
      1.36545613e-01 1.92509368e-02 1.84270218e-01 -1.65949941e-01
      5.91417611e-01 -2.87035614e-01 -6.50800407e-01 -1.75864190e-01
      1.49460331e-01 -1.21482052e-01 8.06694999e-02 2.48829219e-02
      -2.71688551e-01 -1.08109862e-01 -4.88989763e-02 3.20343189e-02
      2.57379830e-01 -1.97193772e-02 -2.66683161e-01 2.31129974e-01
      2.12840125e-01 3.18707302e-02 1.70495480e-01 2.73704946e-01
      9.21623632e-02 -5.36573887e-01 2.59723276e-01 -1.91730469e-01
      3.57912213e-01 0. -9.40089971e-02 1.59442097e-01 2.09586054e-01
      -3.17899048e-01 -2.86543220e-01 -5.48740685e-01 5.31319082e-02
      1.96776003e-01 2.30085805e-01 4.92112190e-01 -1.12125771e-02
      -4.92481053e-01 2.42412671e-01 5.79239070e-01 2.84400076e-01
      3.18126306e-02 -2.69299001e-01 3.47714692e-01 -1.52975082e-01
      1.56130016e-01 3.28187525e-01 -2.09414586e-02 3.37976515e-01
      -4.29092288e-01 -1.85465306e-01 -2.60884147e-02 4.61826921e-01
      -1.80524826e-01 6.29217684e-01 -2.31661797e-01 1.63166776e-01 0.
      3.79171342e-01 2.77075440e-01 4.91536081e-01 2.43419498e-01
      -6.04515553e-01 3.48417908e-01 -3.67509633e-01 -2.05894858e-02
      6.05429858e-02 -2.89142341e-03 4.79327619e-01 -3.47628415e-01
      -2.10230455e-01 6.20067239e-01 1.28381848e-01 1.03200108e-01
      -4.07792091e-01 3.70853871e-01 1.52729392e-01 2.97587663e-01
      7.78657347e-02 -2.66576678e-01 -2.58248478e-01 1.88984260e-01
      2.51313418e-01 1.30057529e-01 4.82011467e-01 -1.39506727e-01
      6.91759050e-01 -3.57128650e-01 5.31226873e-01 0. -1.29884064e-01
      -9.44224149e-02 -3.50686982e-02 4.03923720e-01 1.23843960e-01
      -1.10321924e-01 3.31671208e-01 -9.06023979e-02 2.59757310e-01
      -1.44637609e-02 -1.03987820e-01 -2.13510767e-01 4.83952425e-02
      -3.00480843e-01 2.46470124e-01 -1.42909270e-02 -2.59231031e-01
      -1.39476955e-01 6.25769258e-01 1.18848495e-01 1.69295430e-01
      1.18523858e-01 3.60948950e-01 -2.71752030e-01 2.21419394e-01
      -2.42558733e-01 -2.02074394e-01 -4.85757977e-01 3.81882906e-01
      -2.82951266e-01 3.43608350e-01 0. -1.47217691e-01 -5.90032458e-01
      9.69328806e-02 -4.30632502e-01 1.03098102e-01 1.88072883e-02
      -1.93979620e-04 -1.40794972e-02 1.62445605e-01 -4.48233187e-01
      1.38461456e-01 1.19676217e-01 2.39866942e-01 2.06012219e-01
      -3.12466919e-01 -3.12982574e-02 -2.41420150e-01 3.68606567e-01
      -1.05838723e-01 -3.87301631e-02 -1.40454724e-01 -5.13827741e-01
      3.17233145e-01 1.36518087e-02 1.34889185e-01 2.82661170e-01
      4.68313903e-01 -3.37526262e-01 5.34649864e-02 -2.24471122e-01
      1.49482220e-01 0. 1.29980221e-01 -7.90836364e-02 -1.66171238e-01
      7.23556876e-01 -4.97211330e-02 -3.33424598e-01 3.99811447e-01
      -1.15599886e-01 -5.61314225e-02 1.48512926e-02 3.43798518e-01
      8.36470872e-02 4.00522202e-02 -4.50520545e-01 -2.99205258e-02
      4.42936480e-01 -3.98629308e-01 -6.81739524e-02 -2.90394598e-03
      -4.33411710e-02 -3.52007121e-01 9.48918238e-02 -1.97148412e-01
      2.09302336e-01 2.79824138e-01 -3.36827368e-01 -1.38549864e-01
      2.42548987e-01 1.25943452e-01 -1.42633021e-01 -2.25640573e-02 0.
      -4.38650429e-01 9.60462261e-03 3.13125402e-01 -4.41851348e-01
      -3.34777027e-01 1.11763172e-01 2.74571180e-01 7.98304006e-02
      -1.21967718e-01 -6.33082315e-02 4.17739183e-01 -5.48843324e-01
      -2.05880236e-02 -4.82016951e-01 1.59576237e-02 1.97239190e-01
      3.59761059e-01 3.50019544e-01 -1.55752733e-01 3.69483978e-01
      -3.30398709e-01 4.18461800e-01 8.19622278e-01 -2.42633328e-01
      1.74695522e-01 -7.37176016e-02 3.03590208e-01 -2.64838815e-01
      2.50181526e-01 -2.23720958e-03 -1.35080889e-01 0. -2.26856664e-01
      -1.84332147e-01 3.12549293e-01 -4.62686539e-01 -2.99137947e-03
      -4.62997407e-01 -6.10892987e-03 3.68823886e-01 5.03156483e-01
      -4.09679234e-01 1.37701109e-02 -1.27818510e-01 1.60134658e-02
      7.82086998e-02 2.16403142e-01 -2.77629476e-02 -1.52582467e-01
      -4.08094712e-02 7.77733028e-02 -9.69752371e-02 3.91622126e-01
      -1.65221557e-01 2.98144907e-01 -3.22348952e-01 -1.64125085e-01
      1.14629800e-02 6.70562908e-02 -1.78315938e-01 1.88920930e-01
      -4.57528353e-01 1.66110143e-01 0. -6.28455341e-01 4.86205757e-01
      8.05059001e-02 -2.27235377e-01 2.61833966e-02 -1.34073392e-01
      3.31021607e-01 -1.22856669e-01 2.95764744e-01 -3.24090540e-01
      6.39014021e-02 1.34480055e-02 1.12235337e-01 -3.44917178e-01
      3.27270359e-01 -1.47766411e-01 -1.18411155e-02 -7.74132982e-02
      -4.68293458e-01 5.56083500e-01 2.08725348e-01 -2.49888599e-01
      -3.33911814e-02 -1.09621733e-01 -4.08955157e-01 2.28275210e-01
      6.47323787e-01 3.48366238e-02 -2.02331498e-01 -1.16817325e-01
      1.51324064e-01 0. 4.52612899e-02 1.50238583e-02 -2.96493679e-01
      8.80454630e-02 2.42809251e-01 -2.26335451e-01 1.39890358e-01
      -1.44471318e-01 3.24607529e-02 -4.21542168e-01 2.48316571e-01
      3.24429244e-01 2.08957046e-01 -1.85797542e-01 -1.03620976e-01
      2.69074321e-01 -3.70046794e-01 3.38817537e-01 -3.44463497e-01
      2.21630603e-01 -9.76438522e-02 -3.09495032e-01 3.56159538e-01
      -1.55953407e-01 -3.15701850e-02 -4.58232373e-01 7.66354576e-02
      -1.05222672e-01 -6.47074804e-02 1.31372035e-01 1.35090798e-01 0.
      -4.93645757e-01 8.54946300e-03 -3.21803391e-01 -9.38243326e-03
      -1.65555745e-01 3.89543444e-01 2.88246453e-01 -3.73266488e-01
      1.18724845e-01 -3.85389805e-01 6.23472869e-01 5.85252345e-01
      4.08795923e-02 9.67979804e-02 5.42476960e-02 1.51696682e-01
      2.00265795e-01 -1.66806906e-01 -3.79485071e-01 -2.16831878e-01
      -1.60220265e-02 3.58821936e-02 8.68364125e-02 -9.58302468e-02
      -9.14503336e-02 -1.98960543e-01 2.58671701e-01 -1.42990574e-01
      4.64715987e-01 5.17948158e-02 -7.09630251e-02 0. -3.63264978e-01
      1.71758115e-01 -4.74906266e-01 2.73113519e-01 -3.24152671e-02
      -2.39435300e-01 1.06721267e-01 3.93806130e-01 2.27369487e-01
      -3.55506152e-01 4.07770097e-01 3.00718874e-01 -1.74515434e-02
      -1.98350683e-01 -8.41150433e-02 1.14062198e-01 -2.36376822e-01
      -2.48733312e-02 -2.74133742e-01 3.59417051e-01 3.19072008e-02
      4.09780852e-02 -3.85439456e-01 -5.24227202e-01 -2.00962797e-01
      -2.83151299e-01 2.27630332e-01 2.36199349e-01 3.37702557e-02
      -7.39871562e-02 -2.10772574e-01 0. -1.07792795e-01 2.66551971e-02
      1.42754152e-01 -2.24660873e-01 2.15718672e-01 8.51986632e-02
      -3.50508749e-01 2.61640042e-01 -2.70946026e-01 1.65029280e-02
      1.08388804e-01 -9.88441780e-02 1.53598219e-01 1.72549590e-01
      8.61482099e-02 1.61221176e-01 -1.59412533e-01 1.52382791e-01
      8.45983922e-02 -3.23702884e-03 -1.90486178e-01 -3.86121303e-01
      -2.91090041e-01 5.37651539e-01 -5.43949381e-02 4.38562989e-01
      -9.21250209e-02 5.01735695e-03 2.23253459e-01 -1.31527120e-02
      -4.04204354e-02 0. -5.39222322e-02 7.45213404e-03 1.99478984e-01
      -5.08066639e-02 -6.04520380e-01 5.93111850e-02 5.81186377e-02
      -5.67806542e-01 4.45867538e-01 -2.30753839e-01 1.26683459e-01
      1.95442811e-02 5.16718447e-01 2.10460708e-01 -6.58734560e-01
      1.04264468e-01 -5.41563146e-02 6.48947537e-01 -5.38574219e-01
      -3.46822530e-01 -1.80586204e-01 -2.88861811e-01 2.83426553e-01
      -8.01067501e-02 3.35928321e-01 -2.50217646e-01 1.75873578e-01
      3.79975557e-01 4.82430309e-02 -1.29822150e-01 -2.15360820e-01 0.</_></support_vectors>
  <decision_functions>
    <_>
      <sv_count>1</sv_count>
      <rho>-9.4338896585303065e+00</rho>
      <alpha>
        1.</alpha>
      <index>
        0</index></_></decision_functions></my_svm>
</opencv_storage>
