<?xml version="1.0"?>
<opencv_storage>
<my_svm type_id="opencv-ml-svm">
  <svm_type>C_SVC</svm_type>
  <kernel><type>LINEAR</type></kernel>
  <C>5.0000000000000000e-01</C>
  <term_criteria><epsilon>2.2204460492503131e-16</epsilon>
    <iterations>500000</iterations></term_criteria>
  <var_all>4096</var_all>
  <var_count>4096</var_count>
  <class_count>2</class_count>
  <class_labels type_id="opencv-matrix">
    <rows>1</rows>
    <cols>2</cols>
    <dt>i</dt>
    <data>
      -1 1</data></class_labels>
  <sv_total>1</sv_total>
  <support_vectors>
    <_>
      -1.96022019e-01 5.62288687e-02 8.18572640e-02 -6.07743450e-02
      9.52592865e-02 8.32584277e-02 -1.62384827e-02 3.24999839e-02
      5.66971488e-02 1.36028007e-01 9.96384472e-02 1.25573084e-01
      -4.04087780e-03 -2.83094589e-02 -4.86884788e-02 1.36479558e-02
      4.90795150e-02 1.54066131e-01 -5.47173470e-02 5.56560196e-02
      1.28741398e-01 -1.29144982e-01 -7.03034515e-04 -1.19307198e-01
      -6.16052039e-02 -1.77470502e-02 1.47047892e-01 -1.52843863e-01
      6.12134598e-02 3.84492800e-02 3.50050211e-01 0. -8.11634213e-02
      -9.36052874e-02 1.64334830e-02 -6.98755458e-02 -3.39669734e-02
      2.94542257e-02 7.34618306e-02 -5.00098206e-02 3.92274261e-02
      -1.80448711e-01 1.24369159e-01 1.02808408e-01 6.91684857e-02
      -1.13978676e-01 -6.36991039e-02 -4.04368993e-03 2.48221382e-02
      8.47021192e-02 -1.24839418e-01 -4.76213135e-02 5.33030778e-02
      -3.25006656e-02 -1.68795019e-01 -1.30657256e-01 6.03935309e-02
      1.01765161e-02 3.94117050e-02 -5.36770001e-02 -1.10605890e-02
      -1.02544129e-01 1.07723191e-01 0. -7.33117536e-02 9.43490341e-02
      6.90260753e-02 -9.89877153e-03 1.36813715e-01 -1.83340058e-01
      5.61882788e-03 2.42348225e-03 1.02586120e-01 2.03406680e-02
      1.64567128e-01 6.03610799e-02 7.16780871e-03 -1.03602000e-02
      -8.83821771e-03 -6.48546079e-03 7.91033730e-02 1.08952090e-01
      -1.12492360e-01 1.67197838e-01 7.08177537e-02 -1.36959529e-03
      3.91528755e-02 -8.89926627e-02 -3.06743085e-02 -6.40125200e-03
      5.80393858e-02 7.78895169e-02 1.39375720e-02 4.07380052e-02
      1.30982861e-01 0. -9.06331018e-02 1.81548432e-01 1.53245896e-01
      1.61428116e-02 2.74091661e-01 4.63080220e-02 8.94080475e-02
      7.87300058e-03 4.12224866e-02 -6.12945296e-03 3.92545983e-02
      1.33721143e-01 -9.28473547e-02 1.67699486e-01 -9.22576115e-02
      2.06137281e-02 7.65498206e-02 1.11495908e-02 -5.90991378e-02
      1.81962416e-01 1.23054340e-01 -6.10058010e-02 1.62260458e-01
      -7.01415986e-02 8.49631876e-02 7.88805932e-02 -3.27438824e-02
      7.98789933e-02 9.36095715e-02 1.11073226e-01 1.75977707e-01 0.
      6.72971755e-02 3.44324000e-02 3.29236053e-02 -2.21114233e-03
      9.22031030e-02 1.71014473e-01 6.66195378e-02 -6.22196216e-03
      1.44949242e-01 -1.34641156e-01 -4.65483293e-02 1.53047755e-01
      -1.26262516e-01 4.16487940e-02 -1.27496626e-02 -1.62690114e-02
      1.35608315e-01 1.07342144e-02 -3.66109088e-02 -5.19769639e-02
      7.47254118e-02 -1.42728642e-01 -4.73736189e-02 3.85348573e-02
      4.08035181e-02 7.72829950e-02 4.77270111e-02 5.76591715e-02
      9.03103799e-02 4.10033986e-02 9.64950100e-02 0. -5.37099838e-02
      7.85133988e-02 -7.64227211e-02 -6.97572157e-02 -2.20803022e-02
      -9.04671103e-02 1.18462685e-02 -6.01998009e-02 1.00774467e-01
      5.86566254e-02 4.61766459e-02 2.93014366e-02 -2.20330171e-02
      1.17649995e-01 2.77202260e-02 2.26303674e-02 8.42605382e-02
      4.58850674e-02 -7.90291131e-02 1.25251962e-02 -6.83963522e-02
      -8.48542377e-02 4.10970002e-02 -1.07577555e-01 -2.65489868e-03
      2.63897935e-03 1.16441831e-01 5.94915897e-02 8.24425220e-02
      2.98308227e-02 -6.39346316e-02 0. 2.11899895e-02 3.70750725e-02
      -1.56508703e-02 4.91681769e-02 5.94402738e-02 -1.55626193e-01
      -2.86845639e-02 3.52366567e-02 -4.61862050e-02 -1.71605572e-01
      5.31109832e-02 6.56768605e-02 -7.09674656e-02 -1.11467615e-02
      -1.91336107e-02 7.44807124e-02 1.70378238e-01 1.13929257e-01
      -9.67245996e-02 1.60195641e-02 6.35890961e-02 -3.18909548e-02
      -8.27294774e-03 -2.69825339e-01 2.26951186e-02 8.24090689e-02
      2.80340202e-02 -3.40547338e-02 5.18214367e-02 3.15206721e-02
      2.64595672e-02 0. 9.72790644e-02 7.08238501e-03 9.41409618e-02
      1.36053517e-01 1.99746355e-01 -1.08613513e-01 2.08232533e-02
      1.25813827e-01 3.84895727e-02 -1.28168404e-01 1.43304914e-01
      9.67539996e-02 -3.79207134e-02 -3.85488011e-02 9.33032706e-02
      8.96066893e-03 8.58071819e-02 1.24221645e-01 -1.64878175e-01
      1.29713956e-02 9.50421318e-02 4.13111746e-02 4.29067351e-02
      -1.08375736e-01 -2.48123799e-02 1.35357752e-01 5.93421981e-02
      1.27423137e-01 3.45625877e-01 -4.30162624e-02 2.18179207e-02 0.
      -1.35644019e-01 8.95341486e-02 -5.84925935e-02 -1.70013066e-02
      6.76505119e-02 -8.28496292e-02 -2.15932224e-02 3.73722054e-02
      -4.54848818e-02 -6.49574446e-03 -5.19327559e-02 4.95658405e-02
      6.55288473e-02 9.94120538e-02 -1.24117685e-02 6.29012883e-02
      4.09828015e-02 -2.39928477e-02 -2.67408360e-02 3.56147923e-02
      5.02378270e-02 3.78777250e-03 4.77487221e-02 -2.61028111e-01
      -5.41749410e-04 2.76751164e-02 -1.47254720e-01 -5.96584976e-02
      -1.46665037e-01 1.50623038e-01 8.25934038e-02 0. -9.58402827e-02
      -6.07897043e-02 -1.07510142e-01 -1.90371480e-02 -1.77729651e-02
      5.22439033e-02 1.23515271e-01 5.41401133e-02 4.99929301e-02
      -1.20140351e-01 -7.32007176e-02 5.60198724e-03 -2.51020342e-02
      6.99833184e-02 2.34956015e-03 -1.29338689e-02 -1.20272748e-01
      4.86214757e-02 -7.53251016e-02 -1.03177518e-01 -1.00896344e-01
      -6.97991177e-02 -9.83737633e-02 -1.07893661e-01 2.91646980e-02
      -3.07768881e-02 6.11506216e-02 2.96978243e-02 -8.01650360e-02
      -5.21700131e-03 -6.03515357e-02 0. -1.25662554e-02 8.78336206e-02
      -3.06259692e-02 4.52485010e-02 4.36444208e-02 -1.73164785e-01
      5.18043824e-02 5.38900644e-02 1.95718318e-01 -1.37087613e-01
      5.11969775e-02 -8.34565610e-02 -1.30546823e-01 7.45871514e-02
      3.69349569e-02 -8.78164321e-02 -3.97977009e-02 1.59646720e-02
      -5.32717593e-02 9.61508974e-02 -6.09712489e-02 -9.72301513e-02
      6.09858520e-02 -1.14899538e-01 3.62477545e-03 1.10943012e-01
      1.27007097e-01 1.42637998e-01 -1.27012491e-01 6.43576756e-02
      -9.80090871e-02 0. 9.99092241e-04 1.71933919e-02 9.14455131e-02
      -1.28018931e-01 -2.78483052e-02 -3.94628644e-02 9.14151296e-02
      1.86098650e-01 6.61620647e-02 -1.82449117e-01 2.47700289e-02
      -3.71162803e-03 -1.89080447e-01 -1.56109482e-01 7.93950111e-02
      6.46946728e-02 9.23774205e-03 4.82735708e-02 -9.46654305e-02
      9.59586054e-02 -4.12903912e-02 -3.16826850e-01 -2.61390179e-01
      -1.67489588e-01 8.84767771e-02 2.04916090e-01 7.63298124e-02
      1.71121180e-01 -1.44203648e-01 7.82703087e-02 -1.27341762e-01 0.
      -2.27275696e-02 4.42038896e-03 7.69774467e-02 1.44146327e-02
      -7.13190138e-02 -1.38178274e-01 -2.09033594e-01 5.96004464e-02
      1.44564852e-01 -7.16513619e-02 1.19046256e-01 1.28002092e-01
      3.75605300e-02 -3.66557054e-02 -1.52847961e-01 -3.14837396e-02
      -9.83393751e-03 1.10126667e-01 2.88714841e-03 1.68886870e-01
      2.50939667e-01 -1.80508047e-02 -1.47637501e-01 -3.36290330e-01
      -1.84420720e-01 1.40833762e-02 1.54845953e-01 1.27711028e-01
      -1.39474973e-01 1.51531890e-01 -1.62874937e-01 0. -6.71726838e-02
      1.58013284e-01 8.47885609e-02 9.83456820e-02 -4.68470901e-02
      3.15364785e-02 5.68364672e-02 -5.52029833e-02 1.30567253e-01
      -3.93542275e-03 6.10928563e-03 4.49598059e-02 -2.24036817e-02
      4.15815525e-02 -3.46699450e-03 -5.76468706e-02 -1.62055388e-01
      -1.04119547e-01 -3.92484292e-02 1.00569017e-01 1.87548324e-01
      5.34533188e-02 9.60861742e-02 -8.08572322e-02 -5.02994983e-03
      -7.08920881e-02 -1.11711705e-02 7.31175765e-02 -1.14483526e-02
      1.09417915e-01 -1.09858066e-01 0. 1.57291128e-03 2.86945384e-02
      -7.34473718e-03 1.10061951e-01 -5.55590987e-02 -1.12357959e-01
      -3.18096727e-02 -1.23663321e-01 -8.18166882e-02 8.93120095e-03
      7.23935850e-03 -8.14902112e-02 -7.94729441e-02 6.73253974e-03
      2.59138402e-02 -4.83880416e-02 1.14922069e-01 1.03313122e-02
      -2.65670642e-02 -1.33886095e-02 -9.60144773e-02 -2.78119631e-02
      1.45727089e-02 -2.04397634e-01 -8.99003968e-02 -5.00085903e-03
      -1.04367152e-01 2.06847768e-02 -8.32168236e-02 2.44316235e-02
      -1.06856473e-01 0. -1.67498980e-02 -5.70381135e-02 8.23774338e-02
      -3.73930559e-02 -7.26099834e-02 -1.16670348e-01 -4.09026183e-02
      5.93501665e-02 -1.00148126e-01 -9.39868540e-02 -4.42745257e-03
      -4.73918542e-02 -1.45535022e-02 -9.58293024e-03 9.06698033e-02
      -3.99018154e-02 6.04566634e-02 -3.19300480e-02 -8.03260356e-02
      -8.02973285e-02 2.30889507e-02 -2.54451744e-02 -7.06176460e-02
      -1.91691965e-01 -6.30042627e-02 5.24175875e-02 -8.98223743e-02
      1.30115703e-01 -1.57982539e-02 -5.46721816e-02 -2.43695140e-01 0.
      -1.32998303e-01 -3.54093499e-02 7.56438747e-02 2.92745735e-02
      3.78223062e-02 5.65337587e-06 1.41063645e-01 7.34478086e-02
      -6.88441694e-02 -1.93720460e-02 5.70771582e-02 -4.38215248e-02
      -6.27062842e-02 4.59847748e-02 4.81957123e-02 -1.18332624e-01
      -7.59215653e-02 -9.94345397e-02 -2.43672412e-02 1.85063742e-02
      4.15350273e-02 -4.86832745e-02 -3.66277322e-02 -7.02870563e-02
      -1.00172848e-01 5.63203683e-03 -7.83903003e-02 -1.01731643e-01
      -1.57178134e-01 9.62999910e-02 9.26894769e-02 0. 2.30340916e-03
      3.86384912e-02 -2.40861159e-02 -6.83281422e-02 -2.22033709e-02
      2.27789767e-02 1.37358859e-01 3.84366848e-02 -5.82834817e-02
      -7.10026845e-02 -3.08386721e-02 1.89777128e-02 8.64759013e-02
      1.51927218e-01 -3.02797719e-03 -9.25613418e-02 -6.23372709e-03
      1.42149180e-01 -9.96685550e-02 3.36775295e-02 3.24134454e-02
      -6.96618436e-03 -4.26948331e-02 -1.43229157e-01 -3.31727639e-02
      -6.73704967e-02 5.72623014e-02 3.35621014e-02 1.87300574e-02
      3.15442272e-02 3.98971178e-02 0. -1.04891419e-01 -6.24019206e-02
      8.22717473e-02 3.78112979e-02 2.38386802e-02 -6.82966271e-03
      4.01071496e-02 -3.83878537e-02 1.85970068e-02 -1.96299404e-01
      1.73224509e-02 -3.81270936e-03 1.76460929e-02 1.00694045e-01
      2.50066906e-01 2.76594367e-02 2.35262774e-02 -3.33605893e-02
      -1.17803529e-01 -7.81373158e-02 7.32270479e-02 1.54194636e-02
      1.56781554e-01 6.95736632e-02 9.80514288e-02 2.76070107e-02
      -1.57660991e-02 9.81166363e-02 1.56233590e-02 8.27267393e-03
      -3.07696462e-02 0. 8.62810612e-02 -2.89838970e-01 1.16705373e-02
      -2.11945191e-01 -9.76201296e-02 -1.01564452e-01 -1.30319640e-01
      -2.58611646e-02 -3.46373357e-02 -1.08500563e-01 -7.01172128e-02
      -1.00228250e-01 -3.40266936e-02 -1.48997188e-01 1.61758568e-02
      3.86774912e-02 2.70821806e-03 -4.13535126e-02 -1.34592533e-01
      -2.28456914e-01 -2.00959876e-01 -3.12329501e-01 -1.21203549e-01
      -1.40701339e-01 -1.59111246e-02 4.60278708e-03 -3.67212892e-02
      -1.16836950e-01 -1.56255633e-01 -1.11186333e-01 -2.00020000e-01 0.
      -2.15379924e-01 -1.08201757e-01 -2.45472807e-02 -7.43808821e-02
      6.94109276e-02 -7.54065737e-02 -2.53936589e-01 5.75577915e-02
      -1.63446873e-01 1.68117844e-02 -1.21916890e-01 -9.72061828e-02
      1.53056502e-01 9.55278811e-04 -4.80110720e-02 -8.83751810e-02
      -2.03937560e-01 -9.57712159e-02 -2.80075997e-01 -1.42852828e-01
      -1.17943861e-01 6.04621768e-02 -6.55381456e-02 -1.43391758e-01
      -2.87081987e-01 -2.39007175e-01 -1.95835903e-01 -1.23918004e-01
      -1.94153696e-01 -1.61881492e-01 -1.20009668e-01 0. -3.43321636e-02
      3.69153731e-03 -7.39071891e-02 -4.71113175e-02 -1.15180882e-02
      -2.93108299e-02 1.65279005e-02 1.22703709e-01 3.47923860e-02
      -1.15911350e-01 -6.48098662e-02 4.05184180e-03 7.76138809e-03
      2.14173451e-01 1.30556479e-01 -3.38362297e-03 -7.80621767e-02
      -1.51269110e-02 -1.16653442e-01 -6.94415048e-02 -1.61812492e-02
      1.03298714e-02 8.47938657e-02 1.04180478e-01 2.52646487e-02
      4.39500660e-02 -1.40632074e-02 -2.03057881e-02 1.16195902e-02
      4.45563123e-02 -7.21598184e-03 0. -6.17123730e-02 6.89501017e-02
      3.08590326e-02 8.63834545e-02 4.06764410e-02 -1.03209212e-01
      -3.97164896e-02 -1.36903375e-02 1.20346449e-01 8.25567450e-03
      4.84558530e-02 4.08301242e-02 -1.12302341e-01 -3.05717196e-02
      -2.21437812e-02 8.61908644e-02 -1.59498658e-02 -3.38226482e-02
      -6.64233342e-02 3.12259626e-02 -1.35990912e-02 -8.01651701e-02
      -6.19560219e-02 -2.46313095e-01 1.96174495e-02 -1.01156291e-02
      2.63847765e-02 4.63238135e-02 1.34596778e-02 3.11706252e-02
      -4.48373929e-02 0. 8.00033957e-02 -7.66123552e-03 3.32219037e-03
      7.31293485e-02 4.18739803e-02 3.51633802e-02 -5.76745830e-02
      -1.47113260e-02 -5.01876697e-02 -1.19957462e-01 -6.60388619e-02
      3.51570845e-02 -5.54073378e-02 1.86586529e-02 9.66043305e-03
      -9.61533561e-02 3.12228538e-02 8.79928023e-02 -5.52755073e-02
      -9.06413514e-03 2.18474790e-02 -5.33038750e-02 6.70117587e-02
      -9.71135870e-02 -9.72955152e-02 1.12653114e-02 3.75714451e-02
      1.37457535e-01 8.14925954e-02 -7.30603263e-02 -1.70217663e-01 0.
      -6.29767776e-02 1.30004827e-02 1.24606574e-02 7.23045245e-02
      1.37960343e-02 1.87966917e-02 -1.02903377e-02 -3.06471791e-02
      -4.81309295e-02 1.03657111e-03 6.25461107e-03 6.80021867e-02
      8.74261558e-02 9.14214402e-02 8.29277411e-02 -1.09094545e-01
      1.24806762e-01 -3.65075655e-02 -7.12619573e-02 1.36921695e-02
      2.26410814e-02 1.15838982e-01 -6.25859275e-02 -1.65881477e-02
      -1.82716802e-01 -6.45903219e-03 -5.18792495e-02 -1.12644972e-04
      -1.25857264e-01 1.49785966e-01 1.15052015e-01 0. -1.54436333e-02
      5.93052246e-02 -6.97961748e-02 3.24517973e-02 3.08730509e-02
      -1.28816202e-01 3.39044295e-02 1.01370901e-01 2.53255442e-02
      1.16939202e-01 1.87929105e-02 -6.17384128e-02 -9.97186266e-03
      1.99972279e-02 8.63415524e-02 7.21602365e-02 -8.60438719e-02
      -3.39279175e-02 1.33647308e-01 9.41563770e-02 -3.12979071e-04
      1.00929938e-01 -1.07137583e-01 -1.49762943e-01 5.70725389e-02
      -2.70930920e-02 -2.83860937e-02 1.17704131e-01 -3.78956497e-02
      5.77643290e-02 -4.71941046e-02 0. 1.34273261e-01 1.27412975e-01
      -1.08087778e-01 -2.46902220e-02 -1.37802422e-01 -1.25916198e-01
      4.09399047e-02 -1.48377165e-01 2.77892724e-02 9.02375653e-02
      1.46564111e-01 -1.75449401e-01 6.61614398e-03 4.00368273e-02
      2.47112033e-03 1.45758420e-01 -1.14453519e-02 4.88218106e-02
      1.35919571e-01 9.89934951e-02 -2.69216895e-01 -1.94402579e-02
      -1.09636500e-01 -1.65078431e-01 1.39440060e-01 -1.06644966e-01
      7.76083544e-02 8.30691587e-03 -1.23635726e-02 9.74507406e-02
      -5.60813732e-02 0. 1.24615468e-01 2.09090076e-02 -5.76902889e-02
      -1.66190669e-01 -6.90764487e-02 -2.24711001e-02 2.29720445e-03
      -6.30420595e-02 -1.90638795e-01 8.99353027e-02 -1.15477994e-01
      -3.25790554e-01 -9.95612070e-02 1.52702898e-01 6.99487776e-02
      -1.11243770e-01 -6.24678880e-02 1.06122337e-01 9.61073115e-02
      -4.11512144e-02 -3.42032135e-01 -2.42826045e-01 1.78405810e-02
      -6.15023635e-02 -1.31769687e-01 -1.45151556e-01 -2.96359062e-02
      -2.20107764e-01 -6.05324246e-02 -2.12051719e-02 -3.62048671e-02 0.
      6.93283454e-02 -5.99163510e-02 -7.94391781e-02 -6.60445634e-03
      -3.56551148e-02 -1.38581842e-01 -2.00985432e-01 -7.88022131e-02
      2.75416188e-02 1.45060018e-01 -6.39330298e-02 -2.11237282e-01
      -1.52906388e-01 2.32574955e-01 8.70568380e-02 -4.92944708e-03
      -1.77037552e-01 -1.20908894e-01 6.69838563e-02 -1.38417304e-01
      -2.93273181e-01 -2.00219586e-01 1.18806807e-03 -1.49406269e-01
      -1.75299406e-01 -3.02501231e-01 -7.80686960e-02 -6.16479032e-02
      -2.44091731e-02 -2.39633203e-01 -3.69932465e-02 0. 1.16761364e-01
      -7.12762251e-02 -1.08291544e-01 -2.20868867e-02 -3.09830462e-03
      -7.78390244e-02 -2.37854198e-02 -2.20770780e-02 -2.32159235e-02
      4.94659692e-02 -5.08400751e-03 -2.66389754e-02 1.43468276e-01
      3.34544554e-02 -4.13636910e-03 -3.65025103e-02 -1.14866398e-01
      1.00235701e-01 4.34507132e-02 -3.57989669e-02 -8.09140652e-02
      1.17520258e-01 3.10589541e-02 -1.74078017e-01 -4.83496534e-03
      -1.84126318e-01 3.71452793e-03 6.18996471e-03 -3.33006717e-02
      -3.23528089e-02 1.44387204e-02 0. 1.03331178e-01 -6.35699779e-02
      5.63310347e-02 -1.21837065e-01 -1.01062171e-01 4.59360816e-02
      6.91924319e-02 -3.21538746e-03 -1.22854123e-02 6.85391799e-02
      -1.58521198e-02 -7.35299662e-02 8.39402899e-02 1.32083952e-01
      -3.07726115e-02 1.33289963e-01 9.48504487e-04 2.36516204e-02
      3.35482545e-02 -4.49028537e-02 -9.60853789e-03 -6.29141703e-02
      -1.06933013e-01 -1.39504477e-01 1.53375849e-01 2.31573731e-02
      -2.14390177e-02 4.69485410e-02 6.79345652e-02 4.96127270e-02
      -2.53764763e-02 0. 1.18661925e-01 -1.17594920e-01 -3.00786011e-02
      -1.00598717e-02 -1.42568117e-02 -9.10911858e-02 -8.52881446e-02
      -7.59980977e-02 1.15346080e-02 -2.40167230e-02 -6.49009869e-02
      2.62961965e-02 -1.19128413e-01 4.46723290e-02 9.02565792e-02
      1.48488939e-01 1.46310508e-01 5.26606813e-02 2.74040028e-02
      -3.02445535e-02 -3.86877619e-02 -1.60968825e-01 -5.00682034e-02
      -1.84864461e-01 1.56477764e-02 5.11768386e-02 8.31424892e-02
      9.82394144e-02 1.31890252e-01 -6.80611879e-02 -1.59019426e-01 0.
      -8.36091042e-02 1.13160357e-01 5.23119494e-02 6.59488067e-02
      8.99071395e-02 2.36546975e-02 -1.06227614e-01 -2.47431919e-02
      4.86659594e-02 4.71029915e-02 -1.38509408e-01 -1.43781835e-02
      -7.52210543e-02 6.99412748e-02 1.02108624e-03 7.44813383e-02
      7.68086016e-02 1.70577280e-02 -3.00620478e-02 3.00656091e-02
      2.10823920e-02 -4.66822088e-02 9.68534499e-02 -4.29757498e-02
      2.94953492e-02 4.60972525e-02 -1.24845002e-02 -8.41398165e-02
      2.63114646e-02 2.30074637e-02 1.46718711e-01 0. -9.37090372e-04
      3.57146189e-02 5.59643619e-02 1.31973207e-01 -4.85836342e-02
      -1.53945059e-01 -8.55229422e-02 3.11243488e-03 6.35441616e-02
      -4.33425512e-03 -1.82396565e-02 -1.15862519e-01 4.81424481e-03
      1.85089335e-01 1.30702913e-01 -2.90489313e-03 -4.19769175e-02
      -6.21303134e-02 7.53906905e-04 8.40540528e-02 -8.77829269e-02
      1.27849758e-01 1.33263826e-01 -1.02518760e-02 2.01631486e-02
      -6.18869178e-02 -4.58780564e-02 1.01350844e-01 9.73613113e-02
      -1.78159460e-01 1.54990451e-02 0. -7.05962628e-02 -1.36099979e-01
      -1.38911590e-01 8.06841925e-02 8.15444589e-02 -1.66123956e-02
      6.93531055e-03 -7.73292733e-03 1.29277512e-01 4.32085283e-02
      -1.56186491e-01 -2.45538458e-01 -9.83286798e-02 8.13914612e-02
      2.23902538e-02 4.68576141e-02 9.79979634e-02 -3.57725881e-02
      -1.34206757e-01 -2.09734768e-01 -3.73375952e-01 1.72551777e-02
      1.50415063e-01 6.60549775e-02 5.43435588e-02 1.22326359e-01
      1.35438338e-01 -8.84902626e-02 -3.18390764e-02 -5.20860180e-02
      2.36923657e-02 0. 1.71404153e-01 -3.93101387e-02 -2.77707607e-01
      1.55375795e-02 1.15147762e-01 9.45867822e-02 3.71513292e-02
      1.85825955e-02 2.67189682e-01 3.60177934e-01 -3.98880243e-02
      -1.04963563e-01 -1.12869933e-01 4.02454548e-02 1.22477390e-01
      -8.89607705e-04 3.25109474e-02 1.83598548e-02 2.60021448e-01
      3.23048756e-02 -2.80163139e-01 -8.33166763e-02 3.86589393e-02
      9.76638943e-02 7.08521456e-02 5.28520532e-02 1.79693177e-01
      -5.93466237e-02 9.57831666e-02 1.38228491e-01 1.63678780e-01 0.
      3.37797642e-01 2.16228440e-01 -7.45818466e-02 7.35297352e-02
      1.18060939e-01 7.11526945e-02 -1.80379942e-03 -1.73840284e-01
      6.44081272e-03 1.98697358e-01 -6.61245687e-03 5.46801500e-02
      -5.75780384e-02 8.86900574e-02 5.51736739e-04 1.18625335e-01
      -7.86344036e-02 -1.69990540e-01 2.34520838e-01 1.74429432e-01
      2.05957685e-02 3.83164547e-02 1.12422332e-01 1.87114682e-02
      5.61251938e-02 -2.05622867e-01 -4.62661237e-02 5.71969599e-02
      1.33280367e-01 3.78939286e-02 1.11703075e-01 0. 2.36132219e-01
      1.96678206e-01 -2.14963425e-02 1.35185570e-01 3.78928520e-02
      1.12963028e-01 7.15964660e-02 -9.52553526e-02 -1.05996616e-01
      1.57794077e-02 5.39174266e-02 1.09812178e-01 6.84904382e-02
      -1.27758719e-02 -1.20686193e-03 -6.31832182e-02 -2.17290133e-01
      -1.63481697e-01 -6.07827120e-02 1.66384518e-01 1.15570083e-01
      2.55231619e-01 7.71644190e-02 7.61022419e-02 5.06817512e-02
      -3.68055999e-01 -1.79542109e-01 1.94505677e-02 1.07150979e-01
      -5.27377315e-02 9.47850421e-02 0. 3.11265998e-02 1.47430092e-01
      1.22440696e-01 -2.85681076e-02 -1.23574369e-01 2.49674562e-02
      -2.02201996e-02 -2.41009500e-02 7.66296014e-02 -8.74151215e-02
      -8.11350271e-02 -2.96274368e-02 9.52567346e-03 1.18369579e-01
      4.38524447e-02 4.11205254e-02 -8.67438242e-02 -2.75609512e-02
      -7.54934549e-02 -3.35505116e-03 2.72389618e-03 7.72570744e-02
      6.27972186e-02 2.62860786e-02 1.95455011e-02 -9.15723294e-02
      4.19695601e-02 -6.76374361e-02 7.63808638e-02 -1.51149917e-03
      4.29800525e-02 0. -4.02390398e-02 2.56221294e-02 3.79245169e-02
      9.04435888e-02 -9.00071412e-02 2.54126787e-02 3.80992480e-02
      6.76663369e-02 9.59143192e-02 4.89048772e-02 -5.68253063e-02
      9.74259302e-02 -1.63861271e-02 -2.58827349e-03 4.66150790e-02
      -4.69080582e-02 -9.42471717e-03 -8.10035244e-02 -4.73105684e-02
      6.18363395e-02 1.04834802e-01 6.91438690e-02 -5.66980317e-02
      -3.03670038e-02 -3.96813005e-02 2.44386634e-03 -5.18666906e-03
      6.69601709e-02 1.73562631e-01 -8.88933390e-02 -4.29027155e-02 0.
      1.33196995e-01 -8.02802667e-03 4.98124249e-02 4.02151272e-02
      1.34181842e-01 1.90353859e-02 1.25917822e-01 4.94177416e-02
      -1.89684406e-02 -4.24195118e-02 3.20481472e-02 -6.44141287e-02
      -5.68941459e-02 2.87160836e-03 3.59296091e-02 6.64741620e-02
      4.78065312e-02 -6.40351251e-02 -7.40245059e-02 8.26975033e-02
      -1.67131436e-03 -5.18312864e-02 1.01492954e-02 -6.24741614e-02
      1.51115656e-01 4.98127751e-02 -6.45911098e-02 -2.71724835e-02
      6.56609759e-02 2.38275714e-02 1.64968535e-01 0. -3.12299398e-03
      -1.36531636e-01 -1.20467030e-01 1.49212778e-01 -5.21492548e-02
      -1.04869805e-01 5.10003455e-02 -9.52905267e-02 1.43770659e-02
      1.03103787e-01 1.10174827e-01 -1.39976621e-01 1.64825007e-01
      9.35445428e-02 -7.21687973e-02 9.70902517e-02 2.61512473e-02
      -9.24896076e-02 1.33271273e-02 3.76077415e-03 -1.68573767e-01
      2.57974237e-01 5.26817851e-02 -1.61938518e-01 1.06092580e-01
      -5.98990060e-02 -2.55744569e-02 1.03953309e-01 1.32870987e-01
      -1.84505507e-01 -5.58950454e-02 0. -2.40448490e-03 -7.57162049e-02
      3.22280191e-02 1.51218057e-01 4.67371009e-02 5.97973280e-02
      -1.04826568e-02 -7.79453591e-02 -1.28035843e-01 5.58489710e-02
      -4.84806225e-02 3.98379602e-02 1.44412965e-01 6.09039515e-02
      -2.29967199e-02 7.97193646e-02 -1.25820860e-01 -1.17302723e-01
      -1.91139415e-01 -6.35172054e-02 4.96165380e-02 2.17010289e-01
      8.49890932e-02 -3.01872403e-03 2.60770656e-02 -9.91366953e-02
      -7.22488165e-02 -6.48636371e-02 8.26246142e-02 -3.78101356e-02
      4.90488410e-02 0. -1.98757909e-02 -5.13982438e-02 4.23035659e-02
      1.60392106e-01 1.52008370e-01 1.13347054e-01 6.92896321e-02
      -4.15857648e-03 2.06341930e-02 -5.17670214e-02 -6.55625537e-02
      1.23342022e-01 4.94881980e-02 8.95347893e-02 4.30507027e-02
      -3.11359633e-02 7.02003576e-03 -2.35450901e-02 -1.44965947e-01
      7.64194224e-03 1.30668029e-01 2.29522794e-01 2.26858467e-01
      8.40103850e-02 4.71632816e-02 -6.11145943e-02 7.35368505e-02
      -2.23012269e-02 5.11118695e-02 8.09591338e-02 1.83897078e-01 0.
      -9.66487676e-02 -7.36539438e-02 -3.23790498e-02 1.77243039e-01
      3.77437681e-01 1.99169908e-02 8.90945941e-02 4.68796305e-02
      -1.43076023e-02 -6.28215447e-03 -3.81628834e-02 2.72803456e-02
      -1.49069592e-01 1.76663119e-02 -7.29695261e-02 1.06993526e-01
      9.90701839e-02 3.34890224e-02 -9.56397653e-02 4.68991213e-02
      -8.22332427e-02 -1.19369235e-02 2.04464465e-01 5.00089601e-02
      2.33301818e-01 6.29168823e-02 5.38285859e-02 6.11129217e-02
      9.82298553e-02 5.31665655e-03 7.65077323e-02 0. 7.61328712e-02
      -1.51060164e-01 -1.03729419e-01 3.49603929e-02 1.21974066e-01
      2.56950967e-02 1.69526383e-01 -1.15232673e-02 3.05247456e-02
      2.32819584e-03 -1.15589589e-01 -4.33871709e-03 -9.17152613e-02
      2.93815453e-02 1.21230744e-02 3.81234400e-02 -5.40204346e-03
      -1.68704703e-01 -1.66647464e-01 -1.33598655e-01 -5.32195084e-02
      -3.98181900e-02 8.85060653e-02 2.24673636e-02 1.89314991e-01
      -5.58461435e-02 -1.06444962e-01 -1.54626258e-02 5.91335930e-02
      -9.51590538e-02 -9.75563074e-04 0. 5.46031035e-02 4.56718802e-02
      -4.83705960e-02 9.06386375e-02 -1.97574329e-02 -2.22032778e-02
      1.43776029e-01 -1.76629022e-01 -3.67790237e-02 -7.24666342e-02
      -7.62977675e-02 3.12190372e-02 2.48121768e-02 -2.95003541e-02
      1.86331719e-01 1.78613991e-01 -1.88772082e-02 3.65921557e-02
      -7.21790045e-02 3.19506298e-03 -7.82308951e-02 8.39217454e-02
      -3.01064290e-02 6.79959282e-02 2.17340648e-01 -9.48457420e-02
      8.66240263e-03 -3.52616198e-02 5.49086221e-02 3.76467481e-02
      8.00615326e-02 0. 9.50393826e-02 -2.04799920e-02 -3.49582024e-02
      5.98854572e-02 3.09169404e-02 4.32111137e-02 1.25981033e-01
      2.80408394e-02 -9.69789028e-02 1.39892802e-01 -7.86346197e-02
      -2.84697525e-02 1.49421133e-02 -7.61958808e-02 1.03258863e-01
      -3.72065827e-02 -4.61206548e-02 7.90962726e-02 -2.64145713e-02
      -6.73644170e-02 -1.15959041e-01 4.31366079e-03 -6.79771379e-02
      8.81201960e-03 3.39056365e-02 -1.84227247e-02 8.10657861e-04
      2.88951136e-02 1.50111467e-01 -6.97370991e-02 3.27256992e-02 0.
      7.43491948e-02 5.93940355e-03 8.84613395e-02 9.44905579e-02
      -1.27822116e-01 -2.00019389e-01 5.29937185e-02 -8.34361911e-02
      2.36308519e-02 1.13525897e-01 -3.71512473e-02 8.60329121e-02
      1.76305007e-02 1.40685020e-02 1.83839262e-01 -3.31246033e-02
      8.21231231e-02 -9.22017207e-04 -4.59922999e-02 -2.66843773e-02
      7.69637451e-02 9.81236994e-02 -5.23235798e-02 -6.27132058e-02
      6.29559532e-02 1.44305350e-02 -2.75981314e-02 -3.54041602e-03
      7.90383201e-03 1.19376704e-01 4.34229486e-02 0. -3.37414385e-04
      4.11560107e-03 1.38867460e-02 6.46258965e-02 -6.20353557e-02
      -1.16528019e-01 -2.56093871e-02 -7.92287663e-02 2.09446661e-02
      9.41973180e-02 -5.99420331e-02 4.10158094e-03 -6.95268735e-02
      -6.39850497e-02 -1.60747953e-02 1.29736876e-02 1.21046491e-02
      4.96454164e-02 8.39513689e-02 -4.73531149e-02 -3.62806744e-03
      -1.15268501e-02 -6.92562014e-02 -1.57388031e-01 1.58141041e-03
      -4.89978939e-02 5.55391796e-02 4.23956960e-02 1.41530931e-01
      -1.54510826e-01 -1.31555036e-01 0. 7.56721795e-02 -1.38288617e-01
      -1.09901614e-01 5.92833273e-02 1.12337284e-01 3.53309140e-02
      -8.47261846e-02 -1.36837825e-01 -3.05748843e-02 6.72278702e-02
      -9.54949632e-02 -5.82994483e-02 4.72801067e-02 3.15475911e-02
      1.51251435e-01 1.06137432e-01 1.70192346e-01 4.23644297e-02
      -8.37105885e-02 -1.56110510e-01 -8.29464719e-02 1.16291702e-01
      6.44325837e-02 4.47107777e-02 8.19325796e-04 7.46646598e-02
      3.28230932e-02 -1.15153082e-02 1.68908499e-02 1.38598373e-02
      9.60225835e-02 0. 9.69191417e-02 1.19615206e-02 3.41419727e-02
      -6.31304607e-02 7.72497132e-02 -9.04780477e-02 -3.13562565e-02
      -1.06702454e-01 2.45812302e-03 1.31102085e-01 -1.77177191e-02
      -7.53272101e-02 9.79839861e-02 1.79113433e-01 5.63314743e-03
      -4.07885686e-02 3.94206569e-02 -4.01789024e-02 4.52159829e-02
      7.08560348e-02 -3.61790806e-02 5.83307743e-02 8.23467299e-02
      -1.90022573e-01 3.97680188e-03 -1.56229854e-01 -5.23729846e-02
      -8.11048970e-02 -1.14265701e-03 2.24134848e-02 1.58971474e-01 0.
      8.30794498e-02 -3.85933183e-03 -1.02361858e-01 -1.57476321e-01
      -8.08118954e-02 -8.53601936e-03 -9.41802282e-03 3.07959523e-02
      9.44744274e-02 1.70764327e-01 -4.01902050e-02 9.08297226e-02
      -7.42907375e-02 5.61370552e-02 5.83393835e-02 7.56770149e-02
      1.00317793e-02 -4.03058790e-02 3.45851257e-02 -3.40609476e-02
      -7.04610199e-02 -1.36056811e-01 -1.39183775e-01 -5.16455881e-02
      9.32657197e-02 1.96798239e-02 3.23598012e-02 1.95357166e-02
      1.17921643e-01 -8.79400894e-02 2.25497968e-02 0. 3.83170843e-02
      1.28279440e-03 -5.00876307e-02 -1.04615532e-01 5.86431287e-02
      1.00825444e-01 7.28977621e-02 -4.93579246e-02 -3.85690928e-02
      2.17143521e-02 -7.49852285e-02 9.40122977e-02 6.38237819e-02
      6.62471130e-02 -6.80201948e-02 5.07439710e-02 -6.26970455e-02
      -1.23069875e-01 -1.21374406e-01 -5.65663315e-02 1.39532194e-01
      3.82591784e-02 1.49816170e-01 1.98197048e-02 1.00827739e-01
      -9.67613608e-02 -1.31190121e-01 -1.28828790e-02 9.31694433e-02
      -6.35540262e-02 -1.80971250e-02 0. -2.36869231e-02 6.35497421e-02
      -3.06301285e-02 2.32763924e-02 2.61643273e-03 -1.39933109e-01
      2.29212381e-02 -8.24276954e-02 1.19688600e-01 2.30900999e-02
      -1.06072938e-03 4.41496335e-02 1.30814426e-02 -4.43148874e-02
      -1.23929553e-01 3.00940895e-03 3.99915911e-02 -1.94046110e-01
      6.53279126e-02 8.20803940e-02 7.38933310e-02 7.49741821e-03
      4.00038622e-03 -1.63043350e-01 3.50972079e-02 -4.02545324e-03
      -5.44317290e-02 -1.51329368e-01 -3.96783799e-02 -2.08556484e-02
      7.76772574e-02 0. 1.57859489e-01 7.26058111e-02 -9.19265002e-02
      3.16220857e-02 -3.10091339e-02 -1.91154793e-01 -3.80437523e-02
      3.26696038e-02 -4.49473932e-02 9.17603299e-02 -4.01119441e-02
      1.48222342e-01 -2.34615691e-02 1.61613196e-01 -4.12651226e-02
      -1.08402774e-01 1.31576493e-01 -1.31319379e-02 -6.52922764e-02
      -2.40484737e-02 6.73737843e-03 5.11413347e-03 1.28509045e-01
      -2.20100686e-01 -1.26149371e-01 5.96135929e-02 -7.59342685e-02
      5.37615903e-02 1.04757935e-01 -9.31839570e-02 3.10536642e-02 0.
      5.33840805e-02 -2.79160831e-02 1.11476369e-01 4.32931073e-02
      4.77599315e-02 -1.37528196e-01 5.21035977e-02 3.09109334e-02
      -4.23584543e-02 1.54515326e-01 9.15289149e-02 7.11387843e-02
      -1.81822851e-01 -8.49967124e-04 -1.44037753e-02 2.40806229e-02
      -2.06833035e-02 -1.88132808e-01 -8.08787420e-02 1.97009780e-02
      7.82784447e-02 -9.29482207e-02 -8.50210607e-04 -1.27449438e-01
      4.52951565e-02 -1.66571941e-02 -1.86628953e-01 -1.24858074e-01
      -3.33710723e-02 1.92298405e-02 1.70345664e-01 0. -2.67014485e-02
      2.02709232e-02 -2.99222916e-02 -7.39483833e-02 9.63099301e-03
      -1.12191429e-02 6.83142152e-03 3.24968360e-02 -9.83571783e-02
      1.07527226e-01 -5.71410768e-02 1.14332542e-01 5.91498055e-03
      -5.79100586e-02 -2.60572787e-02 1.02033183e-01 -7.69125521e-02
      -6.34897351e-02 1.34527218e-02 -1.21975906e-01 8.11354294e-02
      -4.63511720e-02 -3.17043886e-02 -3.38907987e-02 6.64797127e-02
      -2.52732597e-02 -1.16215542e-01 -1.19259870e-02 1.12237744e-01
      -1.39691144e-01 -1.84241626e-02 0. -7.30933249e-02 -1.92989260e-01
      -7.56709948e-02 -4.50717360e-02 7.15551674e-02 6.87689409e-02
      6.61315164e-03 -3.56735960e-02 -1.40457153e-01 -3.65126096e-02
      3.82054038e-03 -4.50749099e-02 9.72487871e-03 9.98683572e-02
      6.06440194e-02 -2.89619602e-02 1.40553489e-01 8.56620222e-02
      -1.58538222e-01 -2.01084018e-01 -1.34506837e-01 -2.53947135e-02
      1.21613748e-01 1.28973173e-02 -6.87764660e-02 6.19188324e-02
      -1.10768601e-01 -3.73116769e-02 -1.59367416e-02 -7.94949159e-02
      7.32078701e-02 0. -2.71649635e-03 4.11049016e-02 3.12845111e-02
      -6.26300089e-03 7.26530235e-03 -1.62560925e-01 2.77495533e-02
      -2.84588337e-02 8.78416151e-02 2.82105207e-01 1.55626377e-02
      4.55418676e-02 -2.40117386e-02 1.35232419e-01 -4.18088175e-02
      -6.29761443e-02 1.07033245e-01 -8.53722468e-02 9.95251536e-02
      4.16776463e-02 7.80866519e-02 -3.48757021e-02 -4.17898446e-02
      -2.28911117e-01 -5.17423935e-02 -1.04980124e-02 -2.35745707e-03
      -4.27992642e-02 5.64119732e-03 5.15938438e-02 1.58357352e-01 0.
      2.68599033e-01 4.78962548e-02 5.06851487e-02 5.31542581e-04
      -7.62943774e-02 -1.26287088e-01 4.03790772e-02 4.44687456e-02
      8.65216404e-02 9.95292366e-02 -9.50463414e-02 4.60949130e-02
      -2.99681108e-02 2.74644177e-02 -1.70946214e-02 2.32943967e-02
      3.53493495e-03 2.10774373e-02 1.32461369e-01 -4.12219157e-03
      3.68002988e-02 -6.68845400e-02 -1.17920689e-01 -1.57998309e-01
      3.46236154e-02 8.99386406e-02 5.32311760e-02 6.25153072e-03
      1.74746647e-01 -3.06354370e-02 4.54503149e-02 0. -6.70017004e-02
      -1.32425398e-01 -1.51271326e-02 6.82099983e-02 7.47646093e-02
      -1.25584770e-02 1.59983765e-02 -3.25093716e-02 -1.31895959e-01
      -3.15894671e-02 8.43289420e-02 1.03069261e-01 -5.31803444e-02
      1.57945499e-01 1.51438445e-01 2.18831617e-02 3.66063230e-03
      -5.85400686e-02 -2.47409329e-01 -1.03900217e-01 3.84304486e-02
      -4.39229682e-02 6.10145107e-02 5.13921231e-02 1.08304294e-02
      -1.03600278e-01 -1.47420555e-01 -9.55221429e-02 9.05030146e-02
      1.17115527e-02 6.23540245e-02 0. 9.95024890e-02 -5.38509376e-02
      3.82119231e-02 1.05463058e-01 4.41450626e-04 -5.47957979e-02
      -7.93869048e-02 -5.47799328e-03 1.23859644e-01 7.46733174e-02
      -1.00904226e-03 1.00357495e-02 3.29003818e-02 -1.04907028e-01
      2.31606215e-02 8.61727372e-02 1.43655494e-01 -1.35485560e-01
      4.51173335e-02 -1.02877626e-02 9.85073764e-03 5.47066517e-02
      -2.00848300e-02 -6.99107572e-02 -3.69151356e-03 7.03095347e-02
      -8.61014202e-02 -7.74237886e-02 3.97448242e-02 -5.17225941e-04
      1.81107476e-01 0. 2.14140136e-02 8.57795104e-02 -1.99034158e-03
      -2.16791276e-02 -5.74287176e-02 2.79488750e-02 5.92904091e-02
      3.72447856e-02 9.80214868e-03 8.88645649e-02 -1.30914658e-01
      2.37257220e-02 1.13157071e-01 3.15295323e-03 -6.36918768e-02
      -1.32422969e-01 5.09370938e-02 3.31404023e-02 -5.33153340e-02
      -5.42320721e-02 -3.22467871e-02 4.30531316e-02 3.79260331e-02
      -6.44582137e-02 -7.32474178e-02 -2.25319434e-02 5.23628220e-02
      7.67228976e-02 1.41470492e-01 -1.25301287e-01 -2.39121690e-02 0.
      9.87531617e-02 1.08020239e-01 1.29584372e-01 -1.76654309e-02
      8.89711007e-02 2.58754380e-02 3.97531651e-02 -4.02189381e-02
      3.72394733e-03 1.50103450e-01 2.20203862e-01 -1.57774277e-02
      -1.86446100e-01 2.41575781e-02 8.46163183e-02 1.66582726e-02
      4.88573536e-02 -2.99566165e-02 1.04837097e-01 1.71303526e-01
      1.01347722e-01 -9.66306776e-02 -1.35304645e-01 -4.52954955e-02
      6.40369356e-02 -3.45049687e-02 -3.73853482e-02 -2.17405409e-02
      4.75852005e-02 9.82367024e-02 2.29097992e-01 0. 1.44456364e-02
      -7.13935271e-02 1.50504364e-02 -4.07946343e-03 3.30519900e-02
      3.91780175e-02 8.66004303e-02 -3.17705348e-02 -9.85226855e-02
      1.99110955e-02 3.16571668e-02 9.85677317e-02 1.05883226e-01
      1.00792244e-01 7.74684362e-03 9.98047218e-02 -9.67325866e-02
      -4.11652885e-02 -1.03553995e-01 -8.35622996e-02 1.11783184e-01
      1.47962168e-01 -5.06539922e-03 -1.16424866e-01 1.53736278e-01
      -9.67715234e-02 -2.23766733e-02 6.38802722e-02 1.51193425e-01
      -1.38769239e-01 6.93700984e-02 0. 8.43754411e-03 -8.74502510e-02
      1.19436197e-01 -9.01820511e-02 7.20730200e-02 -1.02916569e-03
      -5.51036038e-02 -9.12529528e-02 -1.42798454e-01 5.60407452e-02
      -1.73147041e-02 -6.02735542e-02 1.22060299e-01 1.64468542e-01
      -2.14118287e-02 1.16151627e-02 1.04416423e-01 1.01231560e-01
      -2.15771884e-01 -6.08379021e-02 9.94106084e-02 4.64686938e-02
      8.15590024e-02 -2.48125896e-01 -9.72260833e-02 5.21651991e-02
      -4.35394123e-02 4.12569717e-02 6.02573007e-02 -2.96431202e-02
      1.90915652e-02 0. 2.26236492e-01 -5.27080894e-02 -1.55488372e-01
      -2.49374495e-03 2.77697980e-01 1.58461835e-02 -5.42635843e-02
      -8.18900317e-02 -3.60912830e-02 2.68415034e-01 -1.78340543e-02
      1.38297841e-01 2.44360361e-02 -1.94621261e-03 -1.28695399e-01
      4.69787940e-02 2.55464226e-01 1.00315772e-01 -8.50601122e-03
      -3.07150111e-02 2.47962493e-02 -1.41934725e-02 3.72136049e-02
      -2.10974470e-01 -4.47425097e-02 7.26340860e-02 -1.00909658e-02
      6.46036714e-02 -1.87336151e-02 1.45617411e-01 1.96134210e-01 0.
      1.74962983e-01 1.08649200e-02 -8.38062763e-02 -7.37391338e-02
      1.26648977e-01 7.40895346e-02 5.94912581e-02 -8.21988881e-02
      4.54143211e-02 2.50920177e-01 2.30054222e-02 2.60363907e-01
      -4.00620215e-02 -2.93655526e-02 4.42585088e-02 5.54246083e-02
      8.86546969e-02 -9.70621109e-02 3.05992421e-02 -5.32031506e-02
      -1.44797680e-03 -1.18529640e-01 -6.24647141e-02 -8.99209380e-02
      3.53561565e-02 -1.46088311e-02 -6.90730587e-02 1.37304947e-01
      8.87409449e-02 9.05321985e-02 6.42496422e-02 0. 1.85870752e-02
      -9.28998291e-02 -2.21994743e-02 -5.08523695e-02 -9.81727839e-02
      9.79651213e-02 -5.17841280e-02 -6.92658573e-02 2.92515773e-02
      6.83228001e-02 2.55526677e-02 7.66866133e-02 5.97982667e-03
      6.50655776e-02 1.95770815e-01 1.23442806e-01 -4.71182726e-02
      -1.38313219e-01 -1.98574618e-01 -1.98994860e-01 5.31186871e-02
      -7.20643923e-02 -2.14401007e-01 1.53264120e-01 4.11978140e-02
      -3.20134684e-02 -8.12660605e-02 -1.43162226e-02 9.26723517e-03
      6.97392747e-02 -5.70959179e-04 0. -5.90687804e-02 -8.72031227e-02
      -1.35580510e-01 3.30942608e-02 1.14765288e-02 1.24385078e-02
      1.58986915e-02 4.55586389e-02 4.30489238e-03 -3.23644392e-02
      -7.88444802e-02 -1.18641824e-01 1.34420291e-01 1.31783217e-01
      7.14690983e-02 4.20812666e-02 7.42718950e-02 -7.27226259e-03
      -1.71071902e-01 -1.27832860e-01 -1.99650034e-01 1.74057886e-01
      -1.83193870e-02 -4.92244065e-02 6.75087795e-02 1.08320557e-01
      1.88384857e-02 -1.49338380e-01 3.65510285e-02 4.09452431e-02
      9.90993530e-02 0. 9.87157226e-02 8.58495981e-02 -7.87160173e-02
      -8.48582909e-02 4.76452075e-02 8.20944980e-02 6.76688701e-02
      6.55570999e-02 -4.82432060e-02 3.27659436e-02 1.57283596e-03
      -4.84409221e-02 1.35693416e-01 3.74906547e-02 2.10436340e-02
      -1.46578059e-01 1.58108547e-02 1.26339227e-01 -4.21149246e-02
      7.74219707e-02 -1.19427323e-01 6.81385472e-02 -2.71911006e-02
      -6.31906688e-02 -1.90695655e-02 5.48193511e-03 1.25555053e-01
      4.34956886e-02 2.18473092e-01 -7.07936436e-02 2.76403641e-03 0.
      1.56004444e-01 -4.56919856e-02 -2.10801028e-02 -1.29771501e-01
      4.43917364e-02 -6.42160773e-02 -6.11051433e-02 -5.79267275e-03
      -5.42312264e-02 -7.98549131e-02 1.58909783e-01 -2.46557686e-03
      -1.35794610e-01 8.21080208e-02 1.20630056e-01 8.54845438e-03
      5.90787604e-02 -1.09231221e-02 -1.05716810e-01 -1.92977060e-02
      -1.39976377e-02 -2.03942239e-01 2.74091214e-02 -6.14322796e-02
      -7.34543055e-02 -3.60857844e-02 -6.85325861e-02 -7.07095116e-02
      -6.93604574e-02 3.98270227e-02 1.09078988e-01 0. 4.99565154e-02
      -2.72745527e-02 9.12507344e-03 -4.92153727e-02 -2.18874775e-02
      1.17868863e-01 6.81202561e-02 1.47668952e-02 1.18196942e-01
      6.61814511e-02 7.82083571e-02 -6.40702397e-02 -2.48647127e-02
      8.07589069e-02 -2.02755984e-02 4.87271324e-03 3.05367801e-02
      -1.37930125e-01 -3.35041732e-02 5.16618900e-02 -8.99148062e-02
      -1.09516524e-01 -4.16640788e-02 -6.02854490e-02 7.11693987e-02
      -1.71344273e-03 2.90970746e-02 8.22266191e-02 1.33629844e-01
      -3.81653719e-02 -3.95356826e-02 0. 8.77769887e-02 -7.59157073e-03
      1.17253482e-01 -3.87800634e-02 -5.97837307e-02 -6.78394437e-02
      -9.72747579e-02 4.26436551e-02 -1.52489439e-01 7.75028840e-02
      -1.72742143e-01 7.71345664e-03 5.74056059e-02 9.30060223e-02
      -1.44695062e-02 1.60407692e-01 1.25703901e-01 -1.81987584e-02
      -1.17054686e-01 -1.24586210e-01 4.49497290e-02 4.76749577e-02
      3.11042499e-02 -1.58777729e-01 4.33396213e-02 1.97802708e-01
      -7.62208924e-02 1.36635229e-02 6.28589913e-02 -5.78037016e-02
      4.73923683e-02 0. 1.70049876e-01 -6.72936738e-02 -1.14102244e-01
      1.99486222e-02 2.19747052e-02 8.10839534e-02 1.51437484e-02
      -1.14411831e-01 -2.65329480e-01 7.75446519e-02 -6.83397427e-02
      4.04232740e-02 9.21883434e-02 9.55690816e-02 7.60689899e-02
      1.35351777e-01 8.46153498e-02 2.56831758e-02 -6.32511601e-02
      -4.96840216e-02 -4.22322825e-02 1.17669255e-01 1.06004082e-01
      -2.62358459e-03 1.07474297e-01 2.86612231e-02 -1.57746673e-01
      -2.13623419e-02 1.97836664e-03 5.06676398e-02 1.13044202e-01 0.
      -3.26490286e-03 -1.48526326e-01 -3.87531295e-02 -1.85564440e-03
      8.14476535e-02 4.48051542e-02 1.44598618e-01 -1.60088271e-01
      -9.12996158e-02 1.68056950e-01 -7.33276904e-02 2.02446923e-01
      1.11180119e-01 1.20300353e-01 4.40065935e-02 3.60261127e-02
      -1.77980643e-02 -9.60474089e-02 -8.34756717e-02 -9.74322930e-02
      1.26176268e-01 8.79404023e-02 3.69694792e-02 -1.99706554e-02
      1.15440033e-01 -8.84630755e-02 -1.48916662e-01 6.39832392e-02
      6.65375963e-02 -1.34762200e-02 3.47025581e-02 0. 3.53407525e-02
      -7.13640749e-02 2.27680411e-02 -1.36143222e-01 -3.88549007e-02
      8.99257429e-04 1.20780274e-01 1.62866209e-02 6.11960776e-02
      1.98758647e-01 -2.40393095e-02 1.08088210e-01 1.53566167e-01
      1.41457096e-01 5.16137062e-03 -1.74054317e-02 -1.00225229e-02
      -1.86819151e-01 -1.67625844e-01 -1.57018170e-01 1.12438358e-01
      5.64214494e-03 5.56716733e-02 -4.66245197e-04 1.42131254e-01
      3.06207743e-02 -1.25270858e-01 -4.89987433e-02 3.91086861e-02
      7.97479302e-02 1.09110996e-01 0. 4.74228011e-03 9.25502703e-02
      -4.22607996e-02 8.24754238e-02 5.82269505e-02 -3.80162639e-03
      -6.11245148e-02 -4.32417786e-04 -3.67116518e-02 9.74618942e-02
      -6.93583712e-02 5.99506013e-02 -2.82935170e-03 6.74943402e-02
      -6.33656532e-02 -3.07830125e-02 6.17416622e-03 1.31525427e-01
      -4.84708324e-02 3.42659764e-02 -2.52403170e-02 7.84680806e-03
      1.69853456e-02 -1.25116378e-01 -7.37877786e-02 -1.11167673e-02
      1.15297355e-01 -8.12703371e-02 -2.57938318e-02 8.19531679e-02
      1.61785871e-01 0. -4.79964539e-02 3.74111906e-02 -1.02698477e-02
      7.43432045e-02 1.04103498e-01 9.76201445e-02 -1.10325418e-01
      -3.75130065e-02 -6.62130117e-02 1.08764492e-01 -1.55154690e-02
      -1.65932855e-04 1.95180494e-02 4.33042198e-02 4.83881272e-02
      8.34658276e-03 -1.63369458e-02 -5.26409782e-03 -1.16556652e-01
      5.19267842e-02 -3.76874432e-02 7.34764487e-02 -9.20951068e-02
      3.47505324e-02 -3.76908854e-02 -3.69330607e-02 -2.57701091e-02
      2.94126216e-02 1.42456055e-01 -4.98831421e-02 -1.25267366e-02 0.
      3.24762203e-02 -1.50159532e-02 9.87776294e-02 4.52036882e-04
      -3.62683311e-02 2.25260612e-02 -6.28646463e-02 1.04003185e-02
      8.78226105e-03 8.17746576e-03 -2.17841621e-02 1.25496387e-01
      1.91321764e-02 8.76851007e-02 6.92521483e-02 5.86131848e-02
      8.73306245e-02 9.08220466e-03 -5.78423850e-02 -7.20958337e-02
      1.19236924e-01 2.83739343e-02 -3.75801735e-02 -8.76861066e-02
      -2.37871502e-02 1.98190566e-03 -2.49063838e-02 2.44553145e-02
      2.53271163e-02 7.80529827e-02 1.08925559e-01 0. 1.39710888e-01
      5.80822788e-02 -3.37098278e-02 1.32752806e-02 -4.55892384e-02
      -1.63814589e-01 -4.41719554e-02 -2.69622747e-02 -6.24966212e-02
      1.19858801e-01 -1.02049097e-01 4.22085375e-02 -4.92629551e-05
      6.27499297e-02 3.71789299e-02 -4.41265516e-02 -2.93079764e-02
      3.75967808e-02 8.88666697e-03 -3.63329425e-02 2.83186212e-02
      -2.93506626e-02 -3.70324589e-02 -6.87622353e-02 -7.93997422e-02
      -5.53526506e-02 2.54828185e-02 9.21928808e-02 3.54970209e-02
      -7.14696869e-02 -7.58379698e-02 0. 6.28987998e-02 -5.45095392e-02
      -1.58487111e-01 6.19914150e-04 3.15071046e-02 1.03584461e-01
      3.08531690e-02 1.74537487e-02 -1.15588538e-01 -1.86244566e-02
      -1.33433282e-01 -4.24516723e-02 2.38986071e-02 7.73631111e-02
      -3.25845256e-02 1.48396626e-01 2.61600930e-02 -1.66715533e-02
      -2.37207964e-01 -4.31592092e-02 -3.03853042e-02 3.75445001e-02
      -2.10533366e-02 -3.30121070e-02 1.46337971e-01 8.00356939e-02
      -2.22452581e-02 3.07090860e-02 -2.32033003e-02 -6.35991851e-03
      -2.45343652e-02 0. -9.19421986e-02 -2.20419854e-01 -1.49910823e-01
      -6.66367114e-02 -6.59951707e-03 4.75834012e-02 4.41465862e-02
      -2.09176335e-02 -1.50197119e-01 1.00848399e-01 2.95620393e-02
      1.71564240e-02 6.26419634e-02 1.39393941e-01 -1.98038705e-02
      1.24699816e-01 4.16022614e-02 -4.42591421e-02 -2.79984564e-01
      -1.13035820e-01 -1.83515027e-01 -1.70774758e-02 1.00715771e-01
      5.69805801e-02 1.71814829e-01 9.59612615e-03 -4.30838615e-02
      -3.52398790e-02 -9.20422673e-02 4.34184894e-02 7.00092502e-03 0.
      1.80912673e-01 -2.07516104e-01 -9.58357900e-02 -8.01488310e-02
      4.27604057e-02 2.14129221e-02 -1.21364109e-02 -1.83420107e-01
      -3.45085919e-01 -1.61304414e-01 -1.04134731e-01 1.70545906e-01
      1.18650258e-01 1.60748467e-01 1.07901633e-01 9.16290358e-02
      -1.82499010e-02 3.45395468e-02 -2.24182829e-01 -1.26066133e-01
      8.80879983e-02 7.16877356e-02 1.19346589e-01 1.34636626e-01
      9.15843472e-02 -2.34661356e-01 -1.22402385e-01 -3.69004086e-02
      2.44137459e-02 -1.30808474e-02 -1.05826490e-01 0. 5.20908944e-02
      -5.26749194e-02 -1.15276836e-02 4.84905466e-02 -8.06560218e-02
      -3.48421112e-02 6.83137104e-02 -8.26942474e-02 -5.96642867e-02
      1.19709373e-01 8.53732228e-02 8.39733109e-02 1.69441745e-01
      2.57510263e-02 -4.27544990e-04 1.38973296e-01 -7.38664865e-02
      -1.61377177e-01 -2.21118480e-01 9.21847820e-02 1.01837039e-01
      2.04581365e-01 -7.65407085e-02 -3.17330658e-02 2.01667368e-01
      -2.82106809e-02 -1.28992558e-01 -4.95442674e-02 2.95526721e-03
      5.69153763e-02 1.00163519e-01 0. 8.05961937e-02 7.70700425e-02
      -7.79220685e-02 -9.08531074e-04 -7.41232783e-02 -9.87756252e-02
      1.09485552e-01 1.93561334e-02 7.55223725e-03 7.06927851e-02
      -4.93496507e-02 -2.56408360e-02 2.24261694e-02 6.65060207e-02
      -3.90951987e-03 -7.29284110e-03 4.67662215e-02 -4.01849933e-02
      -9.30527225e-03 5.88762611e-02 -9.16904584e-02 -2.51559429e-02
      -1.08375149e-02 -1.31005123e-01 4.30765711e-02 7.80980065e-02
      2.40676999e-02 -1.14431344e-01 -4.01971042e-02 8.77512097e-02
      1.24550223e-01 0. 1.36869639e-01 3.96136241e-03 1.12130353e-02
      2.21538842e-02 5.14576659e-02 2.04113405e-02 -4.98845801e-03
      8.07187483e-02 -1.03303343e-01 7.50240088e-02 -5.08862995e-02
      6.04649894e-02 8.78153518e-02 3.97690050e-02 4.13237661e-02
      1.29261941e-01 8.23301747e-02 2.29301862e-02 -2.34156623e-02
      1.65523756e-02 1.63022298e-02 5.05224727e-02 -8.73531550e-02
      -7.92728066e-02 7.69122690e-02 1.52640536e-01 -6.92007393e-02
      8.91060308e-02 1.60179526e-01 -5.10482397e-03 8.88760686e-02 0.
      6.59128372e-03 1.23752542e-01 -8.28099810e-03 -3.16825844e-02
      2.58994345e-02 2.06057429e-02 -6.35244399e-02 7.02821761e-02
      -3.80802527e-02 7.48629123e-02 -2.12322660e-02 3.70602757e-02
      -3.37532051e-02 2.85457913e-02 1.39760941e-01 3.06818378e-03
      4.61029857e-02 -2.96561755e-02 9.69042443e-03 2.03650258e-02
      -3.00456397e-03 -1.27193093e-01 9.84598920e-02 5.70932105e-02
      -8.10135603e-02 1.02481142e-01 7.45345047e-03 8.65945499e-03
      -7.85714760e-03 9.09081176e-02 7.34315440e-02 0. 7.54830241e-02
      3.90091725e-02 -5.20858727e-02 5.30590229e-02 -3.75978872e-02
      -1.30899429e-01 2.47817449e-02 -3.88526954e-02 8.22281241e-02
      1.52804196e-01 -1.85034033e-02 3.25390138e-02 -8.98609962e-03
      -8.12615901e-02 6.93680868e-02 8.29715934e-03 1.00705780e-01
      1.11452259e-01 6.42545298e-02 3.58075723e-02 3.80599052e-02
      4.80780890e-03 -4.45854291e-02 -2.60262471e-02 1.12000825e-02
      5.29323779e-02 9.00989175e-02 1.21104427e-01 1.25903055e-01
      -3.64514813e-02 -3.06977630e-02 0. 1.24716066e-01 -7.83896726e-03
      -1.26259163e-01 -1.26509601e-02 -1.17591001e-01 1.97047065e-03
      2.94202305e-02 -2.09303983e-02 -3.47314775e-03 3.71798649e-02
      -3.10247615e-02 5.42621985e-02 4.89057563e-02 6.07536584e-02
      1.59378439e-01 1.73642207e-02 4.15030606e-02 -5.01066120e-03
      -1.08925432e-01 6.70617446e-02 2.63108443e-02 -2.45162658e-02
      -9.61875543e-02 -7.60765234e-03 4.67282310e-02 8.12265500e-02
      3.69780064e-02 9.79289934e-02 6.97955191e-02 -1.59751792e-02
      -3.35811786e-02 0. -7.89973661e-02 -2.71376759e-01 -1.12036556e-01
      2.14209668e-02 1.24931023e-01 9.50540826e-02 1.30570471e-01
      2.76084896e-02 -1.05937578e-01 -5.19331731e-02 2.81307939e-02
      1.17018260e-01 5.91662116e-02 2.77885073e-03 9.36309695e-02
      -2.25491561e-02 3.79123576e-02 -8.81994218e-02 -1.64189741e-01
      -2.22538840e-02 8.34087580e-02 9.82108787e-02 1.13952599e-01
      6.81998730e-02 1.47246793e-01 7.03771189e-02 -1.47395954e-02
      2.00830661e-02 -4.16118577e-02 1.59693917e-03 2.33223811e-02 0.
      3.52176875e-02 -1.05472401e-01 1.04851620e-02 1.18195668e-01
      9.38878357e-02 6.04344457e-02 3.69015485e-02 -1.39578432e-01
      -9.07674730e-02 -3.02608889e-02 -9.06661227e-02 7.93581083e-02
      4.54941280e-02 5.15256897e-02 4.49764915e-02 2.97699519e-03
      8.05538669e-02 -4.12233584e-02 -1.29114524e-01 -1.37859443e-03
      1.17925622e-01 1.23967335e-01 1.20720118e-01 3.33212316e-02
      1.04933091e-01 -6.54910132e-02 2.48010308e-02 -3.91672105e-02
      -8.17787554e-03 1.11367762e-01 1.23624904e-02 0. 3.66476402e-02
      -1.00579351e-01 -4.85431077e-03 6.33689091e-02 -4.10080515e-02
      3.88175771e-02 -3.61775421e-02 -1.39007837e-01 -4.12775129e-02
      2.84323096e-01 1.34177923e-01 9.33788046e-02 8.72125998e-02
      5.05800210e-02 7.73867127e-04 6.48855194e-02 5.06372303e-02
      -6.98519051e-02 -1.43914502e-02 5.28419688e-02 9.33398604e-02
      9.71801430e-02 -3.02326493e-02 -8.00967962e-02 2.19353493e-02
      -1.33424457e-02 -2.22522728e-02 -5.51917031e-02 1.65706349e-03
      1.42850295e-01 1.33207142e-01 0. 1.24403603e-01 5.05883014e-03
      -3.33500244e-02 -5.66193461e-02 -4.72394377e-02 -3.70889269e-02
      1.30051319e-02 -3.49577479e-02 -1.53153107e-01 7.44699165e-02
      5.62722124e-02 9.34156999e-02 5.34597598e-02 5.85795473e-03
      -2.41583958e-02 -1.35982800e-02 4.52554151e-02 2.13715364e-03
      9.70335975e-02 -9.96337179e-03 4.90582287e-02 1.69919562e-02
      -4.66437489e-02 -3.59130949e-02 -3.04817278e-02 -3.20381597e-02
      -6.44218698e-02 -5.74225336e-02 -7.04328865e-02 4.51249443e-02
      1.17223047e-01 0. 2.14631706e-01 -1.23520866e-02 1.09758884e-01
      -1.12007029e-01 6.41212091e-02 -6.91183880e-02 7.19042774e-03
      1.76959410e-02 2.34577935e-02 1.37405440e-01 -4.68310677e-02
      -4.78494987e-02 4.85789366e-02 6.88858852e-02 -8.71560443e-03
      -1.00273803e-01 6.52887747e-02 4.79888581e-02 5.29449135e-02
      -4.52072881e-02 4.05546166e-02 -9.86061543e-02 5.20883203e-02
      -1.45540342e-01 -1.25284523e-01 4.33838032e-02 1.79167520e-02
      4.28056158e-02 6.70266077e-02 2.75033265e-02 5.49279340e-02 0.
      2.46042535e-01 5.53189740e-02 1.27447143e-01 -1.34897217e-01
      8.48726332e-02 -3.77912410e-02 7.61408210e-02 6.26612753e-02
      -3.45467473e-03 5.71108423e-02 -1.18753007e-02 6.27263542e-03
      3.55976038e-02 2.10253764e-02 7.52067268e-02 -4.39735167e-02
      -1.86214037e-02 3.40207629e-02 1.08023614e-01 6.34404495e-02
      2.62477752e-02 -5.97011261e-02 -3.52991186e-02 -8.29660818e-02
      9.10244603e-03 1.71106204e-01 1.83196403e-02 -3.53022180e-02
      7.33773857e-02 1.09868631e-01 1.49558589e-01 0. -1.40749231e-01
      -1.59657851e-01 1.97841395e-02 1.93242729e-02 1.00628436e-02
      7.73462206e-02 -6.53090999e-02 -1.27243564e-01 -5.06011285e-02
      1.03304610e-01 3.54457609e-02 5.02149239e-02 7.17060342e-02
      8.10599998e-02 4.20776345e-02 -2.23752838e-02 -2.04907674e-02
      1.52155533e-02 -1.50047421e-01 -2.75547653e-02 9.19676125e-02
      9.22615081e-02 1.69003978e-02 4.14198218e-03 -1.41178295e-01
      -6.68035746e-02 -4.40693088e-02 3.09067927e-02 1.28975958e-01
      -1.55394375e-01 -3.31895798e-02 0. 8.07807744e-02 -3.77206504e-02
      -1.56692728e-01 -4.70804423e-02 1.19251378e-01 -1.23021133e-01
      -6.16102889e-02 2.89767049e-03 -1.26799032e-01 -1.59765743e-02
      -1.18325092e-01 -1.61720157e-01 -1.29077628e-01 1.37308136e-01
      -3.20984162e-02 8.87005106e-02 -1.63197387e-02 1.39653429e-01
      -1.05023861e-01 -6.50632679e-02 -2.04078883e-01 -2.20490992e-01
      1.95478145e-02 -1.67242259e-01 6.93755075e-02 8.65888409e-03
      4.00362499e-02 -7.03853518e-02 6.00915179e-02 -1.41590416e-01
      -6.39462024e-02 0. 3.77694443e-02 -1.40656233e-01 -1.11680314e-01
      -9.52654257e-02 2.17300281e-02 1.54751658e-01 -1.50371911e-02
      9.93004367e-02 -1.52643278e-01 -1.13482311e-01 3.03693414e-02
      -2.20424961e-02 4.43906616e-03 2.57437713e-02 8.73913020e-02
      1.08801290e-01 -1.03894107e-01 -4.73571662e-03 -2.39874929e-01
      -9.08692926e-02 -5.31416647e-02 -4.45158817e-02 1.99023914e-02
      1.91688165e-01 1.07206322e-01 8.66716914e-03 -9.44177061e-02
      -2.33307816e-02 3.30249295e-02 -9.06695724e-02 -8.18547420e-03 0.
      -2.08104104e-01 -1.55505478e-01 1.06760822e-01 3.48488204e-02
      7.83961192e-02 3.85975203e-04 -2.57666912e-02 -2.00966820e-01
      -7.09338412e-02 -2.51671392e-02 3.16522680e-02 -6.45408407e-02
      7.61888623e-02 5.14251105e-02 7.14308619e-02 1.90646295e-02
      -2.38190475e-03 -1.12149470e-01 -3.42786670e-01 -1.72815397e-01
      1.28134430e-04 1.38841212e-01 7.32604787e-02 -1.45575013e-02
      6.93251863e-02 -1.83812737e-01 -8.80240723e-02 -1.03311174e-01
      -1.20511010e-01 -2.54038293e-02 6.28520101e-02 0. -2.54357215e-02
      -8.27673376e-02 -2.18228321e-03 -9.14833322e-02 -3.23393419e-02
      -4.17673029e-03 5.99381626e-02 -8.69912729e-02 2.99561787e-02
      9.05931368e-02 2.01548889e-01 4.08075226e-04 5.63834347e-02
      -7.47229606e-02 7.51662180e-02 -1.56742290e-01 -1.02586664e-01
      -1.17965564e-01 -1.22717172e-01 -1.31590432e-05 -4.65561189e-02
      2.98015191e-03 -1.22371688e-01 -9.64374840e-03 -1.03629872e-01
      -1.20479316e-01 -9.31746662e-02 -1.21564567e-01 -1.30267590e-01
      4.91183773e-02 7.85472989e-02 0. 5.99208400e-02 -2.84443479e-02
      -5.13823815e-02 -1.09253369e-01 7.02630654e-02 4.80883159e-02
      1.10927746e-01 -2.02293955e-02 -9.74668339e-02 -1.62333876e-01
      2.54470259e-02 8.53525326e-02 -1.55489007e-02 -1.38734663e-02
      -1.33210108e-01 -1.04043148e-01 -1.65589489e-02 -6.56683045e-03
      -1.69958562e-01 -4.83993404e-02 3.03804725e-02 -1.47538051e-01
      4.37716320e-02 -8.99133235e-02 2.03856882e-02 -9.66655929e-03
      -3.62965353e-02 -1.20562486e-01 -1.17513083e-01 2.78992951e-02
      4.09851372e-02 0. 1.25177011e-01 -3.47075611e-02 1.07724562e-01
      1.41970916e-02 -2.38945894e-02 -7.12399110e-02 -5.57319559e-02
      1.28789276e-01 6.63816258e-02 1.13027617e-01 1.58485118e-02
      -5.54562435e-02 -3.38586047e-02 5.64036630e-02 -6.85879216e-03
      4.91535775e-02 2.96716648e-03 -4.24782559e-02 1.45927453e-02
      -4.58610803e-02 1.49337724e-01 -1.66194849e-02 3.71883400e-02
      -1.37481600e-01 -1.57078542e-02 2.74506956e-02 5.91030717e-02
      3.56258340e-02 8.19498077e-02 -5.32888749e-04 5.05136549e-02 0.
      4.27352227e-02 -4.01316285e-02 -1.07597731e-01 -6.22621328e-02
      5.01456708e-02 4.78082448e-02 1.15577534e-01 -1.24361990e-02
      -3.28020751e-02 6.05630279e-02 5.65587617e-02 9.90642905e-02
      7.17102513e-02 4.79454175e-02 -4.52698441e-03 2.46594631e-04
      1.79345049e-02 5.27579337e-04 1.40849436e-02 2.02584378e-02
      -5.83501495e-02 -5.70990937e-03 -9.10574123e-02 4.95762788e-02
      2.58331057e-02 -2.10520625e-02 -2.78003216e-02 -2.94560622e-02
      -6.39486127e-04 7.35945106e-02 1.21990889e-01 0. -4.66381721e-02
      1.57072097e-02 -1.76903233e-01 4.70763892e-02 4.22247909e-02
      -6.06965013e-02 -1.08855087e-02 -4.49767150e-02 -2.86649633e-02
      -2.60303319e-02 1.19453855e-02 2.73021893e-03 -3.30209988e-03
      7.87604973e-02 -1.04780041e-01 -8.08476657e-02 -6.89848457e-05
      3.49212065e-03 -1.71767082e-02 6.66557923e-02 -1.20344400e-01
      4.68669273e-02 -4.85901982e-02 -2.49044020e-02 -5.25615364e-02
      -2.88812304e-03 -1.22527126e-02 -4.56470251e-02 7.37159625e-02
      -1.39574304e-01 -6.85022995e-02 0. 9.67651755e-02 1.83378272e-02
      -1.09060474e-01 3.99287641e-02 4.16450016e-02 -1.58548608e-01
      -1.16982482e-01 -1.44633815e-01 -7.69323558e-02 9.92288589e-02
      7.61854351e-02 6.47450686e-02 -7.75209591e-02 -2.34023277e-02
      2.35255845e-02 3.60278487e-02 2.22821627e-02 1.91717997e-01
      4.52215075e-02 6.42689690e-02 1.53298816e-02 -4.34557684e-02
      -9.69834104e-02 -7.99370110e-02 -2.52786092e-02 -3.52733135e-02
      8.53230283e-02 -1.03680857e-01 1.27453223e-01 -6.51892051e-02
      4.29766141e-02 0. 3.88644226e-02 -1.49231739e-02 -2.61463095e-02
      -1.90213844e-02 -1.61582708e-01 -2.91036010e-01 -2.12636754e-01
      -4.38467786e-02 -1.75357908e-01 1.07614636e-01 2.84529943e-02
      2.22879834e-02 -7.90482461e-02 -5.72026744e-02 5.01900949e-02
      1.51700869e-01 2.46734638e-02 2.08315432e-01 -7.55107254e-02
      3.76900584e-02 5.21377567e-03 -5.81766814e-02 -2.79242665e-01
      -2.46082157e-01 -1.04006790e-01 -3.85638252e-02 1.65375713e-02
      -1.51398882e-01 8.44820589e-02 -1.79397389e-01 3.47961001e-02 0.
      1.12045690e-01 -1.11696906e-01 -3.57789733e-02 -1.58876881e-01
      -1.25040337e-01 -1.69609994e-01 -3.80722173e-02 -4.93424609e-02
      -6.49250448e-02 6.92797378e-02 1.04632370e-01 -4.30401228e-02
      2.14219280e-02 7.95064121e-02 -2.72648875e-02 -1.74662173e-02
      4.71521243e-02 -1.36949480e-01 -8.94705057e-02 -6.77292496e-02
      -1.03843875e-01 -1.29187152e-01 -1.49826244e-01 -2.46521488e-01
      1.42317321e-02 8.37746356e-03 -1.67506084e-01 -1.83248639e-01
      -8.07389058e-03 -1.54078960e-01 8.89480039e-02 0. 4.86689582e-02
      -2.28403695e-02 -5.10800928e-02 -1.33883953e-01 -2.05430999e-01
      -7.70464242e-02 5.69691062e-02 2.36421134e-02 7.72549137e-02
      8.50174278e-02 1.14268310e-01 -4.02011871e-02 -1.39775947e-02
      7.14278780e-03 -1.53833777e-02 1.14332894e-02 8.10493827e-02
      7.78754102e-03 3.00993454e-02 -1.71222072e-02 -6.30666167e-02
      -1.77419916e-01 -9.95043889e-02 -1.00231551e-01 7.61542395e-02
      2.81887501e-02 4.39793468e-02 -8.07703063e-02 -2.59178467e-02
      -5.16099408e-02 1.36326045e-01 0. 2.97017787e-02 -9.66400728e-02
      -2.84763034e-02 -8.35892707e-02 -2.64006369e-02 1.54719859e-01
      8.33974853e-02 -8.94908756e-02 2.50912341e-03 -3.47773395e-02
      3.61229628e-02 -1.06698371e-01 -8.65171626e-02 -8.39289129e-02
      1.02532282e-01 -9.62958261e-02 1.46939665e-01 1.79850757e-02
      -5.24427146e-02 -5.17827198e-02 -9.09555182e-02 -1.04721509e-01
      3.43658924e-02 -2.54104438e-04 -9.93087771e-04 3.36986482e-02
      4.97229509e-02 -1.07521482e-01 -5.26402183e-02 -6.96145836e-03
      9.22145918e-02 0. 1.04414105e-01 -1.14059351e-01 -4.24901322e-02
      1.37807652e-01 -6.32704869e-02 5.84656298e-02 7.50791654e-02
      -1.13006301e-01 6.06349856e-02 1.24481000e-01 1.54545888e-01
      1.14881828e-01 -6.94763660e-02 2.60597542e-02 9.28604230e-02
      2.48904508e-02 8.26332718e-02 6.14701770e-02 1.58588350e-01
      7.30833709e-02 3.56262401e-02 1.29229994e-03 -9.77242067e-02
      -5.24736717e-02 4.94339690e-02 -1.24460392e-01 1.72706410e-01
      1.23533145e-01 1.07577473e-01 8.98056477e-03 9.73943248e-02 0.
      -8.28729346e-02 5.38931973e-02 1.54766627e-02 3.43595073e-02
      -5.72855845e-02 9.31574311e-03 9.21200067e-02 2.87057962e-02
      -4.50156583e-03 5.12895100e-02 -3.11981840e-03 -9.11678653e-03
      1.04145870e-01 7.12576061e-02 3.46800387e-02 -8.05750787e-02
      5.63200377e-02 -6.45396486e-03 -7.61780515e-02 4.89434078e-02
      4.69450327e-03 7.90430456e-02 1.26935067e-02 3.87007222e-02
      -3.11279763e-02 4.24457565e-02 9.11359396e-03 -1.35536715e-01
      4.18546610e-02 9.53519046e-02 1.43350795e-01 0. -1.74839392e-01
      1.46874294e-01 -3.70725244e-03 1.88666780e-03 -1.29332736e-01
      -9.11314934e-02 -3.58318575e-02 2.84311939e-02 -3.69526781e-02
      -3.16744484e-02 3.93218733e-02 2.59050354e-02 -1.53329866e-02
      -1.98744284e-03 9.21560675e-02 -9.49278288e-03 5.13904262e-03
      3.15944217e-02 -9.94169042e-02 1.82844117e-01 7.10575208e-02
      -6.54402897e-02 -9.96334255e-02 1.61877100e-03 -6.74719438e-02
      2.93087158e-02 5.64663112e-02 -1.46913022e-01 1.14498720e-01
      -1.12060368e-01 6.95340782e-02 0. -1.35977715e-01 -2.34837629e-04
      6.80764019e-02 3.03601678e-02 2.62920260e-02 -7.97732174e-02
      -4.89515811e-02 -9.84622836e-02 1.04231294e-02 3.18596847e-02
      3.32591124e-02 -1.03515070e-02 8.10946450e-02 1.34347379e-01
      1.01818018e-01 8.53156298e-02 -1.32193435e-02 -3.04245148e-02
      1.28893275e-02 6.86220974e-02 6.11969307e-02 4.16568518e-02
      -4.70601693e-02 8.63441303e-02 4.34434377e-02 -2.47819955e-03
      9.00840312e-02 -1.59349501e-01 1.39594361e-01 -8.92318040e-02
      1.96408615e-01 0. 1.34363860e-01 -7.92970732e-02 8.51313584e-03
      -1.38761420e-02 -6.02570139e-02 -2.81639516e-01 -4.13774550e-02
      1.28633082e-01 2.24420037e-02 7.00238943e-02 2.22827103e-02
      -3.64588648e-02 7.05091432e-02 1.09167747e-01 1.92219183e-01
      -3.07196919e-02 3.57615924e-03 1.06635697e-01 9.27017406e-02
      -3.04505043e-02 -3.62884700e-02 3.22518349e-02 -8.73233601e-02
      -1.31424919e-01 -1.11423731e-01 1.61041096e-01 1.08355619e-01
      -1.01998776e-01 1.89938262e-01 -1.34067699e-01 1.99211091e-01 0.
      1.47090375e-01 7.50061721e-02 1.48005029e-02 -2.47218981e-02
      -2.30653286e-01 -1.08210154e-01 -2.10450199e-02 4.71210927e-02
      -9.64696035e-02 6.91604987e-02 7.16687217e-02 -1.53036034e-02
      -5.47705963e-02 1.10518061e-01 1.34238407e-01 4.71313968e-02
      -5.23946993e-02 1.23537853e-01 1.35340437e-01 1.06095329e-01
      2.96452995e-02 -1.30700126e-01 -3.33573483e-02 6.29268726e-03
      4.71245535e-02 1.12181725e-02 2.46521328e-02 -1.38407513e-01
      1.86163276e-01 -1.19948044e-01 1.83774620e-01 0. 8.42728466e-03
      -4.46088165e-02 -2.31917854e-02 -1.97798340e-03 -5.70819229e-02
      -1.49911467e-03 -7.80432075e-02 -3.77800837e-02 4.40065973e-02
      1.02612324e-01 -6.40907660e-02 2.45118700e-02 1.61670297e-01
      5.27392142e-02 4.85001765e-02 1.04165584e-01 1.99594442e-02
      6.70410320e-02 7.85405338e-02 -7.29949912e-03 3.88549417e-02
      5.39176352e-02 2.25344449e-02 -2.81866658e-02 1.30502880e-03
      -1.13985380e-02 7.43447989e-02 -1.26899436e-01 1.77622095e-01
      -1.03299029e-01 2.05951139e-01 0. -2.25391276e-02 -1.44518346e-01
      -8.55461229e-03 -1.45713268e-02 -1.10711008e-01 9.61788557e-03
      -5.46312798e-03 6.86716940e-03 4.60027568e-02 -9.25244689e-02
      -2.82011852e-02 2.81087793e-02 3.00703906e-02 6.84962124e-02
      -9.52353552e-02 -5.05211502e-02 4.44893390e-02 1.09586962e-01
      -1.47600755e-01 -7.92140141e-02 -1.45758055e-02 -3.09364013e-02
      -9.22998339e-02 -1.15245834e-01 -6.79092109e-02 -1.77111179e-02
      1.13503382e-01 -2.25394771e-01 8.86907950e-02 -1.22741513e-01
      1.51211947e-01 0. 3.53254117e-02 6.82142377e-02 5.74756786e-02
      1.83290496e-01 2.36895867e-02 3.37922312e-02 1.05856128e-01
      -4.05770764e-02 -5.36107086e-03 -4.39298563e-02 4.39684168e-02
      1.49653368e-02 -1.34930033e-02 7.54390135e-02 6.00234084e-02
      3.04367449e-02 1.37180403e-01 5.49353361e-02 -8.92170519e-02
      1.17267586e-01 1.88822579e-02 7.91850090e-02 -2.17412766e-02
      -2.88298707e-02 1.70093998e-02 -4.93470989e-02 1.25483628e-02
      1.15554884e-01 2.88696527e-01 -1.55430913e-01 1.38307974e-01 0.
      -2.75526103e-02 2.56248075e-03 8.71252939e-02 -5.32034412e-02
      -1.08283227e-02 -3.13728787e-02 7.20105395e-02 -9.67612211e-03
      3.11062708e-02 1.17849723e-01 2.54045650e-02 -8.80862847e-02
      8.66529495e-02 1.83410808e-01 3.13722715e-02 7.52308220e-02
      1.47730142e-01 2.57595219e-02 -4.00325507e-02 1.50290728e-02
      -2.82867644e-02 -5.65179698e-02 5.33198267e-02 -9.97671559e-02
      -3.39110717e-02 3.40926908e-02 3.29475366e-02 5.14877476e-02
      -1.48849219e-01 3.61760318e-01 4.93158475e-02 0. -7.83605427e-02
      1.05385177e-01 7.92762786e-02 -9.62463543e-02 5.64343035e-02
      1.04694545e-01 -4.18135710e-02 -4.39761840e-02 -5.22036627e-02
      5.88231049e-02 1.45301316e-02 1.99057232e-03 -4.28393073e-02
      2.19593197e-02 2.23909747e-02 1.04938261e-02 -1.75126065e-02
      1.10224329e-01 -5.42076416e-02 7.20717758e-02 1.14902318e-01
      -1.44230887e-01 3.87612879e-02 -1.10409893e-02 -1.54765889e-01
      -1.16284505e-01 1.78699964e-03 8.03134218e-02 -7.74923414e-02
      1.25333413e-01 -2.76282895e-02 0. -8.91851038e-02 8.49354714e-02
      -2.34098658e-02 1.16266804e-02 1.48657709e-01 5.53870611e-02
      7.47184381e-02 -7.74645731e-02 1.09591395e-01 -1.46091674e-02
      3.24701406e-02 3.32577005e-02 -8.07968155e-02 2.34113820e-02
      4.58681025e-02 9.00041834e-02 1.14737749e-02 6.41266331e-02
      -2.05082502e-02 6.41249195e-02 -3.81560884e-02 -1.04496174e-01
      -1.35848569e-02 -1.14150248e-01 5.44053204e-02 -5.38548045e-02
      1.48398861e-01 1.35337159e-01 -5.06438911e-02 1.42433003e-01
      8.60352255e-03 0. 5.76950200e-02 6.71068504e-02 -3.72836366e-02
      -1.00386944e-02 1.81305945e-01 -1.56529620e-02 2.25976165e-02
      -9.79377180e-02 -3.51638272e-02 4.17404994e-03 -1.67972706e-02
      8.00230503e-02 6.38449192e-02 1.33558840e-01 -2.21963469e-02
      5.23499632e-03 -5.69064468e-02 -2.64109764e-03 -5.84763065e-02
      5.12226932e-02 3.85759249e-02 -3.46161015e-02 1.01541825e-01
      -3.27488594e-02 -4.28335816e-02 -1.32536188e-01 -1.67258251e-02
      9.81016532e-02 -5.51171675e-02 1.47504255e-01 -3.92054878e-02 0.
      -5.71588166e-02 1.25108240e-02 -1.84536532e-01 -2.95697805e-03
      9.89048779e-02 1.30202234e-01 7.85573050e-02 1.85167212e-02
      1.64761040e-02 7.54282996e-02 4.07902449e-02 1.51799088e-02
      7.52919866e-03 4.77942675e-02 4.92136413e-03 4.53757383e-02
      1.42198401e-02 6.04123585e-02 -9.44922268e-02 -4.16980498e-02
      -1.76446483e-01 -9.95029211e-02 6.18937332e-03 9.22769085e-02
      9.08599496e-02 6.42501656e-03 7.50084892e-02 9.65607911e-02
      -1.74683705e-02 1.16228439e-01 3.68865556e-03 0. -3.12536694e-02
      1.79045741e-02 -1.34440050e-01 9.94512588e-02 8.34799483e-02
      3.85553800e-02 -8.62145983e-03 4.18893471e-02 6.42508641e-02
      -4.26473580e-02 5.00098355e-02 3.65050212e-02 -2.30286177e-02
      1.59730986e-01 3.16842869e-02 -6.66491091e-02 -7.21703470e-02
      9.72364470e-02 -8.18605646e-02 6.05625398e-02 -6.10152371e-02
      1.97685417e-02 5.37893400e-02 -4.42685857e-02 -7.93596581e-02
      -3.60739864e-02 1.16658464e-01 1.16939247e-01 -4.66094725e-02
      1.08482808e-01 -1.76468883e-02 0. 1.13348395e-01 1.73771884e-02
      6.80217892e-02 8.28246400e-02 -1.67100299e-02 -1.71869267e-02
      -9.25380290e-02 8.16181302e-02 1.59880325e-01 -8.93570930e-02
      7.56054297e-02 -6.74274703e-03 -8.22950751e-02 8.07720721e-02
      -4.20941450e-02 -3.23740691e-02 1.06237940e-02 -3.07511725e-02
      -7.29446188e-02 7.24494830e-02 1.10876653e-02 -1.32463738e-01
      -1.22118890e-02 -8.88836086e-02 -1.24354951e-01 8.25134143e-02
      8.09534714e-02 6.14361390e-02 -6.35501891e-02 1.54290244e-01
      -2.01735739e-02 0. 4.39943075e-02 -1.32228294e-02 2.54346598e-02
      3.30654234e-02 -6.64326921e-02 8.26865733e-02 -6.71607032e-02
      -2.83495504e-02 1.11186102e-01 5.19422069e-02 3.37481918e-03
      2.71925535e-02 2.51372512e-02 1.83800727e-01 -1.05141690e-02
      1.21949464e-01 1.46227924e-03 8.15981403e-02 -9.74417925e-02
      2.82726511e-02 5.83084561e-02 -7.74046406e-02 9.65685546e-02
      2.86578084e-03 -4.22353521e-02 -1.01762809e-01 7.11117685e-02
      2.91983098e-01 9.99294147e-02 1.25249866e-02 -1.18229523e-01 0.</_></support_vectors>
  <decision_functions>
    <_>
      <sv_count>1</sv_count>
      <rho>-1.4034151576988585e+00</rho>
      <alpha>
        1.</alpha>
      <index>
        0</index></_></decision_functions></my_svm>
</opencv_storage>
