<?xml version="1.0"?>
<opencv_storage>
<my_svm type_id="opencv-ml-svm">
  <svm_type>C_SVC</svm_type>
  <kernel><type>LINEAR</type></kernel>
  <C>1.0000000000000001e-01</C>
  <term_criteria><epsilon>2.2204460492503131e-16</epsilon>
    <iterations>10</iterations></term_criteria>
  <var_all>4096</var_all>
  <var_count>4096</var_count>
  <class_count>2</class_count>
  <class_labels type_id="opencv-matrix">
    <rows>1</rows>
    <cols>2</cols>
    <dt>i</dt>
    <data>
      -1 1</data></class_labels>
  <sv_total>1</sv_total>
  <support_vectors>
    <_>
      -1.95520502e-02 -3.16898152e-03 7.33945146e-03 5.49512729e-03
      9.91443638e-03 3.72336176e-03 4.22408618e-03 1.84598786e-03
      -3.02780099e-04 -2.45838463e-02 6.67524291e-03 2.24328157e-03
      6.30829344e-03 -2.24769348e-03 4.37700143e-03 -8.17905646e-04
      8.56390130e-03 4.22650948e-03 -2.40009800e-02 5.69128664e-04
      8.33459198e-03 1.08603658e-02 7.63584813e-03 2.84946989e-03
      1.42276194e-03 4.87140333e-03 -2.37096567e-04 6.97419397e-04
      -1.59547268e-03 2.47352594e-03 5.14830370e-03 0. -1.80041902e-02
      -2.29491177e-03 8.48629326e-03 1.81968492e-02 1.01006888e-02
      -8.92018143e-04 -9.99075477e-04 4.05549770e-03 1.32197980e-02
      -7.13944575e-03 4.33677575e-03 5.41385403e-03 2.37469631e-03
      -4.20899456e-03 -1.03187794e-02 -1.04076611e-02 -4.83639538e-03
      -4.74534929e-03 -1.77763775e-02 -1.42686570e-03 1.26560945e-02
      1.92633085e-02 7.18310941e-03 -6.74810400e-03 -8.82382225e-03
      -9.66225052e-04 6.34044223e-03 -3.18600168e-03 6.57685986e-03
      -2.36720056e-03 7.83006908e-05 0. -3.37149925e-03 -8.03007372e-03
      -3.60613759e-03 1.39161432e-02 4.25958307e-04 -1.46523863e-03
      5.18885022e-03 -4.18346049e-03 2.68715841e-04 1.67835737e-03
      -3.23632685e-03 -8.63576960e-03 -1.01807145e-02 -3.14928126e-03
      -1.24196047e-02 -7.66252121e-03 -2.77723186e-03 7.02924002e-03
      1.28671981e-03 -1.16314972e-02 -1.28848841e-02 2.75441422e-03
      -2.71032238e-03 -1.18282959e-02 -2.89661856e-03 -6.62322342e-03
      7.88458716e-03 -1.14481542e-02 1.20335352e-03 -8.01759772e-03
      -6.92875590e-04 0. 1.82585791e-02 1.33625334e-02 4.78227576e-03
      -3.30076087e-03 3.14035569e-03 -8.30461644e-03 8.33107252e-03
      2.74858042e-03 2.33368995e-03 -4.91787726e-03 -7.87608139e-03
      -3.27992369e-03 -1.09262858e-03 -1.04550654e-02 -1.11705046e-02
      -7.54699158e-03 7.64982682e-03 1.05915107e-02 3.08664260e-03
      5.15050022e-03 1.12430903e-03 -4.81478916e-03 -8.54848139e-03
      -1.36368629e-02 -1.00219634e-03 9.95991938e-03 1.00288531e-02
      3.58454854e-04 4.34331782e-03 -5.44188358e-03 6.98803505e-03 0.
      -5.63374907e-03 4.03040042e-03 1.71949470e-03 5.48804412e-03
      -9.01256048e-04 -8.20724107e-03 -1.28588500e-03 5.48289949e-03
      8.24458804e-03 -6.05267799e-03 -2.29184236e-03 1.09911896e-02
      -7.36924447e-03 4.04790463e-03 -3.20458389e-03 -8.29342927e-04
      3.35898274e-03 4.52338485e-03 1.62228988e-03 9.42674407e-04
      1.01146149e-02 -3.45903425e-03 -3.00429948e-03 -1.07934177e-02
      1.13213342e-03 8.05108994e-03 9.37842112e-03 -9.62235441e-04
      1.45355996e-03 -1.94332667e-03 7.16115534e-03 0. 2.46084528e-03
      -4.31882078e-03 1.62741747e-02 1.76901016e-02 1.03854071e-02
      -7.13350018e-03 6.80315588e-03 8.06846190e-03 9.33227874e-03
      -1.47731672e-03 8.44940264e-03 1.54336303e-04 -9.50612966e-03
      2.14214833e-03 -6.22900855e-03 2.56113382e-03 9.82850604e-03
      1.44360410e-02 1.00365980e-02 4.15980816e-03 7.32942484e-03
      -1.11907430e-03 6.82567013e-03 -1.16546107e-02 4.10965737e-03
      8.89740605e-03 1.87115800e-02 7.30798987e-04 1.22581283e-02
      7.18768407e-03 1.74982492e-02 0. -3.05360346e-03 -6.42935652e-03
      1.92935318e-02 8.57369136e-03 -9.51606221e-03 -2.77539785e-03
      1.63672902e-02 5.48903411e-03 8.55864491e-03 -9.31884069e-03
      7.21814693e-04 -4.72459290e-03 -5.16731991e-03 -1.23040751e-02
      -3.64553835e-03 3.60473944e-03 6.22489071e-03 1.13239354e-02
      -2.18911446e-03 -5.25744958e-03 8.68087262e-03 3.30150418e-04
      -6.74477778e-03 -3.02722631e-03 7.41995592e-03 4.61681001e-03
      1.33058140e-02 -2.77566956e-03 8.83182976e-03 -1.45688304e-03
      6.34794403e-03 0. -8.23852140e-03 6.05215319e-03 1.18185626e-02
      2.16462482e-02 4.00925474e-03 -6.07281225e-03 -2.11548456e-03
      -5.97123243e-03 -4.40335739e-03 -3.06994375e-02 -1.15324054e-02
      -9.69005004e-03 1.18823219e-02 9.70104430e-03 1.91326893e-03
      -1.54229701e-02 -9.13073309e-03 -1.07294014e-02 -2.83228345e-02
      -6.80824183e-03 -1.33241480e-03 2.52012834e-02 1.24052465e-02
      2.85998592e-03 -1.41286096e-02 -1.04859453e-02 -1.57574471e-02
      -1.04939332e-02 5.25799999e-03 -1.35095352e-02 -3.40257795e-03 0.
      -1.07818525e-02 -1.05806533e-03 2.01014220e-04 -4.24899301e-03
      -7.55777350e-04 -1.03941681e-02 -1.43672042e-02 -2.39886600e-03
      -3.66139109e-04 -3.31791975e-02 -9.64148343e-03 -9.46826953e-03
      4.53304406e-03 1.21746333e-02 -9.10198037e-03 2.54821149e-03
      1.33814169e-02 7.59905670e-03 -2.75246520e-02 -1.22355195e-02
      -9.80145484e-03 5.32270269e-03 6.32350612e-03 -1.72343198e-02
      -5.25335688e-03 8.76451097e-03 7.33861874e-04 -5.39825996e-03
      -1.24348495e-02 -4.17427486e-03 -8.78664013e-03 0. -2.40867939e-02
      -1.44442180e-02 -6.29314454e-03 -6.44322485e-03 -1.01573737e-02
      -2.60294112e-03 -7.05306837e-03 -8.94672424e-03 6.72339555e-03
      -2.44143046e-02 -5.79771353e-03 -1.92111125e-03 4.76225279e-03
      7.33981235e-03 5.50253503e-03 1.24648735e-02 7.79117225e-03
      -8.83974310e-04 -3.76594700e-02 -1.56184426e-02 -6.17920188e-03
      -8.80315900e-04 5.35176415e-03 -2.15452071e-03 -3.50637711e-03
      -1.15555280e-03 7.79485927e-05 -1.03270933e-02 -7.27950176e-03
      -5.61475428e-03 -9.05095506e-03 0. -2.40577641e-03 -2.09760163e-02
      -1.71396974e-02 -1.88974142e-02 -9.03318077e-03 -8.98853317e-03
      1.67454942e-03 -2.03436764e-04 5.78003295e-04 -2.61540088e-04
      -9.03706439e-03 4.19218047e-03 7.34571833e-03 9.08933487e-03
      1.86812528e-03 4.33078408e-03 -9.82438098e-04 2.75756279e-03
      -4.02228395e-03 -2.19193213e-02 -5.63146640e-03 -1.01934513e-02
      -3.06422822e-03 -8.41108989e-03 5.17973397e-03 -1.84878078e-03
      1.06013147e-03 -9.45958123e-03 -6.67104404e-03 -8.38375464e-03
      -1.92589813e-03 0. 2.23725252e-02 9.49914753e-03 -1.48300324e-02
      -1.41354166e-02 -1.51056461e-02 -2.19602827e-02 -1.44622114e-03
      -8.41641799e-03 -8.20871256e-03 -9.63336229e-03 -8.21085460e-03
      -7.42694922e-03 -1.33196246e-02 -1.85060687e-02 -1.32574625e-02
      -9.22206382e-05 1.09888539e-02 1.90167315e-02 8.32875818e-03
      -4.62837867e-04 -1.91659555e-02 -2.37753205e-02 -2.48218700e-02
      -2.47181356e-02 -3.59819899e-03 2.63241259e-03 9.27380193e-03
      -1.15958266e-02 -5.12356125e-03 -1.33357542e-02 -1.36304460e-02 0.
      7.33284466e-03 8.98540765e-03 -8.76049045e-03 -2.07514153e-03
      -1.59775615e-02 -1.30566591e-02 -4.69006225e-03 2.12300173e-03
      4.38293163e-03 -4.36714757e-03 -2.09885696e-03 2.69119791e-03
      -1.61122568e-02 -9.72642191e-03 -2.50412039e-02 -8.52218829e-03
      -6.22680550e-03 3.87000176e-03 8.67004599e-03 1.89878745e-03
      -6.57508057e-03 -1.88249201e-02 -2.00031791e-02 -3.02423481e-02
      -1.29666682e-02 -2.88024824e-03 4.48346743e-03 -1.33128641e-02
      -9.76951048e-03 -1.16081685e-02 -6.44825818e-03 0. -1.15285744e-03
      9.87436436e-03 1.09284976e-02 1.32718375e-02 1.11847827e-02
      -2.11201306e-03 -5.67552308e-03 1.08191208e-03 6.54602307e-04
      -1.74401160e-02 -1.59122664e-02 -3.85189988e-03 -5.73929073e-03
      -3.53607582e-03 -9.49617755e-03 1.69273850e-03 6.25546323e-03
      4.73209843e-03 -1.15258330e-02 -9.71087627e-03 1.73548120e-03
      5.12661319e-03 2.12927745e-03 -1.25255631e-02 -3.29515105e-03
      2.15598359e-03 -7.85830780e-05 -7.37544196e-03 -1.02628197e-03
      -9.41818929e-04 6.87344652e-03 0. -1.51120191e-02 -1.71244554e-02
      -2.41032289e-03 1.30314869e-03 -2.19938089e-03 -6.51400816e-03
      1.25756580e-02 -9.17814148e-04 1.46632791e-02 -1.42391501e-02
      -8.68820958e-03 -4.14198730e-03 -7.93388020e-03 -6.46144981e-05
      -8.50704592e-03 -8.01854022e-03 4.24581952e-03 -1.37605297e-03
      -8.39733798e-03 -1.75639931e-02 -4.09975974e-03 -7.41396565e-03
      -8.11986392e-04 -1.39519013e-02 -9.69595625e-04 3.24029941e-03
      9.78801027e-03 -7.58375227e-03 -5.22442488e-03 -1.13931904e-02
      -6.18487550e-03 0. 4.29426041e-03 6.48551341e-03 1.24947000e-02
      9.03751701e-03 9.13854968e-03 -9.12201591e-03 -9.71781462e-03
      -1.90239102e-02 -4.28715115e-03 -2.77249776e-02 -1.30688725e-02
      -7.83228315e-03 7.94218620e-04 7.55590200e-03 4.70851269e-03
      9.78471246e-03 1.77130580e-03 -1.18562225e-02 -2.00411770e-02
      -1.10805240e-02 2.10181321e-03 7.45196920e-03 1.21988580e-02
      -5.20618726e-03 3.31633422e-03 -8.79518408e-03 -1.77456643e-02
      -5.65412221e-03 -6.85177511e-04 -7.32002733e-03 -3.57885472e-03 0.
      5.92387514e-03 1.96729219e-04 -1.29610458e-02 -1.23542780e-02
      -1.40848169e-02 -2.57327855e-02 -1.60438269e-02 -3.31154047e-03
      7.12440908e-03 -4.75155190e-03 2.21921355e-02 -6.67802058e-03
      1.40362140e-03 -6.49234094e-03 -1.01364758e-02 4.57691122e-03
      9.27519426e-03 1.47956964e-02 5.96330319e-05 1.54163400e-02
      -1.80293694e-02 -7.52713392e-03 -1.93450470e-02 -2.12668106e-02
      -8.73321481e-03 4.00544517e-03 1.45727461e-02 -1.09237079e-02
      -2.89020920e-03 -3.72842560e-03 -4.64085210e-03 0. -5.52675314e-03
      -1.77230904e-04 -5.28942235e-03 -1.43562313e-02 -1.73219405e-02
      -2.03977954e-02 -1.99660263e-03 2.79634446e-03 2.14766972e-02
      -1.31492247e-03 4.93894471e-03 2.67072755e-04 7.84277543e-03
      4.88238176e-03 -1.16428584e-02 7.01813959e-03 6.08449243e-03
      1.31790489e-02 -7.86926318e-03 9.86643601e-03 -9.93961585e-04
      -7.66888168e-03 -5.67698944e-03 -1.65870786e-02 -1.75191474e-03
      6.58411765e-03 2.74414197e-02 -3.79454158e-03 -1.85243133e-03
      -2.93375831e-03 4.08458430e-03 0. -1.73104787e-03 -4.88718832e-03
      2.58986629e-03 -5.87884150e-03 -3.43632791e-03 -1.83636956e-02
      -8.69800244e-03 -8.29892699e-03 6.82916446e-03 -1.10975560e-03
      1.64899230e-03 1.96775571e-02 2.19580811e-02 1.85012072e-02
      3.23175034e-03 1.56526789e-02 1.49689820e-02 1.26995100e-03
      2.51218211e-03 3.17845400e-03 1.44930109e-02 1.29793808e-02
      9.58006829e-03 -3.67616606e-03 3.72773316e-03 7.13366782e-03
      1.15499645e-02 5.75825712e-03 4.42437129e-03 6.11418532e-03
      9.12316889e-03 0. 2.11147014e-02 -3.89816728e-03 -3.77435167e-03
      -7.87677336e-03 -7.05058035e-03 -1.49044022e-02 -1.09017137e-02
      -9.78270266e-03 -1.94029994e-02 -1.46571407e-02 -1.23576038e-02
      -2.98756710e-03 1.98361906e-03 -4.80308384e-03 -4.41646110e-03
      1.98133122e-02 2.22612210e-02 2.14078631e-02 -9.87686333e-04
      -1.17220283e-02 -1.39476340e-02 -1.09602269e-02 -1.34640215e-02
      -2.22794302e-02 5.34738321e-03 1.16025535e-02 -7.25083082e-05
      -2.36577657e-03 -3.10635683e-03 -2.73636100e-03 -6.04326045e-03 0.
      -8.15743022e-03 4.42015659e-03 -1.31888278e-02 -2.04169657e-02
      -2.68476550e-02 -3.38258222e-02 -1.25742257e-02 -1.31680444e-02
      -1.55887157e-02 3.03913676e-03 -7.23852403e-03 7.41823995e-03
      -7.83472694e-03 -3.61230248e-03 -9.18987731e-04 -2.07745610e-03
      3.12959356e-03 -6.99935015e-03 1.77571696e-04 -8.15994851e-03
      -2.43208953e-03 -2.21972354e-02 -2.09817886e-02 -2.90620960e-02
      -1.89406257e-02 -9.66603495e-03 -1.86149422e-02 -2.10651737e-02
      -1.48293907e-02 -1.76582877e-02 -1.92510579e-02 0. -5.14177233e-03
      6.28884370e-03 -1.38013298e-03 1.06279757e-02 -3.74009390e-03
      -1.99026391e-02 -1.46353366e-02 -1.69032440e-02 -1.59042869e-02
      -2.22618487e-02 -2.44009867e-02 8.04708712e-03 1.24329037e-03
      3.01287659e-02 2.26457119e-02 9.22835246e-03 1.59455296e-02
      9.28444974e-03 -2.42966544e-02 -1.73289180e-02 6.70826703e-04
      5.60442219e-03 4.20659222e-03 2.79013370e-03 -5.41572692e-03
      -3.78816086e-03 -1.18444487e-02 -1.11696003e-02 -6.33878051e-04
      -1.10127476e-04 6.80818409e-03 0. -8.12465232e-03 -6.47272402e-03
      -5.22884168e-03 6.44622778e-04 -3.86074127e-04 -1.35717457e-02
      -5.14823385e-03 -4.93164686e-03 -1.58159633e-03 -1.16216214e-02
      -4.59093507e-03 5.36013255e-03 -1.19624415e-03 1.07768830e-02
      8.45895323e-04 -1.12922722e-02 9.16917063e-03 -7.24332291e-04
      -1.36390505e-02 -1.26975691e-02 -3.05267284e-03 2.81457230e-03
      3.12413042e-03 -1.16288662e-02 -1.23115294e-02 2.64962879e-03
      -5.65254502e-03 -7.54433544e-03 5.31729078e-04 -1.25397323e-02
      -3.10984487e-03 0. 1.37507298e-03 1.60049449e-03 1.02155786e-02
      9.55156051e-03 1.60466991e-02 -8.85900948e-03 7.39661686e-04
      -6.62091188e-03 -3.21794767e-03 -1.89276915e-02 -1.33266952e-02
      -5.39859151e-03 -4.83798096e-03 1.21034468e-02 2.05936306e-03
      8.02591909e-03 2.24458240e-03 -5.80692384e-03 -1.33190416e-02
      -6.46975543e-03 3.06372228e-03 3.92070599e-03 1.59267634e-02
      -5.01745800e-03 7.97084067e-03 -6.20728685e-03 -1.08049270e-02
      5.18236076e-03 2.38668453e-03 -8.86833575e-03 -1.30642104e-04 0.
      1.17199467e-02 -2.83308630e-03 -1.14142010e-02 -1.28440754e-02
      -2.32029166e-02 -1.84169151e-02 2.37324997e-03 2.37716245e-03
      4.06971434e-03 -1.63703272e-03 4.18928964e-03 -1.59711223e-02
      -2.31039338e-03 -6.24329178e-03 1.88870792e-04 5.04776277e-03
      2.43992149e-03 7.40929972e-03 4.44074161e-03 3.40694655e-03
      -2.27929745e-02 -1.55746788e-02 -2.11462807e-02 -5.70826279e-03
      1.17818150e-03 7.22207641e-03 1.18173882e-02 -1.75551251e-02
      -5.85521758e-03 -4.40439582e-03 1.86047913e-03 0. 9.62743908e-03
      1.50218550e-02 -7.22455466e-03 -1.18872281e-02 -2.06131693e-02
      -2.16441657e-02 -8.30588024e-03 2.77576549e-03 1.41134635e-02
      1.86531525e-02 1.44678047e-02 2.92149396e-03 5.51801408e-03
      -1.21415214e-04 2.39758636e-03 3.40006850e-03 -1.99473388e-02
      2.90323375e-03 1.44912470e-02 2.74994690e-02 -6.88398676e-03
      -1.03370817e-02 -1.78510379e-02 -1.12264352e-02 -1.20789940e-02
      -1.52544407e-02 1.22992247e-02 -4.63370280e-03 4.91107022e-03
      -4.20588721e-03 4.89777466e-03 0. -2.96337850e-04 -1.37866518e-04
      -1.03344684e-02 4.26727906e-03 -1.53962383e-02 -1.32883927e-02
      -2.03532632e-03 -4.87220706e-03 5.93665848e-03 6.43374491e-03
      -1.45381233e-02 -1.63022950e-02 -1.21927978e-02 -8.62676464e-03
      -8.19405727e-03 9.58687626e-03 4.32091812e-03 -2.26573367e-03
      1.09236396e-03 -3.80019750e-03 -1.81230567e-02 -1.20002562e-02
      -2.05447953e-02 -1.19019244e-02 5.88854449e-03 -1.37497822e-03
      1.42636728e-02 -1.61876399e-02 -5.93646150e-03 -1.20147849e-02
      -2.59973877e-03 0. 2.23895218e-02 1.15819303e-02 3.84888006e-03
      1.83544622e-03 5.37464535e-03 -2.23377440e-03 1.69835391e-03
      1.63271104e-03 -1.37023125e-02 2.16364418e-03 -2.68635452e-02
      -3.69507708e-02 -2.99363676e-02 -3.86580732e-03 -1.01265479e-02
      -1.24482941e-02 3.63934319e-03 1.19375298e-02 6.74435450e-03
      -8.78185686e-03 -2.67639104e-02 -2.31080316e-02 -4.71000187e-03
      -1.01535236e-02 -1.28391515e-02 4.76100435e-03 -6.32340787e-04
      -1.41321504e-02 -1.91839773e-03 -1.37238251e-02 -3.23560718e-03 0.
      -5.08098351e-03 -7.41894078e-03 -8.15286860e-03 -1.17721744e-02
      7.83858541e-03 -4.08012187e-03 1.70987612e-03 1.22646103e-04
      -1.27489474e-02 4.84151999e-03 -7.82211218e-03 -8.07500631e-03
      -2.37952285e-02 -1.46882143e-02 -2.40012147e-02 -2.46281866e-02
      -1.29324244e-02 -1.71068702e-02 2.42809113e-03 -1.67536531e-02
      -3.45227402e-03 -3.25637348e-02 -8.30926653e-03 -2.00417656e-02
      -1.93348341e-02 -1.05249388e-02 -2.19175927e-02 -2.85832454e-02
      -1.63873546e-02 -2.21036952e-02 -1.20222233e-02 0. -5.64072281e-04
      8.15310609e-03 7.46912416e-03 1.40176574e-02 -2.13671476e-03
      -8.11394129e-05 -8.59310385e-04 -7.12345913e-03 -1.39028365e-02
      -1.96929858e-03 -2.04239711e-02 8.41988996e-03 -7.70446891e-03
      1.01661775e-02 2.96097435e-03 1.28767465e-03 -1.29226921e-03
      -6.95331953e-03 -1.15303090e-02 -1.17986212e-02 8.83630756e-03
      7.86869845e-04 -7.15571782e-03 3.50079476e-03 -2.59981886e-03
      -9.54576209e-03 -1.65357515e-02 -9.13962442e-03 -6.74490700e-04
      -4.45801998e-03 9.30534396e-03 0. 1.87727381e-02 9.73223243e-03
      4.35846671e-03 -9.15555097e-03 -1.16020944e-02 -2.38516405e-02
      -8.14660732e-03 -1.73688289e-02 -1.34621626e-02 -9.91127963e-05
      -3.16410558e-03 9.63869691e-03 4.02741693e-03 8.69871117e-03
      9.06821078e-05 -3.62920668e-03 1.02881072e-02 -1.13409897e-03
      4.84640896e-03 -1.90179294e-03 2.56682560e-03 -5.29542146e-03
      -9.66348313e-03 -2.32355259e-02 -8.24204367e-03 -6.97377184e-03
      -1.12371333e-02 -6.53552078e-03 2.48620845e-03 -6.03697449e-03
      -2.17310828e-03 0. 1.07995598e-02 1.50466477e-03 3.78333032e-03
      -1.58199687e-02 -8.09907820e-03 -2.82507036e-02 -2.52078492e-02
      -2.35977285e-02 -4.11263108e-03 2.56072124e-03 5.97989187e-03
      7.62424106e-03 -5.04947500e-03 1.29652629e-02 9.81022487e-04
      -3.12857810e-05 7.73680070e-03 -1.41148837e-02 4.21375083e-03
      5.11618797e-03 7.50661828e-03 -1.95513982e-02 -7.25404546e-03
      -2.21834201e-02 -1.89348850e-02 -1.23701645e-02 -1.29275024e-02
      -2.19298014e-03 1.38701638e-03 -2.15847529e-02 -1.07713817e-02 0.
      -4.13094228e-03 4.14850889e-03 7.41402106e-03 -9.18556564e-03
      -6.73477957e-03 1.68164540e-03 3.32374987e-03 -6.46375644e-04
      -6.00163767e-04 4.12348192e-03 2.74110888e-03 -4.52816719e-03
      -6.95673004e-03 -2.21245061e-03 6.09930977e-03 -1.43194076e-04
      -9.25708190e-03 -3.21181817e-03 1.45124260e-03 5.25642652e-03
      2.88644893e-04 -1.18896076e-02 -9.60219768e-04 2.33428762e-03
      -9.63986793e-04 -5.35461865e-03 -3.01439431e-03 -1.30623411e-02
      3.14282021e-04 -8.72192811e-03 1.29492227e-02 0. 1.45996818e-02
      2.67013069e-03 -8.69876985e-03 -1.39237279e-02 1.00794276e-02
      7.60165392e-04 1.10170171e-02 9.08824336e-03 9.75449383e-03
      2.70182360e-03 -1.69744827e-02 -1.78059060e-02 -3.00787226e-03
      -2.25951243e-03 -5.64713264e-03 -1.84268469e-03 -1.75370201e-02
      -1.11205792e-02 5.37491776e-03 -1.16095990e-02 -1.59098133e-02
      -1.52413789e-02 4.27533267e-03 -4.15144442e-03 1.92897406e-03
      -9.94590111e-03 -6.40245667e-03 -1.42310308e-02 4.27957391e-03
      -1.26721691e-02 4.64126840e-03 0. 1.31034050e-02 3.42635601e-03
      -1.46362288e-02 3.91745241e-03 6.53088186e-03 1.27360756e-02
      9.32825543e-03 -6.16286823e-04 2.34521274e-02 -3.29892122e-04
      -4.49282825e-02 -4.27737944e-02 -2.22037639e-02 -1.49936723e-02
      -5.39804948e-03 2.19070050e-03 1.56969309e-03 3.33042094e-03
      -4.02729289e-04 -2.56609377e-02 -4.33529839e-02 -1.98583081e-02
      -1.02299480e-02 -6.92137110e-04 4.16710554e-03 -2.92417622e-04
      1.66737493e-02 -1.93963908e-02 9.05654758e-07 -1.38385873e-02
      1.98279833e-03 0. 9.07033775e-03 1.73293741e-03 -6.68764720e-03
      3.27341049e-03 1.61136303e-03 -6.82675629e-04 9.05990426e-04
      -4.50545223e-03 3.35452543e-03 2.98334728e-03 -1.58534385e-02
      -2.84197424e-02 -6.12140726e-03 4.41818172e-03 2.09207591e-02
      4.30223858e-03 -2.37395638e-03 4.61806450e-03 -1.62044016e-04
      -8.17545038e-03 -3.40418406e-02 -2.03623134e-03 4.75265551e-03
      1.70740914e-02 2.84134992e-03 -7.29143340e-03 4.57987282e-03
      -1.44291958e-02 1.10998088e-02 -1.02409218e-02 1.00568887e-02 0.
      -4.39647993e-04 -3.02501465e-03 -1.94779113e-02 -7.34529225e-03
      -6.04075752e-03 -6.38192613e-03 1.31004525e-03 1.23607200e-02
      -5.69691882e-03 -1.41036455e-02 -1.55520474e-03 4.46996978e-03
      4.87909000e-03 9.67794214e-04 8.52475036e-03 -1.48578256e-04
      -1.35716898e-02 -2.24171765e-02 -8.00323021e-03 -1.04728350e-02
      -1.65908467e-02 -2.35607708e-03 9.70968918e-04 2.64637731e-03
      -8.36283993e-03 -2.91763386e-03 -1.18605429e-02 -1.48127088e-02
      2.65887968e-04 -2.20938083e-02 4.73090447e-03 0. -1.19873499e-02
      9.40996408e-03 4.60187392e-03 7.89385475e-03 4.01169248e-03
      -3.08273709e-03 -8.61384720e-03 -1.69742145e-02 -2.32979320e-02
      -7.52945757e-03 -1.19152861e-02 3.43698397e-04 5.46238851e-03
      -1.32326549e-02 9.18061240e-04 -4.54571797e-03 -1.22809317e-02
      3.05825449e-03 -1.27212880e-02 -8.18007160e-03 6.11390639e-03
      1.33562433e-02 -7.73927243e-03 4.49095824e-04 -7.97931943e-03
      -2.12817583e-02 -1.52738243e-02 -1.65589582e-02 -3.99971055e-03
      -1.74086895e-02 1.31113420e-03 0. -1.07485987e-02 6.22437475e-03
      8.85785464e-03 4.14856384e-03 7.42784468e-03 -1.62579713e-03
      -1.02792038e-02 -1.88385136e-02 -1.62648372e-02 3.28373373e-03
      -1.25606405e-02 2.36245971e-02 1.11655127e-02 1.93112120e-02
      3.11048981e-03 -2.80281738e-03 -1.58978272e-02 -5.15028555e-03
      -1.15802111e-02 -5.44621376e-03 2.27441434e-02 7.49396952e-03
      2.12981906e-02 -5.26084099e-03 -6.08405005e-03 -2.42597032e-02
      -1.84580944e-02 -3.25562572e-03 4.04392462e-03 -5.02010202e-03
      9.25247383e-04 0. 1.33158844e-02 -6.11320196e-04 -6.23295258e-04
      -2.24020123e-03 -9.16953012e-03 -9.54720937e-03 -1.03743421e-02
      1.54658931e-03 -4.51205112e-03 1.06200352e-02 -3.82398674e-03
      8.06001667e-03 -4.52962617e-04 8.22764263e-03 8.31206515e-03
      1.47289112e-02 5.52899158e-03 7.81667978e-03 7.54941301e-03
      -4.06882120e-03 7.43672112e-03 -2.69316416e-03 -7.85852410e-03
      3.04451608e-03 1.53005181e-03 8.09816085e-03 6.99249562e-03
      7.44583830e-03 1.98563579e-02 -1.04094418e-02 4.55668807e-04 0.
      -4.92628990e-03 3.20796389e-03 5.92394825e-03 9.05038230e-03
      2.60996562e-03 1.65394098e-02 9.82569810e-03 1.34735927e-02
      1.28399255e-02 3.95232812e-04 -4.16737329e-03 -4.37126169e-03
      -1.29885913e-03 2.02192143e-02 7.49425311e-03 1.08086169e-02
      1.29543338e-03 -4.86225169e-03 -6.23362185e-03 -6.85126055e-03
      9.38574411e-03 9.31695104e-03 1.01870634e-02 1.77606121e-02
      1.75368730e-02 1.33235659e-02 1.07744467e-02 6.79032411e-03
      1.37195792e-02 4.91441367e-03 1.89144351e-02 0. 2.08426900e-02
      4.59578936e-04 -7.98350014e-03 1.71591132e-03 1.12122437e-02
      2.11880892e-03 1.14332046e-02 1.63053405e-02 -1.31717203e-02
      -1.93777177e-02 -2.11218335e-02 -3.23945680e-03 4.91882022e-03
      1.57886147e-02 6.28588395e-03 -2.49809213e-03 -3.61582427e-03
      -3.88617138e-03 -9.63939412e-04 -1.40683427e-02 -1.02861896e-02
      5.25075803e-03 1.24731082e-02 5.09694358e-03 6.63082441e-03
      7.95767549e-03 -1.06183551e-02 9.53317038e-04 3.10154329e-03
      -2.86831055e-03 6.44390052e-03 0. 4.28697374e-03 9.36975761e-04
      6.50247978e-03 3.19308368e-03 1.27333915e-02 1.07227406e-02
      1.06294556e-02 7.19195604e-03 1.12833939e-02 5.77265956e-03
      -2.48543303e-02 -1.34072583e-02 -4.01491905e-03 5.32326475e-03
      7.60428980e-03 -1.60261942e-03 -7.96118286e-03 1.88826513e-03
      -2.12528440e-03 -2.08093822e-02 -9.70412511e-03 -4.38081246e-04
      7.17114098e-03 1.27935279e-02 7.82993156e-03 -4.31055581e-04
      6.16372703e-03 -4.12863493e-03 6.69231080e-03 5.74344909e-03
      8.77104513e-03 0. -1.89812283e-03 9.89696104e-03 5.69902034e-03
      2.19481328e-04 1.58037916e-02 8.13882891e-03 5.81679586e-03
      3.09012923e-03 3.41165485e-03 2.05134694e-02 -1.13016069e-02
      -1.60553046e-02 -4.35978873e-03 6.67150458e-03 6.85572298e-03
      -2.39544446e-04 -1.06561864e-02 -1.55799268e-02 2.57590931e-04
      1.65640772e-03 -9.41734482e-03 -6.31152827e-04 1.09109813e-02
      9.35092662e-03 5.98338014e-03 -4.58511896e-03 -8.96379258e-03
      -7.92922359e-03 6.77357987e-03 2.12874240e-03 1.12959724e-02 0.
      -2.05030059e-03 8.99210013e-03 5.08066127e-03 6.58962829e-03
      1.47360656e-02 1.03822602e-02 1.90042648e-02 1.26831168e-02
      -4.42051282e-03 -6.03010552e-03 -9.35249496e-03 6.35893177e-03
      -3.17251962e-03 2.32387683e-03 6.23055128e-03 1.49309086e-02
      9.87514271e-04 -1.80046204e-02 -6.19520526e-03 -3.44490516e-04
      9.50645283e-03 3.24606150e-03 1.22608598e-02 1.75974164e-02
      2.00996827e-02 1.27716037e-02 -1.48465643e-02 4.21606936e-03
      1.48070026e-02 -1.99635886e-03 1.37412455e-02 0. -2.26147994e-02
      4.65437490e-03 1.38841197e-02 1.78521741e-02 2.49969345e-02
      4.19422379e-03 1.63264535e-02 1.90240182e-02 -1.74018685e-02
      -1.31356781e-02 -1.26525080e-02 8.92084150e-04 -7.33935786e-03
      7.05512008e-03 2.28855759e-02 1.87770706e-02 8.02731793e-03
      2.96673412e-03 -2.44174991e-02 -9.11723170e-03 1.02095911e-02
      1.02306316e-02 2.73024291e-02 2.16963645e-02 2.92331092e-02
      2.12683119e-02 -9.85796750e-03 8.65485799e-03 1.18862744e-02
      4.14713472e-03 1.69797186e-02 0. -2.28020605e-02 -1.44531960e-02
      -2.18906929e-03 9.69439838e-03 8.47123284e-03 3.84933315e-03
      7.82292616e-03 -3.61395045e-03 -2.21628807e-02 -7.88006838e-03
      7.75218999e-04 6.98433723e-03 6.84140716e-03 1.18262647e-02
      9.84052010e-03 1.44512104e-02 -2.69676605e-03 -6.59542112e-03
      -2.81209610e-02 -1.17756641e-02 4.57599806e-03 1.47841452e-02
      2.03135591e-02 1.48292109e-02 1.61631946e-02 -5.67522738e-03
      -2.05241740e-02 -1.62691704e-03 3.33318929e-03 -3.34524293e-03
      7.73216423e-04 0. 1.08442048e-03 1.33084471e-03 3.01496102e-03
      -2.54645199e-03 -7.00030755e-03 -1.57431758e-03 1.00759473e-02
      2.02422263e-03 -8.75672884e-03 2.58099963e-03 1.99433346e-03
      1.70337793e-04 -5.46710100e-04 4.80682682e-03 3.69461207e-03
      1.39000332e-02 9.50366352e-03 -3.32006929e-03 -6.34125853e-03
      3.08107026e-03 2.69707316e-03 -3.09316185e-03 -9.02477477e-04
      1.89200428e-03 1.48333460e-02 5.17623359e-03 -7.74973677e-03
      8.86609685e-03 1.36983711e-02 -5.29226055e-03 -2.92438385e-03 0.
      -1.07340757e-02 -4.17329691e-04 -8.94667022e-03 -2.25942791e-03
      2.75518210e-03 -2.54474115e-03 7.34047499e-03 1.06513016e-02
      1.29759507e-02 -2.78697786e-04 2.93231313e-03 4.82272776e-03
      1.00980431e-03 1.76858958e-02 7.52131047e-04 7.87904952e-03
      1.55465235e-03 -2.53723003e-03 -1.19640222e-02 5.20284579e-04
      3.04094719e-04 -2.31666327e-03 1.47514502e-02 -5.54529065e-03
      9.41225793e-03 7.84083921e-03 1.01033300e-02 9.55010671e-03
      3.77527694e-03 6.97935605e-03 -2.03625139e-04 0. 5.46410971e-04
      3.22821364e-03 -1.22510511e-02 -6.79360516e-03 6.05143933e-03
      -2.60951696e-03 3.69875482e-03 6.96626958e-03 -1.48848519e-02
      -4.25884454e-03 -5.28035080e-03 2.25977055e-04 -1.00851164e-03
      1.12661964e-03 -5.06334659e-03 1.18333427e-02 1.09228538e-02
      6.14863914e-03 -1.00292889e-02 -2.17370805e-03 -6.96852058e-03
      -1.92444609e-03 9.33969952e-03 -2.37680995e-03 1.47107029e-02
      1.75789651e-02 -3.93778179e-03 9.14335065e-03 -2.93725636e-03
      1.01733473e-04 -6.96852244e-03 0. -7.87065248e-04 -1.10088401e-02
      -2.61707138e-03 -1.15899304e-02 3.30007495e-03 -1.56157347e-03
      1.13612958e-04 -1.58476401e-02 -1.65650193e-02 -8.08360241e-03
      -1.00656217e-02 -9.85176209e-03 1.94260175e-03 1.99606339e-03
      1.08333901e-02 3.64253297e-03 -7.75999529e-03 2.34467932e-03
      -1.07073365e-02 -9.73236840e-03 -1.16667226e-02 -9.64732841e-03
      -5.83867659e-04 7.33821793e-03 3.23042134e-03 -2.28755735e-02
      -2.01813765e-02 -1.26766311e-02 -1.64771415e-02 2.87097949e-03
      -7.45302672e-03 0. 5.91025781e-03 6.16187602e-03 5.31548122e-03
      -6.01073168e-03 7.02467049e-03 7.44214980e-03 -1.64292951e-03
      -4.22674668e-04 5.05900895e-03 1.72475986e-02 4.02161805e-03
      1.14396634e-03 -2.38303188e-03 6.83449209e-03 -1.74357335e-03
      -1.34510240e-02 -1.92898326e-02 -7.39885215e-03 1.95816322e-03
      9.26083419e-03 5.32579282e-03 -9.49687511e-03 7.33677810e-03
      1.96244218e-03 -1.21605704e-02 -1.52386539e-02 -5.64292120e-03
      -2.57102819e-03 -4.57544858e-03 9.00727510e-03 4.65322891e-03 0.
      -1.07056210e-02 8.52813665e-03 9.97923408e-03 3.01024574e-03
      6.93194428e-03 9.68336407e-03 8.86766985e-03 6.56060083e-03
      3.97330755e-03 -3.49328993e-03 -9.66652855e-03 -8.02203547e-03
      -9.56172682e-03 -2.98889674e-04 6.40474679e-03 8.40712525e-03
      -5.85065875e-03 -9.01855715e-03 -8.23906995e-03 -1.22340955e-03
      1.07049162e-03 -4.13726456e-03 6.30903151e-03 1.46224266e-02
      2.03208365e-02 9.23913845e-04 -3.15147801e-03 4.26483713e-03
      4.04761173e-03 -2.08880915e-03 1.19104260e-03 0. -1.30740013e-02
      -2.94953515e-03 -1.50336814e-03 2.60012248e-03 8.42607208e-03
      -1.95714738e-03 1.68530606e-02 8.09311308e-03 -7.44241569e-03
      1.87819381e-03 -3.97604005e-03 9.35654389e-05 3.25647889e-05
      5.50803123e-03 4.36356850e-03 1.51135121e-02 7.09853554e-03
      -1.20939165e-02 -8.17835890e-03 -1.42787211e-02 1.98960444e-03
      5.66716399e-03 1.35441478e-02 -3.61676724e-03 2.36527901e-02
      9.57894232e-03 -9.85720009e-03 3.71183315e-03 6.23603677e-03
      1.25639734e-03 1.55366142e-03 0. -2.65977671e-03 -1.63415074e-02
      -7.77332112e-03 3.43203265e-03 5.45897521e-04 -3.17294430e-03
      1.33002941e-02 5.24366880e-03 -1.03399437e-02 1.76428363e-03
      1.01817157e-02 4.04221518e-03 5.34927752e-03 5.43090864e-04
      4.35094303e-03 1.54143004e-02 4.89373319e-03 -6.90027652e-03
      5.03777014e-03 -5.89459203e-03 -4.81144001e-04 1.16123669e-02
      -1.86158199e-04 -2.26331735e-03 1.92226153e-02 7.92684313e-03
      -1.08332839e-02 -3.21911502e-04 6.81278389e-03 4.08031920e-04
      3.41235078e-03 0. 9.41237155e-03 1.82222726e-03 5.89734642e-03
      6.93840557e-04 -1.64514687e-03 8.19503330e-03 1.42724942e-02
      2.82424036e-03 -1.02810841e-02 -3.48838116e-03 1.76648365e-03
      -1.81527075e-03 -1.12653396e-03 -1.17195733e-02 -8.98318249e-04
      8.11748579e-03 5.06518036e-03 -6.85160328e-03 1.78902899e-03
      1.96772325e-03 4.31552157e-03 1.90950625e-04 -9.08463914e-03
      7.71742361e-03 2.13110000e-02 7.03043211e-03 -6.12712791e-03
      3.32321809e-03 1.40873659e-02 -6.57165144e-03 -1.29742303e-03 0.
      5.66713279e-03 3.69083672e-03 -3.59440273e-05 -8.87915958e-03
      1.14151044e-03 5.61350957e-04 4.51095076e-03 7.47275958e-03
      2.27710642e-02 2.20657382e-02 2.58366251e-03 2.96807848e-03
      -4.33663698e-03 3.12528427e-05 -1.23166507e-02 5.02190879e-03
      -7.96051044e-03 -1.31376991e-02 1.25333630e-02 3.47343530e-03
      4.42594150e-03 -8.29797704e-03 -2.57024798e-03 -1.24186035e-02
      5.56150265e-03 -3.71824048e-04 5.74909290e-03 2.03096797e-03
      3.58004658e-03 6.92984043e-03 2.45892722e-03 0. -1.54032288e-02
      6.34210184e-04 -3.33579443e-03 1.57187431e-04 1.47094643e-02
      1.14037923e-03 -4.07228246e-03 -7.64258998e-03 -2.16357820e-02
      -9.15716682e-03 -2.67302326e-04 -5.05927065e-03 -2.02719495e-03
      6.44425908e-03 5.68962237e-03 1.59660857e-02 6.35255361e-03
      -4.23566950e-03 -1.63532216e-02 -4.78301290e-03 -8.39506555e-03
      -1.87000702e-03 1.11780446e-02 -3.22998338e-03 9.05362889e-03
      -2.30172230e-03 -1.86198913e-02 -1.16438267e-03 2.65208818e-03
      -7.34447548e-03 -4.39265464e-03 0. -1.03272879e-02 4.67053207e-04
      4.52695203e-05 -2.37513962e-03 1.33815617e-03 -7.99142476e-03
      4.01671883e-03 -1.20214391e-02 -1.88843142e-02 -2.40333416e-02
      -1.22001925e-02 -8.04764498e-03 -1.67692197e-03 7.28662685e-03
      3.24855442e-03 6.72152266e-03 7.39882118e-04 -9.25460085e-03
      -1.14439968e-02 -8.42709653e-03 -8.00237618e-03 -3.47486278e-03
      6.28775917e-03 -2.12671235e-03 9.19309817e-03 -1.06643140e-02
      -2.20381226e-02 -1.53824547e-02 -1.76858809e-02 -4.88726655e-03
      -1.14633271e-03 0. 9.97639075e-03 -5.53676626e-04 3.26849497e-03
      -2.32763425e-03 1.31014241e-02 1.77137889e-02 2.27340171e-03
      -6.97626779e-03 -1.68159995e-02 -5.85585274e-03 4.17396566e-03
      6.37746602e-03 -5.32263611e-03 1.15968632e-02 -1.17245587e-02
      -1.07728560e-02 -1.10953040e-02 4.10281029e-03 -1.02458000e-02
      2.57298211e-03 9.42143239e-03 -6.51885336e-03 1.50619876e-02
      -3.51390964e-03 -8.78597051e-03 -1.77300386e-02 -1.65812019e-02
      -6.29127584e-03 -3.59472679e-03 5.75710274e-03 4.66621015e-03 0.
      4.53836331e-03 -5.32474078e-04 6.74507814e-03 5.79058006e-03
      1.29601937e-02 2.34246422e-02 1.16076740e-02 -2.78355111e-03
      -5.88634866e-04 1.06588267e-02 2.73293396e-03 -6.49568485e-03
      -9.60622262e-03 -2.58147367e-03 -8.74530897e-03 -2.45060958e-03
      1.04137452e-03 -3.61006265e-03 -2.62112077e-03 1.06159749e-03
      -2.51791265e-04 -1.99859845e-03 4.98533808e-03 8.20906553e-03
      1.03383847e-02 1.78726227e-03 2.20662449e-03 4.58045350e-03
      7.99819548e-03 9.08175425e-04 6.36177743e-03 0. -2.52790637e-02
      -4.49520210e-03 9.42685641e-03 4.95234085e-03 1.85601357e-02
      1.52333239e-02 5.58480481e-03 -5.66993421e-03 -1.33139258e-02
      -3.50906909e-03 2.50621163e-03 -7.09932717e-03 -4.92319325e-03
      3.94463353e-03 -8.27306975e-03 -3.31313512e-03 -3.25758988e-03
      -2.13893875e-02 -2.48328280e-02 -2.33145477e-03 2.32505030e-03
      3.30807583e-04 1.49608534e-02 -1.18094869e-03 2.27166922e-03
      -8.85703415e-03 -1.93353668e-02 -7.14568887e-03 -1.92123151e-03
      -6.31523691e-03 -3.62214167e-03 0. 4.13532695e-03 -6.87685609e-03
      -4.50957194e-03 6.50555454e-03 1.34339677e-02 -1.97025551e-03
      2.27883249e-03 9.17113200e-03 -2.87635927e-03 -2.50776531e-03
      9.60226823e-03 -6.61681639e-03 -4.62934002e-03 -5.26044238e-03
      4.31477884e-03 -2.56679417e-03 8.78833234e-03 -1.82543381e-03
      -4.06021858e-03 1.68052653e-03 -1.19261974e-02 2.13776366e-03
      2.88016070e-03 -5.34198061e-03 -1.75859430e-03 1.81374196e-02
      -4.19344241e-03 -4.29338217e-03 4.48201364e-03 1.76991627e-03
      6.80503994e-03 0. 2.14229971e-02 -8.78185616e-04 -2.90514086e-03
      2.41863192e-03 5.74812153e-03 7.02333683e-03 5.73244691e-03
      4.91463207e-03 -1.42113185e-02 7.38814846e-03 -2.16473825e-03
      -5.32914477e-04 -8.26223381e-03 -2.17366051e-02 -2.69706454e-03
      -7.15884194e-03 5.67969028e-03 -2.04921560e-03 9.93867777e-03
      1.41343474e-03 -2.66350107e-03 -4.13752114e-03 -1.17606977e-02
      -3.34900990e-03 -6.70459936e-04 9.40024946e-03 -5.25913248e-03
      -1.22987956e-03 1.16173010e-02 -1.05443541e-02 -9.12325631e-04 0.
      4.32305504e-03 -7.26052094e-04 -3.74636985e-03 -7.74269830e-03
      -1.01430118e-02 -6.14015758e-03 5.29421773e-03 -1.36635895e-03
      7.42162811e-03 1.90739185e-02 7.86706526e-03 1.51694501e-02
      -1.37180730e-03 6.48663612e-03 -1.48974750e-02 -1.36801988e-04
      -7.14308815e-03 -1.89966317e-02 2.55631050e-03 6.36159070e-03
      1.11710252e-02 -8.41959007e-03 -5.30592585e-03 -1.95444357e-02
      5.76656731e-03 -8.39642528e-03 -9.31311119e-03 -4.47842851e-03
      -2.71118525e-03 1.92970783e-03 2.06641620e-03 0. -2.16302593e-04
      6.49949815e-03 1.11250207e-02 -7.64460117e-03 -1.41954562e-02
      -9.72379744e-03 -1.06529193e-02 -2.12600688e-03 1.29961246e-03
      7.91633222e-03 1.07271376e-03 -6.13745674e-03 -6.90882280e-03
      9.17277206e-03 3.25695495e-03 -5.41738560e-03 -7.75907561e-03
      -1.96913313e-02 3.15044686e-04 8.14983062e-03 4.30809706e-03
      -1.44942068e-02 -1.30733009e-02 -1.52690113e-02 -1.27708632e-02
      -9.76849906e-03 -1.42075019e-02 -1.01355463e-02 -3.65831293e-05
      -1.05276816e-02 -2.93159042e-03 0. 8.43551650e-04 5.84395370e-03
      9.17159859e-03 1.40246442e-02 7.20475893e-03 6.90901885e-03
      -2.11602252e-04 -3.97192955e-04 -1.87907163e-02 -1.86528508e-02
      -1.66024324e-02 -3.29716876e-03 7.48348795e-03 1.77910626e-02
      6.35276362e-03 8.04445241e-03 5.68520883e-03 1.52241287e-03
      1.11240966e-04 -6.47480506e-03 6.79372996e-03 2.00469904e-02
      1.87456142e-02 9.16734338e-03 9.17202514e-03 2.14257464e-03
      -1.32787181e-02 -7.12779537e-03 2.06891983e-03 6.73005823e-03
      1.38496375e-02 0. 2.99551655e-02 -2.51641817e-04 -5.39683679e-04
      4.55693249e-03 1.79927181e-02 6.65858202e-03 2.58020591e-03
      -6.95887953e-04 -1.57564804e-02 1.36994070e-03 2.39468017e-03
      5.75250713e-03 4.98317415e-03 1.58705711e-02 -3.45976849e-04
      -4.39991523e-03 3.13796871e-03 1.02485279e-02 9.29074269e-03
      8.36474914e-03 5.21282293e-03 9.54010617e-03 2.30106246e-02
      4.82058292e-03 7.45537865e-04 2.14575650e-03 -8.58817343e-03
      5.86090377e-03 6.10312214e-03 9.26217157e-03 1.81410704e-02 0.
      -1.07191829e-03 -2.20815502e-02 -1.33681931e-02 -1.90535269e-04
      7.57545047e-03 1.00583481e-02 2.73444247e-03 -1.92751386e-03
      -9.31623019e-03 4.33236640e-03 6.74416451e-03 4.71049454e-03
      4.53996984e-03 3.97627102e-03 -3.84729588e-03 -2.68413313e-03
      5.06563252e-03 6.08635973e-03 -3.38800321e-03 -1.63747985e-02
      -8.21687281e-03 4.34943475e-03 6.16049161e-03 -4.93165059e-03
      6.19017737e-05 6.39830017e-03 5.54792164e-03 3.47465463e-03
      1.04587723e-03 -1.86892075e-03 -2.02176184e-03 0. -1.39354551e-02
      -2.33479626e-02 -5.59881423e-03 -1.45179322e-02 7.13932677e-04
      1.38959438e-02 2.18096864e-03 -1.35066069e-03 -7.31681520e-03
      -2.64754961e-03 9.07903630e-03 8.10917467e-03 9.18900408e-03
      3.44423205e-03 2.33195238e-02 -1.34005898e-03 -1.59581215e-03
      -3.61207360e-03 -1.65025685e-02 -1.01908054e-02 9.56744421e-04
      -2.92107719e-03 -1.53060630e-03 1.58174392e-02 8.40909022e-04
      -2.28169863e-03 -1.11153964e-02 -1.33456208e-03 -7.91276107e-04
      6.91816269e-04 -1.07916200e-03 0. 3.86986649e-03 -1.52218633e-03
      9.24456771e-03 -2.09810748e-03 1.34244782e-03 3.12157231e-03
      -6.36185054e-03 6.53110837e-05 -1.53000190e-04 1.04490137e-02
      9.81760211e-03 1.13512753e-02 1.70014519e-02 9.02228930e-04
      3.77578055e-03 -4.19250311e-04 4.38881572e-03 5.40164253e-03
      1.07564882e-03 8.28619674e-03 1.18872887e-02 1.35560762e-02
      3.60094360e-03 6.82749925e-03 -6.27246778e-03 2.50081718e-03
      1.27034436e-03 5.50758140e-03 5.24141826e-03 1.11394115e-02
      1.11931125e-02 0. 2.32813228e-02 -1.45431021e-02 -1.30677605e-02
      -1.32857570e-02 6.94061676e-03 5.62284281e-03 -1.87241891e-03
      -3.17972177e-03 6.86123327e-04 1.23927398e-02 4.95935930e-03
      8.82907407e-05 1.18334340e-02 -8.47169384e-03 1.28204387e-03
      -5.34431834e-04 7.90035725e-03 1.33680217e-02 1.39884036e-02
      -7.04344455e-03 -1.41339498e-02 -9.10521299e-03 -4.50784620e-03
      6.96974341e-03 4.25087317e-04 3.90291237e-03 1.31987743e-02
      8.78157001e-03 1.03078038e-02 -2.86272727e-03 -4.81762341e-04 0.
      1.82568771e-03 -1.33114541e-03 -4.87702573e-03 -1.21821538e-02
      -5.38971322e-03 -9.66535974e-03 -7.00445706e-03 -1.70882221e-03
      3.44904419e-03 1.02095641e-02 7.90258218e-03 6.99170912e-03
      8.72292090e-03 1.29007958e-02 -7.16362847e-03 9.03372493e-05
      -9.47835110e-03 -1.62231212e-03 7.32358138e-04 5.37174521e-03
      1.48679118e-03 -3.09471833e-03 1.56006240e-03 -1.24785695e-02
      -3.84014472e-03 -8.68252106e-03 -9.33619449e-04 -5.92702208e-03
      -3.69147630e-03 -1.01104216e-03 6.70262426e-03 0. 1.48634324e-02
      1.03588812e-02 4.57567628e-03 -1.03588235e-02 -1.42859668e-02
      -8.47553555e-03 -1.30175222e-02 -3.22707754e-04 1.54612008e-02
      2.37582680e-02 9.57412459e-03 4.24407888e-03 -1.48277124e-03
      2.75217742e-03 4.86954057e-04 -5.31825377e-03 -1.23491352e-02
      -9.29151755e-03 1.06604528e-02 1.45362467e-02 8.81573185e-03
      -1.01038646e-02 -1.26319872e-02 6.74508046e-04 -1.41712651e-02
      -1.23172505e-02 1.51673134e-03 7.36241869e-04 3.72596178e-03
      -3.03512416e-03 3.83966696e-03 0. 3.69190946e-02 1.56611279e-02
      9.59888007e-03 1.28393061e-02 7.27808522e-03 -1.13485113e-03
      -1.50625324e-02 -1.24877384e-02 -3.07562971e-03 -7.38561898e-03
      -2.14197207e-02 -1.13806883e-02 3.38566815e-03 4.77379886e-03
      2.91566434e-03 4.94984072e-03 -1.46374584e-03 5.92150958e-03
      3.64819821e-03 -7.36338459e-03 -1.76395290e-03 1.61717832e-02
      4.69899038e-03 -7.32200174e-03 -7.11236289e-03 -1.05878888e-02
      -3.16571700e-03 2.15508975e-03 -3.08019482e-03 5.12108626e-03
      1.03384368e-02 0. 1.42530669e-02 -9.63459909e-03 -9.17508919e-03
      -5.03270303e-06 8.19539768e-04 -3.47540528e-03 -4.53768484e-03
      -9.28553753e-03 3.18035809e-03 4.30833548e-03 -5.95541904e-03
      -2.33725738e-03 6.85862498e-03 1.68417525e-02 1.91614479e-02
      1.05559435e-02 1.10570146e-02 1.80119444e-02 4.92318207e-03
      -1.24210864e-02 -1.04391696e-02 6.85359258e-03 1.63917784e-02
      1.45495506e-02 3.71427182e-03 1.68673485e-03 1.76996328e-02
      9.16148722e-03 2.73654121e-03 1.13948788e-02 5.29373484e-03 0.
      -1.35006895e-02 -4.37363684e-02 -2.59256363e-02 -1.26066739e-02
      -8.14228877e-03 -5.92615921e-03 -2.82450183e-03 -2.42658565e-03
      1.51471724e-03 1.32322768e-02 1.68719832e-02 1.72360726e-02
      1.41178770e-02 1.28058391e-02 2.00961344e-02 1.29162315e-02
      8.86286795e-03 2.36075949e-02 -5.08167828e-03 -1.82030909e-02
      -7.72839272e-03 1.69502571e-03 3.54540069e-03 1.20798601e-02
      8.21388979e-03 1.21500157e-02 1.91976968e-02 1.00233974e-02
      3.15537071e-03 1.75651524e-03 -2.59747589e-03 0. -6.55386713e-04
      -2.65309513e-02 -1.74729172e-02 -1.63282733e-02 -1.70427524e-02
      5.27878816e-04 -1.80395739e-03 -8.48250557e-03 -2.19648355e-03
      2.63056648e-03 1.40661122e-02 1.18876994e-02 5.40092355e-03
      1.97313889e-03 1.32483533e-02 1.01146065e-02 5.22966636e-03
      3.87550541e-03 2.83374987e-03 -5.76832704e-03 -4.27692151e-03
      -1.12374360e-02 -1.21687520e-02 9.52421967e-03 8.58511776e-03
      -3.23712331e-04 -1.18600996e-03 -2.08681310e-03 -6.01368770e-03
      3.33782681e-03 -5.40013006e-03 0. 3.77227296e-03 1.29343200e-04
      -2.38830643e-03 -4.30029491e-03 -8.53408407e-03 5.06791612e-03
      4.03794041e-03 7.25280168e-03 -6.80081174e-03 1.35913468e-03
      -6.71753986e-03 1.12057128e-03 9.89847444e-03 1.74910529e-03
      -4.09439532e-03 4.18491103e-03 -2.94907298e-03 2.84344796e-03
      -9.32964147e-04 -6.70209480e-03 -2.31033959e-03 3.89998523e-03
      -7.09009171e-03 -6.85490249e-03 7.49746477e-03 4.30372916e-03
      -3.44997481e-03 2.90672155e-03 -4.34152596e-03 3.35329189e-03
      7.36160029e-04 0. 1.59274060e-02 -1.83308758e-02 -9.51669458e-03
      -1.02435052e-02 -5.32535138e-03 5.52182901e-04 -1.32724375e-03
      1.09140109e-03 -9.22499970e-03 6.92441082e-03 -1.97379123e-02
      -1.18218623e-02 -5.56605496e-03 -6.63158018e-04 -1.02655822e-02
      -1.02341874e-02 6.40399242e-03 8.69498588e-03 3.71669303e-03
      -3.03578693e-02 -1.54218720e-02 -1.33734979e-02 -4.90978081e-03
      -8.54242221e-03 -9.69850086e-03 6.84261788e-03 2.67658150e-04
      5.21568814e-03 -9.49235260e-03 -1.05204675e-02 -1.94562282e-02 0.
      5.97323233e-04 -6.58378005e-04 -1.67067151e-03 -2.79878126e-03
      4.68797225e-04 5.18121012e-03 -3.69126094e-03 -2.30728230e-03
      6.82086265e-03 8.35405290e-03 1.48536889e-02 -1.52513280e-03
      -2.36188201e-03 8.52675736e-03 6.67783478e-03 7.00126728e-03
      -2.04611872e-03 1.81768509e-03 3.39637580e-03 1.44901602e-02
      -4.87639452e-04 -1.73646759e-03 -2.55398802e-03 8.22209939e-03
      1.51401106e-03 8.84201552e-04 1.23365168e-02 9.86158731e-04
      4.69009951e-03 1.19814929e-03 1.35089140e-02 0. -3.76997609e-03
      -7.48794666e-03 1.44435384e-03 4.74484731e-03 -4.80104238e-03
      -4.22535697e-03 3.86978663e-03 -1.83842494e-03 -5.52708516e-03
      1.23672113e-02 9.65143275e-03 -3.11304990e-04 -2.71616806e-03
      5.39706135e-03 3.33143445e-03 8.03067163e-03 -5.58997132e-03
      -1.14084324e-02 1.51133584e-03 3.09930742e-03 1.05486414e-03
      4.90924111e-03 -5.24894334e-03 -1.90343545e-03 1.07040843e-02
      -7.42839556e-03 -1.17317801e-02 4.51863185e-03 2.28975364e-03
      -4.99816611e-03 -1.26288331e-03 0. 8.04329570e-03 5.49113844e-03
      2.73688696e-03 1.31785795e-02 7.77855096e-03 5.75161260e-03
      -7.83130992e-03 -3.77601292e-03 -2.34165657e-02 -2.21201479e-02
      -1.75298210e-02 -1.72869768e-03 2.68939859e-03 1.45869898e-02
      7.10538263e-03 1.33147584e-02 -8.96147569e-04 5.01005724e-03
      -1.29755326e-02 -1.34167494e-02 1.24396500e-03 1.48127358e-02
      1.53595395e-02 6.82724686e-03 3.86213115e-03 -4.94770939e-03
      -2.00356953e-02 6.05345471e-03 -4.65621194e-03 3.14608729e-03
      -5.89250471e-04 0. -1.42379580e-02 -9.82161984e-03 -7.72628793e-03
      -2.73345760e-03 -5.90390293e-03 4.82981885e-03 3.06506502e-03
      1.09437061e-02 -3.82308429e-03 -6.72213547e-03 -1.85777165e-03
      4.24137060e-03 -1.66725426e-04 1.14612654e-02 6.97759166e-03
      1.19471438e-02 4.00165142e-03 7.24180462e-03 -4.56135906e-03
      -1.25665832e-02 -2.95242318e-03 -1.44758297e-03 3.68131185e-03
      1.15389228e-02 1.24473898e-02 1.35356635e-02 4.03615972e-03
      4.39026393e-03 -5.87555673e-03 9.11276322e-03 -2.10432452e-03 0.
      -2.83577405e-02 -4.02202904e-02 -5.54319005e-03 -1.18803643e-02
      -5.06546721e-03 -2.77196080e-03 6.49263209e-04 5.40026138e-03
      2.20077112e-03 3.50189884e-03 1.83093809e-02 6.29582861e-03
      6.29784353e-03 1.00000734e-02 8.37575551e-03 1.38110630e-02
      -7.23552238e-03 -7.40754791e-03 -2.29662866e-03 -1.81276109e-02
      7.52637861e-04 -3.65861529e-03 2.56752479e-04 7.52179825e-04
      1.34634878e-02 -1.44071446e-03 -3.21131805e-03 4.48321784e-03
      -5.14318934e-03 -2.51449831e-03 -1.26834009e-02 0. 1.17233451e-02
      -1.01807173e-02 1.01253693e-03 -4.11160849e-03 -1.23460628e-02
      -4.15232079e-03 -2.78724916e-03 2.75500794e-03 -1.30697573e-02
      1.50092834e-04 -4.51403717e-03 -2.81138928e-03 1.59808330e-03
      -9.85865598e-04 8.18911195e-03 1.59618612e-02 7.41945626e-03
      -4.76655969e-03 6.21016230e-03 -5.56910364e-03 -1.49628869e-03
      5.03753370e-04 -1.68296881e-02 -6.49631070e-03 1.37262866e-02
      7.66045228e-03 -5.97319659e-03 2.29158765e-03 -8.41690693e-03
      5.95346931e-03 -4.97398525e-03 0. 1.93448104e-02 -1.12863686e-02
      -3.42982914e-03 -4.28856537e-03 -1.81219187e-02 -5.46238013e-03
      -3.08073452e-03 6.30326290e-03 7.15766987e-03 -1.94376902e-04
      -1.75281726e-02 -1.47013199e-02 1.28427427e-03 4.83034644e-03
      4.97036381e-03 1.06872327e-03 3.20825237e-03 1.12083759e-02
      8.02738592e-03 -2.50955541e-02 -1.75993219e-02 -1.16614407e-04
      -1.33898286e-02 -4.92840633e-03 -9.04210727e-04 9.91113018e-03
      1.22673670e-02 2.22965772e-03 -6.99742325e-03 2.10795715e-03
      -6.16366137e-03 0. 4.99180611e-03 -1.81685127e-02 2.12571188e-03
      -1.10505186e-02 -1.42407473e-02 2.82179867e-03 -2.68055778e-03
      8.38370295e-04 2.53522163e-03 7.21588591e-03 8.38277279e-04
      -9.97831766e-03 -4.03399905e-03 2.46053701e-03 2.73681921e-03
      -4.50988708e-04 -1.09417575e-04 1.39947957e-03 6.22624718e-03
      -1.01966169e-02 -4.76513477e-03 -4.43379348e-03 -1.37987360e-02
      3.88195831e-03 -8.45816685e-04 1.06627459e-03 4.46884148e-03
      7.55193504e-03 -6.63460349e-04 -8.08893982e-03 -1.42374849e-02 0.
      9.04832873e-03 -6.73742453e-03 -2.22878437e-03 2.75010971e-04
      -1.15961791e-03 1.00006266e-02 2.57773860e-03 -4.55647288e-03
      -2.51257978e-03 1.08293043e-02 -4.67608741e-04 -7.83974188e-04
      8.30767024e-03 1.36805959e-02 1.76087990e-02 1.16332788e-02
      -9.73713957e-03 -5.03007416e-03 -6.54969655e-04 -5.40178642e-03
      -4.53435583e-03 8.10767058e-03 1.12074623e-02 1.92250069e-02
      1.12477588e-02 -6.73996797e-03 -1.44227641e-03 2.91018817e-03
      5.33263246e-03 5.95087139e-03 9.72876232e-03 0. 7.00986898e-03
      -7.30544608e-03 6.60509279e-04 6.62860181e-03 -7.70403119e-03
      5.34144056e-04 9.20144084e-04 -6.15168083e-03 -6.65327488e-03
      1.23341605e-02 3.95696703e-03 7.68781593e-03 9.95076844e-04
      4.49608453e-03 -1.19335286e-03 -2.30819290e-03 -1.80387758e-02
      -1.97043698e-02 4.80411900e-03 -3.09024029e-03 4.72771470e-03
      7.72305951e-03 -1.88190766e-04 -6.35270495e-03 -1.97950692e-04
      -1.76708214e-02 -1.37708504e-02 -3.35102784e-04 5.69771044e-03
      -1.04356110e-02 -6.16317010e-03 0. 1.39546283e-02 6.26581581e-03
      -1.52720034e-03 -6.96026301e-03 -1.87528934e-02 -4.35526483e-03
      -3.19657219e-03 -4.83050570e-03 -2.36913003e-02 -1.19753340e-02
      -1.55613311e-02 1.98899233e-03 4.93251625e-03 3.66708194e-03
      -9.05689038e-03 9.07555129e-03 -1.40616123e-03 -7.61997141e-03
      -8.81154672e-04 -9.17293131e-03 8.96676851e-04 1.43185971e-04
      -9.81475133e-03 -1.32943811e-02 -3.53846153e-05 -6.05999818e-03
      -1.68525483e-02 -6.03191275e-03 -5.20482892e-03 -1.42538790e-02
      -7.05912430e-03 0. -2.20902674e-02 1.77866947e-02 9.39028338e-03
      -5.12710866e-03 -1.39253912e-02 -9.31468699e-03 -9.55361221e-03
      -9.33964562e-04 2.75944965e-03 -1.01861376e-02 -5.77387074e-03
      4.66782413e-03 3.77814076e-03 4.10935702e-03 -1.26329204e-03
      4.86417208e-03 -1.13269063e-02 -2.72371038e-03 -1.01419287e-02
      4.38198773e-03 1.38042429e-02 -6.71331363e-04 -1.07099116e-02
      -9.61006247e-03 -5.58144040e-03 -1.12951780e-02 -1.96493976e-03
      -4.33337758e-04 -9.01534967e-03 -5.96028799e-03 -5.73945371e-03 0.
      -2.65564155e-02 -1.89883597e-02 2.53250147e-03 -6.13297010e-03
      -2.97226332e-04 -5.82017517e-03 -7.76773691e-03 1.01628492e-03
      5.65798441e-03 -5.72919659e-03 1.11052757e-02 1.21300109e-02
      1.09396959e-02 -3.25697800e-03 -1.32141588e-03 5.26978308e-03
      -2.24129837e-02 -2.51412168e-02 -1.49713671e-02 -5.69811417e-03
      1.37662692e-02 4.71943012e-03 -1.46426691e-03 -8.44406057e-03
      -2.15437118e-04 -1.87779814e-02 -1.45227471e-02 -2.15238403e-03
      -7.84165412e-03 -8.27567000e-03 -1.69783514e-02 0. -1.85721461e-03
      -5.93978772e-03 -2.36577354e-03 -4.50946949e-03 4.84749023e-03
      -5.62188309e-03 -7.91783258e-03 -6.78935274e-03 -7.03218766e-03
      -7.94819556e-03 2.24921992e-03 4.99126967e-03 3.44442227e-03
      -6.68921741e-04 -2.64871190e-03 3.80068575e-03 -1.34371184e-02
      -8.56764428e-03 3.07614263e-03 -4.70887311e-03 6.47481065e-04
      1.22640561e-03 1.28693518e-03 -1.05636306e-02 1.87683283e-04
      -1.65570509e-02 -1.46926325e-02 -5.97611535e-03 -1.41762085e-02
      9.17233119e-04 -7.14963954e-03 0. 3.24108638e-02 6.72353664e-03
      -8.94618034e-03 -5.31801349e-03 3.67071456e-03 -8.59025284e-04
      5.02443640e-04 -5.28187351e-03 -1.58057064e-02 5.33924624e-03
      -7.24975253e-04 -5.42852329e-03 3.67073342e-03 1.10588307e-02
      3.34531907e-03 -7.87251536e-03 -6.46622339e-03 3.75331263e-03
      1.98245700e-02 -1.49246631e-03 -1.00432793e-02 1.90354697e-03
      4.84202150e-03 1.68983673e-03 -5.48673607e-03 -9.76986531e-03
      -2.29900726e-03 2.45181168e-03 -1.83623168e-03 6.49915868e-03
      -6.22633554e-04 0. 1.50320185e-02 -1.32313566e-02 -6.10893685e-03
      -1.33180255e-02 -1.05003836e-02 -4.43227263e-03 -4.38009528e-03
      3.15259374e-03 -8.95270263e-04 4.54461528e-03 -3.06302728e-03
      -9.23770294e-03 9.41977557e-03 1.07943732e-02 1.37886433e-02
      -4.99330636e-04 -8.80382396e-03 -4.74673091e-03 1.04916571e-02
      -7.10301101e-03 -9.09104478e-03 -1.02356961e-03 -2.82977964e-03
      6.17326517e-03 -2.46451679e-03 -6.19691238e-03 -4.84374212e-03
      8.78507330e-04 6.60572061e-03 -5.91887534e-03 -1.21647511e-02 0.
      7.33839814e-03 -8.18838831e-03 -3.25390114e-03 -8.23454186e-03
      1.08435228e-02 1.71777103e-02 1.14535491e-04 7.96106365e-03
      5.89458598e-03 2.43761204e-02 5.57749067e-03 8.51055887e-03
      -3.63067864e-03 -6.49867719e-03 5.33545855e-03 -3.44049092e-03
      -4.25660098e-03 1.14127714e-03 1.46780061e-02 1.11491571e-03
      3.53963883e-03 -8.92566238e-03 3.87262623e-03 2.14578379e-02
      -2.17228010e-03 2.64226669e-03 8.63171741e-03 4.80588246e-03
      5.14815794e-03 9.01067257e-03 7.79546006e-03 0. 5.58390887e-03
      -1.54895633e-02 -3.14684981e-03 -2.02533859e-03 1.26970587e-02
      9.83633567e-03 3.30365729e-05 -3.26737249e-03 2.77626002e-03
      2.00744029e-02 1.86444037e-02 2.66842102e-03 -1.03214867e-02
      -2.72183272e-04 6.13816734e-03 2.49719736e-03 -7.95735419e-03
      1.93110551e-03 1.00876819e-02 2.06773938e-03 -4.88239166e-04
      -7.98749179e-03 6.21157000e-03 9.82162450e-03 1.96496537e-03
      -9.84263793e-03 3.71888047e-03 6.50250865e-03 1.47552621e-02
      -2.29765102e-03 8.45130489e-05 0. 1.07916603e-02 1.15906203e-03
      3.92951159e-04 -3.92551119e-05 4.26201895e-03 -1.39845622e-04
      -2.68393382e-03 -1.12923216e-02 -2.11752709e-02 -2.49735583e-02
      -2.13007769e-03 1.32000691e-03 1.31911633e-03 5.49539831e-03
      5.91075188e-03 1.23097822e-02 8.99014343e-03 7.92269036e-03
      -5.61204646e-03 -3.15152545e-04 -2.07376620e-03 1.63379253e-03
      1.50210336e-02 8.19172803e-03 8.32667947e-03 -7.23543169e-04
      -1.12878010e-02 -4.71875246e-04 7.01211859e-03 -8.70733336e-03
      9.59986472e-04 0. -1.07766287e-02 6.58771023e-03 3.80340591e-03
      3.00263776e-03 -3.04875954e-04 -8.86762794e-03 -3.67930019e-03
      2.72626319e-04 -5.30776451e-04 -4.80221352e-03 -2.57014734e-04
      1.10068144e-02 1.21537894e-02 1.09968297e-02 -1.64261949e-03
      5.96196996e-03 1.63939677e-03 -9.66296939e-04 -1.15318969e-02
      5.55163482e-04 1.08837178e-02 8.04650225e-03 5.84415719e-03
      -6.98173465e-03 3.11849150e-03 1.68683473e-03 -1.00645330e-02
      2.00393586e-03 7.63363112e-03 -4.78523131e-03 6.27168035e-03 0.
      -2.72430405e-02 -3.39356549e-02 -1.58677846e-02 -8.42402875e-03
      9.21129901e-03 1.04277907e-02 1.09807532e-02 6.13966957e-03
      2.95751495e-03 -2.07040180e-03 9.03281663e-03 1.11401174e-02
      6.55685551e-03 1.06798531e-02 7.57374428e-03 6.84150029e-03
      -1.56258270e-02 -2.79850382e-02 -5.84329385e-03 -2.26085261e-02
      -3.39571969e-03 -4.90154373e-04 1.29068093e-02 1.19091747e-02
      1.76006611e-02 -8.96074995e-03 -2.03835163e-02 -6.91212434e-03
      1.64040120e-03 -9.43529420e-03 -3.96507094e-03 0. 5.22446819e-03
      -1.04568824e-02 -1.69045422e-02 -1.78083889e-02 1.29396347e-02
      1.21907536e-02 2.45445175e-03 3.19762272e-03 -9.54177510e-03
      -6.95928093e-03 -6.08369522e-03 1.59564638e-03 2.24894541e-03
      5.31696063e-03 2.58193375e-03 1.03737144e-02 -9.57405847e-03
      -1.01342304e-02 1.06703537e-02 -9.92967095e-03 -6.94231177e-03
      -1.24630816e-02 1.54994223e-02 1.72660537e-02 1.21026449e-02
      -4.21060622e-03 -1.57216694e-02 -3.67413554e-03 -6.78907242e-03
      -5.56363771e-03 2.19657295e-03 0. 3.06892656e-02 7.15998560e-03
      4.43425216e-03 6.91016344e-03 2.11915746e-02 1.42963249e-02
      1.30085601e-03 -9.31133516e-03 -2.58097723e-02 1.04369922e-03
      -5.67893905e-04 -8.87064822e-03 1.24400167e-03 7.97054451e-03
      9.94500052e-03 9.78996139e-03 3.10410699e-03 2.91523011e-03
      1.40138622e-02 1.07763021e-03 4.88497643e-03 5.82260685e-03
      2.43070107e-02 2.20215749e-02 8.93042609e-03 -4.21905145e-03
      -1.63865089e-02 7.25577120e-03 5.67220338e-03 1.39699429e-02
      9.60509107e-03 0. -2.97659589e-03 -8.19212664e-03 1.34384667e-03
      1.94785593e-03 1.64752323e-02 1.04671409e-02 -4.52546822e-03
      -5.45804109e-03 -1.09287975e-02 2.57216045e-03 1.29698310e-02
      -2.74809729e-03 1.03423167e-02 5.08430181e-03 8.37261695e-03
      -8.34287785e-04 -7.41330069e-03 -1.57346707e-02 -3.90404090e-03
      1.65693709e-04 -2.27214326e-03 3.69771762e-04 1.68386996e-02
      1.10476585e-02 -2.28727190e-03 -1.21046202e-02 -2.06733253e-02
      2.04991447e-04 4.03748080e-03 -1.37436611e-04 9.69074201e-04 0.
      -2.52618385e-03 -1.97749049e-03 -1.30289439e-02 2.07555108e-03
      4.74370871e-04 1.80405714e-02 8.03174917e-03 1.21490005e-02
      7.92756397e-03 7.37110293e-03 -7.99399204e-05 8.04434344e-03
      4.03222581e-03 -6.79010665e-03 -7.67342933e-03 6.57244679e-03
      -5.59884310e-03 -6.19411888e-03 9.84578364e-05 -2.06228974e-03
      -5.07520046e-03 1.27254112e-03 -1.49296632e-03 1.01398639e-02
      1.17534902e-02 3.93346068e-04 1.82181597e-03 -4.84009826e-04
      4.03000368e-03 5.09365601e-03 5.90297813e-03 0. -9.73955635e-03
      -1.84992198e-02 -1.42140538e-02 4.27955034e-04 9.31875315e-03
      9.18014999e-03 2.13587983e-03 5.85706253e-03 1.61922853e-02
      1.28736151e-02 6.01172866e-03 3.33294249e-03 -1.44381693e-03
      1.70352741e-03 -1.58271985e-04 5.60658099e-03 -1.14154015e-02
      -1.45828780e-02 -8.81343242e-03 -1.14891632e-02 -1.50737530e-02
      -5.67868492e-03 6.76542474e-03 8.92179552e-03 8.69987532e-03
      -2.94002006e-03 -6.67917891e-04 -9.75261908e-04 6.94063911e-03
      -3.71517683e-03 -1.03055569e-03 0. 3.84908495e-03 9.33448412e-03
      1.92947732e-03 2.65830243e-03 -3.94312758e-03 -2.68385969e-02
      -2.60998867e-02 -1.28286695e-02 -6.64620008e-03 3.50587140e-03
      1.75550161e-03 9.34500434e-03 1.20826135e-03 4.12130915e-03
      1.11970305e-02 1.96152134e-03 2.87861377e-03 -4.20175539e-03
      6.01228792e-04 8.64465907e-03 3.92515725e-03 1.57702062e-03
      -9.67714761e-04 -1.14002461e-02 -2.06875447e-02 -1.45441815e-02
      -1.39565747e-02 -5.45175793e-03 4.38984856e-03 -1.20507926e-02
      4.72690124e-04 0. -4.42447199e-04 -3.31021706e-03 -1.64147429e-02
      -1.59582980e-02 -2.36012489e-02 -3.45477127e-02 -2.08278392e-02
      -6.41252892e-03 1.49430253e-03 1.75962280e-02 6.07315870e-03
      4.92916675e-03 2.99877673e-03 4.16038139e-03 3.43805621e-03
      7.56976940e-03 9.17758327e-03 1.39810871e-02 1.28914295e-02
      5.55738667e-03 -4.41479869e-03 -1.16414772e-02 -1.47582470e-02
      -2.77055055e-02 -1.31559214e-02 7.58160430e-04 1.06992871e-02
      -8.71155225e-03 3.93454544e-03 -1.58019774e-02 -3.03651881e-03 0.
      -4.25772741e-03 -1.56651810e-02 -2.61404254e-02 -1.39293978e-02
      -2.30951253e-02 -1.39182368e-02 -9.46532376e-03 7.05865258e-03
      1.07087474e-02 -5.52604906e-04 5.14758378e-03 -3.88456479e-04
      -1.23543560e-03 1.35875912e-02 1.16471294e-02 -2.92179501e-03
      -1.27201201e-02 -1.26916179e-02 3.62336286e-03 -9.55808628e-03
      -1.56626310e-02 -1.35861291e-02 -1.05380695e-02 -5.21996384e-03
      -9.61308181e-03 -7.89722241e-03 -1.64460076e-03 -1.45158749e-02
      -3.55202937e-03 -1.88652035e-02 -4.94217407e-03 0. 2.45478824e-02
      4.74585826e-03 -2.01311391e-02 -5.02664316e-03 -3.04169371e-03
      -1.06775004e-03 -3.62137076e-03 -9.65152029e-03 -2.70992657e-03
      -8.89397878e-03 -1.31870871e-02 -1.07916137e-02 -6.75326167e-03
      7.82699883e-03 -8.34914576e-03 -8.35673697e-03 -1.58637054e-02
      5.26198093e-03 1.18929017e-02 -8.89669918e-03 -1.79904513e-02
      -1.28876884e-02 2.27531302e-03 -9.49787442e-03 -1.27634285e-02
      -2.27786582e-02 2.03136960e-03 -9.52757429e-03 -2.97856540e-03
      -1.73966940e-02 -5.48179587e-03 0. 1.88136213e-02 -3.43538646e-04
      7.22695468e-03 1.04355654e-02 2.97341868e-03 -8.88929050e-03
      -1.58502962e-02 -2.29885895e-02 -1.08083058e-02 5.83600532e-03
      -9.26911831e-03 -2.25433707e-02 -1.24087529e-02 4.79152240e-03
      -8.81961751e-05 -2.24187830e-03 -1.51193170e-02 -3.47355753e-03
      6.16730424e-03 -8.96472484e-03 -7.34007591e-03 -3.96179501e-03
      2.91062956e-04 -1.09448778e-02 -1.56540442e-02 -2.94185001e-02
      -1.36979353e-02 -8.58203042e-03 -1.34225274e-02 -9.09221359e-03
      -3.76190362e-03 0. -8.12805537e-03 -1.50517048e-03 3.73722077e-03
      6.10589609e-03 -9.78869852e-03 -1.02456063e-02 -3.83822783e-03
      -7.59400241e-03 -9.14002303e-03 3.46977124e-03 -1.33478214e-04
      -7.52338266e-04 -4.52885288e-04 3.61348107e-03 6.66045817e-03
      -9.82305501e-03 -1.58564616e-02 -6.53807726e-03 -9.89572331e-03
      -2.89413449e-03 -3.25958594e-03 -2.97175464e-03 -7.34223844e-03
      -6.64986717e-03 -9.07278061e-03 -2.14312449e-02 -1.32973185e-02
      -6.34675054e-03 -6.51842123e-03 -6.03620335e-03 -9.48126800e-03 0.
      -8.03593732e-03 -2.25024857e-03 -1.04359603e-02 1.25658559e-03
      -1.35063054e-02 4.64215688e-03 4.09132056e-03 8.30933731e-03
      5.26847178e-03 -2.78750435e-03 9.65373511e-06 1.38191171e-02
      9.78644285e-03 3.19753513e-02 1.85679905e-02 2.05024313e-02
      -6.08755974e-03 -1.13018584e-02 -1.02099329e-02 -3.69840651e-03
      1.09526899e-03 8.60966742e-03 1.19159445e-02 1.29198590e-02
      1.75203346e-02 -2.91557470e-03 -8.72648042e-03 6.29525539e-03
      2.06247810e-03 1.32691870e-02 8.45946744e-03 0. -1.04067037e-02
      -6.84380485e-03 -8.81019793e-03 -1.68581912e-03 2.33642058e-03
      -3.95861687e-03 -8.21643230e-03 7.37482589e-03 1.50949229e-02
      1.24397818e-02 6.46712072e-03 1.86296981e-02 6.26180600e-03
      2.10150685e-02 5.52417431e-03 -6.28612051e-03 -1.33327870e-02
      -9.93625540e-03 -9.18592606e-03 -5.96097903e-04 5.71146375e-03
      4.87098284e-03 8.55470076e-03 -1.76215905e-03 -1.56472363e-02
      -8.36043060e-03 2.17874045e-03 5.61353890e-03 2.87136622e-03
      3.97880422e-03 -3.64249106e-04 0. -5.28089376e-03 3.39598209e-03
      4.56691859e-03 -4.20951983e-03 -2.37644796e-04 2.93214526e-03
      3.60354991e-03 1.42305112e-03 1.41874061e-03 8.57849326e-03
      4.37285146e-03 7.87905604e-03 -4.72304830e-03 1.77904069e-02
      2.74414499e-03 1.22624348e-04 -8.91836733e-03 -4.33267048e-03
      2.15365581e-04 7.76883308e-03 1.17214853e-02 -8.87460355e-03
      1.56549591e-04 2.52883718e-03 1.16942264e-03 -8.76032468e-03
      -3.00961011e-03 5.82657708e-03 4.37166356e-03 4.54446347e-03
      -6.99915836e-05 0. -8.32134578e-03 6.81113778e-03 -7.96455238e-03
      -6.21496746e-03 6.02611108e-03 -3.73163074e-03 -1.06357755e-02
      -2.19917763e-03 3.95793514e-03 3.15621905e-02 5.98689262e-03
      -4.71518328e-03 -5.24031650e-03 2.17842613e-03 -3.12787294e-03
      1.17596276e-02 2.36541592e-03 7.64731830e-03 1.11743221e-02
      1.22190090e-02 -2.35370710e-03 -1.03442213e-02 -9.68846551e-04
      -2.60602008e-03 -5.09348291e-04 -1.79562171e-03 1.02340681e-02
      -1.09814818e-03 6.11220160e-03 2.86582904e-03 4.44450974e-03 0.
      2.05690926e-03 1.08615160e-02 -3.65492725e-03 -3.36986291e-03
      -5.71113371e-04 4.96744923e-03 -1.40058214e-03 1.07948296e-02
      7.34639447e-03 1.56164085e-02 7.47841224e-03 -3.96437524e-03
      -1.59659178e-03 -4.06653911e-04 2.52992730e-03 -5.31697972e-03
      1.72529649e-03 1.67310797e-02 1.94603261e-02 1.68147925e-02
      -3.12139583e-03 -5.91736147e-03 -8.88662226e-03 3.13915056e-03
      -4.94541461e-03 6.37634238e-03 1.98296364e-02 1.06894085e-02
      1.08652171e-02 -2.59360910e-04 6.90724608e-03 0. 1.73650533e-02
      1.25205452e-02 -4.96394187e-03 1.52107896e-02 -1.24236569e-03
      -3.72257945e-03 -1.15491943e-02 -6.35642232e-03 6.00746321e-03
      -1.61209665e-02 -5.88993449e-03 -2.09200066e-02 -3.23980837e-03
      8.87337141e-03 7.63479061e-03 3.68278474e-03 3.29059409e-03
      9.85643174e-03 -1.24873163e-03 5.37386211e-03 -1.44007141e-02
      8.60075187e-03 4.25796723e-04 -2.14471808e-03 -9.52559058e-03
      -3.85519583e-03 1.51861459e-02 4.77667112e-04 8.51603597e-03
      -2.38775881e-03 -1.68612704e-03 0. 8.71694181e-03 -2.91729905e-03
      -5.26480202e-04 7.02886051e-03 6.24701334e-03 -1.37712574e-02
      -5.19437669e-03 -1.27887940e-02 2.44177366e-03 -1.93821336e-03
      2.86285824e-04 -6.81008678e-03 3.70709371e-04 6.13524951e-03
      1.22572361e-02 2.23365286e-03 -8.36842635e-04 2.28539249e-03
      4.82718972e-03 -3.38453799e-03 -4.09754226e-03 5.97777218e-03
      6.75257703e-04 -2.65304185e-03 -5.01012010e-03 -1.38725145e-02
      4.10174578e-03 -6.81691337e-03 6.52465085e-03 -3.70960683e-03
      5.51966764e-03 0. -4.02887817e-03 3.86098027e-03 1.08502144e-02
      4.64126421e-03 -1.10511528e-02 -1.03012407e-02 4.57773358e-03
      -9.18990280e-03 -3.87299666e-03 -1.34003749e-02 -6.18196232e-03
      -3.54614132e-03 5.78329200e-04 5.52895200e-03 -2.96926848e-03
      -6.06008945e-03 -4.00352385e-03 5.57393581e-03 -1.27516212e-02
      1.56364904e-03 4.30526864e-03 3.23187304e-03 -4.48557269e-03
      -8.38928390e-03 -2.87662144e-03 -1.27176102e-02 1.55518460e-03
      -1.14788441e-02 2.81094387e-03 -1.19034695e-02 2.18954147e-03 0.
      -9.27291717e-03 8.15899670e-03 -6.40275975e-05 1.15513746e-02
      5.07603213e-03 1.34013342e-02 1.61925126e-02 -1.79080642e-04
      1.06954118e-02 -7.59788556e-03 1.05499038e-02 1.24833062e-02
      -5.31904027e-03 1.43991578e-02 4.21111286e-03 8.00915249e-03
      -1.76693301e-03 -1.39950998e-05 -1.45505294e-02 1.86754353e-02
      1.32805603e-02 1.22251306e-02 2.09488831e-02 1.77618340e-02
      1.88472029e-02 2.52380199e-03 6.43243873e-03 1.65472757e-02
      -1.94935151e-03 2.24555675e-02 5.61500154e-03 0. -3.96925304e-03
      1.01574818e-02 8.72846134e-03 2.36136816e-03 7.35956337e-03
      1.76209789e-02 1.88193414e-02 1.77036915e-02 8.22670013e-03
      -4.17687232e-03 9.29336809e-03 1.90325566e-02 7.38683622e-03
      1.54123884e-02 -5.37188258e-03 -2.74201017e-03 -5.72427502e-03
      -5.79943461e-03 -4.78637841e-04 1.94508489e-02 2.64594872e-02
      9.59935877e-03 1.67309269e-02 5.99066587e-03 9.10513848e-03
      1.04158651e-02 2.62484932e-03 2.08581798e-02 5.15685230e-03
      2.28128843e-02 5.06206555e-03 0. -1.53310094e-02 3.42139718e-03
      6.11787476e-03 6.45791506e-03 7.74517423e-03 1.02301901e-02
      1.31817050e-02 1.26655931e-02 1.23405373e-02 -4.65728296e-03
      8.61382578e-03 5.92043763e-03 1.45567965e-03 6.83840318e-03
      -6.92833774e-03 -5.02974121e-03 -1.81863515e-03 -4.96455701e-03
      -1.45060057e-02 1.20352227e-02 1.20383129e-02 8.26907903e-03
      8.39709025e-03 2.09540944e-03 1.84520206e-03 1.05807176e-02
      8.03984143e-03 1.29821533e-02 4.86523029e-04 1.30833732e-02
      -3.14762583e-05 0. -2.53545381e-02 6.56790426e-03 -3.30330426e-04
      5.75441215e-03 1.78561378e-02 1.39934933e-02 3.16051487e-03
      1.07557699e-02 1.80776101e-02 5.11058467e-03 1.45864831e-02
      3.76859261e-03 5.41612320e-03 5.74763073e-03 -1.94292422e-02
      3.62555915e-03 -2.49518524e-03 -3.13596171e-03 -1.18539799e-02
      2.11543869e-02 3.43826227e-03 1.10051893e-02 1.44874994e-02
      -6.71864767e-03 5.06170234e-03 6.74500084e-03 1.46446647e-02
      1.49077075e-02 -1.58017804e-03 1.46630155e-02 2.02611252e-03 0.
      -1.16955731e-02 9.48378723e-03 -8.58768355e-03 4.96495189e-03
      1.70902442e-02 1.13738319e-02 -1.52513408e-03 6.57417905e-03
      7.65786460e-03 -9.56949312e-04 1.43440096e-02 9.00076935e-04
      6.31040987e-03 -1.10963258e-04 -1.03284176e-02 9.12950560e-03
      5.96523890e-03 1.01259751e-02 -1.38194673e-03 2.30026431e-02
      2.76268716e-03 1.10135591e-02 7.40340492e-03 -5.25678508e-03
      5.74626867e-03 9.20849387e-03 1.51033318e-02 1.95979290e-02
      5.93054201e-03 1.19249029e-02 -4.11815522e-03 0. 1.13268010e-02
      6.18643546e-03 5.37503453e-04 1.41909570e-02 1.47314854e-02
      2.63311341e-03 3.04126297e-04 1.03449160e-02 1.11596650e-02
      -1.02408687e-02 1.08469580e-03 -5.91515517e-03 -8.81610438e-03
      -4.94357431e-03 -1.38961831e-02 8.65651481e-03 4.73730220e-03
      2.40820050e-02 2.45541590e-03 7.27113103e-03 3.64699226e-04
      7.08868541e-03 8.20566807e-03 -5.76086342e-03 7.18194013e-03
      1.49143338e-02 3.27632092e-02 1.03659304e-02 3.42282932e-03
      1.45341372e-02 2.86664232e-03 0. 1.11522395e-02 3.37664527e-03
      6.75960630e-03 1.15053123e-02 1.44584468e-02 7.28869857e-03
      1.02960439e-02 1.77028228e-03 5.31422021e-03 -5.65009378e-03
      -3.10383155e-03 -1.28110386e-02 -6.42299885e-03 -4.42877552e-03
      4.08728421e-03 1.03841741e-02 8.72715656e-03 1.95551589e-02
      -1.85219490e-03 3.89230158e-03 -4.88658389e-03 8.54726229e-03
      3.69892409e-03 2.96328310e-03 1.44148143e-02 1.04974378e-02
      2.24707779e-02 8.61236639e-03 3.33271269e-03 1.71513408e-02
      9.68025066e-03 0. -6.16800331e-04 1.43762017e-02 1.17651103e-02
      4.78545995e-03 1.30063603e-02 1.52745536e-02 1.19905071e-02
      4.28072177e-03 8.36188626e-03 -1.50765609e-02 6.53563533e-04
      5.95081481e-04 4.85451659e-03 -8.40122532e-03 -2.00811122e-03
      -1.54073909e-03 7.87966140e-03 1.92389786e-02 3.98015021e-04
      1.48193659e-02 1.23240752e-02 9.12840758e-03 -2.71273684e-03
      1.86311849e-03 8.74570943e-03 6.73062261e-03 2.44000275e-02
      1.17218466e-02 9.38642863e-03 1.23189557e-02 8.72496422e-03 0.</_></support_vectors>
  <decision_functions>
    <_>
      <sv_count>1</sv_count>
      <rho>-7.0269205195565765e-01</rho>
      <alpha>
        1.</alpha>
      <index>
        0</index></_></decision_functions></my_svm>
</opencv_storage>
